{"weights": [[[0.6164865632196097, -0.5300500987049619, -0.6088627487529041, -2.2095125148957124, -1.000774007088025, -0.5206364534776337, -0.8352333621603009, 1.4550572404752211, 0.20050912038767826, 1.430771233381611, 0.8757633689501423, -0.7636491426649346, -0.928934579616252, -1.0173025488498135, -0.1642650055983258, 0.2191511255468353, 2.041197944152265, 0.10254886361375129, -0.14434717732451516, 0.4023596469868799, 1.0012985152449085, -0.09731786340270936, -0.8295770196416598, 0.4497241357468023, 0.2018303189631261, 0.3175878422870446, 0.1154987979243589, -0.5292657736812879, -0.7485579409439657, 0.821118452750556, -1.10950096592042, -0.936590674829849, -1.4772552096653273, -0.8394365253735182, -1.5858342067759923], [-0.8895332026255808, 1.0463257971248947, -0.16625834831960273, 0.9849722593000664, -2.320147935616101, 0.4349718362199885, 0.7074097646098934, -0.7455854808931017, 0.6813787436622666, -1.0552762707057795, 0.755450703026434, -0.6565269180215759, -0.6976275793350869, 0.45837439100996646, -1.439101143723535, 1.3697919799315699, 0.28993356522459923, -0.42784560969324625, 0.11633349654612543, -0.7158288724222509, -1.66471991352129, 1.7109935528340532, 2.356669651982002, -0.2477941706383034, -0.2416887913401714, -1.1428328255928029, 1.5212020136535178, -0.10659337424854629, 0.20014663636177804, -1.4864961228327294, -0.5528278349045564, -0.14273727273295436, -0.850468869516842, 1.1525513279405637, -1.5503054933494804], [-0.542036858066839, -0.04724573497676666, 0.7568775372740827, 0.5216945366773996, 0.02765737471424894, -1.6127244988004188, -1.926670937009464, 0.14847931154814195, 0.6495861114162443, -0.11109028651915444, -0.039512258182206536, 0.4541197351292307, 0.4046454182229463, 0.33062539840811445, 0.7638733144143955, 1.0420873670312363, -0.3145162062161686, 0.5073075826275584, 0.6525701701011353, 0.9789716940610584, 0.6091097364104763, 0.6638812569398145, 1.5416411395318539, -0.32679637240766, 0.2326590704851467, -0.11632535277842365, -0.8923592800313214, 0.3789009817740709, -0.4840006965397837, 2.64266926531654, -1.7091512197750967, 0.6377185337489586, -2.161467133360686, 0.08788362137541625, 0.266667253822711], [-0.041494413087228836, -0.6439792109585305, 1.5456193991983351, -0.09963962404397689, -1.3935100207326507, 0.8706842963323267, -0.9381579594381284, 0.009797787955752877, -0.21245558425601685, 0.40577491101021657, -3.3830006298055744, 1.0729605066773993, 0.03074959575883293, -1.2449902610413068, -1.2692927268252034, 1.5813731494228795, 1.2552671708574543, 0.8879684648690199, -0.9910434948514788, -2.875604203318272, 0.6677381761622555, -1.9068923904522384, -1.9726167534097974, -1.5837804740470582, 1.3726510510478953, -0.047445823730101123, -0.4267147436305164, 1.0639146943595166, -0.14715965119592786, 0.06677405218328522, 1.149529201890252, -1.1914656654058204, 1.1005092133099277, -0.05086762068724797, 2.151761190239174], [1.4490749128868416, 0.375232084231661, -0.9098972999212888, 1.4413480748353058, 1.260722289744626, 2.029563100291413, -0.37148049630409063, 0.5508205997612726, 1.5330352449406583, -0.7836634148981056, 0.29144917306196155, 0.6628426658539108, 1.2320926860891, -2.790031675953348, 0.703224243114312, 0.2360963935712239, 0.3067135518705884, 0.8346269040980897, 0.5960560136362881, -0.051014792008915025, 0.02144104992079682, -0.2944030697555104, 1.2361187712351038, -1.1642016238125774, 1.133459451631064, 0.6194812357608718, 2.666068117679057, 0.16170939622111008, -0.0810426334736154, -1.5447444593538284, 0.13881047579317707, -0.014165960745319244, -0.6681922590877788, -0.6266014899765953, 1.597963238680713], [-0.7399770334838671, 0.7843777681564912, -0.02219421019940693, 1.7939073201350608, -0.022538217659608728, 1.3464617649720223, 0.4819420293356635, -0.1944484845127923, -2.4430943264938203, -0.837296818210352, 1.376372002293765, -0.9306224080070744, -0.5833834328806943, -0.0580475847518655, -0.9675825920457745, 0.02546030392802358, 0.14217932407032388, -0.08240296575155355, -0.15366837905605224, -1.5806954996797158, -0.5622648592409596, 0.2250710980275742, -1.7777352639327482, -1.0421058873597788, 0.3029398035996104, -0.5619579195157391, 0.6932345004256555, 1.2857326553153874, 0.7229665580278679, -1.8325382819996205, 1.0952002268203007, 0.1662280654787241, 0.45995353484723006, 0.6093848361296613, 1.6353396112231553], [1.0340187445206832, 0.982258121387157, 0.03784021528273434, 0.2904933775516012, -0.9666080255534503, 0.5742928174220774, -0.9749579879701848, -0.9935542403248, 0.22689931305221647, 0.7610700171094977, 0.11157470662785526, 2.3926623236096582, -0.5529598020945395, 1.730168673097519, 2.214521223617102, -0.09785716127989828, 0.6726549058187274, -1.396526538589863, 0.35341128400878363, 0.1720266811281874, -0.9011882744176489, 0.23946613534689365, 0.14933953010318454, -0.6642615813713191, -0.1397508688708462, 0.4895266539191862, -0.6980611494087693, 1.4101018106218792, -0.453199558643291, -0.050294041717460464, -1.131744457947034, 1.218572483354581, -0.14742520699416659, -0.2037816104372784, 0.44060000436030516], [-0.2438617537164883, -1.3313550550818658, -0.9915914188173501, 0.008470841916912658, -1.6270178054139273, 0.8218987459100157, -1.5194726492099335, -0.9507904559489263, -0.39264747243626863, 1.2097777190322063, 1.546074215989443, 0.4082496295010119, 1.2406244509263809, -0.13604033587662587, 0.5082036980740043, -0.6098619177271578, 0.8785512490127794, 0.6736547242853481, 1.2734148156456704, -0.78761086086317, 0.450574456400521, 0.3353345530458407, -1.0766463471476764, -0.15216428940313942, -1.6056565021774445, 1.9385988453640899, 0.17585696576094625, 0.5675158105654835, 0.7308936839289385, 0.618992224388638, -1.123917449990812, 0.22162948060009074, 0.27825036616606136, -0.48701655341239997, -1.5686089856611205], [-0.9104161646652907, 0.10703307498835071, -1.4038341169074666, -0.08644182686378497, -0.3057728953053768, 0.0012571483701855663, 0.799132167365454, -0.262105853298821, -1.4143019175853582, -0.686687132415909, 0.0608258576600118, -0.10383182477162348, -0.725547345522615, -0.053502035294171565, 1.658741297819093, 0.6819448373814754, 0.6595837255599803, 1.1606927234519895, -2.384091186682696, 1.8464897218141703, 0.5796886542876452, -0.14620099960936195, 0.27375682101468235, 1.233169505014189, -0.00022777218879197964, -0.06667670470652645, -0.2206436464094515, 0.040679655496737466, -0.7710227633250664, 0.5344400182620901, -0.03240104646672984, 0.6743055290082005, -0.8065853333164721, 0.21003284481836454, 1.384799896952408], [-0.7986279659354367, 0.5009025158534312, -0.1809452298782904, 0.7020843631013733, -0.7729718840255203, -1.1393910660603574, 1.7747372840816649, -0.162416291025586, -0.4308889308764872, -0.6126499564255585, 0.2317975598385701, 0.2960363785953938, -0.3122746034578316, -1.4096763698236472, -0.4545724230451013, 0.47802790113041305, 0.593840095995724, -0.36165491788736837, 0.5712286302063085, 0.24300741245763494, -0.3464827663681893, -0.5351902533917573, 0.6913288059562123, 0.539520071996789, -0.4416763220766155, -0.1932389106687869, 1.139972374979975, 0.5537650822188888, -0.026691844381595633, -1.037317744939323, 0.753045698700182, 0.20998045947960411, -0.8196853455525388, -1.6149592034805171, -0.8771406722740063], [-0.6370158416680851, 0.25936759048654967, -0.41610536884672367, 0.7118822118503214, 2.2250947181197254, -0.010097707525763836, 0.49481773388781014, 0.35498701495955454, -0.1957765008462798, 0.8644362519620763, 0.14214054072859042, -1.6383756656738535, -0.031047219112835908, 0.41100940214545106, 0.6799063832473151, 0.36049719723694873, 0.11346202615673613, 0.9060760588512262, -2.400735990277497, 0.11847069431855495, 0.3335020762988782, 0.5433886275599276, 0.08289043577893958, -1.340911738115112, 0.5046144214782531, -0.8354953751394293, 0.669048322774574, -1.9880311645214026, -1.347021632904832, 1.15479691188012, -1.2525592068904545, -0.2132924786483828, -0.6562175876529509, 1.1619331197370595, -0.9918532980852544], [1.0646975209333853, -0.9008215323642855, -0.9377653093152916, 0.5902480313217234, -0.2053116310451044, -1.1710686644989243, -1.491443934931937, -0.34734488967615956, 2.0528823317826235, 1.2099922887776813, 0.3079988653333817, -1.4342378405376706, 0.6132692430586736, -0.6784006382137481, -0.06505632611978145, -0.34851391284086475, -0.3405326664646437, -1.7339272910725843, -0.18457016088849598, 0.9990119672387355, -0.3755132829939857, -1.3715394149947782, -1.072839287891271, 3.0200503608491016, -0.2191921603895606, 0.8608443701224336, 0.8426983484855975, 0.1067568703173431, 1.5019980660206638, 1.5653252281400432, 1.1290172668672223, -0.12093208244310004, -0.3978125185383186, 0.852104961010572, -0.6156959487157517], [0.42775705352106663, 1.135757710715283, 0.05673033325373231, -0.5744913608977081, -0.5411522090124042, -1.4741114724154, 0.8608557794591509, 0.5475765436870984, 0.6568474459999263, -1.8504821724748814, 0.8161833872421355, -0.008444393833341694, -1.4249876106549892, -0.5122203830233395, 0.7557836069858532, 0.8257168482804558, 0.6480719337226183, -0.7400435996307559, 0.9458907828898356, -0.8482900199425873, 2.0926969899069707, -0.8511096180639578, 1.3667951637387188, -0.662719387057741, 0.6093537022293501, -1.3235115437730411, 0.07065258921886919, -0.49569398620192195, 0.442437914057312, 0.7552926893239106, -0.5831665673522028, 0.11744329315141748, -1.195722617754132, 0.29871415480265473, 0.5942555426336251], [-0.4017796242791593, -0.3986486070993891, 0.761621762128637, 0.3377042897024394, -1.0829604836016404, -0.5984419901141497, 1.0113185527213064, 1.5509527211328276, -0.13928763881333045, -1.633796187917911, -0.8560378689763418, -0.202671762183681, 1.397296007990968, -0.7509290368945675, -0.6157878659067886, 0.9202175382702896, -0.1691547388953222, -0.24182665973885803, 0.06986387060630661, 0.16979467851400065, -0.4419293828743492, -0.7623350928087193, 0.2889182830776621, -0.7409844154813718, -0.037076506157199596, -0.8572352347150918, -1.2534099829330836, -0.2948751805616096, -1.471599890513787, 0.7710914917632857, 0.332617322076059, 0.7819201771434255, 0.3768639701227042, -1.9122652509853002, 0.46372996863738364], [-0.04875854170696049, -1.0308132226496078, 1.7032596050239044, -1.240796259555748, 0.1863028755208538, -0.4669919284133219, 0.8535245701071266, 0.9140815137125019, -2.471625657626014, 0.13744049436891745, 0.6791911273546136, -0.5845620651081688, -2.3516513145639752, 1.6700754257213966, 0.3041479711651206, -1.9042828193111845, -0.7193306977807428, -1.554936046624274, -1.3167249761393822, -0.36930382760215463, 1.1045386837485744, -2.364804556136798, -0.1526132580749331, -0.24816930492807293, 0.8897193268871676, 0.11762522368620752, -0.7086419713883114, -0.22661898691706062, 0.5207871941631197, 0.885004184501383, -0.17410025371113325, -0.7320299195628648, -0.2054937085523594, 0.014992989308609872, -0.3215433439198894], [0.4807657645866253, -0.004043512683622106, -0.7556602157646389, -0.35313366593654594, 1.3227720740738105, -0.8212921536246138, -0.5265073424012245, 0.2660048261094141, -1.201170117359591, 0.33752789338036243, -0.6835864392182462, -1.854468804132581, 0.17036763829851684, -0.007506716548753894, -1.0417404392026115, 1.7194270976371546, 0.8843194780598689, -0.0634439926393812, 0.3700920144265215, 0.945442190048142, -0.4576677392315146, -0.7941572968717222, 0.5369892337979852, 0.29396555886411374, -0.26623663114077084, -0.21716721695290853, -0.01938429481322867, -0.007412680783266733, 1.2808423207132595, -1.5796143950388992, 0.262050047814883, -0.37768304668051794, 0.676344992217403, -0.10189577582398333, 1.5386035639838276], [1.618387166300653, 0.21313515412395798, -0.8744612425215517, 0.5232699011990196, 1.2588697914544595, -0.8103830741527726, -0.15287742989031802, 1.4654638633630597, -0.8550332068991214, 0.4905441584047535, 0.07162218461352259, 0.5008136091964883, 1.087664599746941, 0.14809937574346305, 0.46956271698295926, 0.8230929835059497, -0.8803645599186158, -0.8315957660292146, 1.0311261072520181, 1.775352223176431, -0.3953277616052578, 0.20680834860287417, -1.1624784583477705, 0.4629200883979509, -1.2027121065622515, -0.6354596637534158, -0.15217867837493287, -2.236259308191084, -0.016797958894201773, -0.7893693832317558, 0.31330312704673946, 0.44791457641094207, -0.03561103504081848, -0.9291577490193346, 0.3329375444210429], [-0.7631372276691405, -0.34508231078313395, 1.093973560624323, -1.8304649410254672, 0.7041398334180956, -1.4047697326083937, -1.4245206487192072, -0.6871586922377148, 1.4404376409894126, 0.04468242597739661, 0.05437240742680457, 0.7164039501827177, -0.02286010151207692, 0.5058036895655704, -0.6462417602703506, 0.4520671569762072, -0.10189152162310143, -0.8386587576332222, -0.6889928205607738, 0.6744221519228252, -0.903856325569748, -0.6023374845818926, 0.34217868285181396, -1.1582591653870762, -1.186776505959772, 1.261054648705644, 0.06780599359577258, -0.2842656482270852, -0.691691944174696, 0.6561771563940493, 2.3603737113721226, 1.0518073241735282, 1.1715660103056493, -0.5609976220434362, 0.8637845646604931], [0.11764917717046174, -1.9806464841866869, 0.015890419607801402, 0.30643521201366436, 0.20146316847484103, 0.053191230335135786, 0.7577809352555238, -1.408009645776396, 0.5008902455360789, 1.4217738221452574, -1.9556137175736366, 0.5821837540829459, -0.13293586736495666, 0.2386247903039196, 1.0800239593413052, -0.6422948670730214, -0.26977975186216147, -0.2791273924992444, 0.5952214754996131, 0.6548641213212829, -1.3336017485973686, -0.4928303126975111, -1.5432484159433575, -0.8863354084762844, 0.6877540728677246, 0.4867686585787203, 0.6811822891014392, 1.6969465457765815, 0.7240491254223257, 0.630768230962568, 0.0583715629805602, -0.999431432313399, -0.19584057953106462, -0.14974519432440744, -1.020009593897646], [0.6426220210136616, 0.7109789033972634, 0.8459658994100657, 0.04986824325424536, 1.44654462157263, -0.42770936013512084, -2.1406049656864887, -2.183120515018574, 1.3432516678769628, 0.6008057344925012, 3.167204138255187, 2.2787361519383103, -0.38365852820251284, 0.23948089163385472, 1.964359190973745, -0.07019588627169528, -0.6621460382211408, 0.6905294088284808, -0.6358724675816679, -1.1071236449807726, 0.11682529319192561, 1.1152736372931251, -2.160196911700434, -1.9778701364361728, -0.3984811125437223, 1.0421382140273767, -0.11286072826138652, -0.09512411724688212, 1.895967552659333, -0.8711787202049445, -0.7582887909824615, -0.21984655310473422, 0.43681005075012297, -0.05152242525963338, 1.9908002894641819], [-0.9496254980707448, -0.3202424855852242, 0.9080222541124858, 1.8228264948550768, 0.2830963115397844, -0.49120133476256056, 1.1336289888843532, -0.4546571940322355, -0.27682519724775817, 1.792042719463135, -0.2525846050578096, 0.6787007714982364, -0.7335819013294255, 0.53863214595087, 0.16994002029478497, 0.7051625077284838, 0.9649320935293022, -0.2477340811554877, -0.4871600694461771, -1.642934507645387, -0.7144194353895885, -0.8554606640190601, 0.0627868760660968, 0.36138685296950884, 0.20240209150770375, -0.9930939424097741, 1.7389611910230018, -0.3197328804603487, 0.6828765943399824, -0.8258462461889802, -0.04078019427156189, 0.025596750736426897, 0.4412823367335683, -0.4839981327650149, 0.1997039227713498], [2.4706996881071372, 1.1431498537055298, 0.8602863580850054, 1.0636660326746268, -0.39814138771527646, 0.9646744501504637, 0.805087513095593, -1.2385129318260102, -1.1879901637950545, 0.9730350512324661, 0.6044451312204957, -0.24895439390507, 0.26900705693975974, -0.020969305133794726, 0.3106369026643056, -1.7501169147735562, -0.5151625537829553, 0.3514454217396072, 1.0841841238610475, -0.16446754441395664, 0.7762961660552852, 1.4264455682852506, 0.09378447939870709, 0.6570404551561643, 1.0370619752872559, -0.6780208233886642, 1.5595510443008913, -0.7356329448066065, -2.066662944312811, -0.6491850773787808, -0.21267743381833826, 0.740080508826404, 1.0287339558834356, 3.0281290518409327, -0.6514628067843751], [-0.9155083800730414, 0.3837503650065949, -0.6047246273498327, 1.0775623661678768, -0.33133704152662274, 1.1174285698531066, 2.126199458007596, 0.5591860690312751, 0.9316286616116483, 0.004905669577566253, 1.2553189976312897, -0.2750423215561172, 1.329945232752358, -1.6765184479019177, 2.228788150307875, -2.2650539470431617, 0.6240744223534068, 0.8534692752240843, -0.3018689211817835, -0.6038616204014845, -1.0142327963186584, -1.812943810256478, 0.942470372705829, 1.0603008278113362, 0.5454396537838213, -0.7647196245685874, -1.1025841803377747, -0.9898081865102523, 1.9393770027228356, -0.10342317448590693, -0.5693316523898472, -0.14606331232535688, -0.5295782638548702, -0.6285092499584571, -1.3388417310494451], [-1.2377547376806028, 0.9737068160042399, -0.15639728391157123, 1.6119546252540438, 1.310198341458348, 0.700650074847163, 1.0848192578360787, 0.3293672891452756, 1.5050722290585377, -1.1595734496245698, -0.5155642706190232, 0.5423617209616053, -0.23537979536074702, -2.815287208119379, 0.2534552108862237, 0.8386149946512618, 0.5600490083261361, -1.751643463663482, -1.1615473928498914, 0.7998802000420965, -1.8801167012686728, 0.8186077678097579, 1.3033073180992225, 0.4457051175599563, -0.23350625274845435, -0.16180446182813882, 0.5502026339159631, 0.8252619087965032, -0.5093384640314811, -0.046715954908434, 0.5694255053499144, -0.8400795236650817, 0.9381694921424177, 1.9442231594733514, -0.4631707876236714], [-0.9071637223345996, 2.377449526370043, -1.189112327907825, -0.009058522922997693, -1.8219273694683487, 0.9637834495648465, -0.16112131620415002, 0.5278234139607163, -0.8906109477624745, -0.026154470802461718, -0.6110879019335934, -0.28380799610772733, 0.8176552933563309, 0.8810152687606134, -0.7308159133321689, -0.6467253720978182, -0.0023437816209542378, 1.2290739680360643, -1.766392032506863, -0.5275645130490095, -0.5532265000260297, 0.9267585022777399, 0.9555404224282757, -0.49186446778199594, 0.17652769905366772, 1.6579736441659012, -0.27175704815025475, -1.3160077229360645, -0.9539094508061651, 1.2824176398896092, -1.1466450336522382, -0.16775957688513182, 0.8772115407074491, 1.7141228764562624, -0.4080439727627431]], [[-0.004850710739176073, 0.34741337788373217, 0.7075695907883955, -0.7070050211554924, 0.6191230704494216, 0.7710948362456266, -1.116251559725541, -0.8453194041729907, -0.391379623585395, 0.2034900846974216, -1.2742182710660517, -0.351186659509693, 0.42312782699407625, -0.1667995657367916, -0.44229473945322695, -0.7496669349066584, 0.48369710300512125, -0.716707814695796, 0.46276420320375233, -0.7741763645090879, 1.008607998450548, -0.15381481251046134, 0.2216657046546032, 1.8510611440229015, -0.6996907159424149], [-0.44964486438062407, -0.23409672348375737, 0.1830964862041764, -0.5367589433500847, -0.46404807293118655, -0.30036344626818506, 0.12858496165119307, 0.10043466602083674, -0.7707193531018796, -1.0548659507876752, 0.38915577310063854, -2.055694369126694, -0.6002962187816484, 0.44833039956439685, -2.131978229934507, -0.3717917247703085, -1.1407347581685605, 0.5099458663603124, 0.8205738157731839, -0.9440234822259432, -0.4052158652305397, -1.2299308849052055, -0.5284711633718597, 2.299127076209836, 0.3455783626946989], [0.8257810592567641, 1.8218925365770877, 1.7390450228048184, -0.3718190094174082, -2.3242919244717117, 1.7499653175189318, -0.6566535056551788, 0.24799212106614874, 0.5645516999363293, 0.8549100847315498, -0.13457127486644826, 0.6897891899479511, -0.7065435775548277, -1.0838227769177482, -0.25531996946511887, -0.5677297694052585, 0.8041195580857703, -2.3175438397595562, 0.9441704002458419, -0.17833454842153493, 0.6056856470067776, 0.6488332986770906, 0.5409335765972405, -0.01205065739888657, -0.15386990719640298], [0.5042111067840597, -0.7086436132491527, -1.1206079737484715, -0.7980502394112516, -0.28158703649328026, -0.3908375152628167, -0.6397562664745711, -0.15086502337757596, 0.329300649901573, 0.7290709495641423, 0.3243898464348619, 0.10980321423270983, 1.38605548777057, 0.8901807761883662, -0.2624214933543869, -1.6518021622883141, 0.031477785259257846, -0.6453506869891097, -0.12645832811651228, -0.000680931703310758, -0.6325574051208434, 1.039951293135282, 1.3686058308086313, 1.4436363593487813, -0.039588606490112845], [2.1106480606185967, 1.947609322542792, 0.17908673588308222, 1.6683644977216845, -2.5741391452133984, -0.6793018090471233, 1.3057266834280377, -0.7296787667728908, 1.9566060884005758, -0.47619351014493916, -0.287745145220018, 0.051429849086465765, -0.14707307506688497, -1.6325555973104988, 0.02109988863202055, -0.18441805423617844, -2.3828430440596122, -1.0042739372788096, 1.260267446426926, 1.5004954518987268, 0.8116924468190713, 2.261774473410164, 0.27648901803290094, -0.35104181880685453, 0.18806276655503001], [0.5483803563725245, 1.6655445630052805, -1.4780977212403985, 0.5970219922824583, 0.5631096354397503, 1.0793044056755543, 0.19119272989937297, 0.5578241859315206, 0.7108602621950396, 0.8667163545528499, -0.03991387692641844, -0.08552684347439302, -0.4236900154038901, 0.9639144902352785, 0.13594518002441994, -0.06145553885404979, 1.1125565061330656, -0.5004910027918811, -1.6332675968585808, 1.228131766945567, -0.08384155289232045, -0.13084822561471932, -3.5219774604339795, 0.43804134726708555, 2.102769747574505], [-0.7995505496115335, 0.4765714427809195, 1.134317797646732, -0.7994875669439196, 0.025425511856111416, 1.4571322986158763, -1.6635003987753385, -0.14708351279633786, 0.830514487559161, 0.734352857627281, -0.7529192810181583, -0.9952709632856019, 0.8293668564608403, -0.1753744456778151, 0.5124674936355662, -0.7813189197912109, 2.9337820881920016, 0.10338637294953067, 0.6411858652445583, 0.6640016149026513, -0.5041504178753974, 0.14668220194388404, 0.7143167471162745, 1.223723659172788, -0.5065252185708614], [1.3440410633677156, -0.10730025199635919, -1.4267732741482482, 1.3075340495120438, 0.5493026764728063, -2.3498752911660024, 0.6810837665624458, 0.38715075090648454, -1.6514740098091762, 1.116251022292414, 1.2392498908134684, -0.30582128018195426, -0.7131125458345413, 1.3143513655597778, -1.5706304259905823, 0.6934905242867259, -0.005131231713047337, -2.900192657309752, -0.019376913493258333, 0.42438653120540415, 1.1328437236402478, -0.316181006911722, 0.42138634180637125, 0.3415938463003912, 0.07366615902940749], [0.7017194765812585, 0.14935798764070216, -0.44719685108295715, -1.715473000947047, -0.20300177279925916, 0.5172526856782382, -0.05633090550688594, 0.7189989558718137, 0.5340582105670769, -0.6332702291149375, -2.5406492516816273, 0.358949512701943, -0.7420713465650047, 0.3765457564844824, -0.750683727992171, -1.8143671976019127, 1.8397905448190697, -0.3208247230434394, 1.207974402937959, -0.4749078101511134, -0.6306000395311814, -0.7518389272278996, 0.1768331274693545, -1.5293973752018712, 0.8365580901546069], [-0.5323278450535353, 0.009425887833413736, -0.7570168547668236, 0.7784856566861403, -1.047512350748839, 0.33082552237703833, -0.4371157845119626, -1.553959444716242, -0.8210685396251979, -1.0400680029770917, -0.5413948646915563, -1.0305619216098563, -0.2404400555190308, 0.0390347774578573, -0.5495379109387617, 0.2869714329658735, 0.6060799470852786, -0.922218753979915, 1.0840016509644965, -0.039231059295708304, 1.469535422902511, -2.8291006123298343, -0.6308560104472207, 0.21389497703781196, 1.1980813783096067], [-0.5369151776405301, 0.28003303397195506, -0.05313119109506987, 0.0840195264738081, -1.1144329694001474, -0.28941348684439383, 1.210623456936228, 0.4419530338001321, -0.04010954386558362, -0.34728703395705113, 1.3834562035456113, 0.9334992535771286, -2.564549575460662, -0.48980107060908123, 0.5733652849305954, -0.2790477338287493, -0.6051611069634216, -0.7627518841153282, -0.09855604044039783, 1.014292911136572, -0.5969783315227131, -0.40441147354215606, -0.6300396608171456, 0.6314122079690958, 0.3004991055294689], [0.03193091650592017, -0.20376047421351426, 0.20719053098570125, -0.7632229591022734, 1.217374957035861, 0.17667547161090605, -0.5145854841498045, -0.7767148519943062, -0.054475360968444755, 0.1086864913933348, 1.0055055533468522, -1.8440869637658943, 0.6072742068544761, -0.5398289593035923, 0.5607558794833721, -0.3349486076576449, -0.38638849511550255, 0.12347683328738891, 0.2779458045222207, 0.0158697202866174, 1.6135548669506723, -1.22415476774151, 0.1871302486040189, 1.0121260816117392, 0.7581013496934291], [0.8585216981352267, -1.445796712130728, 0.23873317777913017, -0.13116759603797978, -0.8404896983801436, -0.9026056763519137, 1.1730485369749362, -0.8802149476195047, -0.49727117628101947, -1.6415281770700416, 0.36615000089707284, -0.32486842806340177, 0.2279145834323487, -1.3044878011749543, -0.046474099758540666, -2.0363458365398945, -0.5560336923222604, -0.2010421582464461, -0.22038388243047727, -0.5006688384780067, 0.4735475252107739, 0.2724718279096686, 0.4262281068614978, 0.2912979904503147, -1.6210775073252122], [-0.3962566711593701, 0.8461622504860187, 1.9672945407870217, 0.08621532799972316, 1.8609076260215511, 0.9764679805429762, -1.43221169060529, -2.9582379598454716, -0.08506536544632681, 1.0478862937514064, -1.1935675895820574, 0.580391516682196, 0.5284062748350092, -0.16735306907914826, 1.423568427446766, 1.11634879366799, -0.5884540942339535, -1.1934293189384864, 0.1286012891277664, 0.593930900331401, -0.4423032060370089, 0.49486657457036504, 0.07612808424581764, -0.08081843629432096, -0.42525683184541563], [-0.11404760140134822, 1.1477686459782677, 0.0501317843606321, -1.1169928603688648, 0.2279488361735769, -0.5050754590125742, -1.6676216094791574, 1.5335184473000516, -0.6499948713200868, -0.16976744068859959, 1.0048013303861485, 0.5326390060112483, -0.6279093286335239, -0.2193110998915018, 0.03963550215505084, -0.5559805134627003, 0.7214274377045972, -0.10390869966609287, 0.9258594860662602, -0.7609309400567389, 1.6247312147035968, 0.749490452584613, 0.5333425475141089, -1.243329610263042, 0.29106843540668853]], [[-0.23875194965173743, 0.07136357924967747, -0.8291787988702333, 1.9391275395291183, 0.18614163331282607, -0.23487930519184708, 0.7487581072220105, 0.9933582399878745, -0.8530818229195997, -0.37804111664024614, 0.16472723649182638, 0.4828054290780073, -0.12479882620868869, -0.06763543580362133, 0.16809629258355951], [-1.2541888019021439, 0.9627276183507786, 0.8573906387420882, 0.3629071199470646, -0.027246075112897075, -0.8108090074466385, -0.4282542347416417, -0.7219509835574173, -0.5798705016055797, 0.25226129263194885, 0.5791781284269529, 1.4904979733144759, 0.05486157294207768, -1.1716617950172545, 0.7724098623561204], [1.4033978427993525, -1.4274288513265367, -0.3121089378991017, 0.32789632711046796, 0.1611045086054885, 1.0079460485597116, -0.7371275325522559, 0.038858224224152325, 0.3170938713563054, 0.9761601886796957, -1.2614141645857428, 1.053626564553113, -2.0827675302808624, -1.063066176705028, 0.9786612160646466], [-2.380059923069778, 0.7040395737514598, 0.7441698748925688, 0.25011798219388337, 1.0422010084285869, 0.2541564243732086, -0.9546869238456918, -0.3150573869399242, 0.573054107985857, -0.10283486686911605, -1.5794327949813247, 0.25707138629090126, 1.157904001548243, 0.6376308079778185, 0.12243782107882657], [0.07570418390120043, -0.07431825220703386, -0.21546468734424135, 0.19720180724654635, -0.06347595753213585, 0.17254352873881607, -0.4616320317036009, 0.5003434488944511, -0.6592403150846543, -0.13745376318500468, -2.1759919141166995, -0.07310311998979967, -1.96288537588402, 1.104835385535097, -0.7362218437448612], [0.10668038564704953, -0.40842675244899296, 0.1571819165901363, 0.8653309062131441, -0.5851314145696196, 0.9470388214683555, 0.4818852061673142, -0.670985552460194, 0.5711269415897599, -0.5069455916875871, -0.03773235206628714, -0.9617877687976055, -0.5434099774645935, 1.4320323194392357, -0.035437628645646174], [-0.5415479976002743, -0.49535067494912177, 0.8904968430194506, 1.1041731470411462, 0.7729386798812633, -1.7338587153379406, -0.14408265953495183, 1.1671383079061315, -1.6356850627571562, -0.937002590858091, -0.17854674146326663, 0.1634182564439061, 1.4735559998295704, -0.3102736726475093, -0.8682896000143975], [1.2867895713563469, 0.6296633392905696, -0.8022109361748389, -2.515905102066495, 0.38006032956436325, -0.09836882739697562, 1.1521133376542734, -0.44836591531358955, 0.031867858959073174, -0.27673894382470693, -0.5152097861956607, 0.8531097502745184, -0.6683146620587659, 0.7502585382827156, -0.8018988572185366], [1.4499111917302423, -0.32621955030418787, -0.8521658079910106, 0.6128924333061534, 0.5661795480503314, -0.86236418697442, -0.6668937744048391, -0.5114291392604721, 0.9411445354361775, 0.8185638166256458, 0.5456374193696626, 0.5763811143458791, 2.2536242064413297, 1.1933531579066665, 0.7256068733465225], [-0.5743750082433303, 1.1468099102554983, 0.2746125135469051, -0.37971031249794396, -0.6762063886626392, -0.3415383306545635, 0.7835667993450331, 0.7058831808201506, -0.13538453882468052, 0.5140028082537882, -1.0875436322618133, 1.106108587675289, 0.6661541171484079, -0.2797082780664704, 1.830213738125505]], [[0.9026287900217179, -0.7721795186161432, -1.6265455995424334, -2.1225384035641626, 0.49243583159073695, 0.4314499283236127, 0.055990645512279655, -1.1049830683479265, 0.27648981270974804, -0.310354253307587], [-0.4266257823076635, 0.3896853330672713, -0.2231815698251501, 0.13770343716835937, 1.808665311321081, -0.4554486664421828, -0.06693378497278576, -0.10156563594838335, -1.3909056714287515, -0.9361977321652521], [-1.2202208766619778, 0.47389430056581444, -0.214785726137834, -0.2695870243075893, 0.9234112894426344, -1.4756027293488423, -0.08066534251118843, -1.3090957117770796, 1.6941998260554074, 0.7686347447930345], [-0.31090312337634857, 0.775449308454612, 0.6341382351935806, 2.2841979792872142, 1.0204050690345665, 0.17741673639450234, 1.7752641757118037, -0.23072523844902865, 0.4690981847799272, -0.32314627218831693], [0.4743481725961905, -0.628529058538771, 2.062351414782135, -1.214321304826041, 1.8467667762605322, 0.5675039259584623, 1.2002204563854149, -0.04343013626939307, -0.4755798958723533, -0.6231378977233548]], [[-1.2089436794173418, 0.8688742526429882, -0.825190345308747, -0.3685413363634983, 1.0929640922729396], [1.297107933636946, 0.2183715139051478, -2.3431104774636786, 0.07949953521294117, 0.6930755457139728]], [[0.5242657067616185, -0.12569540433126486], [0.8136110759563747, -0.2873728166622508], [-1.031898565951887, -0.11346069155797651], [-0.49172655945209715, 0.4360245483471857], [-1.0717575449437309, -0.3639054843248856]], [[1.1083820712054189, 0.4404120735312777, 1.7833929037504461, 0.6468365272679855, -0.40371776693596373], [-1.0669040959088545, -0.33891088179284584, 0.85269995579447, -1.1820167092336864, 0.32903904815661095], [-0.5626437705777262, -0.5908881226581867, -0.22032899776373122, 0.6393943850996316, -1.7329009433126952], [-0.27224848460231516, 0.1993534730172432, -1.0964457124648672, -1.7438234430206148, -0.7475262834823855], [1.4713387203158865, 0.08819450561409523, 0.32773458832925023, -1.3448127963893022, 1.164331665729151], [0.16401494478041917, 2.8033815669118156, -1.7350945083868834, -0.23168109121808922, -0.9403102158198897], [0.17599422673056173, 0.14059843490800186, -1.1264400667472947, -0.1351789507715026, 0.9316827215138911], [-0.8500392048102322, -1.7187705151121164, -0.4742936894595464, -0.03357162561323487, -2.4807920621141664], [1.5865941818357943, -1.9891503725983333, 1.6805398959904756, 0.38726169352432754, -0.1468605017443988], [-0.3955638063179595, 0.7842317956035548, -0.46954724290730643, 1.9457913403363822, 0.19245282689250268]], [[-1.3665726938625282, 0.17055258355252112, -0.09318096025346875, -0.1077203882495324, -0.8501609631295864, -0.6002814799517893, -1.7669159291307739, 2.012286759789715, -1.538740898713296, 0.35358659405268744], [-0.6419763991150536, 0.9511226730469245, 1.3480238868989565, -1.0243383833989168, 0.030864099545813706, 0.5074358124569215, 1.1825461864974944, -0.7502092918036143, -0.384687710347398, 0.12097670366266168], [-0.4880513403151444, -0.9457619985568172, 0.22564845752390514, -0.5318928546864908, 1.0195068195087917, 1.2495694271687754, 0.9758222640167394, 1.2160588612928247, -0.5043326843993389, 0.9685009369269837], [-0.3088008644931791, 0.06873932223205871, -0.19929951324669862, -0.2801028767824708, -1.0998010497588855, 0.38740068768371555, -0.24663379072739208, 1.721828260123637, -1.4389603558912651, 0.3305757545471951], [2.833864632126172, -1.3742124461045868, -1.5091978672540214, -1.661608496820119, -1.9186512302744287, -0.2019560341674868, -2.7267183569607734, -0.0319191565734432, -1.232678474515725, 0.16858617430739897], [-0.785715820144624, 1.4146283397909323, 1.9971610556435218, -0.9270211279569459, -1.1945865666015325, 0.03981579801689396, -0.7283535562653026, 0.14789389478620774, 1.6979012039201824, -0.6480581627142828], [-0.3759773660476714, 0.2745985263700314, 1.103040868529322, 1.806692825840187, -1.0713480025238078, -0.9201376582839167, 1.148826712582578, 0.06798331141784697, -0.3351651835280553, -0.7713214546555142], [0.24632587970322475, -0.5278137193131344, -0.2873445926804258, 1.056057725945006, 0.2938549548947601, -3.577706492056667, -0.6528034251671122, -0.23611316997383225, 0.8702744549855569, 1.9807495424410824], [0.0747215191328833, 2.0759766213401583, 0.8486507956853043, 1.2085690458658822, 0.8865667251452424, 0.915541101213718, -1.9588441771219944, -0.7767665208689031, -0.2487095600277814, 0.700317501160381], [0.14712731421835923, -0.40637101437571066, -0.8462869642877635, 1.710253735727925, -0.009282905554149394, 1.552672090735488, 0.759976779640173, -0.3120743367137789, 0.5239978162224754, -0.8344600872023034], [-0.15473059561592037, 1.1022493870194188, -0.26624301294831076, 0.28220333970848566, 2.385373220418603, 1.491022719806387, 0.28138142060005994, -2.0888848142374328, -0.3148721592009346, 2.604637573397692], [-0.3330596633957917, -0.24642741764803333, 0.3726199379883347, -0.2231247565532769, 0.5397293301219127, -1.6495619688169791, -0.9994403045295034, -1.843116600198737, 0.6105355068528867, 0.3400666579470889], [-1.1497687553805045, -0.23877542725717407, -0.3950847527823721, -0.9938563596928958, 0.39191807466933537, 0.05852530003402412, -0.4671828817402638, -0.9245628232783307, 0.23573972868909487, 0.17116662660009274], [0.5386684793329406, -0.8015427083525711, 0.059161977804452204, -0.13062848125094717, -0.2041475201818057, -0.7450719362490176, 1.5785680238585043, -1.130374032770748, -0.02175527602797672, -0.7981878584445221], [1.2015664165267896, -0.6494426215545195, -0.28740945054078615, -1.810506352542945, 0.5790664388630593, 0.22345206780687268, 1.2873088510436126, 1.0868203361967945, -0.9327948131101318, -1.0284015719355741]], [[-0.17382417650002788, 0.20744317973398835, -1.516867408296646, -0.1296311735228617, 0.7150612145551006, -0.43088249263497697, -1.044464511811887, 0.003691617265617933, -0.6188731789728088, 1.1986587337399823, 0.4456303259233366, -1.0968711922548335, -0.7073602353130781, 0.7282713864714969, 1.4011894529230031], [-0.63396026963197, 0.23842998489794265, -1.2551650377035428, -0.8662670649821878, -0.7306044970906488, 0.36523583964989487, -1.1317447305992532, 0.9540912213866051, 1.3374104592688394, -0.02907930485893517, 1.9816707475352071, 1.5870141758317695, -0.6013681288709573, -0.31478374827107986, -1.169258736374851], [-0.03385065259430763, 0.7645057021633782, 0.604217823855259, 0.01580807844603033, 0.07383932530724864, 0.2869706317501716, -0.6753857085639038, -1.9804009775405351, 0.24584650559682644, 0.9525600554673154, 0.002911955561878667, 0.7166914921983795, -0.21843173607673966, 0.9963295740920625, -0.3509305215820022], [1.6694304239368718, -0.21890740308462328, 1.2334969651076306, 0.6404721085267979, -1.0675214731144624, 0.3339484933062333, -1.278055320149091, -0.14980273546159556, 0.6548700157611982, -0.9099812723943755, 1.35014830421458, 1.0167354286103372, 0.7734371877897149, 1.1321913409794324, -1.3725706168485496], [0.31185765671432714, 0.7425097393288921, -0.8084463290096949, -0.08473703999382555, 0.01969823057133428, -1.051008580178939, 0.5773992113797327, -1.6242179397529057, 0.3353794754408732, -0.5108422170272918, 0.020199468194743206, 0.8608853978602655, -1.1714372380748455, 0.289795882554252, 1.1614668644635109], [-0.8259649394391679, 1.1247801886484543, -1.4636890912869311, 0.11336336918947637, -0.7489028206878149, -0.6074864950643953, -0.07233956620648263, -0.6913707631113478, -0.6215401385170343, -1.943129035560694, -0.2278700708189389, -0.1608232542851912, 0.2764659236658132, 0.8694231852951927, -1.1847970846268596], [-1.1677928914692992, 0.11099422446788991, 0.7684836137349295, 2.3276048518065964, -1.386607070796567, -1.4881626971339876, 0.09991998711713014, -1.2573487934349599, 0.3278295451168116, -0.537442012899726, 0.450158109085894, 1.2876648026964066, 1.441909282800647, 0.46710382633108943, -0.26009296514624586], [0.9736716769263634, 0.8980550541092601, -0.33831386164797816, -0.021368015299534627, 0.4868843900894575, 0.18923212992459812, 0.560520858195678, -1.7589428485746474, 0.26175787312281945, -0.7404092296415776, -0.37554825932952546, 0.6794212169368475, 1.7368639920743096, 1.0223276547802205, -0.9930563443106116], [0.10946571724263551, 1.4178034822705836, 0.692543334098117, -1.8748043804923162, 0.5111333632250786, 0.4691460267320878, 0.793773332021176, -1.8811421858758655, 0.3497863508657706, -0.8301159530397658, 0.8289488496090726, -0.2110969651595524, 1.7966809775024242, -0.1319993538048674, -1.810807206096348], [0.22207116245633302, 0.32617644788286915, 0.02410828869783432, -2.216947037610449, 0.9628825616078377, 1.3828696964247866, 0.5926562127883273, 0.02318515819572087, -2.001379285479642, 1.394852264508568, 0.09149644896869606, -0.5202358403050362, -0.04740268138130004, 0.08962975221755447, 1.136152103329395], [0.37819465590226253, -0.9668204539937464, -1.0589921736061187, -0.744367962871459, -0.142346506803956, 0.13409043151899444, -0.6388980137113195, -0.7977605182511821, -1.6699370705590257, 0.681718438962483, -1.1992806757124836, 0.12187497372999026, -1.1601869254345383, 1.797305821117191, -0.3069089323203139], [-1.8932389234632399, 0.6847698266307373, 1.7081823743709899, -0.10009473547184324, 0.38688133584455314, -0.3336244481121612, -0.1339452128018682, 0.42289259689665204, -0.20151388116823693, -1.4606534424355215, 1.4015250578268967, -0.22995809809284762, 0.4198736216108209, -0.8633080961672659, 0.8564279036766447], [-1.8078588019164932, -0.8262671344604633, -0.3983577726828414, -0.1210982931515881, 0.5011263071481246, -0.8688755911099503, 0.6174945596621767, -0.9508378710855374, -0.7233288161839563, 0.26373735745891574, 0.46446070150791896, -0.49750010264398, -0.2999710348541184, -0.48615374266980654, -0.9489956313422638], [-0.5353856089326399, 1.5123849482084217, 1.134247178240901, 1.3848433077007458, 0.5997270928372359, 1.4080627304391626, -0.49363547491451565, -0.7045583321941036, 0.787673984062861, 0.4288762174884539, 0.8642479765318682, -0.16238624033373472, 0.036415306694623055, -1.4063673739489073, 0.8492714445752277], [-1.0571562365478615, 0.810936979084213, 1.6305541065678035, -1.7263908304109747, -1.9979729186908108, 0.7798291657980663, 0.02818898026652912, -1.207014460211218, -2.2169818090268136, 1.2601860438884607, -1.4184384306864932, 0.9075802293452188, 0.3257998482819446, -0.4308208694051134, -0.6668534926428789], [-1.0586350650259817, -0.7676041665711735, 1.3234964776938432, 0.6112712091354812, -0.832665573115895, 0.059524773090768195, 0.5055550105561848, 1.234770964736336, -0.10307677163209841, 0.48719825250713983, -0.5996030369137086, -0.5389175547369198, 0.27441641094913183, -0.289454267930706, 1.2074800465331497], [-0.6256769278988074, -0.6264782372138459, -0.9971439129881827, 1.6543274918916162, 0.6491346448633314, 0.6924085557618234, 0.23079452323936314, -1.3373455863443708, -0.1893452019378351, -1.2231793218921982, -1.711631907050219, -0.01851833674263416, -0.2330647287963319, 1.0160902058704053, -1.1305112013062106], [-2.6704812905056885, 1.0475612511814594, -2.1554152085987766, -0.44645537886714287, -0.9770284601783833, -1.34403956812207, 1.1802723638947341, 1.1644301630999594, -0.5253196086664016, 1.1465861402145334, -0.0008603758245358464, 0.1140588083478171, 0.7546088937465574, -1.7744077253839465, -1.1277453304831802], [-1.1776017376386367, 1.1335254876324903, 0.25413489105334847, 0.7275573058961473, 0.5055528672670182, -1.0469950526383782, -0.054140189040540236, 0.6191775902826335, 0.0018692422817600004, -0.5125226403817212, -1.5255150194776483, 1.7436710337176822, 1.5459810008768746, 1.1031782175837677, -1.2347562504547958], [0.616979195074419, 0.5161684713796507, 0.1518941721043135, -0.39228945827012357, 1.6611606882035643, -0.6418980757461816, -0.7660564320491418, -1.8107588784746411, -1.2532041762528303, -0.30686489002861134, 1.069419980651931, 1.0253628600329447, 1.4678294287674294, -0.1016731674993504, -0.19784233401735274], [1.4703001440581367, -0.5711021246613998, -0.29701266001533566, 0.8986903944374584, 0.46238043273016494, 1.245661206575115, 0.3011175651135391, -0.8804551897089734, 0.5194730313145626, -0.3495330789176909, 0.9312911816244386, -0.05837163562648663, 1.312793497984116, 1.099493196241639, 1.3379322984761566], [-1.825839001310364, -0.47119617472194947, 1.2242368209611598, 0.03857705857155249, -0.21448320357648354, 0.210966417590838, 0.9209373782589126, -0.009517347856129978, 0.855118571726052, -1.0211088266015842, -1.9199637620148362, 0.7080276833428661, 0.04178923220636828, 0.1472151001532775, -0.6437781156281362], [-0.22365695296595922, -1.4544789425292395, 0.13495073876752503, -1.5666106039307524, 1.0318080484392893, -0.8031888429864982, 1.3891156416503205, -0.7495807121777188, 0.2580471671479798, 1.1627233674565403, -0.4041184446580641, -1.0037097080969912, 0.7581086158132254, -0.5652575181355928, 0.41879753888101845], [-0.8122646324572206, -0.12107411840246891, -0.5292930849353193, 1.3929796382520874, 0.08940442562643602, 0.6920843152193616, 1.427558920489478, 0.17351034901226187, -0.5953248457716527, -0.3702084413331783, 1.0720447051345476, 0.05945634049472758, 0.4599115965181242, 1.662218579675317, -1.1457862753368888], [-0.18194917645129233, -0.41547850923927426, -0.49842695478673044, 0.26721327893408675, -1.2843651079930325, -1.3808281072456645, -1.2944656583168788, -0.8174342947675998, 0.15267367459578354, -1.7301782437695963, 0.6721373572274227, -1.434653068158094, -0.9411819911986231, -0.04757820024880751, 0.1658846958985584]], [[0.3693635204526508, -0.39485633894690275, 0.7007459329528729, -0.38252821059930037, 1.0571374805062255, -1.2344641132671168, -1.0916822974547937, -0.8075392723923592, -0.5884158995638749, 1.3048276564990586, -0.07629031405213142, 1.040045463746055, -0.9583027122387064, 0.14281873982111393, -1.2975250806399203, 0.11560969106286975, 0.8639265798638144, 0.07687412746689622, -0.8638356767709481, -0.43912630566506505, -0.1876752542297518, 0.5868121512170762, 0.5482151836900636, 0.5593375212017487, 1.1012108087042491], [-0.015048802999345506, -0.06414001408091335, 1.0004465543381604, -0.7295601624775806, 0.3156189721076127, 1.5415436610793871, -1.8311555685714789, -1.1180262653636206, -0.17533443001994972, 0.5007051679718881, 1.2314807584054397, 1.2348409395899371, -0.47554613951188546, 1.3128028069949806, 0.12034646517578988, -0.8410964138111146, -0.6724370470071961, -0.7818599157611109, 1.0092868446316634, 0.6715354683440541, -1.379415434233735, -0.9134501206052413, -0.433354280274108, 1.7038514715677666, 0.16204561582209112], [-1.7867694716557212, -0.7587051427488768, 0.5494346051453198, 0.7199035484719818, -0.6943382571433659, 0.07974911672202327, -0.4874198024525282, 0.0028650084380453583, -0.6725893693586261, 0.8397407901405929, -0.002701328586014811, 0.3141160544527025, 0.9276684347818926, -1.1322812161441151, -0.4422177698721112, -0.1992951419287259, 0.09271798109586658, 0.3861863648886588, 1.0629752072137322, 0.14893054297963496, -0.05653345759309709, -0.6471609577842083, -0.6117337271496646, -0.3924196693770894, 1.8642062134493822], [-0.4544806057258494, -0.3568770632937724, -0.8239907274423361, 0.9098857899013603, -0.13609062075576875, 0.7485421470598409, -1.391745076990666, 0.5797401034068447, -0.8623636480314395, 1.0940959388471356, -1.5212884766851706, -0.5137204991308888, -0.5066564215311178, 0.011451085945005251, 1.014117326389991, 0.2444726500671886, 0.14604404225294984, -1.4057779054399315, 2.030541459158159, 0.42507344306027833, -0.038499617963467986, -1.0499107850121348, 0.8254677620875068, 0.5059996045639644, -0.4849145885038781], [-1.1505215022576127, 0.16747890163958598, -1.0252514143634295, 0.9923353565851247, -0.3958640409798291, -0.12276409616269264, 1.8826283160379902, -0.4522761958064876, -0.16507599733127876, -1.2375204757927154, 0.3120514494514917, -0.5212480525373165, -0.5229145042411611, 1.6388668986752744, 0.7033783166916668, -0.5060072096800573, 0.3616943632013058, 0.6367338512087181, 1.2976325149615522, -0.24577267366663616, -1.6424856190677344, -1.2882944167568726, -0.20897150295458178, 0.4609660724713789, -2.1116073633686736], [-0.3633402826262497, 2.07340841898054, 0.17291107480685414, 0.5912468891732404, -0.6393335086116639, -0.9842558646182339, -1.9026893347441065, -1.1644904351178234, -0.11145693885546631, -3.7098686780567336, -0.9662250327223024, -1.100038939398071, 0.5422098742819758, -0.18877631262853925, -0.09280880508339452, -0.15368982923478577, 0.05475638973008619, -0.10344571858981594, 1.9547831735151335, -0.5482999458792682, 1.0473266055120005, 1.9103550933442832, 0.6493175764695499, 0.45346430889083356, -0.4580088034293393], [-0.3087505585208044, 1.6056964910895892, 0.6280202162948827, -1.2149150829783937, -0.7673994999539374, 0.7420664486326767, 2.0124103690024078, -0.7389546480718554, 1.3308554713493856, -0.6941694087447613, 0.6743856986883449, -1.1692000309238164, 1.0394841353634727, -0.12038073223469543, 1.9943586428680904, -0.9686810399014484, 1.909769368364814, 0.14834630526476225, 0.21951122611081006, -0.6523458801592578, 0.7987518099540213, 0.5528407240252899, -0.023126200520520772, -1.6245070875423084, 2.393388478791726], [-0.23248775683493464, 1.505332876556739, 0.20903876917703204, -0.8217452222785172, -0.43723459684061633, 0.09148324602678042, -0.13511282571555555, 0.2294667268662408, 0.19205379197196037, -2.2883412065075586, -1.3720721251943078, 1.1729805362378845, -0.696981987791643, 0.3547068500385753, -0.3993327567547356, 0.06802611819086714, -0.03700101558805115, 0.9054581368153481, 0.7657523778436158, -0.7595851692922985, 0.5632997955854576, 0.26795617230058877, 1.1055803434151992, 1.1396637893500563, 0.1927847166654031], [-1.1048763328589395, -0.764306780305135, 0.6209852821327674, 0.12264895334395151, 0.40118857734624735, 0.9517819843434708, 1.4228488750743615, -1.015037126561542, -0.16646679870974104, -1.193464629026755, -0.9469089384845135, -0.33259914882202274, -0.8608874719472991, 0.12549133020970504, -0.28679391723158276, -0.10828548701523007, 0.35642263961763265, 2.036710145362452, 0.7105651962655125, 0.41375880017428623, -0.09256752853495462, 0.006039879780023542, -1.1720992566419945, 0.6827756264982563, 0.09330100293179468], [-0.6390822581629442, -0.5690551831587554, -0.29223242812439865, 1.4585694485127911, -0.05901347790903735, -0.6473565237296685, -0.33387303181571676, 0.6066882312546096, 0.6483534116565759, -0.9671248987839942, 1.755148019620585, 0.9021992371145934, 1.1582107495890612, -0.4834015720415301, -0.23158652101923896, 0.7940049474745481, 0.08048799580151476, -1.1859242323240693, 0.18128612979533432, 0.32871482516965084, 1.3872230632699016, -0.9888812641077989, -0.16141830102248858, 0.45673148895409016, 0.13726965891738854], [1.156776997129038, -0.8299081820115358, 0.4253985832010293, -0.12720381749100823, -0.48206427734909824, -0.522252081568501, -1.2954863125208944, -0.6026034834838685, -0.27899415136393035, 0.36622661648049093, 0.49259279164740605, 0.8411380338499268, -0.6383092937872857, -0.006588355396404511, 0.599163271262864, -0.6859689890614614, 0.20205349856448496, -1.7922550305395235, -1.4415965419349275, 1.631886475142487, -0.7919586136915465, -1.0611432782011727, -0.19826878179005822, -0.33007217779535275, -0.778570895397953], [0.8379522126491904, -1.7856855345043754, 0.8057176889536417, 0.5388823690783681, 0.48329169458755056, 1.3235793225068317, -0.316609547690509, -0.4401550019972759, 0.17526222939979688, 1.1221250148002246, 0.13315240802123707, 0.9689774207207866, 0.5872528509390946, 0.24878555950849968, -0.09602313383563194, -0.9871423940842854, 1.4867287739183754, -1.0489611530358423, 0.15205873249613605, -0.9044399480082517, -0.4834451805086408, -1.6809675609159263, 0.14227452796158072, 0.5882030256605306, 1.4209143499391312], [-0.23357452249951233, -1.029161511109221, -1.32708076029553, -1.1258072156637304, -1.3115070229701569, 0.01964390558652445, -1.1100399552644138, -2.8424174651443948, 0.8413945051974695, -1.3310702374257786, 1.3191350916688405, 1.3549162742876433, -0.5441435063095519, 1.7853530259766444, -0.5485432430675109, 0.5311508782995018, -0.7338522989536596, 2.084277483148108, 0.8053866063505457, 0.5482709356872763, -0.7675739257045701, -0.6603794220127535, -2.2375150756224422, -1.0229074135391414, 0.20360349702377595], [0.11400529320885451, 0.1834210100973529, -0.8478972978752535, 0.017938659045620357, 1.1965476981623848, 0.2143181847300299, -0.4618070514143926, 0.26554602579335823, 0.5276136935424688, 0.48336158120857026, -0.32108764059481953, -0.2222810700559593, -1.835882455246666, -0.1222095844802417, -1.3411292460775563, 0.40037678320538833, 0.5054087281097981, -0.35370615181255727, 1.3092222480140976, -0.49229769464433426, -0.5030494805471432, -0.6364967375709445, 0.19421482133647705, -0.169935960402915, 1.11720780954058], [0.8160134023935568, -0.40888914329050724, -0.08922277622287779, -0.6963226153903065, 0.1204697496036374, -0.2139452039458546, 0.9661109275021652, 0.3843112744478544, -0.5757705543920694, -0.15747303269231974, -1.4811382846636199, 0.5364113784093103, 1.9396824444907463, 2.1287348429917006, 1.796205026762577, -1.1452800509739525, -0.709711795818951, 0.769772369287609, 1.4602874870469704, -0.7718420337325806, 2.1227432941152364, 1.3331730803872148, 0.21161365087422027, 0.12091813025798472, -0.9798304968052617], [-0.12918347274653574, 1.352508082671124, 2.173175692774295, 0.557762435159777, -0.16444447236615958, 0.1370660394744531, 0.19755277587900835, -0.9349156624213607, 0.7638524948286202, -0.7935542890945899, -1.0773629450367082, -1.473417990168432, -0.6966284227947781, 0.03608335075375242, 0.5640341589606984, -0.8340266744852414, 3.5366809806007393, 1.2818478658200563, 0.07693715753628123, -1.7202571907429973, 2.329634824507343, -0.7574110607548339, -1.6531162878857713, -0.2576819372643455, 1.0290181768064572], [-1.0505038222524383, 0.026800249064452268, -0.031135844623200414, 1.2217569998477946, -0.4836209805742733, 1.3480956053577795, 0.8813461883625555, 0.04793784798355289, 0.9874260998772406, 1.0825908861908413, 1.5339361981839625, 0.16987731160183223, 0.4621772030814238, -0.35627817310883464, -1.379164511520566, 1.1564554009926487, -0.655152810483798, -0.2168594142402145, 0.5960704382884124, -0.39160533745510984, -0.41889875565350393, -0.9842427072362058, -0.7108150175791639, 0.8221944374591098, 1.3715817580013465], [-0.5864303689975812, -0.8458226919412017, 0.25853346542098865, -0.9596819579819544, -0.9964239755299957, -0.9329419376314781, -1.1499686715443291, 0.5437403766903656, -0.7335642665451725, 0.22639579327201578, 0.15606828344675075, 1.167485633579106, 2.1734497721829187, -0.0006600241496406572, 0.02019414866998799, -0.1280956579963373, -0.04033697763319262, -0.679273147787824, 0.7267121281352346, 0.910644958913788, -0.7003505011333411, 0.38782338538101857, 0.6545637078745995, 0.7532799588154739, 1.0562202213169378], [-0.6210240252405527, -0.21762930282613574, -0.6402007443712349, -0.008221842160388612, 1.2277463008926848, 0.31048986286571895, 1.9747018447457985, 0.6778429707397453, -0.5176137876066791, 1.6979092483026994, 0.7180453226121533, 1.1455928079887527, -0.4960395557795114, 0.3888910706448598, 1.8689058665011935, 1.65468127288673, 0.722254082494352, -0.9883135400128, -1.1051224938132125, -0.656725128999983, -0.45746548179392654, 0.6656490606040132, 0.6693221651784788, 0.184555253132155, -0.7056816256169888], [-0.3620817699913584, -1.008980654885379, 0.3255186398464228, 1.2203864405200109, -0.4549116690187135, 0.5778619276935983, 1.5461788994927146, -3.01609067358497, 1.1728767260312882, 1.9124398357543626, 1.4873827304303289, -0.030140193303291606, -1.7479584371699386, 1.5440224686556356, -2.7764810258730277, -0.3600048564987641, -0.7297686911789176, 1.4757309802246803, -0.7213943192827398, 0.8927374846086278, -2.433333414450876, 0.43371986381918975, 1.610766450768694, 1.8957786593716537, -0.934313366313937], [-0.5115459331494718, 1.2974021433780418, 1.1838004325801907, 0.6743483188703391, -0.7593534286889677, 0.3402532822949489, -0.8922872218835421, 0.020366868195109643, -0.669377579295284, -0.05865441646081941, -1.4722114184580963, -0.6154459441025053, -0.7709270169892319, -0.029127580506422012, -1.2810140419599536, 0.9741449112149524, 0.2536056897673661, -0.7011040449495708, 0.16003300012179583, 1.5094523762619068, -0.1664423467530366, -0.43262701069898735, -0.022885086012023537, 0.43106122035494115, -0.876045402626095], [-0.5952762389531256, 0.5785669631567787, 0.24753820513450947, 0.2609252242948505, 0.0609496345947094, 0.892774988230005, -1.2049250377403098, -0.7818485756506314, 1.8616208727132832, 1.0536510511212773, -0.49051159032404695, -0.1527399929474039, 1.0521246528164614, -0.5751750914080344, -0.19344434810731315, 1.3137359997555111, -0.1749647675593559, -0.5189969679981217, 0.6407539768153037, 0.30404153544612933, 0.07311163809101773, 0.2800687950133176, 0.3674449810378345, -1.4876134916922636, 0.7650349980023363], [-0.6511750854061295, 0.14176489429897704, -1.2506335283519499, 0.082068890931842, -1.074129161242074, 0.4768165072241564, 0.8020243415765089, 0.042329995741766636, -0.4353518333702258, 0.5330413903268999, 0.1375686966044372, -0.21458746065902606, 0.22051808168924894, -1.3694253189932215, -0.1616710955958592, 0.8549937847176026, -1.9041812782061587, -0.5071532755067575, -0.7190850676047646, -1.3496589298938801, 0.2892380882815812, 1.7734524166324173, -0.6875532693651683, -1.6043606273849385, 0.44569131668590006], [0.6072430802680336, 1.064418069598216, -0.3634162196317059, 0.5944292944459052, -0.709059484306508, -0.8947666089092302, 0.728008430710182, -0.78745186521689, -2.3495013086191663, -1.6598304951648237, 0.37255295030219, 0.7840620791836619, -1.8430788179431383, 0.5611039727198968, 0.3586040942766705, -0.4919618403534785, -0.5766349790855304, -0.2605232208357956, 0.5144960149771992, -0.2831849796885251, -1.6714264750509975, -0.8992009808020498, 1.5304967422685831, 1.3699198424536745, 0.3464379762143515], [0.5031787821868993, -0.5771788013333272, 0.254096832138745, 0.7375554604883813, -1.6499126509252013, -0.06391523743566989, -0.2608451479719849, -0.14091134272225017, 0.6619277035432326, -0.6107168625374866, -0.41324133828325804, 0.20716340621752063, -0.4697706221995494, -0.050923728616487314, -0.20551592653730288, 1.0404078229640747, -1.4593287271994813, -0.5046659739253299, -0.1764499393684174, 1.1176885418539726, -1.0481422165060865, -0.5574430807767171, -0.025745898710379016, -0.15286599003721024, -1.4006854674767164], [-1.753316185962067, -0.8463722351168577, -0.5863033133188381, 1.106241362831011, 0.27635765064842666, 0.7277237011914468, 0.509032417754184, -0.025261644602943764, -0.8818215699419074, -0.3931346823998925, -0.4237508567008418, -0.5903851655265824, 1.5073544725017625, 0.054006639728112225, 1.4631865907692196, -0.16692129855733706, -0.7650675711813728, -0.1383276006381327, -2.1311221521823285, 0.008594178108204648, 0.719729130302015, 0.287188559629463, -0.13695103846392606, 2.147084131576465, -1.5727626353661346], [-2.36222064177932, 0.6785973410865072, -0.4814073067251054, 0.9312541672517095, -0.49445577477908303, -0.22367811561854276, -0.4797274666877483, 0.48481643741759106, 0.7898964216691887, 1.0323359809144008, -1.1437423151956851, 0.7548471243552485, -1.5134403426190142, 0.6482925608474844, -0.23622829079281923, 0.731797584910896, -0.5715997513811776, -0.13364556232435543, -1.1586298741340477, -0.4334616516767266, 1.1319065430526973, 0.8133003632207115, -0.94171177452836, -0.5343737514109841, 0.27401673405319693], [0.1208772250421823, -2.3863871420915395, -0.4142419410464858, 0.20647749108160451, -2.1078234916965606, -1.3696336620285126, -1.0165993752920828, -0.9499505562978671, -0.32065320382906004, -0.9774056118347081, 0.017814574148098533, -0.1927312085592307, -1.1263149099871088, 0.20070343340301933, 0.11366835740904967, -0.16008084246655008, 0.7383825200964905, 0.25295350733434796, 0.7543969495649618, -0.1197123283695336, 0.48075766572303036, 0.40427168508481803, -0.9159194960990645, 0.9676948233494249, -0.2117667605469113], [0.4024975219860597, 0.36001817041119294, 0.9730694988852455, 0.3644147025875029, 0.19201787482526375, -1.2065983157713422, -0.8720649792250715, 0.6515120713303644, -0.42774579533462204, 0.3518288284010783, 1.3258981773552478, 1.4046968261140664, 0.5004832657473297, 0.43533265224597933, -0.14579839496616334, -0.7965216133675438, -1.556810211923226, 0.873997043542298, 1.354337860041395, -0.6732654001769914, 0.48706892492874776, 0.05778682008990274, 1.0666433932729278, -0.672346799285853, 1.8783668782067344], [1.6874774654993376, -0.9097490123056012, -2.0338922892048563, 1.4144025967796483, 1.0395192858484605, -1.5236982757812194, 1.3287769276423886, -0.15121150438885966, -1.1185066263674874, -0.5768134458103112, 0.29071748254086, 1.2328341654807702, -0.21206989655245378, -0.5538978167452133, -0.46391521664179114, 0.26958101385304467, -0.5149845802317208, -2.235909421096184, -0.9775006088048759, -0.48107155204729424, -1.271347249134579, 0.08426775546423457, -0.6377160227325851, -0.2831804915412726, 1.5000024565866692], [0.4517411728439482, 0.4047529635510744, 0.7330907145584665, 0.16580826862840967, -0.16969232028698572, 0.592232068150996, -1.7050338343105704, 1.1946971826296013, 0.7106095586948046, 0.5956843060210586, 0.3457590141492668, 2.7701348635283654, 0.6840829522607011, 0.4233581561994876, 0.05780183586294369, 1.5891813503040517, -2.1215407913146755, -0.959333095044975, -1.086056941306461, 1.0245427330882255, -0.6641955473768436, -0.3629104579558367, 0.5483592349440258, -0.30052977715086066, 0.7373615716466967], [0.9132402936413668, 0.632027756903922, 0.03965827686357563, 0.6542939975921678, -1.0657990149221364, 0.5405946384859546, 0.6755158665901874, 0.12229188925845992, -0.8982517429972224, -1.2167848395334906, 0.17108608423299218, -1.3506935194795349, -1.4108177605180705, 0.4630004872925627, -0.4305913162282238, 0.0914963566770141, -0.1585330512969748, -0.6062911914439143, 2.2711524372066454, -1.9557072682679721, 0.60845393949055, -0.17179871171911434, -1.3946517424796188, -0.6002402096463673, 0.29949661131371197], [0.8054631839737776, -0.25422777243747696, 0.984664276226442, -3.2416799524385853, -2.2433657937882097, 0.6973485222319725, 0.9751208916927442, 1.3635391866821598, 0.0888447401081186, 0.5702910040363426, -0.11821382740778907, -0.13238482913346267, -0.45235167866856946, -0.23434498551162952, 1.2927761392458437, -0.7227206039631789, -0.6439487636120454, -0.5725772500647667, 1.197455763828948, -0.6148253454274502, -0.16930191915171783, 1.059963141337944, 0.5893012554502449, -0.8430013871798867, -1.4829953811714087], [0.7126312680941422, 0.7652060619395474, -1.0929288913581738, -0.5231059030578089, -2.771736522809896, -0.34906577571576175, -0.8158564837208258, 0.259781667199288, 0.22854011935561444, 1.313634275301728, -1.9506877019844946, 0.6228551112250958, 1.434629600497509, 1.1849473941939446, -0.5882285428474936, 0.17116509935886626, -0.3027315497136002, 3.222056838925638, 0.2290761093008088, -0.003235469124591572, 0.214827043115004, 0.38943711922036406, 2.182849005786502, -0.6756406414565321, 0.9631157646445254], [-0.666628821525344, 1.645784926857128, 0.239940568779375, 0.28865458286840184, -1.740347015792142, -1.1254963751255196, -0.14615759247489393, -0.3922033331071345, -0.011370077436269931, 0.6564356884869114, -0.7025583008550371, -0.6324219468054273, 1.059494080059568, -0.616830700323632, -0.15912669168058718, 0.21146087060756555, -1.8961078863546676, 0.2051435082189578, -0.20938344216296717, -1.3391389990922717, 0.8164979496633163, 0.45855476539861156, 0.1669949248800515, 0.4560810770581058, 0.5018956844100511]]], "biases": [[[-0.4978685790723988], [-0.27420372846826774], [0.17971143995445135], [-1.243307285314881], [-0.3318528848708126], [-2.7729759256638045], [-0.49571217097560927], [-1.0222536547014203], [-0.8752156091749095], [0.0913745973341244], [-0.18639820555496014], [0.03182430608994984], [0.4598465912849694], [0.3324164105869596], [1.7462290341923463], [-0.34816548271665354], [1.9828901008753594], [1.2634100953522716], [0.9412676103000593], [-1.6069538813643116], [-0.47853094537770885], [-0.41327351257857814], [0.20974412552512015], [0.4054816549531361], [0.3896055367098403]], [[0.20877322711176616], [-0.2419488078121906], [-0.5698338751923655], [-0.924417323545151], [-0.8764010023929297], [0.20334680456302057], [-0.8098542675283691], [-0.263345915274212], [-0.08854303529052096], [0.054919704345519495], [1.8251378675142527], [0.0365061217114188], [-0.5875856619036598], [-0.06976559789723343], [1.0292637422855957]], [[-1.0649759509814352], [-0.18301344916943008], [-1.047635232617025], [-0.7004806465941732], [-0.08762359200600181], [-0.375661231074071], [-0.5372946385100301], [0.0746870459120563], [-0.7601791141507894], [1.2261858738772244]], [[-0.11831755731547182], [2.3404193009140544], [-0.56475909428279], [-0.6127761908318967], [-0.6306034156538121]], [[0.7485274019227283], [0.745730976197717]], [[-1.8517762652331038], [0.1736752154262422], [-0.47841242605773376], [0.025085695069555054], [-0.38064438493748437]], [[1.2435875231785747], [-0.2955854556817614], [0.1362611861127319], [-0.04048072125760165], [1.042676272783474], [-1.288743124143124], [-0.3735267849597489], [-1.2509693295885815], [-1.005327727132555], [-0.3004165931135425]], [[0.08574894505316118], [-1.464985184219693], [-0.23427431105419141], [-0.9431535104636789], [0.18407278739275668], [-0.242850288625368], [1.224022450922551], [0.6859134331773098], [1.4382176433402072], [0.43094817155142345], [1.3991819417993534], [0.353253754822439], [-0.996357567700244], [0.08011271830242367], [-1.0892456240669721]], [[1.3216734327458444], [1.4963899506018237], [-0.49323127813530887], [-0.75497091311967], [-0.4696286990253863], [1.5947413252006974], [1.6503096160710784], [0.8743049895719694], [-0.8559867344144991], [1.632614087478871], [0.6457197723165947], [-0.6013745577766382], [1.2972493313608044], [-1.031372353067214], [-0.29707122009868153], [1.3985698658961108], [0.056458694543656644], [-0.7326268147220477], [0.3221316660128946], [-0.22426521298866117], [-0.6010071669009488], [-1.511441643533787], [-0.967328224150459], [-0.03501360182169615], [-0.5057449059517741]], [[0.16730172090250525], [-0.2760255873923382], [0.12372691930386757], [1.1976055450659129], [-0.9471902971110691], [0.32498153881512865], [0.7950922098255871], [-0.4233745907469306], [0.7754913807347421], [-0.9914416853300849], [-0.13750057123699505], [-1.605016181611751], [0.2870995102432588], [1.0456730533256293], [0.5113271654272817], [0.0779117311654917], [1.125623071161918], [-0.2967088939188332], [0.6780792900538093], [0.7529859925926325], [-1.1799125882608668], [-0.41592226193139936], [0.26334302083898853], [0.7502375246077255], [-0.29370501723747156], [-0.41191204220631905], [1.253671735524281], [0.5987719404496892], [2.28880967642943], [-0.8962981795956181], [-0.4847748450864165], [0.24288639302764306], [-1.08095842821401], [-1.0798090557756432], [0.0010818607115350468]]]}