{"weights": [[[1.3331758553805573, -1.7244069097767807, 0.3029750454091375, 0.4311054493012501, 1.6191424612594667, -0.8800909823341884, 0.7670297927833761, -0.581783747065312, 1.5264506765725294, -0.16257606593814455, -0.5588504471130796, -0.5144589139035611, -0.7889223721351648, -0.6523780409357499, 0.22783877779566764, -0.7726350852491752, 1.4885884192469891, 0.49860979434353453, 1.9408436650070233, -1.875254126400765, -0.3171873871243418, -0.4714263408276184, -0.9010122604077563, -0.677886994660503, 0.6256357261226244, 0.6963228102210299, -0.9110045432728695, -0.23711894953284107, 1.220566536995686, -0.6338754154319318, -0.6401040523022682, -1.7557288409300726, -0.2800033408625131, -1.0842564749947738, 0.28808662081814934], [0.3132702599140429, 1.5143567797618047, 0.006525827597958785, -0.12480790096428736, -0.9777085695854316, -1.8223882392219057, -1.9584882781549318, -1.8265153651894614, -0.6442391132628855, 1.2128012707694245, -0.5449141320425918, 0.38592469346647934, 0.525668577555442, 1.353124660513526, -1.2532669164665289, 0.06923062574519778, -1.080039178087225, 0.24795832285595307, 0.7975957661107003, -0.4352067919110812, 0.18821581517007932, 0.7293064415068976, -0.766616380110575, 0.7100986661195263, 1.0287841447047301, 0.5922647516791081, 0.4898578601615574, -2.2008027523860734, 0.10621895253494502, -1.6790636617352663, -1.3748442518632715, 0.3500506402809123, -0.7502288082453111, 0.7877023756189004, 0.22751373778386147], [-0.12769407545729258, 0.3912949498520728, 0.9298122147015926, 0.03333113602024306, -1.7414623884311018, 1.556092931487969, 1.8932337761225164, 0.7649708370623254, 0.48726188148218336, -2.5154704726806987, 0.24492016760025248, 0.03771528673869611, 1.0826867825307456, -1.8873115016140898, -0.1861009836515845, -1.301792614634265, 0.800127507734539, 1.392642052983415, 1.3546250003179345, 0.4189337667925406, 0.48237850186659725, -1.4268412500318153, -1.2316730053894158, 0.5599723112325075, 0.559602641712751, 0.4981869508013637, 1.9924698815366155, -0.004849430759788557, 2.4404449803633863, 0.12241824338342008, 0.8685359828985842, -0.37283759734919564, 0.11518336498660038, -0.5285617844456494, -2.220243405851706], [0.39193741273092664, 0.4799729530889633, 1.1023608274028218, 0.7892719125792289, 0.14415746079729663, 1.4514550922597813, 1.194187767529471, 0.7922724465111602, 0.1016876584028678, 0.10967987433249282, -0.13980796999607942, -0.3327924479272724, -0.32420760135050963, 0.9463599811277287, 0.24355216606920818, 1.1966902416666072, 0.866485579169714, 0.1896731667244322, 1.0880363277052814, -0.4554412569574781, -1.6133440231995557, -0.7065212107621739, -0.033736578116075736, 0.8079740915641209, -0.41107233709107854, -0.20845302848190442, -1.1073934796844949, 0.9498782812924704, 0.5342221730807569, -0.05991305546251153, 0.8196443469756524, -1.1399682948518755, -1.659532810351589, -1.793377769518541, -0.020365268766628], [-0.19779869058509209, 1.8937671249186867, -1.3230820238596719, -0.39831425025935613, -0.7769142958275256, -1.7075713939035484, 0.6118740652991542, 1.1092802770928332, 0.9561291590722663, -0.7313599153266562, -0.3896984325342683, 1.730943063338333, -0.06048210408883257, 2.393366079930013, 1.8795759673520704, 1.9234910781758612, -0.2464743076617422, -1.0300195483915693, -1.3845748426899778, -0.3668939711292104, 1.6074065081850186, 1.6608458095158025, -0.29563770903105563, -0.6185300039822276, 1.230111806286196, -0.6224116437944311, -2.6217780807518456, 1.0627807325201166, -0.6291943840752676, 0.41361599840045, 0.1226415170843411, 0.16669871758800156, 0.26039426446103325, -0.6911518173710199, -0.6352131350425365], [0.29128021952014743, -0.0652056723768604, 3.25114483365438, -1.1381807098468681, 2.3974940802258686, 0.16103568167210025, 0.3504013826154225, 0.40828844132138126, -0.9256965529525333, -0.6888330341392701, 0.8023815285922096, -1.4874481366363446, 1.4417127448347893, 0.766090047403951, -0.1725102935445217, 0.0037385887073498, 1.4773763255317476, -0.3670565340237175, -0.7958335233016133, -2.095301257151967, 0.2621861017629759, 0.29630292712625794, 0.7589852678908173, 0.2651719342523724, -0.24871693149125362, 0.2287837212922237, 0.30112380476021766, 0.9500839221275286, -0.5188259039749077, 0.24687996810811502, 0.38698503908963094, -0.2628005509228699, 0.7295848345990826, 0.1184793018405561, 0.7557492030663215], [-0.861549667612279, 0.333313451361059, 0.06627504825668748, 0.3340054460067068, 1.3268072661380583, -0.3122512734537581, 0.9165755740509257, -0.31198308681091597, 1.0289570374079602, -0.3157277772529999, 1.59975716529546, -0.4740182749840271, -0.4938262635505663, 0.14964744292730475, 1.3973580397892, 2.3954358414131653, 0.6846792978469255, -1.7333043257542564, -0.5862308472432606, 1.1159731655260792, 0.8225980965313116, 0.845894920376655, -0.26179708207930774, -0.18005662141666154, 2.2193810431412535, 1.1732139376809283, 0.5544524562139008, -0.8370100183449589, -1.2603312554153088, 0.6504505782872039, 1.0098360428019755, 0.10689876447786581, 0.4967987617801972, 1.6533998956503506, 0.3277572108398872], [1.6497299880980107, -1.9218565582698528, 0.3667309798439841, -0.963334500058508, -1.0402703346716422, 0.855344996457791, 1.1761344919337797, -2.1044300747290503, 0.7300673739474791, 0.7455985667982937, 0.06944276873503864, 0.555219829967551, -0.44693509138452003, 1.0022363501054947, 0.7092986186520361, 1.0443943972148744, -1.0713807212535345, -1.6185876542181366, 3.323400593232458, 1.8165163084995255, 2.1072839059878676, -0.8403910209421859, 0.21106196531546542, 0.26462063515670153, 1.8639082637509652, 1.130826182609837, -1.0036406155700441, 1.1330094962089168, -0.39397350803261977, -0.3113088511065374, 2.136475732485179, -1.1518135177974067, -0.27996546581586734, -0.3344032226807111, 0.16158380035014586], [-0.2101473447384466, 1.0373319324187456, 0.6430736996954803, 1.0126434641132056, 0.2641378820464895, -0.7166510681339302, -0.6913083270093886, 1.8126371454738235, 0.9688779312274927, 0.7443404525024532, -1.0800722021394327, -1.813968425402028, 0.10899464219083077, 0.6219609039747874, -0.49460942525229235, 0.14370637879378728, 2.683702720752663, 1.0442269010559802, 0.3346051323299996, -0.36101300320032065, 0.891240625268801, -0.7983641233226942, -0.9017664343249185, -1.0863660151778052, -1.1017912868180277, -0.2914266372588177, 1.2026785715628399, 0.7155565289455288, 1.6986703687339266, -0.2550249927801512, 1.9739378530372131, -0.5502367754009766, -0.7883050486016977, 0.4237941730572925, -0.11230163276546189], [-0.5060126367364904, -0.02623573957012102, 0.3348461336248052, 0.0798887234958847, 0.3791625316099627, 0.1496728803481145, 0.776355008265443, 0.2349719743445137, 0.6761979301200784, -1.2797347021322676, 0.2392726003627242, -1.8690489055247597, -1.6463713371397597, -2.9089642848259043, 0.7989272100731654, -0.45252833300170237, 0.7088380798934247, 1.9378756136470325, 0.30967384173496865, 0.40176177157867793, -0.01841637582630039, 0.4366944612140035, -1.3406325120996974, 0.9583122388526979, -1.438688362579637, -1.1407975424424504, 0.8053613184278122, 0.3462768741608094, -0.5443384359863876, 0.6475864355637527, -0.9745654409367053, -0.5106505122303223, 0.8581423969449453, -2.3903983755677367, -1.027432540861822], [-0.42163219932142454, -0.7244046207511565, -1.522505654303485, 1.196558837682131, -0.45088749722510696, -1.7770319702761663, 0.7868623631794283, 0.5879409336950029, 1.74319787192912, 1.240901501198722, -0.06183888977175164, -1.0993668911254602, -0.5226475775112089, -1.4522909617574713, 1.1815812561280437, -0.8570073579987519, 1.8925018345138838, -1.0883896494249803, -0.21155617577666833, -1.6019928919213895, -0.5921658353522364, -0.5972841070110912, 0.12469358174611753, 1.2628104214603428, -1.2291335767398757, 1.2485446254878116, 0.48991123557627597, 1.1174960345510299, -0.1529811357629233, -0.3056754287772291, 0.8745612566172412, 0.8072756034930478, 0.2156465642070007, -1.4218450821081838, -1.3139260546777018], [-1.0678333477509294, -1.7115902614676695, -0.9783615893463466, 0.336289855988089, -0.5315620132135566, -1.7758776186723864, 0.5012782840433423, 1.1553132162787612, 2.1701694767234954, 1.9958100601859248, -0.39660723327691627, 0.17894974389457716, 0.06889192846108276, -0.48733794743562286, 0.5940120867077298, -1.0101960069368872, -0.2570761419217667, -1.0780106035500998, -1.8081576715754843, -2.4249497961277884, -0.6293452322355187, 0.3037539730110018, 0.004566800878386403, -0.22627394316657384, -0.7660272825119163, -1.7367182277133264, -0.1468925959894899, 0.6678429027625193, -1.1574285999505574, -2.183223222731986, -1.8450091780843443, 0.7507112419125079, -0.23246352349356134, -0.05922652578414038, 0.7894365268249318], [0.5788120631473426, -1.6280548574915803, -1.9476637019277128, -1.5990333780115014, -0.8687195141710423, -1.0336866525910364, 0.36434671080133013, -0.16172169268775163, -1.1564585954190296, -1.0745503082986503, 2.3059408602805402, 0.8584197215725436, 2.2708076969859445, 0.7738581920647151, 1.374235660549604, 0.11897483432288276, -0.06084592344196227, -2.0373713116087653, -1.6462961353915373, 1.6559283330286247, 0.4675622318694212, 0.38436738974636864, -1.1532834019871347, 0.6547863051896552, 0.8011968457571933, -0.4685356539758968, 0.15375817720494325, 0.7766071260541404, -0.3672861749027677, -0.5525976358822878, 0.13675144044573115, -0.3966070569039642, 0.02620099012946028, 2.135054667046546, -0.5641322514494909], [2.197613322701002, -0.4265926605418134, 0.02200459354782074, 0.7277304249343801, 0.26912026991829263, 0.7239899151195938, -2.45778760313941, 0.039579653993340784, -0.03535647833345743, -0.49683905004113554, -0.9182133674115984, -0.9158008655287178, 1.2881584239729584, 0.12477031445119591, 0.52543550497066, 0.7162749584458391, -1.1497107444248886, 0.03845215299121713, -1.3549245891330008, -1.2977386777155469, 0.2841860587295533, -0.895859948712154, -0.7078560694236388, 0.047697671253939325, 0.9544110715637889, 1.0597703000985146, -1.1268663800296053, 0.5628013556561756, 0.6086319626566071, 0.5283431571630675, 0.9194149857954738, -0.6651662107918023, 0.8524358531108186, -0.49419980789539775, 0.660506183646847], [-1.7333909446030602, -1.8400079239610754, 1.0154684956654667, 0.8287826824630139, -1.050550992917747, -1.671482866585387, -0.18900337509422888, 1.0068161315822224, -1.4080985808973812, 0.15805409198326958, -0.7266154499567816, 1.5310473265933993, 0.8477444477271544, 1.2592268910026665, 0.14941613954083305, 0.24314820185413116, -0.2736631871502173, 0.15874709718915903, -1.9517976965826118, -0.5007553208485664, -1.7740343768343896, 0.36475679720021137, 2.247210556706825, 1.1344247183669933, 1.2054524289975803, 0.9273948357833203, 0.21398780583775015, 0.6626945663214864, -1.4183520683502695, 1.5316814314399054, -2.0650621929040236, -0.23307425199260598, 1.358349646364029, 1.200234440267669, -0.010748628993999608], [-0.01609371665454178, 0.6154078454895615, -0.020209767161783174, -1.964284176693876, -0.2010195155508014, 1.0321857533409002, 0.07402358014379275, -2.7393885080326337, 0.7405914579873217, -2.424098584333603, -0.8435459239933976, 0.044001970857706324, 0.7800449149994303, 0.9173933272911151, 0.6703337851537613, 0.7258732192913712, -1.2638738696301195, -1.029231315311678, -0.5196231285781449, -0.2647000632911946, 0.7716967146829194, -0.019957078702721655, -0.040924783883036164, -0.2516882820070016, 1.9931815730330837, 1.832725584577834, -0.4157037672128451, -0.8324665260723917, 1.0168067961926393, 2.307292050251656, 2.846278127986726, -0.22010222457212614, -0.18292170743759836, 0.6923330142496804, -0.16596709300147758], [0.5622317470204274, 0.30110706199860765, 0.9126440424090251, -1.3806649501303818, 0.6294871351146178, 0.36581671934703114, -1.9818561373948473, 0.10094046589468447, 0.7496260910907641, 0.6522477636253579, -0.18688066763423522, 0.28122632826497584, -0.7057490057752194, -0.5352392000813732, 2.0595685084687867, -1.1943347073630588, 0.0034865152007373893, 0.4447782530679929, 1.0623418728218763, -0.7949109191323097, 0.08990275792232211, -1.375402790919675, -1.9001136176896694, 0.14817969680849163, 2.2654442170276368, 2.383318430566974, -2.554140990678341, -1.1238175374679449, 1.533408552930998, 0.25359736264347943, 0.7340714918223906, -0.08511273004019948, 1.5408052683637918, 1.5984180805166255, 1.5161735863507608], [-0.178865210648083, -1.0427460867874854, -0.08849632372099096, 0.25285615183198606, 1.3465030912746425, 0.17783287814794843, -0.29500131773554883, 0.9387399720304408, -0.5776732136023698, 0.20598846820912448, -0.9693307540268529, -1.6714536451437674, -1.7509480204496053, -1.8234083979594684, 1.922245124433506, -0.7398187846542753, -0.4763112302605764, -0.009219168811603024, 1.0516943369552474, -0.9633243249012102, -0.25151876770697423, 0.18561755153070522, 0.22537548536728075, -0.015170100675114536, 0.06990740977624699, -0.509205108734224, -0.05638743244721282, -0.08067865096495773, -1.4034415723873748, -0.26453286241835383, -0.21036881588362552, -0.4503522164883098, -0.6523063207359052, 0.46886881514401774, 0.07310415715550295], [0.6266321588209696, 1.3719177254219712, 0.3449800136431922, -2.6760032526739583, 0.32955244149194834, 0.21168063353021252, 0.8783318401126408, -0.019624889482896382, -0.30839784768839357, -2.036155216529978, -0.09218496497462936, 0.6832617069176699, -0.7947116016612381, -0.947777000363417, 1.2945017763602813, -0.34407627346279623, 0.11007756692981119, 0.802981155044758, 0.6002617787458306, -0.7238370355968263, -0.7561491821800707, -1.5994127331250407, 0.1700576352513157, -0.6878142465902346, 1.2507974534072905, -0.47698728146021724, -0.8368997658927478, -1.4759791753667093, 0.2504860023691676, 0.9646821983479248, 1.5463544701869036, -0.7449170401845032, -0.0593804402932773, -0.31825745059140953, -0.4386290025372338], [0.2894127288669462, -1.6471246300188516, 0.4224527012536099, -0.15787746926410454, 0.10673692093860886, 1.5540790699632485, 1.4724469295230915, -1.062109765284826, 0.9109278982032559, -1.293351679208686, -0.6700971948926703, 0.038017148610038964, 0.12856650238790068, 1.3677059316199152, -0.4742875222373567, -0.06458541264236745, -0.9712649343579299, -0.6536584812130292, 0.649387772098529, 0.3444683132458033, 1.2808020567352931, 1.4439301772451787, 1.0477071126506146, 3.2107239695719407, 0.5174541701137794, 0.8676020475329097, -0.033034170632665324, 0.7897761345073491, 1.46407870714771, -1.7528431633429693, 0.031060202262629434, 0.12505556281310312, -0.7189902188322723, -0.6902817445175963, 0.9260960889109905], [1.7953143064802037, 0.14035258211865834, 0.05172893733104889, -0.3987932252132002, 1.764553668361104, 1.132090926282329, -0.8563535353601955, -1.2906670343351279, -0.036575352509754036, -2.3059634602983614, -0.07458953813414008, -0.8481599183829364, -0.08389897151851688, 0.8669843756843747, 1.2993906006843712, 0.5559667775963686, 0.48136786847454177, 2.442302469589538, 2.3612903732598904, 0.8357671562072143, -0.9089866523192215, 1.2493346441362676, -0.3902880758066129, -0.7142828253426644, 0.7457429119715294, -0.04210314780664647, 0.3050520903997793, 0.5188352857875483, 0.8010411699385998, 0.759752663204022, 0.922387491991375, -0.9423295912381768, -0.46077702747456967, -0.790410878585959, -1.5996546626855237], [0.05147873889383334, 0.8466911765368301, -0.4346137471541761, -0.34408548832931835, -1.32742404950643, 0.7522128948302189, 2.318540595480007, 0.3611373694992694, -1.0177998768897858, 0.6482095370752193, -0.09765257447808937, -2.0154771287229507, -0.836521422771607, 0.19820570485578232, 0.7102801332759179, 1.0280525638700635, -0.09014096288031703, 0.34402010843216807, 0.3553421134356746, -0.49516958081461215, -0.3170973476807643, -0.4333169330284433, -0.42824826214505135, 0.7789835949715863, -2.71420963351835, 0.8876685484415083, -0.10545676810556613, -0.022357697615735125, -1.7603571801097224, -1.1452111203742654, 0.8364462917508141, -0.17158696320713765, -1.8190205584990067, -0.007214625447713532, -2.4913274645439545], [0.9040909566191767, 0.2346844027944992, 1.6980080993848101, -1.2452892292895292, 0.43042853550305854, 0.203996075168507, 0.29581173481236955, -0.5246205662821816, -0.6857756103130507, -0.35155844487680166, -1.0243440921944935, 0.5135015571966173, -1.233354246698181, -0.5495137545223968, -1.13065027184809, -0.4312528926859716, 0.6062209008638512, 1.3753337898776017, -1.2356871556587452, -0.12829919401347084, 0.9366692708250605, -1.4235450753346173, -0.2173496849337016, -0.11471701334972903, -0.32391401499069883, -1.1958701652927468, 2.0188651213888633, 1.0616028914743985, 0.022610322947606697, -0.21802374627797194, -0.4390442787796788, -0.3935664251161597, 1.3562353509581218, -0.16461835824994359, 0.03956976911066419], [1.7167644601161185, 0.7936667831736333, -0.8923100164107236, -0.8629732587755241, -0.7832965585069571, 0.18941773558540137, -2.424970521286009, -0.09901173407530836, -0.3700930622685895, -0.44806496280308206, -0.07753341813799558, -2.5503249245833866, -0.16542890105899902, -1.2689486718189964, 0.3560489785459157, 1.897419475127835, 1.2495414363018187, 0.9246618570324384, 0.8534285902313326, -2.674854934325699, -1.5990155978191551, 0.11746457639359612, 0.30082839993153615, -0.6279017959889674, -1.5752655183488302, -0.21155854329901302, -1.0575595140849847, 0.17608441159183574, 1.7664481871642812, -1.8175737705494275, 0.42915016256846267, 2.1145774913118585, 0.4439335533446263, -1.9571639085562393, -1.7627481867988846], [-0.1092736290106124, 0.14569563699304858, -0.48799444476964954, -1.3232882165180522, -0.5578588811227161, -0.7935564175198403, -0.12591036491997523, 0.7089522296194201, -0.1270526246774808, -0.3638661912958543, -1.0919546529093553, 1.3693284750466617, 1.322479708350672, 0.25271513326778067, 0.5158728717321429, 0.9184506952202747, -2.080268253629193, -1.7268414935304612, 0.7748989815084835, 1.5260585523625123, -0.7605362115129373, 0.25269500924768035, -0.24849999306545004, 0.9956494654573054, 1.2346502740513456, 1.7842724713614753, -0.9664574303785962, 0.30155399822193674, 0.4787692637779772, 0.40382958123264623, -1.5217574252544392, -0.3326028367831068, -1.2878288718143567, -0.9567200911020878, -0.18725318450974618], [0.19138643612232828, 0.12125537817558928, 0.6297184565366266, -0.32600656856619314, -1.1838118154179393, -0.6893507598948967, 1.1891683529963257, 1.7386715122091074, -0.8140804884679235, 0.4062045540498537, 0.8106896428351098, 0.2736604557993668, -2.2634282076104437, -1.298846594434472, -1.3570072711882033, -1.4553777360796738, -1.319780669124365, 0.6055555274144261, -1.1691399641886138, -0.39085212533820957, -0.05870537003138925, -0.746638748869473, -0.10242407491136707, -0.7354960122399806, -0.7826495725282104, 0.22655521464022774, 0.827364588746388, 0.5040386987000779, 1.2733444324633558, -0.015111864384769566, -3.128377111863016, 1.5662945633946226, -0.8235401164935747, 0.7092074264164411, 1.0229426401983375], [-0.6171593953418886, -0.8821065436776991, -0.4197594582406105, -0.8434233673427534, -1.1817880851544427, 1.3270512979256952, -0.8641662361448237, 0.15516869908353578, 0.8647544996314556, -0.13962014159731156, 1.160411250450379, 1.6177784129069117, 1.1797293988453594, 2.1116866645011547, -0.24391002523066815, -0.32694633911341325, -1.2287495687970371, -0.4777598525581911, 0.5957474040544778, -0.10208717073842638, -0.17806228171593336, 0.21778083234301218, 2.0843190303553754, 1.240993793329609, 0.24482498364625943, 0.5886347782232825, 0.2315611068400708, 0.995114688578709, 0.33281849833862753, 0.8670275021432529, -0.5517722010621704, 1.2540790788825666, -0.9092692541513923, 1.1077363751216522, 1.4803374077305136], [2.162329241011639, 0.15870949989225205, -0.5345122953031708, 0.5069618313183614, -0.9919961822198398, 2.8805195130443697, -0.6746688570215469, -0.02179036518734004, 1.5055903471885423, -0.888708869871396, 0.13742198385287824, -2.0291481986416886, -0.806402515664898, -2.5060355702513797, 0.12570319354482556, 1.1090636198906068, -0.5215157612959065, -0.6594174199875544, -1.2232662624021509, -2.293006754348839, 0.39282734216973975, -0.8488831662122508, 0.44220580983876445, 0.30738935518847765, -0.8081494138622318, 0.8668677372157354, -0.392314426715917, 1.036235229924339, -0.7250946820301705, -0.2380065290206547, 1.4755605909366214, 0.4509736694483371, 0.5932796074665538, -2.4944841854721624, -1.6832072747703057], [-0.24543844498253717, -0.379955952321825, 0.16657071182794514, 0.15197915264646417, 0.26616386709712225, -0.35788568859264136, -3.5220382886045662, -0.6189595088717286, 0.8763087212209594, -1.77716023562123, 2.84839733450877, -1.1357069271878224, -0.5869529094410628, 1.6220305661469974, -0.9707483036732092, 0.791694331936663, 0.6925307648870765, -1.0125925952833696, -1.0225518120639014, 0.9302841934221132, -0.13623722273049096, -0.9775674840810819, 0.004454010877523822, 0.8616157522303288, -0.33655076158554564, 1.2841438623024093, -2.6424836362865354, 2.642239519250739, 0.5102134971008503, 0.12336695060036168, 0.8099746373909715, 0.6008684265261299, 1.401653102506809, 0.21002514959496982, 0.7876781208800069], [-0.5296077194619909, -0.5522329944802408, 0.7011615960350914, 0.9147176376433087, 0.5701956499685612, -1.4093799973696675, -0.46062991254267793, 2.9842137282547436, 0.9622950339061977, 0.36833135106327686, -1.0315294654103864, -2.7922262846687276, 2.056354179981719, -0.7111674887938219, 1.3200265089963161, 0.3769587470183998, 1.0310424330076722, 2.0536496302648914, 0.2437891729960284, 0.21421776220717906, -2.9732510576867104, -1.0538731827617804, 0.5969512800980744, -0.15774107942644452, -1.3203213874433133, 0.16155300613724785, -0.12019004488284378, 0.8280417814670084, 1.2766781995189314, 1.6334354825640274, 0.526795486851074, 0.990301117420743, 0.11939386564196645, 1.349029232237054, 0.7930151710817291]], [[0.5256786294870982, -2.4334577371298214, -0.050818549358341965, 0.5172314958250352, -0.10999430356597398, 0.4488578087595664, -1.020212665722827, -0.44577832614362994, -0.471023043057223, 0.9884523111976428, 0.07397951618911584, -1.459660597233203, -1.3275994726657465, 0.088699048144714, 0.7362018030530433, -1.1391926540865462, 0.09853060404784748, 0.9839090390145104, 2.1239653614854133, -0.8324786675501461, 0.9294932090952013, 0.7621697169202204, 1.999858268394986, 0.9315969995500184, -1.8682677171261943, 1.5017808809551478, -1.1007885944506641, 0.3295839969531638, 0.9615630498377549, 0.0240402708151489], [-0.9631397108977611, -0.2935249866233654, 2.475958952057571, 2.0677861953020957, 0.40618051649412795, 0.37131287752387054, -2.677287098285946, -1.6609154590310808, 1.272948116459679, -0.18118175210761076, -0.12925171747536374, 1.1006105812978195, -2.4470915369712203, -0.6182945916530638, 0.28280249043675604, -1.7945481155687475, -0.1301279367886068, 1.0813619380986814, -1.1259421453133909, 0.14481611449044338, 0.3356786458791293, -0.10110992890477341, 1.457264833730759, 1.3772135850773977, -1.2099133454348183, 1.187146134294894, -0.8096998585493321, 1.4667948192950955, -0.26501696357872645, 0.2786539393390165], [-0.29161398727516513, 0.5363979865544719, 0.9391951222138738, 0.39772344528671233, -1.5081169018388336, 1.5465640496590958, -0.2979665520456022, -1.8139421021883964, 0.049342676466913815, 0.3042971446179902, -1.5281154170019837, 1.794194272641046, -3.4155872589099188, -0.03456013113760038, 4.003810304380951, -2.2475072559649236, -0.07811236866057729, 0.22899441414413269, -0.5589897456263845, -0.7145387124403761, 0.406434279995458, 0.3593147331113549, 0.17967703819748349, -0.9324424363952895, 0.70831339127162, 1.3608596619281952, -0.1562828670668677, 0.028420239019155656, -1.5883356973967726, 0.831597744233442], [1.0049246968762369, 0.5018040125478467, -0.562025033361829, 2.0496278354307442, -0.8350097622383511, 2.5202091286503334, 0.47857333126717444, -0.6066506279507241, 1.572765584912012, 0.38029373965914054, 0.8441648942367919, 1.3264007684089307, -1.0862708637964038, -1.7595146942237763, 1.9001503220194356, -3.0032303374822953, -0.6982914484912118, 0.8335969274443504, 0.5161630359218513, 0.6675522449245332, -1.0405730136270077, 0.5000623889488576, 1.093357537538891, -1.0861095682310933, -0.7833590416914141, 0.8912411235634816, -0.6753017013515099, -1.875188409038027, -2.0594490732055393, -0.48745678422114913], [0.6543376156190212, -0.22356708314035814, 1.1558458784201233, 2.5680110608669993, -0.3114737727794294, 0.8176240420131285, -0.049166684412560877, -0.6924660950438667, 1.5821618185675144, 0.7725805604411301, 2.183654495394813, 1.5991835217178751, -0.2178602054515333, -0.35665287526984474, -0.6965348780182621, -0.8203013793319508, 0.5168831302155835, 2.766898940192758, -0.6760742928736881, -0.27042137799004173, 0.28985615823261096, 0.15437336316759745, 0.16795624811550702, 1.9890896620453726, -0.5444303095663622, 2.478722055097684, -0.4527050884741391, -0.37004316035885393, -0.38727487755971296, 1.287193537000538], [0.26543490013274107, 1.2960232828090559, 0.3141130740082143, 0.31362227182721825, 0.32443913981271577, -1.018187087290686, 0.23170102369444764, 3.535464542146091, -0.24391992553682185, 0.38260430805828055, 0.30232793903645105, -0.9653733448534869, 2.100494188113249, -0.3983623548796504, 0.7258695031281566, 2.0708719195138015, 0.6174945043235452, -0.06459722728929819, 0.3848587282762441, 0.6412054338626746, 0.0646611441984138, -1.9340293249616756, -0.8293668370608679, -1.3606413062098195, 0.7382338784669724, -1.5498617209901024, -0.1294025236882193, -0.607241000469845, 0.23821656990906362, 0.1207651379075869], [0.6477731682158381, -0.00642032350355645, -0.5213526674726318, 1.1624129170510986, 2.8770381614615723, 0.04919636452551372, 0.2885713026695229, -2.344326190426375, 1.853100696489427, 2.3220292981875725, 0.9908353638980203, 0.4293578962248417, 0.20134533228375598, 0.1554962792208941, 0.2812969700319026, -1.951569073736841, -1.325147966893237, 0.16412651948284634, -1.704200174520275, -0.9792014728935928, 0.8278521118451205, 2.1796687418446736, 1.1337152580766832, -2.918580769337207, -1.0136970983269944, -0.8705464531239395, -1.2531088376387651, -2.645294097805762, -0.45210244568674224, 1.08742185426944], [0.11227350911341887, -0.5676070947811397, 0.6824546183122037, 2.1639553421299023, 1.0604349774739055, -0.2835215161476664, -1.6632550194341793, 1.1479533828133135, 1.6595662566349179, -0.6878726382830709, 0.7389973827974566, -1.8335092490208937, -1.859762217459734, -0.49464374030971564, 0.5444736579382882, 1.5261836837335392, 2.4090462850584706, 0.40320932944348803, 2.492150523789957, 0.12320794465183464, -0.3118458177068989, 1.11560349715094, 0.0331415966171158, 1.5071893006106827, -1.8011358294773088, -1.7450933003584226, -0.39969152096247945, 1.6883862269400192, 0.28676771775084153, 0.40790351245055717], [-0.8379048440565411, -0.2244847618096124, 0.804092068867855, -1.7345244657270353, -0.584337599360258, 2.0363925789133557, 0.2624803224401907, 0.14723746259974263, 3.012046678510167, 1.4874877521307042, 2.3607887413462683, -1.2348810184226322, -1.6579117008163247, -0.24119810540482842, -1.019425384659544, -1.4125253685426697, -0.4852205042724668, 1.5730384512219955, 1.914694847224661, 0.9728382816145307, 0.9716193726533598, 1.2975906191973576, 1.1480576461126375, 1.0064050156275353, -2.1009412776536225, 1.6525573171127446, 0.3939955919459835, 2.072116537087921, 0.6583651655126062, 0.1687462037784467], [1.1515265266059063, -1.2538455472760763, 2.5004326113515662, 0.44129684153067467, -0.006783478783736625, 0.24981084910863596, 0.15343165474669865, -1.9959464088918137, 0.642529503863663, 2.2443512181813197, 1.4590623638439533, -0.03533615184642996, -1.7784122805666134, -0.6466106474831526, -0.6669467640038077, 0.3999753696182445, 0.6877393371454613, 0.6490640784404196, 0.9109288179219925, -2.0600933971321553, 0.8406157073248166, 1.002082232089283, 1.27952654091118, 0.9656176688584229, -1.1154961402502404, -0.2280791365762424, 0.1604729108714018, -1.2630447643244263, -0.5860274318835837, 0.30065819837239666], [-1.00631373911711, 1.1469910378723442, 0.6402295633421571, -0.33349780262483314, 2.8373462902711797, -0.5787234950063734, 0.6043628298921593, -0.3790593091052338, 1.9587689830924706, 0.8147511522701958, -1.8486274418195816, 0.9443168642920559, 0.5460261303133604, 0.7243576303426691, 1.1438071717366651, -0.19514067429937032, -1.0692285908822072, -0.08452711454887635, -0.41726082546030624, 0.8103815679221363, -0.18724851159158618, -0.8427057463815584, -0.5178658358047827, -0.9881898369649857, 0.9993320424640781, 1.1500761686322072, -0.6401103018100718, -2.2623810112575202, -0.8043896203554731, 2.587885613095088], [-0.9519844938589236, 0.7536310465157017, -1.2083818989622552, 0.4515177611346833, 0.20122114690764192, -2.217946169157279, 1.6628992990488725, 1.0152744527981659, -0.6894613495145476, -0.6760878735039134, -0.9558159217950406, 0.6616632792551308, 1.5831474423559078, 0.5966580214687303, 1.291268785724685, 0.6855746819180764, 0.6945999429205398, -2.4687906658529983, -2.6174935422931815, -0.7954869119732929, -1.3151711151722463, -0.20656437146046833, -0.8088868916245099, -0.837195763964467, 1.8726713068198346, -1.8944116328041476, 0.22747229692782722, -0.3828055268370404, -0.44087433335868875, -0.8372527962305527], [-0.5455250250953249, -1.042824075085834, -0.054054514883782157, 0.7184433992934082, 0.11855160340558198, -0.9940717122449281, 0.18315718970586622, -1.2658613523431361, 1.1591716811161212, 0.8136989851766417, 0.4713109076235587, -0.5791545764675446, -0.9935981820048562, -0.25047759459414937, -1.3244283159212382, 0.8046329102905707, 0.0362337099222081, 1.142686814778226, 2.4554817571540037, 0.5900637940307346, 0.3308259256307055, 0.7067534211740923, -0.49915370644850954, 1.8109835273441395, 0.9158320335993337, -0.2796881445825696, -1.38654951981376, 0.7403757832825864, 0.3091545110328722, -1.1409520263803707], [-0.34377921947380463, -1.350855745762084, -0.8565947703716692, 0.05547687714745443, -0.910040240705821, -0.02775471058400912, 0.930125274304472, -1.5127645777130265, -0.06970744309609447, -0.5081717147777326, 1.4969244986136903, 2.50177206367362, 0.4104772336517465, -0.33911065299611093, 2.6731700198554775, -1.9634210277298794, -1.116804115630073, -0.8093827694043929, -2.239977465630486, 0.6029082130611071, 1.6762627168247204, -0.12986082572902533, 2.009041160824958, -0.2274541296794754, 1.0256474048350783, 0.7306001820527259, 1.3000652207846337, -0.34784624471979414, -1.2838511213995136, -1.9092112755101613], [0.042603008385454125, 0.19805048633659791, -0.30463308445458154, 1.3328837818691632, -1.9942431198539956, 0.21533360166673088, -0.24342658860715832, 0.4765183505626794, 1.4875951770026736, 0.6201581972225416, 2.674267482083846, -0.7162071136940291, 0.6557425824522634, 1.2351629764226562, -1.9704526931608992, -0.13397789923439132, 1.7498893562096307, 1.0412200831245684, 0.5854001865692999, 0.9942827160959802, 0.2859708853659304, 1.6882945242305065, -0.42635812225741865, 0.8724778152395513, -0.6144225165741984, -0.03601800392729535, -0.3940472026204215, 1.0316883649440334, 1.2984343548677113, -0.8571326414888626], [1.9041766539116989, 0.37490739696025144, -0.38300127038231124, 2.5583867050535125, -0.27818485847645563, 0.8494938855281259, 0.9832275773867951, 1.1963819349093272, 0.8894858581736376, 0.1418456302008139, -0.4399897188810971, 0.24169637632316046, -0.06571447695296209, -0.44811689324580656, -1.3677031890420592, 1.7047756447477762, 1.496327158007105, 0.026814147054549816, 1.040574674174, -0.47485085121513104, -0.568266563314381, -0.12057939775082036, 0.15949508378073232, 3.5705173568686654, -1.9782290047030178, -0.9733369601137696, -1.9484349339049096, 1.6407144519462942, 0.18205360541534826, 0.5177079569548907], [-0.9873328335631534, -0.08282383555782212, 2.243513324906387, 0.4070447554820901, 1.326384672070199, 0.5898913984968832, 0.40341085466538457, -0.029786676132563458, 0.0972558045882191, 0.47388009843198653, 1.783018937774039, 2.4770083197420094, -0.21589313822399098, -0.70081121512006, 0.8692441508329911, 0.03361362688145781, 1.0981360905591289, -1.4968430462618239, -1.3688923829983906, 0.1389875247529413, 1.4118955339349326, -0.6947132056532321, 0.558710677327294, 0.7513418491653587, 2.3098643719962997, 0.5149204966518214, 0.3026839239719703, 0.35290491785667577, 1.5590562429295767, 1.5831126049585473], [-1.4152994128477512, 0.674512555101455, -1.859524922356899, -2.0642533883870975, 0.8641178012899269, 0.40972594259182016, 1.4344723126269323, -0.3964179516291434, 0.18273745407510225, -0.42658848746829886, -0.14173599652536467, -0.7068318998938601, 2.2736830244890136, 0.5797752716587132, -0.24080796344154706, 1.2264374446854878, 0.3143108511117597, 1.0552005433275395, -3.7201497645329575, 0.8055537188839375, -0.7430806616046469, -0.5952436317438681, -0.40806144603242994, 0.38169122013252665, 0.8484156573984362, -1.1706996444477258, 1.5125754635910957, -0.14796212578473095, 0.5804806573853607, 0.0908623804872744], [-0.5089401578675202, 1.1967768208079208, -0.43677937287339214, 0.15085355536074127, 1.0510708880685695, -0.4179951485703456, 2.055285884341002, -0.5622794823932811, -1.4697916404333757, -0.7259634889388945, 0.1875256823972545, -1.1576883400515343, 2.2335039828385708, 0.4626874046392551, -0.818796076400483, 1.9414415590672682, 2.4728324908927384, -1.224937387263271, -0.9304648089298596, 0.961270177136989, -0.8809729067519905, -2.3069260149517734, -3.026676553058369, 1.2146424910007871, 1.6489793149516012, -1.370391657543981, 0.03961828239409845, 2.03642247375425, -0.04533778365318168, -0.19241049521505801], [-0.09277699147506242, -0.25292059250200355, 1.397371194842371, 1.585245004400251, -1.8261197093822048, 2.2407412477091304, -0.2550717359918409, -0.7345642145778012, 1.1483542301835952, 1.7130201400274339, 2.318700305183052, -2.4432775146562657, -0.8859966279995248, 1.757159221210811, 0.8389093177367601, -1.0810556608693151, -0.7096708865552117, 0.022949040780100245, 3.5458795470665483, 0.2958161702417767, -0.2817351303808764, 1.589943173170777, -0.17275313496227793, 0.24634530771738494, 0.18043713268886982, 0.04536715129427658, -0.1191636337308325, -0.3927267581952343, -1.173519555993394, 0.29138213265691437], [-0.6934825764770438, -2.03550894242644, 1.4987501621010695, 1.1000428567397853, 0.3431866734005764, -1.4228740051294222, -1.4309916688369941, -1.2496339979028597, 2.1731225690953853, 1.5232291383657022, -0.5065026208535454, 1.2181864324455405, -3.099313637622658, 1.5532404682215, 1.3179693277194973, -0.6451358318445869, -0.9223963083675508, 1.8739440447425766, -0.12338878288044011, 0.16433899730642246, -0.043264692810725355, 0.0006122655226529451, -0.8991390724588458, 1.5014262016042499, -2.124539007359825, 0.8894637176821703, -1.16839418537528, 1.3957356762789719, -1.0169584451474205, 2.471659499293478], [1.4718677875802193, -0.07966570559772317, -1.4922772260971982, -1.0297705239590065, 1.3776532147914224, -1.3558329093659607, 1.9452394416876186, 2.1799477857759086, -1.8749031081765126, -1.3888041288864488, -1.774266056287205, 0.6296241711545861, 2.684840406533308, 2.169619242573314, 0.09394979050260356, -0.6453061059937959, 0.9853486488364246, 0.6465405962714433, -0.17781993740900615, 0.07716741079152596, 0.13596879781916069, -2.0897418437057005, -1.2933807164632458, -0.248562854788489, -0.03896561275419231, -0.2703621386394587, -2.2806416398456544, 1.0100881124183019, 0.7061367711464946, -0.2045901724904953], [-1.0975207041654518, 0.1535683796622989, 0.13110907771123656, -0.633794007576393, 0.10378964204805573, -1.327535499502837, 0.5423906402601544, 0.8780501920397024, -2.1346796507067682, -0.9814060958859823, -0.05249809217791448, -0.5353019870338688, 2.217136106060614, 0.2360610414391561, 0.33817021083955723, 0.07716671724818272, 0.8189503682255241, -1.6947435721090662, -1.3437340615236248, -0.7649864312725226, 1.1454714214344768, -1.541575086184494, -0.9000842336099808, -0.4513143516152999, 1.5637360300358214, -0.7018992914133854, 1.4427834208485821, -1.5186622652382695, 2.2792727769481598, 0.8363013185996461], [-0.9548708167273088, -1.214564090086692, 0.9139221766560899, 0.5390539105525065, 0.19614704559306123, -0.13787780681755668, 2.6954486970853004, 0.6622504472867362, -1.3964570586305, -2.5613752506204186, 0.7876273023744383, -1.0811299811267183, 1.1903966662112881, 1.5542557333341243, -1.1290544472830153, 2.5345132812776576, 0.5108402289320426, -0.26111346687909265, -0.46374131051649625, 1.7159493242481343, -0.422286439867529, 0.30384920194597315, -0.608558636366979, -2.201177388219226, 1.053805769999068, 0.7045156033542695, -0.20566603120611474, -0.9638669795824671, 0.8603746478013141, -0.6260770713883209], [2.737242001504452, 1.1203738054815866, -1.0236338834762466, -0.6571067628928386, -0.18825513610275157, 0.08893240580403904, 0.7458620286740637, 0.9240410237760049, -0.05406344640050214, -0.06573920732524549, 0.08533861256187955, -0.4766222323492652, 1.9469837597110824, 0.05834215247101876, 0.14063687542967343, 0.5446172335861984, 0.5408605972849164, -0.737154066341393, -1.9648072035558894, 0.42375882078221244, 1.138837791507997, -2.6707446173919087, -0.9192138772515642, 1.0671532778520187, 2.6991619845002006, -2.5643248711101654, 0.781120905752773, -0.21693230593602292, -0.6081791552672012, -1.6343957267322904]], [[0.9599810948431929, 1.49900784516925, 0.9939749703674341, 0.4308710571396225, 0.44860502821671433, -1.4543174087063908, 1.2896539796545619, -0.4946740811560787, 3.132259459896462, 0.27628210246770846, -1.629447792570247, -1.1983605859093647, 0.6292418146032448, -0.7792688698375968, 0.7118554575417738, -0.14890133678871206, 0.3583232376081255, -0.59478705616832, -0.6125718058129335, 1.7822599271169477, -0.13782898865207743, -0.445015969103269, -1.5570014830743948, -0.21175984735714204, -1.2039269994600628], [-1.6081318224627175, 0.02827589828750586, -0.6989194036530361, -2.0270417771929083, 0.25461756866541735, 0.9532411585039505, -2.1202157749106796, -0.04510167271279398, -0.38067617960851435, 1.0654987921010441, -2.307535417428265, 2.144711085637926, 0.03232067735448653, -1.3424115704262847, 1.5985313473317058, 1.7708111076852076, -0.5827598735200803, -0.12398164724416033, 0.2812376716466598, -0.18901758668096874, -1.1031992733968845, 2.184075872333293, 1.2745540099455708, 0.9287134569882731, -0.21270672923220596], [0.21093984882715194, 0.7393050168976311, 1.2668348764212658, 1.6608632662902378, -0.5926969430962158, -1.8643945704387292, 1.598410544204617, 1.7637953515575, 0.8060476988644736, -0.6047517491689977, 0.09126028354029204, -0.3755664420904882, 0.8730277476889917, -0.09625631190265725, -0.20084518716275443, 1.5237409028546087, -1.019152879479588, -0.33833896857799606, -1.1110960419088172, 0.0076571524422733425, 1.2216762209322825, 0.11567070315696132, -1.2511773770930363, -0.10032957538591747, -0.834101112190312], [-2.0072891295958053, -0.859256829699403, 0.35486102133829245, -0.9188238672220587, -1.3259885757499046, 0.6011127498124389, -1.3062639435270165, -1.4907362024303696, -1.6382860601903964, -1.379360469360759, -0.31539384368724244, 2.255879341396745, -1.247720513503329, 0.16614271020874607, -0.5616952174866898, -1.8612777672718641, -0.5428378052223052, 2.1342616443702913, 0.7647738113751388, -1.355913221998976, -1.1767109094202308, 2.016989171697345, -0.2526616951390847, -0.6078706541010136, 0.3476203820930658], [2.005961557171276, 1.7108158650388403, 1.4578762112351091, 1.2082623936241086, 1.153456026230651, -0.09752145947349844, -0.037353759360670105, 0.69876706828793, 1.6729609700747226, 0.9456328238057223, 0.30410310647807176, -0.6884461328531979, -0.10113508416913436, -1.6015733100081868, 1.4632969260137914, 0.698684005521854, -0.32135847284616137, 0.17369998645096027, -1.2042906417064323, 0.9114508725264487, 1.6601431815494176, -1.5904112562242956, -0.33145566860560555, -1.0812255673565425, 0.5423318361685388], [0.512337849039658, 0.04460792307194398, 4.042938082307133, 0.14379808343115194, 3.065308957100381, -1.798214374423295, 1.8037009786103364, 0.031491237825415325, 1.6470869762158897, 2.066334206723467, -0.19605667238453992, -0.36109397981696617, -0.5787327111810759, 1.7352449117247828, -0.5590315273569048, -0.5058563847148573, -3.1867869481960476, -0.8302083964668354, -0.19722376594835656, 0.07771733725389006, 1.5706474385363571, 0.549812761885848, -0.06552198148257009, 0.6825812553206771, 1.0484787766790173], [2.364369739362932, 0.9913220391548203, 2.061989941452001, 2.6730939368874638, 1.8544285848796147, 1.7606579496575288, 0.8016590020605365, 0.6898196057322861, -0.03175262148751884, -0.32750919942831014, 2.1846925787894995, -2.619596591859811, 1.1490695351235742, -0.9572034815286726, -1.6369861277207716, -0.6035169356845773, -0.017101475805571337, 0.08818017893726779, -0.3182179450003933, -1.5921872241425543, 0.07559656967049286, 1.1079082923920347, -1.4124781246523015, -2.4971263334431653, -1.4495312034846215], [1.0197747543992401, 0.7941791398940121, -0.27198455374462177, 0.8580665287583558, 0.5477745252865741, -1.6095376849609044, -0.5489653570326147, 2.681228483285922, 0.297484349244022, 0.30797696622363424, -2.8690428674385338, -2.525907840684099, 1.517030149954922, -0.9613510250525771, 2.0762052660788095, 1.841025464014169, -0.31565774886363324, -0.9620053089886051, -1.3467224188238687, 0.19990645305420277, -1.1914547545207874, 0.03679819680837284, 0.496103301349772, 0.3384763970385095, -0.6894485401517823], [1.8221778767756995, 1.2188442691224288, 0.9581108665879877, 0.196346220902941, 1.7930342426247652, -2.747500342711843, 2.0313824425504996, 0.18003061963588368, 1.610625044066686, 2.2410822047090915, 0.8411370833993809, -1.4776464444498423, -1.2542651873619313, 1.0786045086796514, 2.207361963869066, 1.1426437519244095, -1.4617517625479821, -0.3520536563483842, -0.3484522602957817, 1.9157657181324157, 0.08908122282641973, -0.5600662400116003, -0.41297888964813867, -1.5026059013450304, -0.783146090980425], [0.561340436375336, -1.1118683760495836, -2.006540228907318, -1.8017834851754313, -0.1398802833926141, 0.14492590963592739, 0.41402094964742225, 0.5144521928925613, -1.5909443844102042, -0.437898282545308, 0.43022324539391343, 0.537889677054796, -0.2084983268736685, -1.4840420606843476, 0.7311824351772725, 1.4170650683502475, 1.0795125142010717, 0.43789217811799946, 2.751304548666513, -2.422072816640611, -0.2821596173803809, 0.44758704730127963, -1.6127563509843896, -0.15608581875909613, 0.5610722822437513], [1.2182893030896746, 3.1557495766535246, 1.2577758474345242, 0.7183130437780162, 2.3075354675576394, -1.247861269048079, 0.6752451412910786, 0.4620930037503085, 1.7309377847905747, -0.6048373848269918, 0.30365377114057945, -1.3129170435190465, -2.486240744662714, 1.1789099232489755, -0.09903283414328629, 0.6304528981877022, 0.7355928861042065, 0.15478020188673303, 0.20313588658861534, 2.8348412515073993, 0.9317868126058656, -0.8682136016705533, -0.16104358348669015, -1.9125357851624492, -0.05925692188965698], [0.8987249146611196, 0.8353058493487721, 3.2056291170033955, 2.1804197091639286, -0.4867836427392266, -2.3576756619592287, 3.090571199962869, 0.36646327374937687, 2.109795352295033, 1.4987980170629296, 1.142680782134168, -0.3857563051186956, -0.6644985978543778, 2.1410413481392254, -0.9083945752825844, -2.1930894309930995, -0.41874036781761365, 0.015556656549060147, -3.4594645912694753, -1.9079334712128195, 0.4232990903544783, -2.2283074958618725, 1.5708682514519237, -0.893072906059506, -0.987806192625959], [-0.09284893852972097, 0.7556175011612444, -2.1182004733575255, -1.8714719398902746, -1.7516339594902046, -0.10315524024995103, -1.6446770391140175, 0.6899640963551518, 1.2309431347147057, 1.082313406507689, -2.084092789701551, 0.539080307105153, 1.0004799236325306, -1.5199590654226864, 1.6556996797474863, 1.7327236943580242, -0.48856127901798213, 1.4234204887562285, 0.3604701265305329, 0.4315701823471302, 0.669802672585163, 0.06925848304613853, -0.4961663857150446, -1.3685305101444396, 0.5478209273419736], [-1.8626995735758685, -0.40957200596791143, -0.9746222902767362, -1.8319927629344521, -0.7279526293729875, 1.5229320724551778, 1.020411787679545, -1.0471332309913304, -0.3476212877516747, -2.1108473267306245, 1.3630339142870695, -1.406562119843926, -0.051939161161373266, 0.042146778933641944, -0.9699124310756703, -1.5252955357439884, 0.765592507187883, 1.3490683033981314, 0.7407804553227724, -1.9394020834399848, -0.27794922007347234, 1.2286444768833005, -0.14082452720386376, 1.5669196778682701, 0.5757243525035393], [0.17065392162221799, 0.3113581612165712, -0.3583927993693807, -0.9576139122410233, 1.1378283927571347, 0.028922848823707756, -0.16006201237036619, 0.3307702219918122, 1.9590839972914151, 1.3828485532780013, -2.1210774225761346, -0.7015880315962187, 1.2582750028504093, -0.8925986158951317, 2.3810819474774148, 2.722185410235382, -0.09273112609573964, -0.6376536258838341, -0.7476378281662167, 1.961967028457957, 1.1431613631645579, -1.6866363358152687, -0.578242952017581, 0.24266786275571076, 1.2764832237137032], [0.8855498879270766, -1.7958425500161592, -0.9175864421456813, -2.5945494933032736, -0.09828803073270242, 1.265382351232472, -0.5191916776344678, -1.8352751564145613, -1.3903352250127228, 0.29184969454096077, 2.369461992221498, 2.5594760007723876, -1.1984476895864926, -0.24675863933672224, -0.8059100872196053, -0.20343099442261645, 0.47502584571804746, -0.18287159801165512, 1.8061191954745, -0.5495745839710406, -0.9166764395112151, 0.18456714386730344, 1.700984647250148, 1.633721430616019, 0.8613032726646043], [0.0892347972192512, -3.5321060061917087, -1.136515286344346, -2.0499388289922154, -1.1903608050185424, 1.9385497475971538, -1.6239526572817684, 0.22394487569119348, -1.9985931841488498, -1.860461432226281, 0.34615128791594896, 0.6008950182805772, 0.6232643500219435, -0.4428034397644774, -0.549462987272288, 1.043260855626982, -1.3826781577794374, 1.586236456095262, 1.617043284361107, -1.0861383948335055, -0.9332152901654471, -0.3687301472684161, -0.11165817790817237, 1.7373988855887337, 0.8078177028861221], [-0.6741272624246522, -3.221275668559848, -0.7954701906176211, -1.404428185464535, -1.2729628370679786, 1.7957552237311714, 0.19227057625005303, -0.4017492330261933, -0.5141192796244194, -0.6029578525935959, -1.7056917528813986, 0.8153279696765464, -0.861041512138163, -0.026387382211109915, -1.5928261580434089, 0.783117717773396, 0.36843731896319243, 0.6657414739423958, -1.1890924581722098, -1.1925198677522588, -0.4129250558642402, 0.4639693459269393, 1.6668940102470884, 0.15579558655647532, 0.5265372146999874], [1.7163813549583025, 0.6934569079204215, -1.0811676090563165, -0.19418101644724134, -0.8651270235915753, 0.9464584346671354, 0.003157137147991953, 1.0016644897331164, 1.7487106731698212, -0.7683605086876328, -0.16181593269049968, -0.8907364109401584, 1.3027605688138544, -0.8258905159364957, 1.5318703042125994, 3.162418444326278, -1.668910290810045, -1.173773301408359, -0.7208036528334654, 0.7335614550450581, 0.15197660372092106, -1.017159821889415, 0.2757332662564779, 0.7635220078463834, -2.1401080899270943], [-1.5795466094084674, 0.33783972800284073, 1.168255739239262, -1.4179471409318634, -1.702493697110318, -0.7928711005167274, 1.141661495805249, -2.5995376113501734, -1.9466065951163585, -0.9024641210777068, 0.6164762871226973, 3.3002266870548245, 0.03704275634048851, 1.5306990114902461, -1.9262596340601748, -2.8978886589226476, 0.8512339597814307, 0.6570336186012768, 1.1686574254504138, -0.503839482618117, 1.1697426607158978, -3.071709810359344, -0.5968726477756199, 1.0058601543834016, 1.0219091024700842]], [[0.971403824421446, -2.567435106198452, -1.1368054495446729, -0.12377652656662377, 0.7851768410850964, 1.5211942278783115, 2.212586681574062, -1.8811131584146576, 0.39200025536282485, -0.23960956216417234, 2.0207067366790388, 2.0078990237369734, 1.7609051847885955, -0.5881715809381792, -0.14834345180635988, -0.8557139142781763, -2.7107962964132306, -0.35593990283709925, -1.7699835086900775, 0.47565224920001603], [-0.7316620482212649, 1.2164683224792074, 0.5944048273038602, -1.861892849115859, -0.4043010795014927, -2.734427778564312, -0.3583709942058872, 1.2623693201148474, 0.17050483242798697, 0.35527536528028186, -0.7471725999308021, -2.1039054535033856, 1.4962727303040932, 0.24257864932780326, 1.722965208481193, -0.03695159340318675, 1.195994336955227, 0.5251498627183595, 2.1109406218991773, -0.740222511902241], [1.290640235237781, -1.1375324807437615, 0.28250333823986173, -2.3562177960260273, 1.0223341221456546, 0.9480538749306491, 2.02022763912363, 0.009059573303779322, 1.0468812582748597, -1.3127332043231121, 0.34227407971216456, 0.6805715892792049, -0.26890692123838805, 0.031148700462613137, -1.2974123492052154, -0.015324154906737436, -1.996619729705387, -1.1100064985973612, 1.2286286854468713, -2.263447750481748], [-0.7063463950737296, -1.1757214308984563, -2.26036827279983, -1.090205088087047, 1.6458866841418616, -0.054763249182423986, 1.028246948818057, -1.5305909334261893, 1.4221866900635627, -0.7133155983624149, 0.4486780719366994, 0.3529102894431147, -2.3959192081499276, 0.733951434193445, -0.43091781441571264, -0.5302398952326568, 0.33035522297684206, -0.6466085990361076, -1.4139535780990884, 2.9141869071931894], [-2.3431629252838593, 1.1646680778433443, -1.3561641517734455, 1.2332298065722822, -0.03246520563255625, -2.17048355644543, -0.8397205641840189, -2.5395118020125826, -0.8238320284709362, 2.212553917774966, -1.1454093463757697, -1.9625185025503438, 0.7068586312043782, -0.572824640526931, 0.07971827827274172, 1.3752449661659403, 1.3351127242955911, 0.4937012187989211, -0.7486330748863421, 2.4137824607648937], [1.1424000881538234, -0.9877965849752816, -0.2142529858298111, -0.9874970616503735, 0.1840509824423669, 0.746221603046531, 1.0139957820590206, 0.23079548163453037, 1.9780597367679864, -2.408920010755528, 0.6687436995099463, 1.1626535666301339, 0.3296110992412839, -1.400144305299044, -0.020550688073282152, -1.4907736165900236, -1.2711500394239261, -1.8370807882976892, 0.5373410395774609, -0.7939510599336893], [0.439764051138757, 1.4000862799722547, -0.6610755714572792, 0.9527696869546644, -0.733994038772086, -1.4263299245545122, -0.6450727236835693, 0.3412554085314698, -0.09867781384666778, 0.562477162320775, -1.086279039256887, -1.143663017783981, -1.4580996044425427, -0.5231961387992244, -0.5120608578410979, 0.23329665780363487, 1.0108518568055678, 0.48203805561195273, -1.1911223839926333, 1.4307095542652226], [0.7454753738065875, 0.1973510754221113, -2.2954144778831393, 0.5508129992094608, 0.08242184486929889, -0.1515664595631646, -2.9664893951573403, 1.2954564785727096, -1.176346408181222, 1.3761091379786563, 0.3692513476365849, -1.3140314560875395, 0.24828783668929763, 0.030057665283101918, -0.6717183343675271, 0.3798686042098755, 0.761623938938668, -0.4274477476497347, -1.3194609783825348, 1.3632742669772082], [2.1588461041639118, -2.1139273299449024, 0.4945038448198805, -1.853320089554346, 2.377386852331838, -1.1236444082200552, 1.60674940730679, 2.3208531964779464, 1.2934738909562875, -1.4198395382951647, 1.3490379936754606, -0.027503941723748065, 0.02946356504263774, -0.9611720453267367, 3.0950588893220843, 0.41304083840278183, -0.06777976417129021, -2.008208352312754, -0.12221417223851687, -2.148449725445226], [1.7608449197734488, -1.8047070381598973, 1.6011731220922494, 1.503690778731426, 0.4698777387306106, 0.9353786890028704, 1.747574654566111, -0.2675174954744528, 1.8923917895215674, -1.6943212435729236, 2.310874302313242, 1.9068599295505015, -3.1939716587330786, -0.7497747259050005, -0.15881261817928513, -0.4583785456007675, -1.7601125707091745, -1.149782719500395, -0.32311832855746614, 1.0717902692459358], [-0.9818966059014348, -0.8237725273100489, -0.9725054919971586, 2.1001898020330048, -0.1388892724758273, -2.1396085730737306, 1.159016487890954, -0.9811946919675941, -0.4305236251472344, -1.105387069150735, -0.6847004489635724, 0.35328084333334264, -1.4239092384926688, 1.8073664922399222, -0.5883004342584427, 1.1086116944681632, 1.3556348218675518, 1.4726514360791676, -2.0911058459888014, 2.3722039007452205], [1.307502171290474, -0.3742711314634803, 1.097738035454954, -0.08775531584397264, -0.1912964837066513, 3.395865460385513, 0.7934662094291635, 0.16932121674578687, 0.27342719777754265, -0.8165331570746984, 1.7411813163800207, 2.07232802593572, 0.6338363104006259, -0.5079974770724036, 0.9890597602868874, -2.0824743765469127, 0.05370651850678218, -1.3887075113384202, -1.0350417659594295, -0.3500166391886207], [0.17881356077988195, 1.2785103900807415, -1.8618689232318553, 1.0629046028037161, 0.7963419156682336, -0.1842726076617877, -1.3146768331387275, 1.2022994883912133, -0.06415680077272372, -0.11483400569040857, -1.639948407063915, -3.432908527653072, 2.389483224438717, 1.6287099985426192, -0.028819053584644854, 0.2733601614726067, 0.4935792131228892, 0.8367726375402189, -0.44893815861400027, -0.8660504909605599], [2.2661315203493055, -0.7824995521293824, -2.352365388185887, -0.22295501451459432, -2.3640004268605943, -1.3862176203575023, 1.3886829322664476, -1.4526544222021203, 0.6254898036429993, -1.1488376328499545, 0.6788950583828052, -1.164286390604864, -0.776329695599832, 1.1655605855962206, -1.8858325321020442, 0.3332730934268503, -0.9902038958260642, -0.1393976812846137, -1.3416199689666406, 2.8667540129472204], [2.271900365073672, -2.295827178382577, -0.07247628328492459, -1.091948670835554, 0.5051623113647862, -0.595266513242746, 0.33008230659911236, 1.439623420596324, 0.22870530920767182, -1.0219597778329248, -0.34878858405501534, 0.7844213027705024, -0.6767886847871597, 0.6013743815368513, 0.8664058918690923, -0.018104740584520232, -2.6678953920736324, -1.110968365420096, 1.0485310624425088, 1.4112173935292058]], [[1.041756357231541, 0.3935874706383721, 0.7550332626359293, 0.8920940966672587, -0.5731955800961889, 0.10777590012064664, -0.6579251479082949, -0.15244055884713026, 1.4206465441188605, 0.6673595133414006, 1.1806427679798026, 2.064055620087692, -2.428525764088198, 0.8776191779008152, 0.36958530491711183], [0.9169189862913198, -0.32520871334674173, 0.11662579483004223, -2.331120761033891, -0.055200073716524904, -0.8512197158865716, 0.7430539709691618, -0.6059445901300312, 1.5514836285516385, 0.9153782858171146, -1.2908099665123698, 0.3932942361253786, 1.6081556716791523, -1.3781639753563855, -0.05510882155517555], [-0.6757870202800287, 0.25073745302204664, 1.6669941706186957, -0.9123147315332475, -1.2746695058164543, 0.6254955895435671, 0.2883680004491804, -0.4351159067979231, 1.7574589810768446, -0.23503694139092643, -2.033076249475767, 0.0524804457891479, -2.441835683246879, -0.4556179076843937, 1.0672038470803686], [-1.9699773276511117, 2.1028846338287854, -0.21930333193525742, -1.0663189188978628, -0.028395741861722244, 0.7528209406756594, 1.784558823645333, 1.8658538939190046, 0.07583184323090447, -0.05393795785076881, 1.0233549535509026, -1.4210270529638196, 2.295719637923198, 0.8431575836439021, -1.2106577442436173], [-1.8638544517537203, 3.767775730395995, -0.9840204021934621, -1.3686164054992223, 0.7167938241571307, -0.5305849534624617, -2.2617750995829935, 1.1540034511349662, -1.325425582344632, -2.173055347112037, -1.508251992586414, -0.8139348814505, -0.689538845798898, -1.521731768807429, -0.19798738869502722], [-0.8812768577164574, -1.021342319452498, 2.2360953625955706, 1.4310160291263414, -0.9881442620066282, 2.2378081195946393, -2.4984177073729943, -2.0256714476751654, 0.8231954277217416, 0.27021885028723824, -0.6875378269150287, 0.04380351201596232, 0.764530709202422, -2.4225372954759696, 0.589537831429009], [1.1379126379908875, -2.8260605094013345, 1.3734352272313612, 1.1824828420032725, -0.0390233510117813, 1.0492667146728694, -1.0461483064772459, -0.9981882870709282, 0.13653367755461535, 1.8752963066677515, 1.0410651967504845, 0.565550064108919, -2.114138386059668, 0.10853794650373978, 2.1041717676262977], [0.8579254495845157, -0.011027097925982433, 2.07580352896683, 1.033713015670811, -1.176080888103526, 1.1455079556306211, -0.9215433363825507, -1.8144027430287026, 2.008131635985435, 0.835841091122352, -1.2653352760131937, 2.236588352702217, -1.0058833728941519, -0.03241436797104438, 1.2877667472809147], [-0.25321881238216953, 0.9684571453950901, -0.27269070145624785, -0.16808633107701185, -0.8676605320346235, -0.8117696151829188, -1.810792586037329, -2.2939877508218545, 1.3064081669211376, 1.2608960341445008, -0.44564061893666457, -0.7623395622237903, 0.019438328784938848, -0.18957564547981262, 0.6019953331318689], [1.0430770241102971, -1.0794271151076915, 2.3377760276666018, 1.1293512811116562, -3.4482701899246258, -0.10194624007515515, 0.13846203307084953, 0.31320833556564226, -0.5550044232244017, 1.9823210872872994, 0.7028915839652248, -0.28398202216368745, -1.7697557494417318, -0.5015868788287723, 0.6494207347700192]], [[0.8185904193279128, 0.7670667766081515, 3.2862005374266867, -1.0461509740545731, -1.0499107517540964, 0.648576473221634, 0.9026160856021086, 0.7599461483648067, 1.4105082591163192, 1.3149527563958296], [0.37527066149821153, 1.1407770378070692, 0.9640269514213649, -2.4453813459138325, -1.41101225034383, -0.14778753732574462, 2.3873018238329617, 2.8286298602848734, 0.6500900653545648, 0.3820880228800637], [-0.9864928567636904, 3.6532850333301345, 1.6354707219472224, -0.9016870234612737, -0.09820859800591389, 0.5560467914311449, -0.4604415701792326, 0.39309120679293286, 1.3404196518819897, 0.6324120135056339], [0.6784274652553646, -0.7167127569162538, 0.6994925761449252, 0.5370080470568797, -1.1846919845382429, 0.8496674753496822, 0.7396469369220086, -0.747767279950373, 0.8363344426122398, 1.0982534894281808], [-0.045920457783217065, -2.4098878955662846, -1.6366621861747808, 0.0975678545557005, -2.0001622871691356, 0.2559300754196961, 1.0627057454786457, -0.0007883241825986302, -0.5461038273343086, 0.14043122554902251]], [[0.3815180115331882, 0.1493059457623052, -0.8976048707116211, 0.5209388527093082, 2.091713078584375], [2.2996485131763635, 2.0083639916896705, 1.2710370167309721, -0.2696120592602694, -1.1091007361483602]], [[0.6552255466415481, 0.14317217348915776], [0.17560691117634464, -0.3601236355942078], [-0.5894880836190728, 0.5344602674828213], [-1.3627263601923594, -1.155080150442322], [1.0151991117432222, -0.5316755894810111]], [[1.1481294525085757, 0.027708996904125486, 1.6943827681591461, -0.49285124110063533, -2.2629316015165695], [-0.9238418248342954, 1.0416142285013843, 0.9738809006770449, 0.24665787444770437, -1.7537111569161457], [-0.9892131917118455, -0.08253785963060843, 0.5353296556348618, 1.2051924535709457, -0.6174999509629143], [-1.25890289647479, -1.105819315111879, 0.3390787919025135, 1.7983441732503747, 0.12475568114628643], [0.28613090185811657, 1.5975835228817135, -1.1641797864488213, 1.234437027504393, -0.15574657046931875], [1.6292100713456275, 0.08221632745630549, 0.4780622780034108, -1.2252573587912932, -0.9084378569470625], [-1.0615023172865277, 2.283524496175668, 0.45162175175776065, -0.7125466359812046, 0.44569819001788596], [0.2785776762295633, 0.41426270998082804, -1.5541830972803174, -0.1409177195246064, 0.6988600163024592], [0.9178535628046792, -1.4131872071605933, 0.13588673722371492, 0.8707404283647395, -0.9445182063843207], [1.077167612093293, 0.5886630842882745, -0.6531479535973226, 0.09856388852931339, 1.560419416590926]], [[1.3131745901946188, 1.4157794639265566, 0.11896762524159338, 0.5828793211924449, -0.5502973568550369, 0.5584007478089282, -0.05673465082738876, -0.9912208752475036, 0.9812079604147803, -0.3570387782769026], [-1.7909214137861365, 0.9285957946816146, 0.2354047479631468, -1.1167387063778553, 0.062025582866344485, 0.8867007900640358, -0.6111127894663588, -1.1441871313184886, 0.6156443940076171, -0.8234685250736062], [-0.46601489162859977, -0.8347417522713729, -0.0601687001274969, -0.5135951647262432, -0.0702115262653709, -0.11567291817601898, -1.428412085359263, 0.8561863867485604, 0.17047383838678473, 2.0515832752965633], [1.6968304147109114, 0.3987004537012921, 0.8086919945094339, -1.0619225364113856, 1.5058547485688538, -1.106667495305709, 1.6726883116153421, -0.699030615590531, 1.956245944925782, -0.7808221187909639], [-0.6109351849224148, 0.553510900368518, 1.7466122321466455, -0.5096710928254274, 0.08578877552528043, -1.7978054706859614, 0.07067527717374616, 0.6945692333220284, -1.3663328420887633, -0.054461162535940015], [0.02483345520374585, -0.8048695270296308, 2.2839969316744453, 1.3549327342489605, 0.8807221892828575, -0.8694000106664082, 0.09966606671748968, -0.47561095121374564, 1.5439409698555053, -1.0353641442173265], [-0.5931592666921786, -0.7600336975586525, 2.1397230773898555, -0.16078721502463802, -1.8552947890077849, -0.4506907145139788, -0.6642304340653407, -0.03434342671514919, -1.7182793625012973, -0.4853989852960484], [-0.18248789546297556, 0.3491784739816102, -0.11979216826664481, 0.595338102470207, 1.3705044630513168, 0.3005065002104918, 0.7714450865034012, -1.1226089652849234, -0.20532562595151807, -1.1219658908503871], [-0.49739304108700555, 0.5452902922469632, 0.19717024206368214, 1.0517440907751354, 2.001080306156892, -0.13932536892676411, 0.6248913321202806, 2.0776229514500635, 0.026883818605718694, -0.030365449441330895], [0.1575451012074978, 0.5952479328997413, -0.6810433958481374, -1.0075615724027058, -0.8862196299143665, 1.1971432015454277, -0.9479518540130616, -0.18780783567891102, 0.5330269275573449, -0.6583673832754549], [-1.2982130069477855, -2.8846256580556497, 0.7257683316104572, -0.10411327981007999, -2.066954293267158, -0.46725558508925513, 0.649552581972957, -0.009391310394637134, 1.9526526452237656, 1.6329564800368026], [-1.1718588227820328, -0.42277484525811, 0.9570669785452349, -1.8102631697837146, 1.6634292623156908, -1.8749080490973473, 0.4069700242628641, 0.17770281239039726, 0.21349879051819065, -0.6119903204688203], [0.33978984982308225, -0.36773677048454767, -1.0768890956949297, 0.7233435501086225, 0.35310126376667755, 0.5083781328651482, 0.7494912431336271, 1.2936208046764834, 0.30977441946424183, 0.7470496932372876], [-0.06744868725265964, 0.2627149237447674, 0.574478284410139, 0.94029900270779, -0.9895674828843186, -1.5399426614700826, -1.6961600066570182, 0.04505610796693034, 1.6931846451409653, 0.3555443916130316], [-0.2509734315960866, -1.8335181819084532, -0.1048848769436572, -0.6438294098901494, 0.32671454507689873, 0.26506149949927127, 0.5485831681136483, 1.2621206249764423, 0.002035794452505283, 0.471979633149365]], [[-1.0628361496685417, -0.16802166934466006, -0.47340967546847174, -2.3162506929537705, -1.5552634352974255, 1.4013578884526154, 1.6512019249141634, 1.9227865263450186, 0.35127454783407974, -0.0633647594069326, 0.13055271830857895, 0.2508086844860665, 2.1905846278867522, 0.7079262564085644, 0.508426655512404], [-1.0875819424963182, 1.7078292172073597, 1.0087857461919998, -0.4873124595177892, -2.133187231494975, -0.07536086002450938, 0.3243585896858229, -0.19946581071651148, 0.8232898015987042, 1.2158016229310078, 1.5458413014815402, 0.7617541507995745, 0.03054099649079193, -0.19217573475002442, -0.01549111817600442], [0.38487783047524415, -1.0813152421784387, -1.7512214484049868, -0.9851852871926228, -0.8271350122794084, 0.13315929284758507, 0.4080574681535825, 0.28542398015877335, -1.4425654457226642, 0.47981567515375095, -0.8682258961140304, 0.0502148886533223, 0.3624455472452312, 1.2052483239644332, 0.11895316773072512], [0.7110344655389312, -1.9162447771307107, 0.5612905753411035, -0.5653423480453513, -0.933844915761109, -1.7189500144276242, 0.06372031088681585, -2.042728276868408, -0.9362943557473941, 0.5624824505388591, 0.9937504302961907, -0.5302761330441252, -0.557560420988957, 0.06273301846435084, 0.47545647546839875], [-0.1368995450244417, -0.4509790600099702, 0.9582559710699259, -0.6136468501448425, 0.5716087313759727, 0.06922207100617175, 0.41277202823021336, 0.12056162924995384, 0.21053458672058556, -0.2195936063677981, -0.5783501263787806, 1.2490836786906436, 0.6421646445811834, 0.5375501598157932, -0.4508859423648742], [0.2534272642774716, 0.15370082557973763, -0.17789640254638972, 1.6332466443557243, -1.5588618785795012, 0.36466588753398604, 0.2776455443627649, -1.6439295971971548, 0.5818578553145642, -1.3576403566136659, -1.2723055413220266, -1.1118181535180416, -0.0016821959147575575, 1.0135371850611075, -1.4721498197076521], [-0.8489610191464766, 0.6830917830699402, 0.7796002277987173, 0.9912222001994997, -0.7911267138642384, 0.03960776570960996, 0.3583504404457588, 0.40221159726031047, -0.5645457716967918, -0.29917902610834884, -0.04430779702630418, -0.45045689756324175, 0.8809313213422602, 0.0513936088984575, -1.2901477809867112], [1.2612695378615806, -0.31047849592299376, -0.08478132534949795, -1.0609138580912407, 0.4446593040257789, -0.6333175656981457, -0.24072365435783738, -1.0581273611629805, -0.6567586226385521, 0.08470719389943279, 1.330900504755812, 0.11473216956690815, -2.3607353141879046, -0.09546209833998909, -0.6140301556411619], [1.2732687832967895, 0.10867166012342024, -0.04395913223733367, -1.2841449102947184, 0.45084503858609176, 0.642024828356159, 0.2644755189300206, 0.28755006782785064, 0.8075488232525966, 0.45626042375667686, 0.556866912759539, -0.5422981859616458, 1.0674680614675405, 1.0890259091033412, 2.482234827771781], [-3.7449466392294384, 0.3446434266061308, 1.0989864492803745, -0.444547191586478, -0.5980998494926527, 1.0533519689279092, -0.8314451085056705, -1.2891671856977243, -1.2244445115392646, -0.03788886834568175, -2.5514153217393636, -0.2234332675233638, 0.6978823938404886, 1.55029703239556, 0.38773571415599306], [1.960044414135951, 1.102701190698178, -1.2855273648579326, -0.175432126382313, 1.701792489952311, 1.9689610007554583, 0.6220424757890163, -0.7349847111121719, 0.7942804822446565, 0.0892751352093987, -0.3052787944377476, -0.49535324728884417, -0.11516108608121528, 0.747134122383966, -0.43776004192778206], [-0.804333552573305, 0.8001251397745633, -0.4532815859926909, -1.5130895734249694, -0.4981982600705148, 0.14851968385450096, 0.257848098643976, -0.2800938221431959, 1.1266035174958038, -0.973506556421037, 0.7499351059734248, 0.030403347394373562, 2.1131753208761905, 3.2009456188797287, -1.3772306600734054], [-0.0665359525900658, 0.4931616045012648, 0.00671553140971215, 0.5794508705923226, -2.0516362138552307, -1.571748771242416, -0.22215504848674617, -0.4488443498336668, 1.056227225384908, -0.1415334014437291, -0.8657313335317952, 1.3764598156428383, 1.2990596922095703, 1.2334159544684014, -0.1079441110967733], [-0.260685325840726, 1.1863436886989305, 0.14189562381001422, -0.6409236631829425, -0.6133177311907837, -0.34767503972325153, 0.2630875153958635, -0.3290547474433501, 0.889646164757335, 0.22688848887709212, -0.9720158650850949, 0.8712877439603964, -0.2114993926654846, -0.25897815234823496, 0.9494813254162625], [1.262173848093187, -0.9894852506697045, 1.4030266993164755, 0.18463589592126095, 0.4994703433969116, -0.10219731414855597, 0.1322512079277172, -1.9303628709238434, 0.4721686876770954, -0.8951077056452021, -0.3271915151925691, -1.2441189906526942, 0.7795323830801, 2.102449949024478, 0.4191550134068158], [1.661300000243379, 1.7051037994859557, -1.6110353123773218, 1.671301350339757, -0.8683015787478402, -0.21126129953291295, 0.9603543792331328, -0.23802862542147393, 0.13717662649383616, 1.4140548770930674, 0.3287055121661268, 0.984577102581609, 0.17440745934343377, -0.5213334462703231, -0.8340657783736957], [-0.8279586494136125, -0.5353679175209598, -0.9885253818666884, 0.5955262814006367, -1.5458655222120279, -1.5691560604119192, 1.1445786210835547, -0.5025347295927559, -1.7428186946449675, -0.26560891671072295, 2.1022690210447057, -0.3031003080643916, -0.7647979033485326, 0.11460701153574239, 0.006512508475653876], [1.2130345451852693, -1.1922746117042526, 2.2713349223262447, -0.27117832833158223, 0.10918328377541033, 0.8611181831067298, -0.8131579834591489, 0.6299312464879733, -2.473407503394174, -0.9141478696034278, -0.4808974282550231, 0.7200839466162111, 1.378845600843806, 0.812800794737903, 1.9119418189282775], [-0.022332731746918747, -0.5286899723780338, -0.9360252762276208, -0.16812150619297353, 0.18440690558192352, 1.2636261727560891, 0.46817524989124515, -0.8689897965474115, 0.8580047844196885, 1.2628663861501368, -0.14306448105219138, 1.2807507415350563, -1.95129791074962, 0.9451519379236432, 0.47842754944947585], [0.826215140619031, 1.9011903138392074, -0.9328403184541068, -0.6808041779265361, -0.8144048957513095, -0.6620780693464908, 0.44478371533182964, -1.8475935888544637, -1.3110397555051547, 0.3782376389672919, -0.12641701097014252, 1.467432766049666, 0.4463537660015019, -0.6028177910960175, -0.5552928699859012]], [[-1.4957547905742337, -0.4728371623562838, 1.0660516599664125, 0.5199345668227576, 1.50251758251474, 0.3617758964151708, -0.2039625341503956, -0.2677670651445787, -0.7427033548546131, -0.09297421164492535, 0.8478431186386363, 0.8570526456151546, -2.0414509308308992, 0.5000529268408662, -1.817212216176545, 1.4228675242608553, -0.778081884076855, -0.054008362578574276, -0.22359877330774067, 0.8808379668640349], [-0.5536092938122663, -0.06490703269621917, -1.2854743759358334, 0.2075842124304158, 1.4924841699401648, 1.2909781988071314, -1.1777513661172951, -0.0252224948917494, 0.6196156072172982, 0.6963043206559478, -0.7468733411218175, -0.9508573359962021, 0.6443649548931489, 0.20539961368199303, -0.014845976893184318, 0.8270391121646126, -0.5744738952128289, -1.224948819724762, -0.5317387007223762, 0.7774222387373882], [-1.0492937997866802, 1.4033529437161911, 0.2195039848176956, -0.48589654184737285, 1.1123199965885104, 0.9800887156736598, -1.410787199941305, -1.451271334858404, 0.5121482901505863, 0.92198198853836, -0.07614700803660507, 0.59562475945167, 0.06402770183512514, -0.029425954357091003, -0.801061648555967, -2.1287665786699206, -0.5361750766094254, -0.9886804941087736, -0.761227023424905, 1.4630272756664033], [1.029887191367135, 0.7616019737499925, -0.40928161882214414, 0.4592773921297138, -1.8230425928895082, -1.2492762831240458, 1.753557604042987, 0.16537918976753774, -0.21833520454388453, -1.2347943938988957, 0.8424027785116109, -1.7084469424325581, 0.24040861106107103, -0.3554596028918915, -0.7794091108399225, -0.1050518937527845, 0.8891165377098496, 0.044814164227255975, 0.16340310490089668, -2.0840598986412218], [0.7232576681301178, -0.14667619017829273, 2.383088432369734, 0.10234832185888959, 2.242097584678125, 2.102227356040927, -0.240091865149775, -0.1303107595521384, -0.36648043723517304, 1.0337845697484818, -1.1828651183237422, -0.5915112302180728, -1.9271066806725843, -0.7289182094320598, -1.1819076017840289, -1.3337174594947894, -0.03937462095238299, 0.003248121763799347, -0.659125431298731, -0.19744183977292054], [0.06594206268581419, -0.37503763984562677, 0.9794209786243614, 2.204827384352177, 0.7317249622916219, -1.4501240389630976, 2.3193470555886537, 1.0039628070220001, 0.9776040456776091, -0.895638143359194, -0.6885201860360536, -0.15237096517820836, -0.18178102630057824, 0.7509353753925506, -0.7100928315588715, -0.7082462547744294, 1.6291892646761919, 0.06042745770786107, -2.739936468291911, 1.248769798989259], [0.6465402286877292, -1.7105158212910845, 0.6590146046592534, -0.4752269142029808, 0.4867452209336787, -0.9687727443926648, -0.5261043784810009, 1.1644737496648503, 0.005583547939120399, -0.39043613923851717, 0.6390669822324876, -0.6463128866525325, -0.5809524585621361, 0.01948202283817385, 0.05313191780724742, 1.7822556865976187, 1.1697762056077685, -1.0014722711965947, 1.5227751965705765, -1.257498275947371], [1.0438818461083055, 0.9206688003713136, 0.480581309186818, -0.5108288281352507, -0.003467899237242015, 0.20413430686694647, -1.0363670678229917, -1.2833722839791801, 1.4031445280277586, 2.659094609822932, -1.6046136022265047, 0.4300668803228116, -1.71325512267446, 1.0533806341057, 0.5723723409285773, -0.9753553219291815, 2.039010672963462, 0.1568084198401361, -0.753950597562462, -0.6701610361413424], [0.08229122273052886, -0.993074866579394, 0.7126830901564356, -0.4896903897106666, -0.5727271628570071, 0.7107863220377041, 0.19796448890151153, 0.7216874217668791, -1.0331292124943674, -1.249916000343732, -0.5075782520649663, 0.17103297556144006, 0.47971741523106637, 1.211372374257481, -0.6480864110728463, 0.14641646523698001, -0.10525290812877791, 1.6556602805200313, 0.74501014574492, 0.5006768030909582], [0.15964599991782322, 0.06494708637705275, 0.9239688592825361, 0.2978357248855328, -0.5909475995127144, 0.7625289279926042, -1.8885772611640232, 0.04175833834161013, 1.0205328060165593, -1.3312140892385138, 2.377578638799245, 0.14123968698999187, -1.6686516780148977, 2.7200973575214666, 0.6705690190951433, 0.9068093775346124, 0.6643015571254409, -1.8017365395438483, 1.278104143940886, 0.1958489760217853], [-0.812306657454487, 0.480852206993919, 0.7768993642338279, -0.4649452740229853, 1.6504537018552705, 0.03083787140146725, -0.9553959075806254, 2.2739711096069577, 0.06543709780190124, -0.6824714525681084, -0.5194917097508055, -0.17924176901930242, 0.2783756919191117, -1.4056946395627954, -0.19614297948369933, 0.34806039452390014, -1.352253121158449, 0.6680118993159038, -1.0352399215574815, -0.16562795785228007], [0.014108662895827236, -0.2232952276474788, -1.5397460014085536, 1.51952600648024, -1.4875821772345188, 0.36074105040609855, -1.0887269534986446, 1.54421622774615, 1.4474893536187663, 0.3369614499791637, -1.0564045027061004, -0.6931275128478572, 1.4356260224612438, 0.11620530949102068, -0.47950346224368307, 0.13319397948031322, -1.0764958628322743, -0.038735669048832196, 0.4906084782018257, -0.15056198379648222], [-1.3978876345932754, -1.0432515611309474, -1.0539109215967062, 0.08956637509205324, 0.7517038128394472, 0.4326066749154103, -0.008855348198387746, -0.44354236674758435, -0.5012441708437626, 0.8843194110177199, 1.0157974985914564, -0.9756981055905956, 0.9313789984805361, 0.500121495257362, -1.5290515012003152, -0.2850956804268432, -1.8580367846619443, 0.6000229274694915, -1.5271190581854757, -1.0217021222838154], [0.28395704824861734, 1.0624110036737435, -0.2770372075316632, -0.28107756686208624, 0.23009778497044603, -0.2580747118096287, 1.9092414087096632, 0.2948514884932273, -0.3000940503521209, 0.3005787766060522, -0.43012776635415717, -0.2102118584297769, -0.09727147440076366, 0.4751976757342091, 0.5085800919684091, -0.5898702604222162, 0.5276749651366024, -0.35693269201802197, -0.6556565244668946, 0.6224347694877169], [2.0672933238030375, 0.7629972223043816, -0.6796310858351468, 3.13751876519235, -0.7307816960954865, -0.11857575187564111, -0.16781036157135723, -0.35308061117755735, -0.05880772400789859, -0.8186808175456085, -0.9835848641664197, -1.31594306450689, -1.1739155038935027, 0.8831726836267141, 0.26398148439383984, 0.5041542751630821, 0.017517084037750985, -2.0615200444274304, 0.9305628184389096, -1.1603394443192216], [1.0444266360294683, 0.40012681951118423, 1.708174715396521, 0.11784356037750678, -0.7534464159372377, 0.674256825788024, 0.8147699163084632, 0.4635998827532331, -0.9690982420532168, -0.05294635152889566, 0.7610528603806339, -0.3778517321873194, -0.23157915291720382, 0.0793172236593535, -0.8552593834731804, -0.026661081639426515, 0.9943814807314157, -0.6019128590902809, 0.4487569598315793, 0.9307245415030873], [0.6976079403816378, -0.24698292417306783, 1.052927226213826, -2.122491299458886, 0.9505648477971508, -0.0995476262515732, 0.5636579288004958, -1.047498911409064, 1.3883551217944918, 1.8764626435802523, -0.5147307160185871, -0.7376222674293138, 0.9937772647473556, -0.35003577181309264, 0.5674795703068273, 0.03551950150351228, -1.6479112497563666, -0.5521144833603574, 0.28373205382858246, -0.989782450949125], [0.83712313491834, -0.692033604530177, -1.5249801113203265, -0.8534038202586244, 0.6964586312158799, 0.48954814168718497, 0.4211680344358586, 1.0534902795549306, 1.507540975328882, -0.6924018362775106, 0.43358650474329236, -0.9027731410673684, -0.27608361684728616, 1.3557754046049546, -0.13728250782770443, -1.6198960408831196, -0.5589134399899858, -0.9766947539108083, 1.4215284479393249, -0.5866952117761289], [-0.446808187998933, 1.8993142997266637, 1.9166367064953083, -0.38402677526428497, -0.908365481367329, -0.08713490017115162, 0.9125013652490124, -0.7007369411827558, -0.22506032024192937, -0.21615562661940368, -0.5442437982656807, -0.6504638821477519, -1.5385108343479121, 0.9135525477814462, -0.1271581933703043, 1.683414135479836, 0.37115746366172286, 0.4045065602227843, -1.1538122373885933, 1.0720634452711792], [1.1305956249894957, -0.1707263713869543, 0.34378872778131686, -2.3217195790172647, -1.669429589588233, 0.758288629612317, 1.4058729825857743, 0.5601929524556739, 1.9864382961781322, -1.9767164832902315, -0.7816180932568884, -1.2851728256893733, -0.15552884060646643, -0.11400337078086434, -0.057870443533456356, -1.0373139843211192, 0.1878678852816089, -2.5843736647761433, -0.24390333017284557, 0.5854118818140392], [-0.05328531593190257, 0.33339780969700933, -0.09943965827340545, 1.2445313719265205, 0.2943795605617357, 0.6777041360358712, -0.23608927894552584, 1.2880994261195402, 0.9086769960748485, 0.018170482397557645, 0.23610990340889296, 0.9885031336986486, -0.8127984278372927, -1.5124834074890852, 1.677866306342726, -0.6219425964168066, -1.149526659272004, -1.1416525301660931, -0.8645175036387582, 0.27486153903053345], [0.5598482658906332, 0.5037587735707274, 0.36753370058861223, 0.2662740464018124, 0.40549074578933675, -0.04005494836540736, 0.37949626613278464, 1.9032059489612458, -0.8428223255351049, 0.8554652721676588, -0.984245724863718, 0.5345268313784833, -0.2608425916461061, 1.1652644296672374, 0.32550249218423044, 0.6165266184821803, 1.3221237220631976, 0.40968436501123767, 1.2315645065780685, -0.2050701742481951], [1.22871606137548, 1.2925305742888313, 1.265561745055478, 0.887829125831492, 0.6068844204830782, 0.2573045565761278, -0.15672813850402942, 0.3104488263167408, 0.516866960673146, -0.960386263111238, 0.98278354080836, -0.9194686155423472, 0.4409392073925476, -1.2583360884301444, -0.5981549886891341, -0.6579911243932157, -0.6818774551591427, -0.18792296763567484, -0.16501656116377988, -1.9565859243382622], [-0.13599265560347093, -1.4018956429310543, -0.3966217114755407, 0.2647673525084795, -1.559619135538639, 0.4806210646017576, -1.3203567613498444, 0.3728259981401447, -0.451420051235491, -1.2619107761845816, 0.2161252713601117, 0.4774685071262985, 0.3381807424221298, 0.0006128780047352147, -0.7264422748461186, -0.4506276029496647, 1.0835537717487274, -0.6531305285480468, 0.3952408487745914, -0.5148084510233921], [-0.03312882436608758, -0.16760742808016804, -1.0586731021122135, 0.1121989214919284, -0.4040589196070659, 2.1711625150654243, 2.1892926290509767, 0.125535607478869, 0.36661140668982817, 2.096546033113707, 0.11327881940023071, -0.4358810956798292, -1.0972251260722596, 0.12781183120584563, -1.1663083831304344, 0.014979045447461736, 1.6000918914493916, 0.6872364819121135, -0.40390299288784437, -0.39698286637574753]], [[1.0406430235580932, -0.07451628536340617, 2.093490194308535, 0.8320990724730418, -0.5903038595700675, -1.9333399837628522, 1.6638346851445291, 0.05158936767036759, -0.7764681685646919, 0.32098583417080584, -1.3194283410899805, 0.7043958472725502, -0.5795991741102335, -2.141604247287538, 0.6139990112907551, 0.1926767501267711, -0.7463048893983185, 1.126980824309114, 0.5757407191135133, -0.7221437014569191, 0.26496891032678244, -0.9477678116747125, -0.5860761106259031, 1.7446649965348493, -0.879043591957155], [0.8100618171952002, 0.9597752404931151, 0.0038653415070562494, 0.32130441077520283, -2.4232840611959965, 0.781576637519316, 0.12406505931832813, 0.14079237431290198, 0.8797385972617686, 0.4419732078373465, 1.0993362920033234, -0.909956126412455, 0.06195242404162588, 0.20966279560008633, -1.6768283891920959, 0.8542599405731011, 0.21207565446250448, -0.7890882477461193, 0.21036699785622864, -1.1667872142227727, 0.7788840390457611, 0.3243495242643391, 0.08570513577076658, 0.7479778423871931, -0.6065331470817173], [1.1619829726745423, -0.3133934943803659, 0.5295093906304691, -1.456007450865305, -0.2698383552689529, -1.453634050343197, 0.4598233087068002, -0.32481739512476526, -0.246180133609506, 1.167284735572824, -0.8388559969788235, 0.12893126697223664, -1.367691958297324, 0.08664329551691424, -0.8523339780008936, -1.6793221755992773, 0.13869195534246556, -0.8910863859142206, -1.0169562661631246, -1.3908670196671087, 0.4149315250650549, -0.4940808526611149, -0.6269218438143322, 0.0021661523711709154, -1.8169747939190433], [0.7323228250548116, -0.9066604515320998, 0.4919117457700528, -0.36602347220904113, 0.16572748887334507, -0.14363474751584498, 0.8711721644540296, -1.1080175441146254, -2.1194549555563076, -0.8573641641960629, -0.7592183956702638, -0.9222897271558981, -0.3635782025204791, 1.444040149988561, 0.2282375388344226, 0.0730401455584775, 1.4856731402555152, -1.5454876589987763, -0.3023375949854896, 1.7930100307030312, 1.0064761621873946, 0.7661127147557167, 0.7293403450572794, -0.26139161696170704, 0.04803148020670918], [-0.44717978089829846, 1.0569260630970863, -1.0562094129865263, -1.4487712924823681, 0.3423124642128367, 0.6496252782848123, 1.3068127203389648, 0.3167993742460257, 1.066364609223437, -0.9385254101184789, 0.7103326625745432, -1.1248271064410558, 0.2638731554928058, -0.6273529585849197, -0.8823459213344855, 0.2574164174546294, -1.129609921999964, -0.5297688191251536, 0.09489270578870322, 0.3935529622133579, 0.11314107234300831, -0.4418378202382375, 0.6247552850543754, -1.197522765608511, -0.00699283600221518], [-0.42709561039308014, 1.3670790417184069, 0.9854847602725201, -0.11201480447958469, 1.0863891422948244, -1.097481126845787, -0.8660176105296892, 1.7896860672628354, 0.7917405791650343, -1.1397671078892408, -1.0281665869279029, -0.534205482774318, -0.6816832798993907, -0.7193500249940573, -0.9614403270751775, 0.71469752224556, -0.2005590594572752, -0.6150917275082808, -1.173346754629305, -0.5557969802896219, -0.5667935139464964, -0.31990412237236876, -0.9089807042416698, 1.498833664210083, 0.10873722332406888], [-0.6704043194274945, 1.2084402043046811, -1.3129678134269334, 1.5683876819430322, -1.375004566050739, 0.4440870655688085, 1.486332292337685, 1.0465491451736224, -0.036875110280267825, -0.8416229834210492, 0.21586588710778823, 0.8645994325659024, -0.580000467421536, 0.0820141568555142, -0.6161172122149692, 1.44351115071351, -0.7598563915401854, -1.3340531223359957, -1.272977783324465, -2.101263525265448, -0.4174941376201332, 0.7147152968336646, 0.2659843281513657, 0.42753482041754737, 2.1560731937661655], [-0.2822892447611867, 0.007472762571838007, 0.431285694121259, 0.6126386759141907, 0.580260307995943, 1.3065731036489863, -1.8372300789999334, 0.08676125665858275, 1.0386655835399354, -0.2120464400312106, -0.5268175861455057, -2.103819558092119, 0.9034953905997377, -0.8209114187484434, 1.3484820926164398, 1.1752621199863529, -0.7157467759870768, 1.6485608346452276, -0.25690120147978923, 0.8713132462306694, -1.3256161525928358, -0.04860943462267771, 1.3159209284588937, -1.2353839924473522, -1.0446810678008338], [-1.4440163526919472, 0.9587825589130853, 0.817801293595948, 0.7083601979196126, -0.6190636166037286, -1.3870976775849346, -1.355946404142946, -1.517332328759182, -0.7907543021050174, -0.5345768624768407, -2.2203909925341394, 0.29149570536033054, -0.7916495793402033, 0.7596000758366231, 0.6898211824119123, 0.28187010098280285, -0.1948955520934695, -0.041271017822984035, 1.0615231438341801, -0.25012087818972245, -0.4078131286959634, 1.117604191698256, -0.4054306654577924, -1.6627903404428612, -0.5895907383348878], [0.8708411607714324, 1.4382426210803696, 1.820202404110897, -0.3079154060950369, -0.5457617720455383, -0.8991941568401143, -1.82288360595955, -3.3523807167260835, 1.4274040585953651, 1.6605684753068644, 0.3592257277479402, -1.4987421237899732, 0.9278130389654162, 1.4876935137761096, -3.440171900121505, 1.4038242631969455, -0.0443679082100135, -0.9030989691212057, 1.1829160039297144, 1.3396945472280966, 0.5313765076494177, -0.509582842708188, 0.577683198564743, 0.6292974677721791, 1.1044394857957522], [1.5064339075520181, 0.2188078968535322, -0.9541384920290433, 0.6685838355329826, -0.04810374271386143, 2.5138992084965146, 0.06610496390578133, 0.07760029696585206, -0.4412252668910602, 1.9917289578762274, -1.1990657265170395, 1.123866210387817, -0.566842960153525, 1.098774622916337, -1.4352768051655944, -0.20612283095293732, -1.1716061515490528, -0.7380403265412347, 0.9104063730556624, -0.8782285111220582, 0.6790988425881644, -0.4071213196637587, 0.8040751267727946, 0.7089193059565403, 0.38771341329267156], [-0.4307605860520822, 2.141811771469184, -1.2516227834988303, -0.12193474025508264, 1.4723641384597537, -0.03447250285375348, -0.5219231899694156, -0.41492496273672785, -1.3416261594281869, 1.4971722214544976, 0.6443235473813314, -0.5436419003956604, -1.0097913352318688, 0.21313829416776656, -0.9620491649340235, -0.10403609246411201, -0.37347108403293183, 0.8917711875592176, 0.42796581841187137, -0.6948036819173076, -1.13279110585563, -0.4875888261381356, 0.3019852418718778, -0.35111595984049887, -1.044058876754399], [-1.3406677220243857, 0.3465601352346914, 0.039271879286139885, -0.5237877551946635, 0.23840758416001231, -0.22715311826022683, 0.11265211187669533, 0.435261049092017, 1.9419969586277175, 0.062139065761500495, 0.033783611113206526, 1.1829827727042164, -0.9740473959478946, -0.8583592537502713, 0.05805178601710595, -0.6582440953354726, -0.2666564632668591, -1.4258895606735549, -1.358124808172319, 0.33723453694646294, -1.0589156604816181, -0.47307026318198075, -0.24178376839222884, 0.600172004724311, -0.4886211211507275], [-0.8658963422425869, -0.28811240712780695, -1.589159726208163, -1.7714353146665396, -0.5238273090079746, -0.6965062142695122, 0.3116091798735196, -1.3049272141577037, -2.14852318921903, 1.1263915991467586, 1.0872378092958834, 0.39774363040062616, 0.43753851289578444, 0.4199719696384967, -0.3278505028276678, -0.7693902723937782, -1.9012955403451233, 0.6303214764479382, 0.11307704400886447, 0.9175469803792117, -0.39082489096204265, -2.445073748961895, -0.9252888441907338, -2.210963083113892, -0.13187062452630346], [1.312603264717099, -2.22040724815988, -0.015702937019321538, 0.21078868049915714, -0.21296056441931316, 0.4462244310125016, 1.080225843995548, -0.7942151702543263, -0.07611007143643533, 0.606036709954387, 1.1948116836276348, -1.8021638195243646, 0.4527065444260189, 2.1276024002784317, 1.1991312474041254, -0.8014109890604361, 1.6149280116209608, 0.6926144956065973, -1.757431353008872, 0.2943735975227806, -0.8261962440073009, -1.182422520925478, -1.2478118445075854, 0.1429423605684751, -1.176123613608757], [0.9353110538791966, -0.05889407367883068, 1.4165700517394657, -0.37123815273461847, -0.5274107369193408, 0.7123655089188357, 1.910320193951818, 0.11386124829744856, -0.5762611411458732, -0.2138051704706748, -0.29501221984741566, 2.1368531075468247, -0.733420459070538, 0.12247695296115373, 0.09970138322856335, 0.25760598787491146, 0.9558769444781556, -1.4978074727093538, 0.3607871321901627, -0.23790575832009533, 0.6285454816576135, 1.643999638176888, 1.5358014802578057, 0.5885539809391754, -0.12433879624911837], [-0.03577557095200559, 2.0141096628707773, -0.22411652507905439, 1.1442582922324185, 1.2773264369458588, 0.12389875812176226, 0.5940329157537727, -0.07008970414319646, 2.135466802270329, -1.5472728612610964, -0.8099408337695665, -2.3003146676044373, 0.004098498855571361, 0.4830527139085967, 1.3251472098579493, -0.04097367148323232, -0.7833053452809335, -0.9613046795167608, -0.879092172454539, 0.42369361162389035, -1.3297084184272088, 0.12819428903046312, -1.0973467808012822, -0.790635954121618, -0.041348438424195715], [-0.42806711042780576, 0.18484337108999493, 0.6366622542982255, 1.2063640826600306, 0.35970196045172725, -1.293594869757956, -0.5282592271659815, -0.0627486448654998, 0.8773938955703837, 0.8939232879716761, -1.505856176841976, -1.087359260160324, -1.1655129556852464, -0.32580954251392064, -1.0254177528066613, 0.035196727879017724, -0.9410366204513593, -1.8897753988779555, -0.9305046096817793, 0.1383574264503856, -0.23571951889619172, 0.39633094469104757, 0.9482891080064807, 0.6499678682026669, 0.14070890791844548], [-1.0770009002964978, 1.4074207692605791, -1.174827266652743, -1.3375420636434272, -0.3319842311851615, 0.790757982425906, -1.150688890341065, 0.26221067197222764, -0.5080278314567968, -2.83304801251186, -1.0838530859666036, -0.7381168585892344, 0.9038269493760387, 0.12044389205193796, 0.651181670658413, 2.312702136913181, 0.5153878308967074, 0.6192279774060366, 0.1304979163388429, -0.7241071131410471, 1.78453586669433, 2.1049664137924426, -0.37842161831593146, 0.5539280614979939, -1.3468997310600188], [0.377422192281964, -1.5270299873344133, -0.3977357394081924, 0.20078113328483765, -0.27633276530262074, 0.5901482128648694, -0.47849320165061227, 1.111220842357236, -0.8146496289138072, 0.1335143390523461, -0.3689049115376813, 0.6280358940666345, -0.45921368065155643, -1.1017478756695933, 2.3811414271314493, 0.5277092241006942, -1.2593721986646618, 0.01901440692205213, 0.7460917652506147, -0.37512908220552205, -0.7650261187625721, -0.6229612474947257, -1.082559424574781, 0.7590629232718781, -1.1114516498261204], [1.2618279432068849, -0.13306500734202148, -1.2472440087499088, -0.41500764702502535, -1.0733724731447578, -0.7651616909053521, -0.4521206782845605, -1.1304770635705799, 0.08280680692974399, 0.18628073093438013, 0.5449672471036867, 1.2681274626099728, -1.6186902717100788, -0.5478745462303461, -0.9996820519740199, -1.4111037860439473, -0.22269557787963612, 0.9101826779849994, -1.1433235942693818, -0.7693455343478977, -2.2708399680800566, 0.5311960300674914, -0.4698497431462721, 2.1765838438586123, 0.08001926664958191], [0.26104396206622915, 1.441900652570144, 0.9435566793281206, -0.5751797464788546, 0.49799108537703207, 0.06711699573049416, -2.001101095906061, 0.4667218950270079, 1.996968003301026, -1.4914126504082867, -0.4445927895463058, -0.9480989744976891, 0.5991061293624311, 1.33447074633788, -0.983504313690725, -1.7068855504933371, -0.1457965529425907, 0.4331844457731215, -0.004798571329743914, -1.4895272053616773, -0.6474265606134341, -0.5008729146506852, -0.8897325267416026, -1.6448289556633773, 1.7597306959536672], [-0.48852819525408514, 0.2812653970726353, 0.295644149089728, 0.14058211424526199, 1.1699166711930107, 0.2000845342933075, 0.29490352947532866, 0.37827581978493, 0.9808212954114739, -0.21985687885951, -1.170691642283728, 0.04044203416479358, 0.1329038397248012, -0.7244768155148684, -0.6251527729475047, -0.5477751534750976, -0.32968743333222655, 0.8725061345463417, 0.5396677146412835, 1.1781370335228465, 1.5756537637066546, 1.1924452505736567, -1.7123469407799854, -1.1555306460258779, -1.0480612235391935], [1.2942128543658316, 1.768781582028139, 0.01560154922219631, -0.6518145719819296, -1.3616659664113273, 0.4336762204113064, 1.8665869406060696, -0.21032967085188786, -0.7724158245373347, -0.9214007977206519, -0.741832861228995, 1.3751133088677132, 0.7540854933081368, -1.185791666977322, 1.462446587239457, -0.19468137377656322, 0.5768208150576314, 0.3462999777678368, -1.1568907055869964, 1.0935942742902072, -1.3298273292656078, 1.1487069708723519, 0.6458362493455325, -0.7367253464712092, -0.2337779679297714], [-1.106600363948743, 0.2573139609883388, -0.23943080342102727, 1.4093341660857823, -0.9908774076587944, -0.6159272946934646, 0.23156004048263348, 0.16604529745589885, -0.6290116280816468, 0.9409786542272516, 1.3439482247651786, -1.0083398475271053, -1.2803775739746368, -0.5121988430186005, -2.334415976506238, 1.3664582897322555, -2.4887217177685312, 1.9419454840293902, -0.26781536275842954, 0.6108696551394204, -0.7589484626261506, -2.4279163415271077, 1.093093533541505, -0.7695654663604298, -1.1441701899025403], [0.5088738669146717, -1.6332506652281489, 0.7355819223169099, 0.7071560896443753, 0.10923180987575996, -1.9106071422632998, -1.0773803425680122, -1.377616618981088, 0.4712394156501463, -0.9076563087997833, 1.2871141310345382, -0.7015268347330764, 1.3183001755791022, 1.091416183557945, -0.3780122508547267, -0.9648556890977933, -0.5555253827677018, 1.0824148510630285, 0.46650096110169104, -1.5674761595174622, 0.6172175978941937, -0.8139386783440232, 1.1220765751655781, -0.513235458703095, 0.6660313417078955], [1.0982041814935464, -0.2307147268861261, -0.21822567454718875, -0.5711711605654681, -1.0087368435527735, -0.19263357633112685, -0.010165138859273271, 0.2561088276702124, -0.5408812933380828, -1.9980152126745874, -1.6815255363466073, 1.0678860202147729, -0.47915660622295025, -1.6825598930828307, -0.25619328134212066, 0.08751711718044705, -0.7007988802096967, 1.9981236012225334, 0.13313854165630593, -0.3425168618785964, 0.6557604419882466, -0.24213051769514868, 0.4064747734067731, -0.42855473128912314, 0.0573230099399596], [0.5567568110524067, -0.2592736050245119, 0.41076640606143444, -0.9762928130844185, -0.08112855259051414, 0.45839545722231295, -0.08534611782087773, -1.0269010346124439, -0.03409023026164035, -0.13748917686293302, -0.6307097295039384, 0.13328780566461987, -0.5358467146477929, -0.5870894270759706, 0.09190244696142479, -0.41373179111835745, 0.8041645881019216, -0.709785129614463, -0.10788317841876027, 0.6296133425578384, 0.2719758285149577, -0.5959318551876626, -0.29227285958158966, -1.0714469095814796, 0.028491843119541824], [0.7838309873401856, 0.2570857983582163, 2.60962129714399, -0.39015729336900823, 1.4301619736319553, 0.4489901016030592, -0.12236596351501437, 0.5281218444872728, -0.4063153594674301, -1.2429928467962388, 0.8811278371685635, 0.3130478176875326, -2.0631414959431846, -1.2780079857493531, -0.728623957608072, -0.046747685121450624, -0.6664086411856488, -1.3155669534166927, 1.9058164084107325, 0.868164221856742, 0.8319162350448172, 0.4659356066460606, 1.6147358809364054, 0.2128332486033858, -1.8117301125734104], [0.3257846633314522, -0.6729137389425148, -0.38637983343255966, -0.7262071404692825, 0.8364406513319489, -1.5487702233585543, 0.26508172364203864, 1.30364297178303, -1.5214543537423508, -1.1698123800406477, -0.6531281623012607, 0.6700698969169312, -0.9086035472380809, -0.07329455533944432, 3.0735301387615053, 0.46157849832108566, 0.8929393696978886, 0.1227058788680518, -0.9688569633099275, -1.9834040463813483, -0.2845342375884213, 0.3354414332962796, 0.5967062637571454, 0.38655597992985896, -2.3900425895512334]], [[2.4482766603985686, -0.6446324610545088, 0.1115619325292761, 0.9722159213708047, 1.0032282937194021, 0.03138127131642305, 0.7417561812296564, 0.1362372966011276, 1.1867704714937413, -0.036120358741256964, 0.46616123182105956, -0.16487109372214107, 0.8532855157472496, -0.3731454947511652, 0.7519641944840761, -0.9022395474427085, -1.014322608906564, 1.1761908815112123, 0.49094424237114154, 0.10897224020500283, -0.21100962173428267, -0.6024792850555103, 0.7524947781087695, -1.5485588788625917, 0.9780352866845712, 2.207288995851504, -0.7298709962538814, -1.2796033162416087, 0.07955584542377499, -0.752074263011556], [0.02332509020321342, 0.7517621198654205, -0.20281864936665173, 0.8630925934455418, 0.03601188100304685, 0.9640388815255561, -0.663548530927873, -0.6375507629010659, 0.42817530104956664, 0.8709147701565251, -0.4843953973246533, -0.703578411122246, -0.2851961702399718, -1.174999385585404, -0.035426959727641184, 0.2417156472744853, -0.02417749780363055, -0.013718678268295198, -0.47985164758403126, 0.3446798821895054, -0.9060035565509287, 0.2808020914848732, 1.3745177123624908, 0.5601055769876938, -0.5050108512567377, -1.341207291882647, 0.41565488343687335, -0.8025573938316394, 0.0020518391334992583, -0.05634478173089946], [-0.26122004744864624, 0.5001508895453307, -0.357794988915791, -0.2377333658072239, -2.1075246713724605, -0.6251293854079512, -0.39504754723531826, 0.7165980247724888, -0.009980353289319796, -0.07859334848257514, 0.2453513529046086, -0.6576104024273418, -0.11857297591782909, -0.5857427931394015, -0.002582886625787653, 0.9470985611638789, 0.14320532855640924, -0.6875608041105027, -0.14510693077834835, -0.41582953154611785, -1.372582292201636, 0.7726338057469417, 0.5353723928486821, 1.0671078239484426, -0.5489910141107768, -0.9496880399833414, 0.8274687744430819, -0.5550433361425627, 0.02412201423388565, -0.8672652303465157], [0.7016828770656987, -1.1592166579663665, 0.4326781968928283, -0.4847044073698516, 2.7125178621369552, 0.47892038662160974, 0.7137489035750147, 0.49024952121239235, 1.2193681121582565, -0.611447716854353, 1.0680186118853328, 0.41821418188202975, 0.7211199111235664, -0.16275754197857395, -0.1471740411833296, -0.2877454197891166, 1.3746172808004886, -0.1933075501079666, -0.6283082952000885, 0.6301780451484666, -0.34249324537481407, -1.6322136917366474, 0.3069911405936841, -0.1938704970270239, -0.09230741160466374, -0.2186186920179175, 0.9445942038429527, 0.6626115241353416, -0.33004437125065955, 1.0832083837359876], [-0.09636281283437158, 1.3486693206650437, 1.5269810535848471, 0.2683039433786858, -0.384094757198152, 0.24365319460321405, 0.4704434121054473, 1.5845636983348446, 1.8745076306109645, -1.0195376884228, 2.180600672830344, -0.5051502185915107, 0.9778758650992725, 0.057115285089664354, 1.6321773330507123, -0.1332221024425635, 0.42600567711664866, 0.008914109167117316, 0.7041610070457056, 1.055030420471833, -0.3135385414436651, -0.09585442507532517, -0.2212061278458002, -0.49262272006616503, -0.7787202567576769, -0.6020229007139151, -0.44403441397485466, 1.2058016222552228, -0.6742013125606389, 0.8835176645049084], [-0.13645187255669217, -0.30653535062084114, -0.47457519460628045, 0.2184927936397803, -1.0783017041859506, 0.9284771586269358, -0.5367941277433887, 0.6825473435123924, 0.14543495833468428, -0.03470304862573172, 0.5243315279415597, -0.7562956618358243, -1.1935043993816479, -0.6708301508725221, -0.4578876530483782, -1.737807575035309, 0.7332879780908051, -0.9487080217474858, 0.10380455684099, -1.4195870830894326, 1.294469816687769, -1.0027161412645316, 0.7255782520772868, 0.4938546457470886, 0.5875743366366254, -1.0468191333792447, -0.7086275605288164, 0.4965125146633427, -0.3098609536059515, 0.12776560860972944], [-0.19960841040599092, -0.7093503939838273, 0.44501328975188675, 0.1359027684421673, -0.3653366328987787, -0.25324542009309636, 0.9209306262290906, -0.39192370114443503, -0.12232597637303987, -0.06118357494897091, 0.26524979084576583, -1.0355162497001593, -1.6309360803664088, 0.4376934611931062, -0.8636222547869742, -0.3174012832622536, -0.1676887708785773, 1.5659900332306327, 0.9932361305000335, 0.22953700563507182, 0.8273088005647223, 1.77823254410725, -1.0617950672371947, -0.14695116960456653, 0.7464317923066386, -0.19970857577164278, -0.6873912808164213, 0.20643231418193575, -0.37628312428680805, -1.8942632664710823], [-0.4743835911459109, 0.9748595299802156, 1.222725409094368, -0.4557408668316151, 0.36747795290227414, -1.271205914738202, -0.7477770614056448, -1.0984583360985987, -1.051057484248679, -1.264208149927115, 0.24108535759077096, 0.6856880682657595, 1.312383771905762, -0.6781407185982284, -0.6108190564319128, -0.8211775879069456, 0.16827941735570426, -0.6510226286728218, 0.5597115336714706, 0.22093501854978007, -1.032596905421561, -1.7412830632966576, -0.3004862530600497, 1.2133629931203258, -1.4902952798025626, -0.8716371241411245, 0.24367377705883334, -0.23851261635974266, 1.2549934904630595, 0.0516682821916204], [-0.9032334930983064, -1.18931738112869, 2.0141064231079993, 0.6982850524902121, 1.2480353617539623, 0.7485944644154245, 0.8292465586579916, -0.2737693512681338, -1.20989592082492, 1.4456655432026861, 0.05806638328208346, -0.6190236213982501, -0.5270202467764915, 0.2966451306644169, 0.05370921782013174, 0.4279274156242944, 1.0035734523852347, -0.027591853839831655, -0.24840281902811476, -0.2081086142721088, 0.7703717196146098, -0.9442760665777533, -1.6655373719579816, -0.43350416640958633, -1.1508788784080823, 