{"weights": [[[-0.43503995775571597, 0.4011429969060361, -0.07816407012553626, -0.11660246655054451, 0.15999586689892936, -0.041285136300890014, -0.022824714748392344, 0.6534746641695144, -0.0831374374772883, 0.7335478604284826, 0.02715392125688788, 1.8501433080626928, 0.5612908283020194, -0.06567292497327971, 0.12867273716041372, -0.6858252498484738, 0.14086029030607503, 0.31894231995135225, 0.3090889283191458, 0.30641975837431956, -0.18070543051796878, -1.9926339642878867, -0.665726370456924, 0.24378945104536806, 0.9238734124172557, 0.61331941390512, 1.2507940173437153, 1.14679704117401, -0.957639009002507, -1.0776811892555123], [0.9227667898022117, 1.3711572588593417, -0.18045885523253952, -0.2821857334258092, -1.15918043881423, -0.5619430547911736, -0.021875395045784722, -0.9442080026158749, -1.3635734330415152, -0.16745118882147964, 0.19920606698102997, 1.7649276719993519, 0.07451385407773825, 0.9373811009880537, -0.7046054172807876, -1.0393076241418227, -0.13112455085542649, 1.7832226269657974, 1.54332719387461, 1.8362717918887752, 0.6710226903685921, 0.03434805948159921, -0.9987990207111425, -1.3331572628521628, 0.1595378474085122, 0.45012833880848774, 0.9335179169281163, 0.429335751611832, 0.7759558668794135, -0.09466414520754751], [-1.7341722934704527, 0.23523255575603433, -1.3287127933826874, -1.9727440605829145, 0.29875617809593624, -0.2891363078834495, 0.27523036758151787, -0.25998228507679877, -0.5696765340795735, 1.1326713666666681, -0.8328476514458764, -0.07853271403334242, -1.3360877948239955, -1.9316628136582472, 0.9817406131994469, -1.2002183056088374, -0.013244113582537076, -1.5599692919479016, 0.6312474181762278, 0.7132234871032955, 2.0265867422247754, -0.33435189588516506, 1.6256455911985837, 0.17309213088887518, -0.29044682054779475, 0.5952805912683126, 0.6661907371387914, 1.3493181727008479, -1.2424356949556368, 0.6758755179429572], [0.045859799752675866, -0.49616880669509494, -0.5793939650510757, 1.452866712885067, 1.57471742975462, -1.3408740406273125, -0.47598728478451857, 0.12731510811658878, 0.08890518902661822, 0.3429539360161711, 0.38172886191118854, 0.8358336108997129, -0.15275111702159563, 0.34918555716496513, 1.2366086100998404, -0.022047169565525566, 0.7861144002128939, 0.5153043066224167, 0.8198857895119881, -0.9610304528063885, -2.108519230360401, 0.18456268766764872, 0.5243120662080771, 0.5948392939943224, 1.2464774729201615, 0.7830662728950135, -0.21677834602642337, 1.196583177362223, -1.3562825064631312, 1.007965703258166], [-1.310681441989103, 0.48523958242282605, 0.13860339741903827, 0.9033363389391366, 1.798576118243378, -0.3304861191674697, -0.8763357151088571, 1.0778692600372164, -0.8584849244166494, -0.5783022425588882, -0.31874752345584323, -0.010803429471115329, -1.8689916348080013, 0.17513383826012907, 0.0038264688723780014, -0.9388187851557718, 0.7770095552978693, 0.8242891526977656, -1.8759936450399637, -0.8315989735613837, -0.8134208555002357, 0.8795560072903684, 0.8930594154833595, -0.34627226682880907, 0.41214678589049125, -1.794607077875683, -0.7392430483409829, 0.3079052443751607, 1.9716748662360544, 0.35750274286499795], [-1.6680335355626115, -0.3290789036518841, 0.10076519548732164, 0.12694438712543352, 0.5487769910646167, 0.42066378363965945, 1.9486312256465437, -0.22838335180734132, -0.29563229295299187, 0.21852426478745238, 0.1517330323043522, 0.03874292909325759, -1.178658102273916, -0.5935648835856013, 0.5623811328385548, -0.6796531570827244, -1.0279823875429537, -0.7843114542850966, 0.7731994885199783, 1.9110843591592188, 0.3016579954695052, -0.26702614105428707, -0.4216259040289785, -0.6959420567722604, 1.2182534472335167, 1.239377067870408, 0.46274408322022414, -0.2961417321823593, -0.4753932395315332, -0.8890629849712219], [2.826589904952533, -0.8400838423694598, -1.0253798546618225, -0.6517661627917452, -1.8574467812554651, 0.7698733310254802, -1.0202746788938337, -0.9296127518517179, -0.6248894147672112, 0.08403083702098131, -0.09663094694468295, 1.0042869604277096, -0.17743843432153902, 0.09576135957415076, -0.06507023778800282, 0.19622479298253717, 1.1013197904724965, 0.793038892591528, -2.007181527538765, 0.18178273210940002, 0.17069488167063937, -0.01000920517998543, -0.20378722397697602, 1.009128502432739, -1.5676514117878395, -0.0062156430516652145, -0.6728437751684558, 1.001897521274281, 0.2018994550782299, 0.7641107700152393], [0.7431466033362983, 1.330692916777179, 0.5456053242634186, 0.596337799897904, -0.8601010452901473, 0.11563277628532763, 1.8817133174153615, -1.30601410437586, 0.4992024252482568, 0.11958202969627534, 1.7395152299647572, -2.7494547899378237, -0.4055678524795269, 0.8035538908594642, 0.7248943253891785, 0.17322333978487098, -0.9346690727607735, 0.014470490858585342, -0.7020823018250264, -0.9022461507353082, 0.14737915471478485, 0.2305549204027285, 0.6264415887516752, 1.4171329401826518, -2.113217944240165, 0.6730162361043441, -0.8763316821224089, -1.6281337454002944, 0.8700876203013981, -0.14891203656300833], [-1.0758022333810868, -0.8709999912808684, -0.7134286616374541, 0.8693941787896119, -0.18739501170079825, -1.1173720704957084, 0.6297581402740473, -0.1856305577856747, 0.37737144817708324, 0.26802537485488315, 0.3883851453121699, -0.7918570417727329, 0.20869380178377436, 0.3875592081998417, 0.15077837651689707, 0.21440198298793295, 0.8174177681999928, -1.0637514220210331, -1.546792750680414, -1.222957520812912, -0.18882001999341438, -2.273734491985985, 0.7601411426703397, 0.19017614205335792, 0.8240435956286271, 0.9906852990742294, -0.9459706265956275, 0.9050016845123378, 1.2031476411532533, -0.8758302105040868], [-0.22711131467189302, -0.8799785631566795, -0.904468804808689, -0.3788822201214127, -0.17336586565959747, -0.7291499809809638, 2.332947782134761, 0.5855793543366244, -0.027858225056645508, 0.3072675611266661, 0.09657583219911187, -0.8580834176840789, -1.6953324344178597, 1.0204761654332868, -0.17474965234999204, -0.2618956622653472, -1.108820836048953, 0.17970512014297468, -0.827007410659194, -0.9100675823119795, -0.7862389401572949, 0.29398579373764033, 0.5075236084416225, -1.330025718005196, -0.31810634020676426, 0.7814886882840089, -0.9190108903043023, 0.3715302963298369, 0.9712116180492508, 0.758406965887032], [-0.03711950424317532, -0.654213430937874, 1.0474329650330532, -1.1045632302171378, -0.18033634729291595, 0.27089781485626574, -0.6127228793495113, 0.6620788852723587, 0.4095254930728558, 0.9234309473743809, 0.7636011850680341, -0.692984980710784, 1.024438903956963, -0.2996892543529644, -0.630782730069785, 0.11743529459370176, 0.884040678033754, 0.5353174403852854, 0.6016128942138314, -0.45104136855950455, 0.8576508173571901, -0.506506998358842, -0.5961710668931889, -1.516652354071687, -0.2974156334930205, 1.114546109520687, 1.8334683210400395, 1.2014995754691495, 1.1290494396859911, 0.455450752670758], [-0.4215404690261696, -0.8478756853145373, -1.4975201663110576, 0.028561470640696574, 0.6573645133111492, -0.18409177480045716, 0.3970413000007296, 0.5353162266571152, -0.47685157213748053, -0.3026406426259697, 0.26766180500051817, -0.11438100448839865, -0.7927110062525818, 1.1381764314265879, 2.369865658725192, -0.4027339017845074, -0.992638089529168, -0.015476335262012739, 0.11335455754658322, 1.1327593405875556, -0.1004512132604764, 0.36706632998532035, -0.33725696796949867, 0.855004697132034, 0.27221477920732845, 0.6376821721371814, 1.0755288791930906, -1.1312567855134747, 0.35555640045235215, 2.361627945488218], [-0.17211323514753024, -0.5932480389434657, 1.6826370054294895, 0.283726688169497, 0.9734285482205566, -0.8175600195203955, -0.21251136638673288, 0.3013331558228187, -0.8454601212710162, 0.3404992887446936, 1.2409557937027589, -1.3175692338258735, -0.9654855102829129, -0.33775149872968474, -0.838455586656355, -0.038114173054467716, 0.19240286045372706, -0.5145207554118647, -0.8043727003618766, -0.819240639114558, -0.5098524844929698, -0.5139817522237833, -2.489028043796813, -1.2404034273623035, -0.13443577483209987, -1.4326396885353894, 0.3231481394296582, 0.7730628875777055, 0.16580461579192451, 0.8769822391592617], [-0.22293805137290837, 0.28255923506856, 1.461315664161872, 0.16440348364253057, -0.7461220141864522, -1.9693416941056816, -0.16206306072851306, 0.3306822048395069, 1.8200495712993987, 1.1791765572275774, -0.09737962324167251, -1.5715452752999064, -0.8666742003524366, -0.9938906363877403, -0.06871926631530345, 0.3162772801880468, 1.2141037998853974, 0.9799319139665117, 0.9732587252356208, -0.49622663084983654, -0.5850487235301053, -1.1736173145574378, 1.973198500707022, 1.9051651973765722, -2.487615317226879, -1.5770368730991704, -0.35056353260422185, -1.1670400116605282, -1.2825394092537568, -1.0337223451884425], [-0.8449898638060847, 1.2103778672851973, 0.38926371187274705, 2.1003507911985246, 1.3036188126239467, -0.5371486790770351, 0.37036187196467985, -0.6960421161548457, -1.3435842194891112, 0.9090222589717594, -1.299013305349565, -0.8896355671010884, 0.4565998567937209, 0.4158280109532151, 0.541559746765141, 0.5021003768163269, -0.2365564269228132, -0.7113098025029682, -0.6105729754298869, 0.3648464257191354, 1.6323907702686753, 0.26450959422927717, 1.1858781591067113, -1.02739395650448, -2.3932212388641534, 0.764318218111681, 1.5952362216911264, 2.2169131573628524, -1.0668172156021969, -0.9088261837296295], [1.7377098610296762, -1.8800645567218206, -0.7209546682387883, 0.49411320198755987, -0.036932424422893254, 0.8195190489955692, -0.26627109400519905, -0.6432851518290624, 2.3775903940581204, 1.5479375918754816, -0.0038456651426353665, -0.10500874973755915, 0.23811651263218547, 0.6845483502596287, 0.9929336950250529, 0.7844984624255449, -1.7400438445650284, 0.4740983743059056, -2.068622544878108, 0.6006753958296963, 0.7515792749685948, 1.8259513192032004, -1.6251263815691714, 0.8631256271406034, 1.34368953705733, 0.15903514006124028, 0.27158752991117957, -0.8626929488309151, -0.03773133503434507, 0.6951856369470225], [0.31930224727763146, -1.9506564920164362, 0.09800912333063826, 0.8012982790600429, -1.222642539041101, 0.537339449911422, -0.42964037111204895, -0.40599714842332196, -0.37152679588992554, 1.0590763336402407, 0.6410080356768886, 0.46129212373250156, -0.25693146928445, -0.2349548036928171, 0.7537201358219433, 0.18533941108101218, 1.4534400122784172, -1.0714255161779176, -0.890383790055344, 0.03165933522649931, -0.32382221272480555, -2.4302452722214243, -0.6689421712748811, 1.8604306416919363, 0.4312779234454861, -0.3663780313804373, -0.1575810276140735, -0.7966862907039594, 0.44292601206724724, -0.32897619764007374], [-0.3463188315418413, -0.9737159032963772, 0.0166473991227657, 0.8176365915830729, -0.5063077891949872, 1.5538013874649648, -0.769808202922846, -0.27580135817174845, 0.6712387255782282, -1.5868992404099995, -0.6007085900947239, -1.0695209838852675, -0.8218677956658095, -0.5288444483955422, -0.45800944386438047, 1.813224852704313, 0.9637108046540742, -0.06378636059064144, -0.6392490462063537, -1.1219008904539458, -0.6636760266326055, -0.35516703956175094, -0.16028706397211062, 1.2106762603744496, 0.30513091880860066, -0.9233127902088522, -2.382672089067327, 1.7152522319721184, 0.5110258496605583, -2.0749934239463284], [1.5115450199503269, -1.630945017785141, -1.4580826593080558, -1.4790306705080034, 1.304576048547104, -2.117102738768394, 1.152867844054177, -0.943448403503395, -3.076508026960449, 1.6115924767509084, 0.11009694377247278, 1.3481726907911635, 0.7373450690557337, 1.0132350763866835, -0.3835177938143892, -0.9747224379064992, -0.7599997028655157, -1.6470171090469388, -0.4032225553799637, -1.1241305656518579, -2.394416214484719, 0.5114963442681671, 0.862082391768007, -0.2121678778030114, 0.9327401499610746, -0.8048039588899034, 0.7355914719619792, -0.14536368638530242, 0.7631756145384359, -0.38039627259093856], [-0.7771340251782207, 1.2283093095223643, 1.1319075393761098, 0.9516222236917327, 1.4505754163404025, 0.1973223632188795, -0.189587731894864, 1.5834959501094275, 0.4902601785078919, 0.726465546113498, 0.9826783380176828, -0.8179998865203207, 0.8308051391939707, -0.7600687136979518, -1.928302657954251, -2.6463167506889658, 0.5363999540055038, -1.1754501281531071, -0.532280984218744, 2.3831298505571974, 2.20114156606451, -0.3136060429642641, 0.499674225750651, 0.9061518054584162, 0.2687516629033067, 1.1017822921957823, 1.8312676816552627, -0.651257226026982, 0.4988562506765965, 0.19384550073802803], [0.8988846750991424, -0.2859384859116288, 0.8075066433951508, -0.6665617445185196, 0.7617622672441945, 1.455521424543093, -0.439954460459491, 1.2540370908267915, 1.922560199121592, -0.6548037239436336, 0.35951539206040556, 0.35748820915248974, 0.5017001213860588, 0.871054141898416, 0.5134903363093032, -0.8071395510512329, -0.3140272574637805, -0.16808729842549075, -0.6581300112429408, -0.5909798363855092, 0.20589884719896168, 1.3614381042960708, -0.963251648261462, -0.5290500477655241, 0.30346775735649445, 0.3065050843384276, 0.3360472195720352, 0.4146281747105639, 0.4048999354285082, -2.4284342164931263], [-0.09868259547557794, 0.08508158101189357, 0.36668327737442347, -0.6300716056247685, 1.8004423230479825, -1.335697286419018, 1.02978461435404, 1.055593672793075, -0.24627347546864944, -0.5564499190106728, -0.618516983700698, 0.10510101005897228, 1.2866350189064863, 1.394762678397517, 0.20462899369945756, 0.35544155922063453, -1.9356604563388247, 0.4857628352968245, -0.19040759984370684, 0.16680205018788308, 1.5465224369466062, 1.2118034441487913, -0.008702910689542183, 0.7557797259598978, 0.36775687610026203, 0.036419333239701805, -0.5410567363047258, -0.7954709425503997, -0.15012749013399587, -0.30846567314563883], [1.3582285714171396, -0.41192591638850506, -1.3534728434990226, 0.4312503571790459, -2.747286073692911, -0.02145663174456871, 0.22831535220295765, -1.6571029978266105, 0.34141633355647083, -1.1376624408264795, 0.23579654447796672, 2.1171733897517804, 0.07882759348365487, 0.39494497166939707, -0.9765139391855548, 0.6579894012650161, 0.10131981001734185, 0.9968275447744951, 1.4142209065756057, -0.8148826480072665, -0.24803944387637292, 1.4641733616758283, 0.9831394332679729, 1.1332274680824153, 1.2973572842512227, 0.13258637440624568, -1.3322922074372145, 1.5834735025597912, 0.2610431549838014, 0.8564827147956391], [-1.4872165336549383, 1.0829741700576172, -0.11915763340234144, -0.7813206539839481, 0.5700266157344371, 0.8350805978666676, -0.39607115294230305, 0.30181745701587886, -0.5557783828165622, -0.8493052228173288, 1.4449722464140957, -0.20779087697791512, 0.16603669477039737, 0.8623620031121659, -0.22968723539480604, 0.5583186666377572, -0.31549658976412576, -0.8138554447251054, 0.6960431031628364, -0.03718681799419906, 0.37004308496567767, -0.6441863967190287, 2.019038006302239, -0.01823127072678081, -1.0612205539602342, -0.0065667007777315935, -0.0731855218482488, -0.6154728404085968, -0.7852713817575931, -0.1618155156381991], [0.3975961892741171, 0.42733279796249596, -0.8038252091431083, -2.116704013230135, 0.9544237733725326, -0.2710313258234073, 0.8525115302137366, 1.0438063035618794, -0.25757549277150965, -1.2506148910932504, 0.627233234727864, -2.0393140672735575, -1.8061985724015603, 0.3621777904624536, -0.07852804607534064, 0.00604404754768205, -0.7727277305414708, 0.6398023070306512, 1.3561647534746937, -0.5027127407087412, -0.4267939830309423, 0.19108721170552243, 0.4644947485414718, -1.0880323135483545, 0.13923249023643425, 0.21819933129831737, 0.3595762488256968, 0.67959704577285, 0.21919104316913654, -0.13663923077927675], [0.6441747378739591, 1.6898953162996595, 1.1357879154041686, 0.42054283624997946, 0.8578500764571603, -0.4220145138754059, -0.7721679777745075, 0.6653695610988133, 0.08967084417214838, -1.9992963458661293, -1.8180572921026374, 0.204192418500278, -0.1276455456678626, -1.5766336238968635, -0.8743336944847929, 0.47189497992632445, -0.20308644820280233, -0.9434036362833774, 0.21977527056223278, 0.3264363647482704, -0.8895261974742869, -0.06416426966622925, -0.9214355338180573, 0.6891735949143161, -0.33287660413666775, 1.0618250350354255, -0.3447596199470102, 0.6971028743517967, 0.44231771888838617, 1.3898699213973829], [0.12466710302283161, -1.0680978861694246, 1.1290264213217864, 1.0058297976355093, 0.475918503757518, 0.15156163109551854, -0.8559724154366669, 1.5050354566577007, -0.932268547054819, -1.3784374708185392, -0.3044736638017377, 0.16325890790846867, 2.6777679452661456, 0.2915608030863021, 0.38694749984636795, 0.7450117681679314, 0.5356745222541147, -0.24923178274384167, -0.3664736688288932, -0.32887736420846675, 1.4366196842626735, -1.8758705973900933, 1.2695389750222392, 0.10539363703045669, 0.17128600790127044, -0.5172822512837262, -2.052203995860377, -2.6347607125322203, 0.927283492281189, -0.24444404970132758], [0.507035292219165, -0.9803666517946638, 0.049330944814866586, -1.4773808660542729, -1.6826884831339135, 0.8288451178596852, 0.7417798747036941, -1.6410937873617693, -1.1939824401642496, -1.006631712083313, -0.9487544946666224, 1.699440439111843, -0.7202951209679168, -1.1221039831346955, -0.9501143764720391, 0.5068381986633659, -0.258788462515575, -0.7341817407405818, -2.107648979628499, -1.9326477488995077, 0.16502029972566487, -0.14027959131486648, -0.48751131730626374, -1.1157040039911141, -1.7900891507047876, -0.9026303078443968, -0.03458419695692601, 0.9389161572236893, 0.12368152934941064, 0.5935730331746436], [-0.5869667078633914, 0.3798338313554204, 0.16402795770824388, 1.0463617139203916, 0.45776404472092735, -0.8815108088170186, -0.6911876262340897, -0.7650846503731565, 2.0484594814161037, -0.7186378159015328, 1.5774990214726354, -0.6659000854630763, -1.203736833923273, 0.42254044060976254, -2.4676516181358745, -0.4783014791274324, -0.29925931297556935, 1.712074755378754, 0.9866616772099726, 0.6941020402271814, 0.24385227427080297, 0.26219466417815757, -1.4032093065727813, 0.33528751568792636, 0.07381700776641666, -2.315440537726402, 2.1982937774200537, -0.05317899356626596, -0.6509429924843212, 1.3273971610934925], [0.32075929239923384, -0.1881353108836614, 0.33740340282461656, 0.734182198961219, -0.3299818165505959, 0.38692715582492837, 0.9821327265614926, -0.03512185319622843, -0.5576795356065636, -2.583572709908162, -1.5431799328106657, -0.6337854533207246, -0.5426121676678853, -0.056201323239789346, -0.40516576802451476, -0.07778996320428751, 0.338937301349266, 0.14118337389632601, -1.3905165617617168, -1.3059878707397943, 0.28715098051533006, 1.5378540386486383, 0.2284609524422245, -0.8626457257525073, -0.9975801364521406, 1.5244287280468027, -1.441209290125835, -1.1269937910498669, -0.36170296579377115, -0.3649631923871857], [1.2024173036117232, 1.0291054173343213, -0.012778241269581648, -0.9839911655366158, -0.8861498333537612, 0.43822862428756465, 0.9304438242499184, -0.802793884150182, -1.4305784363786975, 1.5545709206317875, 1.1584556670270627, 0.028868895394921466, -0.436836693058575, -1.6177986475653026, 0.3911469806868432, 0.07297603264201763, -0.6026637516891113, -0.6599987944689667, 0.23643605478183344, 0.983119762427864, 1.5691831094223632, 1.537986270633838, -0.8470243032913962, -0.9172013031815399, 0.38284948248487427, 1.220645356161675, 0.10925035995206617, 0.2947504105891836, -0.1290995156244733, -1.2299027014654798], [0.7019065995219418, 0.6241058743266222, -1.6017280333048989, 0.7681291505352376, 0.13941701882103286, -0.9892384820656537, 0.009500545530383755, 1.4417396628708652, 0.7669254663354218, 1.073936393637837, 0.24638080853864414, -0.8657117585438013, 0.0315643520262844, -1.7067189151795739, -0.11823262894198519, 0.157245826900309, 0.24617594058687178, 1.8126544790766579, 0.43199194978503924, -0.8434751658970929, -0.6918925167517976, -1.4046376160425702, 2.8968812966383974, -0.11379382241984375, -1.026143603544996, -0.24105817316251393, -1.5666489397895917, 0.9294176155866933, 1.1054344767916116, 0.6241695889669872], [0.4813095775458296, 0.04278108804507314, -1.19438771815544, 0.5326048072947525, 1.9527668445324944, -0.6080562460056538, -0.29448915967766814, 0.11059135470596697, 1.0707635067354186, 0.4655197817111811, 0.888129902239065, 0.46246525051556625, -1.345984083881417, 1.5242883496421278, -0.8816889788583977, 1.4711960938393716, -0.5094740442010159, -0.3682823522291677, -0.7844576728143126, -1.503290453192571, -0.40814424545467487, -1.4179141793899055, -1.8006549693358531, 1.2286129814808129, 0.8018590861975633, -0.08243240063369466, -1.082881721966858, -0.6652018048069521, -1.1211820175040579, 1.2370806172125457], [-1.3111860626275758, -2.767317466600596, 0.6629081028139847, 2.1914556100788554, 1.7152826619736148, 0.6473094764487909, -2.073959618175377, 0.24707149097390801, 0.14546516053838193, 1.0492423656349994, -1.0051827853433466, 0.9818842355750868, -0.027578712900760246, 0.38889614921574267, -0.08693411033250176, -0.24606296619313558, -0.409289944741242, 0.48373038740488183, 1.5622873870829699, -1.2247953289724736, -0.21304034067821942, 0.7751090745371396, 0.510493408602806, -0.35721388097390055, 1.5358868713254472, 2.03073639639197, -0.9964176825745273, -0.8439893802927965, -0.27677870741350474, -1.5796746456777435], [0.7926130262940151, -1.0678180769898193, -0.07989099203438309, -0.3040519185722332, -0.5316466968625098, 1.2334515737209946, 0.9688886402640499, 0.7858656707015123, -0.21933183206757303, -0.5811245116906698, -0.027892478678544847, 0.9740149487353755, -0.9445588343981439, 1.0238439394389358, -0.02251790832552557, -0.7611787119251021, -0.24292767377565172, 1.1908549765450718, 0.4737579612414335, 0.7135212685259121, 1.7534750150789866, -0.21804095356573544, -1.3753066130942495, 0.5552708301388256, 0.9702262419229357, -0.6488069143126829, -0.42964354292570744, 1.8897911273630623, 0.15163105920732595, -0.328132267589829]], [[0.6475435309027412, -0.3352420723257514, -0.9601198074288149, -0.25750897811241086, -0.768315530868804, -0.5150968578127837, 0.06523111962928493, 1.2030272658501922, 0.15647378267877862, -1.1530594058504644, -0.9510942659410191, -0.7107241106413278, 0.1121483932069932, -0.2368233814875425, 1.1944051976235863, -1.0778465658657577, 1.3662044168600505, 1.6000069786320041, 0.2341736316460076, 1.252016489295451], [-0.19566922911231774, 1.2195402561994946, -0.8746971800571403, 0.09045043537899097, -0.4503870233018017, -0.791084278772868, -1.5296496917999196, -0.8402528136880033, -0.6516602666017791, -0.8021053201362616, -0.604498108180401, -0.16359790594767024, 0.6272116558197037, -1.0810562604857676, -0.1754896656538817, 0.2492155482895611, -0.9125807252360318, 0.701965959258105, -1.0283085088082908, 2.8198308422340066], [-1.498068996476677, 0.3171602726583871, -0.9048582389859722, 1.0428420190645074, -1.6249134532982035, -0.811719991389528, 1.6248801384304359, -0.37954196596756073, 0.4041157250294737, 0.5483138459143608, 0.6330682869179931, -1.2604251608301411, 0.9718270312847117, 0.24115523133107955, 0.6288698775204764, 0.24391988364756365, -0.9593433558524924, 1.2337641372536052, 0.8138867241930666, 1.4570396076204155], [0.6267526749868427, 1.8698750711166245, -0.17250864635143692, 0.25682932080653176, -1.2830059819175408, 1.136763558900518, 0.47072544508769365, -0.09913497351783536, -0.535940472283621, -0.29032913318915404, 1.737380614279951, 0.2399490726308756, -1.2932573959371527, 0.8596886081112551, 0.780323459727858, 1.4215799891166208, -0.12392457821511008, -0.1643348372817214, -0.7305159664220016, -2.292958994078043], [-0.12925502959187168, -0.749432705040897, 1.1147710744544814, -1.5911313837752685, 0.8189502755396493, -1.8134958989140997, -0.554368908243811, -0.6302844001157918, -0.9605070510545975, 1.6606879688725584, -0.6020798869171988, -0.8937126248541181, -0.9704479029791971, -0.026440500494704165, 1.4808543617747632, -0.14223806842221354, -1.7286747687109127, -0.8599817673824679, 0.723703532510748, 0.8509380119363678], [0.5596407045130983, -0.4792634809092861, 1.3448192129914727, 0.5508516659494278, -0.6154736179873337, -2.041852723428502, -0.37845661933807145, 0.3467819381841235, -0.025726343315193842, -0.04587856049425325, 0.5947769325885041, -0.4667368794787946, -1.9179766997443617, -1.0709136491382023, -1.2017339513778198, 0.2632572310081406, 0.38583377393261914, 2.8189425495001785, -0.17532764816986754, 0.0877412191191813], [1.3574714878045118, -0.4025954978323058, -0.32318946530959625, 0.6909921058622074, 0.6876889617363702, 1.4901148389977168, 0.15391319668336792, -0.6871279941374377, -1.145175445201219, 0.2635233083070166, 0.4548576489017698, 1.001783676795339, -0.7954143245932993, -0.20127892711834952, -0.346324693660531, -0.9782661919223333, -0.3461785054062219, 1.316136742941669, -1.2512846667792683, 0.9851566508565457], [-2.042091373255398, -1.519255543432973, 1.6461367930526811, -0.9163476908171829, 1.5828705854925327, -0.6480612498191227, 1.8660574448740952, -0.6786886379139971, -0.6904979011375968, 0.22296800644531667, 0.46462681236267156, 0.118807629913291, 1.223045329666741, 1.320138400204963, 1.7844700746331739, -0.7864369057196208, 0.9084145463705735, -1.0001178690307873, -0.8588927545662368, -0.840974034427673], [0.4350619022591354, 0.045273477473563646, 0.1278355609511483, -0.014573273759807912, 0.1550575071670228, 0.003004809425202526, 1.080915747606495, -0.8159210910437102, 0.07581985630044352, -0.06420705378197991, 0.10862545918764378, -0.0067757575674434675, -2.7259602841823134, -0.5008017999839197, -1.0744196327717404, 1.210487791373225, 1.0784067782428726, 0.3586991535368812, 0.8682373792448501, -0.9029254572645167], [-2.1789649692450532, -1.1127926235398828, 0.14498888612358302, -0.9134736996416016, 0.19894503030045566, -0.013533903082936168, 0.5426724008268267, 0.41657464511803144, 0.8341175887072704, 0.3444420851390653, -1.85653185977008, 0.8457788975692981, 0.3449044417898722, -0.12320494165814784, 0.3498412183093026, -1.2817568263682912, -0.40427331304752795, -0.6749680479650816, 0.4844203319096321, 1.0142654788642824], [0.886925946838771, 0.22386944360146627, 0.10808504920373646, -0.9350317342185386, -0.6157102876618122, -0.35797633582114463, 0.6485723045085152, 1.389713150667849, 2.0694932814186844, 1.4303727764128038, -0.4254323296325177, 0.8705857764218516, 0.7346604032342384, -0.10000023654374504, 0.3929732600568565, 2.2953152772107908, 0.02405456157304503, -1.2524185400264516, 0.27249775493493933, 0.9037450014766194], [0.7653454918008639, -1.2157171114559369, -0.5813018959353917, 0.9020719950899742, -0.9649497178849502, -0.6909105822478887, 1.482280701419355, 2.684515897409929, 0.8400616421634161, -0.639121380481678, 0.6875532034903834, -0.37243580808559984, -0.285160685699076, 2.327170884267642, 0.17558159877811277, -0.2898466142899378, -0.3229632299964298, 1.9330819946272801, 0.21003609611370272, -0.8875773186831553], [0.6803416853446239, 1.0155628501741343, 1.506053742289242, 1.3241434560798302, -0.5324303835448376, 0.6489478300073744, 1.078544614864623, 2.3831048832111446, -2.336972573483469, 0.7696159807617148, 0.21598300839930504, 0.2174858051494202, 1.6630100523225504, -1.818600886832426, -0.42971819139773887, -0.800403970669114, 0.18126341279419028, -0.7067221485257794, -1.5086794305519104, 1.1432152479725464], [-0.02948573798230482, 1.1396831127545177, -0.6181322370129047, 0.25169633122764934, -0.6724852643992434, -1.42375423739054, 0.3114137713920219, -0.3190746110953817, 0.8497152053527396, 0.19796245195788595, -0.09574065309106879, -1.1546100691207402, -0.1606543964643958, 1.0798219310806452, 0.03615463204901891, -0.34175870226549493, -0.5639716336543117, 1.8300098960089954, 0.7798250963496118, 0.39568611232105205], [-0.2190624688992004, -1.0809048322354142, 0.7253456091612187, 1.150011729612418, 1.757897201048928, 0.42126211375674066, 0.6375901205143731, 0.6407444914925564, 1.2855469938178312, -1.427705693437075, -1.2180305786147843, 0.523234552192477, -0.10232883290991424, -0.43531756368431146, 1.1741497008666084, 0.3504670679260582, 0.18576871202277942, 1.9458116233631575, -1.7543953278154378, 0.11786319149965009], [0.9130789524558754, -0.3137593010970035, -0.34937372190169863, -0.8938412958962412, 0.14345319587769145, 1.2961767827383357, 1.3893085597496135, 1.2370388007286472, -0.7227477937979692, -0.5065805489917464, -0.3478605965655657, -0.8284819012468381, -0.379961007535368, 0.9583016460259204, 0.7226863309974654, -0.9541829944688143, 0.8330011946637818, -0.2589179893623415, 0.6666673586295742, -0.40729121112717126], [-0.8157042067426526, -0.31913072714018464, -2.0408120878918936, -1.1941896425118994, 1.1178011364374771, -0.6229293790024146, -0.20799729480908943, 1.4649116703097118, 0.8319405760434146, -1.0712216597567827, 0.326676423512669, -0.44980460442271863, -0.9181270559521076, 0.19693996100114444, -0.17281770449930214, 0.16511657085476575, 0.4186657911589837, 1.0170532219596538, -0.8991139716287355, 0.08169470501014169], [2.4644606066140464, -0.4312550334306724, 0.07418947355114323, 0.5665635633162907, -0.00743959961715072, 1.9092659071981575, -0.14194002905032246, 0.8612492095547278, -1.048694342278104, 0.7564689622026154, -0.20034406988380093, -1.0609489365472335, 0.9791931215102314, 0.14665830805826358, -0.05710736077824799, -1.951995071721115, 0.28649680809612593, -0.3937984633985255, 0.17569531230629212, 0.24507000742041135], [0.09195954461781214, -1.9879738467653325, 0.3107927412589616, -0.3613494502232125, -0.4502207307672689, 0.2602476010028344, -0.03589477806577104, 2.468291188591548, -0.2066128182380571, -0.41881569587555645, -1.523034917886036, -0.004506417633887479, 1.004339209224948, -0.21548667375438885, -0.9650856863594138, -0.9743879492054939, -0.40530638854164913, 1.356043800666606, -1.5872502597878209, 0.031469465183288706], [0.7256196499044841, -1.6812366860930466, 1.8850789792133535, -1.391143124719028, -0.996874295448252, -0.844487515515834, 0.15451563703724572, -0.4704336442546322, 0.1268685198590944, 0.6211095834162009, -0.9766591252012178, 1.1819677107313704, 1.2662734167391947, -1.8496141153906034, -0.1401563228541432, -0.7697760270867515, 0.9518233210333051, 1.5400258106104132, -0.04390663912215136, 0.6161938012946501], [-0.5404912174878862, -2.850813206992016, -0.6485560021938314, 0.15545717873322723, -0.4097541657211227, -0.08368767220207812, -0.7773217681223921, 0.1332390197938681, -0.4003288332358973, -0.7728558709595036, 0.46002039651186677, -0.7679795008291447, -2.2161493719884517, -0.22663743903506586, 0.5239031486965711, 0.41436374903663503, 1.3662111730301587, -1.484623595387751, -0.48888918554616745, -0.0805823328373701], [1.3312319668841102, 0.020880630425429737, 0.4483393036259295, -2.104834238632125, 0.4989876154264021, -1.002381493072874, -0.8824446830905892, 1.3137098475499267, 0.6514653432868106, 2.089028182554907, 0.9020562833373944, -1.9187138569763773, 2.158487049301607, -0.5245851414015315, 1.5121893446479813, 0.9427992536392257, 0.43022979879742645, 0.075793001399039, -0.27424733085852926, 0.34231128196402505], [-1.1845632496415646, -0.5665938353368812, -0.6627500651970522, -0.7538066632552539, 0.4590718934163559, 0.21936859556242663, -0.36292940065481744, -1.031025772194853, -0.2956870402285236, -0.3416905164146184, -0.865720062256412, 0.7166532747561605, -0.6229943486029975, -1.6988702171406243, -2.029339617818212, -0.6167918560772707, -0.7015524201325676, 1.5362347532416816, -0.9351129677701262, 0.7641451961846945], [0.977760842147347, -1.10087957785543, 1.846822302995189, 0.31318135184793094, 0.6278047830510346, -0.14953929297488736, -1.2331078605558308, -0.7684181039040442, -0.08093697155594427, 1.218378237739266, -1.3113047390248718, 0.09449379102897232, -0.40666711444599885, -0.5349058725915755, 0.20015680461729934, 0.1266478655160474, -0.1484500306610415, 0.08605694950481357, 0.18217151232053588, -0.5794741869232378], [-1.3704052111721736, -1.2587092965516788, 1.3930172663550435, 0.4330266958199271, 0.16851944342472205, 0.778948720018218, 0.7501343617619043, 1.1148069939379017, 0.9312031476607963, 0.4110701701719787, 1.5026711334979321, 0.628159386633136, -1.310464211519181, -0.891173319885771, 2.5112860866391826, -2.0235007631692654, -0.8092566350197976, 0.5955557624464791, 0.6701157176322698, -1.2901171751686151], [0.8039603937229192, 1.9201248677606353, -0.706444548859437, -0.09507695193647861, -0.3498590006414303, 1.1901832933250436, -0.6075353657408186, -0.1321739579567368, 0.15894261090960618, -0.5369106416444648, -1.4227958378717978, 0.3953198833677135, -0.29591094382714167, -0.7611778879711802, -0.9693955680093937, -0.9487292616137576, -1.6394241211261178, 0.6100398336632613, 0.7154169863688895, 0.5138061182360678], [-0.761154756986102, 1.1612712801259149, -0.6295857045034406, 1.1613230226304143, -0.6762285882638432, -0.08002404825752991, -0.2778236552262294, 1.8071982385285694, 1.152870092910216, -1.2765538285877773, -0.13324651854710415, 0.31706780576119575, 0.26180382566340876, -0.0903564622559836, 0.42906200934715855, 0.39318514355469986, -0.6904715499217906, -1.4395997445268691, 0.5791447769250363, 0.4060587223809965], [1.2518841779230616, -1.0183987215879697, 0.928271667259107, 0.21735201672997326, -2.0060616523951356, -1.4551019550359219, -0.5384149285059135, -2.4509006535267663, 0.2706819965966571, -0.4356429363896678, 0.3959614752468775, 0.5182987924102543, -0.6594177029314031, 0.3119068978567275, 0.49724177185493024, -0.3650724283059875, -0.7268726469777774, 1.1797384057879305, 2.238017503999706, 0.7267071588339277], [0.715506058509101, 2.2870694657514252, -1.1115148734289815, 0.06696655443592828, 1.3441099050932281, -0.036293346500252885, 1.3189655869494215, 0.5429573936064661, 1.162827995259386, 0.24759204506432186, 0.5534049569719364, -0.26954820775782923, 0.8845248566978121, -2.1529686804424486, 1.9733224213174048, -0.2345681188751455, 0.8929257277064669, -0.1536132427460336, 0.5003406834721351, 0.36152539451038945], [0.4166195738371886, -0.3420138829302076, 0.5396791394953346, 0.06831436526786012, 0.9657370111590631, -0.2467099796801713, 0.7641948021295117, 0.7977149685253574, 0.3662094089471743, -0.8870397833084939, -0.2733525118625777, -0.4442692783181647, 0.6416188490582762, 0.2654148849039649, -0.34098680787989144, 0.32139003512315245, 0.6315804652786089, -0.5086751298426646, 0.9146381346699901, -1.6690374126221519]], [[-0.148443208168814, 1.0809137337378394, -0.3026254224247485, 0.7133961589145251, -0.7855206021491822, 0.06466090600787494, -1.5393741776547762, -0.670650086053096, -1.6456835145919113, -0.05989130859012574], [-0.9592094593701634, 1.5378205196248307, -1.3952453877623208, 0.7580851954923971, 1.2654808688017245, -0.8303389566177971, 0.5555097749249005, -0.6651367796280125, 0.3228355515991367, -1.3614632780096279], [-0.69457719362518, 0.44449905254506855, -0.49562651353340337, 0.23167482072242065, 1.126008935346064, 1.1505774798912882, -0.7710134028098399, 0.4339106499386981, -0.5766734023697214, -1.4594726821228143], [-0.7830239142964153, 0.16182545627377912, -0.1673589161775244, -1.285534199780032, -0.2614039226274921, 0.030171186756953305, -1.091224876150128, -0.788279942795906, -1.0183363781654597, 0.25005410177012327], [-0.5420146063542304, -0.9370438652344333, -1.079201573969006, -0.3264984761408366, 0.027863730665915222, -0.057050219887159956, -0.8122092595668535, -0.4375711838194509, 0.6833779697758362, 0.2102642679360603], [-1.1288935365356623, -0.03332499501870491, -1.424506580628743, -1.3569498715949495, 0.5871364709337827, -0.8729893367928591, 0.1982702525089914, 0.4763936053740549, 0.7124786939542643, -0.19619514258874562], [-0.9127150525555089, 0.4645537643710543, 0.26734766378059116, -1.1317860291100803, 0.5534947905305867, 0.5051847616581631, 0.03960638623435633, 1.9126018854696516, -2.0212179554050613, 0.46096875938047305], [0.4306435337477843, -0.41554508543379026, -1.076651767775697, -0.29239583530891067, 1.0129280534031375, 0.725057434511186, -1.0145827089377102, 0.603284407602773, 1.4466629432994096, 0.8682910511023787], [0.32938469784025204, -0.4292092672135322, -1.7085708934660737, -0.7569895575354626, -0.7377969986869936, 1.9031909096622266, 0.5548225675918073, 1.8340108944642228, 0.885512481628618, 1.641291392308483], [-0.10691106092960684, 0.22412518517744284, 1.512135520385061, -0.026857065642027847, -1.755307264550136, 0.6317542499343944, -0.020158214918419935, 0.8650183388271108, -0.09292791110622939, -0.5579150837484284], [1.7551507499154977, 1.3403828486048874, -0.35550504929040744, 2.154769824602045, 0.31998103014129714, 1.7264547511125323, -0.018216175231142433, -0.2264368919661621, -1.251914682889994, 0.32581901120428003], [-1.0845758710525315, -0.5645876865604071, 0.5584284622882562, 0.6133762190744212, -0.6151839308713765, 0.9003239175656456, 2.9771633349835707, -0.6927481031535898, -1.5049759378799605, 0.7176438679306119], [-1.5532510948463718, -2.426890582084006, -0.1963257949296363, -0.45839775787209214, -0.30270991678772613, 0.34217719019099907, 0.197291140810495, 0.5775398560919278, -1.1561526994875648, 0.14989278962917293], [-0.5970545895397464, -0.12959981339496235, 2.028966999146279, -2.0305900711795766, -1.4166969882811682, -1.9673234775091817, 0.9893935024249337, 0.23697545646096232, -0.059480373473166245, 0.2845986097741699], [-1.257269379578117, -0.4670813123936373, 0.6468869652337081, 0.6085920324505487, -1.3631134955452637, -1.3048094958160579, -0.824589566808088, 0.33224638346847407, -0.39340300239506487, -0.22415733579074007], [-0.9597412429886902, -2.4134134369448463, -1.0188365374029127, 0.44516135475278873, -0.21998862747231232, -3.0292345004614303, -0.025767702440950904, -2.551812345259108, 0.9742224386300695, 1.0322201857845252], [0.18732661103774453, 0.6217309361883674, -0.4785979311210588, 0.6359071845836146, 0.026537508962548813, 0.6306826778325934, 1.3851470137088198, 1.6354712429163325, -0.15788043504300647, 0.04310482471535992], [-0.7986434976588414, 1.264514028883207, 1.7766398643704402, -0.44876353936973806, 0.26219230046257513, -0.6610113612647428, 0.19548519399274483, 0.6577466458716184, 0.454399442209892, -0.8868644919548847], [0.42470292495071754, -1.1778387773482375, -0.7455646742757295, -1.4542218595462413, 0.8445312363837373, -0.12479019648967433, 0.3094609735271176, 0.9885103438489813, -1.1639804710304464, -1.530523418838058], [-0.5416953771508588, 0.054979127183252964, 0.8195170163482184, -1.1807017062069418, -1.738451329654052, 0.16582349186130896, -0.48164531937058375, 0.5668408888414097, 0.6325050937522462, 1.5533497891198298]], [[2.1001506144403654, 1.4692271322072281, -1.5539306456701016, 1.021643423478223, 0.4643884108209572], [-1.078772901157234, -0.01833454365055092, -0.6706871165917067, 0.11703509453357282, 0.3596524708931166], [-0.6604462039415746, 0.17768575145584536, -0.036125355137277555, 1.4870551065568092, -2.464239986606931], [1.4013404536487226, -0.31703070774568315, -0.35974392865887767, 0.18644952155747288, 2.0091961333485644], [-1.0411904251254998, -0.4336217711923899, 0.6986273039685005, 1.3120955000644285, -0.6384221131627267], [-1.001758175853533, 0.04001168592606163, 0.3246709890595016, -0.21711149151852932, 0.509685398871979], [-0.6123369193183944, -0.4838278629228932, -1.058168257685353, 0.36122688684780935, 0.6021259576555962], [1.1379750677511233, -0.7735462758405807, -0.6047025606411836, -1.0082328965358596, 0.33755475583843014], [-1.4643129451885184, -0.7295401435128643, -0.019906484219488076, 0.7827146424234603, -0.7770787416630853], [1.1400625553346495, -0.9009053888658368, 0.48869041001860325, 1.1018642008814248, -0.4387303062054303]], [[1.2755962681251498, 0.14213607837235118], [0.1815656925007738, -0.0002745088516315966], [-1.0752134991494018, -0.6194064476998079], [-0.5681553680048707, 0.6133457530427026], [-1.6816690915957833, -2.5580138315393692]], [[-2.974287601791971, -1.3678609807431106, 1.209243854731509, -0.9613287877381791, 0.8443120759211916], [-0.963457411832459, 1.2950273065898805, 1.7630398773482747, 1.7548183284789738, 1.333788199885346]], [[0.8316580962010968, -1.8487064765709549, -1.1393012714791608, 1.8830589077895257, 0.5309584676228865, 0.7840035677379955, -0.1838791273401919, 0.5614846397626534, 0.6169218661779748, 1.1508390044322092], [-1.4180436187257794, -2.0422611043573835, -0.6254693582782634, -0.9735222578575992, 1.1823680110237256, 1.038859852363274, -0.9574581897153125, -2.0779233505611843, -1.229651648538562, 1.1525621467243015], [-1.0833164605116208, -0.7257824060827303, -0.3505506841034472, -0.14327901072124324, 0.250080844807174, 0.4945820600441386, 1.8449915498612677, -1.8721160133956862, 0.09600145133501815, -1.0981700396240466], [1.691481044752258, -0.10172017639956007, 1.6976391310635992, -1.1981555116413474, 1.7207122236270713, 1.1938932708345606, -0.15383677592837902, -1.7630757675652156, -1.8545942056251203, -0.40679574248627187], [0.3437318793981623, 0.019408478749108428, -0.8844282779626599, -0.8310400837142525, -0.3967852477654688, 1.6111266264231963, 1.450772497828075, -2.796218179994875, -0.08022626208567823, -0.4070298122628796]], [[-0.6376425499879105, -1.9640311740732963, 0.6643153174280503, -0.3233088092889338, -1.5984997622776675, -0.19153513615400286, 0.9761979560841594, 0.25464877175987743, -1.3254597519457514, -1.6952556863001043, 0.17081299889375764, -0.43917088680763344, -0.7691224397368482, 0.8368391619507816, 1.7689387710248743, -2.3092937725002285, -0.19066296043218933, 0.45974718877036636, 0.6728010875584703, 1.8410361279982812], [0.42725156881161486, 0.7026089138786876, 3.6970805285574824, -0.5152764300241717, 1.557024868704037, -0.6874814411361404, 1.8310833806071747, 0.5188437498933376, 0.12815495247265782, -0.16392879752415304, -0.6256434445119292, 1.5471034274753719, -0.4854559561427248, -1.1884261172617587, 0.9142408887628819, 2.393775883585047, -1.4593823550834364, 2.374511097950576, 1.1762120472299935, -1.591593904047555], [0.4111425937111938, 0.3533787866606765, 1.0950998981807614, -0.7979169326939505, 2.306283526355472, -0.3331925198933856, -2.4988035579818635, 0.012648577390753063, -0.15876127679207264, -0.546612302650371, 3.8607801487337285, 0.16555988748432587, 1.2322902903652817, -0.33985106366061163, -1.1308345958844228, 0.9983161703515717, 0.8523123353816646, -1.250150042400683, -0.04011870093227975, 1.0271540270388615], [-0.3771623242019874, 0.35361243680074556, -0.6202993195268942, 1.2544372954601135, -1.8197871902440392, 1.2797163516592418, 2.6825750059997246, 0.7955757115543493, 0.03453165859985451, -1.2377484168883184, 0.6707603248800799, -0.13941719444595155, -0.27339137488606, 1.559606968180855, 0.9595807377195934, -0.10532055045175086, 0.4529668961604532, -0.09281096394974325, 0.09119527787576893, 0.3048380093211366], [-0.7047093861562053, -0.49004156736669735, 1.6123411260896525, -1.192816621204561, -1.8327008522538208, 1.1112483065494643, -1.447245338982656, -0.8874681105281202, -1.9120492246165253, 1.7496944928276779, -0.47513755051192663, -0.42087537791452134, 1.2507735340073909, 1.2186332927388468, 0.6692180376350235, -0.6058075473237422, -0.33994506194156543, 2.756536967801354, -0.6870390107633225, 2.900105726840448], [1.951883382873208, -1.1958782155905225, -0.8945974948508926, -0.6645358204506578, -1.5857167782623396, -0.11924121380106462, -1.452004736994166, -1.3178688491822619, -0.747561299060063, -0.09385046344454676, -0.27355152694150686, 0.36673004687201466, 0.5651688053644833, -0.5725776187247035, -0.8768298889068171, 0.204685647786579, 1.41593613850682, 0.8965964454743477, 0.6230577200332312, 2.8056102534997485], [-0.0849384336893508, 2.038989701044513, -2.220808235978787, -0.2980786611077991, 2.405655839863773, -1.8550519189668104, -0.055893212927181087, -1.1432734125964745, 0.26087166177988425, 1.3733555324956708, 1.1118522232559753, 1.4427933435502356, -0.8282815116160365, -1.8808820010987473, -1.098320368967583, 0.22929260009792632, -0.486407109075603, 0.8818286955184665, 1.4125316381268795, -0.7472837255386681], [-0.16055064905670244, -0.7116249201332904, 0.9831342107736147, -0.0862353886382659, -0.07617788492521597, 2.1127446492902875, 2.0392639399265935, 2.7571265382669994, 0.014918667175290924, -2.132737581745742, 1.4275956734681652, 1.1070080770907709, 0.5794245745041262, 0.8255737403247401, 2.207902817214409, -1.7291678966148347, -1.2205100458465914, 0.3625853745953267, 0.8375466964880125, -1.5495531279171035], [-0.3268224512023689, 1.0215016081034498, -0.4717983110790275, 0.1776655824162302, 0.24914732468384526, 1.1915679489310589, -0.24742023832927487, 2.013418093638621, 0.19308805084230315, -1.7524484899331734, -0.7822142807659473, 0.14423651532720907, -0.035629757926635586, 0.027905999392253713, -1.45052308709891, -2.0913367625297075, -2.326358564340878, 0.28159839904186446, 0.6006767066618218, -1.2596355868890827], [0.4654745125514276, 1.788760994892221, 1.9268366588714467, -0.39687917417763896, -0.8957276703066183, 2.4379749600121285, 1.8670041266342399, 0.6191479708079038, 0.5232111422485135, 2.2012388809669767, -0.8753004304360587, -0.4957305384128635, 1.5432207834901543, 2.2724633830167424, 0.4988672635915105, -1.409631024543248, 0.06493696557555913, 0.32611611843395216, -1.1788551044284328, 1.6870186257446749]], [[0.9956151298044141, 1.5519849913724084, -0.24885753368167687, 1.495086617738929, 0.23100400420189696, 0.3467151163998248, -1.8308839355989843, 0.16499350032153373, 0.619760060780339, 0.0365113340145893, 0.6946767420876312, 0.36756689835227696, 0.747164422212511, -1.0832474035562494, -1.2666167112136484, -0.9653011740215763, 1.9873075085907748, -0.5337757330684294, -1.342681074153262, -2.054016409864502, 0.7052464149438006, -2.4046024325282946, 1.4341449594057, 0.4657022925014603, 1.7100239569510867, -0.40186234041311286, -1.0968940915403682, -0.8249379139546025, 1.3810146272918566, -0.1579386388816713], [-1.0622426160555818, -1.1831077284446656, 1.2609742690476915, 1.3142890467251622, -0.306780420412615, -3.5440624748224008, -0.4079045814228898, 1.0049354014162126, 0.6991839201278525, -0.35765340761941755, -2.4748533056959015, -0.2624524310554339, 0.11654352560437543, -0.047187291447835865, -1.762795902255863, -0.5919607446831868, 0.3186759937674198, -2.457433505838943, -1.3351337206391583, 1.240609211901905, 0.9124190743541626, -0.15712866561387273, -2.7751560517157228, 2.361489905895778, -0.005042084040461238, -0.9040119233278433, 1.7974569911995886, -0.36722387893676856, 0.5213810100556275, 0.3593746670527504], [1.043978772764487, -1.0746932258686444, 1.799855923435139, -2.367503385928802, 0.7714821895704698, -0.6082878886626454, -1.6059396383294076, -0.3513955125869777, -0.19324305960657484, -1.4131638370662507, 1.4306794174262576, -0.6910510374353083, 1.3695977312934333, -0.018101908606114943, 2.197306359407265, -1.1173969265623638, -0.7395401424772645, 1.293345180264145, -0.2691609903892611, 0.9871275471567001, -1.604841847138963, -1.8256011527199478, 0.10366284065101204, -2.1832524900344765, 0.30922208311811333, 0.32532664534852784, -1.9179101733599577, 1.1356425316072618, -0.8002914211959549, 0.6067390464427628], [-0.24578479051743715, 1.072461532409609, 1.151332388143006, -0.5353255510675948, 0.12401271492373811, -0.3931429629502159, 0.5546850240542475, 0.07631260921532156, 0.19802267074811766, 2.1239080978629032, -0.08121467211764567, -0.06041292647890097, -0.026934675510727077, 0.9173686864414524, 0.1553456078350045, 1.0365337087140516, -0.11101167613014715, -0.3705832596891121, -0.347582873656025, -1.1103164813034776, 0.3951799319687159, 0.661707956182872, 1.2648529309809093, -0.0026342393070828344, -0.8828031970300494, 0.5931227793084076, 0.9456563065220067, 0.7051377561510781, -1.7698640212854968, 0.14353083356194285], [1.1490646928219885, -0.42621774969938436, -0.37956075744795403, 0.13926130452362576, 0.780931068168644, 0.46608917879016176, -0.43414603090157194, -0.277234390127244, 1.4393038088985293, -0.5680868454882951, 0.6524285706344036, -0.4941732464542141, 0.13763592866179758, -0.6641108264275646, 0.08715303971963517, 0.601191272312021, -0.78863055712084, -1.3767530935030894, 0.7626753669626204, 0.5168830413838007, -0.6765213822199191, 0.2416809443879569, -0.5270396189193381, 0.933383460976169, 2.684543235788126, -1.0087475963181682, -0.9024844454518142, -0.3670477709241099, 1.0585231822632064, 0.4926451158210227], [-1.3963768173129705, -0.046567356159457014, 0.6753696012715303, 0.764744992182869, -1.1017650724786885, 1.5260017367929586, 1.2271099075871885, -0.16141889402772874, -0.26494584309507807, -0.528849056392305, 1.3953128100584953, 1.3683151648516518, 0.9935772796794652, 0.6807172336360621, -1.2789471155942491, 0.24467107981350275, -0.55711818761358, 0.5878438853478611, 1.0510601249633544, -0.37449005431221, 0.17031929778294105, 0.012207931200933289, 0.1774868770584826, -1.042097585510359, -3.2623975095594466, 0.7102284829037713, 0.1649236454364703, -0.020603050269336644, 2.0029768841876043, -1.9336186218674225], [-1.362768997842034, -0.6968846310650043, 0.5862223180407049, -0.16109370735674858, -0.9434646512850545, -0.09308404790641497, -0.6461329266794165, -0.041443280443791794, -0.8594611027028217, -1.1643640823905788, 2.130774701377417, 1.5249265075810234, -1.0258775470303527, 0.3499813583596441, -0.18601095745983837, -1.0614671396063016, -0.24509838914484752, -0.09272919788867263, -0.7538609459675907, -0.7772061338152807, 0.10387440504122024, -0.5058357272604651, 0.5258165273470047, -1.809396112104047, -1.0036297663032299, 2.5965757916967562, 1.130301441653324, -0.4321267076162954, 0.8952893138137281, 0.6821345155558203], [-0.2869573092197714, -0.6595622115874441, 1.3798139692909344, 0.29321325896775485, -0.7457597881025902, -0.8834793226098234, 0.41109807404940485, -1.4977631955476818, 2.261012768103051, 1.5824585157802873, 1.5394528344393186, 0.4768464430934713, -0.6094786926980953, -1.0998898796790326, -0.14884578959107278, 0.016141571933995385, 0.7287173350138831, -0.13353132486076533, 0.364071781177987, -0.5022283770080942, 0.12424291354510421, -0.1850783702241431, -1.771467735439578, -2.306898047456303, -1.3359039573869458, 0.17556693779257126, 1.1255440728855508, -1.4220848062785787, 2.065315625982175, 1.9065132776098916], [-1.2607583890642988, -1.4561734576370726, -0.883252282572656, -1.5060667113817827, -1.3315180816166279, -1.076066468250307, 0.9826231092997859, 1.8078868822386491, 1.02526963206054, 0.28398843594912915, -0.4085469771620582, -0.18299499057832638, -1.9789817470080178, -1.0257396229454734, 0.8952222980930163, 2.31327017096817, -0.9102353808269539, -0.8455384727189156, -0.19163441473381407, -1.1196184274010896, 0.723227749458102, -0.7831377069896125, -0.024121362859293036, 1.9390609404737225, 0.5280926676986551, 0.6789922028417574, 2.125411401038507, 0.6324570559374729, -0.3015259140567395, -0.2849851930413644], [0.8195986597009387, -0.09680985197694456, -0.2924889467810737, 0.22383713740436748, -2.0922756154994016, -0.250412247975694, -0.3780107191170608, 0.4596875728795675, -0.3079968084132588, -2.116167290234719, -0.6582120732092971, -2.592228900633326, -0.7039292307913487, 0.285704332665513, 0.4660510345989623, -0.6853521441496124, -0.3571136183194478, 1.4909122092126896, -2.0874186449993393, -0.3481108471640651, -0.9894890800890219, 1.663730234647819, 0.18714295707169626, 2.4611991118172, 1.9020031722627135, 0.6563282747417968, -2.802968747745007, -1.4273351357533708, 0.5784867368495923, 0.5046996149724924], [0.5692339989823816, 1.1017863655579092, 1.346343657316311, -1.3230077241002085, 0.628416517496012, -0.5749880514693376, 0.8753103578401403, 1.4124137869853317, 1.0978577690235078, -0.12228750256379708, -0.6956103730384394, -1.4722086562068404, -0.651380549978166, -2.806723031835305, 1.59971753545173, 0.8050100409202965, 1.6397472170483662, 0.3612795629689928, -1.9586043213166133, -0.5230863137828426, -0.11673627112547257, -0.46074640602265576, -1.5419132512149558, -0.6926235733090347, 0.7460835863164997, 1.0805664702589335, 0.9029249694023832, -1.3253889902382152, -0.8067737731376161, -1.6472594644573635], [0.17405673571880592, -0.5117003350514212, -0.7886455901030526, 0.21608551931382208, -1.9141355745714768, -0.11557028860374223, 1.3001733661589225, -1.5520362685343323, 2.182531033013593, 0.18140557665686333, -1.4367656462357492, -0.8718683562651858, 0.3710958336935414, -0.6290782088658803, 0.06864431196217147, 0.2098857189520159, 0.6770626204486446, 1.190273676969367, -0.6311512201786016, -1.6996141980802486, -0.8298850909309792, -0.7499260030948082, -3.2602605065000843, -0.5033424650836036, 2.546377679289252, 0.7860064988953589, 0.5410007502382665, 0.7728030771879051, 1.5961052086244716, -1.9409937919743034], [1.2891136866720379, 0.9373926084766682, 1.6749500518052622, 1.246154627633522, 1.9555104940090458, -0.3906293706729202, -0.807034217061233, -0.6800070550279272, -0.7401302580148347, 0.5185377478586655, 0.4146900847820695, 2.170103394773581, -0.34711815971715776, -0.681982544279758, -0.2168156782163792, -0.9065640715899164, 0.7927340248522092, 1.4394223922221492, 1.292523866367879, 0.49445255375237435, -0.9392973971419912, -2.3029571982056085, -1.0682361889043386, 1.3526356575964988, 0.8788341116967415, 0.5211917085943025, -0.42639034029658607, 1.424637672104331, 0.05919010345098585, 0.9390730377298956], [-0.44388780407862705, -1.3149888952437518, 0.1985233651318058, -0.3807394557457018, -0.06058599005752852, 2.4801599825600156, -0.2964408292444542, 0.4174113309288291, -2.050738630067897, 0.993398122344077, 0.5145693673340694, 0.995109838237929, -1.237165484361984, 0.7699648045473513, -1.165496822785531, 0.5528860103410581, -0.24434854667887118, 0.7055091748984131, 1.523342139908853, -1.491580753985868, -0.6204707898609858, 1.3765954079281055, -0.533922823619744, -1.977804980264849, -1.7941813597842753, -0.09018619161811779, 1.0054004551409201, 0.18862805172973762, 0.6389554712300028, -0.1632336321690966], [-0.08234290475844452, -2.191817252135409, 1.358260302455123, 1.1847612977030124, 1.6667658160731658, 0.3385024766416942, 0.2296714903991832, 0.213442881373058, -0.3248598735765513, 0.07613153496078248, 1.9272211972238955, 2.2385834672029183, 0.9996267846057402, -0.4985500804300099, 1.1222543517959276, -1.0724820589189668, -0.11166890399849252, 0.0070637711658037665, 0.9716691592044828, -0.893683415263442, -0.2932780017221088, 0.8364979914209083, -0.12749886848065778, -1.0034570111733145, 0.161730041066736, -0.3219348556676812, 0.0574195483392257, -0.5991655944246561, -1.5563161369902445, -0.751411870512973], [2.2104529295022743, 1.4949472694473422, -1.9360409920356643, -0.21635674428325055, -0.7265411606302727, -1.5799282362189975, -0.9742895715882319, -0.103145727934418, 1.2013018288886352, -0.8791506976594214, -1.8073752193818167, 0.059730773858532926, -0.8813104903060364, 1.244422936309571, -0.9688411465394982, -0.45302744773379505, -2.677759030321362, -1.4637706016092427, -0.4478826198000889, -0.932123476902835, 0.6983044511190372, 1.280112944483578, -0.7197206847384475, 0.057998890176370124, 0.466202512311516, -1.923372892277876, -1.2466714994686285, -0.17539906517395584, 0.7853749591324998, 1.4260781564301392], [2.2654674065783795, 0.4384192294621934, -0.3570508417707618, -1.3267120474101801, -0.2209442402239617, 2.422533121121463, 1.4507926543722591, -2.1066545142997932, 0.24190679880116575, -1.0972714532953096, 0.9569202818846166, 0.41845738181638903, -0.1955655640411726, -0.894751755172962, -0.3836189355809826, -0.6316533411683579, -0.4211972206332772, -2.1241652506708015, 0.31775500178012034, 0.4872266276447606, 0.7011570580153337, -0.6563173114136879, 0.6091950354413469, 0.5816675655035283, 0.3081465086819018, -1.7680871046255224, -1.767087926214714, -1.4338166566707626, 0.8401266196559557, -0.6976045024097737], [-0.7691627490813432, 0.9967214256049948, -0.8582832724720338, 0.5284659464170884, 0.9744923758746298, 0.6461308287642706, -0.4050492368485846, -0.03622500315037691, 1.4415628908059321, -0.48991446517976944, -0.07904760138668422, 1.5902920964927312, -0.2988805375204195, -0.674607399186022, -1.2196478273073434, 0.8012184996511675, 0.6844357260796787, -0.45992587486986497, 1.2309300795993525, -0.9273976662901511, -0.8940358643282365, -1.819664097705086, -0.6547626327782725, 1.118187217184226, 0.3255385499428207, -0.9894085697067522, -1.6972306179833245, -0.5710675401562484, 2.052458200218645, -1.633372474786139], [-1.837047799667364, -1.0091221697412978, 0.4220418048896219, 1.5930720075295586, 1.0693647472162937, -0.8529793687329743, 1.0235199080805883, -1.3491881542416109, 3.261798384346611, 0.23607297745389283, -1.5873566052696149, 0.20517357817458368, 0.5909137942112613, 0.4424381076249521, -1.8359036267355808, 0.21621125637883007, 2.5458323675566135, -0.0966162802061056, -0.18261283131033845, -0.22892012282457974, -0.8983591142146852, -1.941499345225873, -1.9828674008134444, -0.6479746175727835, 1.5370272646189698, 2.125590827671539, -0.0819646977997955, -2.2962251008265113, 1.0632458170363328, -0.6239619896716733], [1.0041295176681164, 1.264044629383736, 0.6920260552378253, 0.6189219292555064, 0.15305946455876174, 2.3610142143118087, 0.5417876731217809, -1.2373358962892889, -3.038696035773258, -1.0785620778680018, -0.7003513238595352, -0.43933831557835795, -1.2388217293389188, 0.5701726299751113, -0.8516595020548848, -0.09255937948374665, 0.3944008379842247, -0.11297208096427595, -0.08675671014761113, -0.07306616211901196, -0.0158435541063422, 1.3833003049151351, 0.8231166443933117, 1.5118795742535227, -3.030738322421598, -0.0991591102192349, -0.48790834808305655, 0.3511243387650817, -0.1307442368783929, 1.0653890687717567]], [[-1.55554585095576, 0.6881865536645467, 1.4744579524049268, -0.34371960911072463, 1.483580641551063, -0.020259489444897465, 0.8252311924850889, 1.2188347804242594, 0.8732261353053017, -0.3205182513075192, 2.359901460838836, 0.22125009642060103, 0.47109945284975047, 0.5143985996823598, 1.369293890975404, -2.8847831904943364, -0.6781819283176594, 1.4616224165175675, -0.14509272729515926, -0.6390739299365646, 0.19430287866694512, -1.469424737832441, -0.8270091486685865, -1.3761803810419846, -0.7675039102339928, -0.06920234577411806, -0.6855436670426889, -0.5548394041445492, 1.9941933983349893, 0.1445359563745247, 0.8121082196010301, -0.07327358393219198, -0.11120503934922285, 1.4246398305638566, -1.616936060971062], [-0.5478568582153447, -0.4098436756701145, -0.18055478406500597, -0.663967019510857, 0.2844668292480046, 0.6170530310975573, 1.1784135464865344, 0.9390014145111534, 0.3387350089727263, 1.1164021378057387, -0.3408179674639071, -0.949047711397618, -1.0084879147712593, 0.009806039121129597, 1.1869482640856306, -0.5670695726219852, -0.5491115046019774, -0.974412830808137, -0.4883467139319739, -0.32140239777104207, 0.8239966817233619, 0.2154951290586955, -0.37265882589261295, -0.41344066812992925, 1.9141533762287217, 0.3448023337967754, 0.049285032577983307, -0.7296289572587441, -1.1185678318928571, 0.9078217348317706, 1.4002754333033598, 2.791716200151419, 1.0347658594993243, -0.5013948058499123, 1.1147494177444008], [0.23935675246883256, -0.42590767753440756, -0.37421895535308886, 0.5730836670734742, 1.3244128320763218, 1.5233132234290832, -0.634552649590205, 0.24202376530598627, -0.32290497579009514, 1.3018074493416698, -0.09099848878288368, -0.054939593742828814, 0.4630293788503807, -0.03246851233783201, 0.6600549583844151, 0.8037598802885951, -0.027644652300309557, -0.5488937803891292, -2.589938531336008, 1.5294290271911046, 0.31495052646741417, -0.1236060265189334, 0.23358204329936855, 1.3898223877349385, -0.2141582129776852, -1.7650297749906856, -0.5467990168489762, 0.46056112619265605, 1.6438200333345057, -1.6177640238126716, -1.1417383846013232, -0.5755295962082814, -0.19028026551008204, -0.8755467230560735, 0.08692667584602502], [-2.133054988402721, 2.0462353305639467, -0.1510905555532749, 0.47380720913675023, 0.6361090324580347, -0.031774568179524086, -1.9372698617954645, 0.8409686194640447, 0.02022351657212423, 0.7614870509963472, -0.09084280244300988, 1.6598497475257725, 1.0355116264575954, 0.03223949442040124, -1.2157699584318575, -2.504882282512886, -0.4643428056001296, 1.4740133473978339, -1.4327767884193952, 2.8779918678321925, 1.24710099357149, -0.6420321311921653, 1.1396060841508324, -0.186009023122356, -0.13377339154496298, -2.097288957342393, -0.5419369686756148, 1.4153802171221304, -1.4849165380560565, 0.34567700883182845, -2.5548629991867, -0.33170758063791267, 0.8523423210893544, -0.3474015866679001, 0.5702736362894164], [-0.5807812808038632, 0.4670609533612147, 2.298800671257071, 1.9780279638817788, 0.3685221426137164, -0.038040801786955854, -0.2184335010240746, 0.9497403896533911, -2.1906885624657444, -0.2730695953080705, -1.4026001474631382, 1.1224152073575855, 1.2662451996065334, -2.126591940707408, -0.9624572437785216, -0.31490883730812513, 0.9860338393037847, -0.8143024033591213, 0.5247907630486482, -0.04835143834054648, -0.1225388486397491, -1.3795903257812427, -1.1991185404521023, -0.509714906044816, -1.4385687052917455, 0.9995020725843018, 0.4876937501836757, -0.5227957715691074, -0.32984534416562117, -0.3859816182095689, -0.044208849734087126, -0.9967932658098111, -1.7502779287943422, 1.0126423586099011, -1.970766866138853], [1.6207387768642312, 1.7411749000446723, 0.8719844790187772, -0.17579534074526906, -2.195031057179794, 1.8259949875803458, -0.6009069723855259, -1.1166038122002095, 0.16972282903255226, 0.6785775329372161, 1.7265427759687377, 0.9983527937240385, -0.6877741369516608, 1.2134633713683975, 0.9713362010052653, 1.8887264239193515, 0.32698187042452104, -0.43198062076978444, -0.6960379638319628, 0.9863262693429659, -2.7029922210442683, 0.26601975570720066, -1.4571013455260236, 0.2616013315091045, -0.8864830703023346, 0.0003098855348392518, -0.8242134407971129, 1.0648628231460882, -0.40280320161022737, 0.6085860357887328, 0.8906171731779058, 0.026330622272683506, -0.8364456471152659, -1.2962713606733318, -0.4567909539445758], [-0.02952905816305763, -1.1375739087575414, 1.9699262255437486, 0.3880501607735943, -1.3762488717183434, 0.5340819404735734, -0.5974878755217089, 0.8528196715989182, 0.24738760921008401, -0.40600765875797673, -0.6125494466176562, 0.5918174287085369, 0.3291117071622921, -1.4854147783333278, -0.8845733186591891, 0.3826812827936261, -1.0830173198890758, 0.04413973248761454, -1.2326461463301055, -0.40550354586778226, 1.1745079639463698, -0.16736718532957715, -0.23724755359114733, -0.611041172531586, -0.6017100103637335, 0.9972327573343989, 0.37890056858419685, 1.1280807726920328, 0.8945027750978096, -0.11095839623019685, 1.0321458931927439, 0.09888773514772946, 0.559422627540506, -1.1977517042430215, 1.0462664493536618], [-0.0924839159179051, 0.7235617937281636, -0.15874487662925546, -0.5352511585190283, -0.9518901952512555, -0.4429584538603567, 1.0352876175342087, 1.6360816630198536, 0.31008975535842065, -1.7190967477306207, -1.2207120709595463, 0.44997339206271414, 0.3856418351790937, -0.7056260907505121, -0.03867329702843012, 1.6554279424062772, 0.004697722655725193, -0.8538433925964555, -1.7150400709054456, 2.2440600971288136, 1.2936068325646966, 0.1782064290547308, 1.6882938158464122, 1.1788539636039628, -0.9952772717938191, 1.3578068459414334, 0.6893154648574468, 0.3023525124519133, 0.05305231262183447, -0.6359264613257631, 0.811761605002701, 0.8561420958563783, 1.7421033607034262, -0.1731361916072707, 1.7925033450256127], [0.3091232400913551, 0.5235186926870387, -1.353545929287047, -1.479105769694345, -0.6525084966183514, -0.8888472827694062, -0.8688150912056359, -0.5234405164518303, 0.6468307715740748, -0.6535142902608557, -0.9420941263356699, -0.9113578007724072, -0.3385918593798381, -0.4360095204253049, 1.292439307467593, -0.3091680018680297, -1.0455171552094498, 1.984293829526932, 1.7853414204467224, 0.7719780727639273, -1.9144930193345362, 0.951739147911181, -1.2340304076757107, 0.10636936536491845, 0.48511654065119275, 1.8985850398726847, -0.7456900581705435, -0.41893753212110657, -0.1448634078327478, 1.054363324516527, 0.3471675042417099, 1.0142713145018571, 0.3039547734375418, 0.544133652464843, 1.1859865657317263], [-0.4202370383869565, -2.1753208036528613, -1.0347505374321457, -1.0399670664975436, 0.029763862964472407, -0.04061566760215254, -1.1279852722426364, 0.6254016981642918, 0.6800915839013553, -1.0635904956514495, 0.6938862253380716, 1.7811555153145715, 2.1672228808643506, 1.4792781444342595, 0.8734475399895811, 1.1622488636413262, -2.2014978183825638, -0.9598565719654281, 0.3366725405043658, -3.2801511682222135, 1.4269155902698143, 1.0182995410034368, 0.2523998383544324, -1.0275785496926781, -0.09830097004848956, 1.245323808596581, 0.17572677178995444, -1.0023387685722955, -0.5534424165909957, -2.0301755204162983, -0.3781054687134343, -1.3798312456771513, -0.8084075975849597, -0.5496142183316626, -2.2049122831936283], [-3.374823562794959, 1.2878490829007048, -0.10381572531856074, -0.16855527141080304, 1.1432072305222658, -0.31395406306685114, 1.14006654033108, -2.0804201940558027, 0.18824806572816086, -0.9815895386170557, -0.8681919826234263, -1.2928536047206316, -0.46644432407890085, -1.2185669075216907, 0.8181373255065187, -0.5212046814758609, -0.4017098433603659, -1.0743536978901789, 1.4662541153904596, 0.15369356891068403, -0.39793504148478365, -0.26442972535793124, -0.9329546762008655, -1.2597164307984485, 0.7350799178065174, -1.0985582561658152, 0.19016107256064232, 0.18712908028777828, -0.6770488007242309, -0.8556549523248616, -0.054839618894128105, -1.1268862281811656, -1.0013292089904637, -0.13398978908445988, 2.2273175328944665], [0.1928707121017128, -0.35987772629667547, -1.2066737649408792, -2.011592755419743, 0.7362969276406044, -0.3805623240429072, 0.9294246620039798, -1.3933048763095055, -0.5259792875841648, -0.5965530322023702, -0.2908774527117918, -0.8728098910214996, 0.5433699595504572, -0.450739797899933, 0.96388208104567, -1.4123356903647177, -0.05888537315696346, -0.36018245169444935, 0.4117890140839131, -0.11573488751118179, -0.9877260048126785, 0.213834632733633, 0.4499933092810265, 1.091696126208751, -2.913654603542783, -0.9491327106376146, -0.24688380963955636, -1.035365611379943, -0.1438697625248744, 0.17377542322169806, 0.5447560398356861, -0.8155585908241233, -0.36875595794384153, 0.11289054859115595, -0.4154128435882894], [0.4859684648479673, -0.781089015176401, 0.0007935184578718933, -1.201618632259564, -0.8519287155436933, -0.9385354792134573, -1.4298806692788284, 1.2455575003127601, -0.7710689882303692, 0.16073123158193062, -0.9046392101797536, 0.222339526138224, -1.8027530272741337, 0.22348697653444755, -0.7057903235772144, -1.4637901672971068, -0.04768825077787222, 1.8108834233572615, -0.04319988065381838, -0.03507030518855297, -0.7401563040308542, -0.15486938223714594, 0.4941842483139106, 1.2258529285412614, -0.8254066150401711, 0.04123094658093857, -0.02473253130379883, -0.7733170813951461, -0.5043464588062644, 0.48450737670516014, -1.4413027381257397, 2.7523967113692396, -1.1301898163756587, 1.7171647946008914, -0.4240822084567912], [-2.11054454980396, -2.3268691135861066, -0.07275386678063193, 0.9230632826000141, 0.12352696574375553, -2.0075016509178605, -0.39098683939520396, -1.758008489622982, -0.9250602793041625, -1.2256627485510674, -0.91227466485043, -0.9097912421380987, 1.2262057721641442, -2.3310650099078654, -0.4726574077720038, -1.1100765866044418, -1.4236260558294216, -0.6466151228437953, 1.43429842124867, -0.9884429208995119, -1.1980506226585803, 1.3439567090437132, -0.0657925367708453, -0.5299808823581559, -2.4119040385862887, 0.5006024816290787, 0.2571282652923874, 0.26000081259724506, -1.160571418440375, -2.797018634596359, -0.8997518793492384, 0.2382291899495868, -1.5338196143187668, -0.40310217887093486, 0.28847189116018873], [0.8029817957652146, 0.24054808594782814, 0.7822279290405885, 0.1814337137602681, -0.007925348014505397, 0.9371835892016664, 1.1375719266402846, 2.557698386082935, 1.3249200530610594, -0.00465205026789383, 2.4076569963922925, 0.2007539861588935, 0.47311968318566106, 0.23797231170631386, -0.7468224344053271, -0.5785044962421804, 1.9004351087484361, -0.8334159177816285, 0.4756874017754241, 0.019423687837099808, 0.2603708335834332, -0.8595465578936587, -1.2072663209965822, -1.280796317365585, -1.8209029261456533, 2.3811679373640255, 0.5345549604934445, 1.6376498696432102, 0.2893291490622145, -1.0750889486185966, 0.6638345242095955, 1.194062595874947, 0.9685188579465458, -0.7318603180379486, 0.4694808251491794], [-0.45180822112892083, 0.17827691167938514, -0.7234673946608251, -0.043816472442288326, -0.40366647019109647, 0.25954153579555667, 1.3665925286995069, 0.6967034186928641, 0.40002316458335985, 0.2883406867586652, -0.48552811155753006, -0.5068744684969474, 0.9019492630214591, -0.2549054314816206, 1.2128074837865748, -0.045884223137561596, 0.8418539714365505, 0.6522721076281308, -0.06503981201669949, 1.493457587740752, 0.07468889081848495, 0.5806027025142125, -1.6421641325349812, 3.285708006769098, 0.2566144789185526, 0.27043180691140284, -0.5675535762363644, 0.2953811433251598, 2.069524110482436, 0.8313227176400264, -0.3497218458208899, -0.16977144096993224, 2.391549485836417, 0.9266202180889737, -0.04743302597534553], [0.3273778345142356, 1.64350183807884, 0.840870021631221, 1.4488448658494804, -0.22871056519681843, 0.7756985222149944, 0.38541601273939274, -0.8445043479778112, -1.6151402228821068, 0.2915787970459973, 1.2008254921784738, -1.2258475686988919, -0.8430846096601196, 1.586209757644681, 0.3822245642318416, 1.0020542524207774, -0.03915770888862188, 0.6679159973601144, -0.11784429766490774, 0.7618846971940939, -1.5723693552715514, 1.952518265654223, 0.651342416775513, -0.5314082268829778, -0.24094412176404278, -0.45149900812315874, 0.8178746705489166, -1.088871531235369, -1.5955479933508194, 1.3193041412161712, -0.13360115852020235, 0.9488578618721785, 0.5013025347984664, -0.3187872197647331, -0.11857771807918599], [1.9469764919039343, -1.0663121340241084, -0.809829257293142, -0.8319206325995877, -3.0778341367218753, -1.1740483675073914, 1.6929696577231526, 0.3911296333823943, 0.45956985640630815, 0.11586210039125833, -0.9795635132316879, 0.36921290743644064, -0.1148783559245861, 0.4016040798712227, -0.8150314704140569, -1.357699497779458, -0.2896068488157837, -2.8134669711315645, -0.5868696515372848, 1.0758197543063464, -1.0858888888430382, 0.23557798462931875, 0.6351189098991511, 0.14097631414609155, 1.3402118185698038, 0.6805990723626156, -2.151744229142548, 0.10092834643823016, 0.9992228819465101, 1.7116396199201716, -0.9572072548936367, 0.3274766629885133, -1.3642561525884982, 1.179283930480344, -0.05238680891869372], [-1.5503843833779725, -1.3152276317048732, -1.7768354016520316, -1.1268549187179824, -1.1322844326687211, -0.8574162376403843, -2.1436515199234085, 1.7425192895205823, 0.041515858329602175, -0.05189199569799867, -0.6365952320146195, -0.9808002252818604, -1.8436124308168604, 0.546447529269507, -0.23242997635877563, 0.08654670901071389, -1.8742442488032842, -1.4262163336205325, -0.5329190701535211, -1.0780124789646575, 0.2781272325526388, -1.785879100152319, -0.8641412716006477, -1.7895902532026442, 1.0914167570402746, 0.1417178041887985, -0.7090431124077743, 0.9284636338054145, -1.2713462288067887, -1.3874060687788419, -1.8253776494275067, -1.1462306707860248, 0.9459909903872459, 0.350441896394795, -1.6144002739075598], [1.2582641534740182, -1.663868041801588, -3.0482023011684674, -0.5063883040863127, 0.17617848319501409, -0.05716474153869046, -0.19443923527657447, -1.3553223145919324, 0.4562755417283822, 0.7053110959110153, -0.9686415196755471, 0.948153360980729, -1.6714516870681402, -2.241149388485504, 0.4109455142176812, 0.4801167405764863, 1.2898878558902767, 1.2922820277486347, -0.05361817010109935, 0.4042323724445962, 0.9356383685125583, 0.9466067761769682, 0.26985097412575837, 0.013340386688774762, -1.1462646145200945, -0.4307950439831725, 1.2725602863360865, 0.989416314449869, 0.033469519334554214, 0.023778083822782715, -1.830389058249967, -0.812918104373716, 0.09597170782045936, 1.650549669196295, 1.2935549914355946], [1.439647763526923, -1.5101558538963842, 0.32490152233441877, -0.8472649470131427, 1.0025259326142704, 0.7081451602903888, -1.006609567212261, 0.9779254797683118, -0.8054994364446041, 0.7811622371387327, 1.3798932731218894, 0.3792650352053493, -0.7373826982328668, -1.574771136726878, -1.2426885514289117, 0.11607616468458373, -2.9825953356003976, 0.4688585197096894, 0.17982946442323663, 2.3057891841579554, -1.4760562944319282, 1.4167153316663599, -0.5230741648405988, 0.46175996729339247, 0.4437824289926344, -1.341418590771591, -0.03438815648185911, -1.46748036747997, -0.7167259812458014, 0.3700178649440062, 0.8826348186703694, -1.2958456854608955, 1.0364807356828105, 0.13954914348078867, 0.9309320769507377], [-1.2519283293385697, -0.8639829543844831, -0.6610341344424707, -0.22541569630372946, 0.516954864081373, -1.2572044876244397, -0.655678489891454, -0.5750627803395134, -1.1465179194958934, 1.3457951727842956, -0.7363280651519815, -1.1657665132938866, 0.24888402288559155, 1.219394333084669, 0.22430865484146165, -0.2796676705425253, -2.3463773921427773, -0.9263831319093254, 0.34612207711074094, 1.6830933188407013, -0.7502101181040906, 1.1143984447737771, 1.024338291368393, 0.5935279007228758, 0.7221795547567137, -0.5249972199526675, 2.8916970687972463, -0.267025496456777, -1.6190421747843895, -2.0470344528826923, 0.4593824535313095, -0.18912546743002834, -1.214158018411272, -0.19240320109777986, -0.6156616071679675], [0.9738836755788636, 0.12577254189984743, -0.3354773389241085, -0.9857114732678265, 0.6877928956024529, -0.9777952521816174, 0.7745543234231214, 0.4954962166945961, -0.7225705049563561, -0.17419011652876148, -0.5089441558912106, 0.9184254692669848, 0.7140901456900604, -0.1213025402003419, -0.7364547373835608, 1.1257289246446103, -1.3247155221507152, -1.8557862636891236, 1.0127982746227937, -1.8696902344337716, -1.0090980525281117, 1.4980483797129547, 0.9359415318204968, 1.420056746189418, 0.9114764970693096, 0.6819682672553516, 1.3620050652190003, -1.349552931801268, 1.400952226005289, 1.4673692994256144, 0.08769445692043629, -0.4384204929321816, 0.2265020056529803, -1.9882721980882072, 0.6134306831864487], [-1.1564472516826068, -0.3996215725658737, 1.4950035803501447, 0.32652447308208626, 0.7627969717365725, -0.6236620633168877, 1.4099712664984105, 1.4704986037548389, -0.6097718694291064, -1.010814575537283, -1.646157586405853, 1.8513103367304722, 1.615069618109958, 1.5365631896679135, -1.1867340268739757, 1.2061531321196575, -0.31485018686635663, -0.2628396455796106, -0.3899454478494487, -0.7097556260881542, 0.512360686381747, 1.937526083809914, 0.4467915587681772, 0.09714677012848727, -0.27231686797214344, 1.140268969872668, -0.8860149674574559, 0.08743908912672234, -0.7730391906561882, -0.6121643423489128, -1.7185746566597515, 0.2396967587942707, -0.4798902501942967, 0.6147142174697902, 2.2922812275303777], [-1.7134021402901074, -0.20728900045670612, 1.1624442946458637, 0.07641579020773004, -1.499770892436794, 0.19670409025291694, 1.263413340637082, -2.0750219601148, -1.7301416596114916, 1.456445374382417, -0.46988053913360306, -0.4410810551933336, -0.570502717304647, 0.3885678165429607, -0.47817438120249683, 0.4944191692285939, 1.58718308364229, -0.4170065629384848, 1.2442382452093017, -0.5514478251437124, 1.0008937316912065, 0.30146796761938205, 0.4495177524551488, -0.22003898093498492, -0.34419684030588654, 0.48268698694571666, 0.73907546472586, -0.36817762566398365, -0.861178007018457, -1.0390990261523283, -0.890509115424002, 1.3990997579607896, 2.5162745118201615, 0.383385435852251, -2.0008603163748306], [-0.23399867751413342, -0.39669261034169334, 0.031654157530550536, 0.09228076029849357, 0.8981664319393138, 0.20008167910164196, 1.0706175895237269, 0.5249211234850253, -0.9891603069874717, -0.1700597257550797, -0.08190315177962341, -0.6636379057926035, -1.9999792021193474, -1.2271882819022384, -1.4582069060284935, -1.0455908677203583, -1.4199551387359426, -0.5051835693189942, 0.682055437119027, -1.4275887625729646, 1.1823260690514983, 0.746513448706675, -0.3841601863904022, -0.6999607296667018, 1.6761134822278523, 0.8143031999289294, -0.20160596174395562, -1.2847301130382414, -1.9007630551339387, 2.572128685168689, 1.206476350076879, 0.6682830092997254, -0.2084554712627421, -0.6638621637922242, 0.5827875438483021], [-0.4466752854237912, 1.136835230239093, 0.26606251448459406, -0.4563813043151673, 1.5521492803021721, -0.43918198787372914, -0.08951613554736779, -2.5975009564370697, -1.1945633264202882, 1.1591281190708305, 0.8583423613147838, 1.6090043571088082, 0.26242775241509403, 1.009581804504622, -1.1868043294220565, -0.6329274721943836, -0.9948715682333962, -1.1922928343054324, 0.3898744808242013, -0.5358620068252444, -0.39843228895326893, 0.7419487303973541, 0.8869560329996647, -0.37046899793104254, -1.0252019116142357, -0.5807474010549176, -0.1674926076891033, 0.6569973049911624, -0.0661989883971933, -1.4588492642038395, 0.4328948777881542, 0.6824399697250598, 0.6964114358621523, -0.3760841485413406, 1.3890060998816183], [-1.4006891890362754, 0.49181584775129095, 1.3177905363842486, 0.11298887844930576, -0.18252742954258167, 0.5978105638526536, 0.5009956928199921, 0.5125019713515122, -0.1868001419092762, 0.21175434955341124, -1.2288945145007555, -1.1488199814454727, 1.086593157931157, 1.5178454327917865, -0.8903916707624814, 0.2788442605077206, 1.3563126649698865, -1.0165583664218374, 0.8471754352417077, -0.3614411713583282, 0.37817647325426546, 0.28618698843777246, 0.9876413619826854, 1.0357512451980664, -1.7198159088797296, -2.5769646738594805, 0.6746151089430861, -1.1510794209992088, -1.0408601174555698, -0.1955393241922225, 0.30602940622106795, 1.9178891697487996, 1.5845542040574756, -1.907562679877843, -0.7079418169768575], [-0.22898731869276404, -1.1971706391457395, -0.8474191038477517, 0.06480514495622307, 0.7052283505287542, 0.8895240923028559, 0.15597303366313026, 1.7917347363969691, -1.7093409757845357, 0.666345200508741, 0.2994679702802829, -1.5448417154543568, 1.962883360190902, 1.0477929748805492, 1.3979488292479691, -0.18596930784906457, -0.18894746229854728, -1.3428909861094533, 1.371544907506039, 1.2472939312666036, 0.27287440935692203, -1.1246248999488635, 1.5328395187163109, 0.2092346766548414, 1.8123287088353928, -0.9474793944945171, 0.5596298846968146, 0.33027998929794633, -0.2678335539458049, 1.0609198686837815, 0.5793338945205805, -1.3365193676674105, 1.938914323050467, 0.49921794826175314, 0.3423622024950528], [0.39278816941660794, -0.0731149361676662, 0.267645943011576, -0.949209516962073, 0.7217222701737234, 0.8966746244933179, -0.5199189791683541, 0.5208638468283789, 0.20368508913451053, 0.5182089608846722, -1.5009422462174709, -1.2482644564750043, -1.2239419433788614, -1.5505305059211223, 0.7052486249391711, -0.10461593653006948, -0.32718085076821385, 0.05425972954065045, 0.8517205914222253, -0.460324107622272, 0.3506408357594658, 0.9977433131125442, -1.346296475566639, -2.3555885993328984, -1.1397444678535518, -0.8240571330358576, -0.6343355910190448, 1.2485359370146767, -1.1127991142059337, 0.1816337776598767, 0.34694892538038963, -1.231116483982814, -0.7975537663380399, -1.059435825807905, 2.6216827901404263]]], "biases": [[[0.9415232344791522], [-0.43059703797934146], [0.767743081638033], [-0.018426628396060067], [0.36177413798882], [-0.45378434800435435], [1.3026543660788426], [-0.6800970980295288], [0.8436842751720978], [-0.8673061073770406], [1.698102185648914], [-1.0246790392305114], [-0.944042956803689], [0.3588518541912179], [0.9681237307147236], [-1.3905613504645407], [-0.5640405915602386], [0.8080336032634804], [1.6275030866903175], [-0.7728295901313756], [0.3061786652719645], [1.2526712082431941], [-0.11245333125291773], [0.5126060757607426], [0.3876710153180799], [-0.40202046471345537], [1.9346278083869752], [-0.14172080573123425], [-0.5359154104309426], [-1.2962681569174175], [-0.21269253705979965], [0.9818977115257056], [-0.17115624970866275], [0.35107452913967874], [-1.3486106315839657]], [[0.6066301035294482], [-1.510735313725738], [1.1153709222526362], [1.665382989026505], [0.6673866437338384], [-0.11549104670963199], [-0.49889620642620025], [-0.2820983719680321], [-0.49071645044747586], [-1.6410822057738108], [0.35558283399390445], [0.5362772074299189], [0.6292756803707438], [-0.17825951800271303], [-0.5929317028892801], [-0.9086033314501357], [1.3024183627256953], [-0.758262053037729], [2.1972891985601746], [-1.9774441433593966], [-0.466209728868498], [-1.0500055699398239], [-1.021077465097961], [-0.6367698087660819], [0.6280874612850241], [1.892358474480307], [1.8145136062194713], [1.0102202313515871], [-1.346800923983637], [-0.7148498253944082]], [[-0.5601392769926132], [0.2888170792771651], [1.0264182777381066], [-0.4059316662122893], [-0.5783144841570572], [-0.7909061769326694], [0.9575048502704036], [-0.4533418712242673], [-0.07041922720310825], [-0.16167934049727464], [1.8220331741230076], [1.036360527669587], [-1.7262607898971574], [-0.8657742504460222], [-0.16505678018487474], [-0.10707680287448236], [-0.8948775067431257], [0.5077023252137192], [-1.1156134885999902], [0.8100733005683125]], [[0.6113058209828759], [0.24279992649715235], [-0.0418851083612761], [-1.4997402444259933], [-1.3191240976153589], [0.4083180504947966], [0.6314326211469847], [0.7884872950113555], [-0.5268553043309544], [0.18513331832049848]], [[1.9308671956755614], [-0.010551769248055133], [-0.17346694876884838], [0.602372994969904], [-0.6754999249617158]], [[-0.1159816286255516], [0.978848954991718]], [[-0.5723415022038469], [-0.8351788352824092], [0.33192990080325996], [0.43495503158979254], [-0.2721671575745911]], [[0.39164121168857574], [0.6295444674785186], [-0.6442324824763437], [0.8007164387134852], [-0.5880087540004035], [-0.12290595934660815], [-0.7348569628475138], [-0.7594148662841701], [-0.5706906799571644], [-0.9300104449036959]], [[0.8961442445430813], [0.6644201696115881], [0.03615297077198205], [0.07421037139155841], [-0.06624753067641226], [-0.45575773412799536], [-0.5936690485533879], [0.7671011238453754], [0.9760642793069724], [0.13742609181336285], [-1.1652275516749635], [-1.0970248743419686], [-0.7944437606026046], [0.09044019340129655], [2.941811826884866], [0.2802119648296579], [0.6679188542643928], [0.688517234117067], [-0.54784020874971], [-0.07300289026347918]], [[0.06601523344207018], [-0.3701287566367922], [-0.20133377896833612], [-0.15202188339126854], [-1.0144623780727977], [-1.1100624037472022], [0.18907868314902987], [-1.3679456795287201], [-0.3577905079641958], [0.42616959544208255], [0.6457000398204398], [-0.3458149336691062], [0.25074612414909003], [0.3811697767792327], [-0.08753624521678079], [-0.7490102525946163], [0.5331244300137697], [-0.5334633661555146], [1.5288010415860387], [-2.314449005417472], [0.2819950728948877], [-0.507900192022911], [0.08499636637484824], [-1.467107645228857], [0.3882281858856088], [-0.6620512038939983], [0.8545392001389909], [0.8619812667441161], [1.3240712469603626], [0.04194744030865637]]]}