{"weights": [[[1.6611387586233461, -0.81853597580511, -1.229259025852349, -3.378273701719516, -0.5930537850939788, 0.20198407682469066, -1.753447593677177, 1.1185143710885348, -0.4448615116533246, -0.45752476759534205, 0.6806132514238229, 1.5781457311666942, -0.4477321542365137, -0.11714503838244215, -0.18162174535678058, 0.7907094584956091, 0.5257522715649868, 0.038488767340026334, -1.957920070201348, 2.442135539622861, 1.3281401309753413, 2.3241016143249698, -0.2763517632314351, -0.6042317625009036, 0.0368777332117875, 1.180506197149057, 1.500258999827311, -5.786211624667435, 0.38334894781388146, -1.0996467957041907], [1.4809375536318465, 0.3844406546458424, 0.7016400171104826, -0.6924121446978456, 1.465854371105794, 1.3500309461842588, -1.129682028577398, -0.2083287175048185, 0.6185763286710037, -0.12260861034687509, -0.3197776042278416, 4.434138019847288, 0.05528365076290837, 0.5607602154585719, 2.863674092216571, 0.05066787807960038, -0.16606810232558475, -0.5176505184550978, -5.268091418682675, -0.5729741577284622, 0.6310994944446473, -0.6309889545339147, 0.2639120993194009, 0.3183046223793104, -0.26479942331011924, 0.8934195183992618, -0.9778795226959949, 1.2452382507145052, 0.12274310822865733, -0.12695507280094948], [-1.1249269076039246, 0.3096463128302759, 0.39031537982889086, -2.6846913107049093, 0.5263018254615855, -1.5803392059014327, -3.0761977743412294, 0.8913681879403724, 2.70905532795729, -1.657079143105637, 0.14090634728676774, 0.8016088764956006, -1.5292228818553366, -0.2150723380246586, 1.2747297860653617, 1.1271235827523143, 0.9184631519587054, 3.1721162689931823, 1.3738109487777261, -0.2199506744104894, 1.0754595673591072, -1.2461016499545392, -1.3506543311946182, 1.7312715199818174, -2.9866426726672435, 0.08735974333253776, -1.2244743961836848, -0.19397064929970076, 1.1383061496575637, -1.9536451429225492], [-2.4209647971853663, -0.8900830302261977, 0.21598470456263336, 0.8443258382690441, 0.45973078144743224, 0.2895594557433414, 0.42081744312941877, 3.0461749568266328, -3.1581573567362926, -2.1895571756879733, 0.047663481439987825, 0.16741418272975053, -1.662611793319617, -1.6332547449128783, 4.231234045713573, 0.7505768885113427, 0.8430087123791008, 0.4488046451942023, 1.3575700554962704, 2.8141843393671513, -2.0163474996725026, 0.6178756870510583, 1.096317370034571, -1.913070232109028, -0.3633866480631917, -0.5755224669835999, 1.789492812426362, -0.09310630564605112, 1.0857266775117353, -0.09947545471805722], [-0.7078445412406232, -1.1267593066932753, 1.292893054509218, -1.9891384717118394, 0.8872589509880561, 0.41829650341986896, -1.8418465891209133, -0.7733436658068409, 5.134831089647897, 0.33443910887743095, -1.4609095531320277, 1.8256613831511457, -2.0377235833386864, -1.101595188970829, 0.14826750248631496, 2.1750928502856275, 0.372641661806073, 0.07753188059690005, 0.623425592986092, -0.8921116139400415, -0.8282531246417176, 1.0818343849259593, -1.8765061061607127, 0.45604765415023546, -0.5988099556783241, 1.1662496986190134, -2.045440701877757, 2.0371138840510192, 0.035521635294773896, -1.836221555765117], [-0.51264505759898, 1.0005382657058908, 1.0602026016891553, -2.450642291588398, -1.2765973465411249, -0.2102294143311508, 0.23426597233185398, 1.8552454015127195, -2.8584277424848072, -2.294910149930595, -0.5594720559463451, 1.8543866958824515, -2.7550844476373877, 2.2200556311735538, -1.929997969086149, -0.10031457828131543, -0.6082005253378008, 0.7490292052073734, -0.485003726748318, 1.4882562059250333, 2.4406081603544374, 0.9213184936025033, 0.8208862804462164, -1.2467658809606463, -0.22557138657229342, 0.3482210758968793, -2.486497751889562, -2.4038383820298397, -0.01736686529948514, -1.263796131877457], [-0.6099601378298364, -2.1949026848786515, -1.2728592528255496, -2.1688014537384213, 0.03151922192150885, -0.7759474749986223, -2.032916095588749, 2.8834994375768437, -0.25404565098029164, -2.1927635661696034, 1.1927063426402338, -1.1386098317392586, -1.0329051951511399, -1.0799553133582733, 4.025994783332549, -0.9524525953472096, 1.9339817254662262, 0.7799364969807937, 1.1690488614820045, 0.9512293173952683, -3.3965386154459067, -1.909334960005145, 0.7757324829776189, -0.16322302814501688, -2.3548998785612474, 0.34755777414600353, 0.7039499155251648, 2.302038538333712, 0.5702900860245023, -0.6424042873323154], [-2.2151670249721005, 1.4561583519705732, 1.0114409379540819, -1.8951003515482032, 1.5155955077291223, -0.5140072900995133, 0.10804008948451486, -0.11697501897940138, 0.5797594367739759, 0.30740200432957343, -1.7602454541704073, -2.0316383790493644, -1.9757315489799474, 0.08260874972985274, -1.1863085206495003, -2.7690398301332584, 0.47420393326865223, 1.0024535929930503, 0.4148384566273051, 1.2216301482639644, 0.00016318616935546819, -1.1587956880146342, -1.862957639832946, -1.102397237088975, 2.2718735403699517, 1.65966152816751, -0.17527036246858746, -0.16267576808512313, 0.14778957058626283, 0.34835536579874987], [0.7729234265813134, 1.1875213816829218, 0.4594975126694915, 2.3001205903578184, 0.02087233385064037, 1.9444315392935978, -0.46199188060023794, -0.615822143410833, 0.35008623931073035, -1.8597724648544758, -1.4647724285488601, 0.6352268802160258, -1.1078263334766365, -0.4367974255954579, -0.35519837267091714, -3.3108220339261774, 1.0108849771694632, 0.3514108183286459, -0.09789793092024195, -0.9957176124729012, -2.9046537889193558, -0.07512716107063387, 2.1444921407417974, 6.118040600983831, -1.2942470481352881, -0.0193760062625299, -0.9241172642705, 1.697510272182538, -0.648466478874619, 2.252051491706998], [0.3340557469411711, -1.8319285309955633, 1.4174733838317557, 0.750582968806046, 1.4339654195429818, 2.5627353560303083, -0.48654042015493276, 1.8358406292600753, -1.4985320166591665, 2.4148561532291635, 0.41863014679201305, -0.5830178738925028, 0.39879137550186494, 0.6387462678066559, -0.5454260917908725, 0.23579897588602924, -0.6893325957883396, 0.0349824262419134, 0.9852933419624608, 1.4505583923507623, -0.5537795167252422, -2.5326794227965315, -1.22490311354602, 0.7996785716452818, -0.7216172940893748, 1.2266386847931217, -0.40588927565630006, 0.2933455777376952, 1.7478171542534382, 2.0480000069573148], [-1.1797068671186894, -1.762899176631401, -0.613697056512347, -1.4703580432068812, -0.1198836821662413, -1.9184083342737452, -0.85690654859276, 0.7583163858431182, -2.760567781903383, -0.5565666974000627, 1.274878579533426, 0.8709488933009274, -1.0643037817492393, 0.8241792993697974, -1.4838616583465687, 1.3005336684790016, 0.9554462231697448, 1.1332964956755405, -0.2746040211783805, 0.6641938758872322, 0.2614640807085723, 0.8430385822198123, 2.397007622513787, -1.441387399756509, 1.186732596679814, -0.30837866142776615, 1.1533529119512584, -1.402303685043211, 1.7677362705149895, -2.564151132583487], [0.15967924879868642, -1.7636045752152463, -0.9640206920094789, -0.9471406917519047, -0.14104562387698602, -0.5142432096089554, -0.9195337447511602, -0.4979338708985815, 0.2807888475543592, -1.6344870353051055, 1.3756588647571444, 0.07883233191772941, -0.46493252157845993, -1.854077714808805, 0.46587154668076985, 1.654035208392574, 1.679014334599758, 1.2930870930345282, -0.4190741246196955, -0.17008892661871822, -1.3373490070126506, -0.4329008496521284, 0.3364631095264808, 1.4389567991709218, -2.17161342197086, 1.7956249540760512, 3.2326991320517853, 3.3187777717058338, 0.8458708445375841, 1.3928108715126686], [-2.1177246026263914, 1.1040982691455898, 2.2283100402670533, 0.023999194683473956, 2.046968562923382, -0.12763903175040872, -0.14523142933687566, 0.6788877037430885, 0.856170988982323, -1.390805908852569, -2.1736147698344217, -0.9160134888952075, -0.16667109402623356, 0.15475196478194256, -0.41230852075072627, 2.6261139463099292, 0.20188857773284866, 0.03930062582983192, -0.5311715152957989, 2.643361082908579, -0.5796215695655939, -1.3224256418157267, 0.16175767089647655, 0.49222058885120507, 0.43283682657406075, 2.3490241876335434, 0.9885043997246391, 1.4932721225749173, -1.35574138145537, -0.7162885572945993], [-1.8275587869080894, 1.442902487850373, 2.115717024312315, -0.1395758424307067, 1.811978356959922, -0.2804798318729406, -1.0723357536169216, -0.7594722781416866, 0.4323670590419398, 2.3216728887220173, -1.4798718187798672, -1.0830991139220427, -1.3941296530590233, 0.13527931556650127, -0.5616679283018438, 1.5909771642384904, 2.6953989061554253, 2.6048995489524627, -0.8975198032592641, -0.4679614399124594, 1.6833311087350429, -0.6947842232225058, -0.24170007500482352, -1.569552942970215, 1.5225372097787653, -0.6302427523407297, -0.8343833741733824, 0.35842500312989495, 1.711147271940913, -1.1963345301328459], [-0.005383773035861884, 0.19489915098376243, 2.112971488081783, -0.9083415214900937, 1.6880585171611044, 0.275414735060438, 0.622706329903575, 3.3471053034539895, 0.7887454926253451, -3.2113734101026457, -0.4887710383508818, 1.9575454368621907, -0.6359439166472722, -0.13327094060399847, -1.8241729513299962, 1.626827202393977, 0.7406324589011979, 1.0154824278873662, 1.335009245820288, 2.9272027302338155, 0.8074015433317265, -1.1179125316367726, 0.8674774769632241, 0.9404085571547454, -1.3068321999273813, -0.9608983958480373, -1.218790293207437, 0.1121028623258925, -0.16827507135571904, -0.23074502653858253], [-1.879713319341858, -0.7934102538054328, -2.415957059461512, -2.1486235295074905, 1.407829735496993, -0.2571685899520812, -1.3269400464624272, -0.4605380968127718, -1.529027443690064, 1.591360542167892, 0.8379997858433182, -0.24241830363756509, -0.7014649565983752, 1.5731486819301759, 1.5192887729516913, 3.3332075174124207, 0.8224895749514729, 1.313058928236435, 0.10696320678018363, 1.5227403827881199, 0.8093970251188459, 1.917150753056551, -0.4025133547919101, -1.7816078845934045, 1.103160630364258, 1.9253999294851158, 1.3393200367113227, -0.6656268452904527, 2.0903072479406193, -1.4543486308897708], [-1.635732693551127, 1.0965657206999944, -1.003209780752623, 0.6493715182610664, -0.04192868244076092, 1.6438919626445134, -1.1479154529704958, 0.8805514808695064, -1.3124284645589115, 1.0542844454888975, -1.0185048862463912, -1.1507480179035154, 0.7680791565047485, 0.7365820990148928, -0.8994174932748867, -0.5935222891340541, 1.3311372734924911, 0.9520108835169055, -1.6315657172681537, 1.0608525491146437, 0.3169699013742828, -1.5483238277502147, 2.6456537902760573, 0.9470200015918585, -1.5223691699967663, -0.3764508592116014, 1.3442663005187288, -1.7545448682105373, 1.1488313226937938, -0.8044218437563956], [-1.385187547420486, 1.440414431988176, 0.7025442666246269, 1.1839173593977648, 0.6788643081501636, -0.03958762096548117, -0.4330590177869494, 0.1971313318238102, 0.6142752871615598, -0.9980142789163037, -0.27614695351661944, -0.19398983093717947, -0.6979848164508812, -2.0868651709502704, -1.4005870291165696, -1.4221157827826172, 0.09971568596643234, 0.3918552520272004, -0.6461016212865757, 1.276823762151513, 0.42777747888617484, 0.3302916474368022, 1.964149717889176, -0.396019317874414, 0.3236260957297188, -1.1104383716128894, 0.45653820555185953, -1.9514321211112888, 2.843739828195176, -1.552932363184167], [-0.10812622494434923, -0.20532714510056135, 2.312666246663513, -0.4140345131049198, 1.218439441965825, 0.6228916538083108, -1.441969537554907, 2.300783686580784, -1.1164752516814125, -2.409615980104395, 0.07089710973796881, -1.976538496104764, -0.8484222127306589, 0.440779776736636, 1.4547010917735907, -0.26025425891213677, -0.38771733492250515, 0.8356239133058551, -0.7164057370080159, 0.929692130717653, 1.1941586725536986, -2.5629848336470413, -0.09227519795743123, -1.2296212812770462, 3.724219766742279, -1.2259356692888816, -0.031115412482458363, -2.8380374789826845, 1.5587542904979002, -1.0208369349457216], [-1.6569839544486813, 0.7588573551495956, 0.19728507893537692, 2.925195329540405, 1.967992840195203, 0.35135536923595173, -0.8083468464939035, -0.6307006650205259, 1.1394899765053996, 0.46538920954354124, -2.5082493081946007, -1.3149023371504842, 1.282777336399623, -1.4168691792903934, 0.3439959222382452, 0.011568193550770918, 0.9078013142729613, 1.576923826629796, 0.3178011136944254, 0.06914040811149212, 1.5472003078580672, -0.4189213264884664, 0.12226273414117166, 0.02893075997605378, -0.012643397176485861, -0.3745283362648893, -1.3690689805660985, 0.47234677654366564, 1.4293996142235366, -0.32646838145295987], [-1.128788176447603, -1.0197741513893626, -2.500963738456733, -0.7319213054615988, 0.7356640135773864, 1.5959701669130857, 0.6135750488474516, -0.22804401904564797, 0.18278667987481942, -0.42155571202860204, -0.05725608471424601, 0.023527645406236832, 0.8195543497071347, 1.036769875078421, 1.7782927474762817, 0.041568780186894756, 1.732239039836916, 0.8745387883221323, -1.1915644619123815, -0.8073843359617011, 0.7316132344492403, 1.620585235855363, -0.24558525784720506, -0.20531669658410856, -0.3233003759190496, 0.8229318947505828, 2.5551972965982173, -1.7763094660025327, 1.3118327286616371, 0.706212919762058], [-1.8626370733523399, -1.8488481348748025, -1.854871126073807, -0.9411801266229717, -0.163242290525019, -0.3032985858178121, -0.383831321864953, 1.0191030472138436, -1.5478037015738597, -2.6694030289989663, 1.8543418850513873, 0.26834103732079917, -1.8830771679758433, 0.7270276980713077, 0.010525367534949318, 1.5179470359662612, 0.8822145718742005, 0.56580148677687, -0.07904781495001566, 1.1566529749152836, 0.21383218182404592, 0.030082209666244097, -0.021710276199189776, 2.613364968348031, 1.2278873648180006, 1.7308951455268509, -0.44984523191103304, 1.6317539442740114, 0.6583151872131555, -0.4655013970306717], [0.7285465383739558, 0.347737761599646, -0.09741343112753706, 0.06065183215567956, 1.563950525334268, -0.2966859721060292, -1.7998258862512604, 0.12390376546773657, 2.2104124519981547, 0.02322190628558042, 1.1179067565415048, -0.5418233474531868, 0.6357056474363069, -1.6936433088175313, -1.6020619153223203, -2.18318209423399, 0.6031553102522851, -0.40434520054925016, 1.821747954088483, 2.428754699320624, 0.5871840046436725, -2.6913496488138535, -0.719947510540595, 0.026908879972503894, 0.6255529113786849, 3.470448441566883, 1.700586915496486, -0.3973078834613929, -0.3964844351509932, -1.47719770217802], [-2.018012741910043, 0.2943271885913489, 1.5259139111142783, 0.7211476035676186, -0.5853117133979202, 3.252534981745735, -2.688025059810583, -0.985913798580672, -0.1082047930922898, -1.5499415300233557, 0.17025106114258381, 0.3036595445213173, 1.2409700426307442, -1.8308075380498676, 1.802957065085074, -1.3135508175822108, 3.101007206168511, 3.2032832731686764, -1.3279545420906793, 0.4478606732789825, -0.8037109416063973, -1.3749035156916707, 2.6260704340098284, -0.226230210595707, -0.5628906044747899, -0.3847947452698746, 2.1868732669503768, -0.30906722689926214, 0.19069533600229363, 0.6277735527349688], [-3.0259713099018937, -0.7374803764468717, -0.7211747608032756, 2.288942430252955, -0.8428206690762439, -0.4644771964469089, -2.6419540779939625, 0.08884124735788025, 1.2577714674951626, 0.1535637635690312, -1.777965468218633, -2.126581250257666, -1.5719166969381804, 0.2454852067838241, 0.5129053781688592, -0.6022680547628698, 0.5486151923744381, 0.03419812690072394, 0.05535600658814879, 0.27297954829968374, 0.06733780113414184, -0.022758144826375094, 0.013667758980713152, 0.7045346875391834, 0.5268247265763198, 0.3401408273375075, -1.5886788304443198, 0.1924545465447363, 1.1412738044928499, 1.4161544550824372], [-0.24754019085586434, 0.3342161514819643, -1.3330388796951846, 1.356908072942836, -0.2551575996224626, 0.9454256682722153, -0.5331358523348642, 0.2560121793358424, -1.2611829393812926, -0.02331736867063061, -1.2032767027691647, -1.4386058415169154, -0.33257067871540136, 0.6910678907298774, 0.2486277401969592, 0.15565120126677176, -0.3326255477950267, 1.4943354845996188, -2.3182331424875238, 1.9829214008257352, -0.4830813243974307, 1.5153034370073508, 1.7391538664482926, -0.06355038655953088, 0.7882317373091704, 0.10466519503575906, 0.34654617911188684, -1.4261721906041287, 1.9719290271967578, -0.5083002387113152], [-0.7256663329995181, -0.10984599286931258, -0.7038143735424747, -3.6582415245247426, -0.6141312654661473, -0.7327727957117032, -0.8572785017947993, 2.4093988182336625, -1.9492622623774776, -2.189450616692245, 1.0119685896435966, -2.9196733205578105, -2.372388586253351, -0.6883691136081748, -2.0610203713826434, 1.5490865721211549, -0.8290562354579093, 0.13598699023745436, 2.4004440196847923, 3.152010041107836, 0.5224067978096109, 0.45743519869837407, -2.60983255281128, 3.338634337284401, -1.3366281658530705, 2.686678516380345, 1.281876350932913, 2.0739510469539515, -0.24812354640161655, 0.034459154739211816], [-0.7672578665858282, -1.947100620993382, -0.8848026626938529, -0.660652653606413, 0.41480244135718936, -1.152618739453414, -2.5617306005946756, -1.2154028136620658, 2.3522164845718825, -1.0328396096844505, 1.9798058002349697, 0.3415445399517705, 0.11774317996125916, 0.353191501199166, -2.044578672378175, -0.8306002929849329, 1.2333370580151113, 0.8573243532227478, 0.8131397518056784, 0.7664095726923158, 1.9178247510272501, -0.6705153594367785, -0.48214468029811874, -2.219531251326279, 1.7354298005570168, 4.256315601174354, -0.11532632797517005, -2.8242933484836596, -0.42816406425074344, -1.847223954339405], [-0.528755842467848, 1.4159739220508565, 0.49501539727857197, -0.6160232435320794, 0.5263133021478908, 0.22833653405113483, -1.226914171092952, 0.5965465068144085, -0.8234047244499841, -2.6249155127209574, 0.35937345559991773, 1.2868307612462289, 1.0071779906122693, 0.6223864142755938, 0.8589690383592976, 1.1999160769052144, 2.436711926530711, 2.0802108154472885, 0.847392284980303, -2.397128664917545, -0.15822252644973978, -0.15444404301545783, 1.287521617918303, -2.8654728375414895, -1.5319019288511095, -0.4058395496866666, 1.7370539851527174, -1.838387677933284, 1.993047941232589, -1.1993458682811935], [-0.9366392714640717, 0.5844013392669088, 1.372421135072983, 0.11451226304077254, 1.927638982194457, -0.859482275163386, 0.051117642490986874, -1.4155464727100677, 1.5729364373367436, -0.30853387047156855, -0.6476312859885889, -0.6226137223351899, 0.13565067607101636, -1.9308411310244025, 0.9962236151092259, 1.3368152183924704, 0.9595464768693951, 2.258540373417213, -1.2368804052561568, 1.118417414518512, 0.13114222969874567, 1.0246794995967232, 0.4157003364440884, -0.6201407841359964, -1.3270527738039086, -1.7385139162810663, 0.1975811866251671, -0.4026059228960574, 1.3835191728680676, -0.26333679181344477], [-0.8864175846222913, -0.7402906666973339, -0.10023751603901507, -1.802502663828572, -0.016401561543934445, 0.2668746208514888, 1.381118954857913, 2.1808027718078065, 0.18464645731278992, 0.9221269572589914, 2.4920439194426742, 1.8152530860084921, 0.39561369678932345, 1.5440726227695758, -0.10834636266553235, 1.7825557276433168, 0.4263216218878867, 0.8478955008290721, -1.6447894637406975, 1.5177457734990776, 1.1057537880435238, 0.9599352669372774, 2.938886534126877, -1.5739894494290325, 2.2173221880548746, 1.5272830833754252, 2.260381899168265, -1.0894093933436566, 1.3197197669193683, -2.0825048746537065], [1.1408099752138674, 1.6066817983697461, -0.5640491141483691, 2.2985229593653043, 0.12889476398771524, 0.27808473646387194, -0.3177350616274652, -1.136963143787281, 0.19864505429775392, -0.4438366915099793, -0.07673320532048596, -1.4255041478492936, -1.5774825361512017, -2.490087141215318, 0.5844180384822815, 0.049779521244556625, 1.953400458956877, 1.9363881686806041, -0.3591818058735899, 0.5519790464359945, 2.2391370785608338, -2.5872011901731424, 4.397046479872098, 0.13723094121603377, -0.13477547832270043, -1.7089921942502446, -1.3840918582888386, 0.3744219620283408, -0.5187998510924993, -2.303864446532081], [-0.5434061137220538, 2.4672791927435456, -0.7431487651610641, 1.5532811606392483, -0.7132032559951873, -0.39662382752949277, -0.2560138834833032, 0.5987744673480039, 0.3581390592962564, -1.6361811173679617, 0.012808231167520822, -0.04049608426068775, -2.454062172169951, -2.1968889338321795, 2.4754200899059784, -0.6660321656787103, 1.6947457900357203, 1.816748048858228, -0.6220677246589704, 0.11834972965662506, -2.019002118413982, 0.43736768212387317, -0.5137746351169571, 3.8267779869468006, 0.9848766962439304, -0.7687735967338925, 0.8142517661103025, 0.14306141062814512, 0.28013713340733837, -1.5880143099625126], [-2.402826466835056, -0.23878018813759455, -1.101041006960607, 0.476530167135302, 2.2047279673000197, -3.310418580247276, -0.7161157479682224, -1.9759036388118456, 0.9384954421368675, -1.9564356665293925, -0.09186192650704281, 1.8885723370179122, -1.2427771815486397, -0.774692754268871, -0.7168691493632241, -1.2468323154265608, 0.9755776202031755, 2.7109728639718744, 1.7683616615765911, 2.433984367687392, 2.0063682889917778, -2.0219544187495426, 0.6843210580952748, 0.9237824450112667, 1.2409510011923484, -0.04496868912009567, 0.822830968359725, 1.5324186498270642, 1.8624669288149063, -1.0394256255320298], [-1.8458248719083516, -4.962737325154128, 2.2891145291751984, 1.938472998112721, 0.9571280138493103, 3.6321066293661555, -0.4270294775627518, 0.17252648894032077, 1.6112947265946977, 1.1588323669693643, -0.9598745759937365, 0.5479394661733804, -1.7265077518558751, 2.1032326417649267, -0.9178947617974186, 0.315517824367125, 1.3360129483128074, 1.7799560281638844, -0.25883532286262956, 2.2354291145689253, 0.27270305152927826, 1.802230091466961, 0.6192450202998682, -1.9617810050932636, 0.7205418234990851, -0.33144080095790074, 0.9833157687421635, 0.8831954742160786, 1.8539097916599574, -0.9388206615099564]], [[1.133733285821186, -1.83649307522875, 0.5502220871012411, -0.10488264100564261, 0.46367878609695556, -0.19538969222897545, -0.9479053434934428, 0.885801434752473, -0.59824891819513, 0.5681619754472809, -2.7524264073213405, 0.35999286346685594, -0.7343468125484676, -1.2991974739730616, -1.9560761855626363, 0.4420820805109055, -0.6728651342776786, -0.9981806057590157, 1.686737702069791, 0.9545890568286656], [2.192212932161638, -1.401884578488394, 0.7978400403324112, 0.23112966161603665, 0.7529601740980576, 0.3477533806868698, 2.878209857797895, -0.6245328067810554, 0.5043943483764599, -1.9252612482095055, 0.029086507739042512, 1.3509699660623014, 1.783250285397296, 0.4719854378150048, -1.2768985218760038, -2.076159411976505, 1.4662448451301877, -0.19333754745216017, -0.2534587885267564, 1.0111139810193746], [-1.3059820486564506, 0.8744191296351489, -0.2607349591545132, -0.8985436072809807, 3.836323619699615, -0.8209080659920054, 1.768433647633787, -2.5174567367332505, 0.21345632650542445, -2.1172629451100007, -0.993267561458145, 1.2096256355595936, -0.08889097740859282, 0.4805274808469645, 0.6659794920241189, 2.1371656924733125, 1.6020596380497463, -0.2194645094462521, 1.4422247493476574, 1.5274948150143457], [-0.006452221007326066, 1.314060832452945, -0.8076496364019345, -1.9615689474201825, 0.7649763992122763, -3.4240672219965824, 2.096500410901906, 2.3612055403912415, 1.3995883889723626, -1.1836140954753565, -1.1466236209388883, -2.2749428611225992, -1.3701015019111813, -0.41211160787354995, 0.07873072546731981, -0.7538594359578278, 0.18056936028598894, -0.35925554723063624, 1.746914430994509, 1.190162114455642], [-1.0756439063963132, -0.36431853146648147, -0.41640746107482235, -0.8047738002987518, 1.438574764502222, 0.19074177890038468, 0.2586648077219643, -0.13303859329055082, 1.6131843217943447, 0.018226469225113725, -0.957584184490343, -1.7983269129386878, -1.159240350513469, 1.6460033628753332, 2.472705121431242, -0.13405896947978654, 2.1586509249862744, 2.303336284210295, -0.583142575816375, -3.4668885361180433], [0.6317035748503049, 0.8413560207145988, 1.0105018672506034, 1.95779069864985, -0.2655217961903527, -2.4944087719176595, 0.8696237661728785, -0.06047128380048296, -2.310763304653234, 3.066959421544433, 1.0520605500524722, -2.484368776948233, -0.576607907832364, 0.5928137191971137, 0.7332481049676401, -0.9577443604302719, 1.4483495129235604, -1.4652436680868401, -0.38778672197280956, 0.45581857676747933], [0.14448050190031955, -2.407630837830029, -0.6615995410830504, 0.9052673349138511, 0.06732864857748583, 0.8068247676768517, -0.7810900785923649, 1.854355448278054, -0.9371695237823149, 0.655851082466343, -1.9877216926604246, 0.9695645096960962, -0.009858167301794209, -0.0185587911125831, -0.9471758272183022, -0.008018019322877492, -0.764635863915334, -1.6309602301286847, 0.9746510703983811, 1.303695980049055], [-1.13277073330104, 0.006817332229557528, -0.34913257278278104, 0.26161859374887486, 0.8930680591655309, -0.6966676484043993, 1.5745485564479496, 0.2759681527243505, 0.2525050756856239, -0.7376148689586122, 1.137901068322593, 0.06968962181568963, 2.4235708201997856, 0.04065025317183677, 0.9957979565773515, -0.10351905508267481, 0.9680323392206279, 1.1992468140792567, 0.2828437116324735, -0.7059738639138724], [-0.13885507490651547, 1.4871558073839315, -0.03244855268566923, -0.9383803392661096, 0.9405446510326932, -2.020208072875968, -0.9550537009234533, 1.5244036985784941, -0.9013396383175869, -3.2794709656757, 0.09682994354556469, 0.9748160151604216, -2.6114601464124534, 1.687404810829623, 0.8282213601290018, -1.6507511396060601, 2.3444817380568437, 0.08569668738210302, 0.26585522957158664, -0.36251945950944425], [0.5939269170226606, -1.390862067637396, 1.3034290858582447, 2.6546721027989197, -1.8990748457262105, -0.2555993351483872, -0.45373207708588065, 0.9283854927323889, -1.904000154601708, 0.4846551409188126, -0.4323693354680037, 0.6218708654830449, -0.3351156228494372, -2.4300063613998972, -1.1083193349308083, 3.2521578400665425, -2.0957335787016453, -0.8596068643573683, -1.514093972783151, 1.98017975035303], [0.6224486005911446, -1.5464386519087245, -0.9443106220808272, -1.6797973801292412, -0.5165577738553849, 2.6626517875848994, -1.61060683180917, -1.1445723440422433, 0.7534999067069446, 0.29767998576582794, -1.5574599645822065, 0.08612315687237246, 0.719157167441177, -0.38743476880285266, -0.23445005157148133, 0.4573309109353007, -3.8439988318649907, 0.1149806584618961, -0.8662756509034826, 1.4000317316285678], [2.0369379543075086, -0.0653522238561338, -1.1468199696742218, -0.8168284889342322, 0.7759253668620971, -0.619179799508598, -0.712776855072149, -3.4773934789876133, -0.8067229212419798, -0.0464905760643703, 0.756673490073286, -2.8576211554020943, 1.585028478844779, -0.2769616905390456, -0.22429250741932935, -0.8129794591999323, -0.6391584770183923, -0.6000056813778047, 0.6302604903573511, -0.5597142792798834], [1.7759521785666532, -2.1763906307131142, -0.5116331722411551, 1.4687890094925138, 0.5061773454574063, -0.6153017363286988, 0.5059149521236351, 0.5683905247951709, -0.007917775858893765, -1.910413914743527, -1.7635449298196197, -1.8560943115137054, -2.244384651312664, -1.1600202549418848, 0.8645813365101608, 0.5933702374603523, -1.8281081323016732, -3.0229433316229346, 0.7243799122512447, 1.5570313946610508], [-0.17287154502702115, -1.1547556418261908, -1.6327017850838856, 3.313138851277198, 0.7870879024422803, 0.6214128736349118, -0.8302850641553492, 0.4729391036845747, -0.021036656182941895, 2.6851423177911182, 0.7845153709364014, -0.33376271488684234, 1.25648143130121, 0.1039306720751273, -1.3343513412229917, 1.8411872209906277, -1.4233506252403505, -0.850231201048114, 0.5057250917981502, -0.8080918533538171], [0.7408832895698315, 0.1829178023897771, -2.029082326085586, -0.04500411335706584, -1.1888321873479426, -0.3633078115638322, -1.4187468980901192, 2.0269632410533998, -2.8288983561131364, -0.0730367249046851, -0.5316606786589303, -0.9343843395292979, 1.7009762098861325, -0.39268962221452297, 1.271519248487395, -2.522218085454024, -1.1685309818162046, -0.09110201107657008, -0.9182804917592811, 1.0341045349042888], [-1.447807195057129, -0.7392243425260314, -1.8278494626716482, -1.0276922463753948, -0.8676595942927657, -2.389115317141476, -4.310530837092798, -1.071148090580469, -2.9389569697061497, 0.8997268624739612, -1.1370791421656643, 0.9236341709928736, 0.13018277211171972, 0.915394694889285, -0.6313751000595003, 0.8948713383415101, -0.8903650417599523, -1.701224802049233, -1.364250915935156, -0.3314845789407267], [0.5302965215667371, 0.5657950480421339, -2.2173220053224183, -1.7153735828738685, 1.8678323545961237, -0.3673367004026115, -0.6632032832488862, -0.2017532854068011, 0.8274477604467108, 0.6309360700247653, 0.9285324575214171, -0.4685913886223156, 0.14587528236727867, -0.3595760196106553, 0.10509865100129716, 0.4814778062916408, 1.3629377309196988, 1.1567445167339796, -1.6989842739894951, -1.705545694827094], [-2.6165221722745935, 2.3045579068763273, -1.3473690236412905, -0.9376362131909947, 2.432158026758194, -0.024573370371352904, -1.0536784071197718, 2.893613508695318, 0.24885204148099657, -0.6285499786373341, 1.7414901833207357, -2.134605862698152, 0.7329645094671687, 1.0696007473316784, 1.4700134134250793, -0.6061466145645865, -0.7979882365207532, 1.7717967699722794, -0.09668973542215009, 0.7286107513145436], [0.20161189307256183, -0.9889583557564591, -1.136856756638162, -0.4170746685674136, -1.2551822992930337, 0.27171296682763774, 0.5827340634345429, -0.08353940515302176, 1.5154093762716248, 1.81244890128091, 1.457648633849381, 2.412340930623059, -0.34368381296813755, -1.779246046806563, -1.7522105717712813, -0.5766864310830234, -1.147666849305508, -0.5932538367042101, -1.127395400077095, 0.7636442973457028], [-2.415042529410371, 0.20315107163515236, -1.6940883710842376, -1.3186643895788768, 1.6222958254879927, 1.0061017743896705, 0.18254430706161415, -1.3462101059041836, 2.2443807041287456, 0.5989894056635872, 2.148141384751422, -2.9994760242122416, 1.530453029978942, 2.943378443276823, -0.375583102129303, -0.9473273260810979, 0.24995338309264237, 2.3545826403568797, -0.7912624074977486, -0.7886942628706114], [0.22757060970890283, 1.0718134584816001, -1.2593458944288554, -1.0223462137205885, 0.1399757946457902, 1.2757393244858426, 0.6434658501814938, -0.013273144030246719, -1.8000790853652173, 0.8834038843593544, 0.6506571208299438, 0.7344734621635955, -1.4139515680070687, 0.724287725407794, 0.7606139029992298, 0.15266658067113828, 2.424763660599943, 1.7412147702498764, -0.7141971445835408, -0.697612743033489], [0.43096102678038845, -0.20408186355691185, 0.25473893111037554, 0.5490951885689805, -1.1505207013186798, -0.3729117627545802, -1.9734534726602362, 2.9984978669944446, -1.549533782784179, 3.931504862889922, -0.6507758221131053, 0.32621749252688703, -0.015869412321504944, -1.524349004215343, -2.378038714810782, 1.8303158336208718, 0.04500498276911666, -1.2705802242118927, -1.688872932687083, 0.16724293911280402], [-0.8287108335694541, 0.5677924883188052, 2.1554276140782527, -0.8818905303467524, 2.655942177800467, 0.10679815215211867, -1.547481742834589, 1.9530868585149892, -0.3641371682542227, -1.750049758086628, 0.4382393670503162, -2.073722028368836, -1.3039456113721755, -0.05730588023021035, 1.9724892767481492, -0.4459664503157412, 1.540072464316798, -2.131067000425314, 0.8382360376280361, -0.05230814089319401], [-0.05642502618783665, 0.07065289963544608, 0.4099506084850182, -3.028935601217944, 1.170311722151338, -0.727790352803945, 1.7198767857325723, -1.1727651028566568, 0.6695199141616343, -2.328218633962939, 1.3412362102145434, -0.7239448894759661, -0.2302067599075527, 2.067060701142414, 1.0016760911523634, -2.522653076828352, -1.0243916102909456, 1.0005633124381739, 2.2059530485013306, -0.3643031468804695], [-1.9653076197363069, -0.3793468852920937, -0.47630209023820913, 1.9255772622398504, 0.7936439630224736, 0.04625658380023643, 0.316540086969209, -0.10720011639229297, -0.04275291826285401, -0.6945562649877861, 0.23179976546998388, -0.5775532870095619, 0.4423209303563992, 0.31200747431074427, 1.902569554151826, 1.3428415959536526, 4.097276181804961, 0.6978037502379907, -2.9176275300048915, -0.6336427102492941], [-1.3896218809627086, 0.24477197240369586, -2.9849843392260142, -0.9852545992156183, 1.8140914269179143, 2.365211646642417, -3.557468616510334, 0.5465093228193251, -1.0698271549837586, 0.7129537385650647, 1.7519133648667582, 0.4629844269924141, -2.1133938866652264, 0.936240792221835, 1.853640313945988, 0.21057947414421335, 0.06550966853103389, 0.49417444849569653, -1.5958998657122494, -1.4880489731223023], [-1.3311003384417963, -0.17175641717805296, -2.300893547092694, -1.6383424991485356, -1.4880110788972618, -0.6570342955070088, -1.5904303131959163, 1.8779287350287166, 0.4799713755875174, -0.04340255111252875, 0.5038844966572901, -1.1190554349248858, 2.0366004193570855, -0.4193964982979905, 0.5543365064001358, -1.560095414577794, -1.4442142274514163, -0.7586346174062925, -1.2379388667205935, -0.31764499343749925], [2.5029999388598854, -1.0876557179020183, 0.5179666002670061, -0.7819649182893482, -0.7347079957761569, -0.43518244461353617, -1.6341250821673265, -0.7911816475869786, 1.1863093054339315, 1.2015047898987656, -0.7455385647461268, 0.33485150178452244, -0.9793165586049977, -0.7250660584117723, -0.552146850550752, -1.8094512692921907, -3.95857072977911, -2.291696012888087, -0.03457361982089049, 0.3594588394540636], [-1.7710990864254994, 2.083339932305708, 0.005231861213230419, -1.0908741693739843, 2.2407135939389495, -0.0992537036495954, 0.8919800308077791, 1.8760834014450214, 1.4495612072559032, 1.454573573432283, 0.5487977260906641, -0.8414204866604369, 0.3475486427690261, 1.5637704034373547, -0.7578643691985434, 0.21628623045122658, 0.9611407114879738, 1.187339663265359, -0.4292636662628264, -2.4971915438095427], [-1.3839459697024503, -1.0810293147200507, 0.621313449111286, 2.7864323895220573, -1.3040753173249153, -0.9814655654806909, 0.4582110195746426, -0.03688809868572025, -1.6590223139771172, 0.3857960830112017, -0.9365027881031586, 0.2990210120519265, -1.2263450316354578, -1.6147737423693003, -1.2407064883699714, 1.3066174611893042, -0.6723170699330261, -1.6838640377803942, 1.9920441142685927, 1.7472770624733454]], [[-1.5504581748615527, -0.25290966961976863, -1.9439439329104817, 0.34674587630496095, 0.7985337538468167, -0.46332357180243955, -0.16850310308671218, -0.08495723942422136, -1.5429559725092332, -1.4208084268181522], [1.8614347254193888, 0.1431630436450347, 0.7531066816197504, 1.3530211627723139, 0.7639765505051551, -0.1186732852231078, -0.37620549837069067, 2.4177983265576417, 0.3974221092761943, 1.2315037094019663], [0.09585440354423569, -0.9470808704040217, -2.6340296819510995, 0.34738540538600876, -1.4902036309666942, -0.26901614186924805, 2.2478348715986436, 1.6611277805589377, -1.7017973944884424, -0.6198162938707223], [0.06639629353863101, 0.08561351726537893, 1.0184016218552945, -1.7736547286771887, -0.4036104704784982, -2.100399446465432, -1.0147452878099783, 0.3264292983197921, -2.1129017742782668, -0.10433252513242099], [0.4122057569509846, 0.3046677213051361, -0.6071018570358524, -1.4578319984641774, 1.8612873779378973, 1.148716720052371, -0.5519854763239944, 1.0908972110645374, 0.9567388313530274, 0.9508434140516354], [0.3512044624292938, 1.1918935595953672, -0.5119072383949992, 0.7735742649279064, -0.998238387895298, 1.8466280717693118, -1.312136568994688, 0.3067953884191052, -0.2686875213965752, 0.8158377471903063], [-0.09785660428600929, 3.3205630029544575, -1.3801456200212177, 3.754571999100718, -0.8521424282123616, -1.3915695619454627, -1.4954738697852255, -0.05480982726709565, -0.8113722088359004, -0.5933755870353213], [3.251545793211317, -0.5747577531983201, 3.0385564423445257, 2.172247079474568, -0.8547698786487978, 2.8612636593206813, -1.216033445990161, 0.5550110323646927, -0.17320311056722038, -0.16685461929365492], [-1.5729335759004937, -1.2621554351603135, 0.6521394975103226, 1.2361128076689245, -2.118978842044525, 0.13193658626004315, -1.2626210394078343, -0.7902712244763518, 0.4109889009880055, 1.3050282144504524], [1.0626684784755194, 1.760451678349125, 1.6691764796234523, 1.5579277578553266, 0.33466422817331104, 0.2753282388656161, 0.4504042844795112, -1.4000984064343127, 0.3839150477552563, -0.7486142774837907], [1.2254427613229157, 2.0574568139743135, 0.4892329768672191, -0.021253183131504386, 1.5476891848427035, 2.1813068487496774, -0.6376667292988534, 1.5983148217843808, 1.0241385076711385, 0.6872611001413634], [0.649760430452486, -0.21382138174059492, 1.7126085692950663, 0.10384951401721401, -1.6678296088901658, 0.7253305982012511, 0.047623754036520784, 0.08251750144704632, -2.2577746502402762, -0.9066341297650728], [0.19918950767567922, 0.6031574244421005, -1.7836488708444402, -1.1117417759839718, 0.7616802494005103, 4.374289998892233, -2.396027244685021, 0.363401623674113, 0.9575544557166538, -0.4606518657450934], [-1.1396968231357603, -1.4235806177488044, -0.08281270938023945, 0.22827536622378608, 0.22618096263883725, 0.20230439717848514, 1.0333348610663802, 1.9858308986600912, 0.8847584996516368, 2.275061009306929], [-1.474892962308877, -1.6389386345987573, -0.8754107905859217, -0.19704669498408764, 0.3369913386397838, 0.5485004772476502, 1.215325787940461, 1.4738683862007953, 1.9036772589214752, 0.03830599092697806], [0.3608466838055083, 4.112105917608899, -0.07047526857313931, -2.1222021357632674, 0.18794336991744517, 0.9796258965541931, -0.38946109606209633, 0.718168156623692, -2.388416144970425, 0.579062732939419], [0.8742134108541458, -0.31179663293607796, -0.5778414526550113, -1.6661733691929137, 1.1445142892301492, -1.3139401581185814, 0.6211863197464393, 2.0624247790041794, 0.0897375935816623, 1.5820721829533277], [-1.2038940975939705, -1.0539865945488118, 1.3429637839830384, 0.6463216329283379, 1.017950102843233, -0.6135330161207585, 1.342171546565935, 1.0713586960118038, 1.1748945656280307, 3.5963132141370817], [1.707540984683277, -0.9706697291256651, -4.857179799304247, -2.8123276029452713, 0.8241336639799248, -1.2322493503099958, 3.054614990514133, -0.10042630522088367, 0.38182767053279876, 0.3871244810350492], [-0.636595447622384, -1.9829714443192223, -1.042309008480081, -0.8832283706775825, 0.4669600729142752, -2.465590911498965, 0.6851339139546945, 0.25068595426952067, -0.291956348570875, -0.8540447679906732]], [[-2.945814332198009, -2.0306987665321627, 2.8950227804956428, 1.512944985106835, -0.5191698457338324], [0.2027877809580627, -2.1321213925688944, 2.410764378094118, -1.354035593831224, 0.1194270994864725], [-3.028485890850832, -0.4504509182281862, -0.4530238384312117, -2.0932183188629443, -1.0580649364227075], [-0.0018857703093602782, -2.355804827759539, 1.5279895026196295, -2.432408267589541, -0.22184625120513124], [-1.8814207969314307, 0.5426974515992092, 0.8476436638265005, -0.21003208933909634, -1.419149248747406], [-1.396206996601619, -1.1100438828889454, -0.8244957303618814, 0.8280933722712195, -0.9074474196340773], [2.3716559013798104, 1.8538639403542458, 1.700966820777904, 1.9591101840657112, -0.8259224530219156], [-1.2830939372029222, 0.44875885493105566, -0.1870561039573375, 1.7458943483305964, -1.0038857294072152], [-1.126021226564745, -0.18699228212394634, -1.5124104395457618, 0.17809606749710194, -2.6013528277043654], [-0.7987118225068264, 0.21370838315135846, -0.688308883278626, 0.30234477963702233, -1.1324303641159261]], [[-0.982755665407466, 1.2421632869383548], [-0.0439144294887588, -1.3006459298567241], [0.3726230607968909, 0.7250200428535473], [1.1091485576834688, 0.013385762166460207], [-0.31962134227024275, -0.6550207799339136]], [[0.9714945920852277, 0.614788601336421, -0.4589681911315103, 1.2366388509669228, 0.43665019940304445], [2.256942480978269, 0.8574797752496056, -0.6621202800064175, 0.2055367989583759, -0.9131245517063987]], [[1.3219354720557461, 0.23109083376587933, -0.20693574123836936, -1.33952476341066, 0.3532589074668169, 0.25731555019868146, -0.829950335768349, 1.380003883017113, 0.14846595783215855, 0.5466823299956854], [-0.19795858388585952, 0.6066171027925015, -0.9565855006894995, 0.032822680876733686, -0.6190224056301601, -1.7046524577447943, 0.05365788127787778, 0.10030146738702252, 0.8395351987962335, -0.3903399570814995], [-1.0814466523331498, -0.29141639660002105, 1.0726712840588248, 0.19512212902532847, 0.7696132535587349, 0.2689823574687267, -1.4851354589353836, 1.4561302910091238, -1.0324489343915093, 0.5276414136386263], [2.7903843835487616, 1.7506117825592649, -0.4812848425135654, 0.7365986760494869, -1.0467879722128612, -0.03486443418462579, -2.810993021720759, -2.899946524433212, -0.9922302436964406, -0.2597284053285997], [-0.6126418364766855, 0.8422651374746946, -0.3070454780581042, 1.6654629868198547, -1.9568264831514968, 0.3108472030106579, -1.8686240596812123, 1.5097817554092101, -1.186652700254816, 3.0821011939789136]], [[0.12539990529878392, 1.0011261082449983, 1.550799953215656, -5.894116153527937, -0.5937871083262372, 1.7408604659362972, 0.8739521849113076, -0.6349056257315892, -0.2134379339534176, -3.5104258461757754, 0.48546494183205563, 0.24236701979249156, -1.8698151252427808, -0.5258308398473394, 0.8019783194730409, -0.11602504165570876, 1.017339988460249, 0.08530797395458506, 1.3803837539264308, 1.3594775838461193], [-1.000976251640583, -0.6142289739492992, 2.376581819152737, -5.76687047579722, 0.15381646024189502, -0.006986488706843552, -2.7581114461918723, -0.4131980705124432, -1.9479934028585095, -1.4349115131686259, 2.221681397473082, 0.5762791463890198, -2.119229341685355, 1.1872632737121676, 0.18249049253692365, 0.4951236220619224, -0.8491697368012532, 0.05050200176158534, -0.7932083176562598, 0.673965449048542], [-0.8120713163727632, 1.398054082872379, -0.2975943401703613, 5.560067229303804, 0.6449230519273246, -2.0848208415427503, 1.6380419467017047, 0.4620160058490522, 0.8935987632957609, 1.1479191929615813, -0.3806201903034858, -0.04859491405206898, 1.4565216514340593, 0.7436116387945801, 1.6046640225410396, -0.21040341350917285, -0.943173262713564, 0.40824752377546153, -1.212340890444389, 0.12864041776399976], [-0.2589977191089688, 1.365962028112517, 2.3110144990061356, 2.738317424580098, 1.570098745004342, -3.947565020129985, 1.1064231954543775, 4.425665512305186, -0.5542058785198196, 0.8755681550722034, -0.12309098742451194, -0.35903289780419284, -1.3141566661266575, -1.0460715132919307, 1.061487113848252, 2.355514611400624, -0.7735567699702068, -0.40226791583978805, -0.12814810097454343, -0.0517068677489404], [2.356345841095193, 0.383669237581608, -4.1462235716833185, 1.2978338901223452, 1.0545860718821192, -1.2948695242614252, 0.45499599367092985, -0.6703716207022101, 2.2864360389324903, 0.22058269409930528, 0.34041834342975247, -0.018738697783738333, 0.8303382679965576, 0.9905601436221362, 0.40785179237699987, -1.8565935757686354, 0.4253884890916012, -1.0552873330275738, -1.3177033961659808, -1.179499186285164], [1.127458485165524, 1.008494806040646, 0.08517250134394132, 2.0204624254763313, -0.17096859322868252, -1.4460745960049233, 0.5683943131335893, 1.2624933902267539, -1.020802825160201, 0.9679857336493529, 0.3206556480480329, 1.4735023303705757, 0.29202190402189865, 0.6750273089511527, 0.016224224957193258, 0.2755299007765647, 1.555446065301447, 0.0802068037177656, -0.9231289477026081, -1.2130871534070102], [-0.12005707521743701, -0.23140764932441926, -5.067070472369113, 3.422209836598588, 0.17293885407931264, 0.38939281364250355, -0.8350081826910161, -1.29440832965089, 3.7490786911360474, 1.65359693377777, 0.1922606069529904, -0.6368279387832163, 3.166763718165231, 0.07206205352282412, -0.034696954635461234, -1.3407913959479796, -0.07007517629152955, -1.3243091281415638, 0.2693030807800873, -0.2308573874161701], [-0.49252025448823, -0.009310353777629078, -4.138178147499077, 3.4754182031683287, -0.2009589894828695, 0.3458309704739082, 1.2620801634189405, 0.13778852465852198, 0.8427840968915518, 1.9624984452668894, -0.7161782285064896, 0.9167233445104416, 2.035449310163564, 1.7655477269232644, 0.21797614797274945, -1.047968550731091, 2.57313839990257, -1.1652558513473232, -1.9585216264748004, -0.6333577271766092], [1.1290853303028605, -0.6229893588713477, -1.6396388351443898, -2.3869213378395853, -1.50856085113153, 3.304007003325835, 0.8314512734218414, -3.2341443318315095, 2.7797442714057365, -2.1665922164522056, -0.22059955152848096, -2.0002901190447013, 0.561459839776656, 0.8527262177024452, -0.1821727918296334, -2.532879705735679, -1.2067693177018304, 0.03483484486849044, 1.587032314802427, -0.5288940209731658], [-2.848367521109544, 1.1091327308562098, 0.8723391167875757, 3.6157768694937915, 0.7430735027401254, -1.1861258556555083, -0.7511550316021242, 2.534701768267875, -3.0614242193417462, 0.4467089029539135, 0.8422062693736316, 0.9829842971212059, -0.25444732336624115, -0.5351474051598307, 1.6282320149346328, 3.520133662032334, 2.779929408895846, -0.29890156985755967, -0.1621705948542689, -0.38430506310491536]], [[0.7849043623930578, 2.839554700756626, 3.152183260625656, 2.1845693842637726, -1.29110692764426, -1.112891874202344, -1.4267194477093343, 0.15781369961751182, 0.07512380997062207, -0.9007996184357939, -1.9661115416398733, -5.192864906666888, -0.5662007890684292, 2.728943676316144, -1.5434705759706224, -0.06561628491597084, -0.8509852829526474, -0.3892814268329425, -2.2862111857203815, -2.836746288062649, 0.2774156301086867, 0.6385507135130029, 0.4177505528034268, 5.368422959741337, 0.3611852720235577, -0.531954450051465, 1.4306015264598329, -3.2749356502025666, -1.1910652858661483, 3.816521327226297], [-2.216530033256438, -0.8907716845118621, -0.6150877249166545, -0.10678341293299443, 0.34819483378539234, -1.7541594338267015, 4.729036071454946, 1.3049179094549919, -0.6701614541212396, -1.1839257029651131, -0.04678365314533628, 1.4681695194892042, 4.367697695081311, 0.061312830707117155, 1.0502648821471234, 1.3747272529609482, -0.27549582079821855, 0.3217889009788083, -3.0852763023560867, 0.8407776704454344, 0.4015331184573387, 0.8579027943378758, -2.5231401388894965, -4.3383991369250845, -0.8370590019653337, -1.1500962669584829, -0.7437871356086269, 1.548520683443149, -0.4017727566181, -1.9333077282497007], [1.2382196057886175, 0.30577356201309697, -2.7113262996105933, 0.8908680333462363, -3.883942709443223, 2.958195810531884, -0.5103434323710833, -2.3523534967267845, 2.7400903961068988, -1.1950294030378203, 5.374275970345376, 3.4676026170121776, -0.7903151173963089, 1.1611925026042107, -3.498283424340974, -0.553946023267879, 3.0644689933552267, 1.215182405081752, -2.3918733075141874, -3.071518095526213, -0.8061878666842074, -1.310846260256224, 4.786711754212839, 1.2981764629552337, 5.708966127269234, 2.2395227416613954, -2.276160912131988, -2.548460112090731, -0.5411669711342697, -3.6043194701401013], [2.9570337286398964, 2.775280620423042, -4.598268415046307, -2.659577614067585, 0.7266487921570163, -10.823250206460544, -5.081089606727087, -0.057924945025316, -1.850962640983022, -1.6154115118184558, -4.721580337306307, 2.008453655502047, 7.63795158899808, 2.748566726933566, -4.901738702763557, -1.1741676804370602, -3.4576647667044775, 2.5759429644308125, 5.3991672331661125, -0.4404055050193917, -4.7597941088656155, 0.7704288663645469, -2.0732249445522495, -0.7352088398790423, -0.7666020971516131, -1.340377349568794, 0.9051107609645507, -6.211342731244595, -3.5252177887250182, -1.5206757729024305], [-0.4371898861357052, -1.578096074977186, -2.114796718154648, 0.7852960475321191, -0.8318876393866511, -0.6328233273861668, 2.906999980554816, 0.0987015752419678, -0.26019457831263376, -1.8377406261052727, -1.255127552223895, -0.08290696602226878, 3.7916534549389627, -1.2261924816647987, 0.5188331022067365, 1.4930341753487073, -1.1932023153071523, -0.292476019052651, -1.8592963408472756, -0.6363658171748855, 1.2852883532430002, 1.8479469906561756, -1.6464716414283793, -2.3512936352939096, -0.9620117882562096, -0.45436848183695633, 0.8739597535609301, 1.3831225202636879, -0.5013600023901316, -1.4259406330013331], [-2.079789895036959, -2.690465042085071, 2.7859037705236243, -0.49800843220258256, 0.2377347539870223, 0.32676590320816196, -1.3477564677925675, -0.5543798531199919, -0.743424938016429, 0.5839011038532904, -0.2748770513157618, -2.9084047551153946, -4.484286827537144, 0.12597311755417315, 0.0922520313474235, -0.0636452126712972, 1.9441474913591315, -0.2658433497843419, 2.4877549504344665, -0.07508303088011002, 0.48720628904752017, 0.5876344086914872, 0.8119554874321768, 0.6094056288800758, 0.37262533062733744, 0.9358518574503405, -0.5940110256415865, 1.3567507579314433, 1.2862709458608048, -0.9030764370494102], [0.0640518418910654, -1.289167416017412, 0.8548750789085154, 1.161014840128707, -0.9994208200194074, -6.319130081131312, 0.26227085656828314, -1.7301276648482924, 5.884705640998248, 0.5193302090966988, -0.9488579643952753, -2.290665825191259, -0.39584556994040254, 1.3351151995207045, 0.6616800964706733, 2.4454136808884743, 2.6153058632410895, 0.9656800035754745, -1.205266938084698, -1.5783651887259147, 2.4136009667137412, 0.6998924843799144, 1.8629583240008467, 0.42787700991651967, 6.112594979750183, 1.5228494211700405, -0.2482278241953026, 2.6627394471933545, 2.6839958838854563, 1.7668305246778548], [1.058289296757675, 2.141526269661887, -7.60516841531676, -0.5629088370496975, -0.3189135298136973, -3.081537587788188, 4.03281886707654, 4.672359507695799, 1.41496264973127, 1.6136602166868677, -0.38896688641416244, 2.4625605374173642, 2.9884813836402793, -1.3130292223884281, -0.43183952871745346, -2.7335849762470263, -1.200111611132986, -0.6507148543539814, -0.6261742939812905, -0.4800341845218775, -0.5762849209192726, 1.17690460276201, -0.907312352242342, -0.9051397261932738, 0.573856444625615, -0.6105497561047373, 2.6228366967359675, 1.0587657822233438, -0.24918815432416852, -1.4300540753221034], [0.7039769936860978, 2.6715010409324544, 2.314493908962368, 3.6838447988971286, 0.36368804836320007, -3.405120603697669, 1.656127065278813, 2.7054764800679965, -1.8313230246841863, 0.5491661480153912, -4.973305669467367, -5.9810150226427, -0.13764839262999842, -1.488117963036381, -1.136360293313648, -0.7805263384692941, -2.871515645696599, -3.628006230378554, 0.8216209588316387, 0.7463222218732035, 0.6140932391701602, 1.0735749359419569, -2.0881502272906247, 1.7059717442036397, -3.314731750778052, -1.5343826323841134, 1.3980708848418346, -1.2267881211435772, -0.8986501741354797, 4.4943778188319055], [2.1955330089357252, 1.171915966454586, -3.8046969435477855, -0.923268034360073, 1.4707813394848726, -7.096337219540903, -0.25895565124750936, -1.2117630687405267, 0.5127860089229694, -1.5039053102551736, -1.862713653598274, 1.0396184769568753, 2.7607600793709697, 1.2121378466157053, 0.4984811084763679, -1.2479564571639152, -2.1957720983189524, 0.974156833346395, 0.3234935866217824, 0.039451216402947416, 2.7554848298093586, 0.7950903328785627, -5.342484332795726, -1.0604456968266434, 3.054391174908838, 1.536561091994764, 0.5710999294282971, -2.3998457061597236, 0.8596370072982119, 0.2696586978487418], [0.12080770276387226, -0.2655177065999241, 0.30126743521181143, 0.4868236160616972, 2.081440369053118, 5.650094720738122, 0.4189257006750703, 1.3161145663807823, -4.1036139133594185, -1.1374315992027164, 1.3599492969190845, 0.26460682463034835, -0.48971685475119914, -1.8607912639524284, -0.7830826180272434, -2.718794386951825, -1.4270079279090124, 0.3216648055000248, 2.169883174043727, 1.0829257381111976, 0.21607369498801784, -1.3559966389455438, -0.8025738750645633, -1.2471372466671478, -3.066554816431849, -0.6466081712718578, 0.018753666850755156, -2.3138564088827365, -1.538878357669803, -1.10019566406883], [-2.426339741356656, -3.4520379816500504, -2.360450059124342, 0.2032806179621905, 1.85012373470198, 0.48483418155727126, 2.77201771395846, 1.0027143291962153, -1.4598026676534768, -1.460056222527143, 0.562535965602055, 2.2176997428247245, 3.240885466444761, -1.61444698112812, 0.6926100760677733, 1.4701063547723112, 2.2037196847087115, -2.6314451730719086, -0.4962089115109943, 1.2353686753984965, 1.682930436284828, -0.4039750413927475, -3.089952100558521, -2.930374875183215, -0.8056954671760181, -1.03942542624271, -1.0557856873180511, 1.9288721697563642, 0.41042706047279315, -1.1940257777907919], [-1.2174790072680863, -1.4439135197291755, 1.4568951955303926, 0.4945615484395427, 3.525248110752957, -5.691421655148137, 0.2201993926026702, 1.1316187817211318, -3.1709078668934394, 1.8411982843597403, -4.186960684016099, -1.9657834134975483, 3.226910961970161, -2.975034107440924, 1.688192190924489, -3.303770651348507, 1.0972201560116215, -1.1357577876017144, -0.4014869380785067, 1.173144343085082, 0.44681865306346336, 1.1723210929716605, -3.1086915098714276, 0.843108442251164, -0.7832735359020117, -1.5191798783313422, 0.3748159831391227, -0.32377731409994676, 2.529468370773411, 4.076148331881553], [-1.7684813302556397, 1.3052132194038635, 1.5795408627786394, 0.36524518765150354, -2.955101709668249, -0.366924286517408, 0.046705925512160344, 0.21840925184505494, 2.6977618577261553, 1.0175587315933172, -2.7145178662074723, -3.3337645434678205, -1.4602131054551963, 1.2019522399152132, -0.5499090703602713, -0.267892670920756, 0.9289524992879509, -1.0227188087978052, -0.5132150839533204, -4.657182388116877, 0.13431387311909357, -0.41351577165751996, -0.08908092796960566, 2.273584024874623, 2.1664310283387938, 0.4957732453432531, 0.1627950577679735, 0.6789683545443015, 0.6854297943590523, -1.9311802549492052], [-3.3841119499719845, -1.6798120367415956, -1.9060080606817202, 1.3969416714623846, 0.7240381082494409, -0.5289656911148084, 3.292047138364623, 0.6956468962004078, -0.23715059592774954, -2.39465696581103, 0.9813536636061474, 2.515696281035772, 3.186248910401658, 0.4426836304333911, 2.0579370044365035, 1.8579757666891354, 0.9924670898576451, -0.5165795534286904, -0.7065789723609559, 0.48146036792985275, 2.1046263259064375, -0.7094768343281215, -3.871200251201868, -1.7295860256730615, -0.8768377443887219, -2.4246311813025567, -0.026602276168568532, 2.623790831177025, -0.7075364676595571, -2.22226026957771], [-0.08741628474697709, -1.6641229950612129, -5.170760261743681, 0.3102815267258813, 1.2677969615122155, 0.1907575662634985, 1.499345527585293, 0.5106904355895379, -0.0591853872635339, 2.2324352990136185, 0.9365946829624284, 2.185053545344684, 2.9620962908792046, -0.4195075210606324, -0.8513331292059778, -1.0066570636702203, 0.648867596954432, -0.6829591309587787, 0.7509535424286834, 0.26692292944687956, 1.2765847207437562, 0.268547190969134, -0.6166397171060954, -5.9527079859838485, 0.306798933453235, 1.2091695356349446, 0.4662177514677625, 3.0549653575741385, 1.3377293354327087, -1.0397732399503057], [-4.593967373658113, -0.6559894241118508, 4.589192166344906, 0.7343388751224781, -0.30978037694075977, -1.6773466703202369, 3.265063720087147, 1.4035321500746887, -0.1949115121890386, 0.48985757672498714, -0.8343135668216816, -1.3806601176594744, 1.7609939182029744, -1.2059101219165869, 2.3474408109914062, 2.910930934609696, 2.8671309902428397, -2.270877587028624, -1.583140846978131, -0.696016346833644, 0.9965040499458936, 1.864482548126926, -2.7238539265821315, -0.5821313253271665, -0.20907342647958743, -0.5194308646891572, -2.280296175374819, 3.644550632899486, 1.5636296939433905, 2.053440009231592], [1.3065087679750156, 1.742046624040052, 0.32559734437586957, -1.3050832060658695, 1.9562981176304104, 2.9521493098650216, -1.9987304818820215, -0.2512678414934616, -2.7578726281876853, 0.008504908492460632, -1.1354576134600682, 2.2445788248132383, 1.572853085258527, -0.6428775937206069, -1.8938969204873743, -0.489916378261954, 0.5618158691296223, 0.7461419350078773, 1.7614280876523682, 1.8958141958690613, 0.6397856636786314, -2.398569630181593, -1.3684224289010078, -1.0571563967069684, -4.703068492529696, -1.6620046288669528, -2.0634076994493737, -1.127679925327393, -3.4338126112324066, -0.9679350664383476], [0.4803659381091971, -0.6810268920472632, 1.2335634120032057, 0.041802318333621864, 1.1329947541988898, 5.334577598911012, -0.560146660985193, 1.7636389651721929, -3.618644638569034, -0.14930552939014363, 0.3475061851338444, 0.3466787616406954, 1.0757541972538203, -1.5666643546789232, 0.28355916866891995, -2.365367398490753, -0.22786582915984768, -3.1414571895783454, 1.6096399234780285, -0.7450891303640486, -2.8387843067399197, 0.27460989164945665, 5.203933712132242, 2.522337752249617, -4.205701234896642, -0.32849178974660875, 2.4373169401697585, -0.6590112108975504, -1.4475056030249493, -0.1615853727579736], [-0.10863232424896659, 2.365161297376173, 0.4186407334787097, -1.6300576434429044, 0.9718819295993858, 7.850116031453895, -0.4850804391410054, 2.2618198233067948, -3.0478778229017163, -1.3329887590361975, 1.5804907066388725, 2.9952781750686044, -0.6796655141845712, -2.714047501658563, 0.6726053965976034, -0.11109208467126785, -0.49963671233927814, -1.6781643346575188, 0.9888162263402098, 0.3978691665277214, -0.9559967203577223, -3.497082355137045, -3.1025422572687136, -1.1437771075138095, -5.868885816633837, -0.48598924443393804, -0.24607903043314497, -0.9721703764221644, -0.46501768913468133, -1.34092049529181]], [[-3.6580698249966086, 3.1048527426748906, -1.1225849874266234, -0.6391187789067506, -2.43026475817081, -0.014578184313272463, 1.6390771115367655, 2.8873900724666033, -1.28297128003799, -0.5481255010194872, 0.3966795446462261, 5.204749617941438, 3.253212145177716, 2.9770513936998886, -3.069508172974547, 0.061554467997889974, 3.145049797152604, -2.968015365835497, -3.784906920172874, -1.4319243584637702, -2.307590583686366, -0.04502005326880932, 5.134358010109368, 0.9500877869593902, 2.255647299603131, -2.591924706879202, 1.984546084881235, -1.1419761732234592, -1.4393326241711748, 5.076596107195235, -1.8636109405179362, -0.6744969528772026, 2.105995858941078, 0.6170041030885807, -1.9298330415486538], [-3.6179646615550123, -5.11776237593475, 3.074492804026878, 1.4948260088919711, 1.7705971274881955, 1.7403530186971627, 2.6802650250403075, 3.8886674785222093, -2.625831317099751, 1.5838131632409056, -2.879631548367882, 0.004436083643443015, -2.5237273477358144, 0.10512319659557842, 2.1065712520083686, 4.153065820669964, -3.632953585511882, -0.938857666529485, 4.177789427235687, 0.3365244825762576, 1.9211971387928461, 1.230235276413867, 2.6407914891258724, -1.8158497566868321, -2.3437769218071707, -0.9346195719828998, -0.3597178536755938, -3.1323668867824828, 1.1491792071966738, -6.348755987283475, 0.030193721920098806, 1.1774817079910236, 0.8768050536753665, -1.90584645580043, -0.3538567263745691], [0.04155956122484341, -6.330474490366928, 1.139314874783798, 1.6986480891354112, -0.08973453091680643, -1.140527276573519, 0.9480680969834537, -5.795153032177632, -1.8019015221157686, -1.7229625610840764, 0.48894199941061944, 1.9077825402552788, 4.6060625151793975, -4.931272827500097, -1.4620081424581186, 0.7698545941304903, -2.3032168041511887, -1.148568340204876, 1.581495291302723, -2.2574585839560077, 1.980364767611285, 1.027162932890652, -4.336841611388949, -0.6489965921215856, -1.0522035444696205, 2.056264483654652, 0.7098724389638952, -3.497934723726605, 0.06387002294527502, -1.491103591468996, 0.20435041926573486, -3.8826501470356067, -0.8202927193214651, -2.2757616641922707, -1.2001831411308048], [1.0760631708072934, 9.0124680745936, 1.5272005167290352, -1.372384010598358, -0.2851520586519649, -0.26861436486922924, 0.4507820111785732, 0.2009900124539592, 3.889651048429069, -2.3381945721836583, -2.4551532223045816, -1.7971778044725302, 1.6191453859104947, 4.195809483636412, -2.6489215722789807, -6.405357530024519, 0.12597391446849096, -4.656828308640448, -4.682887403019362, 0.8828892301080911, -6.817929653159941, -4.128633781902557, -0.7472388021882739, 1.6036746451179311, -2.1982431138409626, -5.545422559626735, -1.5835461237187647, 1.8640176255997494, 1.4299655821555906, -0.13901298559198386, 0.3318231264231312, -1.4047047093646803, 4.439013523606708, 0.45290866684280456, -2.9213690085916992], [-1.1371225454171763, 0.5488546784641408, 1.434483709572103, -1.398643636224027, 0.887196074951239, -1.0312158397594908, 3.005553556582839, 6.683591665368194, 2.2969524971355844, 0.8054055616026171, -2.8323872647226853, 0.8392983455241921, -0.4262907874996404, 2.4709728758626994, 1.0638429151872866, 0.684285052188349, 3.9255949272141932, 5.62920211757306, -2.6561330087855093, -1.2440040075908116, -0.35445910719068247, 0.4011559625670339, 5.524141012603992, 2.5812128704744097, -3.1842324813952825, -2.9534758509545425, 4.334670784791041, 1.6450353805617055, -3.6039255606491216, 1.3007689961035651, 2.228043593247589, -3.1727535288550994, -0.4910059791414392, 1.2563125910900825, -2.2082674974465104], [0.46898619620679616, 1.6799286581582467, 2.30756451390164, -0.9506137233800739, 0.08351721083542166, 1.4160546174714483, -0.4211349518290979, 0.09010939997701906, -0.9585229532650623, 1.7875185856511309, 1.9944993644942335, -1.119335916426835, -4.551336125860874, -2.9808735650620597, 1.6134501851232652, -0.311821530787297, 7.492112954977183, 9.91960470546677, -1.8640953396825928, -1.8445529793503677, 2.687587507160252, 1.021738690252606, 0.6454966560139248, -7.135200032416235, -1.4017567548438166, -3.6340314451930524, 0.5650853767813133, -0.06113471983827999, -6.106802045514532, -1.2398135631828744, 0.6184410661785213, -0.30518916065638707, -1.381822205590597, 4.419042294089236, 0.01702447800930458], [-0.5808519598555187, -3.847244005013945, 0.5222804533329626, 0.5452346634010891, 0.3109400514430293, -1.1108480306113118, 1.1490428631890293, -4.853303628198699, -0.2433841793153971, 1.8016796250014997, -4.003851226756859, -1.653451118563017, -5.171713494711775, -5.376856566257011, 2.6443215273766776, 0.8990818302558382, -2.7037594946814894, -1.6014062943195617, 2.248778107523761, 1.8202840269723333, -1.4379351004598522, 1.3536413459793524, -5.791186754992228, -1.6844841437401101, 4.843304918459102, -2.895279571584335, 1.048314531610579, -5.532760083202845, 0.954055296594758, 3.176475069335222, -2.0137547273825347, 0.4047401170539616, 1.6205771752776759, -2.8483317542681816, 5.4418027043164905], [1.6080155271647065, -3.7599546605875847, 0.6310953457467495, 2.306810200693549, -0.57980367691395, 1.1064284327673761, 2.2228944666523454, -0.04198218849990968, -0.9610405657891498, -4.638735359743178, 2.3369595048451677, 2.8076101331373566, 3.6690145959778944, -2.828888598352386, -2.441255441883438, -2.145494976550301, -3.008594347371315, 4.069650052565275, 0.49500344539719654, -0.5028201359938873, -0.03723227715673489, 0.5008806599608845, -2.7546099996967404, 1.2132832444292916, -0.2408179727874144, 3.6222619118927577, -1.844602105771931, 1.6855373506618085, 4.243598856603008, 2.241766264631421, -3.402070721054888, 4.228549534946655, 0.38901084213768633, 1.8944729685584718, -4.48338515620598], [-0.024041220780775113, 1.1973397384818332, -0.230043639181623, -0.25911430771820937, -0.9729930554733252, 0.4814017005322289, -1.6127327213492904, 2.3666589386414314, 1.878953906338791, 3.4220100450942295, -0.6837474045721079, -2.1531756599651692, -1.3534103449541806, 3.724017647994792, 0.9792281156273728, -2.4120612099721663, 2.744751908593429, 0.47044355064622345, -0.49389226038474004, -1.95525933418122, -0.7694332158057151, -3.375073606161071, -2.557944360423011, -1.718565285113588, -1.0470455674025199, -0.7465257353659377, -0.5442067916626055, -1.7240664415815707, -4.2040382440884185, 0.5401974433783494, 0.1421238274772447, 0.768069061192681, -4.040069289034881, 0.7996284027906561, -6.185695794847943], [0.2166717686559024, 1.3077603243203249, 2.7790519132892917, 2.6970973359170562, -0.10255631736152175, -4.638285196671146, 0.7254419841644466, -4.4743170920159345, 2.575852163060291, -7.031689025679979, -0.501613234753936, 0.68523155098665, -1.8985736076031765, 4.3654580851899265, 1.063006284332592, -3.577454025593227, -3.374104243071329, 0.9656776424746144, -0.35375834816931523, -1.8630141120066146, 0.5281748491075343, -4.135785345704075, -0.5614094603696603, 1.650257495679015, -3.929183257697607, -1.0212368788918522, -0.5664025289056305, -0.6212650527354385, 3.5448667849529145, -3.253101102929657, -0.9043631280039663, 4.355772657458595, 1.9126926723171238, 2.812550165090949, -1.403993069086944], [0.1630995770938912, -5.633401665464561, -3.4784702854897382, 2.549523693717912, -0.42031889722506477, -0.6204199327232708, -1.7483949378266312, 2.93588677052841, -2.0948421119234113, -0.5548883987737107, -1.0497805197789098, -1.4943159021933874, 3.199063201878664, -0.0935614843208677, -1.1701291063225867, -3.118916122187069, -0.28050453212469917, 1.348264230359414, 3.7581476666452085, -4.272235317126391, 0.381456918119302, -2.0508363331216515, 1.3592097996392047, 1.2455671092639855, -1.8231684437116904, 0.7486737639860761, -1.5549728960272329, 0.3031778059741156, 3.069059041444876, -1.9242584400610874, -0.434866519439668, -0.2670877037459762, 1.080833162090201, 1.1958732399863814, -0.5696908025977375], [0.6397063510301019, 4.095743380699863, 2.27788597494163, -0.4672392677250178, -0.18212611068171944, -1.4673781224695346, -0.6760628254936119, -0.17286856766563674, 1.5012272766497976, -2.247197040789696, -2.132807395287264, -0.6388840875323687, -0.4242562893468688, -3.0220896032037827, -0.12890287058386282, -2.377368636144304, -1.9035273524716225, 6.397512361646853, 0.3314376479108851, -0.8291370589962401, -1.3438617257789685, -2.4470824786279186, 0.2543565764292055, 0.2758464512000441, 1.0799915953303516, 0.020499734716646487, -1.6779718972024114, -2.1556293080407087, 0.7716822054160561, 0.7246350375938508, -0.42921796797328055, -1.5135200198169934, 2.7297314317777945, -1.32089132713446, 2.31781881740021], [0.029330412692580743, 4.558766929050916, -1.0082684848531405, -0.6739854351587767, -0.18301555686294413, -1.1262255874930032, -1.294169465653187, -5.074857050306588, 0.7846812286966071, -0.25042498901284005, -1.928492767136685, -0.10640231374680577, -1.4033981551099255, 1.4052321975051605, -1.607023639051914, -2.6551310021664882, 2.2425471297181483, 2.2059539673444113, 1.9846585804966086, 0.4684578828822406, 2.7442734944815004, -1.3428491556575526, -4.924167953345319, 0.24581984132987963, -1.804036838370812, 1.0538160588377772, -1.2038017927833697, -4.765322727413107, -0.5557513447660691, -2.561637027992267, -0.7911843715116502, 2.863354705558521, 3.0410700130152164, 1.608013168050534, -0.1717765066696292], [2.4272489801822723, -6.866099678813078, -2.6390744925553977, -3.6847197012999287, 1.3641015250861728, 0.17520690855610824, -1.168945617684482, 0.6214821805634849, 0.6598824178992949, -3.2202954215416244, -0.7493036708516755, 2.177130391354849, 1.18139203431147, -1.985482579181364, 0.45259305822485346, -2.174201549605712, -0.5228240755983611, 2.6618631042796337, 1.5681379555803625, -2.497852764043948, -2.9892380982448, 2.471000226703445, 2.4862791439698926, -1.5614484675545106, -3.9358949078561327, -1.9070683158012305, -0.10186112615175755, 0.8226670491506749, 0.3524532934546101, -4.682716643557246, 1.5587283275731532, -0.9317462211558899, 1.6449635171007768, -1.2889987314750635, 0.25836273309634794], [-3.5668837349122167, 0.43485072839027916, -3.0026150809403602, -3.986248743362633, 0.3114485508197856, -3.0573307499934312, -2.4285002031386878, -1.7907359487581496, -0.784874585771375, 5.639833714446846, -2.2632878484401995, 3.4942172708851493, -3.3220035981081004, 1.5982440047337592, -1.969863069696543, -1.8333292916502653, 6.94872302640023, -0.12338914908230159, -2.50861799197571, 3.3494747244351193, -1.4165798330337864, -1.524292772480159, 6.276425360481874, -0.09796302683960988, 1.8067048497376694, -2.456083626336236, 1.401963514315424, -0.312846653389818, -2.9853590910245207, -0.5510438774025795, -2.26506056873301, -2.7315108229299048, 1.140116817003111, -5.63406860459342, 2.1391336503815483], [-0.6814340617034504, -3.2592637934061717, 3.0086770444179876, 0.9598871293122301, -0.7356548849579716, -0.6975049700855027, -0.797861285076353, 0.47811359244915347, -4.743544446866582, -0.22009868607244742, 0.08418705423550218, 4.200124008384172, 2.73018215957847, 0.42149018486962014, -1.0830612159841795, 3.670931903598748, -3.8115014799987406, 9.157863568075456, -3.4259949650544987, -3.8534509272624358, 2.8693588169632105, 1.0818838260237247, 1.2960646550865411, -3.291771290626418, -0.9172240720850784, -4.6334520772856935, 0.1571885831529478, -0.46351230007401667, -0.6260255002809304, -2.339101948509299, -2.667975136733543, 2.4170805378630096, 1.7454245339013776, 4.406262883286336, -3.1666046338269793], [0.6825919952842997, -1.8815163656964164, 0.7861031254359228, 2.870140568420121, 1.263670479893723, 2.5630988625832996, -0.477272347813646, 2.4900108851555354, 2.3475059585385845, 2.3817731189196683, -1.7705533612283648, -0.7754537670071533, 0.2645485843428942, 1.5362883507782001, 1.248119924453032, -0.7484876273549697, -2.9236940417836483, -2.3250014301301514, 4.401326806451797, 3.7079403910112974, -4.312366902055448, -1.8167350539849358, 0.7622855551702207, 3.6751044318692054, 4.123397789096856, 2.0392240333052096, 0.9081535157935788, 1.391581862842166, 2.0118117244064977, 3.398088072330153, -0.44850282434172695, 1.0454906273984674, -1.0573274351399757, -0.8110615172910449, 2.8882733197003114], [-0.06434058794343368, -5.994487269933319, 0.5074641625225871, 0.053768205988958165, 3.0793256578730785, -2.8972817400850173, 1.4397482024233426, 1.0950372615469028, -0.5594268466807615, 0.5275338736555228, -2.574133267559763, -0.4845198563980837, 1.0804060498591546, 4.661731300003476, -0.9745452273959878, 2.8254830929580583, -1.6442198658225866, 1.271721122722158, -0.18785477017937047, 1.4953897500575508, 1.1417608481716623, -0.18140317038339604, -0.3550158665094634, -0.11143428223429012, 6.08229289459277, 6.413927730188922, 1.831596661792263, 3.9019443999757666, 3.851486711868241, 3.2625537947444285, 0.6339408676649699, 3.8483104530038164, 2.880080739854428, -0.04458947174716521, 2.6716622117201934], [-0.6606935211222467, 0.6159173477852146, -1.1778284152352554, -0.20064874096227628, -0.42548381605835356, 0.1626017757929939, -0.08913688297839151, -3.0844568961444176, -1.7752149227831757, 3.8089797738191025, -3.575737203101625, -1.6239721696030378, 2.894373899061114, 1.1850592238144515, -3.357118455978255, 0.6621055447295808, 1.5571937990082352, 6.59489619128674, 1.3127421737900788, -3.101717676502139, 5.052448278475998, 2.166622741535089, -5.800005330595384, -4.001327272563151, 1.2333167553144109, 4.464527771478579, -2.0047698786628105, -4.167584199919596, -2.6316034790759804, 1.4943374119862833, -0.7238948710363503, 6.308279722102842, -3.1261289334428883, 0.6762547331162926, -0.7903451317618094], [-1.3122994512555481, -2.3119299856389195, 1.2911260225275767, -0.7817086651003153, 0.2145782700700161, -2.45367870640006, -3.0173486689082014, -1.4460294265860887, -1.4853415130036773, 0.061992166279286824, -4.395606465887016, 2.420863140666111, -1.0645893001232585, 1.9168905266710445, 1.9420404873286834, -0.7668386837916898, -3.604152965482446, -7.1588180791763625, -3.4227316322874572, 3.9758417174806024, -1.567098850968938, -2.959405039660401, 1.6930154663568453, -3.1519179250268126, 2.102827876816295, -2.8484400935541947, -2.943167349200557, -0.9924856589127689, -1.173798219593581, 0.24808645795357132, 0.5584441425001466, -1.745149086049672, -0.7602364660302594, 0.6401418196566561, 4.396538101302465], [0.8438341679984441, 2.9618147373671064, -0.2510542138619118, 0.6809647148598427, -0.30137057197006045, 1.397758590366506, 2.2404969931650003, -1.9862252086242458, 0.8246733550064786, -4.884589063710291, -0.18085592572507148, 2.5518371831827253, 4.015340406484966, 2.885416442705405, -1.9853156149349012, 4.725528382556715, -4.034715319091589, -4.682729616434892, 2.0230813167173367, -2.0313561789531676, 5.042046787517428, 4.333822424183217, 1.848738888752598, -0.8822225352693583, -1.1537571300249305, 5.1797718641142705, 0.5479937672093294, 0.5333000959701856, -2.5828711168981506, -3.3712352495336058, 3.6943935633255793, 0.602212217525811, -4.832748006556565, 3.786669108250589, 0.09304428695533666], [-0.9440428007722401, -1.8516040298864558, 2.854051097414986, 0.8172378788343484, -1.0030083882855088, -2.0277915187126836, 0.5385127235591964, 0.24982112865868972, -2.0395590758792617, 0.09259338470483834, 2.9730755448104866, -0.1418314235954629, -0.14851202013454057, -4.469976371454975, -2.3487241458633323, -3.0390796666696738, -0.2117371381615481, 4.059192242854651, 1.3245295031689566, -1.1245552831787637, 1.2951580855711289, -3.8378258648389587, 1.1199387127353724, -4.725333986824154, 0.3878562625712409, -1.411368947797474, 2.983685712844427, -0.4028717195885418, -0.855007498730872, -2.073463765071522, -2.0488733289683005, -2.887143093293547, 1.1145876511339252, 1.6153998487021561, 2.0771093442072304], [-1.3877562468799995, -8.16619391526239, -0.34291538092415363, -2.808690848179242, -0.9371040581893606, -4.532091326668038, 1.1392752290446189, 2.5884626567264912, -2.0032294025144832, -3.6643767647218395, -5.035142922514433, 5.2762805134093, 5.00563725000996, -1.2966884210242147, -5.307508067452404, 3.6858157621179504, -5.499095913470251, -2.5326386064642437, -2.6130917286013347, -1.8759038135394182, 2.5192726970643338, 0.1917725995597283, 2.157089778594454, 0.7806622750173107, 0.7004610339542996, 3.9792664662492747, -0.9622329117829505, 0.6129164241033214, -1.8983102797872315, -1.224025807488126, 0.1001091385576906, -0.29407299578427254, -1.688704932579649, -0.5025028240695841, -0.1999139407451367], [0.8144458101675179, -1.5604791702793441, 0.0075103186993000755, 0.5981737424243753, 0.3349930006522933, 0.12666130068556905, 0.2602559330454155, -1.6013358997915081, 0.9313181889473249, 1.5442317844746538, -2.4825095910954853, -1.2936097222009966, -8.843059897497309, -0.5876739327162955, 1.8812649202793272, -0.17363779494839326, -0.2514719335757775, 7.933283720715547, 1.2614397184291382, -1.366919801601302, -2.90557646168454, -0.9590127326715481, -2.0038541399279626, 0.7736111782141428, 2.6367736493636826, 2.8071855023392716, -1.9204397668114763, -2.9298225355231273, -0.3683394749184792, 3.9280279966434737, -0.14817195402022704, 5.140999034733804, -1.3405156065305697, -0.38029895785645285, 5.004383077442899], [-0.35471790827016536, -1.8647707039384351, 1.4964995814703974, -0.08353520257385902, -0.08034708796357454, -1.22292700023993, -1.3562171790683677, -4.87941833914717, -1.481339750309997, 1.1245690956724137, -1.1244231738492279, -0.6814764404316335, -0.39562108229623016, -6.8381999215198315, 0.6362171466671147, -1.1423703045762268, 0.689394312980768, 1.0914133241353383, 0.11778820125979157, -2.714650116484794, -1.7557585797353041, -0.13980070853270962, 2.109288866219596, 0.5331731540537822, -3.2386012884009463, -0.2616654301479205, -2.892835191490012, 1.634944128664857, -3.2997919740203057, -0.2059871220771904, 0.26777167288963877, 1.667134531982647, -1.192280101044809, -1.4936266486425247, 3.572045942937649], [-1.6907828686051933, 6.205098421581334, -2.5333666693298165, -5.496876344411066, 0.06352675982476388, -0.6191934048760014, 0.8134376258229196, -3.801914579810435, -1.2069212430502925, -4.597504225121983, 1.1681550005808492, -0.47157545912268767, -5.07274500453292, -0.36789306428790514, -1.2000161214377119, -0.4350718251932651, 2.035962605352916, 1.588012908873182, -1.7763776868828816, 2.028964183372547, 4.911450127421142, -1.5674254586088865, -0.9666985302879806, -5.858598777156543, -1.7242013938895062, 0.294083067999366, 3.184201489821396, -1.4551458753013697, 1.9814692580651563, -1.0658488573383873, -1.4291458968504571, 0.7523909478655684, -1.7181742068450798, -0.22066337925631785, -0.9589335658874063], [2.374379515296795, -3.592001015181876, 0.01434454301130079, 3.5781429509607814, -1.8261403701816399, 0.3535091193628415, -1.7221571564191498, -0.8607647308286233, -2.287779470083528, -0.8147240681883862, 0.4638200662130566, 1.637603693990553, 0.7769642981882293, -0.9764941764189363, -4.4326260382855125, -0.04251717827966293, 1.0645105981828233, 1.4026658693472742, -3.495344878938782, -3.0307502240544175, -1.3502402332352794, 1.066557323803497, -2.776099421936755, 0.39315503225974063, -1.826922975267905, -0.8415137631577693, 0.18885581232582627, 2.2453200265515814, 2.381243133942874, -3.7639976628036784, -4.460303823176586, 0.41873961265046433, 0.7129827720332811, 0.9637892031540147, -3.8020164109988515], [-1.3199096925828422, -1.9819344967042183, -1.880149869667842, 0.23195009121921403, -0.19412154451700578, 1.0388379588939274, 2.573912458312057, 1.1542086204756825, -0.4156532621833106, 1.936618034325532, 1.870044431258802, -1.0967155943242037, 2.9682615860170114, 0.20158863816004657, -1.410966475348253, -3.0993741082986346, 4.6914755166789135, 1.1423128933841058, 0.8451620358406133, -0.9733062917533319, -1.1841272296581755, 0.5212367552735204, -2.160907036383034, 1.4964099557964314, -3.8032172107729263, 1.7423675436004131, 0.17319455744153284, -2.3550180424372074, 1.1043234958390666, -2.107520910672193, -2.7828400043087367, 6.741100392233218, 1.5829960920342183, -1.2772238801379405, -4.666970350418712], [-1.2636258016494972, 0.09315966901452563, -4.5055772901367455, 0.07962769448269173, 1.1737328515621237, 1.0113086199519195, -0.6328729568241847, 1.300862971905689, -3.941550081434548, 1.3923876127354826, -2.02140533317237, -2.9805639438815628, -1.8861612890182584, -3.05288556754537, -1.0119463152421422, -0.4430044983328538, -1.6295802307205682, 0.2664634155191632, 2.0739981390401536, -1.5428012986432234, 2.103363694833594, 3.020557904834068, -6.0755153643875035, -2.739635936361516, 2.3460307902663438, -0.2756658226856197, -0.453259454419364, -2.6821660796416467, 3.412887504557389, 3.498337034999793, -2.9137146484579106, -2.9293781745348504, -4.960666528688007, 1.0339772657750654, 0.7629646636920391], [0.06730489694955721, -0.7879665710790822, -3.1839891173670574, -3.99411138828816, -0.08503233745988617, -0.8109271913950469, -3.076780809355191, 2.161432415297697, 0.7812905589623844, -1.6731476923838657, -2.147088448504512, -5.319701249326811, 0.3807053100506348, -6.684250795575566, 2.7444667642434593, -3.6881076068347673, -2.9743950252193576, -3.257028229077773, 2.5041324767130284, -0.34536443917045434, -1.3114826080224025, -4.833922580605886, -0.4243496021500454, -1.9660835346261611, 2.7006641869714225, -0.07454934380819077, -2.577663876292568, -0.6213176550251993, -1.4208141410422017, 2.9173735003184875, -0.7400118603507019, -2.151115667199862, -7.732337503749721, -3.279153412420323, 2.7048703922362574]]], "biases": [[[-0.540838455832324], [0.49426289971360143], [-0.5839450932121748], [0.3100042554915457], [-0.03559930346788977], [0.8344586900549669], [0.21636936292895326], [-0.8060614086417663], [-0.22559714665513916], [-0.8704146199710648], [-1.1434840849643215], [0.490243812108162], [0.7300549390078584], [-0.2772879324326637], [0.24026004549973093], [0.011888120977430998], [0.15030308773410136], [-1.3188610872663447], [-0.284381387826169], [-1.4312588237134998], [2.3812085788910435], [-0.950797102966877], [0.6958241790702814], [0.5283475901198922], [-0.009877747385072477], [-0.9071135337085896], [-0.9002915394375731], [-0.16699539764334806], [2.1665496863072327], [-0.32184922311860276], [-0.15911943258679187], [1.1539702196827684], [0.21796654505673793], [-0.44756839087399025], [0.6460456580086705]], [[0.19924692332384947], [-0.4819452820319538], [0.6459670838423189], [-0.6183989872049512], [0.7364708973330318], [-2.3932614919983632], [1.6400652188819034], [0.3646160692268926], [-1.3364722633331132], [1.047239322007681], [-0.6787905716180646], [1.6259589895895423], [2.88783954876031], [0.36467072706533715], [0.9807690712218701], [0.7554309320776609], [0.3386078747767167], [0.028345766569705434], [0.7838149047783481], [-0.2919882371600446], [1.2120617571709058], [0.25154017765625447], [-0.7405986754215326], [-0.2909417563644848], [1.026019107670131], [-0.6828138894047499], [0.26726768095219616], [0.2236569309108584], [0.8400694234089079], [-0.018455452322838517]], [[0.788474506951903], [-0.6270614111773898], [0.7428681702902921], [-0.5804454096884747], [0.09733091052494454], [-0.7654994212878636], [-0.20032697909389816], [0.7785917259153837], [-0.7886732311449144], [-0.2203297686997301], [0.8018070307801948], [-1.8609956858318135], [0.8567514583675199], [0.8285931069275909], [-1.104067697258856], [0.8230204608452703], [0.46041064335142107], [-0.7331107348097], [0.4415370037286851], [0.7805116742322358]], [[0.2660097627911737], [1.9316420047912535], [0.29855047602176554], [-0.3483970026430892], [0.9100845197947454], [-0.27616463070289377], [-0.32871824576768865], [1.2543993391977906], [1.2475117814094203], [1.2660838892950517]], [[-0.4882380217970622], [0.6889661528373398], [0.22124603159179296], [-0.3867931457837885], [-0.2932512923013471]], [[-1.2109772002664585], [-1.5060725604383778]], [[-0.06832127181268545], [0.6873797935671527], [-0.11476612129469707], [1.2628426116737197], [2.093428590445824]], [[0.1587679900978709], [0.9192095240686897], [-0.7246267107555533], [1.3841349081926615], [-0.6596571829847884], [-0.163654352355715], [0.09855764762268406], [-0.1988191546845811], [1.8403383287685084], [-0.31295024477317124]], [[0.8877472266139942], [-0.24214320076098286], [1.5691720575931645], [-1.3143271702690826], [1.4297784648198675], [0.3010468177396915], [-0.13238312327994256], [-1.43857616912625], [-2.16054786798958], [0.9489404538337122], [-0.8490144520551733], [-0.20798713033745997], [-0.7741519774691139], [0.332004948236751], [1.590823785541239], [1.0315279118312353], [-0.921979443725606], [0.48697003942194445], [0.2653660042001747], [0.34612818099806186]], [[-0.8868510829385085], [0.6686414679530401], [0.3902757521381008], [1.3046127369312006], [0.9471801770790089], [0.4114098939638122], [0.5112962241857038], [0.22437030749354478], [-0.09510144127921046], [0.7197594388828573], [0.7728455195268941], [1.0615292781536123], [-0.8471092463215923], [0.9300639587488012], [0.3553793570607801], [0.7747549148832952], [-1.3549119511280954], [0.322531518664899], [0.13162689509757014], [0.7458798023013337], [1.5255217274865227], [2.496465119306328], [-1.1765115744731733], [1.697941101166415], [0.7150809057295084], [-0.9506858889444507], [-0.15385559159661422], [1.2259315689122272], [-1.9282145331486165], [1.9111342681345203]]]}