{"weights": [[[1.1740580787121426, -4.118058834365285, -0.341058643572266, -1.1160143523696293, -1.6708011825244813, 1.0148899284234543, 0.5647617010545384, 0.43890554472558513, 1.7847853373683802, -0.6249946893904627, 1.112487097352716, -3.099505261137736, -0.39041485882692395, -0.21039993109624078, -0.5404087033798458, -1.7110642880918796, 0.7347988453553416, 0.2861232189563204, 1.607595447542512, -0.8707966929207743, 0.611212918567336, 2.3820542783979164, 0.8965902059255267, 1.4008235294137603, -1.2589081316506887, 2.3692059464852444, 3.108246113894975, 0.6129671705963725, 0.9680377333191571, -0.5157838767960773], [0.9557156925065996, 0.4232409128121474, 1.2905942766774696, 0.941510021382557, -0.7661134132129133, -0.0897926078190885, -0.184580663762006, -2.2596818153600786, -1.827213636617416, -1.4454255462028216, 0.082545620299927, 2.646364536081236, -1.4130389951408755, -0.9951426192629869, -0.6912172009169526, -0.936475434778589, -0.4295897027006376, 1.3075991552627513, 0.6616877702384627, 2.232710237708644, 0.5131707528831676, -0.44228587129026115, 2.8256724128911985, 0.41134769268002597, -0.011778684899215465, 0.6495045906069771, 0.450063423280946, -2.294574533585204, -2.0472422598886943, -0.15274373046521483], [0.6056875216749227, -0.38380971839634215, 0.6748262491968241, 0.254570762703203, 0.6873373148755078, 0.6785044732014403, -0.7216293188204452, -2.149831115523035, -3.3338520795000117, 0.5221962153233477, -0.6846029076612634, 0.13376270458527567, 0.3818201247850035, -1.0979980433776595, -3.3745803915977066, -1.314390493034815, 0.3075810162884524, -0.4841911172184084, 2.1219796693040154, 0.4984243592693877, 0.6660777472862571, 1.055156784412382, -0.10934828190345143, -0.035922325577108845, 0.3572144433627855, 0.17443867497211815, 1.2221797172461932, -2.920236563548519, 0.9756639652759289, 0.5216754861421822], [1.528138149083486, 1.0773764934268217, 1.0091138194219118, 1.5309957791103412, 4.09347738288962, -0.7754516977009417, -0.4436430134402907, -1.4835765124307017, -0.6069519059482218, 2.3986528460685768, 1.6977076938223379, -1.0847626439509261, -2.257529785419529, 1.2111315392917714, 0.41597482015016574, 1.7948087991097468, 1.0968899842192286, 0.6772431742490697, 0.5508056324459647, -1.7710959120479712, -0.816757019018126, 0.33834505333999054, -0.983560638324569, -0.555474066095619, 0.8713801446567719, -1.489186305182231, -1.8292205023857189, -2.2498178270699554, -1.6956189154571826, 0.8912054168242232], [-0.0025428333505134507, -0.7068518771234017, -0.36871571970223066, -0.6326663276991102, 1.2118609970832965, -0.8608979301569158, -1.3013652210321076, -0.024977425191563388, -0.5767513441543922, -0.32269584563751497, 1.9550039200160632, -1.6578841199772476, -0.2985998822618767, -0.04774822935929525, -2.1184444790312127, -0.5223615087336615, -1.3851348663588554, 0.5656167355341385, 0.46917187191170273, -4.48026536496817, -0.8632265490227059, -0.7561640315815532, 0.3822863456004511, 0.05903023675429647, -0.09263547761293538, 0.13298157772537894, 0.8225190274121437, -1.0751870554645693, 2.010752260809395, -0.018545066450787094], [-0.5774250408437065, -2.606458154079014, -2.3538014944897285, 0.6502592442167022, -1.415651905147273, 1.4480956039834239, -0.8803240401170099, 1.1267951779003238, 0.14219692117821034, -1.7550789121543846, 0.0838193851147331, -2.519831721191331, -0.323828684703184, 1.6050474610134708, -0.8044048551919287, 1.8555651476053496, -1.7778190621206773, -0.5786519377216823, 0.09746089154012694, 0.3109557209486194, -1.294341280894042, -0.1337052264196233, -0.19922254506903647, 2.1011558552662173, -1.512295898705096, -1.0514116157869864, -1.0861269986587097, -0.3443795745995297, -1.5262682630406867, 1.6242981870738225], [-0.9893881749428254, 0.9754997108037999, -0.5469243659047903, 2.354458686807378, 0.197198278707071, 0.6084140647444951, 0.319221636098885, -1.2676975356663454, 0.7934846648968358, 0.2408219907657502, -3.380927051496506, -0.9024026642691938, -1.1597531651266098, 1.9396322509362185, -1.0556679590880393, -0.3569246696074376, -1.2288475428802454, -2.0360121470462893, -0.7641751644804864, 0.3256492365634894, -0.804614126927881, 0.5086634434207766, -0.22779744419146788, -1.9459651067281596, -0.9967563207729427, 0.7042417952511526, -1.140199181699086, 0.7023122528366613, 0.5957348097941192, 0.0021852419909757542], [0.21933668526544298, -2.5829063918203463, 0.3276067958847357, 1.7835154022888229, 0.7414253610575698, 1.1193334708222953, -2.4888608500132907, 1.2088084993448411, 0.052484858576280845, -0.7867824803494297, 0.6555460962457297, 0.3293271281955202, 2.4170461830705845, -0.39170532167869904, -0.10204805206971435, -2.039584129975523, 1.310545508093449, 0.566714166831634, -3.197570495267865, 1.57543656954782, 1.751963374403287, 1.0496024769391061, 1.0156187699949397, -0.20607513208697817, 0.9166165751388903, 0.7879819361703407, -0.29698537760484384, -0.09548040153729166, -0.9290004737070677, -1.8186028101215725], [-0.8678816487056603, -4.234319853421528, -1.6122569388356367, -0.6629836177606732, 0.002092209753668621, 1.1029764895790561, -1.6631228650351895, -2.015123224252832, 1.2961304007547412, 1.716423736259661, 0.28290983379015505, 0.30067785327959334, 2.4224145012330918, -1.1911587662679761, -0.3159021683945113, -1.4919889694364044, -1.8788574986313875, -1.6392043228188462, -0.6512209021360987, 2.497794621148707, 1.2497045975438048, 4.434364471059369, -0.5163346847049964, 0.38444438836879063, 1.0905187914387724, -0.3317954433044907, -0.5181958562050395, 3.474187979191791, -1.16931325589365, 1.8766605695084142], [0.8073443205236159, -2.7564676509581885, -3.4648099041966645, -1.2117842231965679, 0.897166526063883, 1.2193116199208571, -1.3827753577342556, 1.4355118274523022, 0.9423956957127375, 0.21780443020887327, 1.584329491214411, -0.32943783985066893, -0.8194129720851472, -0.9824600941175555, 0.2983317568095235, -0.5239516457960418, -1.3354263180412043, 0.23882849959155344, 2.9851835703752823, -0.7096557528763386, -0.20480345016868615, -0.32051986684960865, -0.12252279557175377, 0.15304732477952382, -1.811228803982027, -1.1717702985095924, -0.009522557395026098, 1.1179103606227392, -0.18764322711646464, 0.97367889553261], [0.24554983742500625, -2.421985294195021, 0.6035014111456699, 0.12760761730866538, 0.31372181503548047, -1.1130315300039662, 0.8239631678131233, -1.7596926875068648, -0.5029896933363136, 0.24394694109925374, -0.8652261389149469, 0.4710497782669372, -0.8200609608193881, 0.22296601262625443, -0.9220520584772036, 2.2374797388817096, -1.7291498137295496, -0.9568318173921803, 1.0315154179486152, -3.6122991754644866, -0.49220879492594216, 0.23324236693715056, -2.1482280009602612, 0.7924869158963508, -0.1471856429263319, 3.0909813416750658, -0.5224694541983506, 0.3228074421969923, 1.4789597360789122, -0.1564861924485218], [-0.16451452362006133, -1.2988963417753907, -1.5978460527910745, -0.6287058568623551, 0.8599814915518756, 0.6056002730736091, 1.198173500109623, 1.7251069104794656, 1.3951896143455198, -1.2547014057138663, 1.1148007402482227, -0.5947154349644881, 0.1276541528758242, 0.5557821389529134, -3.060252587750332, 0.7185060715327054, -0.7226256307433776, -0.14176001863549992, 2.1250334214129674, 2.56047221876573, 0.6524122405899955, 2.7026466336541763, 1.027570639591202, -0.4610053530879684, 0.6231308869112961, 0.09409893563431132, -2.1433816595361614, -0.06201361171965368, -0.6209400655854534, 3.9478135706333903], [0.001628919833877906, 1.506296781443485, 0.9033617075307818, 1.053127549334317, -2.2190396749855137, 1.4515881723484871, -0.4730906155371676, -1.5207868645757256, -0.9628539243695337, -1.2393164988578511, 0.1277734961746054, 3.2142500526055926, 0.21892663082722705, 1.7139053591009732, -1.088970845008412, 0.04064141146086354, 1.4881476634469857, 1.910057076863834, 0.7955452202289967, 0.3507968535493687, 0.07957464997805619, 0.6478833564544102, -1.5882501786615009, 1.6276961176057068, 0.9005907133878954, 3.1046753237861027, -1.3858534503817084, -1.8130079517297206, 1.3908559313936737, -1.3139470700381803], [-0.28272345763286016, -0.8282633518308544, -0.2711033065944525, -2.1463243934635785, -0.48970783574521726, 0.3468252504479172, -0.5928598261195892, 0.5852288680939249, 0.5752259658230817, 0.8882855977152857, 1.5866605942099388, 0.12945832921989944, 0.9198293017583556, -0.8517064602630414, -0.6000134637672571, 0.7379351167644798, -0.9892391144135153, 1.755050035387291, 3.3459953662030966, 0.4281914495499142, 1.6670215145400895, 1.4053729303347873, -0.4382030096086923, 0.40797603408333566, 3.5534299219039123, 0.3739007051071166, 0.5609442578152464, -1.0841827052456225, -0.4705191709422245, 1.3620033000243332], [-0.22222626279055202, -2.2874212045597404, 0.050826609676650834, 1.037411982228485, 1.0180404758801496, 0.01899273813767308, -1.191999508048203, 0.7097282565305397, 0.16210027854703873, 0.2505415003083804, 1.3135634124399505, 0.4537889936831454, 0.8623182660455998, 2.3239926249216896, -2.13487208594749, 1.2438953402371862, 3.4860566044536405, 1.7030546864767115, -0.24249307220806818, -0.9925232624660721, -0.33650309316913435, 2.518793898193428, -3.2513168678815196, 0.8875286239937906, 2.2653141716367293, -1.1730663742826137, -1.3549219332350362, 1.1948892240817097, 3.012207872474019, 0.21226676584660503], [-1.5688962894413354, 2.079630404707241, 0.3573420609758884, 0.1014460696743146, -0.42845280245284717, 0.2616859799966081, 0.9403947313511751, 1.418922132834368, 1.876579343989249, -1.0010352887610308, -0.7827958801333397, 0.26031515040501274, -0.9529651578350387, 1.4912131413499352, 2.890813744800043, -0.5044527820017634, 1.215727270569944, -1.9583627705521938, 0.2929310853745468, -1.0101228502510018, 2.286758855232843, -2.2056348315912557, -1.5821414200880968, 2.4129208107847835, 1.2417598263324592, 1.288060276777258, -0.0424562182367876, 0.013505989051966876, -1.5520480453334302, -1.1480799021714851], [2.4756336169432904, -0.9501160715831525, -0.4817344010842704, 1.0978749257527327, -0.7215755500357169, 1.0271360466795147, 1.7402035034131689, -1.4881433104257173, 0.6385906209327087, -0.9926819457182496, -0.22203761374065753, 2.0500768176805826, 1.0335427823845038, 2.115488585196845, 0.3849040351854962, -1.5884924989898785, 0.14170531598105268, -0.8386275045367575, -0.20428758553218662, 0.9316834583890697, 0.1139807989867138, -0.30353977597745985, -1.6318143448999174, -0.7445927747946107, -0.5332434982802454, -0.9927495491790134, -0.6354808232873904, 1.2729991592385794, -1.5210530738555537, -0.1915142994833789], [0.36474261016885345, -1.4892410192653056, -0.4638613422339223, -1.5117695445018942, -0.3062523145095923, 0.7695059929010349, 1.6616795234119133, -0.6552639086946749, -1.160690892765651, -2.8477787243120485, -1.7155883762441508, 1.3025589300864013, 0.9304725775871308, 2.0146823580637117, 3.2420535676645277, 1.6762912615723307, 2.5454245250178955, 1.674891246636101, -0.43302203559454455, -2.164236135690429, -1.6278805369171463, -2.1246323892730574, 1.1099767777413743, -0.16879004572481368, 0.47808248437170137, -2.377034252872404, -1.5870765138093894, -1.3543153131460806, -0.7696802165935903, -4.371036878987348], [0.08932217824356513, 1.3264695439565433, 2.5468994981674244, 0.6459115227664086, -0.8437141873086432, -0.08471676420919623, -0.7827275835460311, -0.6541205726095668, 0.7641422797621619, -0.39841165957776364, 2.685425844645058, -1.3066004217060099, 2.558745080285178, 1.5022387563424646, 0.7556715607435276, 1.1826430619421615, 2.0494949568670693, -1.2081006123838107, -0.11770930939590135, -1.0864011788178973, 1.9555906006832098, -0.5271562722676938, -0.570292829954722, -0.3561128666649761, -1.2895310984022077, -0.6688786825798553, -1.1526607422048718, 0.8702753153571878, 0.10335255132169638, -0.3088551064678802], [-1.2504253411709192, 0.1519356322811351, -1.7948353167175677, 1.4207092240431265, -0.5294086520557355, 0.8594018467370197, 1.716428933156701, 1.3909254138967444, -0.24930151950112994, 0.10071902512829516, 1.5765008073030873, 0.29025985684930766, -1.2420738974165366, 0.6052712032233898, -1.2651896912972525, -1.0933509113156215, -1.1062431263761343, -1.700405115781747, 0.5954805483268537, 1.0402687229630794, 0.9960166914827886, 0.49896347240438327, -0.20102923991749053, -1.070775019405719, -0.08455103634454665, 0.49350873644348464, -0.2023783184614494, -0.0024563934122409713, -1.5880790606925168, 0.8101781414828094], [-0.32075589589367265, 1.1464965243640524, -1.7060985668543667, 0.10802594181030245, -1.4602664385136885, 0.1731797231908641, 1.9993400768244365, -0.7419413952902899, 0.1358773312476135, -0.6581660664734647, -1.521169548188312, 0.05542997808558655, -0.01298685464241484, 1.2566983415338278, 0.25035308311279253, 1.0815974839188465, 0.938641771361505, -0.6776081781272777, -1.1420565652318457, -0.15439717088200636, 1.241316652182183, -2.217833390453274, -0.4532219057464154, 1.4013337023353698, 1.2395487307995656, -0.9644307086864181, 0.3648558578278523, -0.005702503329135311, -2.311091451140967, 0.6786309050202575], [0.7714215598917356, -0.04163652308210572, -0.7463207139605391, -0.8486769270300498, 0.42766502365837383, 1.7083718943811848, -1.440466275978823, -0.5743453338244019, 1.1028971334922562, -0.14757327593720593, -1.793110050393374, -2.060100936208957, -0.45487268663978353, 1.2090542538115345, -0.15734325031475613, 1.255623124557942, 1.157779268190745, 0.7578696189410933, 0.9748111638430335, -0.04546374083010656, -1.5484187887098346, 1.3960225087039644, -0.570803122497997, -0.18833879366552586, 1.9120666666897868, 0.9396450945948178, -2.4754969954718424, -0.09489125964697338, 0.06365625292914182, 1.279287003344958], [0.0757743103264703, -1.2926820157207786, 1.6452954028298454, 1.881476921169442, -0.961123614013285, 2.275950919964175, -0.5077376122189319, -1.8209156579790426, -1.5398408523699705, -0.36111381419272903, 0.8884063397213643, 1.2142631374088504, 0.06315973123280422, -0.3896406159141463, -1.4467327501244784, -2.2879046713683104, 2.5535507804485946, -0.34091349101788515, -2.256023577350736, 0.9348109918864944, 2.5179501435781577, -2.5820146183757315, 1.027319540851829, 1.8044323664939073, -0.02844503303331891, -0.32844833212137614, -1.846667471936772, -1.773795395674893, 0.8281367556197187, 1.1105239005290857], [-1.308301406373639, -1.2441616350243432, -0.012727070778788976, 0.41861160152018234, 0.7927321245695572, 1.7705155151429262, -0.0694110558920073, 2.0318902002139874, -0.8856669324646805, 0.7050039292761995, -1.3512542020426368, 0.19988091651244794, 2.5203319043209627, 0.3072900594107239, -2.4642976011329223, -2.351244108564192, -0.8246369209202103, -0.616708841776547, 1.1011100664531863, 1.6828125024034177, -3.2266694265296545, 1.0886340570450679, -1.3434394411128385, 2.4434230641700503, -0.7273909976839028, -1.8654657490620674, 1.0542571865614407, 1.1896388545825873, -0.5596389295312376, -0.8057546124108603], [1.1282359135007698, -4.29152737520944, 0.050745669538283675, 0.9819908740595297, 2.2029636931365206, -0.21517946629912219, -1.6911364195295102, 0.7218706617139564, 0.8787763643603619, 0.7361380676676564, 2.7717063029049536, 2.4130727161282044, 0.25864874167402185, 0.483769982794128, 0.34859295602561075, -1.35652219068911, 1.9473543746450261, -2.003428058509511, -0.4454105245112988, -0.5279307922757389, 1.9790925628890577, -1.6749711979341673, 0.7528859876170019, 1.397151889843639, -0.9225403721420922, -1.6844389911391149, -2.1500532145763085, -0.6145664595404873, 0.7617804419138765, 0.6664615326437024], [-0.7820607628568943, 2.2160300819880194, -0.8054547152493452, 1.5438619170515873, -1.5235390250881475, -0.5985054827966382, -1.1560603940978564, 1.4749781001183302, 0.9351395883214063, 0.1275798791220919, 0.5033704285486009, -1.0291447919013368, 2.2295179301985266, 0.9987771546434725, 0.27209990761597935, 0.8643522295100502, 1.0635698015453752, 0.041858215559878044, -1.4699790645717457, -2.0249243765396834, 0.46408850008752744, -2.2802992297308715, -0.126731872506569, 0.9474183759945086, -0.5550797776411105, 0.4117577092947029, 0.3670846644045753, -1.964498631618394, 0.3826149571629518, -1.3815506847887635], [1.9977637449705061, -1.091100758937139, -2.0483423345778204, -2.18307744208849, 0.3399354296310776, 0.44997915323632215, -1.2841355117920707, -1.2273340507172126, 2.17026009723514, 0.1024977748561158, -0.8640051766672314, -0.5246025563412986, -1.0316392025919128, 1.2232530500500087, -3.0542155226708934, -0.09924950984366593, -1.1075320113122047, 0.9829461911094917, 1.891407389075154, -1.7061581617864727, -0.142812999612582, -0.33737951114510734, -1.3473434527086876, -1.7649790458642873, 0.4276291572973911, 2.1757263300118845, -0.26610168144063406, 2.248389236248456, -0.25632700707592615, 2.1306659423067833], [0.827833983061639, 0.24832152238286959, 2.0171841132789505, 2.0989158128164433, -1.3962078199943817, 0.009218554733081847, 0.5097041933666375, -0.7809503149354514, 0.23028597417038568, -0.6323397669633277, -1.31615844084008, -0.4404862304431454, 1.0212305624246008, 0.13346807098775507, -0.4784005442102039, -1.7716666135897579, -0.5961181879015878, 4.535495272739735, -2.6614218338999858, 0.4001105847547024, 0.1482495522790144, -0.2129031117813064, 1.8020400344037344, 1.9776394084342523, 1.788613048981015, 1.5470333479158211, -2.3378086738310366, 0.45713802421416816, -0.9963764804328115, -1.7373629567397217], [-3.2917453133849848, -0.2194254590037628, -3.263737616669897, 0.9720201678962678, -2.3243608426656603, 2.4261120080570464, -0.3486667085357477, 1.2665426283043244, -1.3051441476730976, 0.17324341926942508, -0.5724050410485912, -2.1367308820157347, -0.585625468491003, -0.3399522173217907, -1.8574806862234594, 0.22777306141123332, 1.8246563252083128, -0.47964093016227705, -0.7474342017740488, -0.023488382542651738, -0.030607972826256127, -0.14523915233324633, -1.9518566587049853, -0.4114708242030608, -0.5501884053555219, 0.07351299521654853, -0.20087255634514153, 0.7376820641853497, -0.7053089561783419, 1.1431213994291234], [1.0119429455045486, -2.4742906068201997, 0.02853409732480155, 1.3192809031570805, -1.90451963381343, 1.945860768143449, -0.4015130503769062, 2.9398872659101296, 1.7338184933276555, 0.4570768046630866, 0.9284003474573242, -2.3060049863246523, 0.8260503903120463, 2.1616073610801325, -0.5882242245535025, -0.39189414661423294, -1.3470489649757373, 2.639531696444649, -2.648247402321337, 0.9213948293539178, 0.5962360569618563, -0.6114963068587697, -0.7348181557221317, -0.7017072946035687, 4.079380191560744, -1.035779409720667, -0.46701138784392643, 0.7927498220882911, 1.2032135509175124, -0.5443303392154425], [0.5235772060238988, -1.0852646769182623, -0.26319666688094934, 0.03648279458763523, -3.2669173102631626, 2.234773804654246, 0.38785714824508477, -1.2231158970904628, 0.23058305674667104, -2.0828358610414424, -1.9346250610448896, 0.5524393770572708, 0.8872316813828003, 0.18878376252207552, -1.2052546489965692, -0.9630779598115099, 1.732617001289067, -1.4622069846580719, -0.40569966861242274, -1.646871723878383, 1.2839177187493018, -0.1252978012924893, -0.9975901041376526, 1.4714577687294434, -1.7731675620629765, 2.069141867144728, 2.5599322734594567, -0.4620632292415004, 0.1283087964218088, -0.5722266574032352], [-1.176379819722252, -0.06652741621330596, 2.240353879346336, -0.6013967380384108, 0.1086984105665738, -0.5015945575165518, 0.12421770104622934, 0.29113320846911095, 0.2497264186237599, 1.0448622489344161, -0.0946102543722731, 0.19754357652792784, 0.4272800842528284, -1.223734009455338, -0.5200118249448299, -1.3105136831166717, -0.02376834460162108, 0.04176446960362724, 1.9928397499986514, -0.6354723332577938, -2.8380056975001686, 1.5315922785650613, -2.3764368467933075, 2.5448178633641, 1.4660615163218536, -2.5876516731807184, 0.8926565921112062, 2.1411698470558043, 0.410322725938251, -0.8291896649601002], [1.3974800674570456, 0.3261729486595373, -0.3846989235689573, -0.01937201206800377, -1.6704037200462698, 1.434221755624952, -0.0468172095083314, 0.35557766566747734, 1.4279699494088542, -1.381111808894537, -3.0601799941703627, -0.569515168098208, 1.698263964825935, 1.0839424331321863, -0.7453634752772373, 2.0805025629772604, -0.26431655835419876, 0.7298066924022296, 0.050483703692557585, 2.269267869827125, -3.4733780066744253, -0.8653868312626136, -0.3417824773777514, 1.385259235438418, 1.2752781061787193, -0.7178277068457903, -0.483628080777102, 0.9350552070383652, -0.5525891090078244, -1.0704016386725348], [-0.7222201993661611, 0.8604260439912408, -0.14142090885197264, -2.1573561915189083, 0.14731125521681038, 0.8948426736974738, -0.2881853978052774, -1.3125196049683265, -1.5816540425580514, -1.6005869521347962, -0.3081419587810674, 1.1112567732021443, -1.1624310534373348, 1.7884528311871066, -0.1847212175424395, 0.272979423665578, 0.25942252671920846, 3.0453312639925523, 2.1395653534759385, -0.20807342751596763, -0.30618398584218554, 0.20914472001109788, -1.401929384232, -1.3287282130052869, 0.9167103355749548, -0.7187048674588142, -2.8404125749088087, 0.3754227512291237, 0.20183901826620113, 1.6376341827802097], [1.8109698265223149, -4.334303096374504, -0.08653896803203011, 1.355787683944883, 0.6436677042132221, 0.43340738348102864, -0.796559232633935, 0.42868535640415933, 0.6872383886591331, -0.2850554244632111, 4.2861901133263185, -0.2424900290879975, 1.4017353470526128, 1.2516923763146202, -0.2497140228301693, -1.7190451548044958, 0.8710733837148186, -1.7889646574582108, -1.9953383455328448, -1.4891732307854582, -1.963365862257485, -0.9680911626420795, 0.5384853053679685, -1.5074895561580606, -0.7590919482777421, 0.5187849596569486, -2.713485421784853, -0.14384155274686908, -0.24983361768223725, -0.8778568674678021]], [[0.48706984528519554, -0.7925498507292569, 0.6330596413850552, 2.7141479152405092, 1.2102757094302412, -1.9910570810647883, -1.0597662545725535, 0.5390021709573944, -2.067310139844944, -1.4882484408114023, -2.958288318579209, -0.08746137677157466, -0.28434909109304984, 0.6353494203752851, 0.017219330774558676, -1.5874037452265999, 0.004040094422022236, 0.5869563347517988, -1.2429328860405666, -1.458725925999276], [-1.7369114473422733, -1.6110910198339456, -2.2653337278688497, 0.07287277596088575, 3.029868963738068, 2.979623037523301, -1.183356244694022, 0.6102718378172771, -0.7108635047690395, -1.2447679794963085, -0.5250312711158199, -0.8280784077842595, -0.6682435095859418, 1.1024990750793475, 0.0012566847857680826, -0.6840491193375493, 0.7663405249231392, 0.2483627716977005, -0.1876122638447648, -2.989124703394495], [-0.49650464536543737, -1.5264127408324906, 0.7827451026316036, 0.09425058312117517, 1.7035548761441093, 0.494856783424772, 1.3976311936377261, 2.6880398405969035, 1.3407375270396595, -0.19464559306930643, -0.6280984822947245, 0.26815633138038003, -0.3689286029320643, 2.4165778035601546, -1.5480639821026554, -1.3518860506962376, 3.338433436000018, -0.130461258322444, -1.049817761134143, 0.1276952899101942], [0.42199462883003974, -2.0136162511022686, 1.9680238671265797, 0.30608856563167824, 0.755057369096496, 0.8569189395222854, 2.7385886225166196, -0.2192655665108438, 1.0528884745679528, -1.1127565174819285, -0.18323286537633043, 0.9799308113236371, 0.3994426408152096, -0.0670345975175248, 0.23295290252628356, -0.3749077155713022, 0.8047349276728488, -2.568523203165781, 0.9259565478209734, -0.5935152811971676], [0.3668257279233503, 0.1875150541217961, -0.1502533120933135, -0.7934048632150481, -1.3440771380108114, -1.2445319877336378, -1.7172581276198062, -1.0266140885699702, 1.0764290719050382, 0.7905641844579503, 0.16037680460719883, 0.5329398889797349, -0.016884963443748395, -0.3969066861508344, 0.45329838696932917, 0.6992552247576724, 1.1902230595966221, 1.1699333532217586, -0.6564157948335958, -2.430044253881259], [2.071821096053631, -2.592241209666258, 0.09860225192809553, -1.0795521304308882, 1.1416481441649051, 0.7243274102237358, -0.9918407866460868, 0.4946374995089994, -1.5423896774894248, -0.7460063370356282, 1.2696350107279037, 1.084183367939195, 0.4318209936213, -0.04405737655296051, 0.9740254353235177, -0.8673498504001544, -2.641080099868368, -0.44922535055993745, 0.9255403035818935, 1.1219971083378288], [-2.933605558807701, 1.0415962831499888, -0.5392948274198942, 0.8543037117961159, 2.4472800799385643, 0.7113625150418785, 0.8015002139423673, -1.0110451932534, -0.550214468682066, 0.33853577416164987, -0.8360612146351487, 0.2564567402937923, 1.0130462517719498, -2.667047582164306, 1.7370338170655508, 0.21275701018431586, -0.3008589632857617, 0.6170365652731539, 0.7004777051334575, -0.459828272428046], [0.3492900880366554, 0.9376013445209647, 1.1597017269293992, -0.03292037832397845, -2.771707126290851, 1.8813040045613152, 2.5672866576768105, -0.21597713501104088, 2.3628099983390007, 0.7866235765764175, 1.1234629051478717, -0.613457108067426, -3.309234247897444, -0.023798990673031938, 2.7526659680969687, 1.3027944415191244, 0.28537714919546114, -0.2301488309177978, 1.2449688350079466, -0.08757982464513339], [1.2578271882559742, 3.2024321278190477, 0.8891592500202213, 1.725514280499882, 1.744399981016947, 0.9603245923304251, -0.2912203923795933, 0.6187974607682984, -0.5916136660922864, 0.47674233482689093, 0.7345043306463579, 1.7253743645008035, -1.443966669068449, -0.3459322931576715, 1.6282097236428619, -0.9797619158036186, 0.008390618141923269, 0.5988110180128496, 0.5911913830531845, -2.071991900211282], [-2.360892778065468, -0.5556413045564385, 1.1266609575938427, -0.5076741866894403, -0.47543044159261355, -0.4480738742561644, -1.954462303334258, -1.6700488468537944, 2.419807421730244, -0.7393293960844385, 3.8548967213438137, -1.0700662127729803, -1.5004208108254946, 0.230396798677923, -1.100951806273216, 1.261241878606744, 2.5533750140420794, 1.0034587119112508, -1.5279326257338874, -0.5559209111075428], [1.5119616045254303, 1.0976347306629914, 1.8744896111908609, 0.17041738760355357, -1.3563444360517598, 1.3072719641070818, -2.3790048452607793, -0.4947770792933729, 1.679129167751575, -0.41531011476229635, -0.8641894770422441, -0.0914714840346089, -4.620639361335015, 0.33035228682367596, 1.262826285911624, -1.102040838419191, 3.047483004240427, 0.6571821836268182, 0.7269423338661433, 1.763918790739777], [-0.08359773847677485, -0.6873362056186527, 1.0173300885907812, -1.0926835885012116, 3.783573710400843, -0.012077778477457887, 1.3838735266021815, 0.17126072821320015, -0.845991845326466, -0.049197669340652554, -1.0251013360413728, 0.4208322631684471, -0.167452408129874, -1.137685534542853, 0.2559768810558624, 1.147522924310423, 0.882415684645652, -1.6370020978692317, -1.089819621467335, -0.884746155014047], [0.3020617458506173, -0.7888134884085943, 1.6183681265945602, 1.627061487466699, -1.676075867013809, 0.7976687902930251, 1.1661137312905738, -1.4033263184373377, -0.5169785062287413, 1.4723923571838993, -1.1544119595148732, 0.12107362956990424, -1.7727333670264889, 3.0083066708341115, -1.024889208282275, -3.091076219916057, -0.9654879384928194, -1.2517775046032424, 1.2611620784811024, 1.095708247174053], [1.2387705368671533, -0.2075042063303654, 0.8421105527061488, 2.106221316600708, 0.17907392144068443, -0.28688970781221873, 1.6195341873419289, -1.3093522932220627, 0.716698389336707, 3.0129349809756545, 1.0248743953473394, 2.6214219562978966, -0.31174363501957647, 0.42314772877311274, 2.73122439210899, 0.3898824233568027, -0.6492904511170048, 1.1348350470511488, -0.6865536177942236, -0.17699583369026456], [-1.2110921956467418, -2.0370130567670888, -2.0594670748148807, -1.1382571735654177, 1.3423311672264062, -1.7009528169425552, 0.7676242571131359, 1.240041926742585, -0.14420255811662214, 0.2730061074996763, -2.8681835670048903, 0.3835879915065859, 0.7621062088851795, 0.8274363348190732, -0.03973043448028446, 0.27846474981542685, -0.8502200160663309, 1.2242984797002754, -0.36826724804614136, -0.11098521978712636], [-0.21466276173283652, -0.40866669650387505, -0.37091811353901094, 1.1634530015134192, 2.320711983894576, 0.7498542675805074, -0.6889956810642955, -0.12756284029698506, 0.8135216033393062, 0.8268693531426092, -0.6699216197365383, 1.050474055453769, 0.8112769222595645, 1.472001886240705, 0.8160727628016647, -0.1164233313344384, -0.0065635847374571855, 2.719173086011247, -1.4489982194169666, 0.5538384243961044], [0.08764362986932556, -1.203824804414772, -0.44624057038923476, 1.6694126536915865, 0.3379847980132518, 1.3954844124098307, 1.318141713454936, -1.4312897438876069, 0.3009461683672691, 3.1273728720424026, 0.7503318466294167, 1.4042802120001867, -1.6580696629596043, 1.0456260823178982, 0.09376371522932322, -1.0570773649419118, 1.6567125309229638, 1.1756508695202272, 0.056568460321745645, 1.5847256878214557], [1.0841785641973338, -0.7592619132004289, -0.9784281266943472, 1.1034351271388676, 0.6485248597068013, -1.9976402145904073, -1.6711427154178928, 1.4848654263800314, 1.781768117041825, -1.1496275008565002, 0.3246787660571577, 0.6928992271572143, -1.0947198073248463, -0.0535356178821551, 1.3198623230938715, -1.0940433656427526, 1.7026474655474675, -1.9579570705598903, -1.6075091119142566, 1.8671815364780189], [0.8002106428692974, 2.9098835657272657, -1.0190202695279744, -0.17392163267044658, -1.7527958914594388, -1.04832696017814, -3.2491041401853167, 1.0546613209563376, -0.4503826183137502, 0.875700725192875, 2.4969060319873204, -1.0253691954912783, 0.29278949395005405, -3.0236918122012346, 1.311627773541626, 1.6378736909333655, -1.8335460144342552, 0.7950527740917104, -1.2040679124421503, 0.5769325001881368], [-0.789085470004237, -0.7155887872745876, -0.5140985397211799, -0.28625463913378224, 0.29919854294678694, -1.8159475425783416, 1.3726035856656624, 1.2389303169788868, -3.1263979250349405, -2.824432514993555, -1.0084922567036243, -0.11514749786485004, -1.415246888241803, -0.3334778019110496, 1.6350982802232492, 2.2292907304788105, -2.9234855004310147, -3.738583502892419, -0.3811845516869998, -0.1333835051719102], [0.7742039902925844, 1.878339933680768, -0.7478417996045635, -0.5419252374896647, 2.527783335391362, -0.8854151531192958, 0.44276828799918905, 1.1746625928672516, -1.7298360193594329, 0.3213796001616282, -0.10516242676678955, -0.3310852166610316, -0.2838000477234558, 0.32623348543022834, -1.207973014247858, 0.4629330897444696, 2.3949125494700025, -2.2390123094787198, 3.4809875093742284, -0.845824089551908], [-1.5336138227182543, 0.666466500928514, 1.9025405020151633, -2.318176257545554, -2.1212193918426787, -5.208632506576183, -2.27071811235955, 3.0052085690837047, -2.5590778541841446, 0.13821188342457477, 1.2933319561769445, -2.010732537754846, -0.4770070359961737, 1.0710291876587845, -0.9064989286637177, 0.8341646222835274, 3.7658035628462447, -1.071627878674635, -0.7976552861533903, -2.758356650158273], [0.15798483137271369, -0.5770189098777238, -0.09798740106630247, -1.4068386118400562, 0.7031913111535221, -0.6329695986452153, 0.0024083256191799415, 1.5502464669828675, 0.575756818519466, -0.8108028268961354, -2.8239725980785346, -3.413327068177916, -1.3145433199960632, -1.0545344748183316, 0.5043683001331303, -0.9864445959304913, -0.5021632636337288, -0.03909870912498801, -0.2988140172846324, -1.376741623969618], [-1.2096747224617652, -1.9455927898313536, 1.7970157553991375, 0.0870263056544199, 0.8444971108184073, -1.2573634188802625, 1.966134176772942, -1.0341021463473943, -0.584800641522416, 0.7610508687955714, -0.7603689190455963, 0.35369016709549783, -1.3051455362902604, -0.5801815908128012, -0.7561679345983189, 0.08507887521553227, -0.03259160944815231, 1.3318051379437044, 0.3934567759399807, 2.3894512647732533], [-0.44369688307395994, -2.1250411264226456, 1.857640220931812, 0.45835003712802896, 1.0168167275210833, -3.0413517270943458, 0.2432103014437345, -0.035940807441018886, -1.3828016598784618, -0.05571614570012448, 0.5565898438302405, 0.13061922101340084, 0.8629165260942437, -0.5142275230254788, 0.2986805935619556, 2.5616569847827093, -0.4090655646939497, 0.9036027807199217, 0.592457371096945, 0.43732692934974604], [-0.5330614924779736, 0.7318288155460452, -0.10373222026157385, -0.057986271166508854, 2.7364773131374958, -1.2109233140000353, -0.4865289855750259, 1.8713976022888947, -2.042222384693453, -3.063510577730518, 2.2065467168567796, 0.4347579106894857, -1.7000067236690182, -2.157014013238446, -1.3989207651445812, -0.6084303785734552, -1.2274355468890552, 1.8673262835680964, 2.971005066443314, 1.0050617701303144], [-0.9277771434703447, 1.199280900897476, -2.6708221348465684, -2.3377353951185134, -1.2118617471176647, 0.19657818526315748, -2.0396297895559394, -0.10358110825969155, 3.0775498937017067, -0.49390503888130266, -1.3726408895970803, -1.3763331332608886, 0.8229166046914267, -1.9658103280100232, -0.9111501902615317, -0.13044064383266418, 0.1488154501105234, 0.24697131151274526, 0.7929393734513073, 1.0394147025676337], [-0.09635984431581418, 4.145257007514551, -0.3471292034277037, 1.113575222372641, -1.1211784888467697, 0.646232892561142, -0.6968951756861501, -0.9568293514028814, 1.82771350854298, 2.100119194814704, 0.673721579671092, -0.7628990208701194, 0.1632786615533625, 1.553031133342586, 0.3249169466909458, 0.18244688566933878, -0.29321122337175726, -1.2113740073829309, -0.5496328086742497, -0.7690428377159794], [0.8925630981349668, -1.5092311610467324, 1.0054201950038575, -0.27504899892421814, 0.5328202539353986, 1.0843541038033737, -0.5887261964366451, 3.2715087801569047, 2.1682404937142845, -0.0020044238393991673, 1.3429217137530043, 0.5300902839861531, -2.4530413934462056, 3.4130460210195306, -0.8583114390571971, -0.8012446148226919, -0.0850089629232548, -0.9308642547571903, -1.131939354259455, -0.2653623791376916], [-0.3211648521276837, 6.0755812593082545, 2.8726282234991025, -0.07922677448085746, 0.5177704435030666, 0.2542862870392483, -3.2683349799381, 0.23077287333510016, -0.8020681618766603, -1.1695066145232578, 0.22545432499448412, -0.31603741980665717, 1.9147982859640378, -1.3311957294915553, -0.8084830084775704, 3.488086469945262, 0.8291985789968538, -2.1081395617884824, 0.08912735132342442, -1.8717865249003085]], [[1.2617792731375208, 1.8061820614721265, 0.8423234391051813, 0.7837043657986263, 0.6922762688718233, -0.3781904132661122, -0.8092555328206211, 0.1684099466359344, 0.7345049765359375, 1.2338524857414106], [-0.5239232154226905, -0.750988072026169, 2.5500783331776153, -1.2394932059543553, 0.9414427089124855, 2.062509874067429, -0.12615124546427628, -2.8255495793432637, 1.0540227638162198, 2.1356013765005923], [0.8354136965275961, -1.0994275139604799, -0.0331384140904193, 0.9529878564142007, -0.7516968802329218, -0.8659259375947262, -0.4472901312340033, 0.01105295694281103, 1.0466197527985335, -1.4312845710249926], [-1.1948614980305026, -0.5932967081578487, -1.129484612350575, 0.5655812983826911, -0.14290347197501374, 1.7468258124449665, 0.1996747049460763, 0.34481378969288423, -0.8196577448400136, 1.5617167769181672], [1.046851127236301, -1.0603125439386218, -0.19619458878432786, 0.9970378654932306, 0.010686204547862664, -0.03497405560592171, 1.630842145695976, 0.8897472358605816, -2.2261182166036146, -0.6229114448500765], [0.08513380096568718, 2.072081910279519, -2.3509233551663113, -1.2657176674291675, -1.2812476160462813, -1.4417849787650037, 0.7082355092799588, 1.3361747540106603, -1.7533358905105048, -0.6823000108653228], [1.2137153149220639, 1.0579038045677236, -4.877864352983376, -0.012895831613758449, -0.5564220169300744, 0.9945788412912593, 2.532743108340767, 3.3506690473425707, -1.2751761176214818, 0.262078893075013], [-0.06525560215173981, -0.5791074842154795, 1.4450599678167837, -0.8417647046512107, -1.142813617757512, 1.0625690207869212, -0.48819152377572855, -1.5438309289096868, -1.2489470106145497, -1.5379466634459438], [-1.7293919900128252, 0.991526542733426, -0.6825937917993579, 0.3946624097741218, -0.3765220582250512, -1.500234909856084, -0.7009040884085465, -0.4193130472060497, -1.4605962530008525, 1.8377626429880263], [-0.899111927423139, 0.5037849827164751, -0.4756802789275658, 1.1857135648456225, -0.30572464972817115, -0.7516164452900026, -0.9360510618944782, 0.49608240460582026, 0.556688327928981, 2.7520719359290986], [-0.4034886899485442, 0.9184300587216686, -0.6527524119533166, -0.5163603783187378, -1.1953878495051482, -1.1146153703390955, -2.607665420212374, 1.3677582431717952, 0.6692204952077735, 1.2866760757415214], [-0.2953707741305343, -0.2079420289536438, -1.0398948647312658, 1.0859402135673883, -1.2420950634840464, 1.3820199976422587, -0.5517861922056662, 2.5351655773326986, 1.1644143116531087, 0.838652274168496], [0.6946320338767724, -1.4833954699441234, 0.6835092234177347, 0.8796242023179012, 3.213249986805583, 1.1421622212415075, 1.4321811240063385, -0.012719250790810871, -3.0062579812140373, 0.2977071705062314], [-1.4045915823253297, -1.0899468654813496, -2.51564348106933, 2.970861417617479, 0.1543127948795773, 2.369846957355049, -0.2954074123639853, -1.5433924165957156, 2.8877958952895435, 1.3154078419596356], [0.451015311008929, 0.76723969836667, -1.8282998466484972, 0.7416617550007508, 1.309049826293513, -1.5065110907692192, -2.289129515415078, 1.362238870832475, -0.25445641930324664, 0.27384097948878916], [-1.6177127925719967, -1.434947461313421, 0.4946524439480355, -2.8575171431649027, 2.308008581450883, 0.32004816893882077, -2.3001731809897916, 0.4769380292789001, -0.7881657471837427, -0.25375985584810223], [-3.3298063115348935, 2.2736313140192674, 1.4855032148575176, 0.002882509160448517, 1.1961348847304614, -0.270237205104149, 0.019847306940264965, -1.4831050326021735, 2.4311300687649795, 0.37005685474375166], [-1.8354369138856823, -2.762640586589079, 1.6641741657024975, 2.1100611674571774, -1.8545859573865635, -1.4390940467317581, 1.1673692793883172, 0.38126122937560014, -0.6632211604691367, 3.244139564950518], [0.8903241178758347, 1.82586324283749, 0.02985828028053839, -1.3858280897389363, -1.3436225005302131, -2.6162684960850493, 1.652804676339231, -0.5901137831187956, 0.9003012741985732, 0.24293523949957704], [0.18156892765252688, -0.6833145836826021, -1.000276408117978, 1.4829658380196191, -2.4221622873106274, -1.8591423788046728, -0.04928438991875086, 0.0966778546126917, 0.49777753362035837, -0.592312153567643]], [[1.8761470988213778, -3.0003624916472864, 1.2896823764158463, -1.7934294747372561, -0.4956253454722035], [0.21732041448897138, 1.2131500318166375, -1.2088269245204366, 0.45016678631165247, -0.6258213733433031], [2.9136743736051227, -2.520035118231328, 0.06100965788334973, 0.8170258117442015, 2.9410061757936017], [0.4505966268340916, -1.2672659014650256, -1.490157026136004, -0.5389604465756517, -0.7661021774938491], [-0.08669118096297339, -0.43393715364840074, 1.0270118491295408, -0.7314296706988769, 0.5477251987835353], [-2.434550491695523, 0.8546422458523234, 1.1984302363631611, -0.2958116700615352, 0.06394070951764708], [2.0018247511985257, 1.6358165654329142, 0.22145006672283496, -0.056262804291383244, -2.070205834312513], [-2.46142447242464, -0.09716035815453807, -0.31455005307309536, -2.1421182701059838, -2.1941743216297978], [1.1567609046196543, -1.0672161940027969, 0.9088300896333151, 0.1120938790477053, 1.3326174295360673], [-1.8920097643746752, 1.337476700289541, -2.929166948008448, -2.569965938811143, 0.4319366705533118]], [[-1.6980446506545337, -0.10278377285958488], [0.2275654359032213, -0.8047396401947122], [1.1704223915861083, -0.5263441809710881], [0.2438576743765798, -1.0677632994389836], [0.6059199179887582, 0.850871362316618]], [[-0.06742861471898642, -0.0006248265714202675, -0.6312392446306496, 0.6368918915610841, 1.1463361497558857], [-0.9427542061528209, 0.004184043768825675, -0.8878417322601996, 0.1359119782574174, -0.15733312128516955]], [[1.9192559185422258, -1.0465341766358274, -0.8152657239868959, -0.7804106490475274, -0.9151727898410892, 0.2531724243522483, -2.102800149358532, -1.7164502290301662, -2.915604009423437, -0.640501740070871], [0.85797828322776, 0.30054528850281204, 0.29975472683889665, 0.6910725740117019, -0.06387314108130095, 0.33624891007177427, 0.12454989302776415, 0.29636269978293583, -0.22438835474909688, 0.44603640257072924], [0.11982704312428939, -0.04528910839215443, 1.2678653592315245, 0.05978068269508517, -0.2254804335214172, 0.45681237147137027, -1.5834494310410703, -0.5212831319457789, -3.206928816776888, -0.5973600185875967], [0.5616207075760276, -0.5299409486005732, -1.2764004244244818, 1.1578757355009388, 1.797025562981317, -0.6951225381897028, -0.8669971483451424, -0.22453188436793042, 1.0755261577667528, 0.4122292168256173], [0.44415379991632814, -2.1082598397978485, -2.827791404198381, -1.4615696992758411, 1.1449886951056618, 1.8152327360079643, -1.6423791066999347, 0.41608807532126785, 1.1713506774984022, 1.1712451736752805]], [[-0.1174672804190131, -0.5744699520288381, -0.7092841745780525, 1.98306250143842, 0.4620186175898827, -0.10101074207238303, 1.3792901277756096, -0.6863317364353275, -1.9596873525117866, 0.764694764266888, -2.166349526291694, -1.4479946526466025, -2.4922410008049956, -1.843897673873233, 1.6009371439446258, -1.2163671817690405, 0.9057304484235406, -5.464154829966572, 1.0504180731286088, -1.2397655783043307], [-0.3681153408224978, 0.4894613784526927, 0.31447264422286586, -2.7756096100423915, 0.1585196021978671, -2.2207026565411945, -1.181479538912477, 0.7963588762648867, 1.4581243897202305, 0.2811049985007289, 0.19376635595616112, 5.262667170090819, -0.2366783455644775, 0.5633565988606928, -2.848563993987868, 0.44055462396080625, 0.41389520976675104, 5.243898645821805, -0.10798369118537454, 1.429079825112072], [0.29672083435266655, 0.8031338340365948, 1.0267210515884768, -0.18158290143520484, 0.36326664764329286, -3.394627562044373, -2.065778975233237, 0.6571030038783903, -0.966288144117697, 1.272739573686136, 0.40243674989807565, 3.1288740602815284, 0.05787813365549944, -1.5193446556440233, -5.256162391683836, 0.4574900544532415, -1.730120144779781, 2.2991613750924347, -0.058688804981773854, 0.6715851228235099], [0.3479749365167857, -0.8235258223286633, -0.5831851432699813, 0.07307362820293554, 1.604340132185708, -1.2248710358827486, -2.1433950391697896, 0.04763896842453477, -0.39958305338727995, 1.3595330462609079, 1.647622076364444, 2.363378594182548, 1.3490662276123564, 1.6332312972974092, -0.7975814162705671, 0.7718560796390481, -0.8700875984747352, 4.064807432014702, 0.34771342239200864, 0.9898486746523946], [-1.3865546674162077, 1.4287282577211626, 1.0555316392323673, 0.7369922411095372, -1.018638641832464, 1.7749510211941042, -1.6356856412414484, -2.4859770610342355, -1.2667055340538964, 0.43390187261459473, 0.504074111067326, -0.32119424735061475, 0.09285355912152661, -0.40097268278525716, 6.6738208379955735, 1.1248170290319326, -0.1031133947309539, -1.5859139586018531, 0.8434259546622371, 0.7904020533406916], [0.7897663885425952, -1.1222450960893782, 0.43501799782946465, 1.4262474596006904, -0.9333656494701554, 0.8899981522724855, -0.40690833987207997, -0.5421489537580341, -0.10075781894052137, 0.9455793703404991, 1.0096545349911858, -4.910798716378807, -2.071098811258422, -0.0708688128571222, 1.6922893518698168, -0.3089816181392394, -0.04027837124532117, -1.5539415891986517, 1.7906878881665786, 1.0077657375333418], [-0.038805960876163836, 0.40054729791284516, -0.48685842754248454, 0.8986715314621718, 0.5026482413510002, -0.1705843755991342, -3.33303775556657, 0.7080313251929613, 1.3021974150358615, 2.2843682354187336, 0.3653131343550313, 3.9231355204781764, 3.0563772951772754, 0.02398060298652541, 1.4268154143272522, 1.3895077202200636, -1.1691063730317164, 7.970142311520144, 1.5660528475050337, 0.769956150503492], [-1.931463659393037, 2.5086064513371102, 2.0207517451882575, -1.4257891713787765, -0.46882584371157193, 2.1159753396282346, -2.7963958995200815, -0.2091938769416346, -0.08293772045206609, 0.38947026193768164, 0.2927166648735401, -0.46006866164943255, 1.7072043082604145, 2.098283763912939, 1.8077676643204028, 1.1299819652964853, 1.5664245361482725, 3.6804233383949905, -2.613718913115121, 0.5949059613280919], [-2.9325185824783757, -0.5312874714464454, 0.8353172755862367, 0.5920330587631231, 0.19417986582492078, -0.31711462013735225, -5.953335594818119, -2.4040263326357625, 1.467372186645407, -0.17906143366183205, -0.7043952066669128, 1.4236959676138128, -2.127701889562145, -1.3135964800591835, 4.58908371431833, -0.6743985914615547, -0.7361749288115563, 3.434758532585103, -1.8640903692812503, -0.03112575533299449], [-1.1103934867451366, 1.1581390615292066, 1.5458602903276033, 0.7327558539856592, -1.6709814872727107, 2.33051642924242, -0.467570715367177, -1.2266504522829689, -1.0629555508378135, -0.6702300628023398, 1.5419489895852512, -2.018096094595999, 0.7742369226452108, 0.10270102470140013, 6.1842637166358685, 1.046311130374247, 1.0002730661580077, 0.1922774196134122, -0.9232806348827218, 0.8981778237976347]], [[-2.3018277889104573, -2.766862857538327, -7.493839658927676, -1.7208419232135426, 1.8680602110525855, 1.857825176910365, -2.495080846344317, 0.05037941462537736, 0.17468309270984683, 0.46628706680665377, -0.6247467382478469, 1.4370284150299903, -1.6204672676635739, -0.8680637803554613, -0.8146279008554684, -2.1339822475716805, -1.700448365584765, 0.41266647653494615, -0.24773966505194844, 0.940867844093135, 2.6660343199676713, -1.9936878646194296, -2.0186728712590676, -1.8101183226600497, 1.3724714582449944, -5.186096046854916, 1.1832539882316493, -3.065446363914252, -3.287323405206782, 1.2712461169774505], [2.547902825074201, 0.30192360242294136, -0.20332799837599008, -0.555512133383651, -1.0800690127443797, 0.43697718469165225, 0.90287569461249, 2.7047325284758736, -1.7949814636622061, -0.47008266908331553, 0.11422400288719953, 3.9511954031338394, -3.4425259899627805, 1.4300755048893565, -0.8329876089489242, 3.816078622157046, 0.8467518989454016, -0.5475772805395981, 3.8062898872730164, 1.7758361880489235, 2.8968212444808654, 3.486399745446159, -1.2944529911204516, 2.289958136351513, 1.1016624404408948, 5.739572895638126, -5.285883125964966, -1.1629573919815623, 0.05102790403804895, -0.7656867503935177], [2.3400376689645865, -1.0448532092210057, 2.6089747727089225, 2.0370512369487606, -2.58312539386665, 1.145402011930621, 1.9458675565109005, 3.360623696245925, -0.32318224753261837, 0.339235510398287, 1.97843374375496, 1.0244459486630784, -1.877176026958242, 1.8930267029987784, 0.2827222201935992, 2.6801962736905947, 2.4640550254363704, -2.262348646502364, 1.449889493973877, 0.9702615004325282, -0.3185337404561461, 4.5004365099572, 0.73190381555023, -0.34678771422046567, -0.036350768181265286, 0.9516937311928431, -3.150145279766642, 2.156535074323374, 0.19490084809204022, 1.4250479045299183], [0.45402035148115016, 3.2178142043759332, 1.530310182908381, -0.8246343974118892, 1.3019019016701305, -1.926756752294157, -2.5181485051058607, -0.9191404806343381, 1.7735091205816267, 1.5968654379101577, -3.7110503683090834, -1.0543856457167167, -0.38422508115644305, -2.3812536006150355, 1.1118517777045458, -1.9455786587326733, 0.3686161550387354, -1.4561611274795352, -0.13597477731852728, 2.1628535028394786, -3.352946859851567, -0.9131997637586706, -2.123853992158241, -1.5635375889213121, -2.128384126772548, -0.6529584175133847, -0.2683284960271434, -0.05530303506534972, -1.8574208567691932, 4.775082012861911], [2.1194490956468304, -1.9293668138812352, -2.7396267745728884, -0.4192643987479259, 0.44804962632911627, 2.284400952094246, 3.588452109332927, -0.09150882347563889, -2.1287054612601644, -2.313149938281344, 4.087484619646462, 1.481781606923206, -1.3141328285312066, -0.6686579719656146, -0.9125870854492848, -1.2097951196515941, -1.6589520377628133, -0.3580501985762463, 0.08993267088927466, -2.5553305031013225, 1.1346538144302158, -1.354537243209048, 1.2472625651828897, 0.11566851894408492, -1.4912278908192547, 1.3402888146651173, -0.603434559314533, -1.0913711048601573, 2.250013724471775, -3.4998063636347054], [0.829670209176749, 0.8111559576738636, 0.5647499169611161, -1.0541290178290665, 1.6996964550530307, 1.2258822072747197, -2.1122363013354133, -1.8092890212814747, 0.01242586853132421, 0.38055173953146076, -3.9636130810451515, 1.1311349467877982, 0.3206388272628686, 2.4736855036504815, 3.1855684258600028, -1.715201279322281, -0.7863496347543499, -0.01160839416446888, -1.1262887632013199, 3.164527546458289, -5.755527070711235, -0.08716522034502452, -1.233187979672605, 0.28598848728748033, -0.5892738644724976, 0.9002220003524743, -3.0671268918179204, 1.2906656778060348, -2.19003589502216, 4.520380919301655], [5.563736012278854, -2.1890512093783667, -5.092954616215114, -2.5138898225805084, -0.9455648283677505, 1.5246868998572933, -0.28926334885604593, -0.7942198283427465, -2.155359574651112, -1.8817554215927363, 1.493360399627464, 4.607455342925065, -2.5498391859947542, 4.167697163894758, -1.7812905103027252, 3.690897138568297, -4.36126121873163, 0.7043426322858402, 2.292089570458639, 7.415871266818808, 1.6998883590482439, 2.5205526493902433, -1.585938428593516, 4.041456296908611, 2.699539921908854, -6.496920704534142, -0.503263805254715, -6.0496612377052355, -1.481524999817048, -1.6761799241601862], [-0.3722803877438959, -2.5882129209484623, -1.9172931241189386, 1.6531323205390829, 2.6876297116511596, 0.31107653650248934, 0.5567181458937286, 1.1438623113656339, -1.3965830846154719, -0.446922175901188, 1.7040306746339136, 0.3678935669199953, -0.7799211095461027, -1.099056282626636, -3.4011366141847392, -0.3484755127216883, -5.408994357343338, -2.4917102476333124, 1.2837339329739892, -2.2112997702842, 1.3733051814340755, 0.9272951357183216, -0.9215339829502145, -0.08051761886076896, -2.1209468448894024, -0.9987407305323286, -0.5637149849230044, -3.1228225959878575, -0.6159249505101584, -0.7009938611883098], [1.5421821819230133, -0.1959676836857022, 0.49537873344230265, 0.14601270856746792, 0.612156309756604, -0.697337700528229, 0.6623340074334936, 1.0930292983025311, 0.3005096291025458, -1.3543873551226828, 1.81872124189933, 2.2141049351072972, 0.19702453074253187, 0.41409035611893924, -0.7037547885411921, 4.262037262201221, 1.8243792657457572, 3.4049417889048588, 1.5350512079188283, -1.2948089907884024, 2.5130591719415176, 4.610591965588919, -1.5056509457945784, 1.2881203343606131, -0.6176714937483364, 8.867125296225206, -3.702950558625671, 1.367197697716524, 3.2866223814112696, 0.206058503908898], [-0.15183099931627164, -0.8600782988023916, -0.75999975394419, 0.8167451558595185, 1.0008401542772891, 2.3078385413789264, 2.4653866618344007, 0.15563154087357275, 0.5792787677057404, -0.8979786955108293, 2.314400280873098, 2.7266730105404227, -1.8394022784193977, 1.190573789616146, -1.0697705002202569, 0.8475795635746333, 0.07818428248534001, 2.336154252410706, 2.657570540494636, 0.49815357022775475, 3.0806122242313667, 2.668122545508407, -0.4040228523998271, 3.709777024781065, 0.1673106551461399, 3.7071475955292037, 0.26207223311473316, 0.0007519432879852085, 2.0146755662530893, -2.215236615844393], [2.6909464663652436, -0.19749414619319267, 0.7723298187497437, -0.5951322553043873, 1.0430744188686383, 0.7641027809448085, 2.136166883059642, 1.964561671000671, -2.476239816805829, -0.5580664192969219, -0.17455546886937343, 4.275788917725835, -1.2522079599806957, 3.9908367422357625, -0.12025752739327936, 2.821644244584222, 0.14763185405014587, -0.0697725437443124, 2.481030099395275, 2.2141388277805216, 1.3816856266428699, 3.245449766873848, -0.2037304233407135, 1.876399434813259, 2.819038044654753, 6.928594832085434, -5.521564722795055, 0.8520554586350702, -3.5259142669461934, -0.9976419622581184], [-0.767181166955782, 1.5514743170153975, 1.0144481332557207, 1.1767096466255578, -1.8644654092745316, -0.23605514482153064, -2.313668707283726, -1.7932559626008338, 3.579858989605095, 0.9956774778170999, 2.06121681812951, -1.2951229176720005, 1.577558409407231, -2.5349878197599653, -2.5668432357294795, 0.20190650873402397, -1.6952659231566265, 0.7258675902326736, -1.864762585087827, 0.6969324653707043, 6.697291175718951, -0.8172536384792187, 1.905046964886768, 3.1859889691655163, -1.95602739567538, 1.1328405354989524, -2.0482529414335087, 0.27199284384944517, 5.045277077754488, -3.0782187512701005], [-0.3033421742118703, -2.2233590007447335, -2.222719324174878, -0.85745894273506, 2.7691601327752, 0.6732785087703319, 0.43406325094566345, -0.8958601388077205, 0.8763296312488953, 1.3869457323631773, 1.9378853633460926, 2.4989002188598644, -4.384392239826138, -0.5672643041376035, -2.4119632498494514, 5.631393702236979, -0.8264757627449658, -0.9263861396219369, 1.2408590977003262, 0.6787307373577897, 6.493865952146592, 1.7677513622907375, -0.5130868826932236, 3.5587315901270684, 1.6303753916450947, 2.455380853414622, -2.3397258125380795, -1.3087981288420838, 2.5001643306484747, -3.5890886451874517], [2.4568607848328408, -1.5024514276713068, 1.473536332829657, -1.539591048654284, -0.30625723709835223, -0.11453866832269004, 1.1237489869118558, 1.7507040932068783, -2.4510319864322283, -0.1267589100478855, -0.38413732761007263, 5.37004144875141, -2.808279801474282, 7.137927041889601, 0.5381434308040569, 3.08972071407874, 1.1281694480010918, -0.8327695760841525, 1.6745938851264226, 3.229693272418743, 1.649735170735299, 3.646574015840713, -2.5451804702558287, 1.3665295927518983, 2.3165255014082247, 6.238588250986566, -2.690790027201883, -0.8406206477300313, -8.34386842232993, -0.5024870191473679], [1.855253643700581, -3.548411107720791, -1.1100021027851037, -0.9051954497737954, 2.921049110531527, 2.378595524103045, -1.3194385936883937, 0.22832561247702504, 0.6934194405183536, -3.39822127958603, 5.671446286195965, 1.4917825219386842, -0.7930664435232136, -3.0161994957682867, 4.14385626338673, -0.21199265706123094, 1.4065984334319397, 1.307260577179009, -1.5464115938859264, 1.2749388214635207, -7.15544250684859, -2.335266385325516, 1.0576531586280675, -0.30852856514446186, 3.226862983594852, 3.5012346827187524, 0.4911150757115804, -4.46938975234976, 1.118238870068946, -1.0069706981381652], [0.403600541703423, -1.0176313185511252, 0.8385593666547988, -1.9490702485997151, 0.4768539966442928, 0.11601647283694226, 0.3515959988891313, 4.50872767233683, -1.4146908214815805, 0.7869722134200606, 1.4547147838822492, 3.792690231133905, -3.5493594760493474, 1.3675708440837124, -0.8368239359347501, 4.880958803094051, 1.4056135265389205, 1.757987170349374, 1.8976632368933086, 1.4487878014111735, -0.8036180078029078, 4.717652500698676, -1.5078559257998465, 2.5024044677046495, -0.7344094567383227, 6.632747410806638, -7.118015799144696, 1.2289085697104274, -0.2370070856809563, -1.239071937323901], [-0.4133757699193901, 0.9005635770803089, 2.297496069465713, 0.8213778335348187, 0.4025680259591237, -1.2070378479207444, -1.8110887276272034, -1.568297246094116, 1.0276846229206116, 2.884763787782424, -4.503848889923657, -1.1076340821042534, 0.30185366312909423, 0.4513601848476803, 1.0760276386117236, 0.23605436876096056, 0.26208299191444434, -0.577279862687994, 0.13569148179678595, 2.7105996672690256, -3.849584495219507, -0.8765128732186869, -0.5059503245807836, -0.6734188086385895, 1.4474552727275825, -1.4241763418804845, 0.9607725640614345, 0.2984619561148344, -2.7505079468551648, 5.127746576543957], [-3.1896749269323403, -0.5892201961039086, 2.4810466178718666, -0.6112512866580615, 2.786916085693067, -1.4125117029526395, -6.24724244377498, -5.748120331921743, 2.7001254908205876, 0.385232791860731, -4.427795352775314, -3.201978714837954, 3.7632271013308847, -3.7250197872556248, 2.108005220176248, -2.7137249998284454, -3.5434867282815787, -3.067933028450141, -5.455272332325197, -1.2928392995498599, 6.62676134945126, -6.977618982970288, -2.78689816808096, -5.018264062783113, -1.5384270773251199, 2.1162826593458033, 1.1453074245792072, 2.321617061069278, 9.669463509797597, 5.680043591497992], [-5.439156446489483, 0.41433008824611395, -6.473683819010903, -0.5972435571753295, 2.4611822492954145, -0.1776756455528732, -0.6355952640135206, -2.7755276907712454, 1.2850716818642782, 1.393750111711668, -0.5783172199337384, -1.202112318413682, -1.016624434105958, -2.4081421989509217, -0.582635603516577, -2.568137962524574, -1.728612520827949, 1.4408178425048956, -0.46708351008489235, -0.7270131483473392, 0.07258919287120355, -3.800623067445474, 0.049150560119919695, -1.2460051904205398, 1.2127663836677751, -3.345985074845989, 5.391347003535364, -2.785659161835121, -0.11353110140926548, -0.041255169015984146], [0.38581476867463016, 0.30690129519865256, -1.1558623388012461, 0.559082349228147, 0.9136253544822935, 1.027784494823387, 0.8782755135680764, 0.052071906570252784, -0.08377371641169434, -1.2530944890816011, 0.5860370412301469, 1.59073044525491, -2.4724489997718058, -0.4111500447786497, -0.26602112510288684, 4.7010315594372525, -0.5620706494067346, 1.1883716469712446, 0.4768610363712033, 0.9642771286679906, 1.0717204841093875, 4.5407074383469945, -0.23722248187016162, 3.6633198325501306, 2.157878521362641, 5.67657671502763, -4.389798199996732, 0.9116575498715789, 1.9831823684260403, -2.537211565910678]], [[-0.9208452205868077, -0.8618842510504159, -5.206614646228957, -1.3691882500250785, -0.996805511991447, 0.7710836556268005, 1.5689682095966697, -1.892163225375508, 1.3924540325397485, -0.20625688512779813, -1.2295462905736299, 3.5052588937008466, 2.0899664050819737, 0.07846919244179103, 0.9399550903406101, 1.384409768940638, -0.07994238248754584, -1.7888537825811155, -3.2620079072230372, 1.9304126122165575, -3.7792935109300387, 1.4500115180889845, 5.313821655182932, 6.134606430171414, 1.0466222453112786, -3.117360059022814, -1.6035068409564601, 2.5962517788524884, 0.37787825017122634, -0.24461044683469688, -1.32690238427832, 4.0728013452821274, 2.181142450509913, 3.7737213973766686, 7.252929858999804], [-1.4034026686185892, -5.623470645544037, 4.214089618495371, 2.6020288343003015, 0.4520446642722864, -3.5969670036088446, -0.4664591293367815, -6.5701839410057605, -0.660313505025333, 1.24787032819183, -1.8212661496867573, -2.634708769294959, 3.8838234331663894, -5.8717851339691505, 3.9935379567927893, -0.11921674023554776, -4.685642599807045, -3.60907372149549, 1.1416335797748078, -1.9268932759032316, -6.496193185115941, 4.345277727416342, 0.4002304089077523, 1.8314146298615672, 0.07339545653558491, -4.595526076384982, 3.5019506997641683, 3.025656469662745, -1.829061400495579, 1.454412549215442, -2.40469676844254, -6.295952633401814, -1.7380424991267944, 2.67929367464944, -3.0582253267064643], [-2.597790172002647, 2.5599931011492196, 1.6163983131893105, -0.9579446312011813, -0.7631335769676887, 0.4152432307936577, 1.7378340335516471, 5.693574804384657, 1.0114683618759641, -0.1906714106574623, -0.5176044332954378, 1.0274521818757538, -3.148165746774527, 6.969118851792218, 2.8341390753045865, -1.4418472591392517, 0.8183927497816846, -1.7787209608851924, 3.911298879748116, 0.37652063050108847, -0.1178573477831844, -0.7319498038559796, 6.198110542351318, -2.689799510332187, -0.5896862698649252, -1.3527666020211533, 0.8008512261604918, -1.1123337360407484, -0.9690343448105077, -0.6520800860222039, -0.5213902649638924, 0.627414777480018, -3.0452760416421416, -0.2970668599243697, 3.214881568484534], [1.4239670352771099, 1.611824016158218, -3.4209660425724624, 2.965175901472479, 2.5406392048959927, 0.797742648543275, -2.573665885796866, 1.4282818797633536, 4.7776348120135115, 5.552316097833935, 3.8588377248027372, -0.2232630559676208, 4.283208633643806, -0.7052704077656066, 6.803199931264344, -0.08270706736657937, 1.8102952664622103, 4.485396998058981, 3.3953045162684963, 1.9390566239314062, 3.414677220332925, -0.26860549618171276, 2.8832943622237326, -1.0474484641355581, -3.1187185466910288, -2.1738740997247485, -0.20670516042665735, 3.2497888454600847, -0.436248170170168, 1.4582098260893657, 2.3608952467940454, -3.418186352003897, -7.705342332211496, 0.5235712444936241, -2.8586713320576984], [-1.09889997248957, -0.41391146435355974, 0.664171353067926, 4.657716118885643, -0.6947347121721595, 7.230709741504318, 2.1857133081178426, -8.108454598229875, -0.4931777974588951, 5.093486197065364, 1.4161526564713907, 3.16474705747369, 2.6320188604636443, -6.226382338698779, -2.7255227528070574, 3.977631714614249, -2.745769049565206, -3.8307023417307624, 0.12519325362038364, -1.1163978483887922, 2.536009362645265, 3.3634747075618554, -1.2058106514450366, 0.088619969231728, 0.6781315214927316, 2.244909872187316, -3.1392740623789783, 1.931118676346212, -6.543822350491149, 1.2427213229810767, -3.273133140371019, -1.4814522584140308, -5.485232448989524, 1.778022884299578, -3.705696256401394], [3.3243061017114903, 4.324379745784706, 3.489982102321547, -0.9537302138302601, 0.3406359741246148, -3.3538575666616257, -3.9942899973433463, 2.0352541128204966, -1.1928023841487443, -1.7591972559672067, 1.6882605165808553, -7.3969477485532895, -1.1364901988770613, 3.9080640260077337, 0.6764110544223574, -1.3960071912202725, 7.893244337322697, -0.3492407684080653, 6.137083951538042, -0.5243733579771257, 2.694964852347411, 1.1363898378402963, -5.171827685702973, -3.710236608787492, -2.950396493113753, -0.4000862551444398, 3.4367813394162536, 2.117504296155286, -3.243276223075891, 1.4686120450592912, 1.885002168183088, 2.0248824868173685, -3.462477740922457, 2.3659074674441993, -0.6806351264132231], [-0.04031813675949074, 2.4842799689977237, -1.2942527307283478, 1.5581194673219227, -0.06463143858630037, 4.257945742472963, -2.4393994026042125, -2.5728791740284898, 0.26427286765369545, 5.413279833815639, 4.55159134920788, -0.7546691632620128, -3.800312082223461, -0.8141058753120141, 2.850580644398652, 0.02565060759587411, 1.8360041881326588, 4.427587659990354, -0.3861644447909402, 0.8011556049034582, 4.39917766542883, -1.124054451052854, -0.7170306065394687, 1.666361592868484, 2.9332506744269793, 2.957365688936077, 3.6433292737576113, 0.5155512558390818, -1.4659986534705152, 0.4928098689702022, -4.10502257218766, -5.1724006802982565, -0.03365907424921204, -1.1033225810391591, 1.2066288787269808], [-0.4611115691476381, 1.2313009841111144, -1.1962027017213457, 0.10797269386195968, 0.32755819919787044, -0.04336664049641794, 1.7051946439474035, -1.3311326518598823, -0.21948178033294996, -0.9009683907229834, -0.6385227226342346, -0.5546827014443909, 2.56608457317994, -5.488684168516651, -3.9515987204323717, 3.0588443826539162, 1.9282851474579648, -4.0557737684824025, 0.8535189255816924, -1.7506318561259846, 3.3640887679507507, 2.6306035687731577, -1.0823436064225573, 4.906004462616291, -2.88470521933736, 0.40022943302377234, -0.8842391194772168, -3.356697417052325, 0.607516026200004, -3.4515993820452135, 1.0570526130682696, 0.9441103927340065, 2.8857966577103578, -5.111815652936714, -6.354555907679972], [-5.100857941565261, 0.7849615748358452, 2.0308664368336267, -1.0627039867655232, -0.9730041979178048, -3.586198983438072, -1.926120240086384, -2.8681931343617437, -8.032830765904876, -2.0781104556973147, 3.6063051966757995, -7.686503262186102, -1.1011573557109426, -1.5255133030303587, 0.18174033772950868, -1.4226881763973656, 0.21043945701476094, -1.63974709908669, -2.9706220300563357, 2.846681176855743, -0.7800361460801268, -2.8866616125969404, -2.568519573993712, -7.5338475704460635, -1.3441074111704465, -0.5996944135310861, -1.6101127119906329, -0.22322136948085514, -1.780119407861303, -0.4404989262327295, -4.617658061719667, -1.209499173352331, -0.7832204331139517, -8.060436981771824, -1.2673416148220864], [-0.3576277910955791, -7.015725784310739, -0.0005037025518200445, -2.0757082123580917, -3.2375519890339723, -1.172466793953089, 0.5291200842206679, 2.0111097703106657, -6.354354724792725, -4.726465498882135, 1.9534986906186709, 0.9287367433720779, -7.106658075199909, -1.9646627144815008, -5.6886578004394375, 3.3531360596758866, 5.234214624551288, 0.8472915470506941, 2.3225195251465935, -6.793030340556971, 1.3196202702574173, 2.211815950697911, 0.38357594640776904, -3.6197265468411506, -6.915406158694175, -0.3982178792791136, 0.0925211284512613, 0.4479730715857369, -5.488183470413256, -8.645245124546628, 1.411574338940008, 5.270686073125447, 1.3356630685337623, 4.603171498326082, -5.0385269767401395], [-1.1196652861434775, 5.476019631025932, 2.4309417623304945, -4.3721521175323295, -0.04349810362501675, 2.6357398426701146, 1.7892283303819316, 8.013763495675681, 1.9538353686956351, -0.5834030186585047, 4.014578621558699, -1.6744647499755898, -2.341754521840101, 8.070976978416143, 0.7982127832767858, 1.5990891407541117, -2.084501078239791, 3.389453310199206, -2.1632959999425547, 2.402401620677451, -2.6442869861064695, 2.941250014304935, 1.8826553054710067, 3.527094240643945, -1.5750416325109902, -4.865784521632737, 0.09862051784827092, 1.6298248547098084, -0.7192329247806908, 0.12171453961864262, 0.731066690865137, 1.7696889267008085, 3.2509080803739447, 1.3606697365893807, -1.987984232086329], [-0.2957303658139828, -0.5662573230172226, -1.1304522836037671, -2.8343399944340764, -0.5489985444644657, -2.1949707218931795, 1.3126196250108249, -0.031424881843993085, -0.29875722004842986, -3.597673681296624, 3.8241680547480286, 3.426314102913907, 6.560016402059127, 4.504463774660726, -1.7489339627316205, -4.438450832017985, -2.0189561303375676, -4.336585739761263, 0.3961171664514457, -1.9126201570084065, 0.01566581068732482, -0.15293891024365328, -2.7796730347621312, -3.734789487617401, -3.836184871328639, 2.660827643004275, 7.660919559359582, -1.2728795795664676, 2.594884232075254, -3.5329789238099516, 2.310618486814012, -2.983015740899095, 5.474621239605124, 3.5743099254804997, -0.2716058739870749], [-0.8183759150374849, 3.2403592659943583, -7.139475350946007, -3.39557284751835, -0.4890431080711173, 0.5157400232909851, 0.08605667088822161, -0.16052704522196215, -0.7191794904652191, -0.7922635093393234, 2.293827209992695, 1.3037994495397085, 4.080489746328848, -1.4306031949577038, -2.8715751675906294, -4.30682151098912, 4.523908912467763, -1.4324898302545697, -1.2961215185394277, -0.2856894135790205, -1.7712442034051632, -4.151383380312439, -2.1821605391268752, 0.12499307004442047, 1.2503812977587005, 0.6991434536921132, 5.233696839887023, -1.2481161803888297, 0.7721713324985301, 6.042991360872481, -0.8023449822907947, 3.188276700907142, 4.208407374522113, -0.9661475195414819, 0.3105093292273783], [-0.9444831864671067, 9.704496065682106, 8.542743316972224, 4.570796148462025, 0.1978521824597579, 1.2865290771409579, 2.0803666266238916, -5.092095152949987, 0.4066039572598989, 3.8017390933349047, -0.4508974962958296, -0.9883578553527985, 2.1080622381734258, -1.2173629858727735, -0.9475133922880425, -1.8670377179305968, 2.2116512766494805, 9.492535147569392, 1.600346542595285, 3.7736456245615626, -2.903272803750785, 0.9675138675795993, -3.8914568067625193, 0.23991577980009293, 1.1271613254581876, -0.7985073944820574, 2.45694873060183, 3.4392626149498495, -0.5457956581451237, 4.0408723710998995, -4.698051075574277, -0.09161759339863798, 0.6339648897253852, -1.5068019889367663, 0.21357915559532759], [-0.9021514066372223, -3.4781676033050672, -0.17501987093712232, 0.37962217505707435, -0.5659959231477621, 1.2917553006699904, 0.2560723112726512, 1.9150740778304012, -0.513535046706166, 1.2930140186640189, -2.9756229287056515, 1.8859217216314375, 2.86147918570414, 6.9104100040787015, -3.869935871432433, 0.7170109927267606, 1.8987173592948179, 3.8028717358839614, 0.43110132760555164, -11.787601012347396, 0.15416090527554838, 1.586455105816143, 0.6952560350505852, 2.523549153166117, -5.9258021537440735, 2.392822669449883, -1.0378103450027312, -2.0451788339016796, -2.51209181200487, -1.918487934236548, -1.0924849829983745, 2.085509284671931, 2.2963779220619567, 7.124599493746332, -3.6604275507144735], [1.8766177885852768, -1.434376268140206, -6.156533782943035, -0.23369075776060247, 3.8137866195206183, 0.2871750971759343, -0.944709587499841, -0.7388720269985417, -3.5355186973517405, 3.617707291415356, 2.165501505129066, -0.20064812418802971, -5.027321385716792, -1.3960511397432538, 4.149476113723196, -1.2459792936340348, 0.5177779818479694, 0.6193397371410815, 6.959903559194607, 0.37086449512048847, -2.1370687717154313, 3.96724870506758, -1.2314840437520342, -3.9671274697260253, 4.29441621434428, -5.596476547674217, 6.794946089244239, -5.222170821699783, 1.2615898002616726, 2.1312899574346176, 2.509276760034596, -5.740651636213254, 0.1624372504198974, 0.9395605716630838, 8.627151225321388], [1.8821833860954817, -3.8403229915824992, -4.001695936656808, 0.4148587353841404, -2.4946550056674592, -0.08274133163013517, -1.0495904036525132, -3.5183883121919766, -1.4202816842182326, 0.5005656471470985, -5.093371297894543, 0.33702109139991077, -5.0407867387880625, -9.055424875977122, 1.307723719556774, -1.005750138611742, 6.139246346918818, 3.071678671103817, -3.290489839896572, 6.148600838339561, 2.5721003346535114, -4.9239857001041525, -6.022567208938015, -2.6561947058362723, 8.339956500829434, 6.47312408596974, -2.6103442636088046, -0.22185591838938298, -0.9362578241332835, 4.962625240972344, -2.5148570116671385, 3.9086107966120083, 1.0586792591001977, 0.8381232757965252, -2.013532963168212], [-2.329243259872061, -3.4252959673041277, 2.9972063052724147, -1.7267996610287326, -2.4002812402656764, -2.6996013430728785, -1.976520678483544, 0.6887349875245181, -6.499346842031696, -2.9392293999654773, -1.531898845713267, 2.5125872268504645, -7.017358688206701, -2.7585494646472513, 0.11214049321925205, -0.22776679695712423, -3.881448007107294, 4.423389404568516, 4.695583917970397, -1.9706459736267454, -2.639755518102721, -1.4663275522990653, 5.563466803805865, -7.035458713557459, 0.39234083172672946, -4.407020783580151, -0.9586944294045676, -1.9892445613836733, -2.5855688440349094, 1.6608104202605554, 2.5958684025344683, 0.6476839343089321, -0.16833691874803514, -3.1372845868989367, 3.8714004600963237], [-3.08944256745997, -8.932183295774548, -1.6088194838197154, -0.11820534255437318, -0.6715450755403044, 0.7897732495867736, 3.542970085551849, 1.6737966201878784, -3.294487102204935, -0.88059110269032, -3.8242414836060448, -2.02275515533243, -0.541957779917796, -6.0438604178164645, -1.671712733512084, -2.288244299643276, 1.2998230091918304, -0.9269644149713294, -1.382078575560019, 0.6457764466240719, -4.1891163693074, -0.7520909097476035, -2.6270673469798997, -3.221650643175198, 4.564692624642591, -0.09879668222188714, -4.340075661762435, -1.6896644235812466, 0.8461743934018068, 9.41268170158143, -1.5905761856317344, 5.046256002659557, 1.9014974830825973, -1.3280877305908878, 2.971108592100273], [0.6157499538483322, 4.157340252807315, -4.655956959742419, -0.7993248970046671, -1.35432350175273, 8.834235509409627, -3.897608945640151, 1.1244125586578826, -0.3575680619849376, 3.749707949129622, 8.024363866204492, -2.115164017470781, -2.6483120210593265, 2.166318551586155, 4.901296049805461, -4.606026356580698, 3.466393587542446, -0.2035486133176233, 1.9064159732738342, 0.3418463576905088, -1.3267112240189494, -4.878204220624313, -4.176744989410314, -3.2312517914980186, -0.5772516749521301, 1.365902147496814, -2.1572620158692484, -1.867081775850688, -0.9586746942020967, -0.9088198481747086, 5.6169562507472115, 1.1344204141242287, -2.1210064694721553, -2.1345300424259737, -1.1943731122782932], [0.31600031160432995, 0.25531911036048527, -16.73223893308779, 1.285829178214289, 0.532011733969997, 3.0732004003254243, -0.033199850889134186, -13.165088443203658, -1.4143853133389999, 1.612413290588729, -0.9547292081233127, 0.3957689932117357, 1.3512692001708138, -12.04276755079771, -0.5423665242753858, 0.1481339023070464, 1.1441015414678364, 1.2561341070510001, 0.4318608106345682, -2.2945881501278116, 0.18404106534975387, -0.45495923659412263, -0.5277145829840405, 1.1100593041414992, -0.09870839217238758, 2.2288942658770123, -0.6470276276924583, -0.03636148537221251, 0.3674546261575968, 0.7155331422387036, -0.39352968057423937, 1.9510819609742158, 1.6858146793049702, 1.752474191598737, -1.0635053290335073], [-0.3176999692767087, -1.5561981689776274, -5.396451172068842, -1.3892425971787072, -0.04438054484938576, -4.286373987834315, -0.4192387616382915, -0.4278389781619749, -0.6638489206579812, -4.253714800024505, -3.415273539102802, 0.6459213970530127, 1.7445004237088977, 2.4528612505379743, -1.8216379258450415, 4.430594762023268, -5.726180593752805, -3.2092051986938435, -2.843848511332582, -0.6083413226316139, 3.477475114657708, 1.8780182780627768, 3.802529080040269, -1.266288389682262, 0.6838440366662953, 1.4640854801941892, -3.8133746349382425, 4.03438483310133, -2.9266222691482824, 1.197420367962496, -1.1158677898261218, 1.0068813800922924, -5.316667940454424, 2.5875031604956966, -0.29062608469345447], [-1.4104875955329523, -5.235595843346725, 8.269401328827175, 3.2321557681425244, 2.8390175185359294, -1.1196136981352534, 0.3680564700300571, -1.21017228519748, -2.5505702585452745, -0.09438489228528756, -1.4438915135119117, -1.5489330872228688, 5.038805463773816, 0.980982426224633, -4.587397516645257, 0.2774707696700482, -5.599747999351075, -5.313169346184021, -0.49935582459168143, 3.4938298970619144, -4.2443131179103295, 3.9813281552456643, -6.591866271779975, -0.5980252227353022, -0.6032400605044285, -1.2896286911666823, 0.5001472170311141, 1.429035594030492, 0.42402352237793595, -8.43469154404678, -2.267774723193285, 0.9989216032219553, 4.42025878783199, 5.032136695417498, -0.28321228287640443], [0.47333150863741297, -1.642203741727668, 9.843786209980586, 5.132812558541434, -0.24582123439644646, 1.7645959435321728, 1.2405944775268165, -0.3530031665565694, 1.092968130345715, 2.435960052656605, -0.894923450269728, 1.1675926225844915, 0.5231498056496207, -0.7692483984487959, -2.5925699979266668, 1.090325711552817, 3.1287727462066774, 1.053739083810661, -2.0477655350766883, -1.629597787263479, -0.34300416183221505, -3.5268447747620413, -0.7664024740498663, 3.1001452904808815, 0.27786573595711267, 1.485804816011921, 1.7824878760216838, -0.31661941435059493, 0.4897270669121898, -1.368166557514183, -0.6966600344534367, 4.376434285391283, -0.9239631325798385, -1.5488737120677336, -1.1818362485596197], [1.0823341926909897, 0.8182421152664612, -0.1983804417445098, 1.9970790047094393, 4.629848794863895, -0.34712056255083595, 1.0483260764055902, 3.4944001550682673, 2.3296916311837954, 2.5042424638937297, 0.7029123783207026, -0.6638862635068237, -1.2186410469260092, -3.146187373570739, 0.20129915047829322, 1.2223690460277317, -0.21684826323492176, 0.7752827725556598, -6.221756726707734, 1.4801644251429282, -2.92868608368806, 0.2905105256582191, 1.5795736447990414, 0.1851758413603293, -1.3823467678616994, -7.771838493579935, 3.097539937412023, -0.1763785311987016, 3.413878062974135, 4.8825189988460815, -1.9544674281537984, 2.049970618411598, -0.8499291730858408, 0.05847108448065722, -5.686141196967483], [1.1407965162499094, 0.11044108766975683, -2.6676461660153974, 7.162108600891559, 0.17800296218124378, 3.4276077467603767, -0.4401973078959625, 7.097355228588824, -1.8916561298213115, 3.96858088185725, 1.5667620741561001, -1.5173170178409587, 7.2386133437685585, 13.7248934914347, -0.09094197529580857, 0.293477194511803, -2.6209123286569973, -2.2401821689229657, 1.4828776956372478, -0.11988784704490571, -3.3006281955570866, 0.44799176232720217, -3.3531180979790647, 6.158883580061799, 3.0287327437097713, 3.72009977596204, -0.2269408659088786, 1.720844754909678, 8.033911947634882, 3.00159939235822, 0.034188479985575365, 1.5117056515041567, 1.8512887456731226, -3.858551420460831, 0.3303090911964633], [0.5435353082340878, -2.091736764344426, -8.119370786316859, 7.17840740493064, 0.2628007819765368, 2.1668058612111283, -0.7456977339034991, -2.9095080052983384, -2.4646039520770806, 3.441735913108144, -2.411398766613304, -2.1033986455437357, 5.787643618823314, 6.302500144040093, 0.250231538984986, -0.9976774109867411, -11.186872257930006, -12.819116797286023, 0.4127573789159579, -5.416375085504747, -4.359402721368155, 1.6010159325035775, -5.471631863270143, 4.894198430694494, -0.3355389437291376, -0.33856217448005427, -2.504893624046819, -1.7227596325028203, 5.780902028646749, -0.3992593216346342, -5.241637427978362, -2.057941026129768, -6.528751663472323, -5.582417593271005, -3.2498331344749594], [4.288687443406581, 0.28495009708863583, 4.770548247521988, -1.0473884252354215, -0.5533903566980588, 3.8956529683873207, 1.3872526784064665, 0.8913323590511097, -0.16799572508519356, -1.7545553677441303, 4.044064734070341, -0.8473551099416818, -3.882105330068249, -3.184355951049056, -1.0759782155218884, -2.1413458423997325, -3.5605702705605267, 2.110833551551729, 2.141966291109008, -5.217340022979341, 0.6820105531259945, 2.9586078647850917, -4.073627534865074, -1.0909075196311422, -0.0013826946563873488, 0.2775619825979931, 1.979861880674611, -0.2458896010446137, 2.189009800229928, 1.6896672234148147, 1.6485725446020807, 2.1455761472609742, 3.592610319222406, 3.8057011301908927, 2.147352088680543], [-1.579339445194014, -0.7754257619649836, 10.989189462040684, 3.14429781586029, 0.12475328569773121, -2.6785151114054573, 0.27700528802680763, -1.419408404953684, 3.495972313950016, 0.151173112715876, -4.201106333480585, 1.577404896389006, 2.019961859367585, -0.013001945547434187, -0.13187770428760062, 0.27511542305913006, 0.012217655986606272, -0.7284645450466045, -2.761717341221414, 5.527710766332511, -2.68771000270515, -0.3684028249745515, -1.902639496408132, 6.222507246468088, 1.164436307132978, -1.0517154547075533, -1.8390561321442305, -0.22231089016350272, 1.8497986123806665, 1.3923358200887117, -2.4591541334211136, 5.908549681403101, 2.2883399524610573, -0.7399004916825862, -1.840525061418665], [0.9295615850250898, 1.0008640718168058, 2.383056008803991, 0.661964110220543, 2.57979863998519, -3.112093788188733, 0.5504798640068445, 1.0997977040217135, -0.24570258546862253, -1.7006092498921437, 0.6033042375906049, -0.9290732130520227, -3.84087490978963, -2.2890252967401183, -1.5633528906169716, 1.7490103522431113, -2.214439704421758, 2.698429782729702, 4.39046085009715, 2.2137386359888804, 3.815644854940004, 1.6598484954894512, 0.02299930023001461, -1.7000264932473736, -1.7804221281676273, -1.8974216111190538, 4.485565417597169, 0.8393201807406993, 0.3865902013435434, -5.968868018176973, 2.29097633457768, -3.499701813101961, 0.1334954258922131, -4.840529398451672, 5.059721664025871]]], "biases": [[[0.14055646115215825], [0.9353989031631358], [0.39815655470176703], [0.5409380003862805], [-0.3227154861637026], [-0.8590778335429594], [-0.17095181520992242], [-0.8565858536811906], [-0.22356780211432928], [-0.6636256143257115], [0.8567846460311284], [-1.4217035711578527], [0.10954721601412665], [1.5840467879023399], [0.7979586596564539], [-0.21021588993884027], [-0.19237388830775357], [-0.6705322539006686], [-0.2230313555858283], [0.09756087645229755], [0.3283978293365842], [-0.9745944378446985], [0.5300158542886423], [0.8928174389223724], [-0.6057143762142871], [1.1872258829585831], [-0.21900995433983725], [0.372927745787334], [-0.23084335945925685], [0.9866218209425947], [-1.7632396526501246], [0.62596128387469], [0.3264037810572666], [1.807844779015709], [0.9676960156872821]], [[1.6038939862567854], [-1.0442404815209325], [0.7000721105356358], [0.2977164301300215], [-1.309254277298639], [0.5793316671906995], [0.11069358043869883], [0.3226192318652668], [1.1328094047991895], [0.19246131842036152], [1.5816768078079573], [-0.9933320535142203], [0.39566040713043127], [-0.1373187702269212], [0.24358704078523782], [-0.23477970185066646], [0.996383067428269], [0.790120251366588], [-0.36971742673179625], [0.8682148427910381], [0.9707007392499333], [1.0181449658979782], [-0.09894663669600386], [-0.5350538783500169], [-2.1971146875564402], [-0.587749890491319], [0.6308472066342541], [1.2411979635094907], [-0.21639593307657812], [1.3521358923570594]], [[1.8322702640945578], [0.06842924568913762], [0.7206191045345522], [-1.6226922115053595], [0.9086217644491988], [-2.108705735044845], [-0.000481828879116497], [0.1266968288713465], [1.8599983395448976], [-0.7659575400779948], [-0.5273460646042707], [-1.4969214320397277], [1.5737008722917385], [0.7689706563052617], [0.37361037995636937], [0.289409962570205], [-1.8715186185124095], [-0.306243295047935], [-0.10057449741165173], [-1.7072007799786513]], [[-0.546925767329634], [1.253238908325841], [0.04267808356845832], [0.4908366439948557], [-1.0425920612132127], [1.699434134919632], [0.7584549175821853], [-0.11397681025598322], [-1.31964939683867], [-0.119873197681603]], [[-0.1941224589142042], [2.018247189815959], [1.255300935142844], [-0.14106375047184605], [0.13235954434078137]], [[-0.4513202456719478], [1.6319622183334515]], [[-0.8472149358969965], [1.441028757380177], [0.06087928249064128], [-1.5211680461996886], [0.7920646530359634]], [[-0.2619765110331564], [-0.9197818312847811], [-1.496195993541515], [0.26646873765947404], [0.25116244240387553], [-0.34312506914454277], [0.6318710527745354], [0.3981562072207195], [-0.418399523207032], [-1.3256313278579603]], [[-1.0202227542512325], [0.23630341800973925], [-0.7148757127676488], [0.4703304785851307], [-0.03315026056415406], [1.2362809739809981], [0.17409830783143249], [0.11142283810277753], [-1.7618214180006924], [-0.9840945690854891], [0.327879107461557], [1.9432615278896224], [0.5879472874723104], [-0.3313835120634378], [0.6770827995900695], [1.5273278776496373], [0.598042438478909], [-1.8978426662655117], [0.8569633840165136], [-0.4326552083105911]], [[-1.6949436318083833], [-0.6437398923942538], [1.1219657869816992], [0.019543766651030626], [-0.008086388377731742], [1.675563646084474], [0.22962362621344], [0.7891255287444884], [0.406377548288495], [0.5786628753745907], [0.06564037721573839], [0.08170565138031526], [-0.5955483746123782], [1.1796612006879497], [0.7918674093260825], [-0.12135080371501207], [-1.1160701935493496], [0.3817241924305506], [0.10307588636934868], [-0.17995400931476324], [0.5011520833015818], [-2.0314996798625238], [-0.2604056737964354], [1.1475530960415414], [-2.450406363798004], [-1.089489541877238], [-0.9650067615858988], [2.2981897688298725], [-1.7365683752267005], [0.26772529278402707]]]}