{"weights": [[[0.3248789877556975, 0.5145236749562272, 0.3651095453428608, -0.625219554921958, 0.05760078836741239, 0.46766992421199444, 0.45425074820132416, 2.407715942194164, -0.31090700621911455, -0.37293808459523825, 0.41367385655833727, 0.0882459794916271, 0.7874772349861431, -0.7624498305440089, -3.740653625410878, -3.1262847409162022, -1.3696085689059432, -2.3860448284883775, 0.6460226220281488, -0.8956952624756097, -3.009717398475204, 1.750339543787398, -2.640993239840114, -0.0781924246594095, 0.855736474385891, -0.2205454605036481, -1.1534212302047415, 1.047664335409538, 5.049902901279684, -1.4598069082166116], [-1.9728631717250587, -2.3628559522387396, -0.18490860729468334, -2.5425862362337073, -1.2224193794902711, -1.9214080578264539, 4.523712952673894, -0.8620947404951554, -0.759486812991535, -1.8939597756832687, -3.0880942820133437, -0.4069409048515262, 0.33552808014687635, -0.8011857657415766, -1.9276014517060502, -2.2351644249967344, 0.13250054267370942, -0.7176583161622926, 0.9534044290563939, 1.0180536439871621, 1.8408790852322405, -1.40858185486933, 1.5358603181403059, 2.1451098626938703, -0.7489125467937761, -1.9140200011536577, -1.2097572564353931, 1.2839582935059732, 2.4946696007189386, 0.8854395367468286], [-1.921761846944475, -0.21868075997089773, 1.0848491287114717, 1.6978894138422447, 0.2589458326921478, 1.656372223973587, -3.0791979657637354, -2.1736829724133586, -0.7977109752337154, 0.2788319998355899, -0.5803555363715498, 0.4178898389622835, -2.004101994985069, -2.2905839225057716, -1.6053151949923625, 0.6009391575117013, 1.6325161793796856, -0.07775681863586227, 1.2115257206672907, -2.3038483962742538, 0.7641107316944565, -0.7976606319331273, 3.2467993237886907, -2.3553995564390475, -2.043373587296494, 0.3475015816014334, -1.1713977805551334, 0.9604162533950851, 0.13632635905356644, -0.14338603674150532], [-3.2773343238380916, 3.053070079308354, -0.6059913792759323, 0.26809466357962264, 2.042202733120428, 0.6241966978472797, -1.8345133634430475, -0.5407502833138877, 0.027319652222556327, 0.7996470017980711, -1.4760254865324964, 0.4792519037410428, 0.734918418772289, 0.17406484581447557, -1.7189486193331907, -3.468940622533088, -1.4968770209648725, -0.26517825989705196, -0.6795147998596575, -1.947291503909859, 0.7279651260916067, 0.17228347141744715, 3.6683784424779433, 2.4133451208813588, -1.7076137486676077, 0.1904030518028773, 0.7655919954383481, 0.4761746212669026, 0.9944380868002201, 0.9752759208303722], [1.5344383875957577, 0.15831111694560548, -0.6100846587298319, 0.34606579801970266, 1.9690371006909801, 0.4827602414821098, -0.2581865739213476, 1.9803056156775638, -0.2439422507133699, 0.6421109672635605, 0.9007946161062255, -0.10718128468126455, 0.503942725178427, -1.19678780979324, -6.7469846553990225, -0.6867999268116546, -0.11342075807806293, -1.1779660556798162, -0.6290403386782613, 2.928728040954461, -0.4953469239722051, -1.3094317592982803, 0.311547005510426, 2.33116317328064, 0.7572080003796272, -1.4024441203463984, 0.08886535525233276, 0.2352808412674929, 4.402203163012465, -0.9146465059767391], [-1.4666297752375521, -1.202770549204632, 1.2599073403162864, -0.5099847753932817, -1.2692290445900207, 0.40531005843209594, 0.6908637047333132, 0.49794659107162437, 0.5247258831224942, -1.6293923950587048, -0.5938703048120364, 2.0856517296667856, -0.16526059347397187, -0.40815170452331206, -1.6572208237561286, -2.922336635216877, 0.8309647552063292, -1.5776190614266612, 1.454882284170771, -0.9948275466923908, 0.11496435332792429, 2.3808565318997172, -0.6018869631044779, 0.25760465282195544, 0.6677637377363302, -1.3191487708907605, 0.020403717806488815, -0.23566767166675723, 1.0979610473237236, -0.8389629676248912], [-2.26911834964185, 3.770190171942012, 2.0464670386700026, -2.8537255654552798, 0.7489876942969061, -0.9702707924609146, 1.3353424182087488, 2.2390180342376627, 1.7308175892478876, -0.4417563310877211, -1.058685091600531, -1.379258492206146, -0.9414323569704355, -1.7818478675261078, -0.4341552326055097, -0.31886600250022956, -1.174536216099365, 2.7739567985979883, -0.8314664473591896, -0.5505873970189988, 1.4734631123213195, -2.716381614608166, 0.22441103380458507, 1.851659685198803, 1.395343851118456, -4.472102403534215, 0.26491322189197536, 0.4396436993122906, -1.311752674351603, 0.2772912951058908], [-1.1370526768970015, 0.16400487192272356, 1.277158870825145, -0.5350330131439324, 2.09045427979045, -1.413034232564486, -0.12281101942422698, -1.2165590632681074, 2.5579399515827586, -0.7521480770349146, -0.4373528899710547, 1.1907833672572372, -0.9564570277594099, -2.140771475682926, -1.6011680283779324, -1.2216033482658633, 0.7353827170941029, 2.117315783842658, 0.7863255275572572, -2.2139384168109153, 2.792178630312002, 2.0640247437206827, -0.32086614084635173, 0.1559009126013463, -1.6260637959007478, 0.10878159300113822, 0.7571520893354323, 2.0382515021975642, -2.0800817946024845, -0.327156005238111], [0.9127060933934823, -0.574945117717038, 0.10102474310348138, -2.5891786044602103, -2.0489863120670075, 0.005847663958138228, 2.8316978919513716, -0.3058587849567201, 2.5726310993450237, -1.4351720694787242, 0.5555021862982891, -0.8282266687142502, -0.3575093306281237, 0.8422214983146945, 1.3301856305164217, -0.48931025237481496, -1.38381885800962, 1.6285708671442556, 1.814186311013447, 1.247711250115307, 1.813965489681053, -1.0374555116037778, 2.2732736030298115, -0.8306955239835366, -1.3610954262494894, -1.4599574258322883, -0.9542867637566926, 0.2563391858060459, 0.778119648750696, -0.601569277735791], [-1.3633513341202892, 0.8391526959472285, -1.9344420388028984, 0.20224160397470767, 0.3328382485494877, -2.0907333441813734, -1.4737860057741712, -2.9357925495961608, 1.7929153211231894, -0.9228801345946194, -1.6293909857142497, -1.29214974844492, -2.4478690303275075, -0.01309533930513489, -0.3186709917342557, 0.7286754662088545, -1.0171031212721577, 1.7790001529007717, -1.4845722727028559, 0.4760929706044438, 0.763929325491594, -1.0445218455893068, -1.2756943067551991, 0.5875170458337661, 2.3489757813129235, 0.606363497039376, -2.4332379450850277, 1.1704773632265468, -0.5372803099382673, -2.411422002866415], [-0.8038996143759365, 0.5822143808467773, 0.06177201922815133, -0.2435878223352448, 0.6132807668205575, 0.5608392516378881, 1.4713500312110643, 1.135616134281539, -3.0883458865126383, -0.630082343028083, -2.4235894447741733, -1.0665276602977962, 2.3676113527758695, -2.141391316599964, -1.9873342508550886, -0.8882649764069663, -0.7227887016175998, -2.8808273188692306, 0.03851321232631118, 1.044329986522463, -1.125337591778857, 2.204370295298624, 0.051187923641637816, -0.2285138269906732, -0.2389700686587144, 1.3268073185030662, -0.8879387790105485, 0.6551715475345797, -0.23214905862184612, -1.1518408214617113], [-1.2391996221050507, -0.2454412350383135, -0.3006016755594245, -0.4986644609822974, 0.8306012053537996, 1.8866012570616304, -1.63953104768444, 2.1640751328764023, 2.3719613161449704, -2.5621184363108003, -0.8683086307460879, -1.3779876515532137, 0.6821608389976724, 0.26164306272917875, -0.677330925164186, 3.384550110727302, 0.8252233648533833, -3.667414431530031, 1.2626705266009262, 1.2413660942362104, 1.3508402532648829, 0.01934329463861025, 2.4693125451569204, 0.5322457593797341, 2.7305129463634823, -1.349206060519224, -0.18602294464173466, 1.3699055146040677, 0.9733944186506202, -0.27753444807533634], [0.8052066880042363, 0.3790013010023084, -2.365271220813479, -1.7790391017196001, 1.4650063022186326, 0.16501109204548584, 0.15045989586924893, 1.2742891118917323, 2.120119785066541, -0.4592759797480181, 0.14750089171170194, 0.7170185703206984, -0.7660320047685047, 0.40924685749800555, 1.9408749866445996, 2.682656717902187, -1.0195153173675549, -0.9589728705745839, 0.6634701870592472, 3.068933512528512, 1.5589773066621737, 0.6517137124890894, 0.980713968589838, -3.602029945562589, -0.6692542293849594, -1.245769567069821, -0.26618934624251306, -0.33208376061514183, 0.3654652395967156, -0.0313394597475637], [-0.6637371727654486, 0.9369127377667874, 3.433351587094399, 0.020079883132786816, 0.21132563020214637, 2.0936353423964014, -1.0079141024409743, -1.856651052024302, -0.8800472385252085, 0.5867543415438935, -2.051415374627805, -0.466165785899763, -0.6007999821940262, -0.9154718718175012, -2.137073136916406, 0.23839583673826326, -0.41641565272881126, 0.9679265622523036, 0.8437624133541372, 0.8440565334627012, 0.2269699973066384, 0.8538682380979146, 3.4367979533157818, 0.0337320520024884, 0.410303532756058, 0.08722471330588058, 1.3303361124104074, 0.5913191942933227, 0.5107785926409193, 1.3087628170599164], [-0.6860863061649912, 2.762899976142478, -2.139345274187266, -0.2007253014250542, 1.0597365151449443, 1.4684509075442598, -1.5220564003675623, 0.49456783475078625, 1.1952579988747531, -1.476723328511143, -1.0627419519460486, 0.3481418405363241, 0.6368204791422996, -0.7055621926076142, 3.4627170989331866, 1.1885444551481108, 0.04208346752136956, -2.0548984065026787, 0.9739322941417407, 4.674889036753762, -0.4620511114852173, 2.4442188554982476, -2.1157296748246437, 1.8218828518807177, 0.5877546373050813, -0.6630733579756686, -0.10752519769926412, 1.0463230027000698, -0.49072725006974105, -1.1686892008248164], [-1.4192489851810928, -1.5379743043533411, 0.143319758920558, -0.24094682614498006, -0.10392669009648793, 1.9766022163661505, 0.7169786042417459, 0.3731422230293943, -2.389811430228729, -1.216127124466031, -0.3690759153602639, 0.5329683795849475, 1.7292696199572866, -2.8992206377257377, -1.190028394891802, 2.7838551893156227, 0.04626595557659136, -1.4838731297665493, 0.9452615605375558, -1.5056094325368208, -2.4709447665684485, 0.568247509750076, 1.2289803403355393, 0.7680625210353742, 1.8302442146786932, -0.783550496263985, -1.2384590229840096, 0.41575407397929, 3.986236913488889, -1.5877323062722597], [0.23759116142575776, -1.1180008604275657, 2.3884255692829157, -1.3050170622399413, 1.0646158535460906, 1.0717637670108868, 2.427828085626058, 0.8069429289665253, 1.371478094681384, 0.14026095810014774, -0.7200724079594913, -1.960612564847262, 0.21812240780377737, 0.9306909996157927, 0.18784082527844034, 0.40982156482660304, -1.0568875361512526, 0.7016499134737756, -0.872181489187452, -1.9441081551147708, 3.8289818732840044, -1.3743997714800438, 1.0726998263758996, 0.870894146311773, -0.36946569279338, 0.7929190214592744, -1.2675377300473238, 1.0900004816354123, -2.250049918622749, 1.6283960072446555], [3.6152893657498195, 0.21202383197646146, 3.880716848473796, -0.7783831031085284, 0.6732474934448014, 0.7205128591599922, 3.0779033170720793, -0.9121616882499928, -0.3038701695764943, -0.36976607499305275, -1.8170727078208415, -1.3282363220336064, -2.3603289624710784, -0.4989138530726257, -1.8525167653034968, -2.350913581422756, -0.09282824711365799, -0.3643429368486021, -0.702953093887458, -1.6244893080721146, 1.8215603512527505, -0.639605420406247, -0.5091710542094345, 0.3485881467678456, 0.33053983227977485, -0.8352275129736134, -0.19484622843782873, 0.5445374846459634, -0.40975165869993335, 0.4751274499084036], [2.1974168724420484, 3.8632838191828465, 2.5344100577305553, -0.9824410125703454, -0.07169825515473494, 0.659844317465128, 1.4092600908677435, 3.0088042587029546, 1.8347627562998354, -1.473409291808685, -1.0248061361562908, -2.6033001461820726, 1.6204191315549052, -2.1761277376610333, -0.06988950562515456, 0.02173324658599833, 0.17061715050706555, 0.9035357717004856, 2.3646600348520836, 0.18264809326219147, 2.9171054659906184, 0.026635722727200557, 0.8521880181709061, 1.0609443206572282, 0.33081681929202567, -1.2830215019440245, 3.504505016419881, 0.5211127684259432, -2.9090239761954, -1.147603698607248], [-0.14042425775789827, -1.4000368630314857, -0.59032159389237, 1.0920640770137893, -0.12803327436235196, 1.7887105690407796, 0.6526572218663914, -1.1270719892435923, -1.5868132079863677, -2.672342444456004, 1.1166322015277232, -0.34742266836570274, 1.5565147636407257, -1.6774419599351396, 0.22200619522398105, 1.9737452191582863, -0.251373254167436, -0.03749228657718777, 2.537493710586836, 4.142629239841086, 1.1235212335101383, 0.7089659356028093, -1.292707910905463, 1.4942444547253817, 0.9196988834774353, -1.3110879902450092, -4.247052280290382, -0.14817797803843566, 1.2828552724801812, -0.34384292847430126], [3.127437119153285, 1.1030015554036647, -0.827378916584942, -0.46715164836046114, 1.3963276826879267, 1.3229783079922834, 2.73203944676474, 3.9526205053277135, -1.5409697062478906, -0.4085161061475037, -1.2630081896538223, -1.6987348771202062, 1.219503983294433, 0.8344743809645707, -1.065644526235361, -0.1661526147245336, -0.06962841282866856, 0.3950314647307348, 1.0549912322926864, 0.21255630788247726, -1.7660783917222773, 2.522719678677793, 1.4006043745213488, 0.7458290948297519, 1.0633261249836876, -1.5907234520515794, -0.5126414649819784, 0.7859560661470791, 3.618379536431596, 0.534344661393038], [-1.4474384603586066, 2.752585853635634, 1.3171069076262099, -1.8540695452534004, -1.0833056537706975, 0.5309956451536674, -0.8783098154379482, 0.7257573100368012, 0.34649514229657785, -2.869186583009301, 0.6749110848892955, -2.3618758176346826, 0.7014394789710063, -3.5448546532473006, -0.2872984268890771, 2.2525658180230903, -1.0788653856263186, -2.2616192239557695, 0.11120739000446977, -0.6599607276647703, -3.3296429150800515, -0.7758305580472081, 1.6298064099160292, 1.5207572517700083, 1.5452095730734585, 0.8848495707175524, 0.4418875294884234, -0.13747288638731797, -2.564662947795755, -3.5529397517081263], [-0.781783189946051, -0.32884509730840267, 2.0256529452354646, 0.37291682845144364, 1.4061309121785839, 0.431818451203079, 0.7387880734672588, -0.07929593918547774, 0.5898189507340178, -1.6325757456729038, -0.9345354317057798, -2.580722775255079, -2.0952114423537735, -0.8319177848906136, 0.6106614421079868, 0.5133966467409382, -2.7820870676182134, -0.8908894232817735, 0.5423214180060247, 0.27844018175504354, 1.1340271931906927, 0.5287820526958638, 4.647724098354204, -1.4206174573212527, -1.7283714242911696, -0.7668889259736462, 2.314301479361716, 0.980989488024394, -2.5926174732442133, -2.2538520723901825], [-0.7942260472431686, -1.5903394709916219, 0.0453808636406133, -0.3982795804776416, -1.3256169639012956, 2.014017109478416, 1.2074709521510287, 0.5563042422953105, 1.0869996913492623, -1.7334340862140853, -2.478247008289609, -0.11635081400189506, 0.6160407975145097, -1.3491155989006802, -0.08072517743472497, -1.844429069225637, -1.8785947587761602, -0.04952111311335419, -0.24491034461259947, 1.1084619378460852, -0.4537928109363016, -1.2300771143394174, 0.27787966051135693, 0.8658904699428589, 0.6165984757762665, -0.6303388593642348, -0.574031079105949, 0.6822850991018324, -0.6919801891643574, 1.6571405568977406], [-0.32530068189763134, 3.4200567588565094, -1.138525803382508, -3.505808028310316, 1.0471635138236226, 0.558389040587001, 2.9945226854071065, 3.1996653516349918, -0.7545064014147139, 0.539951895938698, -1.132929222999244, -0.00028698596425320996, 3.6450066845038043, 1.0489033372684486, 0.8059204974309769, 1.7600881718694132, -1.8062956676804622, -0.9076938371579187, -0.3481017161496901, 4.702826135417155, -1.3859969516966224, -0.014225537930856786, -1.6144196448734351, 1.2825499217510676, 1.1668865305628453, -0.4791599188751713, -4.595465127857851, 2.2644912297254525, 0.40038523603789855, -0.8719817390327432], [1.9464443789946817, -1.4537834680938317, 1.0884088794075204, -1.366461306608309, 0.012296580062040544, -0.2804164645812235, 1.1866112288582353, 3.469341192477696, 0.3070111698484221, -0.982174134476351, -0.8447445877871606, -1.1135137058284434, -0.23605883556689414, -0.6625997889275045, 0.4775449864516775, -1.892199448449238, -1.0517941762895102, 0.9341772935262881, 1.1159625795498125, -0.37557331411320777, 0.1453904025457317, 3.603934601756808, 0.3480015471281725, -0.350045095277079, 1.8045730578608614, -1.5781766783060995, -0.007152274935686659, 1.711982348953377, -2.0205778411314883, 2.196745588513148], [-0.978823754582924, 2.5528366560263036, -1.059316538281516, -1.3183716888210588, 2.6055804624981183, 2.5111731958076406, -0.7192648542351997, -0.09597939613966855, 0.4420336348008265, -1.3008180294004055, -3.017257202708149, 0.5609180569952831, -0.5452621579414867, -2.609095166693539, 3.3422918267786375, 1.7609739623808471, -1.9725863965276331, -0.7547066462267893, -1.4969292677951636, 1.3836574671784483, 1.7799766502584264, -2.0484174835844557, 1.3833235806091901, 0.6417155335756379, 1.1641316596894304, -0.7210204182655197, 3.206883949845065, 0.8466052065826875, -0.8134647032903098, -0.5959384844665816], [-0.019596475525784245, 1.297079295975704, 2.653040671795912, -1.5537248020572352, -0.8085062182519203, -0.07636105100035319, 2.450066381632524, -1.9979782260781005, 0.9227112890373395, -0.767277908770174, -2.1663394115783436, 0.12553739712993214, 0.2215032664753753, 0.14779938582387278, 0.014726464737012016, 0.11134317171599269, -1.7410971244325464, -1.0722790170548309, 0.7064674591963724, -3.0758033828426745, 2.368584475779779, -1.5016184409528466, 1.9869423254910348, -0.6573428889351892, -1.382599072629755, -0.20353889336232464, 1.040912167960523, 1.383849699188251, 2.5616228195750215, -0.6303563821909134], [-1.5208334285014917, -1.3825954039039294, 0.4932933156365955, -0.3724194802196622, -0.7806979075692116, -0.43200626341825166, 2.5858080322915793, 0.25763489426247815, -1.6734038925888752, 0.4654187350177363, -0.1759529198567706, 0.29662714390552747, -1.0247237525318098, -0.4897350502671644, 0.008506770773523116, -3.032657431903637, 0.2767768479204327, 1.6323055483721882, 0.8608996966575786, 0.8939974752236542, 0.7943987576517766, 2.805194741436916, -4.805712175377858, 0.5866767989090913, -2.1714905177825297, -0.24362588869582713, -1.5532201571575293, 0.029131017491519712, 2.4785576034413603, 2.0524225849919997], [-0.2937222731525605, 1.6577558267899035, -1.2069436527944124, -0.22534479595957516, 0.5161506670705011, 2.826072022336029, 0.5368337589514105, 0.897873553219927, -0.45702148507706214, -1.0602627786981376, -0.18960741610743836, -0.9502425866029597, 1.5664384961596367, -1.1780673407305922, -0.40109578142653696, -0.03929317013260313, -2.186036765143492, -3.358480274886187, -1.2579579411906014, 1.7833479311295217, -0.15573157951023878, -0.9448206186300341, -0.394880520432608, 1.3128214413046622, 1.8657506732639406, -1.695662621239635, 0.4242934714754868, 0.8917693552127841, 0.0063948063096995675, -1.0564721500905825], [-0.594582798350226, -0.48678449336573026, 1.4776222899162186, -1.0958526946154026, 1.3988704318283993, 0.8406023984554608, -1.5533573903817706, 0.6234535517295317, -3.1572470047257157, -0.1515690116794694, -0.2584436828646067, -1.1518242815086102, 2.3518471158769514, -1.8697201555502314, -2.7297298859092276, -3.251711806826706, -1.8330440254917255, -0.9644201176928128, 2.557569534815492, 0.45618585851794136, 2.8988966666065275, 2.226083866752261, 0.9658331413490905, 0.9900263509232146, -0.32646441723819825, -2.126231339099438, 1.5923863934293714, -0.06799373684081321, 0.41641060023702736, 0.0775587642282304], [0.5199817938222757, 1.5033669103404723, 1.9148803748664105, -0.6058898410674157, 1.6289850582942833, 1.0506055638633358, -1.5515298905008876, -0.773663198865737, -0.5277905524477079, -0.09227768747224195, 0.3406373600947537, -0.9711560024955722, -0.20941025110172037, -2.6876340704182815, 2.2157333931726773, -1.9028766593040563, -0.12080205472766699, 0.6481755946344012, -0.47843867789357847, -0.6232949718517894, -1.209128140860309, 3.19192493765648, -0.18094916679795858, 1.6208309414003175, -0.8680976800385107, -0.17449268347372177, -0.6866270516291677, 1.1895676663360435, -0.2245148534273486, 2.623606456439852], [-0.5892286768663075, -0.22960680967035785, 0.9975684873507953, -2.138313763454588, 1.571099931602587, 2.505470364357458, -1.0672775398927734, 0.16466459489095392, 1.8271722505140588, -1.845160035999068, -0.8647948289914135, -0.08391745434882253, 0.47867785411680586, 0.25774641281540733, 2.471821243317835, -1.675543030786623, -2.243050441890845, 0.7517645544930392, 0.7969600028383131, 0.1053753779088691, -1.268290367261077, -0.9369996989264808, -1.1958528987699146, 2.7593306792260326, 0.7909357925016754, -1.6305538740928907, 2.6380900468580197, 1.6998910815741506, -3.5278248372496073, -0.17115419624531758], [2.310363001870835, 1.593253439232247, 3.46474116869706, 1.0334895736591883, -0.08142419072727233, 1.8963805958068307, 0.3212486050029717, -0.9837586619996406, 2.0099758682814235, -1.52049720516556, 0.28912700552326653, -0.31978946690206983, 1.3494517029037756, -1.9074871294613964, 1.5320870471919323, 0.3337869600084559, -0.39569041672325106, 0.9700489989863713, 1.057709701077416, -0.8094395122221186, -0.33552918144428534, 2.0372671403768017, 1.233959886741149, 1.5114434544877335, 0.9306921837534434, -0.9048424801616931, 1.6152008572216523, 1.8102042470772857, -1.4765899065636403, -0.019300598685557002], [1.4267171739550246, 2.0616306981696386, -3.0270669128978294, 0.2716607121497265, 1.9736814478551603, 0.4703538436149383, 0.7368502209021046, 4.095550463698391, -0.40342778318656314, -0.38173592749988894, 0.3739769325030493, 0.36585595023416306, 2.4483976061067567, -2.484646016466419, 0.8089202799828472, -0.7346634034154687, 0.45781446076787913, -0.5469543947434818, 1.3559846531934407, 4.641204936117053, -2.926762593282299, -1.0996465508796578, 0.9561049759558796, 0.5721167406982803, 0.03111485193262843, -1.5732389133128286, -1.3029102309631122, 0.9353079954173857, -0.11752770494265738, -1.0320916015623909]], [[-0.5355384726555074, -2.3857828534983407, 0.4872810708027926, -0.5964189893330114, -0.6287830895130251, -0.4231256816082576, -2.288914950467747, -0.25502273060625125, -0.621228312433676, -0.27052502634509723, -0.11732582137073193, 0.411984816810979, -0.5384373993048045, -0.8893762230844042, -1.6850200478694752, 0.46742858304025214, 0.3304589394218117, 0.2875080868018821, 2.7044927976681614, 1.653398466319426], [-0.06822954398519639, -0.6519784658208483, 0.21507921014160297, -0.76159165072689, -0.3253120129437705, 2.4950219573459007, 0.1156114761440007, -0.6287503085959447, 0.44706966483999494, 1.706277313808484, 0.0962269020399612, -2.2755765785253397, 0.43450847882985755, 1.707661192573866, 2.6324242866934635, 0.8224432724419762, -0.8599698932204866, 2.2762862673459465, -0.0868339958159141, -0.6166486159447767], [-1.495119606403478, -0.6113773582994687, 0.10350854107108048, 0.8307676044852178, -0.49981215322365563, 0.12278919767531858, 1.530745496634035, 0.3535397527803971, 2.80409700521936, 1.2086310192297205, -0.7018894718182906, 1.2754075222805044, -6.197933854792078, 0.8728590384836588, -0.22336694167396348, -1.3655419704088936, 3.061749683460132, 0.8388967883853012, 2.330457169698358, -1.4587930281016928], [-0.502015289252784, 0.7936142233700039, 1.3487281573988479, -0.9128118476171353, -2.080267886860795, -0.3404161120356658, -0.6555976557482124, 0.1722830951571422, -0.8271416340744836, -1.199679169919645, -0.8548421003611001, 0.46389782986761585, -0.6481108518570806, -0.4559496322554806, -1.771665922142501, 2.8388165186332386, -0.9610166825427544, -0.40234444017276266, 0.5659729545400096, 1.68479113472056], [0.614330897123368, 1.2344463560000767, 0.40499080713544383, -0.3867925949495996, 1.1572521048394133, 0.7036489124990617, 1.8325770536132016, -0.9857855421574314, -1.4613336705592936, 0.24221301342372173, 0.5625022083081337, 1.5183266271981624, -0.18608831954000826, 1.4391047876710612, 1.3837880933297182, 1.2836156890763333, -1.4932230422382315, 1.9000415286523393, -0.08544044845477072, -0.35289019175722713], [-1.0066834260276514, 0.49140101355747684, 1.603976042388113, -1.2964485113529716, 0.5801085844530148, -0.5241900236085645, -0.4365380355024634, -1.2775559136008525, -0.13546043489799636, -0.35758229191540003, 1.208872022352223, -1.6409312503942326, -1.0496620398132612, 0.6396489135273211, -0.3204013759142253, 1.1484111569453952, 1.9928173172081536, -0.18693462471356534, 0.4715987202517797, -0.8740691122258526], [-3.040777037492018, -3.6374609503832644, -0.4675884157476908, -5.744113740888344, -0.4967846978742553, 1.7859211312841796, -2.701391274558217, 0.7155642910918047, 0.6312661549935451, -0.09624633742386453, -0.6965865807641678, 1.4456715423068673, -0.7455268287514086, 0.4222949400507317, -1.2446336876514923, -0.7833996970210344, -0.6299454629590612, -0.878359795948647, -1.3940831878754314, 0.40048240504948285], [-0.4685216406098583, -0.9893646791779895, -2.1945535178353377, -2.16835348742636, 0.24573259552202226, 2.5987536462913723, -1.3650583117671304, -1.7255400218869084, -4.173796527929329, -0.05223131169995099, 0.8045147683417757, -4.2473866405217375, 0.7664628229974195, 0.0767865198728913, -0.8531022159373287, -0.20696148658802593, -0.6193765339972115, 1.5007978682815166, 0.3643108992744638, -0.3823518348504748], [1.1806414638991922, -1.0552868599111378, 0.1675423142456712, 0.7267484892777132, 0.6027911364376558, 1.1919587044705664, 1.588221969389397, -1.3640615575523232, -1.8486352963328052, 1.1726848020648881, 1.3192064942000021, 0.8230683455160437, -2.396549508339323, 2.322977348609095, 0.5900363606925242, -0.7107677035911812, -3.1135519283456743, 0.502771609620671, -2.799186671208904, -0.6566613695397975], [-0.5790150154763424, 0.24435548100920795, 0.8650635108438289, -0.39336451085933405, -0.7443990159706894, -0.801240164235233, -1.924063094574066, -0.5628354011402824, -1.861977850964583, -3.7503531120093796, -2.763413073483921, 0.8446587399244532, -0.1744611893216804, -0.6662087845818516, 0.5154288690588205, 0.8509385096549645, -1.7761702337478964, -2.4844308892294085, 0.19048926894120374, -0.0535199419402139], [-1.0486921841068582, 0.5174981370287836, 0.7374148515973248, 0.1417688156043681, -0.33951911075221025, -0.3709297307517814, -0.46233975920155007, 0.20779818685284426, 1.0891487475381365, -1.3356286317344763, 0.6164074897207618, 0.8588651481249218, -0.34578553234724074, -0.0414222786851297, -1.1458867907384687, 1.3466423797861176, 1.27468685462238, -2.088667303650947, 0.6018138291145326, 2.52817747799688], [1.3469530908084577, 0.8315383915763235, -0.1838554375977307, 2.0618977967853973, -1.3324136108801097, -0.30460560767711803, -0.03380027681438484, 0.2892064995694873, 0.46972923590164917, 0.4472571674781868, -0.11718519204386223, -0.14272006503963136, 0.11153759175299363, -0.3478782618757166, -0.2777069294793474, 0.9335246769700013, -0.2973006472307257, 0.9594276209560688, 0.06092337618165634, -0.32760422250909055], [0.22849529361248289, -1.6415585231686787, -1.274143272780519, -1.4086176729161701, 1.6425289855890002, 0.42188265440832234, -1.6487210311401195, 2.137379710684125, -1.4308511527371484, 0.21993610443099756, 1.1879828351539432, -0.9283328949788913, 0.9531099396410885, -0.865236076722455, 0.03132288641050288, -1.2137834363916127, -1.3794350932458173, 1.871100706179593, 2.691177216123802, -0.7553249094392819], [-1.906640299606546, 0.14405559906075552, 0.8082361818893679, 2.2294751420674497, -1.6923920091166518, -0.5960243385514161, -1.0166200100444511, 2.1874828991734105, 1.4391834273377113, -0.40486298496888967, -1.347104301477935, 0.14734687538250915, 1.2330730208570881, -0.2116311228750026, -2.1458938920546857, 0.2199556307296143, 0.026709636565970824, -0.3875991652445045, 0.538405834610806, 1.1418663139677174], [0.8151033531067923, -0.8372725044659123, -1.1631778955501728, -0.5509806683990042, 2.5104546214448815, 0.1371567457899464, 0.07798287560923389, -3.7395196156316866, 0.09906490849881816, -0.8614763907300762, -0.07040987130786275, 0.47561583475100516, 0.036892407654990814, 1.5687656406410606, 0.0208962680977105, 0.154402978897247, -4.309177645011794, -1.0942827029587336, -1.3449069704007688, -0.7295720280148579], [2.82635110857636, 1.8553739065922357, -0.03703355621600881, 2.969472244884104, 0.6572679732587474, 1.5814468189647672, -3.1344209740280116, -2.2471705515261404, -4.41797052540952, -0.4839600076988367, -0.8170604748556399, -1.5993148604116474, 0.8499397654143943, 5.428177366245971, -1.5629630038086737, -0.30101267052304537, -1.1940922298897614, 0.8231622836429605, -1.7638938893813623, -0.018484925199873572], [-0.4874473247784491, 0.10038866383212355, 1.1584711745030782, -0.6000183181736914, -2.0597599824523516, -2.3174397644194684, -0.3202222524575292, 0.12382497297385224, 0.7365385857927838, -1.307352306365014, 0.27900353980682796, 0.5904641802196551, -0.5696747774858204, -0.18807605693525398, -3.020325262979501, 2.59227601183253, 1.7743895015414146, 0.9137265803562514, -1.1345801367492356, 1.5415611059103316], [1.2040360237429504, -0.536977280032946, 0.07677522847703504, -1.2897466867265364, 0.6113062320434752, -0.8678418762736877, 0.7613579888811527, 0.7654237638508712, 3.807900111934004, -1.3268069045222473, 0.6415246111633569, 2.2969671956815967, -1.3013090604186222, 1.5398155673358938, 0.8652810567587766, 0.4623042596530664, -0.7801141127283124, -0.6531394888379907, -2.25203674705222, -1.2372530439952756], [0.43944040863364475, 0.9537923059498423, -0.7711519853900762, -0.8998699528785049, 0.6084447500480665, -0.9965611269593699, -0.705275471096841, -0.30011206788982703, 2.915617042930199, 1.5171663420024657, 3.249760338208065, -1.5159491573466595, 0.8656343270792136, 0.4101270344996044, 1.260253907461797, -1.2362371991919316, 0.4413589656398522, -0.6971856444218542, -1.0284026669383306, -2.076948370333905], [3.8792374073736426, -1.2798237121246254, -1.6263824234079476, -0.7564895288126194, 3.14347716394247, 1.9997048562387825, -0.48097319011461337, 2.107965451883735, -0.1613531017864956, 0.2033118343664405, 0.5401254682914538, -0.3847697205247119, -1.895957597448719, 1.913235335634565, 2.2017086575851543, -0.12440040195177367, 0.4183618481631141, -2.5507690723713754, 2.525201215455548, -0.8558486893533912], [-0.0674654647923094, -3.460874508307765, -0.11150330757326435, -0.6952097172878987, 1.146540347633728, 2.6801310973161954, 1.000157388552262, 1.5328038195629943, 1.3067970063824792, -0.21472817824296445, 0.8071714894118828, -1.5574121459114962, -2.2471662839774535, 2.96024988373075, 0.6929062139207159, 0.12811791664599767, -0.46706134112911696, 1.2424230407776735, -2.3688355167304707, 0.005921741056038279], [0.9639321635496946, -0.4877979683363289, 0.7745767325536984, 3.0428351378138725, -1.6844078169804395, 0.25174342584899506, -0.057163536394167214, 1.8769417211793171, 0.6333430025277603, -1.1082452439601524, -0.08841847401645801, -0.24207422478636514, -2.7491892667327766, 0.4322856831308232, 1.9645211308384787, -0.22435396625709392, 0.2216461302882888, -0.0005526758780406251, 2.32983856101314, -0.08312516119431022], [1.050779666058272, 0.211765887176409, 0.6192343738009742, 0.49475974970098924, -0.9671941274867356, 0.3950598598375258, 3.226268040771136, -3.68743620374292, 0.405708696822813, 0.4092513979694292, 1.697378510567496, 0.6793111817928621, -2.292706665919425, 1.4857176849991456, 0.15251801752585534, 2.2534815088019915, 4.030551971103411, 0.2938616077552841, -2.7996193503886575, 0.07912924413544115], [-0.7058900101839521, -2.020967624982559, -1.6602727453654933, 0.24380864596287136, -0.6959818606430161, -0.9465790326373649, 1.2284129168330555, 1.3041951783172063, 0.15495601622647467, -1.334896141679383, -0.4306020522841166, -2.248462070259803, 0.8892499996823257, 1.0094549997111106, 1.2094294070061444, -2.540744978042942, 0.8559370774844677, 0.24882268180556857, -0.989255179335309, 0.8099783065648162], [-0.5088041155716198, -1.2096067737920078, -1.0389645366195377, 2.089639113686783, 0.9334156267442877, 1.4357948370779403, -0.854246963154418, 1.57866593839129, -2.530604091115623, -0.5510983866312148, 0.8945199623303587, -4.2635926915748446, 2.5360026043482686, -2.898794605663315, 0.3180484564377456, 0.6982148889612029, 0.7202684289947725, 1.5670317020289164, 0.7205322308862889, -1.9679265472938925], [-1.3215228968248414, -1.588747246885588, 1.4095938396773529, -0.5013480163147397, -2.2118455699668242, -0.4694089874569268, 1.7963384546323025, 1.249938538437912, 2.0744778521813605, -1.202963877787751, -2.227025679060616, -1.2795302834632987, -0.769300367166294, -0.2059042528964825, 0.44836028470144024, 1.858686113289901, 0.3531589729605956, -1.5989749450361368, -0.7860442079525798, 1.1117637506389644], [-1.4615417432681734, 1.2441621148431652, 0.9617063223728085, 3.237210364685107, 0.7921573562747568, 1.9931512513574516, 1.1158496288325088, -4.558300046670448, 2.360744334571483, 0.6957758784963723, 0.8335694669253687, -0.9701997724419452, -0.9125777128930284, -1.803073573095688, 0.9567660982986025, -1.1154276527237836, -2.9544152003675186, 0.497447179988704, -0.5922189736137402, -2.2818500856187445], [0.973577882329526, 1.6113970041990358, -2.0805169756086315, -0.30088640266050193, -1.156370907069594, 0.9439646973196791, -1.7272939406810388, 0.6293845167439465, 1.552368335895379, 3.1333222017759725, 1.2071532973224857, 0.4728508391179265, 0.20648198731361408, 2.3984017951161127, 3.632456270016105, -0.8838460142465195, -1.154098913105877, 2.245074159537978, 0.2540010181818111, -3.197972222995759], [0.9243495641148718, -1.3203317128690164, 0.10539566717664987, 0.2608769765543243, -1.6470071234335613, -0.8990651757565084, -1.9635395040294705, 0.7288113230709674, -3.636031828270703, -0.4486842044957842, -0.7947674277354521, -0.561367572544665, 0.9826335798230368, -0.9910959860016628, 1.2108995391014306, 0.46576016971344647, 3.3794999076834977, -2.0164266241186954, 0.7028625638892272, 0.7673901259409713], [-0.295435623786763, -1.0926405217604402, 1.8076421589799525, 0.4233824150586013, 2.1315912879283765, -4.707322227753682, 1.4484052386775186, 0.861502073153893, 1.6024356822738453, -0.3494733476759581, -0.6140238575942243, -1.7098471848811168, -1.241957107266658, 0.7708262939148421, -0.3016380652244186, 0.7484213489210101, 1.2242877134181225, -2.0946805798314134, -2.7069409942383653, 0.884535883876539]], [[0.5758921799417435, 0.8183316425707808, -0.4322741789814072, -1.2325606905378206, 0.06693694560080664, -5.148416873651232, 2.2700631168344945, -0.9063868425366577, 2.3272717707221244, -1.3117853320686232], [0.3185109881298659, 1.2786978400218196, -3.410561446153289, 0.9328272553967326, -1.3480290738701397, -0.0033991369947177327, -0.28104481732749764, -1.633407675485399, 0.6054953650009657, 0.8606370668357332], [-1.2981152727493754, -1.4482807754653522, -1.8586746590063308, 0.7465895009800334, -0.09749161103097766, -0.06114083990700823, -1.8752607080976835, -2.0946639854508584, -2.6280420495980907, 0.009756879290719871], [-0.35743758162176703, 1.5374399567527344, -1.5969081113587056, 0.45097811909475194, 0.015769149058406, -0.16777123160341884, -1.179455840822413, -0.6226802026759881, 0.04221469480405269, 0.44375331564531256], [-0.2804388035461566, -1.637856667992302, 1.2490183865977433, -2.8993840188855486, 0.6016031803609171, -0.21384395599702374, -0.2861840407379108, 0.9728025499331674, 0.0592697340505247, 1.0034686739967562], [0.53391764211564, -0.4363831989648015, 1.8568248717933615, -0.9806715188650135, -0.8249146584619875, -2.610335989636313, 3.857831981149086, -1.1316378388496684, 1.7677423074388225, -2.390851149810229], [4.446803910523349, 1.791179041126953, -1.0764988545753436, 0.5819480447919891, -0.9393874430492425, -1.1099990002625792, 1.086058252688162, -0.8140524988907256, 2.6137608863694406, 1.2572651690006615], [-1.843139691920185, -3.2458175785135936, -0.7696089002785074, 0.8204545656971534, 2.4925675635356925, -0.48022940672155273, -0.12723489794568962, -3.0083283264989213, -2.137477663716028, 2.7149812025464324], [0.6450066127842139, 1.9701703764872358, -2.3018649044411483, 0.9223409140652545, 2.9125259474461465, -2.6132537330631616, -0.4056320411777495, 1.7227910108959288, 1.812353968836562, 5.170217981773046], [-0.8534018008880602, -0.452706897989164, -0.7668331943517886, -1.0657782323355776, -0.17328373647025597, 0.07772181235179404, 0.43522106410672673, 1.0578704212619896, 0.5977326121543011, 0.09721436478373141], [-0.6570932517888467, -0.8240387413532871, 0.47341109925437247, -1.219473461740028, 1.0087562625769513, -1.1414379135540054, 0.2723954456576747, -0.49565554585773325, -0.11561361273554148, -0.5581139206073159], [-0.18677961647891636, 0.052940836697751056, -1.7323461749829387, 1.0918004382541142, -0.7768118098899219, -0.07780626245504031, 0.3415152690831499, -0.9535709659288636, 0.1423149398348821, 1.6222482046554105], [-1.0225953485868302, 1.2996818285857794, 1.4020342922439064, 1.1094762153096474, -1.6299769890206335, 1.8773560060294716, -0.577261279487236, 3.3048255646216127, 1.0027172828913047, -0.9286371633403029], [0.5765003269433985, -0.7391666480928912, -0.01915837978176989, 0.24985116707215668, -1.5060176703442858, -1.400995681204403, 0.5406717850952094, -0.1336112889569634, 1.7340252811548074, 0.3894556411489921], [1.0610387409792523, 1.8462478176440105, -0.022593154183346068, -0.781662470915387, 0.4470875771756563, -1.738050987544193, 0.9334487319647872, 1.1047202020637983, 1.9706933339395325, 0.7921922522216543], [0.9768799899869676, -0.5028386703826854, -1.118250378010494, 2.2436651329817727, -1.2631200489506358, 0.6798663898518035, -2.822170101444334, -0.39314105358484214, -0.044802313717363894, -0.6141009653055635], [1.0185981420594958, -0.7573298263032401, -0.7472247155592513, 1.1678031316803825, 2.751387611866353, 0.7809563965411884, -1.8334602154515043, 2.3455447644904424, -3.591450462925179, 0.5240380229345133], [-0.8892777396268754, -0.7065973637045564, 1.7947534916228638, 1.3847270022368383, -2.8110339189757516, -1.1972628465888933, -1.144739809361577, 0.7362933246685831, 0.6594436732971222, -2.216891805402801], [1.41509937257344, -0.5734251215911402, 1.0623602312857539, -0.8956412284554166, 0.6663256557228653, 1.5002547918481777, -0.5649317576037135, -1.8412143980469107, -1.3603223239617868, 1.8347827249747324], [1.0973891043209107, -1.3659092348647026, -0.02249564317063556, 0.24105613216998464, -1.2076965191537365, 2.640307487429081, -0.607486438931927, -1.0096036518354599, -1.5064249803404695, -0.22706186515619423]], [[-0.5082774965866395, 0.28004353187004605, -2.9300101747332286, 2.0231405520016947, 0.08478069785137095], [-2.1403044135032228, -1.7101700535528004, -1.4598630919577062, 3.2336129516806045, -2.0431405298926775], [-0.47995904607048545, 1.4295992881749846, -1.739907121638852, -1.0516725774987712, 1.0664798409128453], [-1.3658698100910482, -0.8635034673845732, -0.8293546008655203, -0.5088099727254429, 0.1853354252394251], [-1.168879423551906, 1.8368919484955946, -0.7372480448792927, -0.6773551551494839, 1.3233861870568966], [2.744576809463558, 1.0961404331600382, 1.4310250181192037, 0.9819271454782912, -0.08442796243995801], [-2.0863980180471056, 1.060573293290289, 0.7118079934757221, -0.809321799131925, -0.6180754513791736], [-0.580594132053101, -1.7782879847456934, -0.07028757183384693, 1.7367146119324683, -3.0626748133406485], [-5.093174154351361, -1.0553301835876951, -2.3078293772336793, -0.0265292280790374, -1.2640701425670677], [0.9435483450539757, -0.5148922932545736, -0.7762383204799604, 3.013272218806888, 2.6767742992039283]], [[0.514069918928819, 0.32817657440509734], [0.27489272513261254, 1.5429762869120565], [1.109116327642568, -0.008045090710205626], [1.2421897424361366, 0.36648147206518267], [-0.6439974294498512, -1.4428622691047808]], [[-0.4312522922603917, 1.4731463644268337, -0.07494443848921277, -0.9381476323681528, 5.274003906436439e-05], [1.1743646904968637, 0.36540842925817435, -0.10613757882790205, -0.2714613447387481, -0.00042457174838587557]], [[-0.9035758152759795, 2.9224808792054384, -0.44213481651329345, 1.8470161284465028, 1.3248801410039455, 1.3324848013941808, -0.3959650812587169, -2.666412579078373, 1.6088138695921206, -1.949767803275665], [0.9335813707654308, -1.0478013640998014, 1.130764478883039, -0.906938440972699, -0.268889310637532, 0.38823470867278326, 5.513268129987985, -0.2870678801495934, 1.2627616981943655, -0.649753698770074], [-0.4861612797976943, 0.08567280486064535, 0.39534699008583, -0.40283808601088006, -0.55346839439299, -0.448849631024374, -0.4896851865832901, -0.8665072177357516, 0.2040660863816884, -0.012746323874895852], [-0.9785494845503455, -0.20438785043350052, 0.12447986124566483, 0.7375288969815388, -1.3199463310821389, -1.3846935882657372, -2.599606020947936, -0.5702455520373712, -0.9027276944100208, 0.05759681027423832], [-0.1465219485636512, 0.22203417782888527, 0.3875194438045186, -0.26080882554346463, -0.5468091407397374, 0.08535698666050762, -0.0786689255862878, -0.2957248313701457, -0.20544774406575717, -0.23082250550035058]], [[0.028896642164019333, 1.521058768302379, 1.170606406209675, 1.6469288801516064, 0.4505908186611033, -0.547337606137141, 0.3640934848717407, -2.387533730246408, 1.5707917223550698, 2.370455241016507, -0.41089703090557195, 0.4090688234775554, -0.7247584070095253, 0.03673249670217836, 0.9592214812824814, -0.4596503521438533, -6.466822714125723, 0.4851665356216123, -0.7375269418937795, -0.9036264238522449], [0.17869255255344887, -0.9668606585100232, 1.2585143575916626, -0.5991571307955015, -1.2920489171598228, -2.40997591660874, -0.2299107201089184, 0.3022127893755436, 1.0092169659573522, -0.8876552945419851, 1.6746146944869373, -0.25541795750708435, 0.5934907970204025, 1.4268296908261295, -0.04558867951253525, 3.2304054663338535, 5.990422236245445, 0.790345832354672, 0.40618648862560125, -0.2676059440198666], [-0.3216372701014767, 1.6097686797943407, 0.16846553477823056, -0.333631434198533, -0.4764060561701035, 0.5229962330153245, -0.51588566655614, -1.0732581437573157, 0.31403426927660444, -0.6566213601539643, 0.00147688675814927, -0.6685388056116852, 0.8388779194120014, -1.4002101483183158, 0.050518948962013296, 1.0399449317453824, -3.3099190401030096, 0.040488271704201106, 0.19454013677058316, -1.3060676337724333], [1.5815094708439001, -0.7923085792395109, -2.3211475639665307, -2.1884245042259223, -2.5503760692666715, -2.1934528814688483, 0.3227553926180222, 0.19266825141954683, -1.288422522538264, -0.7835122036109055, -0.6870613950930464, -0.014506988412944385, 0.23820735780916785, 0.07633580442432528, -1.2342924553295656, 1.1667481369879809, 10.34921027648169, 2.3651325384470545, 2.039843393469034, 1.3825858457305549], [-0.07115918128658393, 0.4229191547435327, 0.1846153264222469, -0.005337998893614228, 0.39676655958042534, -1.9938001107957495, -0.7914119348427113, -0.6979747928665736, -0.22209997634320822, -0.6801165559096718, -0.1111058162432145, 0.5063702842414921, 1.7421873298365707, -0.9345221250296635, 0.9954105420640269, 3.377298854164584, 1.2618528335436485, -0.5855417847967397, 0.9684954751479532, -2.2994264569733858], [1.988250345043295, -0.10206953805589997, -0.19990099830773286, 0.6051555221721523, 1.1777360700500141, -2.6877469271599286, -0.34325202675553695, -1.0254663788773826, 0.06969967030391605, 0.34684569310746677, 1.0631938708105308, -0.7698555809067862, 1.560443585260171, -1.8623613855221712, 2.082538626365572, 4.460046954605876, 0.5143733408736144, -1.1215839722913474, -1.6483455183963767, -0.30291753195595617], [-0.20438703493283725, -1.7361977729157718, -0.6356369668553232, -0.39013972221019483, 5.3649015306772485, 0.09610745880049931, -1.0292146544825314, 2.6212389699972225, 0.7883162462978285, -0.7196246884480397, 2.0335769321558703, -1.3540842218544995, -0.34230460853706285, 1.0999288503804285, -1.1867330860039444, 3.038311648267696, -4.406869751391241, 0.13038388570187417, 1.4362423584786208, 0.2627802182474589], [0.4500485595142985, 0.9513739421290732, 0.7239021633664473, 0.3053559424317976, -0.8705933982473687, 6.009845252684976, 1.934949812027851, 0.1991265329256335, 0.4420260116704283, -1.0920340544140525, 0.44186497871808, -0.26982960608918405, -1.5110482807780141, 0.1958850962759961, -0.4937636804562854, -2.347110788547931, -3.7158738447782858, -1.4694301612981893, -0.7755569761456548, 1.0319075301195075], [0.3933076310307205, 1.000466470785846, 1.305840987251116, 0.7472474151088798, 2.3019732915672746, -2.732927958875568, -0.45393891289124305, -2.167018854400223, 0.6320518702505773, 2.9148775443691615, 2.128121360780777, 0.29236972554974644, 1.187016044208811, -2.455828492606093, 2.545068314755116, 5.413235373758766, -0.289578026031904, 0.16466773829036338, -0.8033409701590019, -0.36589512573782984], [-0.440579074986553, -0.06472392651535379, 1.5808047413929311, -0.1171347173271581, -1.2168938035223882, 2.5366341693867915, -0.11760193840959635, 1.7540576772543395, -0.679763462489314, 0.7062613388728104, -0.8528613071588598, 0.5214664736698152, -2.886506069491854, 1.9352855774441065, -1.2874072548454316, -5.618781186407663, -2.2168364507734215, 0.037961670754704906, -1.4135203695551966, 0.0981228892235501]], [[0.37413098254751054, -0.2963982694472053, -1.76038925636394, -1.6008759025520651, -2.297180762164994, -0.588646458882948, -1.474374002970866, -4.050547387122375, -0.2846129115775608, -2.3826534894954574, 0.2779259928577022, -1.1924142913192604, -2.2845314094729114, -1.4179422887243316, -0.9527567000256515, 2.325537323010726, -2.65685350041781, 1.6131308565223321, 0.8668653884781184, 2.545697346694403, -2.4548002276887186, -0.014091188861556032, 1.9701915933376648, 0.6560528591438614, -1.653460866460292, 0.3177951282879006, -2.49265097435284, 2.7869100968349514, 1.0138360956298924, 3.0523572317696024], [-4.9877689198195085, 1.5028779073142393, 1.76632909489905, -0.9773169497341735, 2.371507141638553, -2.934471843676623, -0.2575666492004886, 1.0184742212148146, 1.2037791870831704, 0.4413148661975076, -1.6537195960941262, 2.046514105034371, -1.9832939038503534, -0.7674509947426958, 2.9789923190633396, -2.3719072950365017, -0.06330742387973369, -2.7790653619007766, -2.202464176498721, -0.34719553918526835, -1.036807165389422, 1.046200047794944, 0.2754154840028485, -0.891833927014478, 0.08581310119676795, -1.4393098664158694, 1.0470371002966985, -0.7240786136899949, -0.7255016441420181, 0.6488580843048989], [-2.4838842756592268, 1.4586375139311982, 0.6469185160294622, -1.220991970592002, 1.4447553493223944, -1.8162417300724985, 1.4447831288684685, 2.0227399978321685, 4.060985171990628, -1.009955460968402, -0.13412717365895135, 0.23389988403133627, 3.055449320727909, 1.0941611253485708, 1.7929805551062268, -0.8962892897003765, -1.0120986003677448, -2.2735363015837193, -1.3885369505446417, -0.3171273075013929, -1.2103653906987433, 1.482011883787921, 1.7333872693309498, -1.7487811853756754, 1.5765360318601518, -1.3208451331481887, 1.222822845209695, -3.5050663698964044, -0.7697092612430683, -0.033425319231952716], [-2.3137238819924457, 1.4290479735836157, 0.9411308403419947, -2.432630041159488, -0.9693875163256659, -3.11313085107908, -0.5865589256237927, 1.8833685716748436, 4.276374068919104, 3.2781856426871108, 0.19390772040616228, 0.25476827957637344, 1.1755104307078994, 1.9452112804853061, 4.431829889423015, -1.9283762465653822, -0.04352414756155918, -1.4528223231551831, 0.30789797689534676, 0.3589820676562571, -0.08665326558210606, 0.6173469162384291, 2.8322277438878265, -2.5596747522811496, 1.2863744151318308, -0.4694998745148283, 1.4880034477708266, -1.6576693748341071, -0.42812325192170947, -0.27907402286812594], [2.543798835868728, -3.4163702051081657, -1.2791948392444585, -5.667983862501765, -1.628322197632792, 0.11451516207183766, 2.5895966535918697, -0.7043190662747972, -1.4984218067006976, 2.586020152324607, -1.6366288525279402, 0.059628829094700575, 14.978836584604874, 0.7585211885624203, -5.426113985029013, 5.065229238049897, 2.0049356200102477, 3.8227626341312133, 1.0924268597254225, -2.801636104208064, 2.0120678425547958, -2.7592402615518674, -0.15779444226447778, -10.666934417710221, -0.8547550331056112, 0.6376175636588934, 0.2368288237081803, -4.212246101617896, 0.49094364827386255, -4.052066231221016], [1.1007200555388625, -0.6779859996469844, -1.2614446182958121, 2.201251209221588, -0.9185250172345085, -3.8151715378757594, -2.5344399945039324, 4.49087292433224, -1.939002278480603, -1.1979078140733457, 1.1893058075950311, -4.067022349458925, -0.9303861206525713, -0.6699467999744179, -1.9176508212390202, 0.29131140216693185, -2.0645156454022087, 0.5524384984537491, -3.508916354158452, 2.321416799283628, 0.05052901952386273, 0.4394444799482112, -8.7406370475122, 3.436348719345766, -3.9582842049940528, 1.3041296213865825, -0.5362382328037013, 0.008091774072946093, 3.368994120032667, -4.17337409061737], [-1.4144773088175104, -0.1260561143050369, 0.7038009883245652, 4.884741848619286, -0.07798890924477765, 0.7486707139301244, 0.6700067452983031, 1.4635823129589376, 0.49213746227844835, -0.6890283254255087, -1.1630072066894475, 0.5393622607643772, -5.787997334149788, -0.7186817959272324, -0.06797498779086517, 2.0709768475194994, 1.6918195743175712, -0.47264450419406856, -2.589442547633769, -1.5543486990511146, -0.05584315595983887, -1.0938614510844138, -6.787500572885011, 0.3439140657182392, -0.47942857531206007, 0.6309804603420339, 0.4219644268884378, 0.5115736987932697, -5.032169580273429, -1.9171360350222122], [2.385904942107837, 1.7255157435094601, 1.3677478928147788, 0.23490349623396295, 0.10116011886737021, 0.5500621725529348, 2.8878640398799513, 4.765059233659026, 2.3068992654690548, 1.9314345578188257, 1.2652259046401417, 1.3038861270675481, -2.7994443126608073, 2.04077543538871, -1.176446040238117, 1.6133500780752805, 3.4842727504770648, 0.08802093795029955, 1.156741992386841, -1.4629887661718866, 4.24209415703782, -2.045598667071994, -4.020279501212564, -1.8409707696750242, 1.6665755564568507, 1.8208891679956738, 2.142602071355704, -0.3944461034635511, -1.3245822467687176, -5.530447658617308], [-1.5591373738876544, 2.1545820834410523, 0.674116518914886, -3.4553664454306023, -1.4571441410260977, -3.15575840698869, -1.1435787625308496, 0.290871605644095, 2.408430566542996, 0.9251332804549731, 0.07388757182371355, -0.9948683300190273, 5.951986741104828, 2.0402483541313434, 1.8239104265378532, -1.029976673061093, 0.7178564289154039, -0.17149376768840102, -0.031423200064531975, 0.24082261556799056, 2.1236511743900466, 1.9542941954073625, 1.2457903007119524, -2.1926953010400534, -0.3697295354392263, -0.7113559510918224, 1.243623265049566, -1.359078217403539, 0.5895080682166873, -0.5022296295584572], [-0.24909228282269671, 1.7046021682601151, 0.05867716912914339, -1.7271888617248636, 0.8131320377797884, -1.4234199491156303, -1.4850675418896888, 1.3051733028055414, 1.5392275568214602, 0.3825820268482482, 2.0494888636031203, -0.6936171564406223, 3.899909603161296, 3.074399386387698, 1.622957252258828, -2.5558858929626656, -0.65787392708966, -0.3246343535462566, -1.8973972009471616, 0.7061556921921279, 0.361057364200992, 1.64286503347995, 3.8267999438202427, -1.6921257743406977, 0.5474480004211852, -1.286092466150322, 0.3998909650046179, -0.8056866845208783, 1.83070225008115, -0.3886208400145432], [1.6513892661761032, 0.9581760154348528, -0.4432863869799914, -7.282368915094294, 0.5763578660955997, 0.16630855025416272, 0.5356948800714649, -1.3453191112388294, -0.0001860763992285735, -0.22428595082578975, 0.8517985986997962, -1.3690035302304278, 10.443248073734008, 3.9032484954896054, 0.7547339744669745, -2.2468839361877158, -0.9490358744992063, 1.1566140057800507, 0.06520721315320252, 0.5242788714003865, -1.0650108030192982, 2.185558037839724, 6.0154719309642095, 0.04396693853109971, -1.6445677174173792, -1.1211574790147487, 1.3874141655866727, -1.8722578505869591, 7.029462277586898, 0.4012479324182004], [-0.47881138683521934, -0.7522032130405993, -0.032220065750528167, 3.4694659368687573, 1.394370715365324, 1.5384370073617675, -0.10942220267225637, -0.026237504877066855, -2.5648054748730336, 0.15360505718474396, -0.7075503887952667, 0.7740328097626379, -3.352286275512218, -0.9121098398389103, -1.0699624620519732, 0.8826644858214657, 0.167244526942161, 1.162239027287818, -0.29226243917728745, -0.8984336319873296, -1.1991333348480542, -0.48642527705920896, -1.5604648689171094, 3.9215202058993506, -1.5923533470195865, 0.46068822871892723, -0.6650715269617256, 0.9317037080054056, -1.9789057863350432, -0.42360216038316933], [0.28013197210780705, -0.23047760917060559, 0.20900016830498122, -1.3576776161577544, -0.4791311722577017, -1.2641170312192695, -0.7462509512445329, -0.6051983017423367, 0.02002407883218721, 0.14928542763854652, 3.3026979135107553, 0.8137758012743064, 4.058227663044568, 0.06679112903200668, 1.4703897857581756, -0.9476758135063833, -6.015882066166468, 0.5020478631274925, 1.3316945263067355, 2.0952635865725515, -1.292559018535151, -1.0671474000541843, 9.063988202149496, 0.8137804688238363, 0.7316375928131991, -2.554178066986319, 0.8277856447829555, -1.888534736765863, -0.4692329876736301, 5.07162815562145], [0.0995431859871478, -0.6014828957854688, 0.9878551455147769, 3.6266204668503335, -3.004712419994312, -0.22481174660686268, 1.7118020196372932, 1.1485102466152068, -1.2777249068802747, -0.3521931396627252, -0.7189021577719882, -0.7579777221772002, -4.253465947235494, -0.0044491577045728346, -2.3483408404007458, 1.7083602364225206, 3.709128462476151, -0.8290505344547056, 0.7554070401459186, -4.3686812223842235, 1.5817235623571684, 0.4199168013383421, -9.905997497801383, 0.007564031566762431, 0.7218849369987769, -0.13370273832378626, -0.19144577365793233, 0.5912497731936577, -3.5068948969791927, -3.1671740754157476], [-1.803390438787451, -1.0058096278801707, -1.851111565164389, -1.9914781723892026, 2.129794172670096, -1.1619983565199163, -1.3642134024249057, -2.361848277372695, 0.31624338582857603, 0.3994086484850084, 1.5530734727026296, 1.483931786355368, 6.591842895999925, 1.0286331776509887, 2.9984637574217414, -2.4774582691839226, -3.835136063605283, 0.45293260311718114, 0.7656021768953323, 3.1059178721392775, -1.7086960578151438, 0.486394319364319, 10.273301467847167, -0.03369979573280768, -1.1458331969723412, -0.5821878719347144, 1.0174622724967182, -0.06944697923968988, 3.81943369815069, 4.163571520389714], [-1.0301598283594895, -0.0978419079619206, 2.738259102914287, -3.3340319092548905, -0.4371762161106607, 5.102708843359826, 0.9546148733376072, -0.7678113289452004, 0.008093345252990061, 1.1343322894661114, 1.212501022232218, 0.15464154015102932, 7.248617221867904, 1.47883734222408, -0.49172723354113873, 1.3413367811589951, 1.657115570017405, -1.7756979966758006, 1.514530224967178, -1.870909204947133, 1.4060262543410338, 2.5518747876613608, 13.491891118867912, -2.837275629902679, -0.5305068711097743, 3.99163733186225, -0.7958961810285403, -0.9954082537910268, -0.5688558901478662, -2.8539431995954048], [-4.747815379105445, -0.7738358519022824, 1.8056205919074455, -2.7185204715212845, 0.7294484297329875, -1.901358559984572, 0.6212078555806622, -4.073809504847004, 2.4283410532595724, 3.1496180141203336, 1.5701033540757834, -0.011871187417777004, -4.746925715120339, 0.5530883632445863, 3.504891583500603, -1.0531774395292197, 1.5531879527153316, 0.8766969595349882, -3.508581755438173, -0.7068496062204518, 0.06568995080918993, 0.5124783269425426, 5.253086189413248, -2.255491968021747, -0.15194617295209334, -0.7256794414222513, -1.6663423672540258, 2.1647387831450895, -0.24706582315335093, -1.9424167420037126], [1.3198834508229285, -3.774805126030421, -0.3379800729051943, -0.8605225612976278, 0.07478977644054785, 1.0329596109165096, 0.7962769703020572, -3.451774411557986, -3.4235215610647827, -1.9917189107355002, 0.6046892490628861, -1.501342149955373, -2.5796762064126657, -0.19238060070636662, -1.9332905963540492, 0.7668647889136005, -0.069581587050699, 2.190472407999948, 1.3166390187046766, -0.2993941030711484, -1.844867999909881, -0.8740838198622193, 1.0403378818828515, 0.2635342591023397, -0.8083849229375987, 0.7830620472302691, -1.429200365663286, 1.5923834181637035, 1.0866594872446214, -1.4309156896064303], [4.63673763527697, -2.888824745691992, -0.9979369411667761, 0.23032976273987377, -2.107145748822982, 0.5894006959463104, -0.6368295786879287, -3.236411131339366, -2.4435412736592705, -1.7714659178769925, 1.318848908266833, -1.5554112411593584, -0.44969482412001544, -0.5585410959463459, -1.883020528358297, 1.9683227818833706, -0.9604065520034811, 3.298419081329564, 2.4248987664033494, -1.130579918671475, 0.16736738871255044, -0.9256648821737865, 3.005441462380705, 3.2463613377650082, -1.0426569237486805, 0.30239576778749666, -0.9549801534290667, 2.3154692606957057, 0.07223315077779666, 0.9131044333995726], [-0.13118290062165508, -1.4135639369578459, -0.1934522411135566, 4.206481378572394, 0.34345789040495106, 2.9068210847653386, 2.482198448173723, -0.27600782497290144, -1.774837001126626, 1.3320185024808164, 0.195005355893231, 1.4824978490106333, -10.075400865628819, -0.6064248804749119, -1.4413836640693078, 1.3750231672717437, 1.8557221766210417, 0.7698264513299403, -0.28082131158376206, -2.040707001135273, 0.4929422684467714, -2.2462914878275693, -4.665718771764415, 1.0116059700857323, -0.249317453182057, -0.02295930017184793, -0.5046622369811359, -0.19195952784408368, -3.7400472007794927, -1.0166363810400512]], [[-0.8070583060057649, 0.6894879542807596, 5.184933037652154, 1.777904827746136, 1.2933222271922176, -1.962518691122516, 2.9533878732071623, 5.159887747247548, 1.138337590849115, -1.8742646492447508, -2.224557478213397, -2.432550660310043, 3.755965885080465, -0.645885423092441, -2.0901406837022747, -0.8250021807275899, -0.103900885729682, -3.5397078998161042, 2.119425767872557, -1.0702957725931166, 4.054334290358962, 1.7705856981520216, -2.5993483180213577, -1.1710131912528183, -1.109495844589522, 3.0264667027722916, 1.3564722658841812, -0.3317969746796151, 0.5773123597615791, 1.2801819551016722, -0.17828529594791825, -0.9937527377436303, -0.29189243228759876, -0.8860717615303859, -1.5111120769696793], [-3.3982839984502053, 0.011342302536689879, -1.8157882725153174, 0.13268915450388188, -3.096485968559185, -0.8044370642054638, 0.90918068440044, -2.728452764697809, -1.5656382145358327, -0.10616979570652336, -1.4019231785610915, -0.03472300030769487, -1.7777433790101842, 3.7442396157650055, -3.971076269137479, -0.9812691587172835, -2.133375070844207, 1.632401529956655, -2.5250463552434335, -2.958538297879231, -2.197662619168773, -2.51044136972358, 2.1372283792709577, -5.464626360314198, -4.181352714154577, -2.6554824147395975, -5.008439602424582, 0.9473517090521728, -5.288595184916911, -5.685914108269854, -0.47469600032636955, 2.045931710468022, -4.559225792783723, -1.211713170929788, -5.647597399139261], [-0.0959633102424328, -2.1045548647473398, 1.4650039666234462, 1.9610132171177985, 0.2976350070561388, -2.5145154378090044, 4.887390267381745, 1.8929223789441987, 1.4316866295530668, -4.170533001345172, 0.15846513480689683, -0.9494923263597627, 2.7198921092607837, -0.7325209518522383, 2.4616001008222237, 0.5142980578693314, -1.1621123205686155, -5.155911475639298, -0.9669631833213155, -0.12104907467768632, -1.4223216633129858, 3.7231201740739204, 3.3628556878139233, -0.7149840155751409, -3.7663224023866695, -2.2796523346749584, 0.9056039059238222, 3.895280393075877, -1.7523208734612865, -3.3004212732299463, 0.5453971817098046, -4.815297954699918, -3.722223025680724, -0.671175510012991, -5.419169124242188], [0.11761114606889941, 2.7386217570449136, -0.7833083342019227, -0.0009801279009946243, -0.38373901786749437, 2.108391258751097, -2.1636366346772786, 0.6189759262934675, 1.0732494766507819, 1.8510547490941598, 0.41845950361557477, -1.06052232228527, 6.748003035528866, 4.822432750391974, -1.4094145189052345, -0.5770205907154928, -1.1069688156740296, -0.8420394312433285, -2.194115579483045, 1.479166845054609, -1.9960013976964242, -0.696086562275764, 2.3747256303269735, 3.7002888509535787, -1.804673182183392, -1.5729538675215156, -2.122849497600904, 1.961844145908465, 1.0198405572912193, -1.5867590315036568, 0.5014647257903723, 1.0723119148739613, -2.9289474099830177, -6.350549143242451, -0.10417390866973969], [-4.0014057942522765, -1.3555085719858917, 1.7181652949219226, 0.7259020056888481, -2.9745375084323085, -4.02330322737086, -1.6413063707812132, -0.4388631951392729, -1.5262090459172604, 2.6739438185618916, -1.8239547233175304, -0.6987891580201323, 5.302777627583916, -6.902304910138172, -2.5155528468962216, -1.7338412748970973, -2.8503268770738748, -2.265596307349001, 0.9772810274873657, -0.5772922107506138, 0.46516471738949305, -2.0312741909984187, -1.963890382895461, -3.361352072003747, -2.604497219874706, -1.2056774279335412, -0.700982288535512, -2.5988820205314616, -5.439619149231625, 0.25571348968775254, -2.8794252636026036, -0.10878212488316773, 0.9396070333110725, -2.257960128322631, -0.8710641402025995], [-0.07473724300912025, -0.890310174409893, -8.57600451438366, 0.9243063359804895, -1.2418338592717566, 1.0579796230185128, -0.1268200688990042, -2.761871304042365, -2.788787910812202, -1.2699540816920942, -0.1851727841085661, -1.4918029510237183, 6.255118404825022, -4.139144733352123, -1.81082923266636, -1.1160810221552773, 1.8259473020088641, 3.562460039093342, 0.5576622643191665, -4.628818000738916, -0.20193949734555866, -3.194845305804766, -2.1074195122644053, -2.0396759811816487, 0.40574808162129083, 2.2747233538034655, -3.6636350603199124, 0.7421424118439484, -4.166168547327119, 2.686678598640285, -1.4182534754924416, 0.505566598687313, 1.684218309694422, -0.3259492911082236, -3.042169787828952], [-0.45190981995128704, -0.41007790875281186, -1.5761167625442365, 0.9979978555664947, -1.2054953705199192, 1.5665206535622496, 5.4210674027635175, 3.4405254947602995, 3.6632347057916776, 2.201199615198473, 2.88657350546722, -1.5364936954377626, -5.3750261891256255, 2.096046755776695, -0.9861886346388482, -0.8008564214016797, 3.9939540653922667, 0.14515116701047145, 0.14486006270440943, 2.0155564327263784, 1.1102658479395775, 1.1494951676495397, 5.02855865493057, 3.785219963813716, -0.036540750626722074, 1.1332673485844562, -2.4886871975160902, 0.5328514252923492, -0.40931484047299455, -1.9541835620509143, 0.4683498940825988, 3.1644554628946824, -1.121640244858966, -2.5933502228178917, 0.13575542278918995], [0.16723850117657763, 4.419792685438633, 2.3678112032646497, -1.4022156006136062, 0.3339910257747598, 1.1089278316303526, -1.8273660191939536, 5.4088785444536445, 0.04376510566713773, -0.4946425420760562, 1.0650782194294912, -1.6170972465340396, 3.531389644829823, 2.003098574234352, 0.7979413255103145, -2.7473849319401213, -1.682200479462127, -7.5626542103816945, 1.6950279701116482, -0.597632541642119, 0.30666947457859534, -2.0094765436858903, -0.3165875426078637, 0.3953043223258483, -1.9205813540852534, 0.9334298638568438, 0.03341938514000435, -1.0274930796486794, 0.9946322361348735, -0.5343514484518657, 1.1341780111286033, -3.8849228496561206, -0.9753594156099493, -0.5283867057768369, -0.10979276852400245], [1.3355801248430372, -0.4389965745013112, 1.6334182413701555, 1.9619146841793258, 1.252460902920411, 4.906301083846716, -1.1746837925798146, -0.5277516470327277, -1.8467079680757728, 3.9400733398171104, 1.7458467741010355, -3.2423801976533526, -2.4208427921301587, -1.3381309348050678, 2.2364078237000853, 0.679856344943446, 2.518613976545864, 3.1801578312191245, 3.917358545811885, -1.2637601193090957, -0.597649369511565, 0.19704403315838553, -5.552857756329564, -1.3678001515092268, 3.1466229269043704, -0.4445524793036946, -0.8377414179928162, -2.295583338497542, 0.3751243701460179, 4.672781663740885, -1.7327411315844776, 2.6499952377518223, -2.557333041144094, -1.304230495494897, 0.46132777794359325], [0.06532263325088791, 0.10890742112133593, 1.6231864239450637, 1.1305669892248484, 0.16550686687902724, -2.2959367394607906, -1.9391333486953442, 0.12361590191947122, 1.5731363326543506, -0.14592797646720904, -4.391800242285709, 1.0119488337272013, 2.164927222894102, -1.833772741559949, -1.8358740899695096, 1.32384923496928, -1.0847923936270212, 3.653124224799832, -0.9329729644265721, -0.972356252114771, -0.6455698993916104, -2.3534484783328344, -3.1907696834367423, -0.4426427362609272, -1.1715741186385595, 1.5997884837100995, 0.9414737751390382, -1.8005311839613334, 0.508535789753832, -1.4253221720168712, 0.6386238449203473, 1.7694885180759956, 0.6552656098162972, -2.4004097720840756, -1.6388759521677525], [1.9954035683259763, 2.128891979953604, 0.027655047654305532, 4.386480907975987, 0.2397541481458491, -0.8087853181823651, 1.2049519660303167, -0.9345940789348424, 1.940960722422359, 0.12083145624329567, 1.6809651155360308, 1.715423452548586, 2.2945565356838116, -0.14359868170546575, 3.10013649061977, -1.3079178286406288, 2.5104892570947723, 2.47686124486051, 1.5639535074337638, 0.0006182102807903966, 3.0704016707990136, -2.36133596996311, 1.8182957037025924, 1.6260907821247639, -0.9811580539444723, 2.2451611920152277, 2.4298046986699107, 1.7703317605391147, 1.5539294570587563, 1.4414897872323902, 1.8624726256148398, 2.164029473832665, -0.2750047951443272, -1.8325241376567152, 1.8325829905988436], [0.7744054776081145, 3.201794218231762, 3.178529258503389, -1.146731057827007, 3.0815205698916244, 2.831177142319221, -1.192259742413719, 1.9898510869442005, -2.867170120151033, 0.11608158916366056, 2.285135700318957, -1.7732640739871315, 4.226256825700227, 1.5909577906014742, -3.5650080479649517, -1.3445877892513287, -1.3695810749968897, -2.0028099213793586, 3.6239708555746746, -1.2724477605859759, -2.8477563941344566, 1.1535026764329415, -5.232672835378216, -0.46547277863014214, -5.4471327956362785, 0.538282112406774, -2.0373334846406617, -1.9600299502698904, 1.6779821000274893, -3.526535961757071, -1.3172198179022696, 3.6480869557067206, 4.209344442832825, 3.700121232317526, -5.144028331937235], [0.5520353577790931, 0.5960716773468792, -0.7762094684819496, 2.6802966454495514, 0.3928607604873079, -0.2189746730354708, 0.15019653717202952, -3.993044038921128, 0.7869207159803332, 1.963299206326386, 1.4738011573295882, 0.35951109082438687, -0.0918496980600506, 0.5188109585230203, 0.7137675458331126, 0.5669827824048204, -1.2576774355274567, -3.4677053861116, -1.7962261282639773, 1.785616932647255, -0.6647036997590361, 0.10638493860161283, -5.279267118498787, 1.2349433937387957, 0.6842374886235381, -2.479394147015284, 1.2305864043380468, -3.771656152090529, 2.46239364836212, 0.978897255017519, -0.517049332514277, -4.211066647346198, -9.52284711208011, -7.793384546337475, 0.8701723151564814], [-0.9133206693702084, -1.1455213085756932, -0.12404843903015753, -5.472320319969776, -0.9513618430094304, 0.42880851587206265, -0.02552834939715898, 4.9706313071473245, -2.4047999118484844, -4.088941028946156, 2.944480854471876, 1.5128492045741802, 1.4262615990556147, -0.3799679012967794, 0.9704694795358619, -1.104554560362559, 0.7000562717101998, 2.5682960877038585, 1.5169303027168184, 0.050124356594180554, 0.6841140496584122, 1.2750511078408504, 4.735217103794802, -1.5769940589528084, -2.4221812111776577, -1.388208343884433, -0.8774711141329757, 3.3791943192784606, 1.0291280151447555, -2.286068702590819, -0.13113328475542843, -1.9485271605419483, 5.31470905380733, 3.104276913675743, -0.06257606316117369], [-0.5839874422041786, 1.7953862140111032, -8.786701244708514, -3.112707796610619, 1.4223584482965157, -0.7157382928532573, 0.9683181397892062, 1.7438176021618255, 0.30043036034235154, -3.3217117189097602, -1.6993356585671557, -2.1459161919155734, 0.42484126986482085, 4.472543017900845, -1.873981648450076, -4.251170696956443, -1.7826283558221607, -1.6795400392672866, 0.6582039353208237, -2.752320896248886, -0.14480159559188127, 0.38778667449563764, 1.4163870187186272, -0.5952235146760184, -2.7365713762758985, -1.572788885937878, 1.3275299328998433, 0.1278851780715841, 1.7316889802028237, -0.23693970052578198, 0.8700625535853568, -1.6049022208933637, 4.208398613278839, 2.591436586971176, -0.9176179194094076], [-2.5675384080275943, 0.8283756330181871, -1.5176428839677087, 0.034556476169094824, 2.4018970470333056, -3.6150355347553678, -3.460326392558272, -1.3770773281193243, -4.01311282569955, 2.0727447286399094, -1.2084358897832002, -2.004417839092216, -1.017657288349651, 3.7356819631009297, 2.9775835499943453, -2.334601852375002, -2.7394569795604373, 2.409365506594521, 1.5392519940575355, -2.3830675984100527, -3.8829936317444695, -2.028896747711814, 0.7769425744891421, -3.0314638216846097, -3.4886318719518425, -5.505799716791117, 0.5080629846083252, -1.2189438154844638, 0.47312914535575895, 0.7231998696093004, 0.5434616414521397, -0.5629369140267982, 0.8961778135992292, 2.796172375175647, -1.1789473381553477], [0.8136686530206857, 11.953354598046284, -2.2200124110315542, -1.591929169568029, 1.2206172153800288, 5.852451499102307, -0.9326640835688078, -3.978341827180254, 1.9212116387641018, 2.3379990894529468, 1.225229967464097, -4.201189397524943, -4.920289189712985, 2.1225414623505627, -3.452372206813226, -1.9312048678006657, -0.6201883070079761, -1.8464342409284589, -3.6347498874318, 2.7001784129381816, 1.0387940532158797, 0.46027950143190266, -6.01004203412573, 2.1519700257855856, -0.25665062992162707, -0.17519266525711477, -4.318090606131215, -0.2317625674799455, 1.4301771116774977, 2.047301932972691, -3.1717478691847765, -0.2073270393765868, 4.533890960409837, 2.5284926076384755, -3.3266948691810976], [-0.7461864114012294, 3.3256225198083325, 4.805017880911881, -3.9006495500460963, -3.2558967655631115, 1.6622168233671057, -2.4719934094189164, 2.1538099505701465, 1.5833619170630724, 1.8897423590424896, 5.279656834164989, -0.7762590984365105, -0.3600614845611274, 3.360685639681876, 1.2043482476202347, -0.6762688974258605, 5.616745647836362, 1.94145516475573, -0.9007099089983732, 3.0643989734104933, 1.104963245658527, -2.380683725059754, 0.6189253205921463, -2.2182628374804363, 0.5723007033881145, 0.5515200683150249, -1.2376428846394276, -1.3771274883236833, -0.2807065894396944, 0.6328767023069578, 2.0960522419403755, 2.620727220038378, 0.41657238550826237, 1.8407272978418707, -2.0255452945024297], [0.9406176478069651, 1.467193980703392, -0.5832154577675709, 1.9887671887590241, 2.0444558748795645, 4.5296505051737155, -1.039305171034965, -1.9872276114351093, -0.3666445988984937, 3.480402704330918, -0.7756597565741428, -1.2588545493593284, 1.116106979771803, 1.798322791666579, 1.0356222513353677, 3.3303450363862663, -2.9731672669330687, 2.7148414050401364, 0.6700585522068461, 1.3914582793451316, 0.742757825580521, 3.7928496804544567, -0.2688313588884566, -0.1370482845753603, 2.0244012650043617, -0.38158276343290176, -1.9983105036388862, 0.23075892297637335, -2.8693258751738258, -2.6073211766728797, -1.1517356214736705, -0.48053006709823665, 2.5224099956582675, 2.550270451099596, 3.186094693892592], [-1.250863457937772, 1.5105963113028777, -4.048384104955838, -2.4928614110111305, -1.0908464108348772, 3.750997085101811, 2.3572660108296364, -0.36766258720300443, -1.0460887001742327, -0.10130633463604342, 0.4976328077167538, -1.2298580892348145, -3.30397440190274, 1.3871888523998337, -1.98013368998727, 2.470082620902257, -0.15437399972644048, -0.21761916223504651, -1.012631583507167, -0.10341736864997715, -1.1549267107239967, 1.2846105241907007, -2.2331327117767987, 0.8474466931531051, -0.9112527610252262, 1.2811467704186357, -3.535834878022556, -1.632894950204218, -0.22710695695689556, -1.7960505166626373, -0.7424293482720614, -0.9972255061429097, 1.4324660521085741, -1.1074488683377293, -6.141960269120606], [-1.4971926730562781, -0.4371269574978137, -3.3564838708070273, -1.2691912682761335, 0.03424623500164491, -2.5620224458192182, -0.880038188943841, -4.148516533356631, 0.19801813713600067, -4.026041780759334, -0.8052909981755862, -2.5034409675863136, -0.5332467831448705, -5.106033592453096, 0.5707103873824846, -1.5453718829253806, 2.3331870102807013, -1.2474465162471793, -0.577199384745667, 0.11678278414079216, -2.2777313696569883, -3.1502060496414908, -1.5056666682704207, 0.6104831612681311, 2.40027292776556, -4.033430848101249, -0.6679727243401086, -2.1668022634232744, 1.018460637339489, 0.49877136944415673, -2.238465829700855, 2.4710470765163457, 3.223084063051166, -3.253216658579793, 3.982841139976845], [-1.3709201017044377, 4.101594445530066, 2.193009513389488, 0.14977239800256273, 1.3239516784813707, -0.7453276435550288, -5.0602035266275625, 1.0648001674046634, -0.4849523053426377, 5.580292658326499, 0.4188688674970125, -3.520569550199753, -0.556810658693075, 1.6664488682225755, -3.593258210248716, -0.9854331507041395, 1.0591433909217072, 2.627923929007817, -3.574037931362405, 5.03684667036444, 0.7091998076068942, 0.8215430945760761, 2.584958495307928, 4.159366201449671, 0.7326494812681709, -0.010492242394996843, -3.8003336701908617, 0.33019846617970006, 1.8364091976799644, -1.0075771041850698, -0.9782143426744568, 1.0792330130550574, -3.4514596371398465, -2.729330311440266, 3.471624026007625], [-0.32321204035373713, 0.8942582341331826, 1.1563351636966248, -4.177099807108621, -0.04150819454485796, 0.27304766146401915, -1.21492742922988, -0.7839645959410849, 1.8447384193163, -2.5109602263533115, -0.34471403526120675, -1.0692043235741548, -0.840108648201204, 5.613369762263228, 0.482719357727544, -1.6549501126581363, -4.677174967674614, -7.9608936405259385, 0.7869381542848491, 1.8957598066640462, -0.47329749507259133, -1.265379232892354, -0.7889064442728336, 2.1794555484454743, -0.2422517238585162, -0.3628308764775825, -1.0500996989704983, -1.0629243887002706, 3.0448173354063353, -0.7500256066215971, 0.36799977076265916, 3.537909959462972, 1.3481164054376336, 0.7468273049946126, 0.012483237136816169], [0.42338021325898256, 0.22890333184372855, 1.3514402327894388, -0.202900091378154, 0.9045941803940614, -0.5005248965472178, 0.7661630956137254, 2.84959534203404, 1.0887831911055736, -1.6750479588061105, 1.4242844228292435, 0.2009724943830112, -2.7398310195833506, -2.1501564097206187, 2.6849199434632802, 0.12207841124432131, -1.530922847769646, 2.138472459093923, 0.3705655708462174, 2.6591282266894027, -0.2391051857517101, 0.09691412347599407, 0.010876539073337244, 0.14520403126114365, 3.81342087596045, -3.586148737508158, 0.9441806523218312, 0.3655129580808197, 4.855882805005298, 2.6390873499894454, -2.1243057584542795, 2.495857692443489, 4.915640833733647, -0.2307645601209623, 1.937665069844224], [-1.6583480462370341, 2.1856676800417807, 0.7150430203023068, -2.8272846228011628, -1.2691998652405743, -0.7055613007669631, -2.582398238827132, 1.234517332112299, -0.7790893059726508, 0.7748556774856904, -0.9061087436767963, -0.7077825581095544, -1.970346021717237, 0.060368002904284436, 3.261093549409051, -3.4874084739918962, 0.8864567777933174, 0.5791419122435408, 1.2191784833229824, 0.5703251440760387, -1.3512215070654279, -2.5851329366395555, 0.4383467442798028, -1.1708977446231115, 1.7895954290571403, -1.9746279755969671, 6.56399113600621, -1.2882840083908271, 5.26169304198582, -2.545281906780908, 0.33747638687657466, -6.166070081361951, 0.9335822052354245, 2.11256110841131, 1.6821603942030567], [-0.5336481551785083, -0.22334790259945064, -0.8557783842717807, -2.063704940089519, -2.2444183719458812, -1.0472746369218477, -0.43782845983484775, 0.829839978647355, 1.287290300461521, -0.11569051037149398, -4.524874391875347, 6.613249365889523, -0.3185204365399394, 1.3271208074213652, -4.311230131689527, 0.3814634889089597, 1.5329571869395586, -0.7615774194486976, -5.4609040188840625, -0.20796924011389611, -0.6876417375821866, 0.6493093046524133, -0.7989907646544422, 2.6217841702338194, 1.6024576635627912, -1.4537430801138618, 1.58034969714332, -0.8262856747852132, 2.8074601144404054, 3.757264484674167, -1.7464507451635563, -0.6157030721508278, -1.5970641166860093, -3.302886965210236, -0.5197873023267776], [3.4168673350222045, -1.429833644363506, -2.254802600943893, 1.4579128256930671, 0.8659902961407974, -3.107366543733558, 0.8360712370710106, 0.41274006988011647, 1.795632709776614, -1.4117181588265686, 3.11241795414992, 0.41246290859418777, 2.846778027784575, 0.9560980574901375, -0.1589445820833939, -2.306911654659888, 1.466078285389887, 2.365486380248334, -4.29716203466461, -0.4179873346005715, -0.81231761831863, 0.26641768317842596, -0.9031730462590496, 2.5987269677839846, -6.852504120144673, -2.4567515525130394, -0.008211267212268234, 3.4893240993897088, 0.06471978805584065, -2.9807729971800594, -1.4180578380676208, 1.2874621979330085, 1.8708193037080847, 1.9976076799327047, -4.997596077504886], [0.6172984112596932, -0.032038052856513385, 1.3085391198659597, 2.522255690940514, 2.797965730053577, -2.140829664684713, -1.2433976748391795, 0.07067107453671059, 1.1454990236370481, 1.7848964361831778, 1.3421038860220151, -3.536886169898466, -1.885668759184067, 4.315551121118743, 3.6983514895728034, 0.19009353113089134, 6.527181189002523, 4.290763537610241, -0.38957232563095967, 4.459813934646719, 2.0601381571516035, -2.976335581779352, -5.1420780159866375, 0.817486503668274, -0.2048738820993034, -1.4686403916861823, 1.2592012615577208, -0.8853137346214026, 3.8472020889710836, 0.48780710494503055, -1.2657766028072759, 2.9877354736781934, -1.8288929220579555, -1.0390912021462466, -0.29613326275991164], [-0.3739005244378467, 0.3723289995799533, -1.0447963242760288, 0.8648516168776265, 0.29652345282716674, -0.5113205603514744, 0.31603559105105744, 0.7507947012244998, 0.45383435565052965, 0.0221288350395477, 0.7603463826508233, -4.4837378109743495, -5.2299429157415895, -1.6772174380489133, 2.9326820854585556, -0.48366512356005004, -1.4749968247507066, -1.4969177575728816, 0.14377580637315981, 3.149919590937742, -1.0414560853415666, -4.904664124375325, 2.06566029514765, -1.6498805271140262, 0.05066116562152409, -2.751196040716775, 2.6968821002593053, 3.259069574725019, 2.395232887454552, -0.3242251920656458, -0.07993215818025369, -0.5389997801340358, 0.5290205970722579, -1.9161475216583752, -2.9613940636578757], [-0.11258965467633136, 4.2130371729741585, 4.356786729893285, 1.9365714039348896, -1.6149575793641786, -1.887293996630451, 1.0550852941365887, -1.1371180985427787, 1.41700685440984, -0.4008112760273961, 0.6681788657801525, 3.4586806406995896, -1.9378134598923695, 1.6031101944891342, -2.286429122976401, 1.5138900506594695, 0.08423067268262929, -4.638086166839601, -7.196742370502036, -0.3736040561701047, -0.1155696546593336, 0.24758894603857462, 1.3657430305117617, 1.7229558609415443, -1.8888197610751039, -3.093252742971977, -0.8866619374054959, 0.7100313555747984, -0.7590878685312297, 0.16813539538226369, -0.4592886069489518, -0.31272657487032174, -0.5157447564033975, -0.9845845529223421, 0.519753824082643]]], "biases": [[[-2.1229216149032397], [0.8042155844211784], [1.2085250936848593], [-0.44079071244359536], [0.8599678257328222], [-1.1315024264609361], [-0.978098342733907], [-0.5548201825662936], [-0.23177791222257577], [0.6305659846272194], [-0.014859037399280791], [-0.756936394989917], [0.4891005624176173], [-0.37764442504653534], [-1.1938765800914297], [-0.7264696868746109], [1.5551165215291158], [0.4618123500562601], [0.016444994465133624], [1.6107035462353863], [-0.4444616912130556], [1.1953500895897649], [0.6444430920608799], [0.7113448664556506], [0.6823698123743481], [-0.20305207748461873], [-0.05481547661195089], [0.010884747066793534], [-0.8991577287494354], [0.33164640210492596], [0.7188114441138922], [-0.25986394818026826], [-0.20104049391586568], [0.9142779468014502], [-1.1907279772399433]], [[-0.22114974056400657], [1.0866525336185062], [-0.547006312036231], [0.7540619690138014], [-0.404871566414904], [-2.1335498690334744], [0.6856591495659106], [1.0676296120012456], [0.6521902601002852], [-1.2651647314394654], [-1.4031592595980125], [-1.078239094129985], [-0.3600262679690293], [-1.2399506548914354], [0.16390034300182083], [-0.8021419001672113], [0.7432318514475087], [-1.2144565254780422], [-1.7323722654937574], [0.15428895634815223], [1.583245531824481], [-0.2316773109395076], [-0.0925938837301266], [-0.3468158447692191], [1.3424236117365922], [0.317925614053732], [-0.5482597026339133], [0.04106712584347267], [1.1317072511193578], [1.1695272133007952]], [[-1.877746427455299], [-1.115939139429885], [0.23160381839426053], [0.8278712606137716], [0.6304039973126994], [1.7855527647332805], [-0.012829080256592226], [0.7948574848938136], [1.1641243087201196], [0.04702155270434032], [0.08025274976908121], [-0.49073313245207323], [-1.3279653182269104], [0.2749931964946904], [1.0039184756376616], [-1.057734412394944], [0.9538625143729554], [1.8814701884516147], [-0.16058285572645048], [0.4772274986279887]], [[0.6369190482113977], [0.33127909385433696], [1.6650283010084606], [0.41037857258392213], [-0.6875340153833406], [-0.7612939031179632], [-1.5601891003654322], [-0.3396868506677283], [1.9671417285749373], [-0.345334018843058]], [[-0.50403439903509], [-1.8306669569840093], [1.7752372428766838], [-1.313409025967788], [-1.6197595591827383]], [[-1.4419559676361562], [0.3248851237180938]], [[1.7690566003053614], [1.1686235459370753], [2.0500692334291366], [-0.35370394344469114], [0.7008076907288185]], [[1.2119877506183168], [0.15987476152681468], [0.9008626282398664], [-0.35692004101269575], [-0.37077212386414954], [0.46192439178470673], [0.20204569582522847], [0.684098838814272], [-0.7709284052434258], [-0.5316814134432517]], [[0.4475956530756669], [0.3009909823847314], [-0.7854184658357399], [1.1364028252841818], [-0.2469575628440089], [0.382165309564168], [-0.674432882764683], [-0.9324694862114494], [0.17665576491837107], [0.2841127977756131], [0.23239301556592346], [0.7586717539262894], [1.3711461131575047], [0.8215851369020457], [0.5603649040191326], [-1.0214583124201795], [0.00017624025437813803], [-0.050262321015189106], [0.6279668547150054], [0.04044792619699125]], [[0.03452937071636694], [0.032122985322819174], [2.260291849495169], [-0.28658613151094975], [-0.40964506316181093], [-0.5284749691746807], [0.8703078282059908], [0.4781859064317333], [-1.8275387510157322], [-0.2410747298465623], [-0.41625700841859076], [0.9142942048599895], [-0.187958077681651], [1.188320856738241], [-0.6852541979286068], [-1.1768772692197054], [-0.2594387929783214], [0.6048795162048339], [-0.40255786023893114], [1.3433597750157538], [1.3133579792492587], [-0.025948238877951765], [2.7690859318817544], [-1.567293333011745], [1.7142852415660053], [0.41183031649957624], [-0.8845169255653921], [0.32182766245150635], [0.028291234626239527], [-1.0107024051848816]]]}