{"weights": [[[1.7491989010565219, -0.8129956316154405, 1.9135519058890795, 1.0309576325729861, 0.1641842401369031, -0.11523056138267578, -0.8099828025998907, -0.8730129326563687, -0.14403777698977493, -1.8978772272710327, 1.1005355946576707, -1.7426006517228443, -1.432529844099702, 0.5278149294380747, -0.12109994068125937, -0.9533600644253253, -0.3033474797441539, 2.1641684112072905, -1.5922563433813832, -0.910479614587178, -0.1876494327713586, 0.4260284836244674, -1.2910117260407803, -0.23702614295539334, 1.800640393594799, -0.8810210516215218, 0.017846315120533526, 1.7782793596568125, -1.8140363840286997, 0.11954357718039198], [-0.6820482793318435, 0.3131919660624959, -1.271222441320861, 0.44086989374132296, -0.9473794341960283, -1.4445909818181004, 0.8997442679777294, -1.7941056358970444, -3.2742397823928844, -1.9047190846445181, 2.5326099090792873, 1.2815485523905283, -1.0690142334749502, 0.19290093934696553, -1.5261303989814483, -0.7326762484063961, 2.3993217521869727, 2.999398652324289, -1.2352268942634619, 0.6247546008892133, 2.1695629498939635, -0.7199851573812351, -1.3606233130557077, 0.11292254377027831, -1.023897707154311, -0.6703122921754813, 2.5008491735716016, 1.8882136871833477, 0.5879044102013721, -4.275603489652638], [-1.6927810264100338, -2.4426941771126485, -0.021342108625023195, -0.4523143209573944, 0.7700616124518468, -2.406826196528532, -1.3783540000932015, -1.6752578935519662, 0.04443094996489637, 1.0757601681707705, -0.9186739739293219, 1.5221432118917422, -0.5846751793043766, 0.01278582132576541, 0.40315621827763987, -0.5822395305875019, 1.2113155724481106, 0.05474167841343009, 0.6918951741849828, -1.727173465007066, -1.1325104156355095, 2.5084227438316486, -0.7782790838882321, 0.6236246938377359, 1.0140730254249792, 0.43226277236375105, 0.8300680056245906, 0.5618175356772446, 1.842065258613717, -1.3946601884939411], [-0.3086792216773712, 2.663553588164734, -1.415562151416294, 0.9380422141300014, 0.7373909651828441, -2.3719338844234428, 0.4475150342159779, -1.6988121503638138, -0.5637232003494058, -1.2620058688614877, -0.24413801739320815, 1.3466217636040556, 3.287104982742661, 0.6901834187698344, -2.168038031717509, -1.3370631598915232, 3.737331950366248, 0.8978290308546796, -0.7286301199287688, -0.773587791543857, -1.5659661168923174, 0.2789807754021121, -0.011233359213891092, -2.752774289987101, 0.050656493340714356, -1.9062175139182027, -1.2829806804520425, -2.2683586609889588, 0.830118244072465, 1.4892089888356455], [4.846761143270782, 1.8688149279806519, -0.6016741997419844, 1.8219644066457457, 0.7965429798231104, 2.4993134731872146, -0.8651149062377781, -0.8743917661167172, -0.07513594549447714, -0.15826070641971732, 1.3471306067688589, 0.6519363924235713, -0.4704053832972066, 1.895006753411743, -0.8622610257251839, 0.6493939018904458, -1.0216019377435603, -3.1697009775531098, -2.582130130113495, 0.3730645464562987, 0.0018323956533657763, 1.815916743180889, -0.8519219745493696, -1.8444197475167774, 0.38517957076438436, 0.9010855651966467, -0.49833744030371396, 0.5409407125478196, -0.47334501129387246, 3.2885668408131137], [0.273941959081611, 1.1675042671974685, 0.19748493319018767, 2.6843938215879275, -2.2368104353448075, 0.18763802643184863, -1.2160594817907138, 0.2678326976202163, 0.6823275220346265, 0.8828129691452837, 0.3057354500058344, -0.9049111217833504, 0.45066028253327206, 1.6521916030143315, -1.2491453977495308, -0.5211569402711759, 1.6094823888277385, 0.42373934458258933, 0.021190731438002573, 1.0776018960443308, -0.810480250263502, -0.9715981909555303, -0.20454783979162688, 1.904778092844658, -2.0089873634352005, -1.54632928998342, 0.16276948955264742, -2.8854892334936273, 0.0519693180275281, -1.115771010179947], [-0.2236324429614265, 0.9747351086191739, -1.865530834867652, 1.9612024023174268, -1.1391460712315515, -3.9662436752404893, 0.9900698629549883, -2.4119188132462814, -0.03386893121527365, 0.8713847924204132, 2.741117572518887, 0.8215281235290119, 1.737440130196932, 1.493839048548309, -0.32980017443030457, -1.5291714866663215, 1.2745535911119363, -2.766085276392825, 3.2597372997448417, 0.20454475083765514, -1.5038792104191745, 2.0690288377968598, -3.347735702142834, 0.7352609859972938, -0.02682906829588336, 0.9803679369659533, -2.2487478301637505, 0.6764568632029868, 0.7019914110571444, 1.5033063514304579], [-2.843449759496828, -0.7894127370358488, -0.302772757921041, -1.7891942487966264, 0.761256139961518, -0.024312880341459217, -0.34350148080905085, -1.7016031386139383, -2.3143737184938633, -1.0867070833288934, 0.9130345428085886, -1.0899298233959385, 1.6858983062797281, 0.2893265273737831, -0.24570596866894545, -1.164335992282412, -0.06244950217387319, -0.6742865156820671, 0.7707180027605569, -1.9654204008029532, 2.7289450331757727, 0.49497202610459456, 0.17817314831196387, 1.6615084769495951, 0.5249822054299491, 1.4152927238781299, -0.7073858736246218, -0.28591867449610925, 0.48776499815436686, -1.8030982943879952], [-0.585415206446977, 0.9923006128592533, -3.0143667675103036, -1.9663135437938009, -0.649073776797251, 0.5132404268157302, 0.5692395115580986, 0.2542369764884612, -2.542021998108542, -0.6187717565369317, 1.1325478181490558, -3.3001280199202814, -1.6309499307919233, 1.8591182419791032, -1.5823431290275185, -1.2707940253676555, 1.2560939065910175, 0.7044359326871875, -0.39549247294149503, 1.3669115089949218, -1.0873479031889004, -0.48798627507542436, -1.6323824027756482, -0.1278800906223059, 1.0780069001766144, -1.2512603534906277, -2.550151751804755, -1.1978515059260864, 1.41936402802997, -2.0206842897706827], [-0.5959434914645573, -0.49274823802017814, 1.1763875847564718, -0.928823739811668, -0.21674490112228836, 0.089384968987241, -1.6452330334745546, -1.5553957493288568, -0.6621075707683368, -1.4736010834612663, -0.43037000572137735, 0.3625750133166018, 2.2185624600653537, 1.8100268889430537, -0.8469331285631307, -0.5549199299350167, 1.4139423834793639, -1.080055362532035, -1.0384066998616013, 0.9785834960399891, 0.12322291782963267, 0.12404785687019602, -1.17902107369758, 1.2227179211968184, -1.8918702301546506, 1.1359233435451317, -2.032373785553906, -1.4702438438005054, 0.6825893601149455, 2.0262899660166704], [0.7027317052308543, -1.0704789606745204, 3.0281553907839074, -0.7177470927949975, 0.03742543578408637, 1.6504122599400903, -2.154089653245198, -2.837503834674435, 0.634910770565583, 0.5215154440378509, -0.4716466566612638, -0.9070553925102289, -1.3631480559276437, -2.0320511146189513, 0.036581522631630496, 0.4132418923226476, -0.01944641569891556, 2.4432954546466603, -0.1511551834861144, 2.471300548255014, 0.8305420421521644, 0.19199146706905215, 0.43600134272060365, -0.7102833404706028, 1.3051709261273108, 0.17560626064021323, -1.764602767525214, -1.1166570584451778, -2.4744121813174185, -0.2809339060051757], [2.4219393147724784, 1.611562829680364, -0.8367840933867867, -0.5519041557261803, -0.8153936580601882, 2.801829619073218, -1.2878283069072243, 0.5387470417010223, -0.5337074813742885, 1.3106204551612666, 0.6155900031502318, 2.1062639044866343, 1.3847791028525145, 0.2643378795151566, 0.27539062715361096, -1.7259884783638113, 2.153416182067756, -0.0458821811305759, 1.6649829577788569, 1.2518316522851318, 0.5125071615781848, 0.8840956833788, -1.7834106994133643, 0.6485117928338684, 0.24520241029912843, -0.6496095819171379, 0.5978303190416283, 2.9589867174597293, -1.1275228739880059, 2.3225377537981835], [-0.9870291535387323, -0.8961614134643278, -0.43669697185006223, 0.09310763960856216, -0.9385477485947848, -0.16495311919094638, 0.06298496626096546, -0.505308431514527, -0.17706927165513286, 0.02784060075332638, -0.8800246759861765, -0.7463107651880179, -0.47820004394569704, -1.435340918189713, 0.7199686186608586, -2.3218690094085006, 1.2562020449898896, 2.1514436645618034, 2.6405805342971598, 0.3027333844793208, 1.0322041002483584, 1.9750831927934334, -0.4643813057162464, -2.488030654567109, 0.6818627884894506, 0.9137183533680575, 0.9888831967196845, 2.6867784617714427, -1.4958031063875883, -2.987525102063616], [-2.5868327258592636, 1.91752698944024, -1.2152103912245729, -2.945678429689386, -0.8516633773385108, -2.011885331162759, -2.450410993191819, -0.5172280843143316, 0.15397077699496872, 0.7931427001312938, -0.7670517054070867, 0.8435109633665745, -0.22545220156165766, 0.007546977264791513, 1.1126294693347967, -1.2951523187202914, 0.9430221349480903, 3.8885883573547657, -0.46143666555340673, 0.7872624970414397, 0.6562188024702895, 0.7416001877796363, -2.430103170167548, 1.194418867747467, -0.5194149987813349, -0.03154847952484003, 0.4818031256580773, 0.03929338365444298, 0.04355041549870297, 2.5000755679062383], [1.4388539914038558, -2.2858954632393687, 1.6449950707584682, 0.6428408462995043, -0.6114390979463403, 0.5572752733305711, 0.6527319358100583, 1.2265342180077383, 2.4239590790447685, -1.576751403026823, -1.7521290263003437, 0.2159592895001568, -3.063180808760154, 0.7266388710999029, 0.0029298514320958632, -1.0153769551179435, 1.0854588807864192, -1.20831951270815, -0.004983964665420277, 0.7613683926036032, 1.0797618878208122, 0.753602827750017, -1.7442476724762959, 0.6569390377404696, 3.0354650886125554, -1.7924131768581602, 0.9905205041868067, -0.5586214555285531, 2.183111225537046, 0.4097498690744261], [1.0187409030652306, 1.8742127666516444, -0.8991391631976254, -0.3088798739033982, 0.016488574997841617, 0.10102420742134634, -2.5805198970761456, -0.5265496702067234, 4.471008106292511, -1.6335927849761027, 0.4805645177782918, -0.6077290171986487, -0.5629322437839572, 0.8218055024196106, -1.0080253066865414, 0.7031067982110367, -1.4478070077416627, 0.8184583179942237, -1.1891735647386863, -0.035930992826056614, -1.8057367681139367, -0.03571068655794158, -0.543644341256569, 1.738169194404404, 1.5551066787838286, 0.5569000813587416, 0.5185446797128334, -1.51981186330002, -0.6935471636728487, -0.22258820054290548], [-0.33253578282961693, 1.0048653675364612, 0.6235863951822376, -0.7494788043089862, -2.5562483993907774, -1.3603079222302286, 2.0726360631941803, -1.4737431319115424, -1.7449004452007468, 0.7099671164957835, -1.8445879016552629, 2.02557993093187, -0.6044877012909995, -0.3853295433359372, 0.8124913883612068, -2.088197262909216, -0.6059879438803965, 0.973365712645007, 0.5528703657935717, -0.6651950716172805, 1.1460485256342974, 1.6815092269765306, 0.28684090876061685, -1.945853070207714, 1.1708829399078629, -1.5657696506493854, -0.035778632530579224, -1.0339786988715989, 0.32972999839065903, 4.071702979335177], [-0.7115977635040469, -0.04661707689429843, -0.28211076012050407, 1.5697610660811452, -2.0049157100090196, -1.210550617574429, 1.3055238540281415, 0.22594066851510672, -0.24153431365180497, 0.021666613370893994, 0.47127129711003435, -0.6684978390460813, -1.2802241795692302, 1.2941901824947308, -0.41410714237393526, -0.03562918657896755, -2.0579682881171717, 0.18878666142906766, -1.777862368371675, -1.2429242223901573, 0.3625596469413692, 1.9983537553612565, -0.0400210342315576, 1.7058343457432057, -0.5285436896185743, -1.3181397541457034, -0.6607129132242037, -1.6939028627476724, -0.22535715638531564, 1.5523508210196386], [0.6747193588442544, 0.13853521923465834, -0.1084598185266357, 1.6703822372174693, 0.38254337191217824, -0.3825330078906225, 1.1154091488294993, -2.6716824227333715, -0.9994894352742766, 0.806228166336043, 0.7132107569319084, -0.3153838354872447, 1.2467040455765321, -1.0518200470468868, -0.013193853133092954, -0.6745681804503736, 0.4711501207699457, 0.25629454381969674, 0.9181802722128387, 0.4394591369983333, 0.1612057741005637, -0.09786803519031331, 0.2858749262379472, 1.1666389851289025, 0.4727658509775014, 0.4944818183765353, -0.024845502671296107, 0.4922644968740867, -0.19127133063796437, 0.5099590331920483], [-1.7771591081630986, -0.5975978041881944, -0.32072897588653576, -0.4457660165693268, -0.4751292403958468, -0.3483005058479854, -1.6861628413819032, -1.2812672142155668, -0.9850871067519144, 0.5207517910515079, 0.448387722242557, 1.105073430478532, -0.9373888204342871, -0.14757180434937836, -0.9260092521159536, -1.0227403640595403, -2.927505194294297, -2.7897584885018376, 0.2643695108680292, 1.5832694671915675, 0.5834714378692787, -0.5677940937330052, -0.45031713014553126, 1.592682182305232, 0.9774352538508341, -0.8713284638320523, -1.6935605258040367, -0.23911119703993544, 2.6724398617708323, -1.153089932243821], [-0.16640830260682649, -2.0214311688660738, 1.4969195705289196, 0.6158725803742359, 0.4928501128706445, 0.8635789265495275, 1.1581734925070593, -1.4116007931201753, 2.1012414089546483, 0.0013448112304946358, 0.8013945267273259, 0.7000514765537021, -1.2160047565697392, 1.7420532846859176, -0.37521637510973005, 0.1298748740204617, -2.118032562203467, 0.25852042303798595, 0.5589128076298411, 1.0843137555973592, 1.1061485422407125, 1.4147046373611014, 1.0396831096748618, 0.8865081259985235, 2.498291766918976, -0.7304300235690115, 1.7515255239764307, -0.61357024286675, 0.11875277143125375, 1.3273411093268972], [1.3859312182299761, -0.31582283317179655, 0.13378631051888085, 2.301882455264781, -1.1902379899332132, 1.2634051595455755, -1.7375107575350328, 0.14574742344916736, -0.22261937086177236, -1.4085200471463466, 0.705749929480045, -1.7795089455529134, -1.0201756953349215, -0.11336765835991658, -0.4435257435510193, -1.2902636965978993, -0.8873343204665226, -0.720581021847566, 0.5540035715001308, -1.2184537054252418, -0.43274788999935604, -0.6288800182130109, 0.14486017022736963, 0.5325880567244039, 2.139904215430332, 0.9556936483374443, -0.2935531663134092, 0.5028913122163647, -0.8663408496344173, -1.8895463861138522], [-1.8612096585088869, 1.1038120881793618, -1.1471484613114142, 2.002508586918414, -1.8818047227475507, -0.6958147710634465, 0.37016346207560996, -0.9879708885073992, -1.041884451633357, -0.09777717158132647, -1.8204277721390745, 0.9659996252201565, -4.1525854932860655, -0.15224163791439657, 1.7078031963063043, -0.036457481459006166, 1.2244231387475812, 1.215871401226725, 0.7849569050149576, 0.6634332646102274, 1.3055929377742155, 0.10189725185106116, 1.1334606440503847, 1.8072208422862417, 0.0063296239038050355, -0.9751828442233454, -1.1151253902226899, 0.6091684565661596, 1.8623206635137288, 0.5866552328328432], [-2.56841330534082, 2.3407516837337603, -2.053042800611992, 0.024285436010163145, 0.35359000183062805, -3.029854991957043, 0.24467232523733462, 1.351847999426921, -0.44928666148169505, -2.0589640153724718, 1.4573518960710585, 0.24593070223201385, 0.9304161324403352, -0.08381677416436498, -1.495504798780969, -2.0303600344031376, 0.8392607350543843, -2.2329302712322905, 0.10250681436916909, 1.5103295437460453, 2.4262630514434047, 1.0623181254516374, -2.3257499734830476, -1.1492207903056533, 0.8619691294315921, -2.2013116280304015, -0.5625153318060708, -0.35964801932469154, -0.09640747015269142, 2.7205297467297425], [-0.4161937771757337, -2.7199935874967096, -1.9027911581510557, -0.4944320455697425, 0.5238313358369179, 3.367376305512695, -0.7059233946690066, -2.3683789603736893, -1.440297230010385, 0.392964896553831, -1.1974392767390354, 1.3807566684306884, -2.0347328212007665, 1.5555177868044445, -0.33396605855729417, 0.4966576903736906, -1.301582239647635, -1.033518912621581, -0.5949140730598156, -0.8636572824914354, 0.21057882802036956, 1.631283373542354, -0.06418006319496765, -0.903729244532607, 0.6624551179253682, -0.41696978699955023, 0.1588504750283531, 0.8258883255801438, 2.5172887610959322, 0.7638058578841622], [0.23017058811894123, 2.200311755948451, -0.6821363011482227, 1.2914428060921666, -0.6895759617983732, -0.45588580192789474, -0.9590409451601004, -1.6330295984959151, -0.5169816785869418, -0.6679736236124599, 1.2995271238958133, -0.43670882523579907, -0.4394285327122866, 0.5796405257870452, 0.6296098297991084, 1.5244765133228129, -1.2212482846655046, -0.3707036356149027, 1.9395657937781994, 0.903321912051864, -0.4806790529057998, 1.712486639567665, 0.8765924590508613, -1.7573062372118848, 1.5988595003040984, 0.7949350961540784, -1.7763601779216311, -0.9424838797372943, -0.18482818580564436, -0.27134499633769743], [2.283466292080323, 0.04972860328482996, 1.3186853699718146, -1.8545245604760323, -1.2062420795569595, -0.2057572114513522, 0.886876660220855, 0.17403958412112985, 0.8021145874536846, -0.7321105538254394, 0.9596375092220726, 0.0722333422016632, 0.3844898207534876, -0.0681880469441024, -0.6899129919661817, -1.7479989849676894, 0.8355947616752375, -1.2126260200707961, -0.37217547315510213, -1.2959642858265357, -0.67728357021941, 1.9802111638646096, -3.6724667488133194, 1.2966379512139379, 0.5363808084731897, -2.4788517367156166, 0.6079201959336074, 0.520255385005403, -0.7979211027992352, 1.1728343341302871], [2.7606181913510386, 1.428940544258537, 1.117826290111559, 0.05464948078691728, -1.3127678782480818, -0.45082411704410197, 0.9916977515965599, -0.39159378766764835, -2.193743220317533, -1.3730391355484624, -1.8905276139221188, -1.5114651784191062, -2.4948513827752925, 0.974187315637893, -1.2273287503060177, 0.4940803608022062, 0.26855508707695835, 1.4728831801805007, 1.0223498536840379, -2.3348934643362678, -1.8632407122696282, 0.5098418163552948, 0.624280288591282, 1.7560665658062071, -0.3751604567130256, 0.3190567571000271, 1.1656500127739025, 0.17507824372351008, 1.0078365683736565, -0.9784447606646132], [0.2596664797050006, 1.470842820103862, -0.13160644360660217, 0.6694770200544654, -0.8222536016913186, -0.0376695622882434, -0.7564202589528471, 0.020344810310439904, -1.194000943318437, 0.12438843177703421, 2.191412484235617, 3.1005405058272864, 0.7912453375919483, 0.5182528409188826, -0.7838633455758548, -2.0712255070590557, 2.174054852927703, -0.6428424294174808, -0.7432886349746574, 1.6774078929859315, 1.100596928311067, 1.5329164023949564, -1.7518776053710123, 0.43662521654350744, -0.7157065226863057, -1.786084383828233, 1.4180122192809808, -1.5706931470753094, 1.479696110931275, -0.36275371525439093], [1.4079166652315391, -2.063397417843195, -0.248440246846895, 0.16084675823082797, 0.9539291768626225, 0.6361203461838753, -1.4964776573128222, 1.7462939836906417, 1.3999162854054865, 1.3181353359152093, -1.0619859124934332, -1.7584067799052219, -0.5237261985009458, -1.0703066164525528, -2.2156115415050603, 1.0647516355636115, 1.3282975058812119, 2.187044565714987, 1.4777370175291826, 0.6757518413515915, -0.9473624636901284, -1.7860813289142172, 2.415870973941931, -0.36144429605731804, 1.8433292391492682, -0.40949402775751953, -0.6107209982250331, -1.4733451155609882, -0.9764435297802307, -1.944057708627311], [-0.03589970534634541, 0.9151322106791028, -1.9339203060979406, 1.01462627915992, 0.0018216742008885748, 0.6268658934976151, 0.6628605191012292, 0.7244305312657965, 2.241490108371954, 1.8014527724458145, -0.6801286318698289, 0.7191426822230722, -0.2771857472963627, -1.654139249887389, 1.2297915938758048, 1.185892892230652, 0.8851591904206906, -0.3172510609381631, 0.4808854805366853, 0.9819185932340689, 0.2569943647321159, 0.6241685778083035, 0.027540787847371937, -0.8180788844455221, 0.4413521127739844, 0.5013204458203506, -0.7976089580300019, 0.6877746030859739, -1.465154364316552, 1.5302553984092433], [1.7659606225197326, -0.571648799579103, -0.029283936097134873, 1.1128585274029827, -0.47867537306731617, 0.23748632047731505, -0.6645261001295174, -0.911259159286948, -2.104564557427022, -0.9711044214042215, 0.21456529497844232, 1.4350141607650615, 0.3381860609753753, 2.250483145385207, -1.8674837803637139, -0.14255209910385988, -0.670866881273312, 2.2672888647904417, 0.526095070418988, 0.4978856918894636, 0.37921117431251816, 1.5408120881535983, 1.512305066774952, 2.2202667309597506, 1.633479655663932, 0.5356289364527284, -1.109342016580269, -1.9766016035313942, -1.1156399234972798, -0.4154717305635448], [0.28538914963759776, -1.4957307525101662, 2.494788613949616, 0.5476171299491954, -1.4431174557238537, -0.22837015669522853, 0.7210662031744368, -0.14138388118823642, -0.08968057034014545, -2.9401630806019536, 0.012558181539084754, 1.803533102962614, -0.6824709234763482, 0.9457347203105193, -0.5828504770020394, -1.8345905935917857, 0.9762955689365037, 0.29165809294103784, -0.08899421521801903, -0.36449522311842486, 2.130176239575084, 1.0817589140218244, -0.7831065956898517, 0.3601674034343222, 0.9341496987427793, -1.0742624419393034, -0.19941748468192613, 2.6289205303970107, 1.1908642165163164, -0.11284826881677651], [0.9202469878729936, -0.6474311811453096, 0.6464554012271069, 2.6984993715319927, -0.6601585169993722, 0.8712698781932959, -1.9053694135223593, -0.4768328121792566, 1.1866520744992108, -0.7389251623552912, 0.3139512734738266, 1.802844257838552, 0.7213288313210919, -0.4612313645027596, -1.8708184866348465, 0.5112054357624899, 0.12796687914131336, 0.615183340846612, 0.5964271372709339, -1.695555695882401, 0.3891163552672361, 0.5303719652291116, -0.6166466244440919, -0.2436975530424048, 1.4125494882346967, -1.7596017397963577, -2.1556651703471807, 1.088369708263616, 0.3707828237118098, 0.502445484759521], [-0.5701956708534512, -0.18511283449542304, 0.7258261070628398, 1.2146106882740306, -0.48560957690285855, 0.47923894239141085, 0.40199919467747286, -2.2572797013141526, 2.006106787272684, -0.5715878429815333, 0.9335572460638045, -0.30028715651353965, -0.036292170725091305, -0.22788313305060204, 1.3641602299479592, 0.8072532074985551, -0.5692364770980399, 0.8576382631343015, 1.3214863555801117, -0.620469523088066, 0.6564302442923797, 0.7418686053396458, 1.4785557499872939, 1.9683274276568028, -0.23881751480263724, 2.3755747780638132, -1.871103696794084, -0.6444751527122843, -0.47070950052902255, -0.8529395106539837]], [[-0.4420228500845704, 0.9945981963457898, -1.4688898174596074, -0.43482657853716034, 1.5640481872828513, 0.579755362327453, -0.09755962572300775, 0.4726645963315628, -0.3144008021814275, -1.4528293710697775, -0.7253780777459812, 1.8300438042256981, -2.01405990713216, 0.055952478171555, 1.318830007771286, -0.9851412879641224, -1.3882972602374097, -0.3486442097864374, 0.6761190695542485, 1.9590378566997078], [-2.1657644527911413, -1.7670132042066053, -1.4805995162717098, -0.8121916468762617, -0.31741134885613953, 0.9650544848828287, -1.348891250582069, -0.9054710384018806, 0.12941832980149076, 0.9944406173694521, -1.403115644618859, 0.3984152952537235, -0.5816007542380524, -0.5627768312993465, -0.337402377707664, 1.0749853629331616, 2.230740527588071, -0.42288002967520916, 1.9846921694976616, 1.774694135677583], [0.48349572067765023, 1.6441461192399627, 0.3005813172203876, 2.148755118842955, 0.577415203383382, -1.0527925528495945, 0.19353914948590864, 0.06359246982795644, -0.20612990119610372, -0.2021298902307443, 0.2431840923263109, -0.5866255222128862, -0.9611905292566121, -0.6607645956023457, 0.364719949849247, -0.6948235448689528, -2.6320171876444314, -0.1081798374905681, -0.23898882121824117, -1.1373166335641764], [1.8363119301117248, 0.38237789903358416, -1.109339492191082, -1.031170380519106, 0.7109744002510145, 0.5707414518643504, -2.783157525972259, -0.6919321621562794, 1.0638162430133955, -0.46469544195538887, 0.43308206854615505, 1.4207748921606465, -1.4236719284382382, -4.203407850878287, 0.06971295164423708, -1.7690924769038532, -0.6139412491189953, -0.10283956060690122, -0.9341113698937672, -0.21305166659870692], [-1.8273103144937, -0.3574863767174553, -0.1422442233707609, -0.7761713295846968, 1.142050825554169, 0.4795627708460214, 2.005351805572003, -2.0971120309183098, -1.5955517880531616, -0.21293889451517678, -0.595363142971056, 1.7849269885780523, -0.17253747242149967, 1.987613075692787, -0.15520023526594395, 1.597532525082917, -1.19847620570298, -0.11649810601394342, -0.48595519345176313, 0.010825715572302327], [0.6635529961436714, 0.19839332220532938, 1.2068194314770304, -1.8792457053946474, 0.5927233074388655, -0.3301540667526238, 1.2042048479058876, 1.9335213561663118, -2.1440043226307153, -2.305603806330724, -1.464651959830624, -0.2773341347386787, -1.993852930523855, 1.224111362967943, -0.1128029699200294, -1.2607617512249965, -0.467303723142906, 1.4688460575021705, 0.05297491343395998, -1.7140885860521093], [-0.11349936309398197, 0.0020167345526880837, -1.6146525995627674, -3.8941100522649066, -0.7261030971217777, 0.8492080422066597, 1.0143889649425604, -0.9041486213745649, -0.1908162205360926, -1.6955681065532482, 1.4043666461265536, 0.917415855396483, 1.0187103396014425, -0.6000335491663826, 3.956575612595628, -0.01182378006358644, 1.268831903050525, 0.5403029805892181, 1.4755906599933386, -1.074568698621874], [-0.3877484041045191, -0.37878810222344345, -0.2889017731306935, -1.1077188207457673, -0.2885211059799671, 0.6249338593869483, 2.5837429464530253, 0.10809335109982667, -0.948206547270515, 2.299419288389501, 2.490898879132162, 0.6569800175698218, 0.3282770082795844, -0.7545222104818239, -0.18810486166278964, -1.5036531964583113, -0.5507908789558147, -0.8753249590713387, 0.3144552673323667, -0.0081932858542245], [-2.7466917447494645, -0.5579165645437775, 1.1129094679667952, 0.03319265553262744, 2.257270726195581, 1.8264689711618973, -0.09980819272201201, 2.093888790321131, -1.0006365318844495, -0.52705458387003, -0.5147648033954484, -2.235198432966877, -0.8455663683825172, -0.7777496901334404, -0.36025958551924014, -0.07234876100774627, -0.5782445993959806, 0.8124228189548292, 0.2683134148456748, 1.1835418320674878], [0.6026905684031623, -0.31587198314101556, 2.0332309922449268, 1.305741851463342, -0.3030198591999938, -2.6796577733458093, 1.0577854300687408, 1.3129187885737466, 0.6146857422433363, 1.4694291528717616, 0.4496952832901677, 0.44175074346435866, 0.6510386132175991, 0.8008527873683908, 1.946980004929831, 1.7181762213030762, 0.054793010386023536, 1.8990509581750668, 1.939202295854445, -0.5751849134589184], [-0.5098756474176226, -1.905442507274678, -0.6470153327356521, 0.7352695178815309, -1.4038870560690122, 0.9807986215988562, 1.976428310866189, -3.6917443293442225, -0.8851458865366765, -0.1552650958284769, -1.8672444894117415, -0.21440740659270707, 0.21464827919881357, 0.8385927942227008, 0.8171323880486818, 0.9005135871664651, -0.6966453725134576, -0.32931083347083145, 1.2863785804613206, 0.5474494149104732], [0.9867308867440108, 0.004175404873903885, 0.20490294381754032, 0.027864992221466208, -0.2984211431697679, 2.1073037289828966, -0.6870810764158936, -1.4519417957764087, -0.26588214595189363, 1.0380777118632087, 0.6233480936010862, -0.4599769520440567, -0.5756610000982879, -0.6841325373639552, -1.1329065506706275, -2.447717791296991, 1.2176963722284118, 0.1393787631093162, -0.40798756909128897, 1.6428859987908364], [0.7909789470602833, -3.4970766503745443, -0.670683216811615, -0.10296236429799582, -2.795393385947749, -0.680225600995041, 0.4001232772806071, -1.5119328554341152, -2.2754747163201796, -1.1510589306135321, -2.4556776223659815, -1.6166703957507693, 1.4951188721928075, 0.813100021890147, 0.5611434776567923, 0.14354102266517527, 1.963294279069585, 0.12783404488683855, 1.071335839586494, 1.871880040143702], [0.08336910158651444, -0.756423009190057, -1.830219416251358, -1.6134592270582035, 1.7038501164004456, 2.1653319193106797, -0.6364342485702107, -0.6464642403432208, 1.0940445224079964, -2.9709806806006327, -0.7099281995059835, 0.8595832311288731, 1.1684480567161737, 0.18375781704700453, -4.152025067180602, -0.8632653485201646, 0.8015280738071384, -1.810241027742766, -0.16036743315713547, -1.4428604118745445], [0.31010369433715584, 1.2933653680583266, 0.9028181762347008, -0.25361827679748555, 0.07162951565007877, 1.1238240589226343, -0.3485238873654496, -0.09075870118869184, 2.4949720032312714, 1.821546832937926, 0.9994833413116367, -0.5130889149941769, -0.3021387496590918, -1.9666890548163287, 0.20280886336339318, 1.0335800503104149, 1.7993959789403535, 4.049477248491802, -0.04888179248077869, 0.15509780565801212], [-0.33197974014785375, 0.8165787018337886, 3.0568536154581243, -0.2540600069929498, 0.4471505444580614, 0.0342046453391005, 1.6896836141388225, 0.7079919940040376, -0.029468773552188403, -0.7989061407085827, -1.913308368494217, 2.924915414177307, -0.5621258736155328, -1.475716962432094, 1.563968589741199, 1.631679711306669, 0.8132914913623737, 0.21051223384441906, -0.23288840997337826, -2.0041668347553485], [1.5430932627938239, 0.5189353637457934, -1.0944133236515448, -0.45868680012957486, -2.081095429894872, -0.7233753814999206, 4.3915539699868535, -0.3160820101725119, 0.9527007886598908, 1.0330157490461134, 2.368358199353631, -1.0798960777067959, 2.0953770747135065, 0.23572468669445543, 2.1452061220714307, -0.7011494760471275, 1.8479263846856886, 0.8876561872776836, 0.837824390878031, 2.6199368033568926], [1.3432682231287034, 0.3701880806365612, 2.1149495273736902, 1.9642454134948406, -0.40696556758327934, -0.3128736448677926, -0.03980380770209416, 0.14125588886264553, 2.900283081646998, -0.024793599260925208, 1.2297941429685875, 0.10400085958190892, -1.697680851088831, -1.000422106336481, -2.0825146791332516, 1.0399001476911005, -0.29893368302747986, -0.27837354048895213, -0.22038355465430529, 2.6860484242845706], [2.142221892492501, -0.21758733651847265, -0.21063528824609823, 1.1509758076545333, 0.51558827986508, 0.06994506630795802, -2.2693352858312488, -2.0468957750671217, 3.7614363305689085, 0.7960168291789345, -1.151419530598659, 0.8094443701845631, -0.07299905302504978, -1.3542425440815389, -0.8735884901220108, 1.373391213355627, 0.33889052699300326, 0.87351140778485, -2.1358281897925138, -0.6564771403326498], [-1.4951552533820116, -0.04991839681338973, -0.9667647818123916, 0.1962149512273907, 0.40853501033114914, 2.835328646605359, -1.8503146670281498, 0.3625157518090491, 1.4382241998502905, 3.5571729939721934, -0.2574824460083784, 0.9268073910806323, -0.9888688789638453, -0.9156605717409467, 0.25258805031520304, 0.2415869316947561, -0.21023788294945198, -0.19898947091791772, 0.12696999591947541, 0.72658709037685], [0.18583196245860795, 2.0045983514867567, 1.3130154964807372, -0.2560304117277044, -1.4859686858255319, 0.19439631138524593, -1.865270231118793, 0.2449944635866665, -1.5855368602372322, 0.5650065938135551, 1.4547677199430342, -0.5413296372077646, -1.0828187538274654, 0.241768631107788, 0.7079507213803777, -1.76370375690709, 1.5366875491537502, -0.7053422163763364, -0.7473841556158105, 1.9096573223011966], [0.08879826564622502, 2.239360753933587, 0.29337086994514194, 1.6137430498881384, 1.3882039425545836, 0.1922805471620638, -1.0181317860011856, -0.3425567528217654, 0.7501173144929685, -0.9638900319152405, -0.2680056466688837, -0.9006261337234264, 0.6086790077919676, 1.4408859673417587, 1.0426405465158193, -0.5713669085339789, 0.5084725854092568, 0.6352091494587236, -3.5856798249199677, -0.05881400673330481], [-0.6008793335391008, 1.5997937830474864, 1.9421348051068659, -0.7737095733598821, 0.4630853313071367, 1.1269638382190963, 0.07312736239406342, -1.4264729121186785, 0.8140661055483696, -1.0531574580143044, -0.4478493464024383, 2.072404788476457, -0.6775272264763796, -0.1532201737206892, 1.481577263331419, 1.930681140582626, -1.0186552293884874, -0.3111898530319381, -0.26886711461715257, -2.0995882703967763], [1.0820019575315638, 0.9289521494075844, -0.862550257212433, 2.835167650831537, 1.9871558826729203, 1.353881156712321, 0.6272682370100542, -0.12063231198003299, -1.6733900409854947, -0.7488548036227378, 1.2140094136787505, 0.3650503514223757, 0.9676404336707031, -0.32386944563435077, 0.1927172774109347, -0.3355083017343247, -1.0251913140191051, 1.2394721830260234, -0.5844616871635943, -1.0618422974077082], [-1.2184701124663895, 2.108000683326268, -0.4953917925514226, 2.0508121459783446, 0.7564283250278386, -1.1964309522287402, 0.5545412734067628, 0.3243916383071194, 2.2294974839723043, 0.5894707029684154, -0.9170106397666735, 0.8251545984016885, -1.498300846098112, -1.531069799274361, -1.124998029218868, -0.2446861237705088, 0.566449358221187, 0.5797489247947961, -2.330751969847448, -0.5741880636662743], [-1.6414657683658511, 0.584151125260394, 1.0969544683787806, 0.1237381707847326, -0.8572465999199554, -1.118000832601535, 0.41688962632871623, -0.275811198220608, -0.8183424647650961, -0.6349941205636029, -0.3212786673461181, 0.1366684985841583, -0.33831570492419427, 0.25930386368859243, -0.9217473807325892, -0.1245304697666089, -0.31513576448297914, 1.622893553570367, 0.1916864328102234, 3.47674144520936], [-2.546487744953747, -0.168754756861288, 0.20693582009537825, -3.3165356705549716, 0.3049323314139887, -2.720774736993594, 0.7478894333364562, -0.8485632914297192, -1.308485947889783, -1.3645028874083176, -0.3587895518344461, -0.8618272068972137, -0.19851919487230135, 2.704955603754711, 0.34497736399377116, -1.6782279381871401, 0.23897370002338367, 1.7791279115852277, 0.4386221415032351, -0.817510160653397], [2.411784940658452, -0.7196136265937435, -0.5894499939325938, -2.729228839625892, -0.3021487480162109, -2.1855225321778127, 0.5297632444844085, -0.9443792475492665, -0.4228218536274616, -2.330420939716045, 3.2691802828940077, -1.0022574027895055, -0.4808892274330389, -1.0950667798273024, -1.2427180519657643, 0.7416710692010678, -0.1349439501800337, 0.6180482345301774, 0.10288082783801933, 2.2764626341290617], [2.408313282997108, 0.10630394809742111, 1.9236206846568225, 0.11820234786104504, 0.2256843086921166, 1.0495129825041094, 0.0914768572961068, -2.2965795830105242, -0.5183422613704863, -0.5074839224109127, 0.1083666600012376, 2.2220575112600423, 1.4961311207313965, -0.2705390546286576, 0.204213842164775, -1.8439006757169432, 1.6498133084746627, -1.2297212252836645, -1.2708401129056326, -0.5143719186781837], [-1.6329395332557897, 0.06216959273597427, -1.8109787687562002, 0.7262350463198017, 3.417967268802363, 0.9192619132812042, -0.6741166157427139, 2.6958363049217002, 1.4991217890680395, 0.7892408781521044, -2.9416332726587275, -1.2366078367991638, -0.5847225460633223, -0.5090264760380218, -0.11998204714283893, 0.009130466034161866, 0.8263257784710388, -0.6131646275983467, -2.3308275553501403, 0.37577505494670244]], [[-0.2715554351372534, 0.032351446138343135, 2.853148088265637, -2.20841916402731, 0.5772163268309815, -0.11611323905809419, -2.040250694136434, 1.099178380222528, -2.5235639462616044, 2.9024772261218965], [-0.2749396190098128, -1.4660050351879, -0.49662487882598966, 2.438680242927782, -0.4206339579176115, -3.523923696747725, 0.8724599631592578, -0.43447082667082343, 1.084773132043672, 1.2625661398863377], [1.2160982317745668, 1.8699140598425346, -0.7730867542508685, 0.931370469331847, 0.2719169769814366, -0.6032302972169258, 0.3733556467601277, 1.567645327524568, -0.49702285275170593, -3.5749972499469087], [-0.9915969925820105, 0.8345437370918511, -1.5560784736134903, -0.8031309192578217, -0.3900641018580528, -0.243568083507016, 0.8300000226869123, 0.5549705654295758, 2.593237702451695, -1.1255089795661428], [-0.6291009570265671, -0.3977413686907015, -0.015488344403337925, 1.3600140977799822, 0.4228876766575225, 1.5100001364283555, 3.405425595221043, -0.014497590322858531, 0.8897476198787022, -0.7077770304345116], [-0.9645991348589088, -2.190255265236923, 0.7807296650089813, 0.015622200357978436, 0.16670006232795176, 0.2645154079494477, 0.9872738733817953, 0.8922065501425284, 0.4874374272881422, 0.3211501932385984], [-0.6546931021647924, 0.06907570307354594, -1.493775560094698, 0.040622433993456025, 0.9719072084412184, 1.9332871109352854, -0.2913356784660319, -0.23685875876850904, -1.794300929593373, -0.44302546952420385], [1.6993794898271195, 0.145447373556261, -1.5653116214125882, -0.5993716099117794, -0.07445924289746084, 1.309691300060468, -0.9021667288830756, 1.729761391073984, 2.9489956119306284, 1.5393674381312756], [1.9969522041798573, -0.677566625729417, -2.025574279793344, -1.6313753553630088, 0.09173368815986098, -0.821189556506145, -0.9741519225459069, -0.5887529354332807, 0.6210325958315058, -0.14885619470106068], [2.961041551129215, 0.895434315216126, -1.4884012726644857, 0.6461686742975253, 3.1525881706548624, -0.5430206539491201, -0.7877058214730781, 1.8481435896062368, -1.244275047736512, 1.3540599783568903], [0.37641937804768427, 0.5019834706088178, 1.0206944645576392, -1.572725059171885, 0.6768329040109531, 0.06183737404361044, -4.392150558544728, -1.113325052732624, -0.25815888764094375, 0.5607954485163028], [-2.864071660941986, 0.24833320222008373, -1.0871505982063057, 1.4926985937881365, -1.780689862398461, 0.21893171619661067, 0.7231822467419722, -0.14496834161071795, -0.3567511316006861, -0.8543041659649366], [1.2625715002816427, 1.00168097105147, 0.8525573347553919, 0.0284520422795625, 2.7331242280751167, 1.594726210510026, -1.9868635708073525, -1.296333545669244, -2.7690745649571347, 0.4770947091308256], [-0.5046556900744598, 1.8697538610794362, 0.9533444324233225, 0.5132926028386103, -0.4420085541902053, 0.6813947530209136, 0.6523136151084258, 0.12353109915426959, -0.6562576982665659, -1.6785036179408832], [1.600040248662619, 0.9052002392889578, -1.7503951480415314, -0.3019331811980626, -0.1656298376524641, -0.6112055694999532, -1.3083440128010408, -0.5473363958595453, 0.6862719701150234, 0.9547717360419121], [0.6375057040928783, 1.341864827558715, -1.6577278047868362, 0.38406217633811146, 0.4506370692924035, -0.0628507666792507, -0.5887194847251678, -0.8043602587837327, -0.4267727083048384, -1.3243155499422377], [1.6599389871855783, -0.9626771577468154, 0.38423983980098486, -0.5455050426407129, 4.383563498515561, -1.1445322143050327, 0.7323486279786009, -1.0670058354465342, -1.5575987722473987, 1.6922711807176005], [0.25810540599463333, 2.7154838028660384, -0.08288166419351915, -0.6404741544792822, 2.773831081849619, -0.7269686868446462, 0.013903965135991734, -0.12181497113188436, -1.4551094101817104, -0.4381551948668423], [-1.2987301408373848, -0.41944688152889614, -1.5946828559775341, -2.2373546716670103, -1.0956449617772912, 1.2467845745868325, -1.2388732012414647, 0.4359594610383881, -0.49481166804718035, -0.3490501554965243], [3.1333136354657793, -1.1740427249461802, -0.5046807128387367, -3.4221022159335788, 0.3353032409195763, 1.999323426542916, -0.23746296766486616, 3.6165690666381565, -2.2330921605082117, 2.2526328398686193]], [[1.4924089815083927, -0.4743014335143499, 2.3935560697111598, 1.6135277997939876, -0.5296628151939937], [0.24440410396831738, -1.4374055522384428, 0.01704585195249664, -0.43642633153460975, 1.6922199050717988], [-1.4679355436913482, 2.450767948404314, 1.84211549423327, 0.8142120087060138, -1.8949890411111685], [-0.26364948784413894, -2.7051913526853872, -1.4965815526338198, 1.4916226443694085, 0.040794474185389576], [1.0745178394639054, 0.48013106235544206, -1.9773878077231073, 3.4989384594227677, 0.5203986955197285], [1.0615729353133716, 0.09447866778242224, 1.6687421801625921, -2.0100863365453607, -2.353937223039907], [-2.4527805492745443, -1.7387174880738812, 0.4895154576919913, -0.2452447401041879, -2.424408311940357], [0.6737198774470731, 1.3905126299052735, -0.13452334143827124, 1.906559796302491, -2.645895043833398], [-1.430919965847996, -3.056387215855124, 1.3724893245163534, -0.5594395024492933, -2.7747068496627882], [0.5792156334992669, 2.1042459849154183, -0.12416931535466756, -1.536822152357211, 0.5252293042337038]], [[1.3655329080967074, 0.5027886193107411], [-1.0505742282163606, -0.7291188228471875], [0.10695931926037212, -0.9758506158311344], [-0.3733588355911631, 0.658632369389266], [0.06403327216869349, -0.478359252991503]], [[-0.20524681654644802, 0.9941401666809355, 0.10580922043175565, -0.5185027717275408, -1.3124580414653622], [-0.921826417272351, -0.012439784080040083, -0.7884845352975758, -0.28042462425543596, -0.1451052423645838]], [[1.109093052836028, -0.1407337410269088, -1.1828592602856745, 0.6725796153318323, -1.7859885999321599, 1.384009314366329, -1.707102471535147, -0.5825344323892239, 3.153508897687806, 0.8035381399756004], [-1.4301207464366295, -1.2398193364113066, 0.5662455334922046, -1.3146793198130649, -1.0480426062610244, -0.46125021975241437, -2.0398281364986723, -0.27400834026053295, -0.3149642287543027, -1.0236526548915237], [-1.6454814106243167, -1.911573925914196, -1.8366607544678422, 0.9736755588991791, 1.2800744797480772, -0.418636915662919, -0.6995293540878734, -0.6859093550019387, 2.140764844995778, 1.9241254891065827], [0.25752018832601015, -0.9972221487293543, -0.4561551849949644, -0.2240010314006102, 0.3337713535707672, 0.7636429951194387, 0.6165127894791775, 0.20703752510889983, -0.9306669234717917, 2.4832032834427995], [0.7741957805396208, 0.5034033063851071, -0.18772184722392662, 1.09485438043998, 2.2674709375668356, 1.6530882716071575, -0.004632263248775601, 1.7650654186206574, -0.7619567398740261, 2.3626703952385038]], [[0.7863967220362272, -0.9714815530978048, -1.3825310737387866, -0.5660648658316458, 0.7073862218073695, -1.8659664853967495, -0.14436908741388685, 2.0165656465887754, -9.500262507367484, -2.6250547972710008, -1.3085527190871535, 0.4015043950604693, -0.7448021566383292, 0.9442009650830121, -3.0229104254472685, -1.7819312961348162, -1.4475500649352389, 0.6666870379676179, 0.019746442264792406, 0.31115858461847384], [-2.6019943473328784, -1.2256597251807664, 1.312240265310197, 0.8538455878532756, -0.005884925509128545, -0.8699042158153799, 0.9141577548388359, 0.16027498545380733, -1.848443589900108, -1.0072043486392313, -0.8419801894419244, 1.1373386549261986, -0.33941522739225294, 1.690873141461429, -3.0500272853347123, 2.5299054701115367, 0.6045524520717408, 0.5472997706221141, 1.6054106662552758, -4.562801213273925], [-0.46925072045066757, -0.8089019323992798, 1.7388582441084894, 1.7745861210848104, 0.35257614679871135, -1.1115877356301807, 1.4484870495128745, 0.0959557857715998, 2.6643125531632843, 1.9102179727210253, -0.07880483316358033, -1.9215851767537266, 1.9896599202575602, -0.978857693421587, -1.438616366203441, 3.0318788455328702, -1.127812408354738, 0.8570633747026237, -0.5643303314654273, -4.73015465376354], [-0.48959656031207716, 1.5397451767413308, -1.7292074769678025, 1.0377982420629008, 1.486016920104414, -0.7661875939873425, 0.4205124661817515, 0.10392698647404383, -5.197970073754602, -4.23369400868504, -0.1615579434906212, 0.6268583779875958, -0.8296468024726502, -0.9267968337274796, 0.4321825522886821, -4.0891200272021075, 0.7784493302378768, 0.8927319170369034, -0.5431052319069714, 0.22459951536379769], [0.30478347784953014, 0.7172056869822423, -0.5419197464121527, 1.1756858122398264, -1.4094912838094908, 0.05631679851092241, -1.565156031407887, 0.6371223676827003, -6.2421296697057285, -1.62344347785685, -1.5055402797332749, -0.4104330725421723, -0.49335671891437377, -0.04042859476454074, -1.181122120388641, -0.07538391852073235, 0.3117662326121173, 0.5842314350568566, 0.6252676906729412, -1.7468682061809684], [-0.2325042853381555, 1.1942837654880398, -0.08606391521857554, -0.16144764979873205, 0.5019885515088137, -0.6317788011476234, -0.676067652684596, -2.036848877221115, -6.235860263136854, -1.9696150078143104, -1.439493745624064, -0.8057724553755771, -0.995464861370108, -0.23233980171547852, -1.3356544221589315, -4.474057293987312, 0.2080045493224922, 0.9664798814118809, -1.080794787510824, -0.3675527967407855], [0.8904201632957536, 1.6334151859957624, 2.302056697004494, 1.7915652841165908, -0.6088439115613377, 0.005840602759103763, 0.8352004153011418, -0.009386830095607186, -1.3247898655130064, -0.6918160051134632, -0.12503754094684347, 1.2690708060364606, 1.4633587899074878, 1.7693028378606785, -3.4691764358213044, 2.172285438832106, -1.546905487213628, 1.09201879382032, 1.1200827069832424, -2.4459233173473987], [1.3840697076831747, -0.37997064248674417, 2.2758747299760596, -0.2944861731345222, 1.2536769294601586, -0.9093851087338033, -0.9705641680981051, 1.741886055529595, -4.310628574104602, -1.8644796050276276, 0.5026307839686499, 1.6242043516001974, -0.11565320237532518, 1.199860009241289, -2.6734109490354103, -0.5152403071288988, -0.5570813281533068, 0.6948770522120425, 1.8175328359404381, -2.2327523424607842], [1.025837741341155, 1.2194572919600968, -3.047126089218121, 0.832157276755553, 0.06906055172112657, -0.5263476927344947, -1.3988288915611262, 0.1560978965062079, 2.121814892666247, -1.3864376395853304, 0.1328215924045094, -1.0430468339838321, 0.2762125269119658, 0.7308064806194727, 1.4773839919605265, -3.176984870937523, 2.9338332739812913, 0.6119991373385166, 0.458571628003035, 3.4144373941324346], [1.7073824075515813, -1.026446458201718, -1.7748442458534555, 0.6876644251791867, 1.1914191137279149, 0.7484234318968175, 0.9852651216231733, -0.07880407706662479, -3.1800852977181244, -4.187792838852234, 0.9647500972698834, -0.27641819648210186, 0.7672394273304258, -0.8624976804707686, -0.6790513891711369, -4.276399522130553, 0.3296778475201336, 0.36076445615807207, 0.39086723358661474, -0.6986723775352284]], [[-0.6925983454239991, -0.7541765655781278, 0.3446271629106284, -2.0822717295598876, -1.518697584134383, -0.5550700075834339, 3.6190807268486416, -1.2162819965793599, 1.1397157227084567, 1.2334276458741538, -1.4722002488327255, 0.32529732008794005, -2.7628334947338713, 1.0883289234675024, 1.6547659715673926, 3.5501238606280605, 0.1726738525304626, 0.0835414680418079, 7.041191771443203, -0.7452734189171033, -0.13544363809028304, 1.3986437397509408, -2.9022573301767993, 0.5585649442647238, -1.6097848505685588, 2.20677963358695, -0.7119537502364299, -0.1117035361348993, 1.3081529373452507, 2.433644971365894], [1.2410243961232637, 0.8915009977253329, 0.8601627484686113, -0.40289945713438596, 1.269851557333357, -0.16781361248336013, 4.493749496196751, -1.8113490338573104, 1.5366512487727657, 0.7281919299751904, 2.286569935800546, -2.101836656531714, -2.1846910720538797, 1.3597527536951073, 1.9316268762992599, 2.1470821073563107, -1.1446724480910515, -0.594354570909739, 4.423627649404246, 1.2203088774765571, -0.36752536275635045, 2.8202497743648993, -0.90170387934345, -0.9307139312987031, -1.7885517280475773, 1.3116256335257253, -1.5394503837798772, 1.9807040300793948, 0.8014919672994582, 3.5011336044153296], [0.18762488993295579, 1.4167329113389517, -1.542860174519959, 0.6036704811292798, -2.392228411037066, 0.9150407870856884, 0.00854765651022615, 0.8266574883912247, 1.6806313824075145, -0.015978667179350193, 1.988213860076766, -2.417261617639439, 0.9604488606432364, -0.3739080409071757, -2.1227079678855207, -0.004694441599378012, 0.8060131310978937, 1.8162729092300207, 1.4518553814069546, 2.356602494678772, 6.434676631465361, 2.9299250429101953, -0.22349644987389863, 1.1443446350463888, 0.7155003257502451, 1.9002011496607005, 2.802579790325232, 1.5657695418507365, -0.19423820316338075, -0.8288410549235744], [-4.940023799916707, 0.9354239363015765, 0.901106000814403, -0.32201359614975444, -2.8027548897473724, -1.7289675132666473, -0.03055074610830125, -3.6675591977801276, -0.2283950867306921, -0.6619145118454683, 2.4816118909046416, 3.119297559367565, -0.8818855056652116, 0.08845842587497092, 0.007699095020758788, -0.9818004773245611, 0.0743744952133412, -2.171922014272197, -0.2509873270423657, 0.16109088653108147, 2.6695766906753167, 1.9252646091046943, -1.223145141457313, 2.309158280737396, -2.9263791228352556, -0.9387112481614553, -0.2722584601153509, 0.23193359575305958, 1.4955752451019535, 2.2147907563208626], [0.9937182455727898, -0.12710447824282306, -0.6191783485238493, -4.131084344274913, -0.06358877329816581, 1.4867856514873683, 4.2923003711025585, -1.2904993324003362, 0.04567778357857516, 3.252300785826465, 2.0045409522078264, -1.4751701193233304, -1.7531470554679172, 1.0800701266058053, 2.347065192398572, 2.189709295330281, -0.5104768436133303, 1.364687791011867, 2.675099320177252, 0.4045654499433527, -1.2882716038539104, 0.22521594494653033, -3.5342434810806354, 0.8007090093216503, 0.8376275241612238, -0.25076193806645575, -0.8614817426251071, 2.9716042659146846, 1.2447543388668438, 2.45762047663384], [3.9511732269197406, -1.5629229531137319, -2.3219031100567764, 0.9225625379166666, -0.018826519236717708, -0.31200090727210994, -0.36009860251223286, 3.7751065963209, 2.550427998102662, 0.6396147814057191, -4.177949074688542, -1.3314232396896266, -0.5591705994735849, -2.014566071565768, 1.2193553471336298, 1.7513414154270766, 1.866412548154352, 1.7412491565533725, 1.6026570204333315, -1.3898863441397444, -1.5285397210816125, 1.2533706912920906, 0.7417196900556007, -1.7482212006977806, 1.310424960776032, 0.9123949294237137, 2.2439610030235584, -1.8591478592613722, 0.7326412374079884, -3.9228493123995305], [-1.6230944266358087, 1.345286603517808, -0.17602211760241598, 0.31007934046993474, 0.7948185179770536, -1.6591007431809408, -3.0016432125824157, 4.279432020491469, -1.303431527294122, -2.4880099495396086, -3.9540869919501587, 0.8677042646444214, 0.6599523485480498, 1.2298240733793895, -0.8911469157468996, -1.8126864620288847, 4.461760108495564, -1.360687207937024, -2.097757160117664, 1.0273975327306113, 0.6056743266000418, -0.17668554594226582, 0.9090237240143489, 0.27678062739659065, 2.9980597074558912, 0.4509377525365464, 2.5623750684123183, -0.1788355404318107, -0.8975886555119692, -2.643116709274382], [-0.8332809103774147, 0.9196690911378592, 1.9223466309398527, 0.23310588873095558, 0.35205374949709556, 0.6217279973284192, -0.9553575703135431, -1.6479513822797163, -1.0737658570478494, 0.3276671707087065, 2.3589769859994725, 2.1906603335738684, -1.0657800345955657, 1.5442832465184972, -0.715016098175887, 0.405097133607003, 0.6151299833649276, -2.5823629625400364, -0.5329004136702109, 1.4011521254001422, 0.9991929235310059, 1.026625660401904, -1.2530162472201734, 1.4159373497499586, 0.26921743104755586, -1.3596808691080786, -0.9564584969873878, 1.2945468291764688, 0.6733819758590001, 0.18089635330651846], [4.663837187747353, -1.6016572628313253, 0.4806024202830245, -0.8292071131686836, -1.4590888619267113, 1.8582462904752735, -8.17211584430826, -2.019733409463373, -2.68451233338529, 2.0081598694048877, 1.9586719687390337, 1.6426059595770979, 1.9893203941645123, 0.6033591198467806, 1.071524111189023, -0.05383905643206132, -1.801019776371761, -1.0260719589238432, 2.75721572909831, -1.433199501489073, -2.493161457921982, -1.3505314784175448, -1.5245912053204995, 3.5696994221456833, -2.1545419254092963, -1.7092466203926815, -1.1099007904427465, 5.149742914711297, -1.8652501291860824, 0.10377051680468531], [3.606535172560554, 1.1325412030115722, 2.467320201372341, 0.21163737508137756, -6.615424060599259, -1.7663917053288696, -7.583691298764644, -2.9669771215989313, -1.006988066589891, 1.3618561441972685, 5.104732224979183, -1.097247878995822, 4.430699662405584, 2.9462019197922604, -0.5055169365250024, 0.3062245217708705, -2.7964994410534145, -1.3341864786606696, -3.121267852196317, -1.1585795248146133, 1.7130078493584988, 0.5126370746204152, 1.9159009674562835, 2.5303805350589323, -1.109137913937875, -0.39494803321376093, -1.7842442065955868, 4.516080150934843, 1.0886904485434945, 2.6518585718577468], [2.081640244863256, -0.6255558180235963, -2.881268962606766, 0.6331576122775179, 0.5278133112430297, -0.7541619158006646, -1.5790103274783194, 2.8291614422941334, 2.719105982899802, -1.0657364468393389, -2.76800760643487, -2.786741165353649, 2.3867343082811554, -0.4810299801857412, -1.293687531243121, 0.8419116805199718, 1.5423662558710056, 1.8687938911591584, 1.6004208654445002, -0.5694871383242069, -1.4508111783521072, -0.5928258072447694, 0.858701710535281, -2.199470331242513, 3.58112455952911, 0.8168695886294527, 0.2017477823785153, -1.8632159889590085, -0.49144486425484996, -4.058093426557787], [-3.5773590839896, 1.2676960402294575, 2.391954070140465, -1.6183424745443369, -0.770342966085678, 0.9704911064029551, -0.06658187228723998, -2.986565802343278, -3.7940453865612844, -1.4057351133438736, 2.580905022848027, 2.9825627203684415, 0.3894143649788578, 2.0681603210942625, -2.1643141306725497, 0.252864887649975, -0.3623964439417479, -3.2121007265396306, -0.3852451540446214, -0.6788741827623802, 2.3970238512354354, -0.18449808928103398, 0.0021157466619155913, 3.1633128205545953, -1.380244819763741, -1.8768810817285007, -0.6980811167980522, 2.2906700599763568, 0.14724764596365045, -0.3263966680864458], [-3.0410527592570133, 0.6216562297972263, -0.8199259395252194, 1.0471972710618096, -2.0272891461017934, -0.6988246408088284, -2.126831285750903, 1.7614327720202996, -2.7071096912450408, -1.002831641299149, -3.0052192972769647, 1.279947187081953, 2.4290270918583086, -1.1327019430885674, -3.7764830038460917, -4.693144839288399, 0.794395239647748, -0.005842853880422315, -5.182481059834962, -0.11223939571996105, 1.3397887658612024, 0.10122868521425951, 3.191146973260798, 0.638323354205414, 1.7959914657752967, -0.5968211725286208, 4.3125251926153005, -2.8999368304935444, -1.064374138336485, -2.179208190242805], [-3.6038524839328936, 4.651394365805548, 0.22390139864521102, 0.12648659750216412, -0.16705158808017612, -0.5213740741219834, -0.01757848947252421, -1.193675977155904, -1.560716418412239, -0.19781688679050244, 3.1511177661892953, 2.629339251443727, -1.0413128738316508, 3.1090400746372864, 1.1233674909029803, -0.9423043597895133, -0.9569945508144743, -4.127376432498327, 0.2924381156095961, -0.49670385816430995, 1.3401442795580099, 2.0793418928361307, -1.1608144582306323, 3.8147290828070943, -2.2917148910472496, -2.178728412301672, -0.9960207847665211, 0.8271358736553012, 0.5673673333475772, 0.31388081303282694], [4.508198668872135, -1.6794264904100602, 1.7623289878315138, -0.07473270232138778, 2.4043601052520263, -1.2760561988872299, -1.6316574136778241, -1.3645121309703026, -6.218887954268685, -1.332978208662534, 0.7536156434724596, 0.5068096704808468, -1.2162177711967042, 0.5900303848114422, 1.0493688041970586, -2.5990485001432706, 4.461123354088746, -3.204135458370875, -1.411135156979381, 4.361701897630291, -4.966760244839571, -2.3032031962188895, -1.366366670891242, 0.9980366066532944, 1.6803129552284242, -0.65813237456987, 1.4235151282492442, 1.5374366724743609, 1.802755020238203, 2.5331052814171393], [2.9948795592044934, -2.1249595067192386, 0.8541388953066347, -1.7659606254456583, -4.769620006668791, 2.9197395602909806, -7.2009805205060795, -1.2844229747174551, 0.7918353263067542, -1.0926893020755326, 4.783349271640664, -3.93470732606384, -3.693398007729469, 1.5248484500131565, 1.2068255421175458, -2.604361439874142, -6.496681946142856, -0.09387896538742412, 2.6665519547286523, 0.694926856341081, 4.556269631411949, 0.9823261628673136, 1.4713628055942323, 2.029913699728914, -3.984974886100471, 2.6552425253985703, -6.972962226997448, 0.632485584370964, 2.4415598093331967, 3.237235912343033], [-0.3226615842514238, -1.089876905787437, 0.7959456507855848, 0.7462399407712419, 2.570671305715584, -1.9554505849005053, 3.0980414101772986, 0.01224014938816177, 2.269381062125763, -0.056699560167144995, -0.3891917570744374, 0.9653922825950226, -1.919717868724749, 0.8563278869685209, -0.5423328529120487, 0.41125288335905186, -0.882893092747539, 1.7193983016939123, 0.7012959033740869, 1.088758686009654, -5.000712752368482, -0.1198173918068959, -1.0258766063031048, -0.4291888884117686, -1.2092153108130776, -0.18617985560787334, -3.456850993389035, -2.4400280568952866, 0.23152442524475633, -0.5561175442589945], [-1.445584456251032, -1.9432107633555027, 2.9196711470329784, -4.096305724535346, -0.24670407225508184, 0.976597815070475, 2.3136772555952874, -5.7160914198149335, -2.462002623214015, -0.6989729357295518, 1.2446020045369093, 2.5737934287696405, -3.1514883206241384, 0.7986322921606678, -0.8046441506057483, -0.23449667157555218, 1.2509174354412562, -1.2178914597456638, 1.1578836887982036, 0.16554223374467708, -0.9957799576280858, 2.3484264229086023, 1.2874042119949631, 1.6223308511725212, -2.156437384570104, -0.9789450070621443, -2.0814437382128705, -0.07303011861207828, 0.5955561139646545, 2.464154072696591], [-2.4845360676390187, 1.3807126169066595, 0.1807317196704491, -0.41690731045995727, -1.6114624343983734, -0.1573771968173763, 2.107115313681915, -1.350741916672451, -3.208777874285516, -0.7396664802012867, 4.155562331705365, 2.4132875041975845, 1.1739640249099965, 0.7322392378693313, 0.033048420434149246, 0.21123261659970047, 1.1380360690623978, -1.7557013560313977, 0.813785158157005, -0.2278685344177506, 1.0100951727729772, 1.226942402438852, -0.39635771176896173, 3.783692639314221, -2.1584366649172426, -0.7598052732703675, 0.9323031299813125, 1.2675061650987682, 0.2743407713095314, 0.6955695023151494], [-0.6549260631729139, -0.5761962593156899, 1.1826215649245833, -0.8414717051522272, 4.526426980030158, 1.6286725623419418, 0.3269345195446902, -2.2732941809059137, -0.793883398160459, -1.7995365480817194, 2.8292037582056593, 1.7456176470731677, -2.893813074952022, 1.988008187687464, 2.3222335610233857, -1.8363972738082246, -1.8521112716976842, -3.163729490244116, -3.1815601608324195, 0.7505764179549501, -7.586915550097934, -0.6120938018470916, -0.06946505125957883, 2.22185828483373, -0.45783831269218456, 0.13910676717948545, -2.406973009522781, -1.2370783555556415, 3.613879547725386, 0.7141752884759417]], [[-3.010845424830581, -2.341316912380057, -9.223195986411024, -1.6682287002710152, 0.2979266071641099, -3.727784688060632, -1.083118426064483, -4.5649600233215395, -1.5142289558666493, -1.1029608233125119, -4.17039970147184, -0.5835163717816426, -2.745307060560467, -2.5770336103471245, 1.1191866842642106, -2.542898587611062, -1.6856531488983075, -4.456980351222246, 2.4537892529595013, -0.5217263055849404, -8.283091912040977, -0.11510027717276518, -3.0804092056055596, -4.550884622488062, 0.248998971658808, -9.99575373374022, 0.8994394586695292, -3.4356615116506375, -1.7143314469547264, -0.7597042507290904, -1.9856205975047583, -3.2397626880610093, -2.570123311017245, 2.234831567929626, 1.5405295541091073], [0.7868466736271391, -6.5239276040205825, -4.614929221126277, -3.8435280565659573, -0.48853193928831273, -0.978070003268564, -3.4300853587149134, -0.6499707534175043, 1.2748234088103931, -4.507073337979806, -1.9573359219702056, -1.2208178109322645, -1.8370695067564593, -1.411521301368208, 0.6732311510990864, 0.20800341477625178, -1.0402681205030166, 3.611483310360364, 4.032777534062249, -2.286625782477803, -0.12532198038606396, -1.065289420997115, 4.718859126736877, 1.4871269218089362, -1.2004851269799912, 1.1455307548300453, -1.6402966796917229, -0.17500059665406387, 0.4664965098666833, -2.5707984486505766, 1.0189037755359023, 1.5654691142906898, -0.12276081766275503, 0.6200026830867535, 3.1684179963553856], [-0.16147683535955504, 2.5740070173492375, -6.488401104293093, 0.355763754265272, 1.3765588069776804, -2.2697400780343804, -2.616070932528223, -2.8470182347698136, -4.361245584792695, -0.760882575075191, 0.7898972326418622, -4.74086551374089, 3.971950884246537, 2.004843809234132, -0.10952970641446477, -2.4293028451759757, 3.1790295414049012, 2.4145649708778443, 3.609602112104791, -2.643240524562293, 1.4556361818527594, -2.3521771021248425, -3.0091594333589473, -2.080380588287791, -1.4544327009401798, 1.8571018191298356, 5.035988538496617, -4.133563839957622, 1.7346681702000197, -1.1489712852190797, -2.358228479633498, -1.6156497029072414, 5.550349138388316, 4.220685087606672, 4.361687586487498], [-1.0502674498306968, -4.122464972250527, -4.02023818020373, -2.6442343256064076, 1.8900558583544729, -4.912269639204786, 0.3321482297654708, -2.3116601367880167, 2.5137773526539178, -4.078592342097274, -4.631500644297229, -1.7551291606931572, 0.20986486943531124, -0.3085759308778869, -1.2416063731329217, 0.04738040536496043, 2.1351872663427627, -2.146438940669277, 0.15315641558693255, 1.1379729657196316, -1.2371363536343236, -1.9056484041779405, -3.7663860550180974, 2.0910720642372604, -4.149979952098611, -1.6884536158973549, -0.29589339328742337, -0.3557010379797439, -1.4787563851458354, -5.064053757045504, 0.19100318682019737, 1.621139601634349, 0.7076751893912001, 1.4736715401396783, 1.1761717832141625], [1.095125301345932, 6.098351443199511, 1.041601165323245, -4.810654823345409, -0.4762467193035263, 2.690333006204198, -1.2573319118613073, -2.0015981161897853, 3.269347928740962, 1.2952961795796962, 1.1212209026703877, -2.1231797242925006, -4.99458694218631, -1.9482126495355083, 0.7488943370931989, 1.0165327270740987, 3.2986737822277443, 7.29298428714299, -1.768928207868292, 5.323119210790061, 3.562749219212624, -0.22885126769739972, -4.586599107434163, -2.7254425367021358, 0.6652586023260297, -0.4823031288994211, 0.6573993983881885, -4.760298070069325, -3.2857513542773846, -0.7271825714807225, -0.5025889214233626, 4.3405536553221475, -3.964786149263826, 1.0096453972342303, -0.43197155610408683], [-0.7224942361365707, -1.4733832836456286, 0.4943361318073914, -2.626480863977011, -0.8745579483887207, -4.098055676075124, -1.7300096717597786, -4.181267186968135, 5.10539691324482, -6.350467556814194, -2.8177953445231223, 2.1771318197540968, -2.6508127141048115, -2.991054189141522, 1.1631119889237909, 1.368248150538839, 1.0825839040482408, 2.104282310702659, 0.5549342949190701, 3.9660320714871804, 2.7513824873411696, -1.3741127186165352, 2.1884307989153537, -5.697223991279269, -0.04850824935702005, 0.7434928950192019, 2.366380408567212, -3.688100439158108, -1.2891160153016206, -3.4298546966710894, -0.629322640607752, -0.9405142731079449, -1.6067073983860591, -0.14477779421577128, 3.088318623097996], [-0.3216245604846792, 6.8403855569308725, 0.08420123723684392, 0.8800721377240239, 0.5864915555963504, 2.031664564451213, -0.09020202204868599, 5.879866480917643, 2.104489770358275, 3.381426388554094, -0.27848023172838865, -0.3993866744620438, -0.632167266754238, 10.45687027045847, 0.16272516482881244, -0.3578257063625486, -6.297217812337979, -6.786477035686156, -3.3040511592151565, 3.420399865674067, -5.463129494783267, -0.49147732332752403, -0.06625793937325936, 3.634919350471237, 0.6696084550018806, -5.2525462231371645, -0.5765697657601355, 0.197999074565836, 4.410664524691729, 1.3971152028248495, -0.18344807297003213, 0.7084047295637708, 4.720352362792995, -2.0257597046518994, -1.106657319959773], [0.8534639746108544, 4.663954852705914, 2.2883085141341044, -1.354190565948895, 1.7489381953965668, 2.6844873731380345, 0.3937577474522058, 7.026895631057769, -2.0529942442458666, -0.4603000913692716, 2.727535413367033, 0.0033109407791292638, 0.3116146467370383, 5.116868736821653, 0.18075178709776293, -1.3659087585739171, -0.901016494296728, 2.3161611566946694, -0.06941657046435594, 1.244621423638138, 0.6525264053678665, -0.7518726766626888, 5.425828626182556, 0.9187585039252849, 2.371534447071238, -2.9683229316901283, 2.589746850212883, 1.4998713992613655, 1.949858134482818, 2.7521505184939463, 1.0744730204877189, 2.742402566392121, 7.426481525307971, 5.861249446965059, 2.631321559212349], [-1.9821371849841134, 0.9131702515306725, -7.18949075963324, -0.47980299093971773, 0.2831865863792743, -2.501052818325914, -1.6654698424752044, -2.6082406620089658, -2.452756767937566, 0.6952158608748185, -3.50677565577883, 1.3141341266297608, 2.6735834196588737, -0.22562786028565773, -0.2664170418208593, -1.927117432941385, -0.2189927750250319, 4.6392185510462465, 2.5882929184926606, -0.8455187266703782, -2.7198812198200986, -0.5473961250835823, -1.8292464260211059, -3.772561492438852, -0.7896317451412138, -2.085932148589479, -0.06010396890441512, -2.359075169114702, 1.5129779196315813, -2.8445376906099686, 1.1778561753829004, -2.8621147334462025, 5.001330149148287, 2.247020245127864, 5.025352853491458], [0.3351866007546956, -4.401693271136159, -0.09059092462729555, 4.382018289999563, 3.704421433534349, -2.057107647796693, -0.012319766805789582, -0.6526291993745361, -2.7353505548586736, 2.3395854960605926, -2.8315598506975923, 2.5790990632424537, 3.823668961027948, -1.06152405091571, -1.9333260626735498, 0.8061277564760003, -0.5541022503148513, 1.3403349953536605, 4.5611100622479075, -3.3051201440962776, -0.12848033396788622, 1.8801448876395224, 0.27102296968574, 4.509106324832186, -1.4282860368290415, 1.1363752557411195, 0.910046831369381, 1.8835360998732464, -0.029239781624877403, -1.6630756754451548, -0.7849452604819049, 1.2684537616035263, 0.4527620200106566, 0.6585616075845178, -4.198379093254418], [-0.14275358603586732, -0.6157682555994987, -0.3474856888823447, 0.12376510256101428, 0.36878818126679774, -0.717764478489807, -2.6730359954462894, -0.48134268528793017, 0.6345421465529644, 0.2866059114848234, -4.198990198593106, -0.1310868552335712, 3.804387859905645, 0.5208964773776408, 3.389511018418079, 0.7539602425922115, -2.2807020496783394, -0.0936594854906377, -4.992254017103751, 0.39839045343008933, -2.594241652044062, -1.260794589106581, -3.5499310437570006, 0.1516023616058848, -0.45947271581618016, -2.147459722726853, -4.007968674790819, -0.08059295853035932, -0.9561680939079131, 4.056683803736925, 1.7202771995657926, 3.7931489231098667, -1.746030049004216, 1.6495542839369257, -7.0914705217024725], [-1.4706101181102746, 0.20203757262993244, -1.6386362737424645, -3.979942051376354, 2.495122156986167, -3.537949592315002, -1.244524442778272, 0.1078430180411756, -0.08157336073066825, -1.231046392130653, 0.8352284510717733, 2.223725957793994, -1.383786294845021, 3.938308088549775, 1.8224876428100383, 1.6681827747149403, 2.022822480787644, -4.478706608220929, -5.409937338639858, 7.616314418566638, 2.943396447815652, -3.8423008645114973, -1.9578289770599253, -2.0726471218233926, 3.1362372578291398, 0.9975021555679935, 0.2512568461297582, 2.1393387339107055, -1.7151780358155446, 1.6280281003666244, 3.6779266787665974, 0.45581809896736936, -0.727507218872438, 3.2507153720054696, 0.10493503111606341], [0.24557180050419425, 1.9548216237416267, -0.6884942424714507, -0.875610893517758, 0.5366885009794694, -0.26918139108659594, -1.8270186946346954, 2.721287568038581, 3.374338164290918, 0.01972098007212539, -6.546138769049514, 3.384640495948872, -2.959436895989799, 7.626984365570107, -1.5252166510784493, -0.851348365848281, -3.7522844820340207, -0.0600069711707014, -1.8449855496515946, -1.0945008282571025, -1.8624711710484079, -0.5495104328692414, -2.686148755453014, 1.746957362420734, -2.7918070258726897, 1.6555393850906217, -0.7629153037606373, -5.474391525339027, 1.7794115715920604, 0.741092355051939, 2.460239594899313, -2.5665675787839897, 2.142153437069506, -6.961861937812684, 5.19984781924009], [-0.404939318062242, -2.7649371402300056, -1.1225774733109584, -1.5240080022847922, -0.5626452831392067, -0.4271251896263316, 3.850325999480801, -1.4885078478753315, -0.004113870357870841, 1.8230034378244953, 1.414182772729499, 2.0538354649732624, 5.814963151846114, 0.11444970192222931, 0.6235793220339598, 1.150844639820781, 0.6629935531693151, 0.21811836232042697, 1.3703401643966306, -1.842658560763708, 0.5408329505372342, 2.375379300269567, 5.466901127481312, 2.176762751781997, -0.46936625917159946, 2.5617290462839173, 0.49090375452343377, 5.095919267769434, 1.5876395912836978, 6.446378700730671, 3.210187893964647, 5.5377139386980865, 3.9166813690027538, 3.7523532340808146, 0.7449582423996192], [0.21768571261072428, 3.467692597770298, 6.680699109739504, 0.5322123923866555, 0.6550268069645405, -4.3670013997353205, -0.1539372608931262, -0.0650457870323077, 6.107886404938802, -4.872066835817122, -0.9832143968493751, 0.43562901339732363, -3.9871511182831685, 1.9533959650855814, -0.8402287064237463, 1.1081057174069309, -10.242925175363625, -2.9272027558704425, -4.698447987202163, 2.399926082300586, -1.8088373860100986, 2.073555161873295, 0.2021475490737178, -2.027275974059358, -5.172935945177517, -8.11247396169273, 6.545318390897799, 0.8417540437032568, -1.728277517081554, -7.535847072337757, 2.7895150932106016, 0.31835819426434, 0.11557633407144018, -0.8865906990364455, 0.4319726857006472], [0.38865152385233487, 6.569986236791199, -1.2185693868854766, -2.151818256678255, -0.05096119134168693, 0.8269591101329504, -2.4161951964252077, 0.683339962775249, 4.248137911774834, 5.0893109439691155, 1.365649448818487, 2.149597791911939, 0.6589523368596586, 0.3642911329149219, 1.7967524981545762, 0.6011194876753446, 0.6474276996167667, -0.9088577123654374, 2.375668394615352, -1.5483116068450775, -0.3491093793166436, -1.3046199250846615, 3.6363184090719427, 2.982814398891377, -0.9668721759440858, -0.3127199348276624, 2.996098574154068, -0.2634079497165616, 0.920632966749728, 0.19592947297261318, 0.3980079494040148, -0.6804030088834089, -1.1630507852858605, -0.4572198220575241, 3.0391907318945317], [-0.6242200097772602, 0.598052211942698, 0.23752609654585918, -0.9897900002851593, -0.1394235450138045, -2.375110220778062, 1.5834497045331588, -2.5912514432265374, 2.3512224758659865, -2.8561908529104407, -3.0289812160373937, 2.6024822275246344, -2.7537134913329693, -2.807687944719699, 4.191915150290575, -1.023136528623445, 1.7280326909605759, 1.480425105178661, -0.4165369510953377, -4.087807443397978, -3.2878058207015712, 2.036965279274781, 1.526944968501287, -0.7534919279287002, -5.164882573070048, -5.086783384249005, 0.7626525113609622, -2.160997934428574, -0.5228035037741562, 2.467045155598536, 4.729043995061089, -2.6329674643378356, 1.8485088335492303, -0.7119955928449322, -2.236258378364571], [-0.9443944628263269, -2.459160392846212, -1.8499182904037033, 1.120892351376853, -0.13222641955359496, -1.872465643070198, 3.532299488446114, -2.8248493176432907, -0.14926965701722159, 0.04852300452246344, -0.6528385528895331, -2.007070463807067, -2.000007633788643, 1.5935602816228855, -0.3933592520458774, 1.3350692324578268, -2.226802716159486, -2.01543592556693, -7.024334358848848, 0.6859954837203831, -1.4812336881372214, -0.5864875914043635, -0.3350077205300563, 1.4380174700779316, -1.4549715811616026, 0.5611627804110716, 3.3330864552056694, 4.561617611054617, 0.09065452653439987, 2.812298343591397, -3.1278620685330965, -2.4133743478669354, -1.5592762298593628, 0.31384854361668246, -8.52547121238862], [0.8636866189865539, 1.5992865122065552, 2.7626566253839226, -0.7893628096416779, -0.016912227289663816, 1.2468970526293026, 1.1507952572575455, 2.1370382542173356, 1.2528730224336198, 0.7931620955040424, 0.6627941625860524, -1.0087264927979287, 0.9055354012505941, 0.05137167097767332, 1.2198725051891641, -0.166589955952143, 4.508984847114478, 2.169485139211296, 0.7902018455211389, 1.3081210419533778, -1.9975687417094339, -1.3711434309681951, 0.20277463464277384, 2.371974936444983, -0.4499180028447913, -3.132142225256376, 0.336547131067997, -4.145130509530248, 3.0123550076615944, 0.8081605729857996, 1.5659897367970366, 4.554694698944634, 2.2058825893352396, -6.334721899056463, 5.828861541135298], [-0.8710194392423675, -4.3554372051463295, -9.264380475134306, -1.0195648408363407, -0.6433624298230216, -3.8287801776999637, -1.2298307555499477, -1.8199805444310533, 3.7157444903350454, -2.2693696274523587, -6.699442143660539, -1.8355996912085362, -1.6000764330247237, -4.481604354030502, -1.655931257679464, -7.928065204519543, 1.0614802669003667, 11.05247300303758, 2.5680476601991047, -2.93807785991283, -3.1480779304216764, -2.5155730222062043, 2.6657005712880726, 3.5896973443211175, -0.6107264383601024, -1.6152667031516836, -0.3711315324910533, -2.915143283993448, -1.0887223034762408, 1.5484350428568474, -4.933514533830785, 0.8436703739415063, 1.2167573271286445, 0.35837764778027803, -0.4369847472592817], [-0.3809576425827944, 5.363658627012688, 5.176279087991084, -3.6881677464613998, -0.002473787038700672, -1.2215998502015024, -0.8968428685237615, -2.992646803574937, 4.424441408135972, -1.2364344821649194, -0.13108697369830785, -0.8671720246742156, -2.9253793191906863, 0.06890018403691336, 1.404527098114812, -0.23222306048547528, -0.6180735085213451, -1.0447353348262356, -2.037588132870767, 7.021650194939852, -1.4925469248661245, -0.33980627197007107, -1.0288352131022729, -0.6170878948007924, 0.15868245376288967, -4.656332611407886, 0.7909072128691714, -0.7738231877932649, 0.08008372013976404, -0.67168269135848, 0.09637535518053081, 4.08807471587149, 4.746219982531214, -0.0011476012219529793, 0.8853280495880195], [-1.313721577535367, 2.168776700256125, -2.597584078637178, 6.0014558622777265, 0.2510406563799516, -3.5955686415175814, 3.8820871758384565, -6.383012778367936, 2.904684783851599, -1.7589412821606334, -3.0304991962243997, 2.815127336918178, -2.9591614925264875, -0.8986018703191817, -4.698635947967485, -0.5917896368370327, 5.057370737799655, 4.156061749908317, -1.4190257292479875, 0.7695204138017181, 2.003769457578087, 3.7212786049621394, -5.143453035298849, 0.16065893971132264, -0.8810209803763374, -1.2777441506973228, 1.9383370852813453, -4.474021793251153, -4.062220892607702, -0.5845262670144307, -3.668539282426118, 8.63947207697097, -1.1321596364236504, 6.543926402859575, -3.9382801744385523], [-2.661383003871017, 6.419449663565777, 3.095691044262702, 1.9130173028710131, -0.757951296193135, -2.486182205959257, -0.2713228434044336, -4.635570291921512, -1.102521896291383, 1.4875880464026374, -0.24564656732164816, 1.2087995734051955, 0.6094639411257531, -0.24282300237589632, -1.6667824572363066, 1.9508516665492805, -1.4155647224361791, -2.2578859405875775, 2.249552607929003, -1.7003443880783968, 3.8149448508976507, -0.8102183173623081, -2.2277118588872122, -0.3560084178127004, -1.7280767038385978, -0.4163736409083668, 3.2061115690988844, -4.626339337941334, 3.359046124926022, -3.2376893344130293, 2.078291898331563, -1.2355199559382042, 2.2933968299181386, -6.450562113804228, -2.5620335703222032], [-0.5359977036833848, 4.182692285799167, 0.7720199159500971, 2.110520068615262, 0.765990073906536, -1.2040102390264322, 2.6272404627136283, -1.207666299964061, 0.7744021335887373, 2.3314379733462047, 0.639252743444194, 2.795463265861305, -2.788353490964415, 1.9624464692459012, -1.6432128142587015, 1.3020615737900336, 1.4488446070921548, -0.25966167917006394, -3.901651736566872, 4.136657018785272, 0.7591926339162656, 2.256456740265633, 1.3707957025253854, 4.990091062797048, -0.13423239998320943, -2.8450497007103617, 3.1416621492270687, -0.18073597630339577, -1.6931694283247865, -5.347963213524048, -3.8891338835241664, -1.2423211140589894, -3.7356348328265474, -1.7614928085821384, 2.1355589293276247], [-2.0139023124323843, 1.1825539810220567, 4.753445718471946, 7.171111621114323, -1.4934128159194517, -4.113217433410423, -2.0706010992818817, -8.122901729436473, 0.8477761547184182, 0.1722888561207409, -6.181169031710627, 1.5507031182235682, 1.6794756152735546, 1.1145097095798835, -4.990222727120696, -0.8665585766811817, 2.742097064558605, 1.7277726299026044, -2.248432245380976, 0.5618070138989606, -0.03873742032785588, -1.1530590964869265, -2.293467776249362, 0.3668549951981278, 0.6924673895773982, -0.05452673239626237, -4.597214849889247, -3.136150168583662, 0.19919445497170662, -1.7094691411523546, -3.9048966411106263, 11.949062065121325, -3.004566788865078, -3.5793870225328215, 1.1442228686494964], [3.792542053906767, -0.7948121481471797, -1.278008687632289, -5.244935822450639, 3.2880316689374873, 0.0985225052745948, -2.346547012301516, -0.96305484411074, 0.8965958084364982, -1.8132691817793551, 4.703710296731955, -1.0886341389449412, -4.727848699081008, -3.605987010138198, 3.5029813636431095, 2.636183348359563, 1.8682309838800875, -1.657851519540577, 0.2898702751037587, 2.4390365936277174, 2.478588331948787, 0.9873927140100498, -5.973827754215536, -2.75962666282246, -1.172920252019563, -0.06920589959535213, 1.396100680758039, 2.1377913581200523, -3.448799534060494, -2.426946574324775, 4.952442952036976, 1.0426433389571346, -4.2957517117709285, 2.620329675072597, 1.4550401486595403], [0.3583049628469933, -2.257345222430707, -1.2391068732000023, 2.078265463176391, 3.8007603166058157, -1.5691593568861375, 3.052622363494902, 1.583665835108701, -1.6340112784537466, 3.0233160251514977, -5.5689010329330815, 0.42082671419584855, -0.527548111944243, -4.955080362903252, 0.6732637119502478, 3.76968317212424, -3.226954552600011, 3.3329556814601324, 6.401201506507413, -1.0523092730512837, 1.5887614577897915, 5.369761352024475, -0.024480121933702206, 1.0945079854881263, 1.5543398413794904, 1.0615840955255562, 5.057795914632681, 0.7648109625381647, 0.9626431077686953, 4.1621779800285195, 0.2168751259706758, -2.565810301124362, 1.3065206221668721, -5.359746615205185, 3.304452122470657], [2.852943834193509, 11.781446421756842, 0.7784336315736434, -0.9106085686119023, 1.2106270161893489, 6.9702232012824865, 1.3378732248054528, 9.19668868074464, 2.6867537057535342, 6.285961140605903, 5.4374529319533575, -2.464301368988682, -4.7733034568153005, 3.9127766028457347, 0.9125423504479451, 1.445506415842303, -1.4484901922665934, 4.059571409038191, -2.458634136061898, 0.2927207762749248, 1.048449749049798, 0.45329335870191734, 4.254879572115735, 1.649861507467707, 0.5676422230812462, -0.4729084298708224, 0.7304425367890901, 2.68276667239987, 3.3495787427708446, 5.659362217248758, 4.529473993085367, 0.33348140606156906, -0.08943038539393137, -2.99771420040301, -1.5326430534096969], [-0.10594667950732892, 1.6783496534222222, 2.6484568465618383, -1.5474484213289839, 0.16003581560067356, 0.48176575138333805, 5.504738228681423, -1.1622590895500082, -0.2527859367512479, -3.1241573294982894, -3.2570541941210283, 3.8540206541629907, -1.1187753126517355, -4.070550074437659, -3.4622870269719703, 6.685368390927495, 1.9458455215529329, -1.3015764736321966, 0.4392420308452508, 0.7364833668676413, 0.8508727136090836, 4.453517779774088, 0.7593704694035917, 2.795309978102186, -0.4805730672335665, 0.382794243730986, -0.8775558873589308, -0.6880192271837641, 2.3281595728093447, 1.522637109553586, -1.163092613514891, 0.9988543484803674, 4.345994608636971, -3.0041675493189435, -2.897810264808815], [-0.9149127957673934, -2.549424419395836, 1.8366422322411204, 1.5053336552389927, 1.5243289363848442, -1.8965417647474723, 0.7396799466487464, 0.7055756723681794, 0.4684031777205946, -0.5401876339266148, -9.107307484373496, 2.300687646679027, -3.1369110619449945, -0.46695025024840425, -1.126095367216114, -0.6640484260381502, -7.539227826737742, -0.9053348339631545, 0.8544197735308184, 1.5976046563125617, -0.06842543628475978, -0.25930698307882166, 1.9530511798964734, 1.8853597034243614, 5.833139466892257, -0.9764326341136508, 0.09058998167567665, 1.0539103937488552, 0.02973366636867362, 5.111201966729961, -2.5582041670002176, 1.0513539842644022, 0.6129240651046188, 0.3358100344570449, 4.9399322834262644]]], "biases": [[[1.2651315374319911], [0.014851954375978332], [-1.1468760493577907], [-0.22323989660559737], [-0.3941040200709439], [0.6802215272974876], [-2.1664237082512265], [-0.3011543343570619], [-0.10953121099497319], [-0.3424402104263984], [0.4081609798959033], [0.5265465202369471], [-0.5436148952360865], [-0.6617447023580958], [-0.47432243489432935], [1.829192674380838], [-1.156312009325815], [-0.6682541581547473], [0.4579414018829607], [-0.18090529424835008], [1.0870958413637344], [-0.06517366553918578], [1.3299780704098596], [1.0453215577435993], [-1.3461847825659752], [-0.40059231292391295], [0.40672352502895676], [0.2086889291632472], [0.08196400750614165], [-0.021026545781102687], [-1.9933056635816375], [-1.9676268951699025], [-0.9527887357443265], [0.09713519697087217], [-0.31354650008062296]], [[0.2797027224749897], [1.5162984994704274], [0.23150907329340645], [0.8574541902493781], [0.6438976133139691], [-0.1803408882198683], [-0.7778315291892486], [0.9157197698621018], [-0.7208228123334071], [0.07823873879470675], [0.23797667427093044], [-0.6554988774159152], [0.3912511728455518], [0.5177447254726616], [0.2675805589398654], [-0.35793575010272], [0.8550687061321591], [0.7453422294224692], [0.5254010609399998], [-1.2335805118305165], [1.298774821442741], [1.4446163292731395], [-0.7990170825256452], [-1.499971128835128], [-3.15352443757453], [-0.4395031297808674], [0.5402057014443026], [-0.02623674811340828], [1.8713741546576192], [0.5736327893290892]], [[1.3899099109161823], [-0.5882107640763696], [-0.3599857209862745], [0.21804489252066098], [0.8241824894734249], [-0.19536029128487997], [-0.9116927402192714], [-0.3748827814045441], [-0.8698280519514188], [0.15158426947602713], [1.3865671800986712], [1.6732873733870226], [2.009834022453421], [0.20712704797271383], [-1.4710266001885992], [0.7017516097996874], [1.2054197222580334], [-0.03610071027335331], [-1.859951422759274], [-0.21994095452838677]], [[-1.3867484039917268], [0.5703932607542578], [-0.6633386273887746], [0.9067620320571751], [0.05065326088964655], [0.548397803085232], [0.4989173182826681], [0.5977443879300535], [1.9219485288926752], [-0.4135299278178969]], [[-1.3298115037267655], [1.7226688997998072], [-2.3075113042895294], [1.3368330086606883], [-0.4426788572159004]], [[-1.6558962683498155], [0.3966474244742331]], [[-1.6251297336362536], [-0.1239551376529386], [0.9117332272650375], [2.4075577494356293], [0.4431027999876889]], [[0.7292383038974493], [-0.4572491153934874], [-1.8410074465455857], [-0.04282568155414813], [-0.39565216250750196], [0.32863420850529934], [-0.4657019527173521], [0.09036443444705015], [0.7947784702872139], [-0.5583737258255423]], [[-0.6178404909637626], [0.014325352327452972], [-1.5746175952522221], [-1.2547441124057606], [0.2585011238364006], [0.9204524374677734], [-0.28836460159410665], [0.856047504389402], [-2.0691940921136025], [2.003476058855925], [1.0606163109912166], [-0.8589218090352156], [-0.9074580967376956], [-0.8140502893125352], [-0.23594456207398684], [0.37876914928481525], [-0.36840219435648747], [0.1263145003974476], [-0.24560169854170183], [1.5925221916187757]], [[1.2922421420638435], [0.22224482957386008], [0.21511290623546775], [-1.0391960191757228], [1.424493448893761], [0.3689515987261423], [-1.5115700459810537], [1.318510564981931], [-1.202350434526854], [0.18742241128598258], [0.6818704597121373], [-0.6952773095560969], [0.7636446440945845], [0.5037868856275721], [0.9958450375475318], [-1.5726568519247075], [-1.2630880408740421], [0.44582921438781864], [1.0598186070506415], [0.6570085151639107], [0.22198221399989804], [-1.6371811043598017], [-0.05242853222765556], [0.7943465367229745], [1.095357973388671], [1.003615173961353], [1.2778580911123556], [-0.24111455879857108], [-0.22504965416935416], [-0.24395752539683824]]]}