{"weights": [[[1.773982144517168, 1.5223030775591007, 1.2564258713561582, -1.884690055059042, 0.04705352178066715, -0.8354412385948512, 1.0031209920134685, 0.3957598012630812, 0.10007649034925845, 1.311694521295737, -0.10531228561918407, -0.09378692259301209, 1.494008212051192, -0.09136873524827685, -3.301891558704038, 1.2929489539487156, 0.12394406221625406, 0.9142742104142619, -0.17391696770417972, 0.16314746299953858, -1.044112435580515, -0.81687403131051, 0.8411442434479406, 0.6962392918469064, -0.7510856758027156, 0.7333304150648232, -0.7100275446907144, 1.7561731919713337, -1.435560185000056, 2.496729677403566], [-0.2862142850511963, -2.9456392813494783, 0.40304251856087586, -0.26875226194817964, 1.9015009109535637, -0.3821121646016783, 0.04535868753396537, -0.6760512854987782, 1.4947649222521933, 2.4342987092404837, 1.7607646493406013, -2.2308012608685193, -2.65305163517178, 2.7638468693878013, -0.9899149996069128, -0.2934079227005718, -1.1889136711596777, -1.2066234788720578, -0.3604717120012658, -1.6662654275374995, -2.7457782102509034, -0.28849323006483196, 2.4387156523675517, -0.4233406979507836, 0.21544531989265217, -1.9787924865771052, -1.907751039325088, 2.5338085389670155, 0.8743755724455159, 1.1256264270794052], [2.9922124114499815, 1.3470250180820973, -1.0602278466103072, -0.09401557420299368, -1.1973423458147552, -4.683072001117931, 0.6364132738236525, -1.2818606552085636, 3.3684625990741766, 2.4232841353814147, 0.390764478171873, 1.0857080813577515, -0.9553161334416135, 3.3531172877612496, -0.4589683637649112, -0.9613304307167463, 1.2870892751214527, -3.310237046671915, 1.0643997995224022, 0.4804548009810745, -2.1114314344701186, -0.8902276427050337, -2.0076305936589227, 0.6502302262040467, -0.02120860780224045, 1.6355952286137374, -0.8708821730793437, 1.0823830451067638, 1.9334109269063342, -0.5722160617393045], [1.6932521963113074, 0.013989036521238774, 2.024376361958263, 0.33123704740144694, -0.4349439051818946, -0.9129449068131241, 1.960083317223663, -0.9656934279846067, 2.1009672236980568, 2.976522527325521, 1.0335944382224904, -1.4601740228446347, 2.133857501989241, 1.6505962561700669, 3.5146983589650214, 0.2850171943956006, 0.17041858942002208, 0.9868504727528248, 2.9406014332808423, -0.19170817614446475, -2.7678954523373505, -4.1302735099354875, -2.1293077906470925, -2.638322222865853, 2.2165222690886517, -0.34296986141524244, 1.768360828462317, -0.5118594025791058, 0.13847463877925012, -2.024833395448484], [1.628941143956643, 0.6344652530941876, -0.4345677140036966, -0.6486131712270067, -0.9264236978988952, -0.5685574489309, 0.17223455923600087, -0.8714226273562857, 1.3971644541847255, 2.9348236702937367, -1.7562287267434238, -1.185878552689702, 0.15202152853675716, -6.096664614995137, 1.8876235121352078, 0.24406612744526726, 1.9092849740226663, 1.8997042343518782, 3.17527481966032, 0.9968698589254117, -1.993236531844956, 1.7600675783725312, -1.923557397107487, 0.10867733892057681, 0.9611732123087335, -1.964270647194194, 0.12598665084311134, 2.21869967810752, -4.188632708373746, 0.3372839814581666], [-0.12313671774583965, -0.34687490404201304, -0.42509067155893876, 3.1356401884492566, 2.4232326162347624, -1.0680813586186533, 0.4007360689027776, 0.1391327272484328, -0.9235362219524087, 1.410138445451608, -1.0003513788041367, -0.47488886658596535, 1.0863973117467913, 1.673976780139158, 1.3754456424637254, 0.12546323368924536, 0.3562900227404915, 0.16671934408480144, 0.819028851736456, -1.5210492855137978, -1.4680837766725636, 0.401345563216863, 0.3004815681332135, 1.7120868687025579, -2.6331990893019226, 0.033672941236443335, -2.9098283756704064, 2.619117730564917, -1.5915545090826277, -0.136142889525789], [0.4083357423693757, 0.09373413121620308, -2.176746250641764, 0.10221091346114261, 1.1070917647183331, -0.6752990770523798, 0.5520907257816074, -0.033032610410292866, 0.5470425939475678, -0.34574985272547637, -0.7504137523252202, -2.1935348032504787, 2.9552288638687663, 0.9170992663903095, -0.9811452749294548, 0.608019781406174, 0.6426282748661322, -0.6885875729619477, 0.2745947460110035, 0.347363333643215, 1.6944909063832245, -0.9629822064180847, -0.7753838366539717, -1.345316874135393, 0.9293609968482601, 0.8895620950128986, 0.206371424073809, 0.6660291138684983, -0.09225887884632746, -1.1095293776398298], [0.9085905008681481, 0.6262327323813136, -0.5700865807997175, -0.4771623476663686, 0.19115490141831756, 0.18733981846411343, 0.9950060289928625, 0.2973065936971325, -1.1430608502576565, -0.21589031922907073, -3.28403734499089, -0.4293329369539733, -0.2630454568989313, -0.4121110971941885, 1.3076644776252513, -0.7657960072213419, -0.6451993953283219, -0.299486396848307, 0.8443289707610647, -0.8719725282001662, -0.4443481691711218, -2.574613856483149, 0.3369138796996698, 0.25791374601088946, -1.276677135379387, 0.7510881714713274, -0.7271439380221051, 0.5054878770785867, -0.02667224407554691, 0.8004902407595328], [3.7883546230435625, 0.7307273586138112, 0.4905809391378362, -0.3552211927006003, 1.566792070663164, -0.562627449999592, 0.609653580803948, -1.5327162501863005, 1.962422611519069, -1.9865202440654095, -0.08896241962114496, -2.4506453670061052, 1.539099650513826, 0.8643105078699205, 0.9255772230812732, -0.6587640104422614, -0.5852582518042981, -0.144371319216331, -0.8073258072598779, -4.95816070680948, -1.867435860034832, -1.194421369141855, 3.6660882578643776, 3.1460888061864174, 0.13164030936028032, -0.44839638589066894, 1.4684553640398366, 0.37825907900843664, 3.582626256188219, -0.9197839081799724], [-0.30358496585271644, -0.4456328765704416, 1.0476675758011367, 1.1451883818937507, 1.2632471604386049, -1.5090681104368486, 0.4072370598339277, 0.042654618271507336, -1.233404842083285, 2.0927741573268515, -0.7928632930126582, -1.819662510120339, 0.3509064304307126, -1.0383028145707907, 4.738034393537791, -2.144195386790467, -0.6578586445658171, -0.5927984309766162, 2.207880217793506, 0.8629238171814656, -2.368349112244656, -0.9971483073451273, 0.6463769950297871, 1.6803419280587504, -1.35526851910563, 1.147039961231755, -0.026016096118955875, -0.11670868340957347, -1.3540722340002074, 0.6975323452525007], [0.8337935766118846, -1.7549569790049222, -0.7281250715847856, -0.26199644410863154, 0.10041974793128905, -0.7137306870672084, 1.1248427518460031, 0.08351272494792934, -1.0622567950987318, 0.021842481963209044, 1.7846461368009563, 0.7254360335416886, 0.3741668294153103, -2.2325302220582937, -1.0373517166269706, 0.527823593527606, 0.7262596303096874, 0.9215725971133832, 1.247090835456519, -1.496320437546982, 1.146302996202058, 1.4506709606473511, 2.179200364267993, 2.9109222066544183, -0.26708367576271536, 0.07717923939468924, -0.4304676878140655, -0.40072542507319875, 2.113154515703481, 0.8015834495453562], [-0.2331411331334804, 1.6668059429200364, -2.368342863171499, 0.3498985235521896, 1.6455009041748143, -0.6625538365456951, 1.5706731781117313, -0.6005938715540913, 0.09699232259080832, -0.9629499920907285, 0.3341687315260453, -1.2929406722858146, 1.3872574731757457, 2.1225070072501513, 1.5271524514634105, -1.7359584636398733, -0.2079773493784475, -1.2603876110599597, 0.8374958046041007, -0.6322550623908577, -1.0078364474237125, -0.03320920830412599, -1.3609000665906579, -2.941627349596428, 0.7910663810920309, 0.12085950760482621, 0.21901832959966697, -2.057750199544707, -0.2178030561261459, -1.0924033614548843], [0.21686905521315644, -1.515862522296329, 0.5095715548156592, -2.197639213208054, -1.1847451174128425, 1.574191510933585, 0.2860804314647142, 0.8756025319835846, -0.9730335920312214, -0.35883459661124567, 1.4878597996501872, -0.5871659964989228, 0.11006788582100883, 0.3157044005943443, -1.4204162119159929, 0.7602508550670356, -0.37750889603328436, 0.16434880203905505, 1.5354068513095396, -0.06847659289214118, -0.08804807677588722, 0.6205769185537579, 2.20745561527751, -1.279345603546103, -1.450467320359027, -1.4978697416851368, -1.3554381473527275, -0.7953367467591925, 0.4560035296816482, 2.9947341378015246], [0.37227763712865436, 0.6106279819782868, -0.9560159470840919, -0.15303004872073173, 0.5475606686596708, -1.4269731532588805, 2.0020597431150255, -1.0368161680488357, 0.37846990578272893, 0.6352276194130532, -0.8767651271254702, -1.1894070731634243, 0.14478565181919453, 1.2298598903961717, 3.222872081036855, -1.6547100992651251, 0.9381222045393117, 0.5047443700586358, 3.430668261301862, -1.571491395515124, -1.1809464662400522, 1.4875815168478648, 1.2673665804427514, 0.400111132350097, 0.3736419663887395, -0.87602883985157, -2.057151995973298, -0.5695348519683533, 0.7729321506957693, 0.4766823838529821], [-0.1692359379723515, 1.4902449141196483, 0.9515975685135577, -1.0276433859508616, 1.488180422075857, 0.037063327617777794, -1.7275231335084027, -0.2435039330256169, 0.033935027434678786, -0.6748044707355512, 0.012906667585733302, 0.6747290373518942, 1.078488772233341, -0.9038821567824489, -1.6838693262474111, -0.42936563332026434, -0.4228005854015521, -3.740451602611173, -1.6322579678455214, -2.539422264021276, 0.05027920579424112, 2.0433825635122362, 0.43144443048517406, -0.13169314487081643, 0.09870838451308518, 1.1029917442271298, 0.7490838722200344, 0.31552822976017936, 0.8175292504734101, 0.7654560983337522], [0.18095298060957177, -1.373328643337822, -0.26609762168157347, 0.6710134109722807, 1.7981705134610935, -0.6876983244402542, 0.5881518308521734, 1.4760549232473275, -0.2797672585569069, -0.700612483471644, -0.9901623404357144, -0.34000914857479686, -0.9423396904103615, 1.8983328144657299, 0.25574065147769365, 0.41553313465993974, 1.1727540732967674, 2.548507450034157, 0.25844441364054177, -0.2941974197819743, 1.7179821196474938, 1.3911951859389395, -0.5293514186692038, 1.1909073549841562, -4.011678602047679, 0.5255780769626516, -2.0735871476441288, 2.030213057180725, -0.6593420615625912, -3.8702760791631206], [3.1459009431884795, -0.1274719452615366, -0.7124880225104508, -0.38510368862103894, -1.2457269703518623, 0.5365398296835268, 2.516194440070784, -0.22450885965746534, -1.1660011408804898, -0.5456583567418053, -1.253638660939744, -1.3070767077570264, 0.124377478350113, 0.47885113709637506, 1.2960347621482227, -0.8490904463916148, -1.5494915283794783, -0.9153771277802718, -1.434555587131149, 1.87987763064715, -0.9917105267351186, 0.20172850607378429, -0.10173894468199746, 0.26708363687180536, 0.255420423526589, 1.0094764713886692, 1.2355282259623588, 1.5194005902087686, -0.6231301437818082, 1.289684562889266], [3.124101802562195, -1.5768196698157944, -0.501183158198713, 1.3751615251961726, 1.1130721084785578, -0.9977848168547818, 2.574210882330449, 0.5384214672954623, -0.9117920578170605, 0.16701292959852385, -0.5149159311840354, -0.8304674547362666, -1.4207066205422143, -1.826933593139016, -3.7480428098795113, 0.7922708311099219, -0.3302569481128563, -0.4716678035762646, -1.28738529700282, -0.8155410297674611, 2.5524365132138103, -0.7351794559708218, 0.4201177268700791, -1.4773430925973658, 1.7637767927428818, -1.1390349782704765, -1.6293265953630063, 0.5065302508246589, -0.6416831076194531, -0.5673633061693245], [2.565495327812111, -0.42757416487062166, 2.34144401967452, -0.2482499318593854, -1.735731471143479, 0.8708806793258345, 0.19553437940006826, -0.7389897632688976, 0.6764062780865996, -0.6475126620879122, 2.276474370593627, -1.193096066855541, -2.092036108660828, -3.3183657136107567, 1.459228755219056, -1.9599314739239242, -2.401558177186564, 1.3081942497509276, -0.79037582580298, -1.2054876912976424, -0.6269972489136073, 1.9955033495670165, -0.01860708785911326, -0.669996418450403, 0.46349794911782194, 0.15929889973349787, 0.4546186310475615, -1.0311101714653115, -2.821676215119699, -1.0769038290048087], [-0.37602016524105664, 0.5319589299431732, -0.8138221088337952, -1.1080223077119191, 0.6961315059034796, 0.5598062184654143, 0.875588911340636, 0.1311086207621476, -0.3104475088577915, -1.0835503841039955, 0.7030223286912238, 0.7702828416130576, 0.03913796841479734, 0.1135647630203715, 1.384790402740887, 1.4201981969786999, 0.49608613623587056, 0.02883248101427176, 0.9510770935631322, -0.7606926565667569, -1.390604952701428, -1.0039983428385595, 0.41442447339136435, 2.1907775279417385, 2.3060956083044992, 1.3307537169710255, -0.5158480147165782, 1.6910270590786496, 2.6501397630768406, 1.6476582895901346], [-0.7032569898474861, -1.5295827366807646, -3.0403724624238895, -1.1032711368674322, 1.5536555666366734, 1.4971772483375432, -1.1411875187941196, 1.2009676749690166, -1.8995980688961445, 0.4633202619561424, 1.4514379660997665, -0.20948955265142144, -2.6744115399492903, -0.05647665355833047, -2.1124317267254806, 1.6827643721494034, 2.978322817548238, 1.0358043008512847, 0.517966317399793, -2.9217559809381317, -0.027202071261179933, -0.9657832645010977, 4.039374573322984, 0.27394828994389225, 0.6907993427743888, 0.5502538765588909, -2.638233738291612, 1.2842525788385026, 0.37817725455306733, -0.3333332460816398], [1.1535755923501212, -1.3116605483347377, -1.036941780924042, 0.9477639137455406, 1.6789260096566152, 0.6423505391491526, 0.26787716689721086, 1.9116063528377414, -0.3906841359012094, 1.8979674849707489, -1.9329995902901067, -1.369581756300025, 1.436444318453305, -0.1540012225454623, 1.724971278152481, 2.1237703307495424, 0.11037667383958977, -1.3129101097638392, -1.6554183320826001, -0.5782757498214781, 1.5792036187539413, 0.26932993949976225, -0.009069552083830111, -1.3618323794834797, -0.06970179588706318, -1.2627363068212514, 0.1742250105232081, 2.1905916937487606, -0.6620806652933876, -0.10815128713850429], [1.693298600179724, 0.06615289435386032, 1.3797031231274681, 1.269411154167984, -0.6131589719288723, -2.7753290375140893, -0.08464654872239649, 1.208756470382636, -0.10016108676376931, -1.5519031390063975, -1.705227211868813, 0.3518027680754669, 0.7737491887368857, -3.291375046333944, -2.0383324233770175, 0.6737108922360043, -1.5327844720499755, 1.3754228505472395, -1.8708021526483174, 0.09334978963053028, 0.7612639368220435, -0.03956257039945237, 0.7806987399557848, -1.0024403524470118, 0.20391781758912228, 0.8282739747515092, 1.4307789043611945, -0.4682414057781566, -0.0912049122246466, -0.5626130305247216], [2.084115498642047, -1.0716929451338073, -1.142926256081634, -1.9178410196079911, 0.9004345681722213, 1.5432969357296076, -0.37182856168773154, 1.193145345491839, 0.46558405535702163, -2.250064596830052, -0.5167288448738203, 0.17883114470558556, 0.3930087736570378, -0.26622610586760853, 0.4026479238948428, -1.1238231584653073, 0.39979063699365697, 0.08342929210652102, 0.10043737714873835, -0.7692906571037207, -0.8251764697414717, -1.8970483774872942, 0.2337345244881263, -1.1349068276290282, -2.064759544715262, 0.18142302713097772, -1.1026300823758002, -0.5406479064996424, -0.045887853629384336, 1.4003017528644894], [-2.6845113282443176, -0.35579813718633474, 0.7994403208770364, -1.2328952775957565, -0.7732586693346414, 0.42109108495218656, -0.49314625602901313, -3.3605442843983644, -2.6373110435132756, 2.0835212461915575, 1.0531264688019601, 1.909744317658103, 1.9674436332005047, -0.11428581345897479, 1.221888406604859, 1.0567823407311099, 2.537321448521299, -0.3468756239292951, -0.13850628223143324, -0.1516314558290919, 0.9611055646629252, -0.6686259393754419, -0.19024386348731523, 2.7390170093563504, 1.0078987979479537, -1.4920083302169302, 1.3001512044794696, 1.1084661166050356, 1.5995836456536152, -0.03763709028623183], [1.0362469056249821, -1.7820713727521718, 0.43611979499697817, -1.0893281404743609, -0.005666270280211013, -0.5643655676811823, 1.5378371279776686, -0.3393590383734452, 1.3456682489723462, -1.69140444759958, 0.3777792857767285, -1.1927214490820666, 0.40475302690181125, -1.9617909293325189, -2.0219379528816583, 1.497503704346611, 2.026729539963481, 1.8917242484340344, -2.145972793315005, -1.5864066501353138, -0.27066130651368825, 0.4123317660802265, 0.9349442725685593, 1.8569459105265884, 0.19249903037896626, -0.22156012360489966, -2.5297748072132777, 0.7852057483901441, -0.25548672230279357, -0.5546156057360909], [1.6975061176255266, -1.89518781487456, -1.4208138060979485, 0.9301511710177915, 0.03700006166516356, 1.6476742787956349, 0.9431305673061089, -1.8374590102543658, 0.9489263590411087, 1.281091104355524, -0.7340756509030372, -3.11534177778439, 0.13233212434472905, 1.0167089886233476, -0.7637258245006483, -2.025615983918263, 1.5761469463004605, -0.7062568781034732, 2.8878622919885917, 0.4580684449825328, -0.23146873710827187, 2.0137922306447327, -0.0759089537308548, 0.9503743832037068, 2.328938851023443, 1.5392452906404297, 0.5923099738331999, -0.784437466077927, -2.559110602972711, 0.4300366273254763], [2.0774196110384735, 0.3897840387150307, 2.6710385023506387, 1.4667801370396623, -1.8362341628425418, -1.893093274592347, -1.4269190863768, -1.1779525927824999, 1.9326934336805857, 1.842520629596057, -1.0812513499111238, 0.0465800451191651, 1.4001968638277367, -3.2962279542918966, 0.3270276018360927, 2.626385546018596, 0.31772445753638084, 1.2210426066110331, -3.7030404103714014, 1.0403355827773706, 2.067666414772473, -3.4920648393353755, 0.7897244057187258, 0.9402604767941279, -0.3117295038901038, -0.814184866561279, 2.040853955409874, 1.426332734314959, -0.7730323877128786, 1.244296540886926], [-0.8023915950965199, -1.3631153945193808, 0.2255729443709359, 1.390395217102649, 1.7180906493068104, 2.3166257020514713, 2.663402711957594, -0.4873047533845822, 0.69863950132208, -0.5564778145851264, -0.7173800478020008, 0.31797802438853456, 0.960222759790615, -2.114608536581919, -2.723196827244433, -1.16622432106507, 2.474836081375682, -0.5559159649607643, 0.48336694104169964, -1.1330759542745372, 0.14458686704898074, -1.0527909539842077, 1.4753616818158914, -0.2464958912213121, 1.7941219174066492, 1.7809800617858813, -1.9393995833040094, -0.19356153681758903, 0.18659794390762605, 2.7013215728339093], [0.5510967554896141, 1.140096782458304, 1.1550924299157728, -1.4161544472814251, 0.4227553294249904, 1.3091561477122458, -0.9958942438855737, -2.4398310013196354, -1.0174928836872537, -0.08651888003239769, 1.0674720739047303, 0.5610333095031145, 0.7638239360536654, -0.08719435497540177, -0.6825142494045328, 1.5522845106524101, -1.1624650434116788, -1.0507728529389468, -0.8354195905183601, 1.4170328219709647, 1.4497168009835297, 2.046326118679403, 1.0021148788914287, 1.94864358901157, -0.6471148797172689, 0.09535620645258676, -0.47474522412427234, 1.647065087028779, -2.141535135621295, -0.9796839067060696], [-0.05525853768622783, -1.3942521457004877, -0.015984151812023922, -0.23609795728076155, -0.965491644325545, -0.39029283934648856, 0.940172148544028, 0.5781317037208696, -1.6336978773841635, -1.5898252737477707, 0.17487079979249973, -1.5016329287495178, 2.5264716266585894, -3.7061493803454684, 2.4719320498819943, 0.21771846785218987, 2.181570246631233, -0.26279465981356576, 3.212377592716444, -0.6558066627352545, 0.15345481440911934, 0.868930471656013, -0.46574940447128815, 0.8797830625644079, -1.4016184684276851, -1.4924689777321656, 0.9017099773221896, 1.2362024432456362, -2.2418965394936974, 0.4933021516236585], [-0.0669736785779121, -0.7380149492413618, 0.22905124317891298, -0.5677647855349222, -0.5081466882389096, 0.842517101187578, -1.13968492313635, -1.7547842644582028, -1.581715316636626, -2.6121999396105244, 0.9258671123667119, 0.007615118140293386, 0.7304875358259121, 1.864242332727095, 2.5180737136637497, -0.6728737267632939, 0.668969292286513, 1.4321153413954881, 0.9628166755412799, 2.6188450552564544, 0.7685621267509397, -3.051459090235765, 0.11625071898462686, -0.38681030882050504, 1.638376282346555, -0.45918618417216417, -1.793965500577809, -0.9888562585535011, 0.28418689908875594, 0.662403989412219], [-1.5088812410612527, -2.487804173741454, -0.6141815913613767, -0.9601072485341756, -0.9774917998541955, 0.2432905822911166, 1.7489679235910702, 1.1774297185689446, 0.5691606339791689, -0.27464306654763987, -0.8981090723684462, -0.8007684338760961, 1.349956925491957, -1.3933111897308819, 1.0520539185752469, 1.0300242350122308, -0.9203562068283608, -2.2581436404742794, 0.649289562216969, -0.8139741730161373, 3.069299653214283, 0.48985018625301263, 0.20904260711263947, -1.2942910436466868, 0.5529655457835033, -0.3687118765345192, 1.0683833496269421, 0.911687352975193, 0.232470201835202, 2.1945333565901386], [0.5946826159422324, -2.0341113984573815, 1.3131553609125217, 0.4297322534713961, 0.06982761875811631, -0.4051299966685226, -0.42501542325785857, 1.6100999938994003, -0.17138093156452627, 0.11610658224719608, 0.7459272974291892, -0.9032194382135729, 0.9158894282708668, 0.6197690832657413, -0.4285600139208704, 1.9457773569747117, -3.4143379440298207, 1.5225347228025128, -2.279034094787954, -1.5689725299908954, -0.8568181732013667, -1.2657922873513663, 0.23562309098136228, -1.0263536889302218, 1.7224341831193726, -1.393472379525046, 2.2601457001959, 0.5960821082379639, -0.3673118771592867, 3.383846401196827], [1.9638466341144731, 0.4048699675871841, -0.2699753081096495, -2.43859559559914, -3.175454087965839, 1.728533642969004, 2.161231718779427, -1.5718720706551688, 0.28645881710298376, 0.12439175990354939, -0.7827840344070461, -0.3407730811659412, 1.1686273453028206, -1.3260883156188317, 0.03359725219266867, -0.13162688989764362, 1.6419294453901179, 0.5527750056042344, -2.3430272928485354, -0.7342497085075907, 1.982311581718362, 0.8120098002669343, -0.7570489228647967, 0.303315340046001, 1.5601686668190637, -1.716138708664213, 1.648138581381005, 0.3665501408978564, -0.517053803756012, 0.28139860240393066]], [[-0.881644982532038, -0.01360170316530019, 1.0152102623840402, -1.5801911535477347, 0.9210293924293429, -1.374261396232184, 1.3505633604925131, -2.0760811074369374, 0.6536802086934561, 1.4365662041499005, 0.44425119850284106, 0.13687225031856776, 1.7054698841142424, 0.731191928263632, 2.5749765202998054, 1.1226902192145658, -1.266177930672262, 1.1106262106134968, -0.7581283722358154, -0.19554439141081179], [1.3623268831852064, -0.44215006341984786, -0.514422058660212, 1.293879642032528, 2.7136866868198712, -0.4017428358400912, -0.32928380727306417, 2.244315635941252, -1.1298488772994297, 2.386911871289952, -0.22361607385686177, -0.20390058727116264, -1.1415381605757449, -0.7822191206907122, 0.40868738431115376, 0.7701269413038974, -0.13501451469325018, -0.6773440431064979, 4.175074383843641, -0.37295307917869996], [-1.1248616132135727, -0.4952239383599717, 0.1989506699776809, 0.24935080173092, 2.8891594170448274, -0.8465100367492744, 2.1356397912627374, -1.6435274892886462, 0.4530066355425708, -1.695288350118374, -0.7380556438238978, -0.631473291188811, 1.2068901856464196, -1.6430265964530717, 0.47670349266944334, -0.9484936946564958, -0.7004979272726451, 0.8062839156139897, 0.814224109900418, 0.01719445330595984], [-1.5149649174907442, 0.7121843947512181, 2.0079106065796952, -0.8101004699060406, 1.3939952654302803, 0.9580677273479685, 1.2137980188722517, 0.72740702600464, -0.8123824353182867, 0.007303448513782438, 0.040038140708345264, 0.013573206949869415, -2.3742007049208143, 0.5682722467485632, -0.748647276960002, -0.015154400054343575, -0.1984849638611154, -1.3857883559476392, 0.8675525201858172, -1.0845034749287215], [-1.0635994624382048, -0.2969069496320782, -0.41735147726195865, 1.1188624027266163, -0.6147692856086149, -1.4877313196274344, 2.5431493327955614, 0.9917948964003928, 0.766366677690842, 2.4153005015281632, -0.1535468245092433, 3.4247521661416314, 0.17190648466973124, 0.6608457897755452, -1.0147038894760383, -1.924955794198786, 1.6670747198862104, -0.11339700328597073, -0.07608650909523647, -0.7903180031478269], [-2.2857356843811933, 1.0428580655439166, -1.7144511838743737, 0.70071247325296, -0.2653524445745489, 1.6068878598581458, -2.2336405053498525, -0.5849385158675009, -1.4934246504311464, -3.170603513230865, -2.569629506213259, -2.2528436947298434, 2.4934529742545943, -0.8513712846382712, -1.1238557913019207, 0.38106908712576865, 0.46387813604284317, 0.20534453937349814, -2.6734560719888627, 3.0184666036828003], [-1.1077286397621307, 0.7467032806442593, -0.9297074059904454, -1.892613257226242, 0.44243170906031143, -2.2263394435912627, -0.9613214671945227, 0.6138803410648966, -0.8481354819592044, 0.38896988642071456, 0.7738459902973044, 0.17164630505903689, -0.5477797827326528, 1.8995020647964673, 0.7632444614497688, -1.7204225222495164, -1.7657276266939754, 0.7401582704365499, -0.6555560537737337, -0.7350345241230435], [0.5450124363712839, -0.07742874085749388, 0.42001214739179754, 1.0533723799369608, -0.9437807483507552, -0.9846028470842978, -0.6677402287800919, -1.7197617074126001, -1.3535740633658115, 1.074726578263424, 0.027711839170654028, 0.9498334448361926, -1.5098077948789823, 1.0280258291717328, -0.43030434139479823, 0.8703267502786174, 2.188810429033427, -0.960443849325294, -0.5788513451922634, 0.9865644688909904], [0.6874632195350928, -0.6932212887060328, 2.883336635741729, -0.3171750021733637, 1.1490584594377447, -0.7732450163444314, 0.3052306609342794, 0.4599031202643318, -0.027018602948533997, 0.5462303552495639, -1.1743982115926832, -0.5083114909690244, -0.09362015166732696, -0.28416192068235285, 2.6886502005836537, 0.5981431373766681, -2.9909808842608014, 0.47092075372642156, 0.20661745451600358, 0.5354732675364843], [0.4680228596187135, -2.7821690688421494, 2.5734558629537334, -1.8728211515331221, 1.6890362046200058, -0.5076612240767602, -0.9303035346392611, -0.9859462615817994, 0.8078255941586779, -0.31642900276853775, 2.8507244707531085, -0.01003141738260843, -1.9915312556771434, 0.4545616317339179, 1.337738286053543, -1.17525654484611, -2.112473678900718, -1.6698932266900104, 1.8028667482787666, -0.5692882648290283], [-1.1687680582804716, -1.8252210390988672, -0.06988722646074076, 0.4853486524743187, -0.5984953987917269, -0.18393988870159964, -1.2914830081011632, -0.726649417020737, 0.24623317819989196, -1.3857235366594443, -0.5408206266955418, -1.3043907344015255, 1.5416174748861373, -1.3415110553556482, 0.34383615041206733, -0.46714761065831883, -0.514984337920618, 2.1718205579316403, 1.2757333920091338, 2.544946403461378], [0.9160586235912652, -2.9097666990999436, 1.7329013442278967, 0.7190638621336655, -0.0773306846254924, 1.022712800651307, 0.5790044695855174, 0.47186450586835016, -0.9981183161833989, 0.850365774870014, 0.867730876516521, -0.4264053097873703, -0.585952597352194, -0.7351633963305053, -0.6862018330868362, 0.8913198814195539, 0.014789140101112822, -1.360561977022771, 0.06337324275798718, 1.5034992505240308], [0.9353547088689619, 0.7634820069950446, -1.0003111064046586, 0.18431632368717848, 0.47539134337265065, -1.4513309297050923, -0.6967409935822277, 1.5794064519092719, 0.8604687220829863, -0.3630381470803368, 1.4379280793177218, -1.195980360666304, 0.9681678091486063, -0.8680212445899893, -0.09083143653380338, -1.175087601500732, -2.1171953274003616, 0.4265896821721142, -1.529682284351886, -2.3123852116756445], [0.9862041392774782, 3.7407634140529313, 1.8909645298062148, 1.545023913181235, -2.317363358283819, 0.9034148103156179, -0.8939632024049797, 4.221271399319502, 0.05133671175666719, -0.2083592204437269, 0.1417499606903486, 2.261614498533533, -0.7925619023438751, -0.6094936268281136, -0.18867083039332072, -2.2790043455391085, -0.1570729475551745, -2.435387774621146, 2.546641249181872, -0.33294937564354554], [-0.6679478346471432, 0.7693187556777082, 0.6880071994159032, -1.1099684511554762, 0.6054484869021715, 0.36311638718461337, 2.177849722951884, 1.6441042803542016, 4.6543046571794155, -1.4193263292799572, -0.10875074196927735, -1.3265281269432123, -0.1236506916823849, 1.3104026899108656, 0.5626439571783031, -3.12939469124273, -0.11913854657944341, -1.008816913136825, -0.1874096628930859, -0.3178411545086988], [-0.1452736730954677, -3.633001030555148, -0.06952355896662131, -0.6944468911029098, 2.1457136329436377, -2.138260205333813, 0.4283196149961919, -1.1166597657793853, 0.021275210044842344, -3.442328091616073, 0.6055932307683312, 1.8406717735124698, 0.7235428742260994, 0.8398208568516191, 0.18718908870706172, 3.1911218036732962, 0.2193306819749356, 1.9509955009528694, 0.36581723436389674, -1.9806151187738432], [0.1929991574772069, 0.2604566645147784, -0.5690113511009464, -1.0410300913946888, -1.3642034664647853, 1.024865059574879, -1.6704156112200412, 0.31271455850766655, 1.0319609700068375, 0.907234492081976, -0.8240202520885378, -0.4230475165309253, -1.4867905099432825, -0.6137086185299249, -3.7603915725146178, -0.18866473197395853, -0.5614385811851458, 0.2080728659427464, -2.551487606288464, 0.009663036002841931], [-1.8914785100879468, -0.22666517733333968, -2.9179241016945894, -1.5297568339585932, -0.19439635847179268, 1.0159455455583848, -1.6203584371533688, 0.06798967227494104, 0.29597201364759124, 0.8762013057186095, 1.3764858388036618, -0.535741906639128, -1.2260095455776554, -0.7965204458674631, -1.9924465764632162, 2.803067066737834, 0.40771746174441825, -0.2183184902526402, 0.4226419706691733, 1.8296153447782724], [2.0106223413307442, -0.05679941769315712, 1.0095121294404539, 0.43549036512458955, -3.7460514525954416, -0.02731951079300341, -2.3614967820520216, 0.7729465975362498, 0.7830453825451514, 1.448413975475645, 1.2186119008364158, -2.5399383853361788, -1.147662375859522, 0.319173936579161, 1.105058887184041, -2.6174242899916886, 1.2208674738992613, -2.534174874558506, 1.4703873433599113, 0.5686455946132082], [1.5041652745455414, -0.40192062278694446, -0.2975847387320212, 0.8145641659347399, 1.113259042076971, 3.781610066275362, -0.33969451731538297, -1.1851238359938625, -0.49863064892944325, 0.15486784849886595, 1.8508362174080886, -1.4916356286905614, -1.2936082500983375, 0.3487126236094418, -1.5478338429343153, -0.02705030354198489, -0.3993685466458596, -0.9777071751548612, -0.612617351935958, 1.3805825558230689], [0.48916383898378973, -1.7094071884442428, -0.9836862396176388, -0.8048728539662839, -0.6782583190186577, -1.2817027580684912, -2.4421595388116137, -0.5720592724124866, -1.883434952745809, -0.5429412312673702, -1.2085069263539054, -0.6199439560824105, 1.3599498499625475, 0.37512370402293965, -1.5984320006755544, -0.5500987063680026, -2.405517524868765, 0.5848987629066098, -1.528073735123497, -0.08242903928665953], [-0.8753552185829918, -2.6890941301137303, -2.77344960846918, 4.249970611968415, 0.9673769999327302, -1.099506068609271, -4.696844837906277, -1.8517326545308226, 1.8830662190317518, -1.960433278361309, 1.3008068500675956, -0.7244299242969788, 0.7022283644267615, 1.1703131989105113, -0.9352744612538123, -0.44476734921577143, 0.276815272698159, -0.34642234368702635, 0.29337809528556097, -0.7423217716128675], [-2.94703582601252, -0.6789286752956363, 0.3580459436528268, -1.013931190500865, 0.014751306417670237, -2.2358163531270008, 0.8885261871295778, 0.1614124190049492, -1.3681581111862144, -1.3788535806176012, -1.8031511298617335, 2.2556609240331857, 1.3358721679936547, 0.4252922094090301, -0.2297129270317702, -0.4400300012363838, 0.004561931938814859, 2.773061130556826, -0.23585085899819255, -0.04818091944535258], [-1.68799545314437, -0.3098879368539944, -0.28497290414841003, -3.688740004435823, 1.215072753620357, 0.14126375144679465, -3.8166225102146636, -0.08103111328973034, -0.030073513582880216, 2.6275352537995995, -0.8169976724917994, -0.217614927399386, -0.8710690661565823, -0.22689302121758034, -2.226062113777552, -0.3516752096374754, -0.07772722056121817, 1.1106333830289847, 2.4349641690374533, -2.2544918998942163], [-1.8577645010079695, 2.283771273694669, -0.5595793425825258, -1.4602283129489686, -0.2511879656416577, 1.066201492569885, -0.25770243727813186, -0.8245498162452786, 0.058907884975687795, 1.0580721872177712, 4.909930100566508, -1.3158266466857682, 0.6282041481694272, 0.4259932093679431, 1.6921261064883446, -0.7754946997523439, -3.0066350602857965, 1.4183970252512352, -1.3557484632473862, -0.05806301673973881], [2.8278337849219892, 0.5076081479876585, 1.0117791304706283, -3.3110361512419386, 0.04646755841145952, 0.8426975319699248, -1.096716661971201, 0.5319689177708952, -1.4024874406003407, 0.47474444333726906, -2.3702237012011693, 1.1089791807560037, -0.6928983318150842, -0.8372233994277565, -0.187198905902782, -1.7193654907384082, 0.7446910054485144, -2.3276534041179757, -1.567956249756305, -1.0207568930051778], [1.6286935275744385, 2.0951748566876485, -0.7660476129919795, 0.6137488934033855, 0.7146729260298492, 0.032511242303317006, -1.4532736613028665, 1.623913121634119, -2.8836768774939725, 0.6983063471752029, 2.1051465814710357, -2.601399696361337, 0.911137181019224, -2.2701998272406603, 1.4768550303217334, -0.566333801611051, 2.6230311375217643, -1.0040856164971004, -0.7168384828153839, 0.7010672346442611], [-0.822536271874832, -1.0188157459963332, -0.4998058789383429, -1.9296131617487688, -1.586108352270362, -0.5112004315734392, 1.1460200566165124, -0.7682980594634502, -0.9154991412998612, 0.2986766750374701, -1.8030432011079331, 1.5706774378408261, -1.030314889461788, 0.22575482187733098, 0.8824007619504787, 0.7376654042038651, 0.3571849472150273, 0.30905797609123237, -2.058000286791922, -1.3426754769819642], [0.4144889468705005, 2.088537016619318, 1.7235374389360076, -2.3551378101362612, -1.0569211112058918, -1.2577664022654211, 1.240298859873815, 1.72320253096477, -1.959549695874679, -2.569243436208828, -1.1529604237104645, 1.0765706255404819, 0.973920279777003, -0.5959010204314795, -1.7594644285132073, 2.4873102300599848, -0.6200087219769005, 0.3961381218604595, 0.21465363632588, -0.7886302348786992], [-0.052937071728005665, 0.08197340588211038, -0.8803796953832922, -0.3904312196397599, 0.02058407119937661, -1.5278378682100429, 0.8900818099202761, -1.6300782488102386, -1.5713321453549045, -1.1800013003238128, -2.3208313986158973, -0.7305865608033755, 2.427623389077016, 1.907729227253883, 1.2019477291818383, -0.6121690985649633, -0.6386900591471346, -0.6890517393809765, 0.08068704512028867, -1.2981248287658231]], [[1.0902096763120506, 0.301870007799568, -0.9103636392365755, -0.8898811429289066, 0.23389865459404396, -2.6743278885057666, 1.138575443392109, 1.2742677377663472, -2.123168240153398, -0.31749882696589576], [1.3272518508746465, -0.7927165749658247, -2.1914195755636507, 2.063429669216114, 3.426291102422914, 0.4721444484564881, -0.36440653348662566, -1.978269290891199, 2.0497535890440255, 1.4156671617892886], [0.6774114473037918, -1.39037456249233, -0.23703621497879546, 1.73736817721374, -0.7972272646461634, 0.6485674669214829, -0.39168406535381817, 0.95714001493191, -2.3895422614258326, 0.16810897088607135], [0.2283606930833494, -2.0882441314887563, -1.4288569241878455, -0.0985653302918996, -1.0278351834337165, -2.3624610237948693, -1.3947488810940556, 1.3108038568813651, -2.4035675886068577, -1.139903549301118], [-0.22874540386682657, 0.6287843106064971, 0.22818101709583857, -2.4401511357562287, 1.1383548610400251, -0.4485121644333639, -0.002256565661147809, 0.13902120297084244, 0.6437905557815511, -1.4907119604707963], [0.1689809148735244, -0.5406156284427789, -1.6847417870539858, -0.04600149884616851, -0.725145836976707, -3.0465786442364147, -0.9312704251928449, 1.6138924342680177, -1.1870602185373333, -0.4370433384974584], [1.9762895835454013, -1.1458300955352183, -0.8669967700301754, -0.36688500574322536, 0.5642901762744699, 0.9712604181393566, -1.176283154827872, 1.550818341575869, 0.024656121669129547, -1.0310182210419134], [2.0878760437006982, 0.8787176985629999, 0.6116055805562267, -0.37228568224011044, 0.6641178333654425, -1.3710406144640455, -3.0579183056197663, -1.1145749809614813, -0.07039117705984466, 0.15275552572396542], [-1.3442336108371722, -0.7423474558585647, 1.5723546043489813, -2.1160064162373233, 2.2726360568999833, 0.8172806809098759, -1.164515171779706, 1.6917943608604862, 1.0269332486200817, 1.4060580900818993], [3.630889875645263, 0.5098030067774637, 0.16679009159756011, -0.26195905254476415, -0.33671069034451606, -0.5052948091921848, -1.5046997571970349, -0.5154964057321602, 1.7760482543232274, -0.9179121998191782], [-1.0305103515564487, -1.4740833751357412, 0.6271391687348813, -0.2758774157683377, -1.2996035024704646, -0.6907508388265783, -3.1752731084720573, 2.7485888865395602, -1.2226248567429971, 1.2919585993023222], [0.1232988570206035, -1.3794087220657978, -1.2328583462197962, -0.9675572023791856, 0.3464688686548874, 2.14503851333454, -0.3395390025047598, -1.457049768411177, -2.79877042710146, -0.0416860593806369], [0.8985081327815102, -1.2002138980576633, 1.3425796820677187, 1.0240006251902136, 0.7925642161113245, 0.5112823331135589, 0.9713576013390289, 0.8668212230638866, 0.8903305279759463, 0.08221708528296837], [-0.7031228831359468, 1.4948656252655825, 0.8120723402314955, 1.0608460137706994, -1.5890387459396214, 0.5617094223064858, -0.2890772162399961, 0.1987516688012383, 0.052467772965360183, 1.0177420530900294], [0.19724828131188524, 3.555904780343289, -0.4807617235067849, 1.5147326956968046, 0.19135834852501374, -0.2252929154739558, -0.7665003076417053, 1.8162518821936464, -2.2552752388129735, 1.6701038497756002], [-0.7159526420318897, -0.5796333975135557, -0.12339695983684731, 0.2841561131195044, -2.609704672685917, -0.5976974568635126, 2.217226152033411, -2.6437926723320664, 0.2799639287556285, -0.9251596793712454], [1.0451522161969962, 1.6106055510811483, -1.9663314673775156, 1.0848197716924994, -1.1924449416539813, -0.3558870658241108, 0.05240636261254588, -0.06345521238933051, -0.22897160054021073, -0.3974858256118633], [-2.437342857248051, -0.8930899185981472, 0.7164594211631143, 1.031487407602314, -1.7207661045378417, -0.6521145872071258, 0.03840513412878247, 0.16424842385371238, 0.23182173767764996, -0.12300182801110401], [0.5599175902514021, -0.05846552791027396, -3.3671092162246015, -0.5359553221017814, 0.6131153159952096, -1.3260784028249382, -2.40783980589258, -1.0034804746315806, -1.323324947534148, -0.7195566493901082], [-0.31672518927310517, -0.30240852133867074, -1.187792604389519, -0.10613025342811137, 0.10863750376058783, -0.10893433558861675, -0.2348184466844243, 1.5854361820915155, 0.024783753649685165, -1.2112575109798993]], [[1.341640359818597, 1.283628528295698, -1.300338384676011, 0.15989091703387306, 1.226558252733555], [2.0116112694943853, -0.9521806671905834, 0.037224900724072064, -2.5801154033401215, 3.129977217921665], [-0.7101067521338265, -0.726149587865375, 1.5566734678135208, -0.3441172293369407, -0.3160622092837641], [0.08356185874406688, -0.3274316457105723, -1.06234736252705, -2.0031188929331525, -1.2379832359020153], [-0.4995200617660198, -0.08014092701536686, -2.032481689054598, -1.0122904940101796, 0.11924348610693511], [1.4411669594095762, -2.021234379069879, 1.6395662279353445, -0.898255197821711, 0.37999684015769525], [-3.540129286266813, 0.4922821244576628, 1.7470523460327096, 0.6152093813722537, 1.502766547116232], [1.654134398423132, 2.43141788255843, -0.3446175725671042, -0.8504564072791805, -1.1917890419146935], [0.6534205600940973, -0.9454239138114539, 2.0790430533508566, 1.0430919459996895, 0.37091409939558806], [-1.1960431675902783, -2.611854057687329, -0.20013866068727423, -0.9731844984834442, 0.15650326761323097]], [[-0.7406747242832531, 0.9545712879390762], [0.22043084150175069, -1.1202955447949645], [-0.7115023395999449, 0.9510119681515412], [1.035199861088437, 1.0315950816167583], [1.3037586878369356, -0.07887182242198996]], [[-0.11123253814956773, -0.8286836822025014, -0.5010933260743702, -0.5424928961572464, -0.9146593821710591], [0.8270956894479458, -0.3666365976327732, 0.6067692875373496, -0.7951113217628366, 0.5639626626803607]], [[-0.7780596286279778, -1.0896736514450154, -2.6351752323440176, -2.7070751754548694, -0.021693756349798605, -0.6279974125384581, -1.6613078689281409, -0.2174212518444186, -0.6401395616625007, 0.4121772832254194], [-0.6581203714255868, -0.6428790971055734, 0.538733190190618, -1.2125796549060877, 1.055850360421582, 1.8729730215867517, 0.6631084283296914, -1.0324976737391418, 0.01100943500335647, -0.31395486274425705], [-0.3479802858221957, -1.1879704008954246, -0.9237669140719352, -2.9165157924880383, -0.08180831961207982, 1.050667203640621, -1.2259820308770932, -0.2468493930041317, -0.6282129718342445, -0.5064693298428975], [0.8442714647448265, 1.3958296878652432, -0.11018436729084384, 1.0228149385007907, 1.2472448795189561, 3.300303430819752, -0.11772998131135833, -1.9724299719640093, -0.12638476583416086, 0.0050878738728240705], [-1.2216321710589728, 0.6424431735503305, 0.9271755125523069, -4.234603024670209, 0.914168660789435, 0.47275854296006314, -0.5330239188203226, 1.1528697004736785, -1.8062332110565769, -1.554914887754342]], [[-1.908739672071459, -0.7880425953710234, -0.08152059681720704, -3.5218572894088247, 1.3755719495282686, -3.021319590312347, -1.3013961080883882, 2.0435914342860353, -0.28732795992763266, -1.4226294220633797, -1.981154674538521, -1.7695272414831067, -0.7080761147849463, -1.8169249042384275, 0.46270004369157386, 1.6852162180564945, 0.9422707030652306, 3.427835274260251, -1.2604373279240717, 0.6463476020415058], [0.9064911552750495, -2.1511987739475953, -0.9069177879629233, -1.769346860573949, 2.8437874365118803, -1.2043831671437182, -0.44801325915478274, -1.238941445279524, -1.2830971593510507, -0.5929771623940376, 0.7423001618473111, 0.42296968579675615, -2.3317169591261524, -0.05176680952690992, 2.6641402786408164, -0.5076948381122436, -1.481185453090124, 5.377050855436482, -0.40815133246911506, -0.6572972828078522], [1.0421167384193752, -5.086086947531921, 0.8301785872933667, -1.235095591772867, 2.4712668578154893, -1.5004073850846522, -1.7805252715632685, -0.26421798095723714, 0.5166647368760792, -2.067001255650401, 0.7482864911857466, -1.1877228368919188, -1.3759658360711104, -0.40127975406211414, 0.9472528229031794, -1.1722386384337478, 0.2523562452524987, 6.722482777257225, -0.637232581164764, -1.0545664084829187], [-1.0783733661384243, 1.720822307607292, 0.30812758054708733, -3.6767237570304885, 0.32116179074663903, -2.362576088760739, 1.0928684883899211, -1.025245229921345, 0.16343114014937613, 0.7105779915613789, -0.5116260482626237, 2.431755994969112, 1.0145775332789746, 1.5126676499886647, -1.8692051509472054, 1.2504388330301601, -1.0699718495674717, 0.11163730918073886, 1.6063274287518596, 1.1510914515770327], [-0.23842326468246833, -3.392750539761363, 2.3253310548671804, -0.17649050096297478, 1.4303507184369504, -0.07475634073005899, -1.091186687865404, -0.2962125334254072, -0.3332891331946561, -0.5834339522315076, 0.2797182477938321, 2.3099435862598576, -0.8660759441696894, 0.8073735928830565, 0.1214647729247508, -6.563499651465696, 1.7467683931108797, 3.118800497221737, 2.3532779223245543, -0.8390196571268628], [0.04731688501487372, -5.419191911411906, -0.2845767908765591, 2.301122172103991, 1.607871497234185, 0.6985613878524927, 1.3224799563671052, 0.32808743298581666, -0.05177514630712038, 0.9084887801136388, -0.6686602105995673, 1.9411860735367408, 0.484549160775754, 0.5338777366540643, 0.563504362802017, -5.293597433484861, -0.5993744801862765, 2.6915955672933705, 0.25594941995911386, -0.28911429268950845], [0.3114188483028197, -1.7681968648481778, 0.3451229760798179, -2.9952521474350524, 1.4642491757210456, -2.833874076872193, -1.1923284959300908, 2.3923141156133143, -1.1211118018383979, -2.2204943134920594, -0.1786318717247572, -0.33988890653828857, -0.6798181765049794, -0.251018303466176, 0.7534837877704075, 0.2974030348270825, -1.4576206230769808, 5.337159435575082, 0.403485488612245, 0.21917183972303494], [0.3760170349689477, 4.034617560464872, 0.22372655537415465, 0.42871771556778654, -1.909469148424031, 0.6285704429161267, 2.1205085908822614, 0.4739292258594796, 1.3152275660330683, 0.05151527835155134, -0.04190668012112108, -0.4370990914128267, 1.3735670016317734, -1.494106616370505, -0.4006924477876858, 2.0317494520223116, 0.5963643356589604, -6.373654839865399, 0.03724124098095007, 1.310372512924892], [-1.2022762220166143, -1.0292819965972735, -0.7767252786428497, -3.363804941535449, 2.248734676191054, -0.39038102215257414, 0.7601012860017641, 2.9844323848450283, -1.2846935149751437, -0.344716929842989, -2.017104141904895, -0.831606277434577, 0.46552054046062347, 0.2738925433133233, 0.11389094083406777, 2.9749017505607775, 0.12785718447465222, 1.3451301846252528, -1.1414460526641041, -0.715397478061579], [-2.3571279552251836, 4.530429109624304, -1.3163122516218637, -1.6291023071369144, 0.9837703205796965, -1.1554683281306009, -0.12737583168539043, 1.429196788837998, -2.244381247226339, 0.8116546772797406, -0.8686619836386064, -0.07720894308156012, 0.4004927957476855, -1.9231877779817204, 0.569443570163065, 1.5723874699862477, -0.7145626952140481, 1.9630691776246076, -1.2230851617608984, 0.1718997177222352]], [[-2.397589896827077, 3.3443361380800067, 1.465694725289603, 2.7964154650599813, 3.4601148431874864, -0.18577615221525856, -0.13366112979049166, -0.1893773085090529, 3.526767719534906, -2.3969387226346712, -0.46742637553656485, 0.9992104758027215, 2.2175712271312595, -0.07001508885882975, 0.13069781246520876, -2.4299471307705067, 0.45668683259727005, 0.5373373156195757, 5.7461191354076995, -1.8749682721421155, -2.7480944111796197, -3.1650292385124024, 2.470270763648258, 0.4288074735769155, -0.2670738919312841, 1.0741152107707834, -0.8695412794047028, -0.36348795800901645, 1.7865648778154544, -1.806969707300245], [5.510483966732543, 1.187165691004385, -0.14545984022362973, -3.9379149097338018, 0.3032369586213586, -2.130312400827626, 0.4145961000287855, -2.952636107949618, 6.984541099008556, -4.811396550751819, 3.4799907873586413, 1.251496254435095, -1.592830865549789, -7.619485219318773, -3.295222654252989, -1.3746708933862293, -0.3110795354677826, -0.5342603350222292, -4.888024805829959, 2.769326875634664, 0.6467571583121173, 0.37531750273968684, 2.92245340858748, -6.9468565889697, 3.329518123272808, -3.303161131251777, 3.1150549489426997, 3.9552438880806324, 5.424753875508977, 3.139045025052987], [0.36345505577077586, -0.5024548867269468, 0.25707794480316587, -1.866734054392344, -0.2660401995446458, -2.0178897641376676, 1.4264398806856866, -1.132306008560886, 1.4109510267653758, -3.5211867562654193, 2.7012916448241944, 2.5109366619061575, -1.0980736183886772, -0.5422968610314686, -0.2449718367843805, -0.7059561542807692, -0.7415568723265372, 2.2238238160495456, 0.038068352314817304, 0.43107510600255855, -1.3635790034151598, 0.05830781961371132, 1.341907832243756, -4.418067721978302, 1.4877954497584296, -0.6154856569997561, 2.661890573158383, -3.0224971636403146, 0.6585701029088058, 1.5565394765717937], [-1.91370138506616, 7.4349155546148875, -4.615852329847171, 0.06378844023225733, -4.124730952240459, 2.7156068071557016, -2.3958489193840706, 2.7736150729380156, -0.5974997654145336, 0.5512968417862739, -2.089735230096343, -1.7988640361146446, 1.411193204961279, 2.9479464672575775, -1.069507332421287, 0.9574464810176296, 0.8468377539660387, -3.1580584538977994, 17.2339400375963, 3.43923762181645, -0.5373817257098495, 1.561621296755177, -0.7833460002812175, -0.9606708580457841, -0.5263695965813133, 2.749486963940004, 1.6267583083688637, 0.6102722778593418, 0.5439104202300622, -0.6794600018297399], [0.3873999898928956, -18.020732291789372, -1.1831861186638581, 1.5281717946578968, -0.9734141177303035, 0.02250685882605062, 3.356734697377135, -0.22736789689371473, 0.7149389773434235, 0.7272709735045589, -0.9490618926321008, 1.1546154950630323, 1.999225894998163, 0.671472017900112, -3.25884491433845, 2.610763419165289, 0.526606229284928, -0.7703898024214026, -4.398727886329841, 2.3698952397583066, -0.7352298448322384, 4.2797338901196635, 2.29451602920854, 0.640033810524665, -3.6725241629906806, -4.009890638044104, 0.5303229816168396, 0.08851020639711524, 0.17869882794046707, -2.0631675433056005], [-1.9900788912572382, 6.613845083945668, 2.2923444556273394, -0.05972006670596112, -2.225093239444816, -1.0154717332571987, -2.159535402160518, -1.8380839147823693, 0.003516717911053824, 1.5084492189523504, 1.6113226266838299, -1.5980499980747844, -0.8743161494305022, 0.8741868901551179, 0.14817189910474676, -1.6443323599671533, -0.46589410721464836, -1.2459090072637717, 9.505332522407295, 0.6919317331026118, -0.833763475191489, -1.006523012006648, -2.02361839108574, -0.475504381729002, -0.8076261103906011, 1.684211316526767, -1.2820513234505613, 0.8519281352274551, -1.2304947932754882, -0.24815821499311022], [0.22362086514122506, 3.4892079022375033, 1.7970876940024147, 4.073792715053262, 1.106084812905773, 1.628149026569574, -0.13184612230430037, 0.17974975834418183, -3.093971190412291, 0.7012371006031844, -0.6319506640219241, 2.389397597633045, -3.4016089400793965, -3.1382856245009783, 0.2733253272317852, -0.029226837486598226, -2.121287053470513, 1.3602764867916142, -0.6640942378453651, -2.981132551187582, 0.7215234739453286, -3.3436577127807086, 1.1573036948220368, 2.98694047294634, -2.3968796023859666, 3.404681015290708, -2.241051058736327, -0.1374476647160819, -1.6656240706215477, -1.6120382565135292], [3.3432961820617977, -2.08514449378299, -3.1683767702576335, -2.533315705524207, -3.364223489347098, 3.593126390595231, 0.6401519877485784, -1.5314003014422912, -2.123690882436969, 1.1469660219335127, -2.3360678719391013, -0.10643072570162093, 0.5413570988742782, 2.471390641758414, -0.2473807871001101, 1.7886547490968274, -0.19792851503091108, -1.0767644634159148, -7.044214755443883, 3.0273605375253148, 1.5447096220909842, 1.6530749845074653, -3.263884009666018, -0.16091065607833815, -0.1907584102065303, -1.4583649255564588, -0.320681813199177, 1.471801071661539, -1.8317857947288543, 0.4093454069829491], [-0.4414312439319729, 4.411176485051381, 6.700219822181587, 4.242334917353062, 2.7993056343529203, -3.3513397852255875, 1.0985840097505941, -2.1925464694609578, -0.07505761674379414, 0.4497410448278414, 3.3946042285562754, 0.8440787070115806, -1.7440897487272167, -0.9814543587969191, -1.3348752395216, -0.39861341009767703, -1.3401764700458432, 1.7091911604920424, 4.973430400434487, -3.117055007539691, -0.9320322823716692, -2.5317705499420273, 0.9106741222661299, 0.7062759967058041, -1.8837381884806899, 1.3218950983053146, 0.6273756146742224, -0.2896561922163037, -0.5393865959817868, -1.4883855102061794], [-0.3751997089383724, 5.680313439147682, 3.0464625797441487, 3.102815280395556, 2.2313585241176304, -1.4521483282379883, 2.6768270527882643, -0.10130017977828552, -1.3790618742934597, 2.134643374492669, 1.7242439461318602, 1.3487279129025562, -1.5707532016080494, -4.331919142459892, 1.515882735575987, 1.440555810081338, -1.9569397816065948, 0.3719790561501993, 4.2468573167941654, -3.463003933424353, 2.214915264223069, -5.156162411329395, 1.020372934351605, 1.5914858035024437, -1.642539072202922, -1.5698624900750617, -1.3703306082512607, -2.157568854595135, -2.152667779393359, -2.6862966767297918], [-1.500821042220367, 2.2410822857974764, 3.8250524322934796, 2.8916594835457636, 3.6664878253695288, -3.4419524138089015, 0.12478430600505626, -1.6847938588932947, 6.452161090680653, -2.017416711708219, 2.620826087180682, 0.7614904186111945, -0.699369052951934, -0.35825199089046583, 1.0652603776982428, -3.8053545588163598, -0.3622980134221144, 0.14851401956964855, 7.814196426250874, -0.3988580346862989, -1.8636458067941295, 0.3366322345894215, 3.4852337285468655, 2.0167889512804194, -0.08586336238955734, -0.7258004614250864, 0.7552284736767619, -1.1196116017937519, 2.54574178012839, -2.9484818268622104], [-0.14756570115034526, -4.538211519474762, 0.6022239075004004, -1.2500417841039204, -0.8934528504782703, -2.4000598079122235, 2.896271961889338, 0.287769853192988, 0.4229380397999642, -0.0013094551995812686, 1.446387802452177, 2.352147029776001, -3.6384296469451036, 0.2772160986306728, -2.372467918158463, 0.869520471281773, -0.22766663289448263, 3.690216479938813, -0.6520938863287024, 0.8891172222233937, -1.616381426241587, -1.822995240460193, -0.4928072178329735, -1.406456633779896, -0.49869332319998205, -2.6548068327072842, 3.9120055728397576, -2.8161370486307375, -0.1772598572750929, 1.3851171237119535], [-2.297981983875979, 5.760389912342287, 1.0591751587762874, 1.8833328824500986, 1.5190769337880576, 0.19586622518125596, -0.5382871522189864, 1.4562441190890054, 0.4383031845229653, 1.7535929189041801, 0.37351143155369837, 2.548683641508531, -2.4137415106351856, -3.812574430441555, -1.4229587906316685, 0.7728642237182588, -3.6376426293435467, -0.37693029283494595, -2.368457331629834, -1.894542274294347, 2.8883348590677684, -0.7767058745656943, 1.4526118839179514, 3.391742560867931, -0.29077694694932604, 2.5008265979910576, -1.789295506549645, 0.9557459212568693, 0.39730930184650354, -1.2137347093496975], [1.7646196283199433, -3.6324609403553243, 1.4351819440356286, -2.466363670046751, 1.5065207749370688, -3.5455857557999124, 2.9051175346157443, -0.4168768539565309, 2.2780038236426603, -0.0354479531862441, 0.8735246175731403, 2.6498325203614312, -1.4697337766065826, 3.12097241914293, -3.1322836676784482, -1.2442091355652334, -0.415288453806493, 3.022615172678417, 0.4463833140729917, 2.6079819055162683, -1.2887822441208168, -1.704832616761451, -0.6537715861829111, -3.587786726912008, 0.1313331175604831, -3.101808603694639, 2.851242441256317, -1.3100212475756563, 0.9625004736059829, 1.0327388291813044], [-1.2023609745801525, -3.4191073821393654, -0.5945588114872956, -1.7555448935631586, -0.582483981301314, 0.7631954450268893, -0.26836305274872535, -3.6125584848046994, 2.0023436125008027, -0.7593846968922211, 0.16261345912740768, -1.629837926822598, 2.329111377603348, 9.771887662853311, 1.0049641604294777, -0.2666844770733493, 3.3220303962192594, -0.08799832421692133, 3.923659099389769, 0.7586933519150655, -1.4853069607255522, 0.6432104419045616, 0.23306438987882777, -3.235573653568185, 2.5501306289916092, -1.8531758683087385, 1.4887019228211553, -3.7638301216327084, -0.20191799584422976, 1.7437485880397876], [2.346307614660452, -0.36906164328321545, 2.5293003419227396, -0.24056960213623702, 2.035094461760386, -4.773861211291941, -3.5070240327632454, 2.0404629082638968, 1.1585425181211821, -0.2709647495653168, 2.4957859908478626, 1.2915963103962873, -0.5792913370710095, -6.526002903219045, -1.027639906916479, -0.5266471716742771, 0.014876861998462393, 2.889212599265915, -3.0319153021136094, -1.0524491170017036, 3.122933363804029, -1.666998778801099, -1.7258230083391204, -0.08012540952560923, -0.7764182037353442, -1.0659902456175518, 0.4007362854722796, -1.6140419364041043, 1.4339401969156371, -0.34938011927748075], [-1.2191728680666976, 5.167969101863455, 4.256044031387406, 2.352603968768099, 3.5489488491151007, -0.24928981144305004, 1.2852642866777257, 2.01614780491567, 1.1120293873135703, 0.3355546980170734, 2.9728956564149893, 1.7951654646132469, -0.8772542940620901, -1.244156585849992, -1.6782190961727068, -1.548417680153228, -0.5271893414052139, 0.11864197262888622, 8.349348825768114, -0.9192737841549827, -1.0555918786160128, -2.4683051156889664, -0.9764866156243096, 0.6913671977390398, -1.5584700306159338, 0.9263744015859274, 1.3065305487328969, 1.2866689481340052, -0.11555207608512219, -1.4781045419598189], [-1.776187659033944, -12.148147443346742, 3.5673705330894654, 4.012402881867463, 2.610680209812506, -0.3932688386366789, 1.503395183197171, 1.8995094695674788, 1.4051478881526525, -0.3605730378894172, 1.3087665900575216, -0.3205992444703589, 1.114509847690243, 0.6736628142008104, 1.178361022075504, -0.39538037897676387, -1.4292042079260687, -2.2786160079637567, -1.7786693150882296, 1.5590249523165742, -2.111120409149363, 0.3505967034194298, 0.8151432314123153, 2.115873269818273, -1.0453689388334426, -3.7487747522479955, -1.299277598142097, 2.7210841888624984, 0.7466300789214183, -4.982111493019965], [-2.2950929817123837, -5.746960178264379, 3.5358296755540497, -0.5922108929340077, 0.6872846393931301, -3.36914330103228, 4.237867153883999, -1.2041758824660371, 2.8765816941564717, -2.821192835462351, 0.645892611703546, 1.98366147543342, -3.8111764384131908, 3.5257709561524115, -4.896363682925642, -1.8031165659957349, 0.8388193827770738, 4.198254632885496, 3.3883229463004123, 2.5230724221702743, -4.08924693934019, -0.1748600749812123, 2.5294312507191234, -2.4214157322604737, 0.9920277432619067, -4.5977840559209335, 3.839456815760302, -2.7602314090264484, -0.06157792969018877, 0.667827893715733], [-0.2676637948985961, 3.250541461334742, -0.1846641767235456, 0.7947827341056524, -1.5489385392157822, 2.4416266545145606, -1.4699369536392146, 3.940651289274828, -2.3129656582155533, 1.5195519447347592, -1.6865479462438995, 0.18827741379399232, -1.5892656962450074, -3.116547795457251, 0.4225132829099956, 1.6546127848184675, -1.9653843908040616, -1.4580890045446009, -1.6811712372294987, -1.0550044056659993, 0.11846190616070511, -0.5221620892090967, -0.3988026154526565, 3.1634217500575748, -2.979399074032799, 1.773271854383472, -4.193423871603524, 1.1122242744829507, -1.6747039102784786, -0.4016233984649574]], [[-0.0358044827186832, 0.7227088007975688, 2.901686966536513, -0.197817293901485, 1.9624967137118932, -4.982148976460652, -0.5835615114373627, -2.467987884436151, 0.07280795450792812, -5.075270719302958, -5.823546052431307, 0.2139930098074152, -1.087409127841273, -0.0754422999889754, -3.094620666716497, -0.8745926336889436, 4.938784454249929, -3.755781106167597, -2.1268213207012074, -2.9019194503496464, 6.3617557540678655, 2.8284509635061346, -1.0671303496735471, -0.022952880617923607, -4.5244352491524085, -0.0341962941234343, 2.580159206388926, -1.580606938273245, 0.14830369591818876, -4.830918155546007, 0.15818215796470098, 1.7870789494476524, -0.15930855013504958, -5.674261250083457, 1.537192730682355], [-0.34384955974727277, 1.3383439798367818, 5.169051168019398, -0.5567839353638189, 0.3080316550560965, 2.586445495564936, 0.28562065052870345, 11.886510216420358, 0.9762358058395232, 3.680653811357193, 3.43532073498866, 0.06218831579925531, 0.7463347370199247, 13.721803114581023, 3.644049074373914, -0.9039578435593699, -0.8636141901123446, -3.1521119295205664, 4.770728546251178, 0.6391589838871602, -1.5473689882486554, -0.3414456769828627, 2.276388878163356, -0.12555151870314077, -0.17366951107648837, 0.47248993612894463, 2.5675244203621523, -2.347298573478973, 2.596956539115075, 1.1241850157365534, 2.9449500399863573, -2.361341468994971, -2.565492761233683, -2.862238901992116, 3.0416219035600656], [3.379810646767285, -1.3545555466651098, -4.202268608672704, 2.9840807742791324, -0.4153619474706758, 4.5106795418739765, 2.2491265457529694, -1.8494323599690208, -1.071435532134343, 0.623260702644982, 6.627979118689627, 0.06219597548552189, -0.9391928676295325, 5.082677674011276, 1.4391918310444156, 1.3436359625216943, 0.7727370067414673, -3.0007559134114765, 1.979678442723571, -1.4865575744773343, -0.07534498779169484, 1.0505786315310057, -0.9002467076811753, 1.3095929844119243, 0.754825851429716, 1.3374569503358187, 4.153010324421219, -1.9434351383496513, 6.633131401879145, -0.01887538744867105, 2.339378353312583, -0.6188606052900562, 0.9340377198143046, -1.7681154091582927, 1.1155463610736773], [-3.797157959220361, -1.299584101389907, -2.0803931718522826, 2.1683798310111984, -0.06499101249161181, -3.814439530433743, -2.026480061956799, -3.5152426117148967, -1.5511419216424118, -0.10329954798371367, 2.6336802064842386, -0.10423507070172065, 6.9006593189551015, 2.6508233612267387, 3.6130187221378063, 1.0470402115854804, -0.31086404459921635, -4.046968561217306, 0.7357434795273157, 5.107085731508383, 3.2993994707477636, 0.9032935304669094, -1.4629361536687138, -4.392101689735521, 0.8139801417460966, -0.47687769545330994, 2.4872548463082067, 0.16198846922702012, -0.7818865790995763, -3.912802785864943, 0.7153364449779613, -1.6120854983023467, -0.8801662876612537, 1.2801877623172457, -0.12499629097953543], [-0.758081024556345, 4.92162165909215, 0.0804241892581927, -1.5771335230578136, -1.691975119083138, -3.249289168262578, 3.3507409256613565, 4.611189028360527, 2.243043542236046, -4.9096059414755695, -2.557755888339035, -3.637967254586074, -2.9481039166554637, -2.5541287924447724, -1.1958490365486631, -0.3411340026694125, -2.1812687448241834, -2.4704390545015302, -5.490727224238508, -2.199075451524392, -2.7947127571187695, -2.1171153968529266, -1.822249350128252, 3.353769964913493, -1.9700398234795677, -7.627360819840349, -0.18164325078740481, 0.937915548206989, 2.4228802837385492, -1.3732125554685684, -1.0961244970160717, -1.9904270145601985, 0.23087582303337723, -1.6020274235465004, 1.2272456591302607], [0.3950070281677905, 5.896565191987925, -0.7274092372360923, -0.10957738875560753, 2.0863868600910602, -1.1797054411753904, -0.9566400597816935, -3.3069804034989585, 0.6203315547876136, -1.9780294999369181, -2.5797026938720826, -1.8150391179501255, -2.671333755580777, -3.3067781011400106, -0.6110962850372923, -2.548110891646143, -4.845381840163922, 0.8886915331872998, 3.3595161131594558, -1.6104253400561452, -3.3483731053320143, 4.756869980121492, -3.2866819441158888, 0.6449482352002397, -2.5914817713788585, -1.7847221185128213, 2.4946877047243685, -0.3006778410202838, 2.693843751315414, -2.80835596976465, -0.35218090776109273, 0.5218150673936016, -0.9765471533091189, 0.25507710888668517, 3.5536731876261185], [0.23109719979381013, -1.8719850366793145, 5.54669336105553, -2.382888876505038, 1.984115703047874, 2.314116981718432, 0.7691154003176783, 2.1893866870833945, 1.5025482383556217, 3.489474224760486, 1.4046207909047579, 4.715525317906296, 1.0752326333143474, 6.1956608662153725, 3.935864854539631, -0.5264883512024072, -2.91557057824033, -2.921568530773547, 6.2218379216236785, -0.7719987399041452, -2.077292343543664, 1.2077280066132532, 1.3186145941681138, 0.9617739838264812, -1.6024403138989352, 0.26111926318524237, 2.018903082298761, -2.7860390055064665, -2.951538497906864, 0.482279036345152, 2.8752051005796226, -1.7491601757563358, -0.1371367990979161, 4.1023229734321225, 1.5116131943334874], [-0.3818918089599224, 1.602339002646294, -1.6467680079969929, -1.4119460794269978, -2.804384981757303, -0.48266454758629235, 0.19032658068453057, -0.4706531606100971, 2.79545635247879, -1.9247774831293567, 1.9279061820182115, 0.8857414504340071, 0.3213636546316163, -2.018280150047838, -1.507657243149781, 0.8737591539252435, -0.3711944908990885, 1.6353447535799508, -2.570987389566304, -1.7655950101698419, -0.7516950836883917, -2.42814629248336, 3.1860982108706257, 0.9686962804011018, -2.7370424490330865, -0.4796678866971558, -1.604460503305516, 3.2363796667366036, -6.457987217182505, 0.8500952438376016, 0.8763306226817322, -4.115239708168219, -4.0597000668060295, 2.796720268269625, -3.02187093868402], [-1.2824520387848817, 2.471720406599982, -0.6623124148861892, 0.14064176307084034, 0.8749047049323717, -4.192833655767698, -1.6418997649529148, -3.580207407035208, -0.6542759783680053, -0.6232750856936434, -3.0505474665551273, 1.3649682465767992, 1.1300776130624766, 3.51169978596159, -1.386512143849988, 3.606215511193287, -0.3228857906288597, 1.891959396614907, -1.8586207732328286, 1.784396149402432, 0.5332792303427568, 1.33529485096437, -2.1362269693325353, 0.5972528778698659, -1.522901603369225, 0.668569856363237, 0.9210874042821956, -0.34014851077357505, 1.8789273559994635, -1.0109632874315004, 1.6177745330371196, 0.16933341412813124, -1.0953678709246575, 1.0865282060433763, 2.3262116927154417], [-1.9625669974554776, 2.0087410776642147, -0.17258009856997053, 0.9698171664719965, 0.6940820694256993, -0.9882547168210986, 1.6058835604394153, 1.1984973301284598, 1.680280272271908, 0.7621340134937306, -2.287783222584288, 3.2586881209795924, -1.5585841051057678, 5.4606720810574, -1.6169284774851225, 1.5994909365316445, -4.126445927614571, 3.2659093967890698, 1.0754643620126254, -0.5098702360266507, 0.20740587711679584, -2.770537483083717, -1.2080412245330294, -1.3958006627626491, 1.8732901231905998, 2.937112096148161, 0.011008406744273457, -4.656729466417286, 3.4189665496453188, 3.7111114442299566, 1.8403304973873864, -2.9270524142088696, 2.06064679460652, -2.1529337507588697, 7.344848167514338], [-1.8636676832750074, 8.441323623118661, -0.9312337451477688, -0.049791242558685875, -0.005022762054171925, 5.597548721574755, -1.7864071390121328, -4.206284695932235, 1.5600828984525452, 5.7957065317337, 2.555801068681657, -0.8526649747958566, -1.852426880470667, 3.2614432808451324, 0.3028875689280988, -2.0369861767774324, 0.01618209619049344, 6.349766091409947, 2.543971726936331, 2.5094732630519414, -2.9544327988935515, 4.543836868828632, -1.3077065328387552, -1.0103094429191357, -0.701550868082248, 3.6149867421408493, -7.580914061204909, -0.807935875548148, -2.876923863637253, 5.860591782412877, 1.1335050998915834, 2.938711653690272, 4.562146120904134, 5.628406924574578, -1.7484170539430155], [-4.752566792904007, -0.10786757603609468, -0.4058310300912611, 0.18230513717480631, -1.8999228421932939, -5.193270484146119, 2.1958070030319714, -0.15479190721329925, -1.6294526107326224, -2.4616408759880115, -1.8896086233772662, 4.233418491326584, 0.12066609561760297, 0.8905026162217089, -1.7740047863499528, -0.28301413252508634, -2.80810285983697, -1.0511843735683133, 0.8694554788120702, -1.8015381946676636, -1.0327700094588905, 2.394937370141432, 1.6974281980601336, -0.7500389926226484, -1.271577335272176, 2.208636026802796, -1.4425056132608352, -3.4628997243558035, 1.7238864952379502, -4.130520629537048, 0.81588358602917, 2.9385296106899466, -2.571358774532965, -1.8284174156516968, 3.019179041899227], [-2.2460533004806225, -0.6331497326866231, -3.3577260432077285, 2.0092201173840594, 0.07915099411097642, -4.086231418898667, -0.9936001859648347, -1.746251544462353, -0.8031959362783749, -2.5851468920714495, -3.6226178052358056, -2.656985482128043, 3.005456740767804, 0.10556761175346054, -2.3591309050275395, 1.4897958716992572, -0.13668648707918796, -0.7041019373837418, -3.7445275936469327, -0.8728326793806226, -1.0218964781113762, 2.5063539761245273, -0.6872188716718461, 5.73968129269824, -1.426607717137031, 0.3869968058243427, -4.669870403123221, 1.3134291337938149, 1.9377387290302817, -0.7989136595824126, -2.4441720605217356, 1.964286368499265, 0.9761936046679521, -2.428674072603878, -3.3099556237408203], [-1.0618811471704452, 7.542655179816935, -5.748431000658898, 0.6547615296018741, -0.7450303982550759, -0.47174589376777454, -0.5932530147041746, -0.980833314652594, -1.0882304925446349, -0.16585425513676738, -0.7021369703957584, 1.0514775669157643, -1.7347310520829815, 3.2408807972099813, -2.0821190544261907, -0.17239764432014323, -0.8657655135227564, -1.7492512852928728, 3.0665898613115594, -2.583766331451812, 4.7325616394879, 0.1469040989173107, -3.1803285341863217, -0.5124331114607088, -1.4367148366828304, 3.900989322741193, 1.151121715027816, -4.913342260055499, 1.2911534311973798, -2.8524948947298725, -0.7672191236550835, 1.7252563482711272, -1.1092601137196902, -6.734740359620726, -1.9037336760928643], [-2.813002017492951, -7.171553835737992, 1.7154977893971692, -4.544176034503836, -1.3190181804488732, -4.449727119675248, -2.0092206597069464, -2.060131967583623, -4.623150673294835, -1.3392954519157154, -5.848920156812524, 7.750275300616487, -1.3657781332864967, -2.021073339552199, -3.756816748118802, 3.054075665661118, -6.948251006359163, -2.104595847180666, 0.720962781414706, -1.256510277381365, 1.2622205347263964, 6.0370578228051, -0.6786081252847358, -1.7792580667250284, -0.3233007360048186, -0.23770092433587403, -1.3997881772288057, -6.4008596046064286, -7.174116409559532, -3.2405911101648193, -0.37019740465922996, -7.888436711179457, 0.6418007082187305, -4.092612475342223, -1.6195500409784933], [0.1328809212593633, 2.5095085600840625, -7.791900296261961, -1.0550387046080205, -0.19649199216044938, 1.774524358904149, -2.35901728256202, 2.6234440312315646, 0.5234412599002128, 1.987205533948486, -5.365795043225458, -2.1623206074777794, -3.7729265237249763, 16.94284000379193, 0.08596564131253688, -4.2282585866598, -1.4441007993414592, -3.4575386460213067, -4.149523659056125, 2.2907302016343696, -3.4222753407257454, -1.3521775478788398, -4.118653021002151, 1.3247232021564095, -0.30054135813301125, -5.015294041362765, -1.4442198284481682, -1.1932624145658455, -0.0026068280792690543, -0.6698343876353491, -1.9045972035846095, -4.433069030960588, -0.29321056725902006, -0.35755368774279256, -0.19015555675384205], [-2.55783029853555, -0.5446828792194965, -1.8322349186150917, 0.3080834746810735, -0.6013438907734429, -3.7221528185826442, 0.2533431339067444, -0.5514141557456056, -2.2278635295945475, -1.1426013039171128, -0.5465952954985437, -1.5130239108789143, 0.37457892441107815, 3.327204364062967, 1.0087083948224518, -4.335462217780927, 0.12444094820798808, -2.391976274115177, 1.835685729672234, -4.348674709948936, -2.3398638591821994, -5.186206974364728, -1.6739334096782998, -6.345156320400435, -2.910869955861422, -4.484765479019725, 0.6418332199384678, -0.8261973970353775, -0.18674643596008192, 0.7975866161784673, 0.8786851003650326, 3.2400463070237633, -1.2933395965747163, 5.28755067596333, -3.0355494333541055], [0.5942601553416099, -6.796539576968955, -6.93461118568246, 0.19661542699022558, 2.1635976980561162, -2.7159921405493868, -4.37265797513476, -4.377686954913888, -4.93134923132832, -2.0507056479340746, -1.3821792558900439, 0.7255104544956253, 4.195901874746538, -2.8044055214474017, -2.330665824696406, 2.3576377330659737, -3.0458377924764624, -0.38194150472123767, -0.6461981176881412, -0.14860778104158615, 2.1637391612842314, 3.1141903570506497, -3.8592083418197074, -3.4049102792736945, 1.4376558643745987, 1.032783038503525, -0.43488824528059905, 0.4812122083941241, -2.0650780517291922, -0.3581834724037649, -1.3076138429458926, -0.9468790283879063, 2.937210313036972, 4.619887338796107, -0.9052742661998362], [-0.6996131781814036, -2.6938301198982404, 2.6378616445378236, 0.18355778126533642, 0.2974589098899332, -2.017542026634037, 0.11202518781725386, 7.247671155650977, -0.41013254434441415, -1.3615733210294805, -5.654801522725644, -0.1221720551032824, -0.8954838799311405, 8.32792310645964, -5.836795532228246, 0.05686952579187712, 1.6790966442988207, 0.668098870459865, -5.495095337359162, -0.8877931573961905, 1.1107146850564904, 0.5746828815840167, -4.994209974853607, -0.05305509126206091, -1.5085674437064307, -0.8965528759875413, -3.2431814496833558, 0.18503424807244573, -3.9991554332955426, -2.215602309889245, -4.06131282420791, 2.7570619575856132, 1.3402984037362604, 1.9570092440856406, -3.1761377600314153], [0.18873247914347696, 4.5877671341476844, -1.3568585387959498, -3.2653374367679695, -1.8794434168728498, 1.0866527388411251, 5.600078154538301, 2.310103766299252, 0.6165126887527427, -2.8450523925710693, 5.651740933197932, -0.5319335925094199, -2.4896257694720436, -5.059447581493222, -1.8561225975149351, 0.6122846908654676, 0.5843929960229577, -2.790945549386403, -3.639126392932936, 0.22117797470312833, 0.12782122512194227, 6.311037243388258, -2.308876058569127, -6.16273935353914, -0.18528565959916443, -2.1378589849824365, 3.175889875259353, -0.6919173573612611, 1.2026928330598365, 0.2205469797413605, -0.5944525454750278, -9.572700563016285, -3.373089143039429, 2.113428832454273, 0.660264729330335], [-2.4404191387728162, 1.3108214764054942, -2.4541609429945583, 1.6023555111496572, -3.6561055233447886, -0.23058371366655223, -0.6158315115730917, -4.364022802478923, -1.090139145677644, -0.9598811097615012, 4.014030302650965, 0.8614692462503589, 0.03378101335309314, 2.8695819920850814, -0.8507582878627958, 1.9006227349986795, -2.5746011975183722, -1.990010684684884, 1.5940890245082024, -2.5964929205350527, 0.9455683558917427, -0.7146327030199703, -1.2857461102545336, -1.2531503809291367, -1.3875616378927607, 0.7328583563497194, 1.9461875146198933, -2.3621408872629766, 2.5994186301763924, -6.906580515010368, -1.0058866119917753, 1.924496093805384, -2.0383527536139545, 0.40033884730901703, -7.579165671153774], [-1.3825843420747783, -0.3289321624727482, 5.047998706262133, 3.582043180366871, -0.8010251684562371, 3.019527494308418, -3.3168618856943235, 9.781965488292448, -1.6947235573062727, 5.519909284367209, 2.437386845409363, -0.603697377199192, -2.195624379634828, 13.483998478118764, 3.609771519462939, 2.4876563232796367, -0.5998485360008741, -0.2330363742483339, -0.1199272957791194, 2.0748591118615702, -1.8298686828566033, -2.9414025497488807, -0.2946838735398528, -0.9177287483449738, 1.0920038457062569, -2.38288642249857, -2.45283606112822, -2.3394902816320533, 0.27992165381530826, 0.17670459180139725, 3.252266208155643, 0.76322968323011, -4.226503960598624, -4.367061055804501, 0.5979344217683971], [-0.07384293586198071, 2.8733998731432253, 4.1975609850641895, 0.09592697298841978, 4.053339442822441, -4.012134644093461, 0.4819061334000219, -0.798113452615721, 2.5434698510354496, -3.5148780280237504, -6.70280545151934, 0.7116484228670501, -5.960524616888947, -1.6264467376565537, -0.041028717735721226, -0.8495949893916728, -1.5806976412318723, -1.5638378948247262, -0.6364224011567139, 1.8406743848920732, 1.8199856827842198, 0.7911435472296405, 4.904690058293219, -0.9968000622579101, 1.8984373999067745, -0.3734985066829323, 4.768267361284524, 1.8654340894521693, -0.5522031843638321, -0.5071993086097027, -3.4987744563288503, 0.47616081824784773, 2.158410492113016, -2.8290592571699458, -1.522808356932898], [-1.4360068336956797, 0.010110829330574, 2.968629241282734, -0.26729453215169824, 1.291771423311279, 0.02298453433311946, 2.4643832213149848, 1.976350751043797, 1.575737416483143, 1.7278769070854942, 0.7098265789735568, -6.460329077868199, 2.0222536002231633, 6.050810184922662, 0.37587758291384377, -0.9834478140835756, 2.0622481252327463, -6.61523305227657, 2.846740945310905, 4.3674589362342715, 0.23070520734177571, -1.4545283569099061, -3.2640940764696706, -0.8949001583512605, -0.18419716696714977, 2.914018280945628, -0.95200823765179, 0.9391101412160835, -0.1256620866768082, 0.6049547064398797, -4.70082321415677, 4.055217911172466, 1.583051343488649, 1.6328066988436125, -5.494979510311698], [-3.195479255097214, 0.7883639802886271, 2.242417045144696, -4.14573578680934, -2.5303744810087645, -2.9458616670438955, 0.4812288562454727, -1.0043649577913887, 3.809742077652847, -1.884469739530772, 2.705362015213681, -3.1037897589569985, 2.1609900541299343, 4.858573734031086, -2.8377149549171907, -3.263039403425181, -1.9274397807600234, -7.387763926183949, -0.9380799087618721, 1.8873248570416505, -1.4422836949945974, -4.187626969028953, -10.797951295550027, -2.1190863067892822, -3.0804947029037484, -0.8561848350395342, -4.721562730789117, -5.5586351986172975, -0.6759446465543721, -3.706727657108463, -3.2404703001902395, -3.7211569061620096, 2.5803772482036726, -2.8530800643527154, -3.456564160726628], [2.0706635591505598, 2.1265576581922154, -8.38416201749696, -0.17906286067334024, 0.2780172719312135, 1.3895948015125794, -0.4009961816672777, 1.5046858538964252, -0.8756358614380623, -2.461519046073687, 1.3510132122278942, 0.5129268155483916, -1.1622133754574877, 0.1178919051300524, 4.0354246490300385, 2.247169375809109, 0.48155675605687426, -2.2787848613556596, -3.5884913218606624, 0.4533084055635254, 0.3831999330025024, 0.9995419482180942, 4.582715978014215, 1.3586849680448418, 1.3046071356012772, -3.6977316019650535, 1.545611711334298, 3.568484074313882, 1.9838174590615232, -0.13545563061390772, 3.1610195349899266, -1.418527311524939, 1.4044770147315346, 4.6928859243756165, 2.154098755381756], [-3.4079357061032565, -0.42989019628573905, -1.9977824299698965, 1.0285169690860763, -4.915391434050056, -0.0701565033141154, 5.529519148589419, 0.12193069617293391, 2.2351632141387534, -0.86459765051903, -1.3586601240528104, 1.0879334558109448, -0.5266722289787201, 4.633250180435804, 1.8135167636933467, -0.2557704410814408, 1.4472776991298917, 1.7643105217825334, 3.4152691446178274, 0.6019226419808493, 1.3794964030376007, 0.5853481161772423, -1.9971070888372848, 2.7967992479435084, 1.9024822720228098, 2.607625214454181, 2.3483560663947505, -3.3819522050752737, -1.2494270425581757, -0.290315454244365, -2.686693513665312, 0.36552975848841596, 5.141289570876975, 0.4803818552255274, 3.0615086236680122], [-0.44195126259186157, -2.786948847025708, -0.7098379318022323, -1.9154649760960876, -0.518067253282297, -0.9966408054932114, 3.8563783543841432, -0.7991415398832481, -1.6772544455551655, -4.132183932779631, -2.391927743017198, -1.5155466864652745, -0.0034655041341048777, 0.263392473733345, 1.2536913523157502, 1.5919178436871284, -1.1416219041122677, 3.651676239828929, 0.9790776389031126, -0.996902379994737, 4.9131525290277684, 2.371161165596331, -10.216206708203432, -4.03499326723302, 4.227658557187538, 3.236991601154701, 0.6726289397444596, -2.590106081130242, 0.3567185210101198, 4.323170974404518, -1.0362382330579647, -0.25901093694040345, -0.24878256309545538, -0.22417570102299605, 1.8650100956000057], [-1.9415015338895205, 0.7662498471828587, -8.976730254849743, 1.148864178756048, 2.6155039088012377, -2.076140435710124, -3.246116801645861, 1.0700562607281663, -2.248622547996895, 5.033223726855257, -4.198438259659412, 0.5185877797444736, -2.373605454045977, 3.9915006725993605, 1.5825564874025722, -3.3386333440641107, -2.0874188486969394, -4.982706650576684, 7.994146591714305, 3.1549515336683056, 1.1615142681833093, -2.344363534607601, -0.020984287752851757, -1.063783399194876, 3.566002547161832, 1.2734715852670226, 1.5133624339178826, -6.550409969983646, -1.4819298662621891, 3.016864614957282, -1.7421993526459079, -3.0295174127813236, -1.9234943804094087, -4.550183886883532, 7.290648895874322], [-2.128724763047168, 0.7662859161333871, 0.45023679485331103, 2.106215732602511, 1.9132757783030883, -2.2911240262178203, 2.8199996604126594, 3.0292630899908777, -0.99207140746534, 0.27586222462175636, 1.087711353928214, -0.17256956292670766, 0.6923250070440375, 0.4407492930136691, 1.9590064287753792, 2.286396367011076, -0.054322726816602024, -0.8067138359690346, 1.3094703928592015, 0.4418029875302936, -0.9294401890215047, 1.6248690273575164, 5.839496247214489, -0.14631546257396771, -2.3185724764107345, -1.488050529068465, 3.734204084541224, 2.8578247906333227, -0.24974596180937475, -3.595907795731739, -0.3807715091548714, 0.41190917613349487, -0.5457578815013304, 1.7572452417885263, -5.259308323056976]]], "biases": [[[-0.12131367609583836], [-0.7185077631313764], [0.6495840883752525], [-0.2798106850392755], [0.12285136859836887], [0.48350842485405504], [-0.6041647746184201], [1.2934701164382458], [-0.4344518376596102], [-0.8346814728536078], [0.6870606326914719], [0.042826585881263875], [-0.5538008439608113], [1.8159644261375996], [-0.35463505898588277], [0.42401483562502146], [1.552280009173659], [-0.1256918659334148], [0.48163876719221455], [0.7295048299115233], [-0.9468998054627706], [-2.122025301955238], [-0.9734637153344838], [-0.28395526839825286], [0.3317468164613711], [-0.3321186790927272], [0.8463399487447479], [0.4690887102057068], [-0.42007162042169055], [-1.2848528671529023], [-0.11477521718354283], [-1.4730537334031166], [-1.6158192626896832], [1.126901437371133], [-1.5534415870820144]], [[0.4647791630175506], [-0.17098661532625145], [0.5555350774221692], [0.733977728626818], [1.9350889240360816], [0.6548281925390479], [-1.5571590310084282], [-0.8051507606229936], [-0.20324849282199337], [-0.017099890009010313], [0.8379074794143201], [1.2270470444825912], [-1.1304512260444093], [-1.6001919894960468], [0.9712210318976197], [0.31063419136469894], [-0.19316144116477485], [0.14908310406443895], [-1.8482751272290945], [-1.2001036064833965], [-0.6513416145168384], [1.0482530143015207], [0.018254035163408018], [0.5816023680898991], [-0.7762715887765199], [-1.8450822393280888], [0.9138598162038181], [-1.0965329309304161], [0.26794493228753297], [-0.33031967608960705]], [[0.025143191170063087], [-1.1850822228503761], [-0.3471698002393895], [0.3140204017322112], [-0.3556291708205273], [-1.0136377053877237], [-0.35703962427886], [-0.8663607710016052], [0.45699863826961357], [-0.7362139019585131], [-1.4924211644246341], [-0.42965789347350275], [-0.29546869829205846], [-1.262096078662571], [1.4232517532674833], [0.5793982576895688], [-0.7491849621436909], [-0.8097654323097804], [-0.8533123606690642], [1.288128047255188]], [[1.0859180370766854], [-0.13647664799116116], [-1.5739861803458939], [-0.5352559907239708], [0.8734590890112338], [-1.3166794601184437], [0.7515979931291482], [-0.25353390164264844], [1.095471866317821], [0.3942334022603752]], [[1.5926309793773432], [-0.24364617495707036], [0.7606687483447363], [-1.078531954563882], [0.08188058767299199]], [[-0.9164480868628448], [0.05450863689596178]], [[-2.3769589341227757], [0.8789355514250516], [-0.8294576353368701], [-0.3715738820905273], [-0.3552308271224119]], [[1.0286288504045746], [-1.033576901331159], [0.01743677123392031], [-1.6787546198667744], [-0.5793873017012797], [-1.5594084429618376], [-0.33934528222566784], [1.5599175457507666], [-0.44260397210442803], [1.080829362288209]], [[-1.4810281878410998], [0.2880730919506234], [-1.2734056895624348], [1.1826217039961484], [-0.5913983362890999], [-1.472531360941254], [0.6390357088816613], [0.31719301328767635], [-1.3224313033695974], [-0.46397262918923704], [0.3612274076164295], [-0.5092506773194587], [0.8206088846319264], [-0.40096039244226483], [-0.5777335834253059], [-1.3110476970014706], [-0.8150562905860387], [-1.1402210051620603], [-0.49294655567765316], [-0.3128255052726636]], [[0.7167941119067189], [1.3700053168518778], [-0.974242104884144], [-1.4352337922053808], [-0.4751044215003222], [1.894934939210488], [0.3320049645702496], [1.362271109594198], [-0.9442171330816904], [-0.06581390532941618], [-1.0429775221163773], [-0.8789753185374044], [-0.1607025613749602], [-0.2937658065386786], [-0.6097221138804126], [-0.5300099371968269], [0.0559833763614545], [0.2814038686862291], [-0.5138780849194249], [1.5602624666134353], [2.0580517072066487], [1.7625240933674133], [0.13154826192833902], [-0.16522862890655665], [0.8549162800323968], [-1.430109282666692], [-2.0332000752651873], [-2.029844175970536], [0.7822895676893198], [-0.5377838247743375]]]}