{"weights": [[[-0.2643340128195882, -0.07047116636846404, -0.17314251690466725, 0.022233416770342955, -0.26542468063691776, 0.4155091097244206, 0.49933135671845996, -0.03136411907892481, 0.22123203783212475, -0.00950704112894821, 0.3832149075389592, -0.4094813442930179, -0.362922158624214, -0.2819023849693355, 0.22158936318997932, 0.1713420455813789, -0.3720023709395103, 0.44977690340190685, -0.43126847273527263, 0.3431225006063403, -0.25458877050965756, -0.4834703587575943, 0.046964468839673715, -0.13671073183989862, 0.04904680615931354], [0.49805105019623885, 0.4261517417035393, 0.1338741756723999, 0.8231080764024701, 0.46306225567157966, 0.47253405981664154, 0.6052152312815412, 0.3634332322002938, 0.3108323204719743, 0.7675296504234185, 0.5649713783725229, 0.48776456484156705, 0.7126763167809056, 0.15743238377520963, 0.3620662575772189, 0.9922667871996075, 0.06303018439948693, 0.694381486950588, 0.984702237667127, 0.6017282598468201, 0.645074999315938, 0.3573335900704506, 0.8814287921755501, 0.1277369662194746, 0.5567023998988769], [0.7727448192671109, 0.13076370412088903, -0.44269021537484876, -0.4913389122843163, -0.1900253551102434, -0.30918020064539464, -0.14702973770859704, -0.38048714293757685, -0.6665163425660228, 0.038572664922299944, 0.20885885896312992, -0.25408809813797406, 0.7387297522152618, -0.02319635898773933, -0.6543447330245739, 1.050898673655112, -0.5503470416504675, 0.583344004375025, 0.3036550266244741, 0.7422005529491134, -0.5132614500126613, 1.0321160429199558, -0.480872968981942, 0.8746383914400534, 0.40442241255843725], [0.15338638622391298, 0.5613797298457425, 0.8753859802342253, 0.2817136981702173, 0.6665072571827592, 0.7099042705133665, 0.6430725968819833, 0.36434352364673783, 0.9529181921235174, 0.2010963738566396, 0.657386628025475, 0.4852020222255643, 0.2928110014122913, 0.8017395391044911, 0.596051877059524, 0.9412978321436657, 0.17457140883152733, 0.6980694609008623, 0.314426136224633, 0.15073024551785208, 0.7464970109234036, 0.38461332466451204, 0.4910568758956253, 0.4281523176412596, 0.19726633691764672], [0.8705116380823347, 0.9325857428704648, 0.7086606601946676, 0.6335034724364113, 0.9073999142955307, 0.1855665410704912, 0.22178171074647235, 0.7928204599553964, 0.6980303969733137, 0.954489936891363, 0.7062333078854812, 0.7853093387951041, 0.5707434967485722, 0.625804876141236, 0.11935155310235435, 0.2834963964686591, 0.8238127903036581, 0.681635792288968, 0.0010702547736429757, 0.04170737228856203, 0.5863416620575658, 0.287890125897613, 0.5422892918796032, 0.024607058986480634, 0.2684255428541278], [0.21733563527783517, -0.03675160884742664, -0.10384623681029398, 0.29191425727043313, -0.08238369967481174, 0.528982276034417, 0.08604016093180591, 0.23532190473567702, 0.9146268320277117, 0.18862958653832274, 0.1291328533831525, 0.31223141245225955, 0.035286623118169075, 0.04463442450111006, 0.11344285003006117, -0.042897299066462474, -0.014674819896817171, 0.5840861005884628, -0.14318534400230895, -0.3683905124314682, 0.1611872348718102, -0.6005629305274159, -0.06658461268052264, -0.09895346516373671, -0.1918560563023616], [0.8457610478766018, 0.19601035026600547, -0.4472282960690765, -0.07400605853875089, -0.35262743330963847, -0.47429221796474147, -0.0958206939010536, -0.5338456091643781, 0.44408679373497406, -0.14562410841158713, 0.42893182505284083, -0.2662572866406016, -0.10290022478467013, 0.4087162573560491, -0.14038035761975295, 0.9915767104248406, -0.336501603047891, 0.4773895638764589, 0.0961393230184527, 0.3163002556371311, -0.12558596652591367, 0.08240322040695788, -0.05860056660028262, 0.2531806515549991, -0.04003465442759939], [1.0014068107860281, -0.4113522466469752, 0.008075382268821402, -0.5680226070930439, -0.09283032742920072, -0.6940979800682235, -0.06533768002895472, -0.4244910464636989, -0.192280122077427, -0.3888606016640931, 0.7028634396006916, 0.07158466004039839, -0.09772433655022565, 0.09795469388988043, -0.08119757300732701, 0.3977071694290306, -0.12836178952454352, 0.6904518799620094, 0.06811609681171302, 0.29661877666189396, 0.1018899457471086, 0.3945726558549098, -0.8160122831769614, 0.8016265586210362, -0.1497026044845733], [0.6052594116699868, 0.23175599566093455, 0.40397188624521224, 0.11625193983744048, -0.29516538087035865, -0.5567078298107587, 0.06265264588081762, -0.2687986912719889, -0.33440600597595105, -0.1403104588875636, 0.2089002423675446, -0.3225262568437363, 0.5172278228543342, 0.3367890345890502, -0.4398133569455267, 0.5424030590898066, 0.10688790635401377, 0.42643807593641736, 0.05830264716153979, -0.5985074882320595, 0.1321244791352734, -0.1452427802170988, 0.0137203627962239, 0.314098071760313, 0.00867814812132759], [0.6632347036037769, 0.7640615394324983, 0.1439519551990689, 0.19705069662962849, 0.8570862907445286, 0.29507765334798564, 0.2565722118588092, 0.9788057762236427, 0.5758658770210882, 0.6819407545593138, 0.6452645619001689, 0.02304123982830253, 0.8834152542613967, 0.4477145904447982, 0.10909949053466306, 0.47062180725290415, 0.6890548451515509, 0.9379795310357839, 0.5082533615785166, 0.6172800973396185, 0.3156599276048313, 0.7329367986487126, 0.5228031306060166, 0.6581531735650331, 0.3864919976893466], [-0.06094148021722252, 0.5404851707149874, 0.4693529083779874, 0.13261429104169914, -0.022879057182785805, 0.23947015993866433, 0.006204126943379938, 0.0062040365013301246, 0.44888131315777247, 0.7294074073593964, 0.6993016290842968, 0.5200082338234115, 0.5418173006522686, -0.013161360345365691, 0.2918999752119403, 0.6845256156262434, -0.2878547913285269, 0.25933390784097926, -0.058609145852464226, -0.503020864987444, 0.009065572089714731, -0.6065310274099779, -0.012653315169211673, 0.2962164067446591, 0.17435229421457735], [0.9850940188974847, 0.1431479257304642, 0.5965351410860651, 0.23415248625603724, 0.5874378338647702, 0.6474009055649701, 0.7069882358402659, 0.6125767391832806, 0.8462994177811515, 0.5721137511531853, 0.21872401080172854, 0.7464477347221126, 0.21075362229017103, 0.6520099749015454, 0.7004675652484763, 0.49178205916215934, 0.8833166235784443, 0.9692447296396304, 0.07870429312396243, 0.8828055812786242, 0.7851250840966464, 0.5831717395287476, 0.637183315098965, 0.1714062103171594, 0.3566440761593601], [0.9675886056237288, 0.9913822625699886, 0.08958469063787011, 0.4909282217642842, 0.8650761322142073, 0.6659332659553426, 0.08384413326537199, 0.29169526796705214, 0.7009583379984348, 0.08730939563127627, 0.5110086582125207, 0.07658062359309614, 0.12448012871730263, 0.7514579880970155, 0.8743355822667043, 0.14432270572130246, 0.056844035841249974, 0.4195518535000907, 0.8024923643958634, 0.9354000771040926, 0.14212184003703465, 0.19991220983929958, 0.45186935854449584, 0.31543516362504187, 0.633694015621496], [0.47219797570861555, 0.022970100193747057, 0.3897482177193452, 0.04209118302457697, 0.26742406484733866, -0.11386794109769838, -0.050770748236559915, -0.1785139127465379, -0.4804878727850953, 0.1849131730692698, 0.3408281629290765, -0.2696449673978771, 0.2578010143133127, 0.6505385440692287, -0.8418454364370368, 0.8797353402408785, 0.23351176815192157, 0.0913273421783756, -0.40847716163727293, 0.5393203184551127, -0.4097614619234558, 0.6464075108347823, -0.6429537362738397, -0.051181116771692695, 0.5047705763818368], [0.9229784774814704, 0.10139878190848857, -0.2002052861379455, -0.43519931177255217, -0.5139502743333297, -0.32557666019297166, 0.43209816232274184, 0.1411464669114731, 0.38957420369759566, -0.3773740439258135, 0.44891550255545637, -0.30834176058632007, 0.644753205174762, -0.06792015193141294, -0.25251760442732873, 0.8319869405995406, -0.40640173955318926, -0.2174084719956135, -0.1973448326667047, 0.3524329359217615, 0.023022401561575385, -0.029565282091472526, -0.3474758866219094, -0.0703436587458465, 0.39535031866684645], [-0.46965048668842024, 0.2802253827587449, 0.5373327001848438, -0.034193910329579434, -0.423217599830432, 0.28529732695743115, 0.39054465818068507, 0.2508880763743, 0.1210283398193, 0.6958100884710083, -0.0006605800600109464, 0.31405178263850614, -0.4024541947629446, -0.004612019647862701, 0.31350390028022834, 0.2702498749067887, 0.36564814597576045, 0.29123768190852034, 0.18677205963944332, 0.34286611552100243, -0.07359255838873542, -0.3508114662092825, -0.1784420454541869, 0.0076341560025452474, 0.04462041074091117], [-0.18453044803231097, -0.38006425681139794, -0.4978294512738439, -0.1624814287533785, 0.08229758244725625, -0.28387399860057017, -0.459160208693987, 0.3797251558636498, -0.2537984451933636, -0.44983327028437015, 0.10227089165437968, -0.4145033202063583, -0.1145242281619382, -0.4152707445685861, 0.06292212558815549, -0.5468481884889874, -0.14381024018140975, -0.4356000517537433, 0.14889833240967512, -0.5131470135274369, -0.14437260898462678, -0.9043574389240339, 0.11953621130472251, 0.1446502654097612, -0.25653843414011], [0.11876273086118092, -0.3575278144035811, -0.07321429715720305, 0.39187993514780656, -0.2985438307811963, 0.14351998963932006, -0.0672741523009565, 0.13563178521980096, -0.48349789875706756, 0.1636114103195865, -0.22956585108915065, -0.03360887796570649, 0.4021686003786812, 0.11451424917809899, 0.3267602791550397, -0.6593202759166005, 0.11896135169217512, -0.4390883271103003, -0.10518516998958291, -0.07696848490785349, 0.03149499104861078, -0.7779848860389122, 0.1543777356569587, -0.21282221146627192, 0.045872624987483894], [0.07370245857002841, 0.28884732501212274, 0.2094373307212034, 0.33679990194045367, 0.35744743421169817, -0.37321345709230463, -0.060221519455816996, -0.2199180436127517, 0.5943265742643882, 0.015789718179950632, -0.542413708275663, -0.19323097122882357, -0.2656877215978692, -0.29583643532016896, -0.08164706810738394, -0.8445604103740211, 0.19768772853177036, 0.6149632628493304, -0.2287537837958922, 0.0021795716736730648, 1.0861761774034338, 0.7546228902415165, 0.6860056209050485, -0.3652988397632267, 0.28402752386336705], [0.7193851155934281, -0.4150591737053127, 0.1209306315546803, -0.019332011120751204, -0.0845216986742575, -0.5036901391001434, 0.360338543181517, 0.09588893109906814, 0.20578193201771425, 0.30444215008221914, 0.5249097240761752, 0.12112977484516751, 0.6321182074605887, 0.0645332336202105, 0.22006690226634237, 0.9499074249669102, -0.3611035430013487, -0.22921701926702334, 0.5402341853650632, 0.34970360640000064, 0.019882539363470526, -0.6133622177471085, -0.31205969007689344, 0.3735510660604913, -0.25485951562287423], [-0.2497306628199609, 0.16228740740114928, 0.06225375572627871, -0.1455874425211952, 0.3000165426913688, -0.4975595914321026, -0.2089387666011358, 0.20304269706433664, -0.335485827592035, -0.14547799679572357, -0.5283327204212732, 0.19489189725537007, 0.2573231398046565, 0.1711989971009798, -0.41127619481568023, 0.15577529053552674, 0.28091432234409147, -0.1981621399992797, 0.2646594657626269, -0.6501008510327736, -0.24557104110314076, -0.5456371012397527, -0.34783235102793403, -0.626514021088622, 0.18247802268926128], [0.17394128291287103, 0.07562781109263761, 0.5261685412766882, 0.5000700412925175, 0.7342755708946616, 0.703540414468415, 0.0003430691256326446, 0.941834984527263, 0.2974809380066671, 0.2835889931700937, 0.2113892123561225, 0.7497943537356396, 0.9160615358375954, 0.7803349705566571, 0.40731775896388656, 0.46329362438236177, 0.5655006058854434, 0.25587044895086375, 0.5529385019953909, 0.47495040523043475, 0.0637872498065788, 0.5099104557675542, 0.2098279964205907, 0.9080361051640428, 0.7646936910144818], [0.3582079105643172, 0.5658361819651321, 0.6549314289030962, 0.4683002357897563, 0.029891870350014726, 0.7486671110281237, 0.8685383717633436, 0.2983865030073558, 0.2887743932150386, 0.6619983330819311, 0.017982597125309696, 0.31759056269956865, 0.8358197791795615, 0.005965482304838954, 0.19616539969939917, 0.49438045677815534, 0.506861749584801, 0.5891836637363561, 0.7692020926917462, 0.9173070732790006, 0.5370896084672507, 0.5612681883658142, 0.5272305564824684, 0.40991112965444654, 0.7914905566612237], [0.4858545546371672, -0.5526423671841736, 0.09477290446649549, 0.46356099892059843, -0.198170331672039, -0.5140936359476339, 0.4586697917940486, 0.2794447321972939, -0.20837489744136328, -0.1484345245208404, -0.17938061133719363, -0.19517931212857284, -0.24469123978408358, 0.13023912282676786, 0.03816062165067985, 0.0718540634213848, 0.13190994391670285, 0.359238050435126, 0.39518861162986246, -0.815993541218603, -0.26360255830038354, -0.9099076906047431, -0.29483277018433923, -0.29990920943972843, -0.4282244441364047], [0.30293775346137436, -0.4774773583189802, 0.4591818010638103, -0.04275938872217511, -0.04560678693799452, -0.29901935407284697, 0.4253994913202073, -0.5672472945273469, 0.37402079968775503, -0.10244392128629703, 0.3603200120259828, -0.22476808119371178, -0.06947520537381388, 0.4735727347492992, 0.4153971523658858, 1.1645536457285794, -0.3986219056395153, -0.1305454111515095, 0.32007660217541967, 0.2249816719692042, -0.09641823651232778, -0.6449897788179251, 0.3205915717186837, 0.04407852732798937, 0.21416682839960594], [-0.5376462927677756, 0.2882482066191862, -0.3456394830736012, -0.07075628258186986, 0.0449214566441012, 0.2801259332060929, -0.41401652221219465, -0.26265858038518186, -0.20233578060631063, 0.19327984853993693, -0.6942984091616368, 0.36565013135706165, -0.5106327564828762, -0.4918408326658518, -0.5060141462434874, -0.1368041164485445, -0.4502614142169415, -0.38256855533135226, -0.14867223194339504, -0.23325672370981007, -0.15223602418318238, -0.2969847040750793, 0.3293811562091797, 0.07317646580308777, -0.433361255285462], [0.4216016690107578, 0.2581655814010706, 0.28887388742654807, 0.1454434643360515, 0.3461798736536855, 0.29850241927852506, 0.5134594131276202, 0.5225135857576727, 0.15875581740614186, 0.8169701589300575, 0.4121136968264728, 0.5166323002892829, 0.457906921043547, 0.8143971358760691, 0.8584057168986976, 0.30306225296577727, 0.2847020258481421, 0.06493837314978079, 0.1441222017074364, 0.7153996960389144, 0.07292746896662028, 0.5475731907617336, 0.3041924569053396, 0.5148661853161216, 0.578025641915444], [0.04409828407013561, 0.3073013721181834, 0.5464442238888001, 0.8980786358614748, 0.2839898896030749, 0.26062018608153736, 0.7243955809127502, 0.27554427574847673, 0.5757733710776471, 0.6405973693010257, 0.9368411109036301, 0.1386806336091625, 0.378221964538477, 0.7546121745528985, 0.8480096776751829, 0.017304062305531498, 0.24744855374148433, 0.5367208316364566, 0.04083239157128793, 0.8365961141335704, 0.9743307841581774, 0.8451557928835876, 0.9794836056221757, 0.5132046885138937, 0.19179993500055348], [0.19709579959634946, 0.2653094914479526, 0.3069885932541899, 0.000983933842115911, 0.3562516634713459, -0.2691544021596819, 0.03915108575538629, -0.6665442673199539, 0.19062018603692432, -0.5633224365737459, 0.4846492592414418, -0.019057403057621523, 0.5514537363676031, 0.29073161298527095, -0.1695214724910239, 0.36707843047662286, 0.10073169379507343, -0.29625679214616274, -0.05127718239571431, -0.6908765291336232, 0.07695688744520303, -0.6163942674465422, 0.05960125953931246, -0.4362514592892678, -0.10553082130835371], [0.34135823945873844, -0.09672979174236067, 0.33352278032434796, -0.17792734319293765, 0.20474691504034223, 0.061018145063970686, 0.43600526154157054, 0.26630193082218784, 0.0311163456277649, -0.3084516147740978, -0.27674144586716676, 0.3860029684854352, 0.5107179180877925, 0.7666717788516862, -0.08727528875753077, 1.1659975092260786, -0.05784516637123306, 0.23201430143676963, -0.046024936982501624, -0.47646416641545947, -0.23390962276695496, -0.09349265763074605, 0.2938955388179494, 0.48617004132294944, -0.009620427815835051], [0.21876033126614736, 0.11314757969119468, 0.5237118599512046, 0.678991506044962, -0.03004743047978235, 0.27309385372202033, 0.010951912849034745, -0.3575648036081213, 0.10910788793196004, 0.23933035248126838, 0.19307823100254712, 0.5014493529792525, 0.3134661484394618, 0.24834312631701813, 0.14256547473230838, 0.45309843211357875, -0.04241974706342533, -0.025993539320301, -0.4178537889250601, 0.4247084946196728, -0.15428309650218336, 0.029743018438166246, 0.2926688831581553, 0.28383035396953993, 0.16985897037995237], [0.1061640462261754, 0.19349333776465227, 0.05262287400952276, 0.012375798096451647, -0.30372678367960915, 0.2198436385833205, 0.2841144769164182, 0.31144338832984314, 0.06897553867347676, 0.28136051251149874, 0.23152681683437512, -0.2489561704554808, -0.37166169576186425, 0.270857452598058, 0.28671559102345845, -0.6069212384054258, -0.08058982194795619, -0.31946473819165955, -0.33865773006412403, -0.010510227852528815, 0.015511245413854504, -0.843183044394026, 0.039944359437582296, -0.47732855919171935, -0.060401606783022824], [-0.32241490977038034, -0.19886206690668107, -0.45771444793483124, -0.08640093590179529, 0.37317117033227454, 0.25985485942409225, -0.04163962941551695, -0.027509160542783337, -0.038605099844281884, -0.6014596208274778, -0.02116829447672175, -0.09791951942266491, -0.26875477935583475, -0.030147375927232965, 0.21384355010665887, -0.1047049570507566, 0.2898942724175539, 0.39766048582282876, -0.027090828123763195, -0.017607009545648488, 0.3645620628100271, -0.6044713206312222, 0.021160943135081895, -0.037703197158594964, 0.055352159770256336], [-0.2596502693107235, 0.8633160362933706, 0.8614543397392513, 0.4381968155005997, 0.19765270357233822, 0.18954015700691876, -0.15825368306149243, -0.25028985158949096, 0.516509180046733, 0.32859739200510313, -0.08655666456046857, -0.14293983666959917, 0.6008037825769762, -0.4593786286955574, 0.1690152296468824, -0.5411309794765815, 0.18780151583799665, 0.21154995182678016, 0.24241376889328967, 0.4520574518623331, 1.1445751088260057, 0.10853346900692476, 0.47961302113285575, -0.17296879374840482, -0.10827532860029752], [0.22468150300590511, -0.1999695240627217, -0.47478312734878086, -0.5216514417262844, 0.41262444784179947, 0.12584980188205683, -0.12316776958813519, 0.05234955124104124, 0.10307165268601726, 0.4927009384144111, 0.6855562321236938, 0.4829093126572503, -0.10239413211662983, -0.14346669936412526, -0.4370488976486966, 0.4747314391510666, -0.3433405787456769, 0.4470714303665443, 0.40888992444669703, -0.19765870441318906, 0.057909833230650125, -0.17611477124519836, -0.5726928146341786, 0.32419177792706394, 0.4641205322863726]], [[-0.10708971068746174, -0.35578208441009773, -0.13650193203995747, -0.07475727359547807, -0.03214025242647661, -0.2746170095978292, -0.4950508996055454, 0.5764520481879478, -0.10572331972089077, 0.2828657725255945], [0.11131053824898407, 0.1409014660555186, 0.2608614527177211, -0.3132824601634279, 0.05610135674673667, -0.49401282522762946, -0.18307816104629973, -0.2703173355040285, -0.14351906030167957, 0.12811897444108447], [0.10336778050769765, 0.4074560958137951, -0.11981660696525817, -0.05587858435722918, 0.2838404293763757, -0.6387777553611466, -0.0788825999636459, -0.0537207455184556, -0.20600565037612248, 0.029743523443443633], [-0.0038067052020462175, -0.18599948351135523, 0.3497698553846524, -0.13545804792387034, 0.3572722092388335, -0.2533477960745424, 0.2983364271407169, -0.38172403131080956, -0.3064727393708384, -0.20309994879129484], [0.08378172304456477, 0.01040181760209832, -0.09291421503958601, 0.08199184263254354, -0.13244271542959007, 0.3882044378149244, 0.023498538207334267, 0.038171429828284156, 0.4094951981134568, 0.28211539610035286], [0.09038634147758895, -0.09842424846784636, 0.5011635090119638, 0.32214052383883146, 0.3295775394936517, 0.2234205157774353, -0.15085424582303367, 0.14564033288347186, 0.4315959084029718, -0.04911873532732359], [0.07672112938047324, -0.25823529030337655, 0.01794524562671134, -0.3566649305424878, 0.3249398001596773, 0.16330251052173073, 0.0835985197726461, 0.4181118602102714, 0.2541155075153164, 0.05307571032427372], [0.14362092981704516, 0.15501832324524534, -0.1810062952631832, -0.4828478709495817, 0.1991401220690457, 0.261317550950287, -0.6613846362402797, -0.05336301327870085, -0.176838695693205, 0.23503638286332001], [0.12922891063631142, -0.09841313892303613, -0.49711036187352536, 0.19824968013362, 0.32112825737461254, -0.12505403454676117, -0.2887882516793451, 0.11328610254440144, -0.1934771647327534, 0.14555543753204397], [0.184392300367005, 0.4025355394462912, -0.5008429344422274, 0.5124569758196016, 0.16939861616382365, -0.06990479591968411, -0.1879379584796751, 0.1910845858932473, 0.3426460380478114, 0.05940235753090812], [-0.07485295471184114, 0.16916172964431148, 0.24475570779589526, 0.05029493176703678, 0.057177837470642895, -0.40135287302511824, 0.2508319397777743, 0.32251385505833724, -0.273067426490357, -0.2874542810189715], [0.04411140706465616, -0.229503877661649, 0.17595391826916296, 0.08949934773074751, 0.13644621664597867, -0.17702677542321732, -0.20204082092146655, 0.12773545282342771, -0.41787188336926717, -0.12154946748088352], [-0.13698755462389473, 0.18637595277743205, 0.05923085825167968, -0.2310292717680459, 0.06699288948705734, -0.07052260334553398, 0.19067743638452908, -0.05545939511585222, -0.2872027014305405, -0.14348753927585917], [-0.048486804967017225, -0.48467527078696254, 0.03642940140280239, 0.07563089207330931, -0.42606703842739746, 0.5193365779866677, -0.175109461834934, 0.34527396741927907, 0.06536648325583407, -0.02685791499142431], [0.2016942591273749, -0.2653533606616736, 0.0467419968490079, -0.016500047297335837, 0.43526797529631217, 0.17452258708907228, -0.4609191496403076, 0.1196774755897158, -0.2441018628038328, 0.30570954455179045], [-0.01354312638604954, 0.6614719527064421, 0.010371796042206788, -0.1299872421419484, -0.07065633626894577, -0.16726707071117913, -0.30572673197400246, 1.0591547889288362, 0.05150115990200084, -0.008428195070160432], [0.0925035738645492, 0.6116620235690927, 0.09713853076839685, 0.24557283483324768, 0.05286576468055066, -0.11183507956774127, 0.4390359957071892, -0.11794718507004687, -0.022411737757256196, -0.037661468956272655], [-0.16042798585251136, 0.13665655081412362, -0.05891952031543964, 0.1897781900392253, 0.30466372169760403, 0.2542229734593944, 0.33901777229445795, 0.1883980741547046, -0.3282163499482138, -0.29737555154641276], [-0.16696868501436835, 0.13178236521468492, -0.16278110010194657, 0.09801980449732282, -0.18821991419636896, -0.16545583677322737, 0.6795505686796094, -0.08599537299766284, 0.19405492150051837, -0.3179624868347325], [-0.5742053713125364, -0.5974370233002553, -0.2017272833784445, 0.041184066607048424, -0.013670856306533455, -0.23927599805711033, -0.3357478871985138, -0.16341564269281908, 0.12894735295894397, 0.3812455154752254], [-0.08246360583145407, -0.38146002933621925, -0.42669794930594024, 0.09367756453417295, -0.1255401320589145, 0.10668341886355051, 0.23852112077593615, -0.4878003375128285, -0.08157319791367504, 0.043316321315906826], [-1.0552036268660998, 0.05865240323695102, 0.06497885602505234, 0.0008970675027243171, 0.1745866641168334, -0.0038232471613288714, -0.11876575971296366, -0.08405578427101547, -0.19363081220602957, 0.802875476086017], [0.09161339431728599, 0.0502768752511581, 0.43238014870237707, 0.2532979196225223, 0.30822432300396707, 0.11951871139153925, -0.4453758193566373, -0.3229280159531148, 0.09437595548190474, 0.3449745509995132], [-0.17769007017308866, 0.06663484393656524, 0.16346254767813154, -0.5222109402543943, 0.07350931712508728, 0.09348435862138427, 0.6726109848376743, 0.4774144427546807, -0.11598449167233786, -0.16814358689059772], [0.030027690408461476, 0.1543241154986447, 0.24194582254565028, -0.44545458520339953, 0.27929274296281525, 0.23080724203441477, -0.08985690386224153, 0.14968396029694453, 0.09683447882630644, 0.18546092761250774]], [[-0.047846866672441604, -0.21968770594689524, -0.676197326930605, 0.1132067871305718, -0.0062398224047471255], [-0.005763662827511375, 0.03669290873529661, 0.02837766916888287, -0.3154214439125045, -0.026537666002227407], [-0.14757319592399837, 0.007781961247972132, -0.08623483206124483, -0.04511202922252573, -0.0006790350391293011], [-0.10483860464948927, 0.005744979085643251, -0.07659024797895243, -0.24368999988401757, 0.18377432693626317], [0.025123286884875768, -0.09146826011773264, -0.15015836266483878, 0.11764715523278305, -0.03010771009676812], [0.16416003954333674, 0.13202193902184106, -0.06866174230041268, 0.03777302866904388, 0.022250936140543805], [-0.053714593028948446, -0.2452436921317491, 0.14497195347161068, -0.20138962810211125, 0.11342388758082177], [-0.18794225634462627, -0.13830170167498465, 0.18308371447554292, -0.02128876568514077, -0.7313755413593724], [0.21748313963408675, 0.06476389179665251, -0.05964770182431802, -0.08208183975852985, 0.016220218489812144], [-0.05157853954283114, -0.15020868461214038, 0.37003132457212723, 0.06526885814411833, 0.21666155948019877]], [[-0.06608856189956192, 0.1010332025183054], [-0.06083774494423508, 0.030867751708023826], [-0.33425362824409793, -0.11961038713683472], [-0.02689573444019364, 0.04755534694876369], [-0.10889568015810429, 0.34944442934328634]], [[-0.018574956027840175, -0.07174937947021008, -0.007036366890520523, 0.014446692324315127, 0.380585842691154], [-0.10460289558852162, -0.29178385044007377, -0.12629360434491482, -0.028387499463616996, -0.03198748677248067]], [[0.19360567584507266, -0.006140554985813679, 0.06282008308856506, -0.09033837160273384, -0.18136446517422286, -0.2611845824344074, 0.09631640778296348, -0.020282394084107876, -0.0794733257841837, -0.10701079341223123], [0.0974073031434455, -0.39819815091969274, -0.028879747604496533, -0.07245063405201227, 0.1300708094590428, -0.4362085168527425, -0.055862451887527045, -0.06293238170326444, -0.03932381783377045, 0.1003623619360296], [0.10538660034057076, 0.27969222441356595, -0.08564893499715524, 0.2210691617132395, 0.2161625444428852, -0.20868362347200814, 0.09848262326674344, 0.14938514201880235, -0.22168543559718012, 0.1710340448715499], [-0.011402367677692104, 0.12634387633488692, -0.22607451275870247, 0.004675567457198685, 0.1076393471772488, -0.07222421049888357, 0.05428623065217607, 0.062176188656320276, -0.014175402467135086, -0.1727722392528721], [-0.016336551834792868, -0.11802872919561182, -0.04420909670625086, -0.0035522681806251233, -0.213856143445743, 0.024464427308333047, -0.002585486712134332, 0.6552455096935123, 0.009228142489192225, -0.025853670920468124]], [[-0.3858208965086789, 0.2125959134306614, -0.23877495084411093, 0.1780895894111576, 0.09391451558506159, -0.06579405939160367, 0.049842035438912705, -0.33388300475672306, 0.010266433206924778, -0.43015462545144606, 0.014284451002259304, -0.1186174128815288, -0.0672826522375364, -0.46286233477355887, 0.37101112047076845, 0.007785746690490342, -0.15436935908473082, 0.04829383114525762, 0.05572839231918908, 0.3356113932830421, 0.1296955942439062, -0.01945966929423319, -0.07221491507365178, -0.2761781703812459, 0.25983964942720295], [0.056236432453057913, -0.13233541333881743, -0.05794708350162637, -0.14438121926271774, 0.1113971441400667, 0.004891773164685637, 0.2622414907555888, 0.11419739424322403, -0.440204967468228, -0.016892612051329994, 0.6800769302714605, 0.37251924658780483, -0.06860047746635033, -0.045297242202209785, -0.054852813585827706, -0.010315169014525992, -0.22105883671649798, -0.07659317499746138, 0.2721180092706594, 0.0906471171969298, 0.1389706051140328, 0.11541114487025711, 0.14785260942046274, 0.21324966548459737, 0.08362217439548386], [0.18525513029706558, -0.23947827563267873, -0.024334193387831698, -0.19329660928924197, 0.1392670776434717, -0.26017867858536403, -0.03383431759432097, 0.16362674471943303, 0.18356909804577118, 0.13045279711808605, 0.3657691689150896, -0.12995928531196335, 0.15051527011751278, -0.1509380076214327, 0.11441171125122923, 0.15377983927492067, 0.21097126015223472, -0.07077160067046281, 0.3736343956800306, -0.26681434467901943, -0.04995128136092539, -0.1276967229969883, 0.10198072336067192, -0.03327525302345211, -0.11329431464517206], [-0.030660049880170556, 0.23241263199332698, -0.05332859518340046, 0.22539877650390905, -0.07843026229334875, -0.075211455854367, -0.05567484510886208, 0.06074410170230997, 0.1417800086108328, -0.16875856520998156, -0.11299651026509787, 0.11755058009522837, 0.40266723182379116, -0.08321055793196525, -0.010914745034208119, -0.19917361723460947, 0.08033097758816118, -0.2386942402056839, -0.09132809668637641, 0.10122815031908249, 0.16886601234548865, 0.1491732993103095, 0.2279614852679039, 0.012188648158817095, -0.4511398579109644], [0.08939589127908062, 0.10100884867227557, -0.03825991330855403, 0.04768807717731458, -0.42167238634149434, 0.191977531891608, -0.15755095498106966, 0.001589416440876344, 0.11795549554193295, 0.47353597166710293, -0.24700310098976358, 0.03432603783143778, -0.6395012443044219, 0.14028018463082884, 0.09520574322418215, 0.3334752758140795, 0.10690876196953956, 0.07678224372699217, 0.3512433620673656, 0.30417273460490424, 0.22782316773339614, -0.26763083180104535, 0.5137254180630587, -0.5382674803407448, -0.1452268417092883], [-0.1006645773523511, 0.39398390365342834, -0.10854381813896022, 0.07758494473634699, 0.10568407195559087, 0.07318872090977621, 0.5091775935970173, -0.014927239521676298, -0.07566451800619281, 0.15706367133314475, 0.26486136003988636, 0.197708204936973, 0.197810618725896, 0.8863635949791663, -0.2090950932849948, -0.41943369619028203, -0.2230762115983542, -0.11364708963053376, 0.3299520785654923, -0.08583544941625593, -0.11301578748531979, 0.05034112730978754, 0.07276209244187001, 0.8054359358837168, 0.22004643132826707], [0.016813340501626806, 0.34766756749040983, 0.17332065212596576, 0.2690841454412338, 0.47579159902123425, -0.2414497985067712, 0.079670108101457, 0.3009022369431919, 0.21575187507901955, 0.1431640507043206, -0.4082285480761729, 0.21226400197787043, -0.04258422039640497, -0.1914549871669034, -0.000605067877244128, -0.14953271735926735, 0.28101588044834014, -0.051745479371079074, 0.03320887129228867, 0.015825528722914005, 0.2577846595210141, 0.1204353073761247, 0.24897505521229865, -0.0977050791162771, -0.16720004895089263], [0.0019461875513014188, -0.026687048441980374, -0.035826601039483465, 0.014575401809834826, -0.3069384493965465, -0.08995672372692591, -0.09071516526534576, 0.04571672106419582, 0.5251638352711221, 0.05907032822960332, -0.2763217988281503, -0.023214889851869893, -0.339267822652441, -0.598539057752136, 0.14936288007106882, 0.19923950256952233, 0.18313895449943518, 0.02294472969122676, 0.01768790938531596, 0.08772681030146871, 0.12052237428511631, -0.2974238322712077, -0.8941101418226003, 1.0833410435242876, -0.11229188962262206], [-0.2600031454201733, -0.2112240236713173, -0.011665136950278881, -0.07149019707838158, 0.0013414716253957585, 0.32637811965492824, 0.1294698717506685, 0.14047151318275033, -0.30848819383839304, 0.04610118036535891, -0.17857156633003768, -0.24938154602572643, 0.08245725553654663, 8.472022253131536e-05, 0.07235512774972752, 0.0649978588851954, -0.08677736540056787, -0.0467364666845522, 0.07527037047554014, 0.37277816979757555, 0.3046388066231495, 0.11793751073660523, 0.1909175344722213, 0.32452346100862384, -0.11832867182677721], [0.021130055586861, 0.30115357739176574, 0.05701458272506832, 0.06146272844386448, -0.11021962474188104, -0.12228073210109387, 0.03995148776242524, -0.33678668694830677, 0.004025226251451507, -0.15848405276123625, 0.06368585203821929, -0.07143546847100715, 0.3415510954919609, -0.39129600236940487, -0.008075692624688952, -0.021756722909381233, -0.013749917867862036, -0.1983914978303595, -0.005072829364287473, -0.4965423382830104, -0.09752503519581115, 0.033407114589894, -0.2672628809382696, -0.3138555701277448, -0.014172628018883875]], [[0.20246899654927072, -0.24161551188699987, 0.002053842415382952, -0.10054542360780261, -0.40962061838781666, -0.046477343733403474, -0.20816130805467445, 0.13129145026822872, -0.273379570993285, 0.6327663523032186, -0.05156367289292201, 0.25773291810338256, 0.08815886621517041, -0.7150973896097792, 0.40669001458508436, -0.10989798079699961, 0.2482785236804084, 0.39394249202670517, 0.09377892563427528, 0.041153456735879675, -0.17675992156229894, 0.31960531624648447, 0.18130008371532022, -0.1688267114494273, 0.14811473874125303, 0.5589145919592955, -0.11651255428884483, -0.24134843678166518, -0.12535025109132228, -0.0477649692104002, 0.14240191949419045, 0.20874437071365073, -0.03003632113908013, 0.17587569731570332, 0.06133066503408836], [0.30514299588819865, -0.2900576327155149, 0.2303869324208392, -0.048989649437225134, 0.4965490684803245, -0.15404809170156536, -0.3950295004176502, -0.01108246727084379, -0.04910329975458556, -0.07389889135491601, -0.05262278541471891, 0.1699129052118306, 0.2053537577776444, 0.16846759078435763, -0.29985895194382256, 0.059554636254189615, -0.2871398658546569, -0.2063076620200345, 0.2213275930282406, 0.1597954414678415, 0.0006240707965890547, -0.35316457709626614, -0.06331144459814032, 0.0003567106511346612, -0.1332601609081402, -0.30598838438832937, 0.29628782740289833, -0.33104003285124567, 0.0265321072247526, -0.12416049956380089, -0.12926398760929003, 0.1305877553059763, 0.49763966425411565, 0.19418749570307126, -0.07662539448062755], [0.13726352760731722, -0.11568160017836776, -0.8474511334258843, -0.3429872588174009, -0.00984444025463015, 0.08562441660466391, 0.04388177195365391, 0.052556551589958825, -0.20129576425706697, 0.08264770422595286, -0.35964877620751046, -0.5789731529792467, 0.18432652087002965, -0.3476215580160819, -0.13710024500150872, 0.03263847883047419, 0.006948624991488835, 0.012389239143241847, 0.11061727620039531, -0.17153553745789102, 0.05419725301821165, -0.058272823115648464, -0.021413898788647048, 0.021041936644843173, -0.14208256047496048, -0.05377074878185482, 0.2480146155392298, -0.4113918789926016, 0.06731520058906314, -0.1579707968479358, 0.018741249438604703, -0.026910470973680323, 0.3019690210725154, -0.03190826962832654, -0.2021115987896184], [-0.0009641695991774949, -0.45784018373595564, 0.1678906163632601, -0.2623114698207891, 0.14535385640271278, -0.07851338561609034, 0.0025278194924206986, 0.03211207851307456, 0.15038105359684575, -0.7205259420922066, 0.06848700316517986, -0.5740413120729394, 0.03310727125984864, -0.19862606875882644, 0.006750305811256865, -0.02633811829617151, -0.0029283954767609565, 0.07169542334830781, -0.08922380588071673, 0.07879110591604867, 0.23123945532781706, -0.22442520727561607, -0.3783349810612207, -0.060151854230912606, -0.02880829950621594, -0.009829307645171188, 0.6155374930166533, 0.6134679294121774, -0.07645085299534496, 0.30290935446281425, -0.06523116560200592, -0.285225153855012, 0.3080414060663135, 0.04482667868642136, 0.08565064870653077], [-0.14089428049184644, 0.36343713278765005, 0.3269013177272756, 0.20043515114673832, 0.10724050937631031, -0.145200467389283, -0.06391804979115395, 0.12933031942657913, 0.0834775164649349, 0.1598119622649048, -0.19225151448258804, -0.0480978811512236, -0.2111961450302612, 0.09603913185295018, -0.21167984228409886, -0.022537215964657603, -0.8893823083632983, -0.7165435088279981, 0.35980982664401084, -0.03044296729982559, -0.3209783038717189, 0.04099550787191224, 0.15216687541182164, -0.1825735912421793, 0.07004077933608588, -0.4905487957588239, 0.2780335046155367, 0.6331168984647106, -0.13522937464577423, 0.1354440774464038, -0.09211941737355202, -0.6166274009425855, 0.18044175523155193, 0.32201287507258575, -0.10890087572199117], [-0.15561790700961972, -0.8915325335461696, 0.25161871462687785, -0.4421668001553502, 0.21920915444348585, -0.26268385128101, 0.37820043745892906, -0.28720285940001733, 0.13437754293823204, 0.17377105364264228, -0.10772076112786523, -0.15668812674873595, -0.10175218861778584, 0.18953260953066065, -0.14704374587662547, 0.07860343680096699, -0.2868753800504329, -0.4320664256387083, 0.19314852082892098, -0.18341397365641704, 0.061958026049773574, -0.2815834544547074, 0.34589639915953596, -0.15833464997277755, -0.023829864707399562, -0.069486625370595, 0.30644829158132175, 0.2398447815313599, -0.21421044122002908, -0.014738674137697878, -0.11145054596577225, -0.14366494941677552, -0.43271236626442217, 0.22189139471868927, 0.06030469606872267], [-0.06515150625537248, 0.12301334538875826, -0.3410860562252456, -0.2529397205115075, 0.4942323270346506, -0.20345635203528242, -0.5881145377637259, -1.3395459647321601, 0.1089574432823551, 0.4791307363371195, 0.3847428731769946, -0.3216681827922904, -0.3220134252740395, -0.858036067108068, -0.0831116200944968, 0.13790958332330427, 0.4142539295861657, 0.18822882340385438, 0.3599056193437706, 0.09145767933019196, 0.5153647903155975, -0.035228483780428484, 0.5589300409477561, -0.04523378367686683, -0.1924074195019554, 0.3749446439962169, -0.14888479511532934, -0.21533299640648174, -0.17345562733503292, -0.2205370078325016, 0.09625283569415458, 0.47825067161229107, -0.017174748440323222, 0.35847095821638597, -0.5647323148928799], [0.09855994067646616, 0.26967150276575136, -1.885032001640567, -0.08915075258234485, -0.05444852468089249, 0.019300711478629214, -0.21275892989161113, -0.9520986061721883, -0.2996171267728369, 0.03329979086980102, 0.005078489885229322, 0.06647426150441309, -0.36721916700558455, -1.4628567935140575, -0.011470373912449176, 0.1542733105509121, 0.8001042104466038, 0.7731952587887558, 0.2545231655786529, -0.06376257403093363, 0.842153747551219, -0.13900705439444794, 0.22018714666771802, 0.09431000386833412, 0.017163323013316075, 0.9353912446389236, 0.438409027908403, -0.215395525410458, -0.1528451453508814, -0.4658892920161966, 0.09232458380108441, 0.6962082137438268, 1.1792232857194502, 0.12287634199086071, -0.2864281312898851], [0.16917426913943706, -0.5425623358230922, -1.961693586672728, 0.277766265097081, 0.46354856911344394, -0.0167172448677848, 0.32858151517913553, 0.4744523079215167, 0.10121029109211875, -0.5647905285813576, 0.2996717019815036, -0.7061754053616542, -0.22452618678759576, -2.2891035282852625, -0.08612955745405892, 0.24552131693680135, 1.745064905184923, 2.4612536410162966, -0.23390663685597138, 0.016226741009794335, 1.6477443590935545, 0.3212271095870279, -0.16583993980096168, 0.10268044717928053, 0.25660881443800027, 2.053811887838173, -0.2207405159157276, -0.18904083653664075, 0.23506156856492993, 0.0025065032662687095, 0.0021612474437436007, 1.8181801939776896, 2.1484824588589846, 0.05754580088806217, 0.14907188570651014], [0.12825500108218746, 0.6413379597447693, -0.6336767908087448, 0.24364102747306574, 0.1764764551954546, -0.0688405689666107, -0.19109113375113612, 0.1095607799753019, 0.12113425266851895, 0.6108680232176206, -0.024774141650878257, 0.5500119453126439, 0.38610012237175234, -0.24892017662286473, 0.16813628177421494, -0.03763704290130669, 0.12826008158679433, 0.09817571674872162, 0.09930951004356574, -0.10089962236240872, -0.47873524964392483, -0.019015978964785792, -0.04069447004965, 0.028040972039693975, -0.07260379607217637, -0.12619037643785666, -0.005724895026884, -0.46261364947124695, 0.017553869196117206, 0.3181706585269464, -0.1293603595349042, -0.000915163534994923, 0.015200710535634836, 0.13521696964682436, -0.11470223093915433], [0.04861620985622412, 0.4559119920779702, 0.33552603375851686, 0.08223872780402264, 0.18048243198718564, -0.19261329371260932, -0.1838567493336748, -0.10672360959539239, -0.08396141556159702, -0.3867367748651016, -0.41898308958259434, -0.5545483104077856, -0.06073286138106844, 0.2598235884264575, -0.2855291410176239, -0.15684423097003683, -0.8493203213532685, -0.6790892505833632, 0.5132569576145803, -0.07445255078365037, -0.2696015948844107, 0.827322682191213, -0.08969970445951167, -0.27093478562670803, 0.21621660352994318, -0.7337227997210918, -0.3224907943775402, 0.13466359511294992, -0.264966844876646, -0.18480664294750054, 0.15105130743049577, -0.49642516287724836, -0.6056878545181373, 0.501526548919651, -0.037592455452590746], [-0.12338280204258496, 0.5947515189075885, -0.2434140360966073, 0.27463729811572113, -0.4363383786734906, -0.03313756436733514, -0.3758242586434205, -0.8028878876657464, 0.13508928973424975, 0.19099794507676493, 0.2154312933167282, 0.82451527258799, 0.8402891225124769, -0.39308146438256447, -0.06526428047878591, -0.11762315132810629, -0.12532279840468555, 0.010060477840647095, 0.25996054908303307, 0.06740967977864937, -0.34205254337461927, 0.0910861957985003, -0.6566765866492136, -0.14506818487724252, -0.2256212231923716, 0.10797076028014088, -0.2623499939047423, -0.8201996358048624, 0.0012538346212359922, -0.15515237016143033, 0.06069983114303654, -0.3125321212233192, 0.32268333509035513, 0.33660301008011373, -0.19846935356967849], [-0.1803799355554763, 0.2600131078732211, 1.44640043086583, 0.5209029043506216, -0.11723933155240045, -0.08166265811231421, -0.10653259454936127, -0.09487466783100694, 0.15377430357818436, 0.9612953790559126, 0.1060541732279071, 0.7994320160668428, 0.36422140358319977, 1.2685774225740294, -0.047830232785362525, 0.05679238493289113, 0.3046626976304446, -0.012820323160471544, 0.2935077498179258, -0.16784484757802734, -0.41901931722079466, -0.0068314663866382505, 0.2254323690387833, -0.21756098575364125, -0.08030026403895954, -0.5835359498686126, 0.048501250443624765, -0.22735725446153315, -0.1714870250570612, -0.11055231317834609, 0.04261535357654895, -0.2043444550407992, -0.22207552425323265, 0.2442461076588365, -0.03418898718506214], [-0.13936851778192522, -0.6189126349156684, 0.6677727192981673, -0.03386714359547202, 0.008369154025732429, 0.20962204715641958, -0.8959873977766977, -1.3586721391006156, -0.5581030370253733, 0.5723019482631263, 0.1046078565626743, -0.2371059423369846, -0.007382046033829886, 1.153184111873441, -0.4332761816621764, -0.007251162903563286, -0.6836711440908849, -0.7078064783595858, -0.0015018454643354916, -0.7639056859174306, -1.0837827764713852, -0.25106909203743033, 0.2845666207888252, -0.3272919563070544, -0.6927082000514426, -0.6802422538576424, 0.10504867716830024, 0.16450400840349583, -0.3462413154072332, -0.447957372558085, -0.022330843900992103, -0.5970335254720339, -1.267943816133464, -0.11897329423658923, -0.5656045235124278], [-0.11292820252646618, -0.5610581966799423, 0.8938843660204744, -0.41408065562322577, -0.18107205534783605, 0.3579528399791058, 0.05710739941387135, 0.241485681487904, 0.1939775631397361, 0.6067695481477733, 0.058051568957129235, 0.22422909061589072, -0.4134515746617058, 1.110626426797552, 0.5776251104115699, -0.31991940242213524, 0.14869688201217898, 0.15192827233326966, -0.3636516611475503, 0.2095052446803956, 0.19892428112795063, 0.1824026654901977, -0.1932746943081653, 0.18982750187790204, 0.14167438199675558, 0.17245226188403656, -0.4511699834817259, -0.031300748772873234, 0.0021756836923130423, 0.1322646526225165, -0.32846267911689947, 0.12381010771588397, -0.40340731817481607, -0.29208937361518694, 0.06127683746915314], [0.34914292321030543, -0.5944100336180186, 0.5083511303340449, -0.09288737988164125, 0.2884048161172357, 0.31274359790003375, 0.4093334247992687, 1.2765989889208393, 0.15375770215833717, 0.39530095575170915, -0.2891644803938909, -0.036048225122931515, 0.13303364920804014, 0.035328349456173885, 0.17772385820462883, 0.052318981459346124, 0.07532839898498714, -0.3234967859787, -0.31667763041213315, 0.4218756033978468, 0.05244309398397144, -0.4240292706806153, -0.2684335210019834, 0.06121897316769374, -0.11187561499121661, 0.4668984224436868, -0.24271232715711555, 0.03170040334189002, 0.15787564909503346, 0.34464395245486135, -0.29340599128436334, -0.37476136749111444, 0.0038541082789357206, -0.2824995192439402, 0.2735595287061023], [0.2046290516642815, -0.04767738837980277, -0.17190037947260353, -0.08785930012873135, -0.07981975949125944, 0.010258008731930375, 0.031041803438539406, -0.28337838513764174, 0.15765150661355062, -0.07842287780967874, -0.14353295555158188, -0.5023508560626597, -0.5838711318965767, 0.22256261149602455, 0.14977586680684032, 0.2254903005762089, 0.32020919032630873, 0.5826604612430577, -0.3320196362764738, -0.19235322224886262, 0.3937957852897058, 0.054912471598527, 0.0249023612397016, 0.17267417290904338, -0.046626768553696074, -0.06569052642675377, -0.16142975757712077, -0.23705665128556686, 0.10196314128570132, 0.09971065652676851, 0.1869853964417127, 0.48593437749024865, -0.41716769225708905, -0.2939594577049072, 0.08596595302233309], [0.19059304091783172, 0.1825276252597532, 0.19757597662641033, 0.3274983452468489, -0.0334310083194392, -0.18030579242916966, 0.25188258459987933, 0.35589926316451465, 0.09476966140834385, -0.04205639207178106, -0.01702379699833004, 0.5163838040508093, 0.45511336365412314, -0.017936834992216523, -0.13123759787924733, -0.0329348182241093, 0.2737387009901571, 0.28837036428555557, -0.06967441031541652, 0.16175726721772588, 0.003496739660090557, -0.0839507412523805, 0.17650553717013465, -0.06598821560683253, -0.3078743551444398, -0.2590501705858289, 0.27754575828062583, -0.008909826261499111, 0.15325783747107544, -0.13665232673281008, 0.035674531376371305, 0.7159597185432622, 0.27162976553350693, -0.13836299230707882, 0.16398886711782187], [-0.10288341549727308, 0.024285273580429045, 0.5365813697164998, -0.26767937313953505, 0.6442316098691445, -0.07173673473276765, -0.09226686084388516, -0.46260339005043194, -0.1843444827572298, 0.5431270991816455, 0.11679132104078589, 0.358893607558958, -0.2733648522605918, 0.17678849285405246, 0.13845698370499088, 0.28966139760727805, -0.9356463111085795, -1.1439087618063992, 0.16205738076785212, 0.09029868562159192, -0.9671551582678877, -0.18432075144814183, 1.0228499595362768, 5.483638423403695e-05, 0.06414429314864714, -1.30743364886397, 0.0014732957996926141, 0.33960021291424647, 0.09626133233315513, -0.13169472818986347, -0.11725517921783055, -0.9465782557690564, -1.1060852705691355, 0.1446073070024977, 0.09067669803510303], [0.02893932879920199, 0.19069324322801304, 0.24214093652910665, 0.4136723203147198, 0.22208849449854567, -0.1305470247121269, -0.025495124126603735, 0.8442035765607552, -0.042711400729324035, -0.09389644017233065, -0.09148534004152084, 0.035371867521569754, -0.05665490938294327, 0.06141220421873994, 0.135136655825462, 0.1351798830762536, -0.23575259607734705, 0.4829521573531721, -0.1542475513394964, -0.004481402640798687, 0.2590147343433152, -0.026555457871009252, 0.4243542973190635, 0.057025920861402596, 0.021692420786339053, 0.5533901071019626, 0.7368644139664224, 0.22828368408145241, 0.13202983251090974, 0.0695600606786056, -0.08201970550725252, 0.15434910827147436, -0.18717272693139306, -0.15013645672220133, 0.2705375085296457], [-0.021184957097405935, -0.9389884947769902, 0.5267439344357853, -0.5704007600119754, 0.7990803717354202, 0.1304677860507562, -0.024595894239285387, 0.6508720372893604, 0.3791653908585853, -0.12954258842196692, 0.0003577348666417605, -0.11663490491966028, -0.3438828837229506, 0.700806913503576, -0.005987010216228978, 0.03117869008574569, 0.4714815544468311, 0.409337046882119, -0.16990263729541433, -0.03424604652692262, 0.2944031588652934, -0.18103966026879756, 0.24646974615968298, 0.06396369590816102, 0.08510926674329382, -0.09461188061235493, 0.05798966504247287, 0.06409318928255761, 0.10283840723544578, 0.1807099271997868, -0.087840332360941, -0.014853134416791279, 0.4058719357267328, -0.14017013859207572, 0.003578630337917937], [0.23759742218893246, 0.7257146490871859, 0.5948331813532414, 0.3018096705548423, -0.27795829398354527, -0.5619187707963275, 0.43854639571516, -0.2940208721874798, -0.3537803277411868, 0.15520007929833513, -0.47459799136655306, 0.3031984181922053, 0.7196670782738485, 0.22249705799603056, -0.10435693884813192, 0.18843959458877635, -0.518059094350967, -0.20657587072726274, 0.20567427173943123, -0.4622267338922695, -0.9203323478319188, -0.13966383200231888, 0.522112727180636, -0.06019121993171227, -0.04468292814250466, -0.46388725958313176, 0.4345454518637778, -0.3306746498978873, -0.08018380036419695, -0.4263378283379297, -0.13313698563508697, 0.039690085262881765, -0.5732205273793697, 0.17407251879354627, -0.03913252251738092], [0.4438545684807512, 0.5747776608733594, 3.5878122418945635, 0.3032283829671766, 0.7635590237570183, -0.06500484077546527, -0.14751930043607647, 0.19444978844885957, -0.3606224121452745, -0.09408818325608921, -0.10764827905657574, 0.6172605950259252, 0.5937771735869605, 2.7309334573991855, -0.6612928923665641, -0.30095517980969816, -2.1905490645950136, -2.977489642754366, -0.2714984946532348, -0.37694757385513056, -2.2834266161737484, 0.4963665589936513, -0.4988058223139724, -0.5614672757557883, -0.35113261217037883, -2.5128803173980434, 0.3066123022412813, -0.0819686745031782, -0.36918143188685215, -0.47115913494786477, -0.5227840801335399, -2.726611452740411, -1.7870674292436688, 0.14411174765994997, -0.31936255074353703], [1.0143586788306918, -0.3627121990551987, -2.231583993525729, -0.2837854253234353, -0.2891661477398543, 0.8286845145028954, 0.0830403175741927, -0.8346853048259307, -0.002085496320523807, -0.21969694573368903, 0.6653538875500995, -0.0001451376784299946, 0.046366140046492234, -2.6359744088266663, -0.095719912922143, 0.6203612940464245, 2.1731820862515274, 1.9869131191009388, 0.4682535068567975, 0.02523565292344277, 2.103951119295177, -0.5173458555232323, -0.1122735484475766, 0.6514702799736108, 0.08749034482780338, 2.1269626410462292, -0.37867918494029645, -0.1366758553241803, 0.7332855405316959, 0.05460167245441936, 0.4876795132552082, 1.749451973175753, 2.2317054088960884, 0.6416454558937227, 0.10084837313274564], [0.33960262937971747, 0.35846005415624077, 0.32443595104659995, 0.11136134309988002, -0.0641170771218753, -0.34234139795267204, 0.09942596098137321, -0.3171304666587865, -0.10669397663085418, 0.03119332878867645, -0.09228798785880526, 0.11346156691823783, 0.6849070095160725, 0.4747841392775459, -0.339784524739481, 0.1730064977714, -0.19837153539700803, -0.09807575557457622, 0.1103275410095129, -0.11148371406907133, 0.17390532010353382, 0.4729211731718568, 0.2760328911056072, -0.057594633832692095, 0.11631917667031365, -0.1862671760123806, 0.5021400704704981, 0.6851591380336031, -0.049137307175934744, -0.09790624019433429, 0.07014417854210186, -0.5998680611581576, -0.25346695404176556, 0.25924056828304726, -0.16922271059864608]]], "biases": [[[-123.66532306313468, -123.89321095455905, -123.45226938243407, -124.20910947351365, -123.54459815258565, -124.17436070985563, -123.82153603298627, -123.46692835307297, -123.54163503449925, -123.70105695007915, -123.47236012915039, -123.98715253787621, -124.33069336038135, -123.51070871731295, -123.79621912857685, -123.54644794345222, -123.93370750804975, -123.90534990034365, -124.30857199689508, -123.79231988838836, -123.95420772577856, -124.44162232491834, -124.01409336567029, -124.28978411351896, -123.56078074668916]], [[-30.38563673559878, -30.83281441760122, -30.868930120634744, -31.069774158913653, -30.62140933582232, -31.04907907454009, -30.873409622070483, -30.939824676249287, -31.05758130115977, -30.67880630926684]], [[-21.138442580572317, -20.607251862682666, -21.163320132211737, -20.60870475045033, -21.45197646701577]], [[-35.030217282712435, -34.86173872828791]], [[-16.948837079139242, -16.806333166474932, -16.661316199143588, -16.738275672674458, -17.459668262671446]], [[-7.816496350141062, -8.141153406993089, -8.134482552256808, -8.000225649044639, -7.934324973463663, -7.753397776944413, -8.426481515948955, -7.643543836414862, -7.521322909809817, -7.559924436099238]], [[-0.7040572847964047, -0.9652776850529774, -0.529335144328451, -1.1275887953188939, -0.8843775142350915, -0.7103600228543508, -0.9825940896111555, -0.8581185842295103, -0.9779896931953133, -0.9514908376618283, -1.2262743820314312, -0.8874744399629062, -0.48848453113294815, -0.43946526964468563, -0.5285465021134804, -0.5125915716327393, -1.0246510755327944, -0.6240209863146823, -0.9539673374103017, -1.2236536398825197, -0.6377366725519297, -0.46221192164044916, -0.4398077163756063, -0.7510139061582631, -0.4970532538845722]], [[0.7741035371233663, 0.8004613072155999, 0.8623344929290415, 0.9187978975316687, 0.05056734618092095, 0.4864196237836099, 0.08481791223780769, 0.9522689503183257, 0.465164610625997, 0.0022622173376326718, 0.6613317147170408, 0.4928830884394315, 0.3191883296795238, 0.43736429868402793, 0.09821154842916657, 0.5539580219932518, 0.6091845270940185, 0.0946694753813214, 0.21236197924311026, 0.3376525105571679, 0.5568438301804938, 0.4490320117778386, 0.3216485628688594, 0.26775606681156133, 0.07062856865338896, 0.3138007303988382, 0.47358759943215745, 0.49641170515463573, 0.5003945715592519, 0.7512102491318592, 0.39099497965297114, 0.3585382959061939, 0.2807980406318186, 0.44402862722748027, 0.33746146125671117]]]}