{"weights": [[[1.8362216611728628, -0.6717214021910644, 1.5357593907924105, -0.29284987061202744, -0.49550519495090334, 1.4353683950408598, 1.980814094493202, 0.8093840206490233, -0.014724032540867961, -0.8572942555374483, -0.8624359626926821, 0.3235872693868885, 0.022799685385673448, -2.1375487245619924, 0.7801271548396967, -0.2045325068733135, 0.14507390944119467, 0.3830241300671366, 1.3746048674430005, -0.15284065701303104, 0.13827826328264414, -1.679222907430889, 2.1686760820782207, -0.39329363988798977, -1.5451932538238131, 1.4298556384619276, -1.625824380436434, 0.11013344169528054, 1.125531571577418, 0.5397405646107861], [0.4197650601620858, -0.837176995647328, 0.5501145222564487, 0.08042951365577597, -0.15080635174479576, -0.04968811924118341, 0.22468049499350468, 0.7547367090286727, 0.5109639009119785, 0.20617281526645964, 0.4843174425717377, 0.019310273635333365, 1.14724608605785, 0.296848565675473, 0.2459095463244546, 2.652859339685648, 1.7137438810461758, -0.45237564343005965, 0.3306031626529712, 1.0412256049473165, -2.4519090410642153, 0.8640649794054802, -0.36933163239265676, 0.37419183189255945, -0.24965724267895947, -1.1761874751471286, -1.3985989330038626, 0.8892879154264233, 0.4533241213792711, -0.2769103138583748], [0.4181190699728359, -0.5201779073994856, -1.005353683789058, -0.24099980729435735, 0.5045643663383527, 0.17486930785061539, 0.5800768438417823, -1.3652239609146788, -1.247000979108163, 0.7097220895392278, 0.9179875505917425, 1.4775320821508358, 1.224715283827888, 0.8401211472030865, 1.0273740138545069, 0.7842008773960952, -2.0546149602918153, -1.4812720500108953, -1.661991513285737, -1.2952985726672535, -0.6838343945455208, -1.2686976123213092, 0.2257127457423928, -2.6348360523237475, -0.7354301995402539, -0.17649062119850933, 0.7424397559961425, 1.1477998464454062, 0.41971524545450634, -0.26989716146109777], [-0.7616583588325047, -0.7602930864596816, -1.080130693234017, 0.16388646018434488, -1.4328557879619077, -0.4797465354428784, -0.16017483460488102, -0.9366494099772065, 1.9435493061133091, -0.8815679583814592, 0.18677935132635626, -0.03771183907041943, 1.0289070265584253, 1.6718815158650082, 1.2225693984552564, -0.046430624484404055, 0.8130488682600616, 1.9077050617216094, -0.29374703164391364, 1.326949534398445, -0.4760412024332483, -0.21044943173776778, 0.10218834453824008, 1.651956362656022, 1.593909526873205, 2.2665724600578474, -0.400003928121664, -0.25410790725285154, 1.9432230901766354, 0.17265757128561526], [0.23401245244211583, 0.5756122866510579, -0.49503206409182177, -0.07035246872480472, -0.9190040838890307, -0.1824283527032857, -1.3683636947548456, 1.1339712352222133, 0.4234170496795522, -0.583972867155519, -0.576471454589678, -1.017425702879925, 1.1940848701321227, -0.44179234294343, -0.5734282998632038, -0.04802345314360665, -1.9587988846606073, -0.15217875331278902, 0.8179451954235827, 0.6700257396955325, 0.007999111204185389, 0.1917648186540426, -0.009006218853937825, -0.5962155002060697, -0.40653589355316844, -2.312310335871645, 0.795075354845791, 0.43880974433061715, -0.11043499200172159, -0.6000085371108205], [-0.04195397891196321, 1.85539362367958, 0.7275362758920486, 0.2821596447289454, -0.46594863306847845, 0.6810099030426827, 2.4161602255989245, -0.725946696144554, -0.6147411694078943, -1.546407961747398, 0.19074744119497533, -0.9670675976350974, -0.8555882929507757, 0.7292024387913657, 0.9148427559204403, -0.9405751548194231, 0.06043942077100476, 0.03560719522009495, 1.026115077938803, -1.490462391984062, -0.9681918193778755, -0.4250501578928903, 0.24149371855831758, 1.0856726645333425, 0.915317259685547, -0.43371020278916483, -0.297268368074987, 0.7845477226667522, 0.7278156904734825, 0.7159118094898339], [-1.2733852074445662, -1.0487528523259304, 0.07455868280581034, 0.3736473577900405, -1.046202324136425, -0.3810389333970774, -0.1826166127148327, -0.11984269874951935, -0.20149172928956935, 0.05801375826621537, 0.38338174852134616, -1.2512045954708055, 3.342411256789271, 0.8789614381193268, 0.8574130050104305, -1.8514950032893234, -1.3682129530989098, 1.197694029219953, -0.34227196974199875, -0.41489700452120826, -0.6758802328638278, -0.5595807161998656, -1.5956175910397519, -0.09726576691411128, -0.061832384254529325, -0.5627330354639335, 0.6529347436181153, -0.7160175050001839, -0.47074682918305727, 0.6930611067951581], [-1.1635669780275333, 0.7547713914100068, 1.4110727995222325, -0.3224501383141573, 0.3583668913961657, -0.2159778807862672, 0.042866683492121305, -0.3272948922900727, 1.1319792462736629, 0.6585205881108398, 1.2825294553780793, -1.7329600694561438, 0.3885348008787608, 0.08246464867162452, -0.6083537707013807, -1.8544823181040802, 1.40553717043846, -0.25300154790092394, -1.4942150429819179, 0.6778166621460949, 1.0344439420566085, 1.857076314472107, 1.9571289478247884, -0.37677958551785323, 1.4421969909987746, 0.8928158640882942, 0.705936535981024, -1.386078920168183, 1.0613677523517506, -0.7938449891352188], [-0.019744088994989636, 0.7833072232383127, -0.22264438513891546, -1.0379904453384425, 0.7315398048757072, -1.8447444654461318, -0.3967786944413971, 0.6169653108897428, -0.2744024670110155, 0.21833560778615949, -0.4466768394645713, -1.8427261130531059, 0.28548436841987596, 0.46712143989726074, -1.9873163980923707, -0.3793093059323908, 0.05863151531348511, -2.092012069781141, 1.5903890963201606, 0.9519457334403375, -0.3081955692839721, 0.6632444661115174, -0.24515074506548823, 0.021373259092391222, 0.5939302920953481, -0.09234898205037714, 0.8215166583668954, -0.6937355072722794, 0.29072730204527286, 0.8770962365956061], [-1.161111789389561, 0.32004102294363307, 1.7862827922751223, -1.5616399584791272, -0.7727759968984136, -0.86388905508713, 0.04211419965698482, 1.093389621585193, -0.6740283815718086, -2.229983126349228, -0.29226321864738486, -0.5334063934361636, -0.21011421775984157, -0.4626344245644243, -0.7158886465037164, 0.12423744405401982, 0.7037559567992513, 0.5107992101352229, 0.37217844911524045, 0.054708299414377735, -1.1842122330061575, -0.5592008670256927, -0.3072919904467523, 1.013224026450954, 0.35859288689132635, 0.06322439745655459, -0.8527049073525109, 0.7103133894649649, 2.1634602600761315, -1.8857537196574885], [1.5608002189538754, -0.07629543546970535, -0.04545999383068565, -1.9113636169374686, 0.2664212096426822, 0.20116688342495517, 3.565262230438769, 0.40820231320174166, 0.5225046401693975, 1.8271867213810042, -0.22334906451000494, -0.6494793640302077, -0.8854107563597223, -1.3830506105657658, 1.305399648181503, -0.42873758298261866, -0.844639683232737, 0.8440361221325653, -2.4696331443407464, 0.5250448033299905, -0.30465156519180964, -0.8637516734324778, -1.052319100614841, 0.8169145969317612, -1.5722052348891753, -0.9562087191002291, 0.3708625592705385, -1.2076651308243251, 0.7314534707523656, 0.7875300866729984], [-1.0808489771954162, -1.5190546387548838, 1.426024940724356, -1.2833608476112817, 0.7410501454452504, -0.29369743811679844, 1.4529865448621175, -0.9822745056996888, 0.019312042636883447, -1.8212273457580268, -0.6358241155562582, -0.08766069998369147, 1.303852467121602, 1.582249878667917, 0.23914245165041756, -0.6006777233150704, 1.3172417862974064, -0.032234173523329274, -0.6555805141964017, 0.05562318249925444, 0.6727290898030861, 1.5252105838602779, 0.9492566866579693, 0.6955963273181697, 2.5412282055509503, 0.26383930393956995, 1.413600279422412, 0.16664931283817416, 0.5925972553076699, 0.417642100032752], [1.3960710236794847, 1.063462789911815, -2.48164316409978, -0.80964424908825, 1.523459069428611, 1.619382443522205, 0.2628733379341283, 1.4513488012476514, 0.19503319614296039, 0.7293366598435801, -0.46225932503181466, 0.2554441839325291, -0.407073482464744, -1.410513449286987, -0.349269501758178, -0.09522647230433154, 1.003145421506863, 0.05606086782563322, -1.0656835798073006, -0.2040614912051506, -1.1330322306248282, 1.246603581031604, -0.49514486201186353, -0.4601699167701007, 0.6651076218552555, -0.6352648449048759, 0.18360938334139382, 1.3810706590304944, 1.96368685424883, -0.4498318251478012], [0.6638828663558357, -0.15580482565341758, -0.3571130109815919, 1.9036054540487615, -1.107115232767659, 0.4269724458544396, 0.6789941328203992, 0.9204887444451788, 0.17918247508855475, -0.5960326413243561, -0.24491622055178933, -0.0937995167841525, 1.158268041580403, 2.37598887228631, 1.2604444461032487, -0.4625103847652018, -0.30146410044281646, -0.2596313674460895, 0.7844758669547035, 1.8617444892538042, 0.047625493892785684, -0.35378308238532435, 0.9330945880080943, 0.01572071765057935, -0.35892397641298696, 1.9346927302815349, 0.1084662119720181, -0.822195891684186, 0.19475761995654217, 0.6634084444337801], [0.20994864776143318, -0.24168472514745312, 0.5991485782574564, -0.5666109412424437, 1.2064806085945647, -0.2621156606247249, 0.23067502676420493, 0.11012596142022611, -1.0755056601867123, -1.3380511822100019, 0.3009063771113781, -1.6023693040296532, 0.09299073744305723, 0.004286605472793572, -1.3154805573261392, -0.20903207010213884, -0.29228028025108393, -0.7258420749039483, -1.100470995256103, 1.2853374910907387, 0.7272066458801931, -1.9236251646706102, -1.4256947215113869, -1.7909189696419983, 0.7068160888191448, 0.6582142129835746, -1.1890260744530188, 0.5082025878314603, 0.44156801309094373, 1.0251722732551503], [0.08356039787524079, 2.2618214757712227, 0.41927870512627413, -0.7272214698810479, -0.49839970966871006, 1.4928006136421075, -0.004933567445921748, -0.10526604741854327, 0.2360198255673589, 2.0073334703822256, -0.7432418699978417, 0.10201554696591875, 0.2834644560483277, 1.083825520223852, -0.47747907116574784, 0.972528590974783, -0.050191031967351314, -0.24145273066051545, 1.283474052864518, -1.0559710333535335, -0.06436258266094459, -2.0508141853184862, 0.33991189983303155, -1.4891149024425925, -1.3583094125087656, -0.8940435371922156, -0.33711941219409775, -0.719086027315237, -0.04342738137502858, 0.4974549707879104], [0.5328984611991289, -0.7047183079746634, 0.31289566187321693, -0.5822576658966918, 0.08936617818947905, 0.7128014165158347, -0.32023174390345427, -0.9204410913057458, -0.021910816387810516, 0.07431534993463434, -0.9359498018826294, 0.10096003713121143, 1.0405234014575222, -0.08085883779673948, -0.033269618395800636, 0.8675293435900701, 0.9696646696374609, 0.8944855980923124, -1.01393771834438, 0.9570039400744902, 0.41753595035645497, -0.14209652039296672, -0.48161750961990124, 2.067903152317995, 1.1376503023274798, 0.11918533558206379, 1.2373047177909258, 1.23921753023404, 0.5290850266777993, 1.0207612979358274], [-0.40381290197749614, 0.8764772302999407, 0.31063888874260925, 1.8630203352651662, 0.025083329308980003, -1.0701853695025665, -0.5689989507908155, -1.1707475940872114, 2.7938357573059207, 0.3868893237116365, -0.5468889148391732, -0.4050044076030081, 0.7904672393148433, -0.25241068331654626, 0.9519551109871787, -1.4967334101250258, 1.2558920199728647, 0.6401701409802089, 2.4859982995595304, -1.3824667037747407, -1.8765338232632336, 1.7610855800372758, 0.5278304851950413, 0.103626027890052, 0.020784488423628126, -1.2426269822638338, 0.20380209443026295, -0.6993249054717283, 0.13528818861966316, -2.043854763124613], [-1.02722803798732, -1.524958006352702, -0.7564669005836604, -1.4464261775568075, 0.4973364895050134, 2.0297633361147605, -0.2429280854512897, 1.9550476544872644, -0.8275265115369257, 0.08524184931365598, -0.5992542722296533, -0.8656590488443497, -0.27672990905733236, -0.6927305799760065, 1.9228703435186134, -0.9795043531563797, -0.9867411327342525, -0.2522822369710485, 0.5915637741165766, 0.5429024583580383, 2.2360238392761276, -0.4826099172469526, 0.635829845604021, -0.5496632978744879, 0.7874394241487126, 0.449188091089452, 1.0956119537923497, -0.2151906831927162, -1.5593985403469945, 1.5905899690654122], [1.607860552445869, -0.2616790355825003, 0.5192691388496233, 0.9512930350476038, -1.198337796879743, 0.14628489251030852, 1.2059540550732784, 0.14087800088720215, 0.1085694036199404, -1.296262047713362, 0.5594438387787097, -1.9372581941547595, -1.1955742947968135, 0.5788355075556173, 0.8017399891432857, -0.22315979931553084, -0.9352094020440259, 2.6444138432758684, -1.3019892885350086, 1.3229935267003965, 0.26469035094288135, -0.8549913185819051, -2.698301405020212, 1.0968750781078531, 0.20410497183167242, -1.812977616343534, -0.14881809950093375, -0.40859404356666285, 1.0150739061969964, -1.5497087070993236], [-0.3049561729099323, -0.33083707320027195, 1.689586518545426, 2.5631388941478073, 1.5656218894113416, 1.208214704227655, 2.29606830448149, -0.008279520793365277, 0.7082950351634757, 1.3425065972011676, -2.3875677528430965, -0.31141027385393805, 1.9288183739525906, -0.16818666611845412, 0.8426106085377223, -3.391685402627697, 0.19907624565947882, 1.5853250646229673, 0.5452748770291377, 1.2492397919819092, -0.43492519505492583, -0.29294027655217464, 0.14695643828744853, -0.05526387111338254, -0.24917544105560277, 0.6567816085592404, 1.0704444998731826, -1.1845243918002948, -0.11185525175214289, 0.1064796474567071], [-1.0827351428930971, -1.1358731951003775, -1.995229218511269, -0.6156417852214322, -0.007628016028401022, 0.7302507102680074, -0.824199426638259, -0.24601423569414707, -1.0078195708030444, -0.9513252928444047, -0.23114534497579242, -0.37724591780318595, -0.6594976976259515, -0.6407145697344915, -0.8721213441893745, -1.5411877275903125, 0.7869809077237718, -0.35862523435302923, 1.0088529246323075, 0.6135214290051627, 0.7116299596814759, 0.5183968052243627, -0.31715132922010963, -1.3178705301712919, -0.6008043932273835, -2.890709767309992, 1.2095554062749252, 0.28261126736775016, 0.5784982878433617, 0.5842410542175009], [-1.1517064437473716, 1.114692847666534, -0.15138116056706424, 0.2781699443117075, -0.01015868569463298, -0.20100897392196013, 0.1331035813749669, -0.049101282143180575, 0.3591663672409329, -0.11807180992540757, -1.3974560973130294, -0.16826016857331114, -1.232629977319461, -0.8435511363899846, -0.8724756121938336, -0.2649029190073862, -2.1049046935914504, 0.1152098055335284, 0.07773550152966223, -0.5996860910362611, 0.4679325676047792, -0.551672864342568, 0.047288573050107204, 0.038439749355641685, 0.6567732034964024, 2.3722648897528837, 0.798480324110045, 0.5786579829069961, 0.09446092410947281, 0.3515548619796152], [-0.4823721869270868, 0.5996260845074239, -0.8451792611284246, -1.5478423581533176, -1.7614336552244725, -0.6563011850968029, 0.7846211917504716, -0.013066253030692298, -0.7459826274636897, -1.1138865391215922, 0.03135732787551398, -0.7235695221987911, -0.13660922647741885, 0.6361457069492552, 0.4202933150909802, 1.245459984979149, 0.43541612601578555, -0.5694415000199832, -1.012760079994087, -0.17923694105851468, -0.7137918352475816, -1.9843948825353201, -0.9909447486684524, 0.7556052516526539, 0.14414184282686834, 0.7373895399418495, -0.8656022316099827, -0.9438323171816219, -0.07606218595177787, 0.059499308154565396], [1.2918788370203986, -0.13386014548467723, 0.7289483027220608, 1.550233155093035, 0.2539596527016408, -0.4979691028506762, 0.6322194166560186, 0.625469788376156, 0.36115968603869836, -0.4906238793266523, 1.3387529582882698, -0.5868077479826237, 0.47538470151301654, -0.018268924625075685, 0.192996722082265, -1.5269471164795652, -0.5528125013670536, 0.07221009894991513, -2.1075109816233244, -1.7021011444495118, -0.7407720156289915, -0.2696344132970607, -0.3074344115101679, 2.3974037812307296, 0.8690506906596873, 0.07435186335888795, 0.08731825428945049, -0.5752816563174171, -1.0991144722163824, 0.488911150839517], [0.13350673093066204, -0.18173160367720592, -0.3103264683974563, -0.25195749977498383, -1.0868680319798827, 0.9883134551605685, 2.091586986918792, 1.1472750804254253, 0.4018659580043453, -0.9718579940401373, 1.7597750032224333, 1.0052425225286052, -0.1020470829347204, -0.4512526642177729, 0.657436079080635, -0.8240218740561994, 0.14570204177595572, -1.16899028308583, 1.719162804261464, -0.1587468787920394, -0.15691861966162388, 1.0993123997671717, 1.0937662448931795, 0.06803192871225752, -0.44973191146752217, 0.45274621276315985, 1.1352544447035897, 1.7994175348916623, -1.1219575502721804, -0.9685479837356408], [-0.8095819766613966, 0.10360137757496514, -0.7699410776295885, 0.5312543689304993, -1.273422524984732, -1.3620064316960359, 0.12949586915159222, 0.7001092854144597, -1.1286001631506806, -0.0922503502304673, 1.2981154033739084, 2.138835819752901, -0.10448891739947118, 0.6034470787946012, 0.30109750735909613, -0.9898489897834715, -0.9629981313289666, 1.359517737387169, -1.9467603193635497, -0.5233425711818077, -1.1303027884789083, 0.8844956260368114, 0.7402729150234751, 0.04166070980687844, -1.0781017312077812, 0.7349507045938122, 1.772548940441102, -0.7700848792492074, -0.5679454491813458, -0.7962805230475517], [-0.09655526704800645, -1.6946788184621717, 0.8960335850074764, 0.2265719339447614, 1.11850855612639, 0.8553687200394483, -0.32102999809456984, -0.5227212566626616, 1.2843780660113597, -0.46824884513051684, -0.6863052910888808, 0.10353050124579267, 1.3084526643564764, -0.980221315434198, 0.8514432287863417, 0.3708431689694536, 1.7141133440911032, -0.5324782531803398, -1.8787411029410128, -0.22551438034458868, 0.8896054634504205, 1.2436788325218162, 0.5467376461470297, 0.2569179034843456, -0.48450965745427954, -0.8222461621051628, -0.9224377038625539, -0.39539965177874925, 1.531738814016216, 0.2632109188699642], [1.1841185229683981, -0.8035956190943404, -0.019643853302509538, -1.634688985996766, 1.2598126507100433, 0.4348827524912033, 0.037145207108282875, 1.1105736400228443, 0.798814345580052, 1.0197864030353392, -0.6840646561041199, -1.7665991752179653, -0.15355014367154016, 0.6941415751174, 1.0779449666030798, 1.0367262820362788, 1.0988096924041384, -0.8011632584711764, 0.043080329236893665, 1.5616086682060697, -0.35370276941071627, 0.2843129071567774, 1.0155101971973859, 0.34728773697216786, -1.0769434592069596, -1.2403180023873668, 0.6855599272061892, 0.6082929303854938, -0.525525764580217, 0.014775607979947002], [0.2245824869380526, -1.0553188287843236, 2.2897435910210295, -1.219905586864845, 0.26110910096995044, -0.7622636311566733, 0.45719303418706814, 0.3886057774248792, 0.39547169485969447, 1.3508403344974744, -0.4587059229907114, 0.37654465172330326, 0.004136349304647748, 1.7441217033686818, 0.18800835984577857, 0.596614123189582, -0.2249477955352289, 1.0479476082849961, -0.24969502355857684, 1.3564229334337674, -0.12227439445900104, 0.5852688962507018, 1.186269702172314, 1.272837407242629, 0.3114588646001612, 0.8749085346081713, -0.07078934291013018, 0.3746778546070638, 0.5366271316967849, 1.6531050174705249], [1.328216022465365, -0.6902103118860551, -1.3688703291092346, 0.7620413258041273, 0.9393159966732832, -0.057028159412185996, -0.6502669365255987, -0.45097457608484254, 2.232809166575913, -1.2189297013070144, -1.2299016699838443, -0.15049513537325077, 0.23062545509118837, -0.947108922295326, -0.7112678579743675, -1.034167690629937, 0.42226132386640425, 2.8328798942629616, -1.0318828470304582, 0.2155823043803313, -1.2132823347544932, -0.27632658182338343, 0.09656909374297638, 0.9929775827432291, 0.25571725259066513, 1.3285274252078598, 0.24152384060114532, 0.24229573423041478, 0.6765527567639746, 1.3628049080130105], [-0.25265306919925506, -1.636377969656338, 0.5918847972686705, -0.1244128729007111, 0.19364150965283636, -0.9831054519623856, -0.25221595426802323, -0.22653357239269162, 0.48660501322415267, -0.5167103854696609, 1.122470383721195, -0.7046414112268878, 0.4317633913188877, 0.0678667065749042, 2.1746160103302468, 1.1722860233529677, 1.0806387874899108, -0.3751852913691579, -1.2539276426269148, 1.7930687073680003, 1.142772051694239, 1.7444969492171152, -1.821735564093801, 2.61226544872169, 0.30725857975118404, 0.9252497902853927, -1.410921636502184, 1.4436826095798259, 1.2398539750065523, 0.7701188496974579], [-0.8416305022149473, -0.7282389780173255, 0.7256005591399013, -0.437875166469286, 0.10333094538889027, 0.345295844733337, -0.7221485234230007, 0.40798164018422944, -0.21697898870257537, 0.790402935570784, -0.913003030599144, 0.49627865717195874, 1.860020956634083, -0.6088451679252385, 0.5773916917391004, -0.210046889776, 1.0457587313857664, -0.7625294666238238, -0.5915550031100892, -0.9927188689045456, -0.1390230240425271, -1.331995862160914, 0.8477578474430474, 0.12922147481675775, -0.6564753101104468, -0.6062342494432958, 1.0725587811729405, -0.36764219190908787, 1.0804897561658635, 1.451696815378231], [0.28423271038575065, 2.3041227491176395, -0.20462464671145777, 0.6180437540330662, 0.5087373855822124, -0.18543322410737434, -0.014264016586525622, 0.507725885847956, 0.5117272935692087, 1.7158596693133934, -0.7507149673022024, 0.10260501811799554, 0.840995790508221, -0.27864083033935383, -0.8031156247305622, 1.0069992165797539, 1.3233303412760014, -1.3857982505586905, 0.942449863073956, -0.5305267808782677, 0.8414076757518544, -1.5668428159244143, 1.2757335693566072, -0.07827549984189865, -1.0441818767361652, 1.1093912644456538, 1.041367175062132, 1.0146053100360521, 0.284841480968798, -0.6204026240487606], [1.324341125887458, -1.2985058586958949, 1.4284418450215666, 1.206483383594283, -0.6195997893840169, 1.0179340107949681, -0.08875444052911959, -0.6625099201859692, 0.5646667856209076, 0.906711590045772, -4.104177870053718, -0.0851163868646916, -0.25868933882379325, 1.176878559873863, -0.9052937057688875, 1.1317142064142611, 0.8448490803570243, -0.34246578091022256, 0.9589565196510962, -0.3073454160640761, -1.99062095610155, -1.2008187248306466, 1.162112687382059, -0.6764394624049752, 0.4499005219474948, -0.5106981314939402, -0.8393915726036838, -0.16073120267494595, 0.6633449428179846, 0.031137455231862104]], [[-0.7714763953288448, -0.4054611905030809, -0.3349338218896085, 0.12247712072729673, -0.49483307724707654, 1.2749897704590316, -0.6391644597949502, 1.9214996491453538, 0.07313583642255526, -0.305626547283432, 1.1812868856997962, 1.358118332506056, 1.6082993886195522, 2.16678052417607, -0.39133134175899553, 0.5445727785546864, -0.5607797284031634, 0.5446158126240468, -0.003682606595438958, -1.4553988002649094], [-0.9077831515229233, 1.0153325260676738, 0.41796860122483004, 0.7286857126049927, -0.2320475909875533, 1.3795865042633964, 0.6051816215999825, -0.34185038623719455, 0.7417672853753648, -1.7803498154064024, 0.9178566669207701, -0.8144927605970559, -0.025422286624056198, -0.737777603394282, 0.9956116504621935, -0.4306180026770042, -0.8932277814525057, -1.4776565189450377, 0.3802549706496359, 0.13840649235904012], [0.7433290754675914, 1.0710421218037414, -1.1546222519299951, -0.9685453128149868, 0.620343311091425, -0.3084078783231081, -0.7417740271761778, -1.138666987943948, 0.0721661574099785, -0.1340523417260634, -0.21300622180351406, -0.9380867483159511, 1.4416782849709202, -1.3057864167151196, 0.8236163409102121, -0.3526761249287305, 1.44623511108928, 1.0962121331444574, 1.2281355888362158, -1.207251520455732], [0.8227650137220006, 0.03236565071740904, -0.19575244101871367, 2.0500804352413136, 0.9530254563081038, -0.9905001985531234, 1.298061627864791, -0.8323473997738082, 0.03695988240059569, -0.3253032806633367, -1.3827217565419703, 0.43778690821187144, -0.8130773441185182, 0.25089651702026244, -0.2802467679321274, -1.0447383512939286, 0.5418617622590346, -2.0417740870662042, -1.1109802106667366, -1.3251674664042774], [1.1051560613056124, -0.24045403929349854, -1.5813625576303862, -1.1956375096463527, -0.6979429359367642, 0.3067703444031241, 1.2361139264320882, -2.7724122293610947, -0.9970048815558247, -0.6751689971944853, 3.008086040742042, -0.855423444110997, 0.4907993995750509, -0.716409536858246, 0.4687535746345587, -0.5598363463483934, -0.06415025152114254, -0.6618457289487112, -1.3836352526668123, -0.09249529570867798], [-0.7439726482026082, -1.6457278563994677, 0.3104329663811429, -0.8146574128599691, 0.4636119595599933, -0.8740249159070308, 0.22297447833731882, -1.1589964464663856, 0.23072479267343438, 0.3286318587069802, -0.9048573086484483, 0.47731342611907707, 1.4638672587881794, -0.45783906061780455, 0.3982595499879746, 0.3260380458025862, -0.7472997328936737, -0.06343568512878026, 0.9608758417284556, -0.3103158305069758], [-0.6590180286958294, -2.980119292785975, -0.5643318156712944, -0.3907260299115276, 0.517273903006413, -1.0252880386776173, -0.8515060275922384, 1.1047913183270806, -1.0399523751132387, 1.406614652247442, -0.09779000817112544, 0.92625012869716, -0.21523164919821947, -0.4068935214940124, 0.6705596497698567, -0.08207308857603537, -1.0900810124202553, -1.0401696769869282, 0.464763113929708, 0.659056591719421], [-1.596252415646287, -0.9605496137930507, -0.23730935235028028, -0.06351339307443128, -0.5661767853679448, -0.4420108357960483, -0.043639580450650445, 1.329787367795918, 1.020580924855625, 1.1871883005371846, 0.18703760358593702, 0.8618269013122932, -0.6285252588387737, -0.10985496275769578, 2.1088250854065373, -0.32178673163389576, -1.1467997068870004, -0.9112092860878193, 0.507328526371939, 1.363779746981764], [0.7918272511810197, 2.026937970702394, 0.5698086187372102, 1.2138746228550725, -1.019997507662419, 0.2279987298355147, 0.43542840978899294, 1.2441034221332754, 0.7887525165579242, -0.7291869700319801, 1.2186727692811967, 0.18896746139213097, 0.25906219757894317, 1.7579837920645274, -0.027955160996502824, -0.2544487711816232, 0.9320492056440848, -1.5900663458598328, -0.8133742006322285, 0.8223371331713782], [-0.6298904906292059, 0.2482841861542114, -1.1723129307734865, 0.4429808888794561, -0.10506955664629158, 0.006580026438062191, -0.4659290645442387, -1.0549095462464715, -0.26638311452626673, -0.8789119500444024, -1.4014453738342527, -0.1509791615770729, 0.15247551229247458, -0.4239497876039611, -0.5980290725051004, -1.6162162873535086, -1.2425308694821107, 1.0379609770268206, -0.9814248959987334, 0.8246766176670527], [-0.7558191058656951, 1.305067745140647, -1.0179096164737678, 0.08475735364893312, -0.549840945496494, -0.48293323986627523, -0.472151913540639, -0.28276554504161877, 1.22000429381802, -1.066018800074742, 0.9630773279265463, 0.34939974942008517, 1.6889490654337909, 0.934540437221446, -0.09444778750348264, -0.031922025476037556, 0.01695872773502211, 1.9565516007901735, 0.20330859409448074, 1.0421960685896057], [-0.9895086106544462, 1.2336235908105637, -1.505463126788484, -1.6531968555630945, 2.271458373571942, -0.16902174221587465, 0.5395193505091005, -0.36333706469080923, -0.05354676554563377, 0.5347138247542603, 1.0410020457617075, 1.812218874112351, 0.31277003842635437, 0.17067558842218017, 0.08188756099377738, -0.5319967337629865, 0.21188790692356313, -0.5845884304236999, 3.1892036038172704, -0.4988483756243917], [1.1414524985883192, 2.0385261977230718, 0.3642535800822339, 0.6728969122142537, 1.8348989379196443, -0.19213032469419955, 0.07903917307286543, -0.11357474589554808, 0.8706711883177654, -0.3009655548950816, -1.0668102475936503, -0.9366797731504081, -0.08404320366065973, 0.9319588559215647, 0.19720808121301164, 1.200344920032363, 0.2618115229073995, -0.6043092256345589, 0.3137783001412515, -0.18308467803451636], [1.5236970435797592, -0.1304698657653027, 0.003727907505104768, -0.2954907135548934, -0.21643702962843187, -0.9678099662272012, 2.04209344297165, 0.04043102622286477, 0.009496405247856908, -0.5343772424723368, 0.0835468390071288, 0.16650692556678962, 0.4145868605686903, -0.668781979825744, 0.5459189736496587, -1.4593610728055781, 1.3538863212552659, -0.6109125169681239, 1.145319573903088, -0.6744872348090861], [-0.11189659580102175, 1.280667153064844, 0.21016991333157695, -0.8880046501206925, 1.5862948055468582, -0.742757347034455, -1.0402415035203445, 0.8500715755272803, 0.2755686152751857, -0.057560977551427514, -0.18370391765815863, 0.22210312294950155, 1.49022947445933, -0.25223496239526083, 1.0331499590210995, -0.8554375822336916, -0.7850499062357388, -0.6711730180483771, 0.42205093170043106, -0.020140459141918695], [-0.8026277591165548, -2.859031529266158, -1.9593771664913793, -0.44425821333443566, -0.2583064544840689, -0.20219226536085683, -0.9008238261241881, 0.6359977255536237, 0.190225189843657, 0.5194788488279977, 0.7226866994879817, 0.33639485781327544, -1.2427730505003394, 1.4624984334269655, -0.3388619778992266, 0.2862848450040484, 0.3073872606191273, 1.0988412283184645, -0.543462378287081, -0.38013655777772815], [-2.4137985459479636, 2.2989350381290494, -0.1873825855418199, 0.7829491092749217, -0.06914621255505883, -0.8822917727711082, 0.4355220889472065, 0.08394934754139315, -0.8973570619649923, -0.07660832518722345, 1.977009330708239, 0.014769727039527251, -0.4378169256500125, -0.04690524558954345, -0.9522523841131189, -1.5524635538205136, 1.273522411771659, 1.2745019414768821, -0.015293978893272286, -0.8121723647667936], [-0.49674246321790994, 0.09002946289151591, 0.9263567071565836, -0.7689321421442156, -0.7482236464220073, -0.22407123684434183, 0.12678833525434116, 1.1976848873484582, 2.223890121974889, 0.19704675347813014, -0.17224605615804325, -0.4805062688342285, -0.18861992808306277, -0.4266521358019037, -0.810281126462676, 0.17773973436040574, 0.38657555319284903, -0.3699741528826038, -0.4788735379215963, -0.1281831601168654], [0.41684779670563576, 0.44073811396984797, 0.3746373864723334, 1.3662405033849458, -2.3863135324995195, -0.4549939055413778, -1.284701276724546, -1.0573685358664289, 0.6721586067914436, 1.7470069232746834, -0.5360470920467267, -0.0986664646468827, 0.6981530518571611, 0.35641635566007096, 1.9587108105770588, 0.601782992062179, 0.47578904899735924, 0.614494277543297, -0.9305979768613203, 1.2775193094754698], [0.7181800980737266, 0.01881748888568108, -0.1624697984081619, 0.1438150073899069, -0.9109663347043971, -0.6145003037951975, -0.058967712509379634, -0.5902191099688668, 0.16563626984281238, 1.8381056175008412, 0.15155020521244994, 0.9549578840636272, -0.5210337401292039, -0.43571363693851883, 0.6796997814180404, -1.138895643482759, -0.3424977637004678, -0.5413267579703244, -2.5507106504451054, 0.30504640756664836], [-1.4080458444161454, -0.10046344631020157, -1.7696102127205149, -0.7033114985890414, 0.09244761500273159, 0.6271491102637607, 0.05395743504141476, 0.7894095787491177, -0.36381193400514467, -0.4399915411916355, -0.5873225243575874, 0.018360896010272947, 0.5906429634069782, 0.5006241434801328, 0.2850718954051875, -2.035325395062167, 3.9490514019247773, -0.2588993495373436, 0.12243107689491954, -0.08264121846613208], [-0.9778475537209981, -0.0006192525429069544, 0.6488970151965131, -0.45954999117017326, -1.7013857384040367, -1.105339288541308, -0.004371164019604201, 0.06689138562639686, -2.150630929295823, 0.20732753390036263, 1.0707823030284378, 2.1347024465130726, 0.11507571292129017, 1.2124442216479914, -1.4992618615159545, 0.9567821271764568, -1.3456836199600282, -0.35781664197656543, -0.7219150588368465, 0.463909147480117], [1.353412651845156, 0.38026329157497407, 0.49686561408593827, 0.7312955578140697, 1.6517243842562146, 1.0319702138728544, -1.098078236311367, 1.3589305525377988, -1.5921329179400578, -0.8069997372157858, 1.2366223603877973, 0.8472344544360082, 0.6235755786851254, -0.8349505776950192, 1.310751501434272, 2.1398474442569446, -0.1606907974323159, -0.5627698254061085, 0.30152186519879565, 1.517563428632852], [0.18769645936443813, -0.2590251945881683, -1.8447127400454604, -0.26369004902589427, 0.407183562817275, -1.1401446444675902, 0.0880781664686056, -1.4748353333910134, 0.8385587989184978, -1.0571501874427938, 0.3654268970396319, 0.9580998314588859, 0.4910823882337272, -1.1943936160501356, -1.934255736485899, 1.1091170936261163, -0.11697949946713337, -2.1025996939929597, -0.9116268918568349, 0.7253161238741775], [0.8175793479264182, 1.1574560201604003, -1.5544229394140783, -0.362654642502502, -0.5228444619445853, -0.6296623290566529, -1.4427460096734461, 0.025900924392511196, -0.097221206457739, 1.615085922577024, -0.19694670230278502, 0.03832913067543787, -0.05847830707092014, 1.4153192137637458, 1.6891610542085695, 0.2461556302837169, 1.1709197730682566, -0.383160675593007, -0.3252435070160135, -0.1512411189660624], [-0.31472853556257213, 0.7809926599691857, -0.5355267113035163, -0.5296415340526026, 1.144152739092657, 0.10965796168826805, 0.09152569089050876, 0.651413420627726, 0.9408640572368285, 0.1632548992861418, 0.7903464228054266, 1.0264770062847455, -0.6692507084613026, -0.10959079759567898, -1.6621533137246853, 1.55688723880532, 1.6483189118142285, -0.8033075291007519, -0.6266149655519877, 1.580439298414212], [-0.9519722197671519, -0.2815356128217656, -1.1933547323246756, -0.5207075457213635, -1.3575315257133331, 1.290445231056024, 0.19973981392282827, -0.8018197516071334, -1.404313028491912, -0.802541444602273, -1.8674070736376729, -0.5039028039053669, 0.29910414153167875, 0.6087905767758378, -2.502209795552794, -1.2273702286188064, -1.2251322646805254, -0.9726719623083158, -1.5852704334086545, -0.8999661159493065], [0.06446676498144047, 0.8380653806588514, -0.7091381466274188, 0.648457250568972, -0.15641161353381008, -1.1923080638198014, -0.8622201262250327, -0.005214546401012848, 1.0260116775638082, 0.6691508033518958, -0.02478286120709528, 0.7727607639394156, 0.8329486511382573, -1.0192858062310532, 0.07076714138839915, 0.5225212856994271, 0.4114560339028022, -0.3564850978037511, 0.8796780085611777, 0.4657573559489646], [-1.39753146864851, -0.665503915508092, 1.2288192965313351, 0.6082108735198632, -1.8771827888746864, 0.7952518920572813, -1.6720205186585855, 0.7858752537748728, 1.979798837899716, -0.2577205379378998, 0.7818178794719001, -0.006513095608359735, 0.1151031757664412, -1.3453490982530196, -0.5293536097873299, -0.3717988734848376, -0.3345162097805624, -1.5181207437626107, -1.0230080388156515, 1.1099357801929348], [-0.2726684719578085, -0.22580089293603564, 0.32713004008154656, -0.12425345571948712, 0.6730654129586077, 0.09087136971453967, -0.011356839941215799, -1.5239894587923015, 0.07037466105606133, 0.5988666029534022, 0.12917892100492495, -0.3684865378102562, -1.4576696161691263, -1.6627502904059057, 0.2267947772595366, -1.075134941417479, -0.3661934846533406, 0.621951970279666, 2.488718823709817, -0.1275177076357559]], [[-0.64358770963258, -0.3872638001769323, 1.8995735962621816, 0.9356560287929532, 0.5683118438684316, -1.378650333008278, -0.4605037154810269, -0.3851208978635851, -0.40242850991547857, 0.8978731636741915], [1.3301956321950485, -0.24608081182448388, -1.5677696474076597, -0.7477783152416669, -0.281067678630376, 0.18581089296840436, -0.9252575014383194, 0.4117974548824762, 1.012489684532095, -0.6433710186519067], [-0.40715942209574707, 0.44127440529729284, 1.0085952069705433, -0.9751862204665562, 0.15596165439566, 0.6319109698245539, -0.47975638997277864, 0.7373860924598948, -0.13424405387199917, 0.1662629729466568], [0.7228805203938944, 0.0063713879611827905, 1.5882367915391205, -0.6979504467004299, -1.5354706454870184, 1.5606585874354744, 2.278343385577234, 0.08736611562665567, 1.9624585498720657, 0.13127612921146878], [-0.9075695167318701, -0.10005275706397339, -0.4423947886258864, -0.4528899732797649, 2.5370029859168994, -0.22936167997022194, 0.18452489477958825, 1.385620903866213, -0.9958478403491292, 1.5308564805104998], [-0.7433545038036641, -0.5730930682051812, -1.0163622636288783, -1.6211706906508823, 0.1047653029211594, 0.00533494221710006, 0.8751914811945462, -0.9907650064951411, 0.49904244270245807, -0.7909423381044498], [-1.2677552783058326, 0.404835823351211, 0.9749213964307618, 0.375246786535435, 0.8275412399437743, -0.6514852116039674, -0.6415109792877616, -1.6802235701647896, -0.5482364970759169, -1.0942131549294385], [-0.148847589309805, 0.631151695730812, -0.9435395955761172, 1.6729722095830968, -1.193076726620617, 2.1002763035833443, 0.8858181862621118, 0.06528893506676357, 0.3155954015407842, -1.9664440282641684], [2.3244607307386356, 0.08827687962428803, -1.1893258576727694, -0.9578768487188649, 0.38510012146635486, -0.21431599399433715, 0.49227910052851714, 1.6218135858429474, 0.8314011657188726, 2.067897904270536], [1.095316555698328, -0.6560493710809813, 0.6396876499821322, -0.1350420468509431, 1.6522077590748951, -0.8691346413770186, -2.186481726383366, 0.17847587088041997, -0.12510539921751462, -0.8557504973057076], [-2.328939612773561, 0.2706944229693235, 0.48436913931540837, 0.7590653848765357, 1.3691924200859908, -0.6505669127426964, 1.2258795757393663, 0.2002644415373692, 1.4544555154043013, 1.199464424255975], [0.5957689514191422, 0.7322149804806272, -0.8961180046409876, 0.5771860237651806, 0.14813484127836107, 1.7686208926740856, -0.7340908573733985, 0.7253880201415872, 1.1979889995724333, -0.48412406457567353], [-0.25330906945352066, -0.10456745637487878, -0.6179667053748157, 1.3667005081451526, -0.7345939448182542, -0.08033452564896383, -1.483671071294768, 1.2564221292781736, -2.3306914618436934, 2.2415034777107774], [-1.351313706473433, 0.062427472614925886, 1.3276940410699625, 0.745286187436003, -1.0863253660616408, 0.03618770041475917, -0.39815855322163757, -2.3939789098587525, 0.27301903098960534, -0.46276309139630273], [1.6548016887337615, 0.8990408607382075, -0.9089256384424679, -0.01794328646254712, -2.182695112263479, -0.8629589715148743, -0.1741977800378387, -0.3520756283142315, -0.971027194216846, 1.1469304620556862], [0.7462781541856631, 0.32579503318424163, -0.27178846420552893, -2.3927208258089037, -0.7513451024438411, 1.8050824465661888, 0.6655835504732497, -0.8003722074246916, 2.8774920817407303, 0.18348332779788007], [0.914312333643988, -2.940116864841106, -0.475899459062303, 1.53759326257081, -0.19164860459646788, -0.17294650940381087, 0.07287988406978939, 0.6849324500184617, -0.9353335561457676, 0.33465957834998766], [0.3640062981864076, -1.3904363068537207, 1.3072313178942816, -0.22001123373043852, -0.19235034799424483, 0.6622238414179626, 0.9371964097143779, -0.23181728096353044, 1.865884032984279, 1.8708737789698766], [0.6545463714132685, -0.7062275822823284, -0.30021962650806977, -3.400944751374881, 0.1336394516258765, 0.12569697632621538, -0.6867133786079098, 0.5157916877338421, -0.8806891880433998, -0.8444203025755634], [-0.2832740672324189, -1.2985625646155112, 1.7905880427579204, -1.3629740600411355, 1.1870302327488682, 1.3981514919792914, -1.147751287764457, -0.21268822735052365, -0.0825163181558753, -0.5819892722184682]], [[-0.36780649174856994, -0.21771743673445143, -0.43875474748369964, -0.33940048685856816, 0.8626164718844224], [-3.132889563569627, -0.25466585101444905, 0.6522978472468333, 1.4054134356626675, -1.2657875880021066], [-0.9004182099987412, 0.3805214847268481, -1.228492245491129, -2.1233334872928675, 0.8974292296844748], [-0.60446703069854, 0.5383910917606525, 0.9281784763568878, 0.5489271578017842, -0.04218119503164981], [0.9315645751366782, -1.3977112291926297, 0.12093891538650499, 0.12713421237554073, 0.38839748624183834], [-1.7181978500105, 1.4241830655562284, -1.7239333980096818, 1.635177186072853, 0.35813522064255787], [0.1709097037040343, -0.8340429679554946, 0.579850466410278, -1.3472451285604683, 2.833551206323928], [-0.14578059568611196, 0.46332455187335897, -1.7149498232526679, 1.0891163708770508, -2.1102981270209544], [0.06445791959390289, 0.33149631647384437, 0.7856692518352542, 0.21791028180883215, 0.5443370979592792], [-1.3651468790466599, -1.417217146979871, 0.4943597695219878, -0.38335999823441735, 2.134086015063154]], [[-0.9156595558976952, 0.4817948841209781], [-1.515900306935371, -0.032976597538607245], [0.47802958785814464, 2.794828200022479], [-0.1839780626563889, 1.8566619684557129], [-1.0244908126679597, -0.21351910177206834]], [[1.665431488498679, -0.3416169168012849, 2.1543594119148692, 2.3473168191483658, 1.1839896309636224], [-2.851336962419719, -2.096090484441094, 1.2320770788239808, -1.9080418626933815, 0.49892286133192393]], [[0.2556567403186834, -3.6985234996609506, 1.927960678137456, -0.9378758883150482, 0.4377868401864575, 1.3368752867578353, 0.8392157077516472, -2.463292232737381, 2.0806954921512606, 4.647600245850592], [1.6270106699972595, -0.9972684411388849, 1.587185991595105, -3.597848366746232, 1.3288538988857275, -1.2417343519384356, -3.084951598484126, 1.7661371174218512, 2.1562190941337307, 2.3179278417793356], [-4.420876846765651, -1.6080403846600513, 0.7485576529451718, 2.2124171977373916, 3.0502157055022643, 1.0758095429186612, 1.6434673590393978, 0.5367425356918187, 0.19171222852504655, -2.653976547780938], [0.7758525828055561, -3.557086687714574, 1.0248601515651883, 2.70369767883187, -1.2556275993668962, -2.237646554785083, -0.7552480686098998, 0.7235157755158286, 2.2109279022769455, 2.043950318996138], [-3.164985015500752, -0.8629110719404004, -0.3337080451839001, 2.8058721076560897, 2.050448715885197, -2.9184097680587042, 0.18407135036240493, 2.8147691095766376, -0.4000136378977286, -1.5069310135942542]], [[2.9269732592719686, 1.8620311874492008, -0.6493953398869892, 2.351478256141377, 0.3692290354459583, 1.3339273380267125, -1.8945036415645833, 2.165605896363499, -2.4988271985702455, -3.0376496865614135, 0.23124862922933492, 0.12454232002615123, 1.38203973479107, -3.68226619849079, -0.5305871346210592, 1.4871601533617653, -1.636464625469979, -0.7963915959772399, -0.09913477786140028, 3.767837745791086], [5.0486581075867205, -2.09264945593321, -0.2795479862952556, -2.0502283261829595, -0.513679054978324, -0.0477251142657746, -0.11981611270413087, 0.17481649254737608, 0.7538626838458591, -1.5504404266121123, 1.0089836532139649, -0.07771971528841372, 1.2881378953696, -1.859240650780043, -0.5937806830361705, -3.6225955018248635, -3.488667029501096, -2.434326393871905, 2.5683374296687047, -3.029810955632948], [-2.822160156863444, -0.6040784133165888, -1.8072349455091183, -1.7331680654050257, 0.2884844023914553, 0.26108361384155254, 1.836232916343542, -0.5078999710192508, -1.3127376706491858, -0.9332321741727739, -2.7650324945132048, 2.5041808458425305, -3.3311754495159756, -0.2621687629383194, 2.97507284110469, -0.9512549445893244, 2.449801015609782, 0.06667772347633306, 1.8131144298829105, 4.004457623783412], [-1.8451779113723148, -1.304472469657304, 0.23626684415085122, -1.1269018821056138, 0.06344630954608398, -1.2655613847808018, 1.4801971472951354, -3.508568487396205, 0.5491268968553918, 1.54796154075518, 0.3801604146019335, 2.1135237003536904, -1.3448041831692923, 3.497931041403767, 1.616858189707482, 3.503526679491514, 0.48483834034846507, 0.30342438669164246, -1.2205703169307511, -1.5247078417214677], [-0.0685499387169691, 0.1757092645610741, 1.3498030529939482, -0.46665051604158325, -1.131199385779277, 2.986149707781482, 0.02352348472663331, -2.180548176193081, 2.4012916122690657, -0.9635236215460473, 0.07408309787846236, -2.7667507851986635, -1.064197321571703, 3.6855885345411563, -0.3720239821052052, 2.635578976723001, -0.7783063978025654, 1.0962824282186239, 1.454867810063672, -1.5098701845703424], [-1.6524165184549087, -4.650831598934217, 0.5454272003431158, -1.9221857025534168, 0.3194480975024579, 4.36508283942028, 0.6540575233644387, 1.542746133836605, -2.211120379317379, 0.22324798168779172, 0.5688149761557255, -0.29671724607761524, -1.9078896618927097, -1.5022270370632274, 3.630853277045812, -2.569991329225504, -1.9689281194025257, -1.9993814072531297, -3.0507396673616163, 0.8161990352400927], [-1.5416270179319689, -2.879712164400652, 0.23475960097027862, 3.3629420998859447, -1.1580871317713963, 1.347162055397542, -1.018954207224441, 0.04210616836981029, 0.13091374256512195, 2.3103362461852925, 3.722625415827481, -0.07027672205419006, 0.12389813390654059, 4.692622369684968, 3.318046635363735, 0.19835545975685154, -0.6581972784468428, 0.4216727397932287, 0.14018648666729758, -3.971520854722672], [4.207347430744101, 0.24221010128627235, 1.3070792607621784, 2.5697916376000802, -0.0678288923003183, 1.2187228642585843, -3.313056919363644, -1.292460783026123, 3.5708826000837592, -0.6220168045969382, 0.16776964278058856, -5.589291422497282, 4.341856763724469, 4.355685119994968, -1.3124613511566423, 4.372671323381189, -0.21730160511059043, 1.3117148261617055, 3.938536991655372, -4.0559111269475006], [-1.2706873373308565, -2.0962738506876826, -0.07261451587431902, -0.6172296964513646, 0.6393482490825689, -0.5431531152358814, 0.06919074951372456, -0.43119261628484007, -1.161548317107796, 0.373047240388433, -2.2769641201072948, -0.891362167232227, -2.547189243088893, -1.0512080357506153, 0.9657057874840796, 1.842878843340378, 3.222967458643334, -0.6433949623837898, -0.14847173314872528, 5.218455561786187], [0.9189331045694957, -1.5532647900122816, 0.12536646416066557, 0.8127076404058398, 0.9364181152726275, 2.034550892840073, -0.2426294911210096, 1.1129586321745013, -1.315268969606928, 0.7127649681826964, -1.1745938371053475, -0.792119003930549, -0.44024386216943795, -4.660237616412028, 0.4397049229610822, 2.4738638679071023, 0.8464471020528861, 2.4545094086433275, 0.48033842424153733, 2.5611825713552157]], [[2.62978667242744, 0.9221384743715745, 2.1133985614267607, -1.5414849583355619, 3.050497542726938, 0.05279479160700175, 2.28442131429075, -0.42490035494838263, 1.0335579857823884, 1.1654288710763778, 1.5347953154234166, -2.0782402841914887, 0.26658823196384845, -2.6428749569771037, -3.1021096807876787, -0.7513848421955684, -0.8248474182431247, -2.291882407880799, 2.492492932937095, 1.9961418141077192, 2.5577380139924917, 1.0258549312200527, -0.6424903825896642, -0.08507708489956056, -0.7549559110660852, -1.1356587066629187, 2.902013362520863, -2.3485611926053167, 1.3944189309414645, -0.8434804342639635], [-3.700115398282819, -1.5451993516717875, 0.0330006267721201, 1.3490841376862652, 6.910900152214814, 1.1768581292633011, -3.9333280991518165, -2.88550735510179, 0.8586004939783748, -3.0243913399844327, -0.61103432080005, 2.2827025784561124, -1.7608412980039956, 3.4085161559485826, -1.6639312314236108, -0.14692206961212803, 0.4262959643704407, -0.313096162525651, 0.5214014938873607, 1.3587164699131775, -3.880532159697767, 4.02364191990013, -0.041956324309502205, -1.3786244595624157, -2.3257832367371933, 0.8010101032671316, -0.713326150839153, -0.5419698871959318, 0.17859121569675113, 5.5468650020468], [6.42266530426144, 2.6671870986846646, 0.9251868102532168, 0.393879364853973, -11.793119914478895, 3.0980543633051583, 1.3941295499558934, 1.0469324518478886, -3.2108768321782923, 2.3097000378021404, 0.7358009234358219, -1.0277809037317338, -3.3714725504703025, 0.5660091227379911, 1.1015452862508794, -0.5579191474293579, 1.5693650469749165, 2.4836443843497933, 2.3813730135123308, -1.0665495545529995, 0.7204476169926617, 0.5521436573369176, 1.589002610683467, -0.9770381588691184, -1.3283939912579186, 2.9945373262130723, 2.4090954810521596, 1.002173338754627, -2.5308537868387364, -4.225060240070338], [2.5943439338504235, 3.7413306594481806, -1.150117554164205, 1.5054006513307627, 7.115383068215136, 1.3371646837738116, 5.6288362051488505, -2.810171815273148, -3.706699751771446, 1.0017427735065143, 3.5790979674393295, 1.6412151685439436, 1.2689772239388304, -4.170460250581617, 1.707805209614582, 1.6053310038735789, 2.4126262722215945, 3.4415860172713244, 1.2844195531635585, 1.3145488965144685, 0.713469027721223, 1.62447179270622, 3.0806995006383966, -0.8415717356193791, 1.480431068978916, 1.8732887203261566, 0.38199876150083434, 2.3538718036953137, -7.3634315190309385, -3.8138134491150355], [-1.9075921364920572, 1.0596113198240997, -1.24457496348318, -2.274413597579794, 21.95169626910771, 0.5165474426830242, -0.03647293083479274, -3.2494978925253126, 1.0085646082702258, -4.445515466450828, -0.19808918783679236, 0.5911351239077673, -0.23670347427406774, 0.9530333859551643, 0.48185462397209944, 1.9677650397290634, 2.761491135866017, -3.2997385871476683, -1.1394973597793594, 2.050958770192891, -0.7765963289981188, -0.4541640049216286, 1.5976838048026742, 0.1594809964354618, 0.7476362664082403, 0.016421473441176667, 0.21300451122962244, 2.964235904367772, 1.6874428460401734, 4.143536834460635], [0.2102556397860298, -0.9565553739286873, 0.04481472807990736, 1.4984789145656856, 7.4172621621482495, -4.374964427466846, 2.3551664481257357, -0.4693412219841727, -4.933185968354419, -3.1991432285385804, 0.9120999785207553, 0.7941069967795763, 4.425512807745121, -1.5422951447558206, -1.009733323267595, 1.712865750278185, 3.1147866284304806, 0.8323845228651898, 0.8996044968811855, 2.122259860733162, 3.5605931051085387, 1.6851962416386876, -2.9170910792269105, 4.518190788847387, 4.86815176875994, -3.260792846055116, 3.7902595395098992, -1.1538095117236633, 3.206267578653465, -0.9612114915774989], [-2.6367534743178065, -0.5106306607291138, -0.46889149538987024, 0.3882231200777656, -1.2163241489410173, 1.4428960663250958, -2.881973021474691, -0.6144809705397113, 0.05561206688237438, 2.696704698177982, 3.269565721804275, 1.0361262622146288, -2.856769690018086, 2.013161909727838, -1.8032348787916728, 0.9315638628162288, -0.926253788147327, 0.8772874933580954, 1.018511212203366, -2.0513253065442947, -1.3001417693346788, -2.3308732296138626, 2.7591923467295603, -0.683710164181641, 1.815875113331946, -1.8783814783966635, -1.9735669208992348, 1.3163978027063772, -0.9765259553491198, 1.0622674595435349], [-2.0732880232695896, 1.5225903046354872, -1.6960903127074778, 3.1034825398691903, 7.867461390228712, 0.31030264197350926, 1.6703150908764501, -0.0349336158942514, -1.7133456673203773, 0.49312273562135284, 3.3939398190911123, -0.05031259316648726, -1.108111706323543, -0.6086984716445243, 1.6955375699927506, -0.9778781044425265, -2.2925070409029558, -3.9126914342265726, -1.5116531964745163, -0.17965366203275038, 1.0052254005304893, -1.7227787950437585, 0.8617085041902496, 0.08114352553378812, 1.335300500519514, 0.25170386321469473, 0.8353399246984932, -2.104639877214447, -3.877027050769269, -1.6604215825882522], [2.8050646591914856, -2.0534661992939265, 0.8272070293820107, 0.5289543684354507, -13.849647088132123, -1.4172218742531, -2.8284850488398865, 2.9283930550416892, -0.4656976993947264, -1.5771600516868838, 2.2977278756603043, -1.4802032967234577, -0.5087242855735421, -0.6434689160131213, -0.7439795044805956, 0.6220203769258128, -1.6707985992777277, 3.2656427994326798, 0.612376826616339, -1.023469344525469, -0.7908109735251211, 3.194601246967013, -3.2504642283564014, -1.5994917417927188, 1.0275186057564822, 0.26716445029167063, -2.119202869077656, -0.5679088072744715, 0.7649991886528165, 1.5691312568610478], [2.8851792296163143, -1.0432405792520565, -0.8108150510848318, -2.712308537877292, -5.022007896175743, -0.7997273370176982, 0.6789714763508969, -1.129284121720665, 1.2439046374560598, -0.28770683406004544, -2.4090624586740383, -2.423849219751605, 1.4744030200463007, -3.915095850646407, -2.0113019165196, -0.5925040169227618, -1.8861300020967557, 8.132129703386356, 0.5553482886944394, 5.450156650481165, -2.7049263527099634, 0.7862607369778101, 1.128015634812434, 1.2179738195568275, -1.590484191766236, -0.9258942156827925, 3.0498375668726534, 2.122589718600809, -0.059555147312418066, 0.57312144846338], [4.837019649620041, -1.877700742019408, -1.7314540570802897, 1.6863912681772515, -7.697275137693897, -1.3069185959378506, -0.9697524478051336, 2.2502050220271053, 2.7272259164557178, -2.191122955107787, -1.1198589166961088, -1.8770240349632734, 0.05848137148579913, 1.924924096200516, -1.3835067960333165, -1.7546713555533555, -2.267716858212994, 0.6724044241464113, 2.893387146146163, -1.0263397850909046, -0.9063261472681634, -1.7205906783366358, -2.4553017577788108, 0.07511498810121871, -2.373521946453338, -0.7574220194649253, -1.198597230714279, -2.3425654206561624, 1.6767946078515321, -2.022775913377703], [0.1319659146393692, -0.8209851254388582, -3.5265559774506507, -0.8311834135811064, 8.373330452970151, -0.7562953748487559, -3.963975543542341, -2.913336561445894, 0.7034830511609362, -3.806177687700761, -0.5769414959994013, -1.1397090401095906, 3.98977412315306, 0.49117889242009116, 0.7246162701523734, 0.49966445361942063, -3.5676989128193277, -3.891444617955772, 2.286437366506917, 2.2022301748997037, -1.5227036900297966, -0.02348846953557007, -2.8446330131366535, 1.1060601866490525, -3.7361239977498304, 0.06764565077843698, 2.6057668796371702, -4.0274540356533395, 6.240740512204155, 4.337238634396208], [0.6282405784115973, 0.8958890184655313, 0.13328057802306623, 0.9943495499831698, -4.758174994815642, 2.202326963242241, 3.4982932916620566, -1.3086968283878457, -3.786003577444874, -1.322258042346989, -0.6194448216641281, 1.542771860384092, -0.2518123569886513, 2.90382997374289, 0.8393618132059745, 0.425616024905453, -3.004455754348853, -1.288702652896741, -3.7061404182629536, 0.9347344531044276, 2.3151299192537014, -1.9300776811187463, 3.5790801244635073, 0.34544961813632186, -1.9106415804674812, 4.24888474131079, -0.24222069841265895, -2.58039844112512, -0.7884886692987485, -2.1215931768190144], [3.609605390742091, 2.7651290446614514, -0.8057574580576722, 0.07456582843963286, -8.47882890656257, -2.854472847956168, -2.0621779535605285, -2.6891157997431896, -1.8488790795297545, 0.5296886725184574, -0.25526203548050946, 0.4667008858339176, 1.5681763303344534, -2.346567788854942, 1.2071224737478883, 0.9229699009720583, 2.1584183541233264, 2.9848301766664496, -2.064008990310054, 1.535087360519378, 0.08129049695213467, -0.9648812264528407, -2.115049219929213, -1.4866735258916852, 2.765984974932341, -1.2662398182281072, -0.6320470708198741, -0.3040180625260138, 0.22848083732963845, 3.4588425576663573], [0.5130395177346522, -0.7849877673663664, -4.86089963845653, 1.7204396905655943, -4.140080697453826, 6.014116314982832, 1.5095575795582807, -2.1476475070972025, -2.7449777371605326, -2.4200817796915257, -1.1477582931568344, 1.7216756523163637, -0.12471042678698235, 1.1553251891844039, -4.795702018060542, -3.286588845581522, 0.22719479683891466, 1.0651930406152985, 1.1650648270649993, 3.021037274154128, 2.911314565671615, 1.8418883243303867, 0.2897975026704707, 2.974074893465157, 1.426003361753859, -4.578200877456243, 0.4153466864583471, 2.4735145784609314, -0.5353939008567645, 1.8158640454189225], [-1.6341186131456127, 1.0063603495730078, 0.5368778991498167, 0.025055273453442474, -1.181246100412675, -1.4635104026684567, 0.5026633725720279, 2.3508447630895644, 3.036126334515586, -0.828559149032888, -0.5682311901839396, -0.8274353786332246, 0.646764765420179, 0.8015550744573599, -0.4599035388274523, 1.2255975998333488, -1.801403970401817, 4.082695402151272, 0.37909665908713147, -1.4813708810265669, 3.3877003157963483, -2.1167593469396917, 1.818561125918416, -1.2594056834787664, -0.32547863240266456, 1.1756968245167527, 3.1685455809165255, 5.186001624016566, 0.5672386624549296, -1.6062613007421658], [-3.5312872566807543, -1.7191377126225076, 0.7033516200814849, 0.8587439366657136, 2.42538449628427, 0.994535143285148, 2.563921873370212, -2.795628740997344, 1.9813298195857436, 0.922726859831441, -0.3441769641165153, 2.8591112471619304, 0.01689624148312941, -0.6638497159484247, -2.7156035979724913, 0.2643266162715382, -1.8308602526516773, 2.648151655389304, 1.8793477531067155, 0.4736901489946456, 1.7642328267136091, -2.828751989579589, -2.773879746309147, -1.0074039936076264, 1.4179595125745148, -3.5100413677714215, 2.518642374030763, 3.7023322298618324, 2.1981517005713838, 1.3325840906310997], [0.9609220922100342, 1.152013658089239, -0.16871662143575938, -3.042919512858401, 0.010251582303422515, -0.988833177996275, -0.03149805001019031, 0.34115167827849163, 0.3855652370552265, -1.4923355134109046, 2.5872410364153424, 2.9525651652029707, -0.20218142677978387, -1.8013311575389939, -2.3800566484221757, -1.3374012205572883, -0.2005685898746257, 2.6321652397652158, -1.4226252400883146, 0.6259086079867371, 1.4473743582370115, 2.170363066466971, 1.9714533524545552, 0.7307080149868548, 2.007821484761233, 0.6109982249268033, 1.1525314837537988, 4.511253884872887, -2.427353790083602, -0.6877352322588957], [-2.2024246124757956, -1.3091557136515204, 0.013115897314847727, 2.6277189578780735, -1.3919931526443432, 2.9254120818410465, 1.0719158883033881, 1.452160787320897, 0.2661084841968894, -3.973686426881861, 1.143653227024956, 2.292618182442439, -1.8430944245626673, 0.3709733038972731, -1.55845766358447, -3.493583950703026, 2.5019351029165424, -1.377680480993585, -1.9081210786563667, 0.4486310303233974, -0.3486516590574823, -0.2748967145420207, 4.059454021475752, 2.735495820519881, -2.0911519257709172, 2.288148342295632, 0.11091581247881344, 5.206104785180683, -3.0415375614342546, 1.4866912011292466], [-4.414897487359827, 1.0292938401219542, 1.342118383952461, 0.05170601572495019, 14.501696983834265, 1.0344697654348718, 2.067925291407238, 2.292260286768382, -3.9236833652984258, 1.7693523061075742, -1.2214006464954523, -2.290768715534084, -1.4139926133823535, -3.6937337187788404, -0.3973471674537873, -0.11534713538013222, -2.4177287193456443, 0.46753871050475637, -0.5288790642027089, -0.1998602700794554, 2.724323669807197, 2.0869332048736005, 2.3475212921006476, 0.20165865935596317, -2.4807492947036454, 1.1914600737545002, -3.5576534205812167, 4.328353179040426, -1.6215650769304744, -4.152788744030561]], [[0.3316907841635781, 2.226651576883857, -0.84393140449471, -2.2990273167769653, -0.4294918499308917, 1.7439258251342349, 1.3195609089929352, 1.6168330066877534, 1.5273403557840735, 2.36014477791854, 2.1150216365667593, 1.5152264626394838, -4.938339209827175, -1.1808830062058122, 1.3034792260423043, 0.8655103415651002, 3.290901255666488, 1.8926219081056799, -6.213770297344985, 0.24393042961646222, -3.4311827398260615, -0.04513449818913617, 4.0924470714352505, -2.4061849488137876, -0.7515279870389386, -5.897872873299031, -0.3484587636580116, 4.181977471123336, -2.5202923055350768, 1.983678609607658, 1.649075414665555, -1.9427150359809355, -2.4540786748944003, 0.7968130989211798, -0.5042592518706335], [-0.812829390249164, -6.929798521483759, 5.0086319953747305, 1.5777010010501638, -0.15259805318669573, -6.078415745405785, -2.5290405731189103, -0.2891677230694288, -0.07997659435674939, -2.3071246328527732, -3.291192419058159, -1.6274809584085714, -0.8198016733207788, 0.7334805799993498, 2.7939924132489096, -0.2444903082784086, 0.21076839652792906, 0.16801978631651554, -2.1334480858068523, -0.1447690628035761, -3.636739335186918, -3.432747176528084, 4.885702004176851, 2.0919302643104674, 0.3858705300018649, -3.486849379719562, -2.256908643435998, 0.6859614608938566, -2.0447701370420237, 2.5715993044915546, 3.746624090432008, -2.2495794072886834, -1.6060442410167632, -2.291229107255258, 2.6049845805220384], [0.7431458313615337, -0.6016879393145368, 0.1481900337360047, -1.9661811058267684, 0.12250773761694692, 1.1933912836865446, -4.294901080094856, 3.7907265991228445, -0.24194079443107014, 2.491598959706368, 2.6830349755144827, -3.1172503293001714, -0.9693894215753296, 0.9142579061658556, 1.2855037564554999, 1.679385050284776, -1.2298756356187999, -0.06062590565858603, 2.4862252206416584, -1.954513481113914, -1.0734481201749808, -2.0497321375394626, 1.9651397934168962, -0.7189815094818415, 0.11673999792443136, -1.1130928520715606, -1.4702701093852832, -0.09174701854231225, -0.01616070389564716, -1.3119386348180913, 1.4639171084456437, -0.6369894601575723, -0.6992785049030967, -1.71773548425481, -0.6196591708016947], [-1.7434770559475767, -2.8734016258681154, 0.8949510245633769, 2.2492980972014203, -2.688420406181669, -4.107867316684469, -1.7171816854051443, -4.292192361490378, -0.9338616473394524, -2.719779989405797, -1.856271135934783, 3.4943030839010416, 3.1246482687410166, -2.3698967137564373, -7.340655242584615, -0.17083349770040415, 2.907880586365328, -0.14828019363198358, -4.811216371567271, -0.27615204874380106, -0.47285388265791123, -4.0561369900398985, -2.6093964721372345, -0.9254247899303742, 0.6161261390926721, 0.2321057286138347, -3.2744713803189778, 0.0892384164845184, -3.5387585818156526, 0.2447003872427621, -6.42934924837673, 1.1452304747035031, -0.0020817492096698873, 1.828343201027622, -3.9694587084218282], [0.08392199309698885, -6.004145362895984, 1.4030509336241652, -1.3805854850560413, -0.2637232929666414, -6.26996945703749, 0.1696963659391, -6.9657380120320145, 0.8016832659335101, -6.157928420231873, 0.8620569323473372, -0.016066238722756455, -0.48771528255373175, -8.379873882768749, 0.2951264448309858, 0.12109536026739137, -0.27266443022283493, -0.5472876616628854, -2.8540370492615144, 0.37755901801799796, -1.9551800203310215, -0.020235988313741453, 2.5057747771132965, -0.5070206847367139, -0.4736229518184222, -2.3675484196419974, -0.593066910035348, 2.4709558335261663, -0.9282232001386825, 0.7597211099306834, 0.5922108275108643, -2.167354311744643, -0.6084578043357949, -0.8864054640011836, -0.4610291969406774], [2.6355910715594715, 0.42039959779118824, -1.7829333228175932, -3.09431015067461, 0.4670456968992993, 2.2475186688159763, 0.23913006288897085, 7.1311794755392635, -0.194427566528059, -0.5118656245334018, 0.7565495762916746, -1.0838462113906802, 2.785347514749778, 3.9441949309208257, -1.2190277540283312, 2.041916089625521, 2.0191698893553207, 1.9852143742527464, 1.2862687330154943, -1.2595113993789393, 1.246289357097144, -3.2292188810134825, 2.223310040762795, 0.3101667348376801, -0.9372183642157162, -1.3173577132152878, 1.4444014168562347, -1.1651863035096528, -0.710956772000469, -1.6358909949544305, 3.7529239850724725, -2.201043590986344, -3.478846814964061, -2.12385756673207, 4.653192620351848], [-2.4307099117959123, 1.9008508352159859, 0.4115087836021311, 2.266744493147225, 0.4744286338332922, 1.3445485441434775, 1.944514203137501, 0.7770754454130477, 2.052281840204889, 3.4777321871325175, -3.153074702203505, 0.6587003239159044, -2.7037896823398437, -0.19007356503607262, -0.9030127743322176, 0.5100759266751852, -1.1097952059327736, -3.804150731862327, 1.032632092242331, 3.645867321935093, 2.56917697610933, -1.0404801006125108, -2.354283290055979, -0.717717679782128, 3.6802371901918196, -0.4025792506852543, 1.2535897333028367, -3.1935218307596682, 0.8373311831847756, 2.5439531952817256, -0.7266920444091076, -0.9425163370447631, -2.1396087938331707, -4.2386445807913455, 3.0728111882289437], [-0.5832500039315178, -0.8928589185961108, 2.7119427744520177, 0.8650596047313669, 1.3225806006760643, -1.1024084849316225, 2.004002477860254, 0.3545582098897631, -1.2127540407786586, 4.238172781651622, 0.5708578468290758, 0.15922818253217894, 2.0411672319899914, 3.959027261016358, -0.5457402304513794, 1.7053944871460063, 5.06913528218316, 5.896616869775781, 1.5737719352739221, 2.69908044774273, -1.3581367378268665, 2.146878571713775, 2.3836422258157057, 3.087528926372597, 1.0340817552600787, 1.3595814339509067, 1.362789478827039, -0.23814046240684714, 2.522282170294269, 1.1254017350333894, -0.7096221513615851, 6.602837703115286, 3.9237812245253, 1.8324641299840054, 1.0750460350151003], [-0.06567594922367376, -1.436015565161921, 0.6100554252622449, 4.00326882745159, -0.7084083751457136, 1.1738646610539452, -0.4193665341002912, -4.95969784833787, -2.748908706264987, 0.6904834125048422, 2.3235144394162646, 7.023150350167224, 3.0369890463904667, 2.2675298222137403, -1.5350938504446514, 6.976966803207372, -5.684734176949408, -3.348058121861818, -2.165826684184528, 1.252780786507307, 2.9805763875018805, 0.059667309392450095, 0.8814957983864282, -0.695037744412318, 1.2184293752899917, 3.276586957963669, 1.1516200000172006, -1.6855609979933963, -1.0634008428805113, -2.7857099499184015, 1.7559172718757903, -1.4596299975009828, -0.7673831682004096, 1.3326889088750835, -1.712301157135873], [-3.7688561876587596, 4.485779112972389, -0.3231806208479962, -0.18229238638875592, 0.07715083790065798, -1.2262959887516995, -1.1873432788880003, -2.100629584703918, 0.3677207730715658, 0.20527383417550765, -3.040869827051178, 3.211976001824365, -0.3099982798557036, 3.5941629612716466, -3.373673771740915, -2.7655733460948695, -6.621121283092127, -3.775134939982832, -3.49721172081714, 2.83979535256638, -2.039171979151971, 2.3324748932353, 2.6847237431008657, -0.5796503552819174, 1.1447678679651945, -6.475591541534178, -0.6821658857429685, 2.0623497743862247, -2.5189252793996326, 0.9022326348986246, -2.69774937363314, -4.002983816284053, -3.6673687727576656, 0.3575190670564595, -0.734505674580596], [-0.7271240879463292, -0.0015330520236733695, 2.3027092548043724, 0.20501352049275287, 1.0158260376221746, -0.5546798460389866, -0.6601690437443392, 0.46146585171442006, -3.325775317643995, -1.5274438039936187, 0.7780223848295675, -4.158343002703168, 3.3425855115934238, 3.5160274369470397, 1.5198971111367965, 2.245599962946397, 3.641510805386165, -1.2210040611202033, 1.8916284099140699, 0.06285060418511464, 2.3569660337113616, 4.806360932373046, 4.208758843574266, -1.35151543310778, -2.4043349256664563, 1.5278939776922185, 1.4770413347672824, 3.0486164367223996, -1.4680815330184478, -6.004813543488658, 1.7262670022528008, 1.6243235011769772, -1.5797020425687562, 3.9005387256871273, -2.5087896414381596], [-0.21744511137141306, 2.434027903105338, -1.1242419850004817, -0.801723507565333, 1.350119540414266, 0.7769361262248651, -0.7202880275410014, -1.805504334229457, 0.6874355788399342, 1.2834308656078741, -0.9406042117361899, -3.5456993954233305, 0.051095633883268876, 2.3122624480093585, -0.6213534000597406, -1.0769435046100089, -4.062627636763255, -4.833212071830729, 1.148664925715076, -2.359114746314386, -2.1676417534548857, 2.046673095551723, 0.683997466656525, 1.9743846613102536, -1.207098957534439, -1.7048863093369901, -2.3015467982871947, 0.1486610262979601, 2.69308505310871, 3.311007742730463, 2.275303569659331, 1.7455670920158863, -2.5203458519769004, -1.8554892358307746, 3.546943893599611], [-1.1850658105366998, 3.91809480466544, -3.9424014556564857, -3.535927297917885, -0.4300280672033266, 0.8065829629327647, -0.9040719707723582, -0.420155010838923, -3.350073987526312, -3.0988965121306316, 2.6817204490757622, -0.0935689020497047, 3.315622822870817, -1.3934469617403495, -2.6681904012364157, -2.0940454466617786, 4.780421761399227, 0.4425423016585593, 2.672939202372188, -2.147220163663947, -1.7094629657753384, -0.24898752499362845, -0.13015937438601863, -3.385928577436863, -1.9587818292230486, -1.1383283594754066, -1.065763562639221, -3.2913949595511216, -2.959194092434979, -1.1072309386141221, 2.3638171454174763, 1.8433712754014653, -3.1233166721037833, 1.2053793538404871, 1.1539409808935344], [-1.3694764702785127, -0.44424553616297563, 0.9881142556004179, -0.7187557100779404, 0.3771539186648279, -0.36402828209394933, -1.805253307993856, 2.4256073204685324, -0.7994807855982039, -0.7573892030890992, -2.247373943723769, -1.083938899169537, -0.8075028147580301, 3.446315680941073, -0.41837058871828814, -2.113431892633934, -1.4979606426335994, 0.5332321373569616, 2.460583535874327, -2.288725797515066, 3.5792806085678217, 0.3778064978133587, 3.8936407619413913, -3.215315959719435, 0.1117319902494145, -0.04106838735150588, -1.7615578366206572, 3.8826967665430865, -5.281474383345715, 1.8324608482843772, 0.9947316162344207, 0.1687962975930258, -5.665025240811675, 3.691130273011707, 1.7957827468584404], [1.677303806001024, -0.10768883469164438, -1.946514493287425, -2.5188136522217364, 0.3720814594424429, -0.7241690036375305, -0.23738971789850852, 4.0349651747052615, 0.24749607134611737, -2.1980794762176865, -2.275785667462294, 1.7371148699370391, -0.4824499230522742, -2.1483883717350865, -0.9512134128117096, -1.9091527321803647, -5.091381693179078, 0.6631609704716255, -0.05992180952291042, -1.72972885516472, -0.5754597097262004, -5.444866084398922, 1.2787699694574886, -0.8549352340741312, -0.5103301751965176, -1.7020118039123453, -0.04476631657568721, 1.7878142479607746, 2.426936238083831, -2.129372345436417, -3.1286026479942017, 3.257390742491822, -1.4058550340477065, 1.0537628689953826, 1.7505661907890895], [-3.055422444239986, 0.3919942598132214, -5.63077644233866, -0.5487052551094704, -0.9758432603529359, 1.0422015618055958, 2.0103296692792445, 2.3709761444729724, -3.4818888314938192, 3.074315363981606, -0.704069053660487, 2.086516023553581, -3.144938845817774, -0.47580855208112244, -3.053632868656792, -0.31160935241185506, 1.0260944465571797, 0.2201381153622421, -0.3593651515856484, -1.8042087085990692, -1.9593651739813613, 1.5665671452476784, 1.778405029017341, -4.544619302034912, -2.545654146467835, -2.9670157181259755, 2.818518732170585, -0.21977374186808946, -4.273566003999373, -4.124438946322122, -4.173361779779208, -4.031690913995835, -0.8015773787524605, 1.0783391501932058, -2.231017959044306], [0.030373959535464408, -2.6653731376432703, -5.505578269304542, 1.7109107411148323, 0.15568258002029803, 2.0115250977882932, 0.5976476380908067, -3.273612592950039, -0.8136172663424601, 1.8508698835903794, -4.404435918622007, 1.4960422736365893, 0.9756280346183326, -0.8809282827813549, 0.10846674560118319, 2.7203976652617983, -4.310369069328981, 1.5942963536367185, 0.08846257508960094, 2.103431993926621, 2.479242761943702, 3.028710195120489, 1.7144575998361211, 1.6312327376818903, 4.2265092538826305, 1.0665448733350238, -3.0656231134416876, -2.756436230967736, -3.973012229464271, 3.9549600435064556, -1.1817900919665052, 1.2287847594257473, -0.5554329503231062, -0.3339234744006728, 3.2776332539705337], [0.35333624095659727, -2.5569103183097672, 4.835837526264777, -0.20649050912866726, 0.04074142181352425, -1.9662551139036442, 0.39115032342184863, 3.7969476055318, -1.65616021083724, -3.5692356720131473, 1.6555865153247364, -1.8213154716374378, 1.2436776948698403, -3.1504840627314126, 2.0080927842785514, 1.379354554393581, 5.14604366952009, 3.385399378331295, 3.4271657171808028, -0.5578573585752584, 1.768385844082599, 1.329096960046017, 6.03010399447155, -0.7844496876257564, 0.5026705492053907, 2.0579427982650227, 2.635453614354944, 4.110833984689354, 1.6702370053760136, -1.6288475886993408, 1.3917898796251846, 3.4759657624835802, 1.1392717201479063, 4.536997363395819, 1.359881472558931], [0.10076457699659368, -4.042541396527294, 1.0737556826360177, 0.5924158066969903, -0.6813323455167996, -0.831958372090314, -1.8170367737911877, -0.9314324020911728, -3.7361041996446938, -0.3243074140045608, -5.063962697003785, 0.6611200134266803, -2.5810409482594427, 1.1581789231052235, 1.036040411282829, 4.1921587814407735, -4.082670706657681, 2.8702772125931406, 0.422699207520791, -3.927095281176178, 0.44640136594257673, -0.1366486897791839, 1.0161489017133416, -4.42701856297479, 0.22660560461034496, -0.48037424526000727, -2.059472092992902, -2.1339893822289517, -6.123251289628517, -2.291786678490444, -1.727750329918378, 2.5952910213249076, 0.21306775578368797, 2.9840876968707613, -0.8304324527905358], [1.2051062988873902, -1.9656918191994903, 1.2340534726360992, -0.5629369874129646, 3.9712057555995717, -6.349287607419897, -1.5849267016585813, -3.2571671690128965, -0.5659845836137141, 1.9521814594950895, 1.4618759987816807, -1.2949788328371032, 5.115027296838944, 1.8236533895647506, 0.7090001041581732, -0.6674400304625686, -0.3660963940290896, 1.5156671068635, 0.9835250661384481, 0.6536459955373807, 1.7341453872718622, -0.09632457934246139, 0.5423704491169288, -1.8433535483242014, 2.2384200342634735, 1.5554272410820047, 4.204575547939794, 6.751612078583783, 1.198625899242947, 0.7633489161642631, -0.27248613400157046, -0.05241369114510698, 1.0312685038520863, 2.9791178641274394, -0.9694280017295562], [2.404212657132168, -2.433312439821844, 2.4256400189125538, 3.195246890655938, -0.6381861475457744, 3.1541885839078545, 2.613161130699978, 0.6825117438699592, 0.4152175617956921, 0.05325092736411716, 0.4616688892020831, 0.29474587589885615, -1.2318578522038857, 0.5778659199502202, 1.8473992079576123, 2.9616024598040696, 0.712950295924217, 2.2896161403888167, -0.83610609257252, -2.533683103475035, -1.9517955836686514, -0.47365807862900794, 4.093725111439727, 0.7890182633404282, -1.2918249426280541, -0.04195037896978035, -2.11427313261513, 4.101059916120709, -1.5481090295576228, 0.9074499666710011, 1.4761097135914436, 4.894856782019414, -4.409329254228714, 3.7556994106726416, -0.47904664490290233], [-1.3954588702198345, 4.957306346980277, 4.049290378921755, 0.011156530648963539, -1.6117278411086382, 4.048695755928563, 2.0928453086610848, 1.9002203315779165, -0.8814788801237069, -1.0428777450598279, 3.347519266121108, -0.10134057276139434, -1.8864714216962721, 5.298946317033284, -0.5583742824422051, 0.9999897583210667, -0.5764104231148475, 5.06370632439106, -3.2256937653633546, 1.782299553787219, 3.5519233381, 1.2508554289304046, -1.8668023369937883, -4.7064850559287486, 1.3539499393680605, 2.075379444892576, 0.059088740922533696, 2.1123233273563615, -1.1862656923482517, -3.2762615637175223, -0.9885092858932327, -2.107331086154844, -0.9443837075657837, 0.5323477917953797, -2.1822729856979826], [0.2436392722531686, 6.0141715260332855, -0.13812024009356128, -0.8966751361304347, -0.6616043883480519, 2.1998328953691235, -1.1915903430036356, 1.336032366616842, 0.7082626458932617, 4.400505251115092, 0.6745622532761297, 3.0238341425267325, -0.4054207167757319, 2.480012877680627, -1.521546422051399, 1.5000717694861863, 1.9609949766158645, -0.841002363084057, -3.7566323795693157, 0.6683690136751995, 0.9797086533668021, 1.860279041435589, -0.2901795931043406, 1.3868385876923541, -0.2714374648658379, -0.6094460978371209, -1.9911158865492216, -0.434512820003141, 1.1315295973104078, 2.6556821632848218, -1.7177633095222415, -0.16413715925876235, -1.4531338942548502, -3.810773745480983, -3.176326116561105], [0.4786445734496958, 0.8673645787853104, -0.28280619929593775, 0.48861599311088044, 0.8232583145204577, 2.5979573581527506, -2.0844728404272854, 1.029250603469126, -1.1102825567221988, 4.61777115198105, -0.6120356383750619, 1.0452337390343833, -3.8869919137840365, 2.1827843611850963, 1.6336553544061059, 0.6962247693124772, 2.1335444675164306, 6.377495889136396, 0.11603282396203742, 1.6357735436996999, 0.3681501121117259, 3.5014582802937793, 1.8046205667439714, 3.1396775240390937, 0.8895550549663502, 2.326461041034812, -0.2617827713866227, -0.7080218584128793, 1.3168439484596326, 2.0345862162330093, 3.2693288042453847, 3.4831026810207506, 0.08874303950085508, 6.58139422003874, 0.29606643514398706], [-0.4242885169300578, 0.9096394148793183, 2.6691662681171695, 0.19281445694156368, 0.5884581637760522, 1.564884011355647, 0.46527933946932365, 3.95390729246143, 2.684456977740065, 2.554079107932488, 0.9230382473347473, 3.1518605061091165, 2.491873365069988, 5.336028898034251, 2.9738240885187315, -0.9195184339119579, 1.0961588008047296, 2.4196955647867213, 0.800604683688331, 0.7150009956368852, -3.0921021900174517, -0.1727531449655503, 1.774799429288107, 3.165145113194328, -1.827999639901162, -1.7067020952728444, -0.0016140302176241813, 1.304684926117519, 4.405686083780047, 0.354460414158134, 1.2235582887588297, 2.0093293665640735, 6.047126855612041, 0.37618669549863126, -3.7439911207870438], [-0.14157628194632763, -0.8457380140481369, -1.302147301074075, -2.1570450580933973, 0.27055768504374184, 0.25796779683260057, 1.1777363710492106, 0.9344148728376579, 0.4805137788534377, -4.027526703645297, -2.591617825965109, -0.20339582627851654, -3.0395141476761403, -0.2852648968677844, -0.026529178306704388, 1.1435100973028387, -4.065081846061943, -0.2535103627052621, 0.7399852469111308, 0.5748645387229611, 0.4794623798639053, 2.4732173413336453, -0.7472945179927936, 1.8065686777223446, -0.33988407124496484, 2.5164859224841716, -1.1297672194094759, -0.21223357416564523, 1.6180883614852808, 0.3610959255183684, -0.8566350480088176, -0.14440973125369175, 1.1403054333665625, 3.7467467540649038, -4.178986401866537], [0.7219884370588492, 0.10547326725349208, -4.50011732393225, -4.490079536990516, -2.2865141304548406, 0.39504708089992824, -3.4944200909286898, 2.8902099997853816, 1.6977658530938917, -4.6563479838108135, 0.6702993746617261, -3.1909637346347823, -0.5340876829925134, 0.0851725471262673, -0.6626073294510191, -2.9273198401676095, -4.021134775296831, -2.535733852785298, -0.0875461710960289, 3.9058697565442544, 4.8729285424144395, -6.742433343433876, -0.1521557067145875, 1.987362643305162, 2.2092884611033057, 4.80732595612305, -3.6546859334123014, -0.20302573659170836, 0.586892557330994, -0.20271466682221329, -1.6437841773155268, -2.642876833946688, 0.6317325590594598, -0.989805787408203, 0.3235812672895393], [-0.16119782038721964, -2.2966564951293558, -3.8042458800154924, -0.07239498598947319, 0.29434025639150446, -1.9531312825245104, -0.42972065985198427, -2.01142911681529, -0.8790478610413962, -2.5521791942366425, -2.3650123082261345, 0.35989277425667976, -2.8967619945802414, -2.591433367865247, -1.4100486346877112, -0.3875899011523637, 3.3506659665811616, 5.368280017915579, 0.615332673251235, -0.6132986407545257, 2.439516551479839, -0.18973424730048816, -1.0626267947632588, -1.278817260135141, 0.4801923955397996, 1.092978086879857, -0.5759535697752428, 0.4373734328560262, -1.9771208061397785, -0.5900191020049158, -1.7264697522724617, 4.327749074347309, 2.3643078609339305, 5.809319455952753, -0.496352696934707], [1.454011967353748, 0.5177256586388712, 1.8653928680141791, 2.7589172509578024, -0.19008084214163115, 2.38546758715949, 0.03392181721621726, -0.36454849187379995, 0.7075346365345749, 1.7937610383876632, -3.2467915678970733, -3.9095685753123326, -4.36442073927632, -1.3276083614043999, -1.1583281470046431, 1.6323406400879774, -0.1332269317146303, 1.6368914055206816, -3.5618907099467636, -1.0666161440685311, 1.0155863112716588, -0.5055373363995463, -0.8191142474081093, 3.903744658635578, -1.564663700481412, -2.7366349188809673, -1.9768311914834518, -0.8509379692883609, 2.094656038123274, -1.5908541105826512, -0.05384306302694179, -1.4648827653795844, -1.669451930734433, -5.3517233903636185, -1.6304365723314747], [-0.8938979296703536, -0.31024942306505554, 5.420884544261822, -0.9925051922000035, -0.4830141437906739, -2.3113938618159238, 0.06779673618461965, 4.848720424997579, 3.3825536733677652, -0.8508491504471372, -3.7919655206492986, -1.6304058309313632, -2.0910238939148162, 2.107820633849181, -4.595093934418084, 1.6134698126334956, 1.5195406159609572, 1.3074276335194133, -2.2737196556346437, 4.495523734258004, 0.6892557591946818, -0.44014510684562264, 0.7120378176580411, 2.7477346845008306, 2.295187538463614, 1.6562931193360455, -3.578393677064633, 2.2437856816286956, 0.6654047625662309, 3.483451153194138, -3.502220394261373, 2.0012716558245236, 1.3056250191714447, -1.6930922289535222, -0.8117704446560745]]], "biases": [[[0.6809920422824246], [-0.14872618755600517], [0.5489890584557169], [-1.3603479286853872], [-0.6030148337856918], [1.4504076648554016], [-0.20352977820165505], [-0.16915129011704974], [0.4497054232671179], [-1.006445287106629], [0.7688706823303811], [-1.130967139621028], [2.5320938317774497], [1.6008226070955287], [-1.20778628921505], [0.618676425347368], [-1.0392699304546174], [-0.20345847405999798], [0.7999011408597456], [-0.9128020313456346], [-0.0573847373098336], [-1.3883802044152376], [1.1572441068435617], [-1.9480599000752965], [-0.06003379795641995], [0.3967668885070873], [-0.02631223058226364], [-0.03888200893836555], [-0.5328176099238563], [0.26962174810792566], [0.3223417900834248], [-0.5234929325376916], [0.8141797986599368], [2.201683322153536], [-0.6305935365982286]], [[0.9165570427048504], [-0.8239549739515827], [-0.9859720795139286], [0.6162085242726244], [0.2589726483457494], [0.661667660389346], [-0.775347244241328], [0.20826100899891445], [0.41290659785772726], [0.4895418629756621], [0.012304411972366577], [-0.2961151268250157], [0.028840828895230073], [-0.48246178080399826], [-0.9801869534189857], [0.6368245599301574], [-0.8343681982378095], [0.6701479294751437], [-0.6796681019323363], [0.5410192216781042], [-0.598330776940674], [0.6265741035838959], [0.0460493329378922], [-1.0028555540697814], [0.28508310594500813], [-0.9268441821412002], [0.3756827402427297], [-0.16275997995980385], [-1.1004144393325992], [0.6792298153000949]], [[0.2854805814392542], [-0.32491992339069564], [0.027220310497132017], [0.6093740671876808], [0.5680085966874208], [0.6913275656818295], [0.2705760316837668], [-1.2436116420294574], [-1.4066320832638033], [-0.5889617862446759], [-0.8193670205450243], [1.869385865922708], [0.04613314744183361], [-1.3874949911883077], [-0.24559418298752464], [0.5656969799170432], [1.12153388411612], [1.5552487650168445], [-0.24001839798115532], [-0.2614972939827612]], [[-1.6001562919365442], [-1.1458103518774634], [0.9034932966819342], [-0.20514796633716562], [0.4453078130675862], [0.4366676456296839], [-0.665398518694886], [2.1965471069877887], [-1.341146391753123], [0.0404988199994165]], [[1.4693821532700873], [-0.08306053963260597], [0.11730716254745156], [0.25071902962589776], [-0.03652873376040901]], [[1.3374549533393698], [-0.5451584869621532]], [[-0.3468010498981685], [0.9440931248215708], [-1.2295669055211382], [-0.6058001146563737], [0.22620114220748946]], [[1.7123005004596548], [-0.4508216916220433], [-2.170993124402676], [-0.6461028069152609], [0.2553971913435915], [0.6848705696814652], [0.8820208266316888], [0.2697626038241154], [-1.0741516053212066], [0.8072555089638026]], [[0.44168194702647756], [-0.5180536503536715], [-0.7212738212432809], [-2.0397229426519807], [0.16271757422088498], [1.2124688041251288], [0.2655938300075036], [0.8225216732500941], [0.6121173177932585], [0.8795696196929721], [-0.6951956403278732], [-0.46330646802338515], [0.32393003740021525], [-1.2566427790810781], [0.20280641883418726], [-0.04199278648660666], [0.8560810301063292], [-1.1916940974842534], [-0.2259278591497727], [0.432918582126251]], [[0.09326508491231499], [-1.4324135936158557], [0.03594555812981223], [1.1375317941738532], [-0.05585908912305143], [-1.8365095223890278], [0.2316917403293847], [-2.5275595913098488], [-0.9065955979502358], [-0.8925924594575233], [-0.0738592742639941], [1.4411559709155095], [0.6228185795927746], [-0.5735977990400256], [-0.10105750922412102], [-0.24298270691243196], [0.5489888475428093], [0.5304493667511566], [1.0800808819170076], [-1.4180199013609682], [-0.41287685096637944], [-0.5185228403753414], [-0.5860527817272237], [-0.9431256119288693], [-0.3310118231610129], [0.9855811603610007], [-0.09643615815561296], [0.3031962980758845], [-0.11050891294927039], [-0.6923644147305107]]]}