{"weights": [[[0.09281488525095541, -0.854098577753522, 0.4947747692777952, -0.16172146881951432, 0.4420116565014306, -0.061306882702459924, 0.6892085612865901, 0.6725725402629681, 1.1321102396319234, -0.08684327713539541, -0.3198750896481862, 1.4700510734506202, -0.5275238430986866, 1.7664454258427271, -2.16264078936664, -3.7791559104266454, -1.2486027570297167, 1.7830715065233629, 2.1392256945031027, -0.09156369908926651, -0.6682286563803673, 0.30158664092122434, -2.0515408212073085, 1.119076342992205, -3.0997736934294986, -3.4118274350570874, 1.3990938880235626, -1.259777334165535, -1.1053696434876354, 0.23657561363823804], [-2.2732911876613953, 0.19887683125386998, -0.6922398261190127, -0.19189440551545683, 0.5381364658775847, 3.637394281151955, 1.6785398436044363, -1.2487769767140435, 0.7787658264467753, -0.9957355949073652, -1.3224895294544816, -0.16295339533677886, -1.1217549684703831, -3.3152193720994805, 1.733077875498324, -1.8806176667708547, 0.3499368447643097, -0.6489786441209033, -3.3695124105954672, -1.9167813327560013, -0.7136455664361049, 2.60205996873243, -2.1277191416503087, 1.0229854721489873, -3.6901838651155128, 2.002224215580642, -0.8003578296071333, 1.7403681988316932, -1.4098432671173442, -1.3100642706795447], [-1.0996260495884336, -2.1042083911757676, -0.03324114234148708, 0.19717337418215253, -0.1443652678031095, -1.2301191058044767, -1.3912394340335812, -4.337036507391648, -1.983961429112026, 1.4653571819303817, 0.03418558250919078, -0.8265037570213214, 1.084604272076131, 1.2188059760381276, -1.3569053204690062, 1.365572734441995, 0.6563627409757615, 1.4649030838679669, 1.4690523739652503, 0.9336809798849985, 3.0410209296067965, -1.342119677415046, 0.452744187099762, -1.7178306598687394, 2.425274791651758, -0.6251113705874266, 0.17372800688219744, 1.0627275217308885, -1.599713030190616, 2.079364349261291], [-0.12154886112856475, -0.9385271212700173, -1.487128315182217, -1.610702558533247, -0.7608375248455033, 1.3280913059927835, 0.8339807987939839, -1.0119980705729186, -0.9744781240978356, -1.1288445601941055, -0.9240263870458594, 1.2500913843309598, 1.6100453007951032, 3.634301000319622, -0.8917153571645206, 0.31404298292230587, 0.37884719211115914, -1.7733479779156707, -0.14495908192833834, -0.8303977708506728, 0.518137458685715, 0.32995711608461203, 1.6929344651445137, -2.927088824854163, 0.1310791175013869, 1.0340074289341292, 1.0549145843519923, 0.38742631505887976, 2.4865489690264697, -0.07816572223858723], [5.01614841184619, -1.8030907357297326, -2.098837389441652, -2.8429727566669527, 0.23560376200413147, 2.5373489136173846, 0.7683879070869168, -0.3742668558310626, -0.8232380647486421, -2.5090506073840526, 1.9155704035696215, 2.087630073335158, 1.1875296214510533, 0.863658171368884, -0.38205624368407654, 0.4713330160632426, -0.41997837982010394, 0.9614996856101227, 1.1923145917089475, -1.0541754711380849, -0.6736878921083663, -0.8523076107875818, -0.46882924913222357, -2.5101585423626096, -0.44680409221285544, 0.4425546140453419, 1.8135413179851176, 0.18974518492082873, 0.9155853542957196, -0.2902952832737499], [0.9043296519268487, -1.9636577489881448, 0.05995362785075255, -1.17352431095322, -1.116169147696464, 0.21543727700362247, 0.8424984818276684, 2.475455678875793, 1.075531307002724, 2.960068433687234, -0.6935541904547368, 0.588712754781084, -0.7855406104240981, 0.3282848137114335, -1.9462954164946085, 0.913944653889597, 0.13465094737230662, -0.25942644530930664, 0.18610199202467173, 0.8165939065918345, 0.005710168802340495, -1.3300905758962696, 0.3109472684662855, 2.2133863773165996, -0.64006625522744, -2.489603296127694, 1.3296895830870763, 2.287746384438771, 1.6707156647504624, -1.1654544067344983], [1.070430632122598, -0.10335320629569252, 0.2940241074198184, 0.10839453210232028, -3.1693789127190035, -3.52507085307606, -1.3311410417151, 2.634997605799003, -1.6842342518813727, -0.17143371174753577, 0.20380248162343273, 2.0649411087947054, 0.033637284180886295, 1.579436238960905, -2.2639451889760003, 1.241437843698697, 0.5991702750866136, 0.8038572952762701, 0.9042753919572549, -1.5738331453061662, 0.887868399552781, -0.6675768455553661, 3.6273495677255285, -0.9497173843196325, -0.8053506567998899, 1.2415219331909826, -0.7185287502322479, 1.6428664102099535, 0.31312292750082266, -0.08471673861106321], [3.2993770672047336, -2.301599622126308, -1.8375918613141455, -0.7700106069809858, -1.9351016692420637, 0.7454716949401106, -2.009437680947378, 1.8017793013356482, 0.1317912523186708, 0.979209311497042, 0.09752097082784772, -1.454991458863658, 1.3610486278182712, 0.23815597328638394, -0.9844728787909778, 1.91277797524054, 0.3635785017478874, 0.09113060454519692, 1.3194126626623441, -1.0517720050882193, 2.422753121555134, 0.910403894515931, -1.1407166474726218, -2.9972879759940665, 1.1902635417313583, 1.0322266501202833, -2.5678831160680358, -1.5638575625844902, -1.3253783292303845, -0.7947258033422864], [2.796163618751289, -2.1682090107797625, -0.036065452191145216, -0.36996569472255686, 1.3097223954803463, 2.385442210893292, 0.1806189781249089, 0.34871578307121975, 2.6541338891449624, 0.5732918882952402, 0.2786673428689035, 0.313639326081901, -0.9723354014214518, -1.0314095245770305, -0.9758043175491703, 1.8879364289994007, 0.7851662183426111, -1.1906644041539898, -2.411999191171781, -2.645285962662297, 0.1444492601179126, 0.3982122757121071, -0.36011996357967513, -1.6064422923029607, 1.0591413886397656, 1.9733447451644053, -0.273707100877449, 0.4992155782138602, -0.46575351649637553, 2.572016877805731], [0.9101460272373461, -4.587880058850031, -1.282500737977802, -1.4574523988337789, -1.2330512406798022, -1.6093446543329124, 2.1327761399763654, 2.349044856448273, 2.8784855726213863, 0.5084984586585668, -0.9913442675567505, 0.9179069851112488, -1.3231952844224482, 1.9477849249543182, -0.8217168783000813, 3.471245298344324, 1.197044175719447, 1.1354041576730216, -0.9861617415081866, -1.0448432799627905, 0.5581293527076727, 0.06153152106976272, -1.7084945548372956, 0.20108012732911698, 1.8404361811221641, 1.1919087178653605, -0.6564145980189368, -0.14918228039814135, 2.2051598176717726, -1.1282676368754152], [-1.2604134398801976, 0.3329909291750537, 1.540003838026551, -0.7149571311493952, -0.595483216067405, -1.7908368529649603, -1.3642270392388802, -0.08248777036523035, 0.9630944507766399, 1.6118339937739041, 1.1746849847468088, 0.5305256336477653, -0.24261986025879337, -2.4645344299139795, 1.892345485500249, -0.5796669179747223, 0.9419477406055463, 2.4543614413156516, -0.7403305182276794, 0.55579773435963, -0.9698479048093426, -1.3342297501152773, -1.1174524010212357, 0.8015111124037897, 0.9456517168859379, -0.5799105948114324, -0.6454459324473637, -0.16019821410532378, 0.012985644116448829, -2.12892748427318], [0.6755346070021001, 0.27897437841327366, 2.604349386017259, -2.347384968941725, 0.6400796409070302, 0.8420609480405082, -1.6529253433000977, 0.3976556941014093, 0.12548080415302346, -0.6357924409400852, -0.11667559053757652, 1.8813994959189773, 1.4540408027314033, 1.7300753834076739, 1.022147929599717, -1.4728062630396406, 0.5291928604085899, 1.8339247218799475, 0.5589158704988131, -0.7164213931452453, -1.3328692549497196, -3.339018950756671, 3.3712124556072722, 2.024197981487323, 0.6157697993257225, 1.3971905978337589, 0.15381173203298673, 0.6617592660495072, 0.4189751269590732, 0.0548883204096202], [-0.7269036010729367, 0.9229053998514846, 0.913481865712663, -0.10572123289912769, 0.7700661522669608, -0.6098917919764775, -1.3809104632420128, -1.0947313348847254, -0.2531126576581839, -1.2177720589754926, 1.7000394493636566, -0.9341646618749473, 1.0892634856929029, -0.7846553578085803, 1.0408978680309284, -2.04268096190853, 2.620914596998933, -0.9729176708416462, -0.5661088675977769, -1.821118951536574, -0.6409173122107095, -0.44889075432960984, -0.809815228978805, 0.313155245875928, 0.09899343781142939, 1.0690730044628984, 0.2001944858589954, 1.0590239850596583, -0.27165764756922717, -0.5362096558106138], [-0.6859310629419904, 1.343553372167216, 0.04614828926703671, -0.9291941221149185, -1.072512175687222, 0.9336623054160303, -2.510812089324111, -0.9688760022405789, 0.44212922155990825, 0.6574687555782781, -0.2059557967717166, 2.078733213568325, -0.487174844198272, -0.3502479245956877, -1.0362101702869129, -1.4225093495449581, 1.465274194017897, -1.2605527455728638, -1.463320349264859, -2.9001152726075823, -1.4345888422902433, -0.10434023532022053, 1.1033801984666416, 3.222189858623907, -0.4500523305033495, 0.5148865745235467, -2.028240385413676, 0.21905244733918786, 0.8512738820981895, 0.7786937760192106], [-0.7059667894988402, 0.2887030900771012, 0.7576584431415505, -0.9525674855716078, -0.19769038769410768, 0.49799464987173386, 1.5546730283389356, -0.7552994163771558, -0.4894544162511653, -1.4917123612847767, 1.4956551759899168, 1.8180610737038991, 1.759138161586836, 0.9890611502830473, -0.39329294676956433, -0.13160907530907862, 0.8040175856257618, -0.17735753992663095, -0.24919187971336085, -0.9905738335769304, -1.8032719523267033, -1.5381187142124992, 2.2115193592474487, 0.8454432161521386, 1.6287191023026608, 0.3222662126419045, 0.31380822250660706, -0.06450286481991678, -1.6738088001534028, -1.0570673802792157], [-0.17192474823942122, 0.9935884442397507, 0.41417406573237325, -1.6238956546100196, 0.3521880479367198, 1.0255282267600923, 1.888134311870782, 0.37157471197081055, 0.8712920144101216, 0.2487680435443723, 1.4603065693774075, 0.7222304669910881, 0.7678456660065525, 1.7971132075861318, -0.028545122287296377, -1.174732313357199, 0.37881857867618873, 0.26998359671925576, 0.9124518226230931, 0.3484233995940754, -0.08451262842763764, -0.8002970535002436, -0.970116069760074, -0.1571242229703198, 1.6244880528570596, -0.5786883261119302, 2.6584382360125267, 0.8995629835990379, -0.4469348947828724, -1.6022289058871089], [-0.4451627586455038, -0.7132792010447543, 2.1254337421814395, 1.079980249952976, -2.117486372217445, -1.0533734569215911, -2.242683208303041, -1.9085747574499712, 2.190238575824276, 2.5048223179241016, 1.6202565379457472, -0.3807071620466368, -0.9753711952025726, -2.995747591733894, -0.5169692903640697, -0.8085130882991041, 1.4147863616736007, 0.9122088190166879, -1.856660215813339, -0.917159919285505, -0.32213193663443523, 1.3531059645483259, -0.024514019294340845, 0.9907435043881933, -1.202387465770617, 1.223245045296821, -1.497282001205108, 2.268931996041569, 0.635395990385046, -2.1134249047454046], [-0.05120219520568196, 0.13417097281215004, 0.8943606241744438, 0.10093229888863603, -2.5329736913191483, 2.769326344814662, 1.3694645340128577, 0.7142913503090781, 0.5083008658387405, 1.1078300237855694, 2.1095094138551134, 2.083479086065107, 0.3286521373711946, -1.4372343811175474, 1.7046164383445854, 1.0680936411503565, 0.8110851348799952, 1.2947968477594483, 0.12692084079152716, -1.1134111020021629, -2.5329557283143056, 1.6631635094626462, 1.0063143277861368, -0.9810660235151976, -2.769145689930478, 0.6440004417029386, -0.9302983673774373, 0.501088081046019, -0.9450443373409639, -3.4863190282337158], [0.09392426333112096, -2.0378371210037516, 0.1968269574265653, -0.2076597941098595, -1.6445037208671955, -0.5277631238853172, -1.208317471754071, 2.6981146970978904, 0.48852108609929656, 1.1482049322523664, -0.3039946482009407, -0.3557840519603016, 1.2744786997556992, -2.5060592807399993, 1.4933467755398577, -0.470108702079213, 0.5653291084252813, -0.7791511641832798, 0.9313743528934156, -0.5910190885789494, -1.9734626550852474, 0.7519390498102703, 0.5264163930778311, -3.0234037053218854, -0.7209722914584256, 2.1177249275085743, -3.434903530227851, 0.41794303631471164, 1.1037118646675579, -1.8111199227910701], [1.9441478827632928, 0.8791564826771777, -3.152636548061929, -1.0879222534826711, -0.7570727330702006, 0.9341534816588052, 2.551714481231952, -1.517583103375607, 0.4313538567936595, 1.3963093627490617, 1.057450476352497, -0.17653053423341575, -2.4057063484093195, 0.765988187901625, -3.4892386496131644, 0.01901573242155186, 0.6098833456525119, 2.754467435419048, -0.3617036148121242, -1.2949404156961162, -1.9782651886124019, -0.6415946174554191, -1.6624534469566192, 1.5866030643738127, 1.3376337290186588, 0.5676070219937874, -0.5585724562046258, 0.6624026426137178, 1.6998575915933036, 0.27854161947852013], [1.078766247247079, 0.19310827069560224, -0.22633592023206883, -0.6020590974040428, 0.025367210781409074, -0.4225977151103153, -0.5718176765958133, -0.02801562859600649, -0.7557084116464312, 3.2780486373754063, 1.9814169021472312, 0.8942351682571608, 1.030508118487598, 1.6165271805839698, 0.8188723006326557, -0.5377593154428437, 2.4734748834332145, 0.8266056026584829, 0.08571021120688775, 0.12049709185706056, -1.0104984319112769, -0.051073416238592594, -0.7893271525375152, -0.21294209789032786, 0.23151332520479412, -0.9182300669975645, -0.3852775317009625, 0.7494025701441679, 0.8010885141717904, -2.146867443798948], [-0.24507088983434885, -1.5539232862321313, -0.7945922629455865, -1.326729674829777, 0.28596913728774814, -0.9160535106647524, -1.6057489890881547, -0.5408515992505513, -0.13956473145459014, 0.5840325868395981, 1.363987847616435, 0.8083491776994902, 1.7950152354580557, -0.702597627782916, -1.5988718862746722, -0.9450284687105303, 0.9224888161716485, 0.6269940381796152, 0.4316818154377443, -0.5856544474915242, 1.7376522292142373, -1.2407035631249967, -2.2965741817580714, -1.1904639930733962, 0.18268418408173465, -1.6577990441762063, -0.2887728300643917, 2.3923942925693775, 0.42073301832805093, 1.0424569901300302], [-1.7118562963171535, -0.30297613940838514, -0.7887111855158476, -0.2743303407149767, -2.0443602563293624, -1.0661309361102531, -0.9650242543964285, 0.5527010556006542, 0.4883074412512938, 0.43029542259264336, 0.4125544824920669, 0.1706430202127022, 2.7405024459488554, 0.7337697024696571, -0.6430164465576419, -0.5905798442399324, 2.836594001635115, 2.163298420863348, 0.747669745446564, 0.9622916864048023, 1.1366077533106254, -1.0189498255698126, 0.16252299000362175, -0.04119710466297578, 1.5531684604402172, -0.494771011451723, 0.2797542275532725, 2.522700500122183, -0.2618039785443521, 0.9747348473414928], [-1.7519018347100361, 1.8506642630229133, -0.1171158316934668, -1.15499280706933, 0.3831141866843476, 0.6577744353842715, -0.81234672902706, -2.5826410152712667, 2.7649612791206257, 0.7352969242833355, -2.3554345957148346, 1.7973820120622486, -1.5719775106486524, 0.9133133550283179, 0.29538300462566125, 0.4121444371672706, 0.8631943899492853, -2.023619969284296, 0.40744266012512403, -1.9310375348732602, -2.9068932678065744, 2.4106119457345767, 0.38487376034859166, 2.9243713411486696, 2.3561565210591158, 2.4575395304569176, 0.22253342961895584, 0.22936242658809033, 1.4176151090200138, 0.21723888520480733], [0.8141321283803186, -1.0566436378195232, -5.418993532600293, 0.5732735121811084, -0.12082987957086092, 2.2200881141580626, 3.4159646239394097, -1.0425819518792925, 0.02291071044288889, 2.827178687053095, 1.4753781770116492, 1.1669626176358723, 2.9976610798834677, 1.553132929274798, -1.9849984756662358, 2.33141447997958, 0.1831407559024084, -0.784898947860918, -2.275922483939549, -1.195382466973604, -0.6594398838011102, -2.0621490244752874, -0.6655942396437184, 1.5568093479736866, 1.6430826383988861, -1.0076405802089736, -0.4917172170400856, 2.088855621229313, 2.1939334415121774, -1.6375409285618556], [0.7526215755833409, 1.1853103325322445, -0.09340382756651841, -2.183823297612392, -1.2800055706899047, -1.3698197095788667, 0.10430138244354509, -0.5099811081475446, 3.2776682811637974, 2.882534938656985, -1.4014770633152664, 0.8156326811869434, -0.5937056143072821, -3.12697902734674, -0.1080111421192341, -1.753417524137403, 0.13961340981188317, -0.5633414994119238, 0.02048254738786002, -0.4712918735900742, -1.0371094195241068, 1.2951097768751612, 2.6614585235577417, -1.3056695213212866, 0.4521379624364429, -2.2394305666915404, -1.8846857462571878, -0.11779681852121941, 0.7582848973433687, -1.5506713875446037], [0.9904991987688835, -0.01853088594534388, 2.368726063912774, 1.3920945475258222, 0.32224403400478624, -0.292280940729619, -3.172084698255917, -0.20881247683506707, 1.357312721405523, -1.8520217439551956, 1.3405714304654868, -0.16374885836127345, 1.8698693384002436, -0.12180102854622585, -2.263709374915182, 0.43962681343997556, 0.5460236762976782, 2.44378722136247, -1.8779081415592265, -0.06767142658730173, -0.583204583800587, -1.2025796424603956, -1.8569540577020482, -0.06119558848184423, 0.1741756397724523, 1.9701607830221952, -0.025044886657904424, 0.5163732542034654, -0.2144151323703149, 1.6341725683827908], [-0.784221229501764, -3.102206825086755, -0.5729358932984991, -0.0721630788621861, -2.0122585509718323, -1.5553888592607248, -1.7704910185550728, 0.3400522265283838, -2.893180957150241, 1.746178764307861, 1.880836367084027, -0.841914628225102, 1.9367042304571027, -0.21712661516097934, -0.26545771359208825, -1.0723684703744272, 0.25486030272454985, 0.5961388890244522, 1.2402121559070631, 0.03656118279800676, 2.256709759753792, -0.4649903972893896, -2.0489889092736906, -0.336746124640813, -1.7504295853906673, -0.6985589335596278, -1.203149080783941, 1.0645528509997577, -2.0282784337173614, 0.14141969709594232], [-1.513623708292065, 0.25235274466558105, -0.08002453459093697, 0.5863903179496692, 1.5488716650510737, -0.9425571754430906, -0.8182179680567209, 0.561194344641607, -0.9285149751801379, 2.321701700800744, -1.2108185035001227, 0.9553202292804978, -0.6913604712469975, -2.223171710876145, -0.30416876214589533, -1.459984489227204, 0.978134778912624, 0.4987865577160462, -0.9219145686579359, 0.1655562951287271, -0.4599510080969129, -0.7060390624986079, 1.430098439823349, -1.1895631735553853, 0.9463237632139755, 0.3614365839908663, 2.6053531477305496, 0.9341274951454992, -1.1053943790647787, -0.9436255956600699], [-0.44714204995929224, 2.185525402515414, -2.772889004085616, -0.6987307300156184, -0.06454417594260804, 0.29188602469236163, 2.6288795774393456, -0.2146667931900487, 1.5317328055766188, -1.5005483231970684, 1.3373084517773284, 2.1628756143389896, 1.7735157449169607, 0.7758692169853938, -0.9200909678762285, 0.11267257537694217, 3.271991734584793, 2.1013429616499644, 2.495058838267413, 1.543485063666756, 0.07080756250437621, -0.8875022882376904, 1.178516004508363, 0.8356012203261839, 0.9124030488951724, -0.7242316316585204, -0.08790886859357391, 0.6187583803538061, -0.9089555149547938, -2.5119035471006823], [0.5630266257956067, -1.4611138134693664, 1.1999444977253941, 1.4141575958736445, -0.30903402506010935, -1.343264013316407, 0.23045309375393408, 0.0220470590279481, 3.1191279557645224, -0.746313564573676, 2.4240100325792753, 2.786017208573638, -1.1065081467264504, 0.19658247457392009, -0.2798836253297423, -1.1939189296656314, 0.24283641007421722, 2.245451616216643, 1.570665958040952, -1.2911197543055695, -1.1695401001541272, -1.116849833535635, 0.43880206089804946, -0.3991917838658128, 2.390103254086025, -0.4583184204415206, 0.6333257782530916, -1.3555709616545006, -0.33972472542298277, -2.0879733050246747], [0.1406930008849711, 1.1681158001523941, -1.298653665747171, -0.9182133946645167, 1.146499578511381, -2.032809875476628, -1.145430183858347, -1.9727374394032076, 0.7075945120938119, 0.6006547784518986, -1.019573676875489, 1.413557341101038, -0.708598466185261, -0.45051153301371305, -1.6474995987681311, 0.3340809663726649, 0.9761769843789941, 0.8992039023771757, 1.5898395007297064, 1.376608604488966, -0.2763475900750637, 0.36771460749528684, 3.1868646989523306, -0.3699694692068945, 1.9674847399152524, 0.07746824624757358, 0.060463676707177436, -0.9073925699339197, -0.38909957689909497, -0.19815638242431458], [-2.743366359973939, 1.276867718751336, -0.13942356636143494, -1.6648387511553318, -0.00575171515813096, 1.890698862113298, -1.3748566088143095, -2.4064738713173983, 0.43751928073637075, -0.40393096513996685, 0.08605629209450776, -0.6825785517550488, 1.9278139100128313, -0.18478474325765842, -0.013261733296355096, -1.4285434804345454, 1.4072874955836128, 2.8879869651091004, 1.1768177694064135, -2.8053088194748144, 1.1122609795681522, 0.48645326496951075, 1.2491033824011812, -0.6468919078594055, -0.7846322776905369, 0.8761980070725329, 1.2239118567580525, -0.6412324092335477, 1.3855300602571115, 0.8124798173227409], [-1.3249508638261207, -0.1551462609647415, 2.1944882195330226, -1.9838683070832643, -1.0661842712186305, -0.5471769836843565, 1.2726385386451888, -3.1960633605470323, -0.8030643642634845, -1.0867560454750993, 2.4716660386365445, 1.0450116153516114, 0.8603836243456356, 0.23236975892384734, -0.33721192379367076, -0.4030799505144412, 0.44819497821066, -1.6084602412469278, 0.8348197948879109, 0.17245709571570011, 0.2632615170783608, -1.2518597213049827, 1.0792102359800626, 1.0287241982393545, -0.5610905194970991, 1.5938936824435264, -0.2273705890485651, 0.3653809384478421, -1.701894537553336, -0.16330091598653418], [-0.016089960835604076, -0.26201260199075954, -0.9580431865548811, 1.7292823263110433, 1.2069593995520962, 1.9775835004070395, -0.7665285514639166, -2.06280700482615, 2.1470174709443266, -0.07723703912597554, 1.2690728110666398, -0.668061747553184, 0.9427292679376177, -0.3938426280057223, -1.6896973976689347, 0.3033733271928692, 0.9997652255611249, 1.4274763178958516, 2.3945997329803843, 0.876292075025211, -0.6568314865417013, 0.2396174810974573, -1.4597685692919717, -1.6397604809722124, 1.8901466569587766, -0.6136091022342413, -1.2517210851062353, 1.0828838702902825, 0.08522649866108273, -1.4381610058855678]], [[-2.560895063876847, 0.7404632685430207, -0.12384486271559006, 1.7552294096049128, 1.1453855294435853, 0.31434668974990954, -1.7129495297844244, -0.6066866774657671, 0.6036613298976542, -2.975495015611302, -1.3080000264422362, -0.9537896833207119, -1.0648112804257872, -2.342789158626054, -0.8456614525168018, 0.4222715115887121, -1.4905208960535288, -0.49643530450114415, 1.9938029587499542, -0.9234199952069984], [0.47677565980435943, 0.30468987850879575, -1.1048779066645222, -2.252545149407559, -0.3174044248692993, -0.12183780947494914, 0.26900420038420403, 0.39131835676918225, -1.447607926564705, 4.161773481095206, -0.24368719825337906, 0.022889683694525438, -0.8373351881220314, 1.617556227542765, -1.8583801531157051, -3.487594147219246, 0.29658587422915006, 0.2790847085030544, -1.11155770419333, -0.30021933565313724], [1.91558841882991, -0.8384346062603285, -0.6207024383118789, -2.875783541383334, 0.5572777024899255, -1.2762720356624297, 2.393564018895957, 0.6629917130647467, 0.877751380523073, 1.4659396842107189, 1.9383485887147782, 2.8384712690811162, -1.1361246236362794, -2.1009985506528386, -0.48359405946737266, -1.642469507342958, 0.27901668979072386, 0.9773660774586255, -1.9188006176729036, 1.9727311766668865], [-1.257272073108143, -4.147576009847628, -0.33109751219551725, 2.207241051043942, 1.806788991543729, -1.5626046465573047, 0.9441241419309487, -2.4296582597411027, 0.21484506202799614, -1.8393650144619313, 1.2020490759258222, 0.8608956493879315, -0.1466895094996308, -1.2241971575830215, 0.3113027580833935, -0.14026721343498957, 0.3553565892357972, 1.3209096745714741, -0.9015318742968437, 0.5659645025154696], [0.46016076634853315, -0.5425904062747462, 1.3827629695707093, -1.199646166399246, -0.5381834633961909, -1.2648963432464313, 2.0612150352527423, -0.2319702246741976, -1.4984786138913861, 0.867767756450257, 1.5476119961628911, -0.03431392298105989, -0.31122354765593513, 0.12355720072755888, -2.804899708342649, 0.09167577236130194, 0.38039418679981224, 1.9932963440799483, 1.5096306520703473, 0.19595031026173984], [-3.346654063060728, -1.4089174029820024, -1.041374198891366, -0.6841806606732296, -0.7779261234607848, -0.04228449107644257, 1.0709795332756913, 1.8451952713495283, -0.4370278793249893, 0.03137606857758937, 1.0971851314569514, -1.0936772909484578, -0.7979285669948035, 2.631119592768354, 1.2370667350415965, 2.019537153906137, -0.4048067772010424, 0.8631608070032043, 1.3841777500518666, -2.40187250075883], [-1.463655871237683, -1.1656901386470824, 1.4114243369675021, -0.1803645338087175, -0.5462348363429504, -0.5534659353258364, 0.218485216787887, -1.635216727378352, -0.3366329765531049, 0.22765535915593807, -0.29778316327687565, 0.04928890017919644, 0.4068802169823179, 1.560974274806226, -2.149636030998625, 2.8443722137519383, 0.3599118363579335, 0.06483544706436938, 3.581843824664107, -0.01797322628408466], [-0.17262654115005338, -1.8719373766069058, 2.2906358525164467, 0.02726643298895037, -1.2016397191621062, -1.6242626878330382, 0.3009935666886368, -0.7425161885210424, -0.43038526969253793, -0.4448760358290514, 0.9111377530738634, 0.40224195683309094, -0.41589996523833656, -2.96299921915744, -1.269106427266692, 1.7558206822143425, 1.3560575793862912, 0.41165783201289596, 1.7180267512946528, -0.7253113161859356], [0.998565489764646, 0.6298231163430482, -0.841674439505908, -0.5041757883004291, 1.0661626912557327, 1.66598926729393, -1.8712901240384285, -1.6099524195588264, -0.09034502367138274, 1.229887084912127, -1.7649920479802368, 0.49269554117102105, -0.16859144073676122, 2.7133101089604477, -0.1016972414974073, -0.6691113915110266, -0.24996701866800744, -0.030478608331260627, 0.029249581578963124, -0.47490504212708673], [-0.3990867688513007, -0.5289620411079928, -1.7433472613255239, 1.4308155811362822, 0.17373718864363738, 1.6516805011248623, -0.8047080823482708, -0.15018352081781525, 0.9898132150521677, 0.6522632766926882, -1.6511075476812405, -0.2947438748781467, 1.356783303421363, 0.08322261174963388, 0.5227080896360424, -1.4179356958236606, -1.4895372959499797, 1.6550644832561083, 1.6294746132257891, -3.388811991737662], [1.7087043852036239, 1.3299528205719224, -1.4807019957372998, 0.34113230607595396, -2.9505236241320456, 0.06597642030218608, -1.091195579375881, 0.728041724116594, 2.8028436076895273, 0.16077041035479964, -0.24502449353693798, -0.4982736668661747, 1.1145367499325711, 2.4933372983462623, 2.4266561144584937, 1.4013057055853448, -0.346045571058102, -0.14548897614918843, -0.3774193871163245, 0.2904022785531689], [1.0721503285352882, 0.3456004770958094, 0.0038469383141858104, -0.3800835550213262, 0.25677371789669684, -0.060936108191509124, 0.29153152242336455, -0.19771668930971723, -0.3835948562858192, 0.32777289980992425, -2.1598592283933336, -1.3555100607460264, 1.1269771511428122, 2.102525041150241, 0.4264978473723906, -1.3738861812929344, -0.6743645072624675, -0.6173129864815333, 0.10400457312050919, 0.48040788273718127], [-1.2686711095427627, 1.4668595691505717, -1.5476367743407577, 2.8542010492433745, -0.6242744207581445, 0.5774852548587479, -2.519762013370392, 0.46927664267005303, 1.6096684885991313, -0.13683307014162915, -0.2477610712308229, -1.2113018288656756, 2.023261658562869, -0.474171600930803, 0.09840255658137083, -1.508735490871038, 0.2518198846835284, -1.343455095847517, 0.012057099804724766, -0.2949984422639652], [0.9662732649255711, -1.269344351953903, 0.7750300642599437, 1.0065031779229272, -1.062564807565615, 0.41846149226161383, 0.5430395526013091, 2.8367172918921786, 1.1706304605519022, 0.17410094410078275, -0.6980820781527018, 0.8579034286225938, -0.17003214718332046, -0.9412993471009767, 0.2328332784810075, -1.1121681155113297, 1.3147765272952983, -0.8966274949861351, 3.211816414835831, 0.4378194143331279], [2.2041570488505657, 1.413116239180457, 1.4463908840357664, 1.4360290072558115, 0.25126479210987784, 0.61836520932912, 1.1699688582558725, 0.3704278445355646, -0.09688269422500169, 0.6073349697196282, 3.2718008210916207, 1.0220903733117774, -1.0076637129725006, 0.9739037556591006, -0.30622594977795353, 0.5843560910564687, -0.9842593128065101, 0.0009235397797474611, -2.9091331042050514, -0.837091182398707], [-3.148092111834313, -2.2409720678248464, -1.0004669938998125, 0.958608024985456, 3.825615587476426, 0.22064440087339318, -0.0582962003341455, 0.6661632027465908, -1.5791460338886858, -1.5046297630236949, -0.41213743119170526, 1.2003646201500304, 1.1164311527531032, -0.8079741416470002, 0.10315656742472872, 2.3161031406532864, 1.2668407823630123, 1.0444202346351261, 2.2505724975015173, -0.7264967603852455], [-0.45006827354442785, 1.4023642056533692, -2.718669612880402, 1.1023631402112888, 2.4227550178168933, 0.5950439682173553, -0.9282344058469821, 0.024028745406932575, 2.9871630401477427, 0.48673215888384924, 0.43388811550979567, -2.7478519322943638, 0.18604097606747486, 0.5968860708694809, 2.428887847074886, -1.5848552068189377, 0.71150175028434, -2.0800136606912982, -0.33525411275023786, -1.3594447532297493], [0.4901396503817878, 0.8639839584025173, -2.0311829769094603, 0.8496110093651503, 0.4753540055068277, 2.2245192041203943, -0.48536785379030156, -0.7305269511663018, 1.6006937926605997, -1.2562368271796054, -0.3185108585608031, -1.1366654517018229, 1.282260447086403, 0.8186093512082979, 2.561938079219651, 0.5479804909828894, -0.2431175501522139, -1.3178876758862905, -3.4980065947389387, 0.55982223100138], [1.0351407558664918, 1.183603898716019, -1.1022951060122803, 1.7300796387420139, -2.9145707668460954, 0.5230073270096242, 1.2136335408729153, -0.16775734306510603, 0.6614825382323748, -0.08894296194847631, -0.06017558895507838, -1.0743312205400088, -0.5045728435881471, -2.524493345937325, 0.09476304842088201, -1.1122576777252877, 0.23699856688655546, -1.5570957895942408, 0.19230323474628397, 2.0613358518472276], [1.0120994585756655, 0.3012055382647921, 2.416306412846388, -0.017033375754629133, 0.41551943915044554, -0.8888133622370332, 1.4090169740684195, -1.0386751866508976, 1.0545592623223647, -1.1686752328811885, 1.3715259239327793, 1.7317690929985377, -1.7671660688417141, -1.5504497995502768, -0.022535630675021862, 0.5557822787535045, 0.35206215789039347, -0.0848169686303989, 0.03289378876954979, 1.7394328701765327], [0.303066742848036, -0.6709533126175476, 1.916762354821817, -1.1085275114424529, -0.097068313827521, -1.6851411925224273, 0.892059817960874, 0.7227959362255139, 0.5046811973277594, -1.8695819642427007, 1.5663500225767633, 1.0996790462607422, -2.2579000322387612, -3.066310770138017, -0.29505481439639014, 1.1734993250541348, 1.9880331102185531, 0.11596866293645514, 1.574750647875762, 0.081957498480835], [1.5199440664002069, -1.79651024062131, -1.2760737327980143, 2.0902781585357535, 0.9892793999207801, -0.5504721509670372, -0.006409676121629083, -0.4116932839169211, -2.914892226151326, -1.6242586756705575, 1.7643952678759194, -0.03370603100959358, -1.6783401239315687, 2.6823311763034403, -1.602638653905498, -0.2981431834732842, 0.6878575080012089, 1.6190881093727698, -2.0921778255277697, -1.551076737028313], [3.0293685510434036, 2.0794935550791998, -0.4733296086532237, -0.08993845950799116, 0.3742589022865102, 1.1659752449347862, 2.0576337315544895, 0.08173248265208875, -0.39817126632861755, -0.07666003832027485, -0.7796389082218225, 0.2875558564883426, -0.47082166198065234, -0.24797600318965246, -2.6243396390250773, -1.717808397828107, 0.06044084185527938, -2.127789716653142, 0.9664135028909847, 1.4422952064633796], [-1.0779854813025287, -0.9372192019833907, 0.1762282073397756, -1.2255142511669572, -0.6984070635366036, 1.4766193105873928, -1.3954531929570997, -0.549742450614034, -0.8926987601889654, 4.113573332748414, -1.577950481747422, -0.7079611218807363, 1.0869918914663703, 1.2737958420657827, 2.447775630189154, -0.33802031219592704, -1.055615617426974, 1.343432738191061, -0.42451500073370896, 3.1002562813714762], [-1.8370040769177916, 0.6802175155092873, 1.7626007729456845, -0.7037943837102077, -1.3566597241071756, 0.4233668112516716, 1.1512615515071296, -1.6702447125545212, -0.6520100841601183, 0.4258285614424659, -1.7196587098182354, -2.5828443078845615, 1.948096004541538, -0.9939217205169317, -0.04396289003676767, -2.1050645461198756, 1.4743987048581069, -1.5694813981130067, 0.9262316395527226, -2.395575091425942], [-0.6872563958085806, 1.0277099526018456, -0.9235526065779502, 0.08504268764631016, 2.7631140586472838, 2.597032861454789, 0.023508767081626723, 3.957441002694741, 0.2224738458138353, -0.12141483043652555, 0.23184729280641334, -1.6239340124765522, 1.7319902390607054, 0.8105768238978837, -1.5580165397348682, -0.3591023785476872, -1.3350554537030348, 0.20498940599428203, 0.7451970862365738, -2.384012795199128], [0.3186529057501657, 0.3729798473892053, 0.7683459825687766, -3.581800801573031, -2.582022575281902, 0.4679919044207282, 1.1093272412385689, 0.054136796727717616, 1.4134954348611173, -0.31651820820355003, -0.04095010221672332, 0.43578464600300665, -0.8573980146025286, -0.05530296883241397, -2.0899876226173517, -0.025255127800166543, -0.43873903175689644, 2.5882208959912756, 0.5513045388615772, 2.551754114433719], [2.078349174701489, -0.4957321257393322, -0.35741182305974695, 0.2793378323072639, 1.2607646113272084, 1.8234049660078602, -0.0681257126526467, -1.0595901453515666, 0.10862651075743715, -2.39651808295271, -1.5200215854584074, -0.7977757462401387, 1.7697966022340101, -0.6288917107012244, 1.1551630377891322, 1.6275435293874647, -1.0626903334000892, -1.0248883640797848, -1.847025929862488, -0.19042588192232948], [0.34979738863447146, -0.27180138872309506, 0.25537333057018885, -1.0435100963262998, 0.10791740396032427, -0.8137128777734055, 2.4422734241395374, 0.461078503082103, -1.2689484495292982, 0.4192430206419621, -0.48113206131724784, -0.1721634336824319, -0.04719054821557167, -0.967767130701838, 0.638879662545441, 1.7714225315554104, -1.6842482265569543, 0.23414121313661856, 0.6517727390802311, -1.3989866551475847], [0.15432954492391707, 0.8329347270683483, 0.8193941667885278, -1.0926357686533839, -1.4826752543316284, 0.5922703290721814, 2.8367672958948273, -0.4489509688810507, -0.997661577325574, 0.3029391896266075, 0.5308529131173015, -0.8316579744903723, 0.06159750530573198, -1.6308451111595432, 0.2338199297191453, -1.1235815873185806, 3.2791047900953267, 1.6160802504454217, -1.830497038196619, 1.568595003217972]], [[-0.1142398559659614, -4.150184965285555, -0.5269433304063631, -3.854181171372543, 0.5695419274480946, 0.675751357111329, -2.6060594318010297, -0.4244446033428798, -1.2414796451243861, 0.7323061059061932], [-0.6732932714231383, -0.16092169146337554, -0.7538770497143218, 1.2832032460103917, -0.7974561241508235, -0.12147639667172777, 0.056733622544134686, -4.174939450081908, 0.9249741177169433, -0.788137995852106], [0.11098646082474073, -0.019819348172873154, -0.514194425612256, -0.04198225389924056, 1.6955022215311437, 0.8713250970358452, 0.7184416455067534, -0.9582698083852976, -1.4284541239299329, 1.1458788137390599], [1.855397276084116, 0.9849687332472551, 1.4214227147497533, -0.9747914161303548, 1.412402686999864, -2.367821334642714, -1.748550218669239, -0.07209826508660662, -0.37465333270129514, -0.8765911731804715], [0.08706804227431224, -1.2003248819319032, 3.8920667271023586, -2.67143619452067, 0.0077619329374424995, 2.403302893603002, -2.057706604691828, -1.402047215409748, 1.4604369413284835, -1.8923164609483223], [-0.10168189899989336, -0.6842487955636966, -0.486578602186337, 0.9968991626324427, -0.31992789230978325, -0.7003409142089472, 0.7133194198688751, -0.42345138850138037, 1.1901913908159567, -1.2737452982175141], [-0.5203247326057734, -1.138904692319199, -1.2794282875032519, 1.9798280620058706, 0.5585645498468172, 0.2772660549687277, 0.5477315210399478, 0.3008386948401646, -1.8783764446089712, 0.67987734731172], [-0.32037935300940856, -1.0932504819582143, 1.4545020943116855, -1.4454635831519427, 0.19334202999454791, 1.3632452806147073, 1.2599418030582807, -0.3438005554900641, -2.499237794518896, -0.0679425156356349], [1.170275220090959, 0.8698056429851507, -0.923635356004504, -0.9543520523591926, -5.039589506091365, -4.6159949635398885, -1.0783581303481464, -0.9577127548030381, -0.2485319428903929, 0.788812489111651], [-1.2228402954161108, 0.46067324578281865, -0.44407597002232413, 1.2703801977382323, 2.0210563579538343, 1.1492972825282328, -1.5308338362238367, 0.3118692345711402, -0.2807187397558699, -0.3016888220985868], [-2.160907540875426, -0.20443591336624098, 1.3563249258402617, 0.29837940863972406, 0.18805248073806943, 0.8425539362498283, -1.09171792300502, -0.27816560360719356, 0.0211160105136497, 1.668992829901869], [-1.0884074423264933, -2.1232144120004484, 0.7920462969167184, 1.9913644627941065, 0.5446880501956455, 1.8520396532152599, 0.29805211039103696, 1.2479400292290654, -0.8530520148794133, 2.1293544735068437], [-0.22897047057068867, -0.44094229295814313, -0.8364847510162983, -1.024924703579853, -1.2514372967129779, -0.9355288708971291, 0.16052946127262407, -2.24690070489002, -0.27320138573979136, -1.4364293741062382], [-2.7220006164655697, 1.8375984129219622, 0.2641155762726311, -2.8496694213685356, 0.21129651355443876, -0.4719551633293399, -2.502312216610114, 0.6283124902815236, -2.527639037321211, -2.3293623689032645], [1.2869409930556475, -0.6398669946134893, 0.6207358489521111, 1.0480328059531512, -1.3871831492119124, -1.254860693356086, 0.43863199953416704, 0.548272435749146, 1.7456374244112365, -2.3130528851984447], [-0.6115700429452433, 0.8815467524650971, 2.00582531145079, -3.493154883523915, -1.0931471048582697, 0.17267384709506775, 1.9335664060510669, 1.2213936109590398, 2.253598554280699, 0.12300733918661232], [0.6538893579295888, 1.9906551133330432, -0.9563483582837887, 2.651815919017318, -1.817221288026305, 1.7873612295588397, 1.6321592057393597, 0.5754436308266045, -0.1169491894624264, -0.5636718541152897], [-0.06160371167974628, 0.08710727304977481, 0.029479451171424656, -1.8717704306043343, 0.040441883411295405, 0.1471775083474349, 0.06639547821240663, 1.1990409858564328, 0.08702601749391435, 0.25511940573894665], [0.9919842219950299, 4.816153569312424, 0.862486957072734, -0.01213523352316679, -0.014873241064823427, -0.8898726537979065, 2.585585946282108, 2.2187123699570965, -1.7793896184576612, 1.3469840653242748], [-3.109994852779497, -0.4214848723694287, -2.1671613214098535, 0.06879094600441295, 0.09737314566468276, -1.5490890399863486, -0.12250828048764914, -0.24883337983023293, 1.151668623435876, 1.149047500893153]], [[0.8043762885421859, -0.9837570595111406, 0.760655244078024, -1.3352423715822619, 2.178981411937236], [-1.636678662449136, 0.6450666877272035, 1.008616726208379, -0.8513213555807019, 0.2579675675387991], [-1.927841379214534, -0.40428476247465683, -0.5644505404788663, 2.7277917918554784, -4.698330419819027], [1.6149388906647968, -0.8348077914449434, -1.2130219143024963, -1.2771764288033236, 1.1647444068335155], [0.5378770711299937, -0.22295938364349643, -0.654508317170062, 1.9046940665191225, 0.41840368208730583], [2.1723662283890466, 0.3796469222054233, -1.913517072088058, 0.5683821265337546, -0.4170144716364912], [3.2088674141765225, -0.21354347967275308, -1.9641545521057295, -0.32254643420805257, 2.6156466298115757], [-0.7554503091141803, 1.2930298791154482, -1.0903961147160588, 1.3128073955568966, -1.1860935812037128], [0.3654801824797853, 2.5136316752016246, 0.6596521349741995, 1.7249980757215138, 1.0555506040043783], [-1.4744180787209955, -0.564957973146874, -3.2656111980724627, -0.32701755992634296, 0.31864909222184856]], [[-1.0973477443660304, -0.26089376822744564], [-0.14782822362437573, 0.573053792940488], [-0.990998949115306, -1.269572086255712], [-1.8156971542190314, -0.35929142530644326], [0.2793180225764397, 1.3493116255853013]], [[5.403410625672588, 0.9430646354780003, -0.18651896381815, 1.3766799955060562, 0.5651094841037293], [3.350236880516069, 0.4843397274366525, 0.21450605387497262, -1.0167622254133961, 1.2944989527064181]], [[0.8236267674106075, 0.8141788889762662, 1.1585045745601825, 0.12868376479784596, 1.3841197541055097, -0.06584764248884208, -1.6207947943791683, -0.7135519249759048, 0.44496788713897284, -0.6301354959702937], [-1.127069399789753, -1.2801995565005682, -1.147336722346715, -0.12659301057889638, -1.3668347334771191, 0.4962621798902295, 1.9171028358533146, 0.6631696702226814, -2.100249859992221, -0.4380267597766189], [-1.1183923026747247, 0.8956369297589378, 0.26209846977578294, -1.377180475436022, 0.752628364270312, -0.6326284052770038, 0.7242550146239473, 0.9348813216488082, -0.1653922639053821, 0.9591814664075645], [0.5595019477659593, -0.22835930857645756, 2.5865576562676007, 2.0068704148036387, -1.189089366755105, 1.8278678467705876, 1.7168476622113436, 3.18123991309134, -1.3942317783201332, -1.2031523462496523], [-0.6630845164586737, -1.648190369372714, -1.9024917282481772, -1.6939404462875816, -1.394053192203062, -1.7465813837344997, -0.11125740982608022, 1.5410134093512662, 1.2108065362068154, -0.07440059637169563]], [[0.05700931133048096, 0.2028398730881442, -1.9280706592184647, -1.9284133697784935, 1.0012882284081965, -1.232362705672935, 0.16668508093162257, 0.7425153906713106, -1.2294757816107322, -0.32236753103602267, 4.1504718622389, 0.5881644635833634, -0.7836158423650875, -1.848865566280609, 0.32325586532903977, 0.17005883919958917, -0.3425715720339773, 1.4222864554680745, -3.439918462827779, 1.7211732093708731], [-1.1145045778280855, 0.8005180304684612, -3.072817305482896, -0.0908814549087526, 0.5834129992448845, -3.4142811593227274, 1.0675861220983889, -1.518609148109789, 0.48365927430249456, -1.585581486308324, 2.907926722271942, 1.3698666474517431, 1.329557698680586, 0.5641032211690311, -1.328475040560055, -1.6686138599549907, -0.48077401297873046, 1.1868445960360972, -0.599348365052932, 0.3722846247127875], [2.520006324842786, 1.1404692319159342, -0.4850166071383182, -2.035515796719176, 0.7142336922203475, -0.852189367206855, 1.0875951640210473, -0.5259277518320717, -2.151754155754281, -1.1690447412393896, 5.547398641708348, 1.9486179986739232, 0.46015601568876763, -1.5110873812848196, 0.5038795828441275, 0.0823931710104379, -2.4852420387361787, -0.8958398997406138, -3.1098519295155076, 0.012008231864287044], [0.020454943200776343, 2.755971352473313, -0.10745419522461312, 0.5283474793091978, -0.2912227903143351, -0.8849318108100174, 1.0000247060691487, -0.7286458256449269, -1.3443396444464069, -1.1867723798966132, 4.642079538891605, 0.45466076420848883, 0.36626567109736985, 1.2111113772902729, -1.621843664956627, 1.558153985345538, -1.69566941802141, 0.10914241407139721, -0.03741425761288848, 0.31196667980418535], [2.988042361423546, -4.178278598716322, -2.5154778249161476, -0.8018653151718081, 4.174235511172105, -4.514836869529642, 2.7863501555418204, -1.140970651124847, -0.8453926299307777, 1.0920814485144068, 6.231222789806851, 0.31575012059064683, 1.2296134178782268, -4.543694971113435, 0.9421886045313552, -3.3234218113182066, 1.0878599257805255, -1.1461236826041037, -3.188066774067752, 2.773861977261531], [0.6014322449918399, 2.777730672850167, -0.40389792846468303, 1.7321203039074695, -0.5529212120463531, -1.2672285390441378, 0.764998271988022, 0.5189909777234291, 0.021176918728596547, -0.7436805299829348, 3.4175383386014992, 1.112080059322247, 1.1690232761047894, 0.5761251754830568, 0.41530974637263973, 0.4853382724673398, -4.398045824571601, 0.7228717244559436, 0.4512105018644081, 0.5556141594211813], [0.10920690031503313, 5.697335692359057, 1.6717617971474839, 3.747557874006115, -2.2283533207871624, 1.187671028020395, 0.8489863015826155, 0.3333037775961953, 1.2048664288800146, -0.9765897753072126, -1.1772544966190057, 1.0131051577348225, -0.22934125001717548, 4.0597840087363, -1.2022049259823084, 1.8603965341201338, -2.63870311895318, 0.9859170507051551, 0.6043506284195301, -1.6919879680251582], [-0.7643849837984766, 2.7504760350512933, 0.7536932738614543, -0.9250809736608961, -0.26073634095688253, 2.1695177906793126, -4.489618700321079, 3.1435320952458716, -0.1442520630948442, 0.12655098955289046, -0.16558597920005255, 0.3640825358311992, -0.019467597727731198, 2.022464692739874, 2.11300335344284, 4.115827971248999, -0.9374922629826952, 1.1647102487870982, -1.970531150059347, -0.4485090831090668], [0.34614163293166056, -1.8368285658519983, -0.3545333984023847, -0.8526215484441345, -1.165559151120356, 0.6771451456194866, 1.9326425283496096, -0.5606286196221656, 0.3906476132102361, 0.44083657598123605, 0.06606134134889911, 0.34336782749411515, -1.4674238276750733, -0.2613287197685915, -0.2809146949995858, -1.6487190629323583, 2.566410327079046, -1.199435248396925, 1.038560301970565, 1.4757650619040676], [-0.135564268304991, 0.5572033459021735, 0.025851093071427952, 2.2716558767881003, -0.7426842741893699, 0.030413651357713383, 0.623963032243173, -2.943709325697746, -0.4134826565236918, 0.32170876330730513, -0.431915613740608, 0.6084523555044871, 0.8393402702406473, -0.5474599977669254, -1.8917872717151254, -0.9600835759904539, -0.6661043941729957, 0.6480649576087447, 2.292241692818561, 0.2829777220400334]], [[0.1217399692685133, 0.8674719965412632, 0.47866091357221924, -0.4678698345371625, 1.378438210890093, -2.7377533835333407, 2.1525721196524468, 0.9714247089974654, -4.451610321363602, 0.9237178704126912, 2.7879074219865108, 0.5612919561660216, -0.695993858805123, 0.5488258903568596, 0.10308897934498583, -0.9025532769916357, 2.4906725390687305, -1.191256770596447, 0.4334349407670681, 1.546847921030501, 1.6701839776031366, -1.0001205494727436, 0.7790591103167432, 1.1355276407203867, -1.2441418523019985, 0.30645787399770613, -1.0346002390536426, -2.0115336477702948, 0.025247662361518916, 0.5797189779230516], [-1.9049256568472284, 0.5192071986208195, -2.500887820147649, -1.3283244250116666, 2.293999183370449, 1.3734325359460056, -1.5802438421152885, -0.3318931284782425, -3.0312820514915977, 1.1048863512208251, -0.12474985548093442, 0.007430964483349169, -1.2573232392665477, -0.7265401780927151, -0.8441393560200541, -0.39975194038236556, 1.6345102170399688, -4.196656844720863, 0.24626822111684615, 0.0738964873456819, 1.0528976495318612, 1.814394645709618, -0.1976106718215295, 0.3781144490458254, 0.8034959729411536, 0.02082183612784336, 0.19466962539053248, -3.3053847641043164, -1.228334643047054, 0.5499761279682226], [1.722204364268922, -2.0386861487561005, -3.9270631772051035, 2.6625745896002955, 0.18808348735578773, 0.9788576981449479, -0.45975397390742073, -2.3910764059131484, 0.37576039001466677, 1.983147529153194, -2.9343652345843503, -2.239995130830463, 0.6909739864306219, -3.6598248613627735, -3.0326497288116503, 0.06949987980637712, -2.974800829818196, 0.4346189344482419, -0.3460761154752601, 0.1495246304400874, 1.7813511291553723, 3.4888671476035866, 1.6665015731773214, 2.335890045636219, -0.29087759100284777, 0.1937054991982839, -0.03374879567468865, -0.057978460418847154, 2.6907001722903714, 1.210049460833882], [1.0277663308610576, -0.26613046712026395, -2.5983805029093054, -0.18241266116568736, 0.034025755972135835, 1.7400651282145276, 1.037665149253716, -2.191525120649159, 0.6973137694503408, -0.7714068668846649, 0.17398717530710703, -1.3786814532706442, 1.8313368981788516, 0.9748997293325178, 0.8709421804509561, -1.8148668547608224, 1.6595385086433458, -3.1712545951641595, -4.067863421928632, -2.307507327789849, -1.7972676317118867, -0.7154129893077334, -1.2273038166358035, 2.0878647776286487, 0.9563524337488543, 0.5916729523884486, -0.42174277017603756, 0.5280482083354935, -1.3874164289413127, -0.8749730841507509], [-1.7919217573457182, 0.10633042719899517, 3.1791313080171015, -0.0683497071849335, -0.5663475832392284, -0.8233225307395224, 0.5700988956044729, 3.545198100298894, -0.583875308598395, 1.4659099605885322, -0.3459991951714838, 2.8733888249268924, -1.4851451527068493, -0.77771443195268, 1.2590788102529893, -0.5092492969910479, 0.35440337057042864, 2.631428545525397, 4.832564547676821, 0.7328564716374758, 0.23556626991794088, -1.8743879551717364, -0.24891822187719734, -1.7695274705710256, 1.6884963150458785, -0.5990125829723465, 0.4557260479968876, -0.5591673094541457, -1.077931293759429, -2.2673766337772125], [0.08609394379638984, -2.529150084135822, -4.591253695014972, 3.5977424221074874, 1.0308557189558991, 0.11275812280509796, -0.9325090167841014, -0.8159012457278015, 0.99705237677161, 3.568662292792717, -5.187224894337332, -1.2218988715181942, 2.9142605501675014, -4.209264146270299, -3.118191667431162, -1.549923330501471, -1.999899782136222, 3.470163938092851, -0.32327420371064797, -1.715377493374168, -0.051570622379328725, 0.5008601066787032, -0.058574567217575625, 1.4978508775756192, 0.8240437363948764, 1.3589454900878062, -0.7637341299618426, -0.21174388750561618, 1.940365684959461, -0.060042054549077545], [1.2293450984366467, 1.6949638569820173, 1.6986459406389849, -2.8615684273692437, -0.833746226519089, -0.8055729351528216, -0.7289061293483255, 2.0825641885550628, 1.0907456081306914, -5.37748311339005, 3.4409442226524773, 0.8844110433780328, 0.579272468446246, -0.8157507662019194, 2.473949515152363, -0.5827381108866845, 1.5184983111867867, 0.26387096544524286, 0.14619149855625146, -2.542746153561826, 4.4919244564460294, -0.7490506519105272, -2.4866417386440207, 0.27400088404971706, 0.03628084257630768, 1.898840774462779, 0.7366377537665196, 0.5761075801542699, -3.9415602571870996, -0.1880028998312074], [-0.483779007904375, -1.3533302111391892, -0.4850269819205868, 4.559850325749495, -0.41156827053690354, -1.8031690135555276, 0.31992635430137184, -0.32541803985942375, -2.271838174884344, 2.2596160865513766, -1.891053684288458, 1.7777671348137352, -2.2395435212885726, 1.0612538197102726, -1.464427575090291, 3.151193449166223, 0.7924996327792327, 0.9740568349690488, 0.59071186493892, 1.9703312495302396, -2.6457090585413074, 1.3281935935239615, 0.4595607710957679, -0.5654141295595814, -1.0230880478731248, -1.952793401670697, -0.5656120981437781, 0.20077808619640836, 2.730037455157108, -2.1526536481328464], [0.4361412765505371, -2.6206321798622363, -1.2246024642575513, -0.955477438146642, -0.7134976097503382, 2.7919393038327356, -0.8300499019085097, -0.8511084847942472, 3.988124046891252, -0.031191293250177804, -1.828716300736753, -0.8542092956276639, 1.4569844244128438, -2.8553378306588226, 0.3608996752482562, -0.7225606844393913, 0.6804900530099846, 0.4330539610308621, -1.1159737032751964, -2.127443635540583, 0.4546273707480569, 1.4125327125128386, -1.4980519886939598, -1.6162271469028973, 3.953937795063236, -1.0929544555178996, 1.9544669410781694, 0.5580773533771254, -1.71609441629384, -0.6131022237270725], [-0.4795252722696202, -0.22063026876952135, 0.5674453760122944, 0.7580702471138162, 0.21746297139005638, 0.3113703199890572, -2.4041440777569996, -1.8264516834268958, 0.4449140840554355, 0.5615526211868932, -4.30455867905973, -0.08877325571806575, -1.1234991501777702, 0.07261361837214929, -0.15664552066510315, -1.0328372903775414, 0.8693838848291382, 1.5814269521632056, 1.4263923764150588, -0.3478354897712307, -1.2038239679135279, -1.9597471059575482, 0.5401892752865178, -0.8870107902431361, 1.1010762498341968, -2.9958509525613013, 0.05515800103997982, -0.7956880556583384, 1.515796174454412, -1.26487798084244], [1.5555202742196155, 1.089138937179702, -1.3144833501458748, -0.847236654349425, 1.8483363718992383, 0.6291214038226745, 1.3032351664097548, 1.445457958799772, -2.4342177885521745, -1.7249720095991468, -0.6031055403762886, -2.8601311990471845, 4.27645474556624, 1.4414019128904545, 2.3769978660819, 1.5702584364523278, 1.0220414132745945, 2.263346608141835, -1.6832973299980967, 0.3999118286926543, 0.01642976000788239, -3.4272873989845225, 0.9407928364165545, 1.7475045240799676, -1.1369612110467664, -0.5215345999851559, 1.0443379338879903, 1.417574965435047, -3.637862719160184, 1.5374786167916634], [0.8896042965893565, -0.0872520774124281, -0.006087023367701963, -1.239922573413134, 0.7872234798018343, -2.367075222846914, 1.2639841224274744, -1.2872130523825345, -1.246484174135195, 0.11048518111925766, 0.9360143077712358, -0.7739791178389104, 1.7881748811543998, -1.2118563937554012, 0.41910412857895724, 1.2314936786360149, -0.078036244169117, -2.3354319552559546, -1.0832936605089363, -0.2912830277677236, 0.14110093409645053, 1.345114938088706, 1.243607539133873, 0.6100952917159258, -1.3596159466709292, 1.690695677735035, -0.28619088276699634, -0.85855872973987, -1.230267048431367, -0.8940511435862248], [-0.04245691094236715, -0.09329712218237936, -0.49008116850382194, -0.9500807906529526, 0.6043840495139745, -2.620369577562108, 1.681436470776702, 0.9839516851641225, -0.3188797477740607, -0.5376460185331975, 4.675298979599048, 1.6634461085728236, -0.7419249978704381, 0.04578397926794571, 0.7665461197061788, 0.8296121951793402, -1.489470604654499, -2.135599262048005, -1.8799782455716896, -0.8780276446857962, -1.1657381796399253, 0.0324200821463246, 0.6990619977633682, 0.5362832613608969, -2.1836345310629492, 1.343109797874995, -1.4402027740908177, 0.6716383001362097, -1.9823347307186943, -0.6926990793747919], [-1.917811073514602, 0.5876036177240775, -3.522124663023151, -2.121276342875553, -0.7128941572732289, 0.9456133781601868, -0.056187198580323304, -1.27085079978417, -0.1383959249085175, -0.25042332793931993, 0.9547606608002855, -1.1227300751720064, -1.1869945093015675, -1.1105726577917783, -1.0116071271940152, 0.09473557812269798, 0.40209211824787794, -6.276881772075719, -3.8207132768526675, 1.2246572112393068, 1.5028475737723028, 1.7503860300785103, 2.324754036430539, 2.759451952736659, 0.8429705628259848, -1.303349854941253, -2.0770593957347594, 0.009108069909345465, -1.115907169309116, 4.027683097885373], [-1.5214950622399492, -2.4425731985932013, 0.6026825286871259, 0.8553555944939153, -1.0555399003992434, -0.19662889016473512, -0.6665684924657083, 1.363819165140439, -0.4123328897474669, -0.15132392580639023, -2.8686757012986512, -0.23052792603620237, -1.243451261535405, -0.976064270909154, -1.7968173689759424, -0.06965999249425078, 1.4040345402580856, 2.6708817313856237, 3.773730482646627, 1.739723732070419, 0.3950398404064693, 0.8243879013411527, -0.03128295100650303, -1.3365478433109041, 0.1103920649160874, -1.3400709592849875, 0.850471587099028, 0.12961061530200815, 2.1707630445798674, -0.6732869844836601], [1.8248815304228339, 0.11638096806131075, -5.3764126118440645, 0.5644616252493748, 0.44063031582067536, 0.6805870137497931, 2.2181886771819874, 0.7269451175356455, -0.04827710211727287, 3.2861923888660316, -3.819397352370475, 1.6602024618379567, -0.5962444119534044, -0.7675322147804174, -0.7390191116340205, -0.5658585445373437, 1.6791043966415826, 0.32886499573317746, 1.3016518879249102, 3.5614720347876316, -0.8009210424131933, 5.425112782928707, 3.7182530998822174, -0.2819779707294128, -1.730223053006842, -1.0033114230614057, 1.5507532675600686, 1.3634898972938352, 3.6758560519220516, 1.7386281423396068], [-0.8110643734753104, -0.6793060379568547, 2.249101005461729, -0.18439286353345571, -2.8347519409560564, -0.743306273586264, 3.0553491682307947, -1.453722169805031, 2.7408551633145573, -0.3211197828722591, 2.7423608331614964, 0.7074613305987832, -2.940480497384442, 1.7280460766072578, -0.36400865947016, 1.983827935264113, -3.0503909552032398, 2.512341949132215, 0.2614623771786505, -1.843999030842055, -3.6168179923272095, -2.0939169439072436, -2.1207789712491736, -0.8769880812420368, -1.5819479223137611, 0.11606490841513024, -2.219793174768695, -0.9839538911700572, 3.5475982653909632, -0.2937141299652831], [-0.18932664877477615, -0.0446104518591888, -3.95615142817298, 0.48819784787243786, 1.5536757440091535, -0.4195009326705004, 2.1536991644244545, -0.9947285679981865, -1.5206967203294264, -0.5828142848670544, 3.339951623264499, 0.2190437868677667, -0.359410626759438, -1.2446642598560662, 0.4707006541935434, 1.169513003819825, -2.46484622388306, -6.26289373236112, -4.971196134173962, 0.4756870505816677, -0.9911118545207713, 1.0242881862059288, -0.6023339066880001, 2.0333830033906852, -1.008658030158401, -0.47496052521371734, -3.3267826458015266, -0.6445941495880492, -2.2192144192436314, 0.30154981557646127], [-0.9993379908014551, 0.6961664718294688, 1.3170236047797175, -2.059972198160841, 0.498435162951347, 3.459106882519652, 5.338582841750573, -3.9233244037876482, 1.301015573468251, -1.3765968734715928, 0.2702921283742909, -0.6709118759454206, -2.6905450354736122, -0.8756928469525804, 0.6017108101054507, 1.1535911422144547, -1.508639481052681, -2.318474506728075, -2.3112419840082876, -9.070125991039413, 0.18522840456212258, 0.5499419729695164, -1.6567159814988786, -0.20383938234226087, 1.9084685965861385, -2.164744987000318, -0.626781290910644, 2.461610091325032, -0.46539471565969964, -0.4539047998466344], [-1.9240438476466306, 1.4922930673787498, 2.9072936543028325, -0.9921222342726336, -1.8922828524965356, 0.6280507671182834, 0.5225773137471853, 2.8150143900947575, -1.5229325906321878, -0.5887979736812644, 2.554752988310772, 0.10346847281305732, -1.092404650018533, -0.8976950870090759, 2.2827879206424604, -1.8213685007917813, 0.3196735602960163, -1.0155099925837938, 1.8286258248474385, -0.49700793083784744, 1.142040190143188, -3.9393307819737293, -0.5108899462395349, -2.292396719150352, 0.833179424015888, 0.5955135179044541, 0.18238710200029118, -0.08361474148241327, -0.6010171530720732, -2.5372573068084012]], [[-0.8704392718582622, 2.5850488442208355, 0.9050570225496011, -1.2996868617200992, -1.9184170904403637, -0.3135573616442642, -0.785209909011253, -0.6988407927487648, -1.5686899437978354, 1.1280216026180414, 0.5751605004792456, -3.190918077926327, -3.325998795045749, -0.982768007728783, -1.5927520791088003, -3.6129504776183707, 0.8598361616166341, 0.254668520897593, -3.3511165133841687, -0.9868502767066598, -1.7598727630629716, -1.57409326245745, -5.264609968362269, -0.3421786051592157, 0.7285384103554665, -3.586278895668199, 0.7005565394108856, 0.7596380353152253, -2.5453112511634775, 2.400838617907173, -4.691810457524973, -0.1849024749342949, -0.17103131590774173, 2.7907426489908906, -0.5188840572504239], [1.579190754842552, 0.29601089791947405, 1.2965623525115058, 1.941762570221674, -0.7079824114247296, 3.947888910267336, -1.3819576282485793, -1.153174641874533, -1.3397496610400004, 1.2445713634107727, 3.151679716038387, 0.02266996552400254, -2.02241305812252, -0.5080066756640065, -0.8876712901612416, 0.957889902980598, 0.4457945193133397, 1.6177837109398117, -0.29253295460283574, 0.5551369049451954, 1.0615371183423028, -1.7980783137368577, 0.7336347802428774, 0.5350008012097771, 0.1462516607276449, 0.18610122833964918, -0.3302264842577473, 1.5575991453250786, 0.43861889697439765, -4.901625263346403, -2.9489859063796056, -0.3520562481667533, 1.865672162470702, -1.7654257015373924, 1.1165995867770488], [0.009390034748338336, 1.3072102894814792, -3.1023902011312057, -5.014365694625528, -0.2505982178997702, -0.3832299543239802, -3.9005993732167767, 2.7400010238069297, 0.15224736432522754, -2.649449007186631, 1.3580135769345774, -2.6803141621412636, 7.13106647518287, -1.6364243767654802, 0.6309713093356586, -4.004092119243145, 0.28601021663470577, -1.9577742134048706, 0.28923625024619937, -0.6235754376983342, -0.3906576264200867, -4.288285289898537, 3.4819305237400107, 0.11378325154787403, -1.7977979775945794, 0.10064245332207612, -2.9922116202871027, 4.093679391316638, 0.4982057471850313, -1.7875848849578722, 1.3868713439029514, -2.519254978924114, 3.6397700768031087, -0.6389055811924403, -0.543553481472464], [1.598710258039969, -1.0137253065461223, 0.054534663749277595, -2.1342250847912347, 0.6110384381546062, -1.4387992833993224, -1.607958775440608, 0.037442205212876035, 1.5892325652117492, -0.43965721332777336, -0.005783749973431214, 0.7195932655469236, -1.293746712014528, -6.253686165290224, 3.0091456859793735, -2.6125373376926966, 0.47962323270529683, -0.7893107068538434, 0.2538134223390216, -1.5550936438174774, 1.4019885377567531, -0.06260961545595647, 0.06354555330459395, 2.4180055761923542, 0.8555672141453357, 0.3401407113200337, 3.086550329968759, -2.458012853681421, 3.2552467471994, -0.27802201098467627, -2.453071626433029, -1.3061512056808, -0.7935078655199757, -2.2880592843993126, 2.2121369715590866], [0.015835891405415137, -0.05321546248257272, -0.3361974364937576, -0.09385520471984383, -1.8808599123593341, -0.06551754806728277, -0.10036337094736897, -0.16926136165215663, 2.1611893380707095, 0.14678876662514628, -3.088085459193345, 2.7482308860178226, 3.276346787803355, 1.4814752414490762, 0.853076459531661, 0.0855527280422843, -2.3294347542971843, -0.5901116973508913, 0.3343276800780351, 1.5453374802925468, 0.1823086740813193, -0.711429254887836, 5.341862246149365, 2.3186397981751736, 4.334785298717715, 0.8631865448717742, -2.8971821464721383, 1.6646757538472403, -1.567909967288806, 2.8870672354237845, -1.5498803726670909, 1.9446143516228795, 1.4141352731660188, -0.6500060974225919, 5.011416116851409], [-0.4066291722491625, -0.8391297539250907, -2.781558166305636, -0.1378732843304278, 0.11854563744273543, 2.048862594839922, -0.13327729924636603, 1.735855517594393, -1.8308052383579083, 2.8403039987696266, 0.6113126143756344, 1.471799434171719, 1.6798714389294063, 0.07847935381358849, 3.277337445196956, 0.06294484126599088, -0.30129048364012495, -1.899402796260983, 0.5476487482427699, -0.2110790920706931, -2.9774582167310317, 0.16928803982781063, 0.9568422421478551, -1.711951574269611, 1.8048902504755544, -1.428666421512617, 0.376464427285106, -0.021437598406722925, -3.6024639444287243, 0.8486040623768304, 1.5539764066302353, -3.3112213926071514, -3.2860798202360044, -0.16206926930752832, 2.8758170386225115], [-1.2552197329568728, -1.0393734625632132, 1.0991880821951252, 0.45132939323215787, 0.1515331665520573, -0.7796843269888513, -1.8219876709210667, 1.7850837319353554, -0.9834553054376358, 1.4222618434331287, -2.7599514532930334, 1.3082873299861886, -1.9287779090486683, 4.830078601619841, 0.7603368192609478, 1.9414907071112852, -1.5518365255745843, 0.8754706475300769, -3.775252140279546, 1.0401847060767382, 0.13337158168172852, 0.9045811382601165, 2.29366951402481, 4.478271377564382, 1.0147536989151125, 0.529375941004428, -4.332050058443007, -0.3562246618239305, 0.3803644742444745, 1.6645848120644802, -2.002709830917644, 6.271653113063396, -1.7424155908768295, 3.7181126824887327, -2.5044172186974785], [0.0915391488647371, -0.9737746657401143, 1.2073298406092978, 0.2469516265919308, -1.256115478555764, 0.8888145208158744, -0.9173942374734168, 4.417811104736499, -0.045758181035185086, 0.9683958550701778, -0.1654547624855606, 0.6275698242729565, 1.3078859311919957, 0.316455738225995, 2.4351277791115074, 1.7498176911200538, -0.6945740598890027, -3.867763179956504, -4.043901687052624, 1.2231212145182822, -1.6019339364417302, -1.6541657207078078, 1.5994813967158652, -0.34793723663202, 1.639617356202439, -1.0332385421261558, -0.8212574663936815, 2.56526221019025, -0.44712634274637586, 2.04279122372517, 0.005586642676535885, 0.6213035286440663, 0.1174166822613688, -0.4659983860373479, -2.6578052241522214], [-0.31019090300656343, -2.958712315245983, 0.31966601059773864, -0.4871169468340787, -1.5048655735068937, -3.31819748850331, 0.0870632909873775, -0.5036610615540993, 0.8466212795346197, -3.2243080515694005, -2.55351018302513, 0.6473587656078749, 0.9565940518033633, -2.6423401357244725, -0.5072030849585107, -3.3191405867231176, -0.7145103735860476, -3.573497340190575, -3.2636079361134605, -3.0268620380159885, -3.175610325210764, -0.2782191668183375, -4.104435007626334, 1.6704406825670082, -2.0467167598501845, -2.79071505086574, -1.611150596338995, -2.7643070945596704, 0.8102515780924068, -2.7812523080368248, 0.06773944256450339, -1.3386235611739425, 1.4994163924371438, -3.6073303996550687, -0.5740711874713399], [1.9522937514996135, 3.8740846685644037, 2.076937348122569, 1.8542253451040762, 0.24586673624536384, 2.5030330734279533, 0.3708623611922224, -0.8348940460837624, 0.3491659443772565, 2.3767773280321807, 3.850002053698745, -0.5883314566152855, -1.5133527395708195, 0.15249190862804013, 1.0034782643124067, -0.686316190332838, 0.6357768844514359, 4.936364314135806, -2.1115341729817847, 1.325023261705071, -0.874614520068817, 3.0820015769370146, -0.5616378968404084, -1.5038632991210326, 1.775922930458035, -3.5231878266103864, 1.3818241025003801, 1.9265298161281474, -0.48882683328754295, 3.4650153370349006, 2.125287911834886, -1.7070500795736876, 1.9990225771396894, 2.6012246863202697, 0.38041378978128215], [1.0038083064196763, 1.995386178097807, 1.973062005752549, 1.4260856025322073, 0.7729897174313195, 0.7975993275995522, 0.15998064702695297, -1.2849744306768867, 0.36460581868165354, 1.3948340820894318, 2.974525398198575, -0.5439659323310169, 0.6111838882032481, -3.0567107929141963, 0.8874307833440399, -2.8385285540162006, 6.079271613276368, 2.271149176366602, -0.5302831882366535, 0.74063578547611, -0.1997120210946576, 0.3875214667372588, -1.3596767612062661, 1.7310400105495212, 0.6546164391704548, -0.6079970485451983, 0.8964838997209709, -1.5488763565435992, 2.3897565897398056, 4.184325901835682, 0.11685564691210024, 2.123044069207077, 3.316369877042299, -0.1274286942577866, 0.3206135743713744], [-0.37842998299972885, 3.063034974095689, -0.8156102962736483, -1.9940630612344692, 1.7685425860587016, -0.024746947645568104, 2.7082365222231846, 0.8203253713648494, 2.3319240887477743, 2.597557004670864, 1.5242967299816268, 2.987656280457544, 2.033077931633914, 2.0060478466274354, -1.068233188623464, -0.9051000640447657, -0.31521935342297447, -1.2047611978214932, 2.766856451921634, 1.0520696625254338, -0.39471074657737915, 0.7591214407813696, 1.9562182215170318, 0.6700695391694432, 0.2053736571786824, 1.7643631217565283, 2.3372520120290425, 2.959900603780244, -0.49269771960803815, 1.7165610314247768, -1.1889790300423462, 2.668508330525063, -0.7017888825367834, 4.367458894000711, -0.07605184461320305], [0.4095475651466007, -0.689690501960018, 2.227634944286367, 1.5538953584633135, 1.9123520100502813, -0.5669015931597252, -0.5531247994952005, 1.9524691150637536, -0.6206771756390951, -0.06982782728167387, -2.7598216186260576, 1.5832687669033954, 1.6922487516200666, -1.8365192364372196, -0.5668500799321361, -1.462556916608166, -0.5432425197035756, 1.5125871702776787, -0.297389532258021, 1.6640217059965383, 0.027987743208464595, -2.756674054192128, -3.4363477319791302, -1.1312804891388342, 2.870438895352183, 1.1296416487377765, 0.47433159701285377, -0.995265464952003, 0.7944792709725405, 0.9166822125608276, 1.0505785753269057, -1.946442084455096, 0.12398958573649882, -2.215670258547139, 3.4293257483384996], [-0.059647583951514996, 1.0408653533752783, -1.2765121813070466, -0.4916202650226016, 0.1022822822779227, -1.8026283739148456, -0.029782835256848317, 0.5388300276700159, 0.012057412759693218, -0.752243303402238, -1.3576368702245305, 1.5533397740763866, -0.061509663813687804, 1.2541403423527924, -2.814244743901298, -0.27339597951842415, 1.9148973315691575, 2.169076009950885, 0.3810296977337876, -2.331730571431439, 1.440864469126195, 0.5863228505033089, 0.6965439753148849, -1.5107846880476221, -2.4422815752932903, -2.876310350984983, 0.7900622681102422, -1.052197611922483, -2.0020541764631674, -3.772113017860491, 2.3076430109610335, -5.465703104796995, -3.006106071828734, -0.8319133158998262, 4.225926104823527], [2.263827985329601, -0.02530437883684301, -0.9103915864972912, -0.6844693639452455, -0.04530237689083915, 1.1778025316512566, 0.38601590862251944, -0.05791113239200324, 0.5613781923301612, -0.8759960984969195, -0.8138655255036653, -0.12557178157619062, -1.198105262495674, -4.570584380474292, 0.5743005414382639, -0.38620784786178747, -3.972022226425454, 1.9062720994447016, 1.0697355508486963, -4.3380737444584065, -0.8566978136707055, 2.942082427371743, -0.45019890557225833, -1.28468161255145, -0.7840687641280196, 0.8177965705135717, 0.9102808504036776, 2.525118002582139, -1.0740885667179823, 1.5492779141466555, 2.0855144529324283, -1.4959450191869768, -0.512617688653612, 3.237449632142501, -0.011193729445941488], [-0.45952535844317804, -1.1995740206023928, 0.07087438778083678, -0.5843228646165683, -2.0880439763153325, -0.21793259219650934, -1.3969385243301509, 0.46617044576808764, -0.28237942627113055, 0.392837800315016, -0.04084747367821938, 2.404256381055727, 1.8678227993716925, 1.611625580675559, 3.430797006054118, 3.3585593698296123, -0.1031175078617566, -1.0465264562355951, 0.6186852426000216, -0.005629719361157307, 4.381927870439, -2.5991315712242624, -1.5889622470126892, -0.8123638606353782, 0.47714031303126386, 3.344517274435649, 0.03077431132363666, -4.416067821974984, -0.8153803709953776, 0.4158638491677268, 2.610101250262964, 1.494288657441746, 0.49673217686524623, 0.3328769736857147, -0.3199389437155293], [0.33888995345392786, 0.24021056243896938, 1.4711614238783248, -1.3497240642281456, 1.292754861673463, 1.9791824017056907, 2.3855126694850353, -0.17252654048904917, 0.11236328505329479, 0.4468902713160565, 2.024854288705175, -2.8279506795459124, -1.3314211834217247, 3.2792372644562406, -1.8334947938173678, 0.9039439238880445, 0.9061466211274114, 1.0711272425225238, 0.9378267287668595, 1.4466886180064962, 2.318279762444196, 4.95280297970271, -2.4379276636180953, -0.5881156392381006, 2.7304285546998006, 1.804316313986102, 1.2966115593116005, -0.5094286522207601, 2.160610153118189, 4.114933290089273, 2.5732926402782357, 0.7685828396903555, 0.2983004579184382, 0.6645809622342276, 1.014684716377812], [0.17367984471190306, 0.7391585709163306, -0.4004032414312569, -0.42769490243747343, 0.2118445913668959, 0.18815847148238363, -0.43876852026997026, 0.7732849976620059, 0.24146786209679413, 1.3391687341163308, 3.1924189888990795, -3.854995905046938, -4.212032695780592, -0.924304173338467, 1.3521716813881257, -0.03690440552810187, 0.3021076462214478, 1.1725568536285957, 1.1387472983766298, 0.9123712411484176, 1.854880440172586, -0.27283686230579623, 2.815415038045709, -0.7064970138437073, 2.8127807692850384, -0.6328217223537519, 0.9644278209273316, 0.7752600727876378, 1.9230408438151203, 2.4265452834629477, -0.7731323890715693, -1.0712251107667803, -3.2660125143713628, -3.445417943423778, 2.9839953316232295], [-1.1835800967376755, -1.477587221324596, 2.2205516963080068, 1.2833262991171683, -1.809879203674005, -0.4692519938658479, -1.1478054504523505, 1.0783898794848625, -2.3076488091392795, -0.49637119956169234, -3.0929857370811913, 1.3012437734145617, 0.5371100498704674, 1.2131292332323136, -2.307903254202714, -1.6322366726706063, -0.023606415750165123, -2.922005048388929, -2.791488105639937, -0.23002375140929476, -3.198914083183014, 0.45933325948988724, -1.6399802885641586, -0.18193745752187707, 0.41603478972749036, -0.45548539798070814, -2.5445303527818517, -1.0686165957512443, -2.200310946269103, 1.4711846758508194, -3.5874418145830576, 0.10086518385204644, -1.5363578075108562, 2.758322341533588, -1.6566307641186677], [-0.05352458279672316, 0.46414124256656286, -1.1105652516659075, -0.29475739617404756, 0.5098775136009697, 0.8992230112284093, 0.4815629069684923, 2.1724378034015204, -0.19314841670007885, 1.1510774652052664, -2.926780116025061, 0.39323672811494564, -0.5896236971171206, 0.01252539939042259, -1.9018263596679348, -0.5573820324287042, -2.808389632514911, 3.528169834637921, -1.9012395612658488, 0.10387924592590304, -1.1805944640275627, 1.083024475529431, -0.06594514710559692, -0.5425439281903665, 0.41023064922567437, -0.7673921909841702, -2.465240265240456, 2.2703742048445696, -3.6816671683788122, -0.15830548490109547, -2.274675669692149, 1.2616678459742912, 3.237829561097146, 2.8802299728057017, -2.5893510123830317], [-1.0617098078075329, -0.7948598959543354, 0.021946662990783683, -1.85492516984018, 0.41627459365020797, -4.0302208545128355, -3.748189401207287, -2.8970623736736543, -1.8253469250593453, -0.0830038291034034, -1.121917899174193, -0.380189033476222, 1.4244517700116157, -0.3256130349719403, 1.3511441810495364, -0.6397889595165359, -3.4964619710727876, 1.1499668013755473, 1.6637213323651034, 0.17859832810568044, -0.829787748031457, -0.6969685327095747, -1.2520789929127663, -3.9622240757130243, -2.430675047110827, -0.7238705623589671, 3.046002087720602, -3.2820377557383438, -1.0743340630626323, -1.9724913153502843, -1.4431693953665443, 2.8062026522217787, 2.22808474625435, 3.8316698906944047, -3.933228050829573], [0.09381430278949032, 0.5543018661812803, -4.632497556638361, -4.134826849762536, -0.20997299333761357, -0.419680849666181, -4.050500314962973, 1.9195564734225072, -0.3891250378633911, -2.174155624122332, 1.0179418635694406, -3.2784148569256812, -0.5351060520113821, 0.8933624446266155, 1.3337659052949649, -2.8758274476208077, 0.7198817706382797, -2.45521492145541, 0.6004921348238946, 0.6712446094815387, 0.08447820088690755, -2.1420733048317206, 2.5594271032827685, -0.3033411330126146, 2.361819808339649, -0.7099775227414499, -1.6932366631141513, 1.7549515583945285, 1.6944783040068456, 2.7313076257467217, 0.27259205079926674, -2.542660079208624, 0.1884624466437072, 0.8347685306708702, 3.3953123368222182], [-0.4099585863718765, -2.23517083836599, -1.8674352661860896, 0.02372747651183886, 0.27140377623736883, -0.3841926476022856, 0.3652141547927606, -1.137058387384022, -0.10401775452126862, -1.6831001971695734, 2.1008553843778497, 0.14877454465301554, 2.947535435869915, -2.115989296429385, -0.40615143278466254, -0.29976311191232746, 4.994126410948646, -3.972457796588874, 0.6644308532294652, -2.128527824891865, -0.24831341778061067, -2.705479187820353, 0.7344581681667105, 1.6650387007428615, -5.190753926265903, 1.0527032743597586, 0.6838625191471305, -0.17502387797709698, 2.3809450664617455, -4.949552168093877, 2.595689392752874, 1.734101826935407, 2.4541818736891634, -1.383693491141775, -2.592693199282698], [0.72799588740318, 0.8530140730929786, -3.4712654290831395, 1.594509879635436, -0.35792101824496214, 1.5064307460119761, 1.5566834835936614, -0.18288169881708985, 1.0047336667780884, 1.3510148727563198, 3.9898980147046226, -0.06121973693166598, -2.153231726991548, -1.3633178266565324, -0.16853030142374315, -0.24923557591680673, 3.328717960307719, -2.553760349628395, 2.158204196078014, -1.2721295646152984, 1.41309741921377, 0.9851802590163935, -2.8430576726566783, 1.4151341177296781, -1.849896310309927, 4.34849861549389, 0.3248482820837257, -0.8259283637035284, 2.4608284959509623, -0.0904538804047081, -1.210457921228624, -0.15390031495388246, 1.0312383187041712, -0.8327385819103793, -3.192240494443943], [-0.6382743386906738, 1.9511977040649937, -0.48979557550019776, -1.5190760037116635, 1.0153276452215672, 2.371029828640385, 0.8237477305577258, 1.8553950755016508, -1.3202323974887522, 1.4219710893346695, -2.292985313273802, -0.9083343850995408, -2.295424498341807, -0.05009760242993956, -5.199976004390615, 0.13085104878628845, -2.1085096682613704, 1.4104155182345848, -1.5385065803566538, -2.0633219102600817, 2.738421747904002, -0.62199027596704, 0.05647030494786576, -0.892803583939659, -1.5453469537899023, 0.18264691853537512, 0.4462973038258209, 0.7903318816544846, -0.9832738338988717, -0.022093407524242954, -2.63494651710763, 1.4766604154421703, -0.10263264830179167, 3.347811168764453, -3.244688141017017], [-1.8236005986981698, 1.5236730154340463, -4.483994733386538, -3.8365592874009016, -1.7897570260584856, 0.5659603236330092, 2.168422793158186, 2.8094095174225777, 1.9612587790831244, -1.813020058923048, 2.2405603461163315, -0.012680275997123671, -0.9091601194449582, 0.3473848638410272, -0.5169527563707166, -1.879358889568524, 2.6646651098252074, -1.8378083610826148, -3.646077823800573, 0.9081275164248097, -0.30586343591252074, -4.2545704624528415, 1.3480254557804432, -0.3171151780799588, 0.1545497155866021, -0.5581546326738936, -0.1267164444968866, -0.8872625085839004, -0.3818365053117723, -0.5954695872778704, -0.7991390330337212, 0.22243177424813024, -0.4197421504743054, -1.942665117159048, -2.536566979967615], [-2.281568238586813, 1.0565733821486367, -3.8332199690289133, -2.3896944015871395, -0.0055536700538536266, -1.578317147239402, 1.0972654920411828, -3.5278370197225812, -0.16354629961272, -3.1623539448365596, 1.2897387536564293, 0.0801056979296189, -4.403204106688581, 1.7950656785005823, 0.6955059079737248, 1.9198094194888735, -0.6672288202078887, -2.6194021065293844, -2.674458351981494, -0.3027247265850265, 0.7319857606134653, 0.38621048177216716, -1.2095158309905407, 4.304371096963956, -2.694027335616971, -1.0920671589591717, -1.2820866941699447, -4.519381072105086, 2.8913136626250444, -2.3724103323256953, 0.08321065849091377, -0.3469954494676024, 1.1557947706778593, -1.7895283210942683, -0.8606362839841982], [1.20644956623266, 2.713726387454643, 3.0468963647448097, -1.5954694225542803, -0.4467162605370732, 0.40062599711049734, 0.29243983717408356, 0.2716146701925954, 4.290510241426487, 0.16509535110880613, 2.1765523062729684, 0.05475582925388235, -3.503506252019008, 0.7896887974052504, 1.1592998011737343, -0.17437491112718845, 2.367845651699301, -0.5679168430370424, -1.681909744046269, 3.032859942920849, 0.12051145088562605, 0.8430001089487068, -0.10664457768237895, 0.24551642705706567, -0.14692956896676584, -1.2417305628977615, -0.25884198387300733, 0.6211695493180361, 2.5298263857736862, -0.09118013066230085, 0.5045950965944332, -0.7241013229491116, -1.7728624116867773, -2.1252824924812974, -0.4651553769468214], [0.7365632977417339, 1.8827104878369008, -1.5001640703953334, -0.8275547134291685, -1.5415936508530526, 2.529970557899378, -1.869054877830393, -1.717716809115043, -1.0932279878327682, -0.11036649602381568, 1.3822480002156299, -0.7505944549916095, -0.6250458221185852, -0.2282779675562896, -3.1049400930961495, 1.3203058086761745, 1.0487573115113455, 5.690702706921404, -3.5461488991176644, 3.233847682315614, 3.438652016535975, -4.423227546514722, -3.4591807644616703, -2.2791153262671404, 2.980639276148476, 4.272954043704815, -2.7646480884949045, 0.5953350549118399, -2.596230859953935, 2.0801591238245027, -0.1772451237105236, 3.22149607028833, 1.0512178711022817, 1.281183271373381, -1.162271876423048], [-0.8156834007060942, 3.621003699820365, 2.6861975364797357, -4.270141695626554, 0.7278114825587991, -1.3744553807866207, 1.0023551286380834, 1.9362757902249195, 0.7216643832687948, -1.583134454794413, 0.29786733504246016, 0.14693924023112323, 1.4570295244870486, -4.311833486815571, -1.2800454804793584, 0.06413179237563073, -0.7669527729504084, 3.217476075075653, -3.245134757877456, 0.06664089208460455, 0.5286583151451393, 0.3769441393166519, 4.069161416287062, -0.6358881593794846, -1.2795865956849515, -2.8953161317201075, -0.12692479316696087, 4.054524425037069, -0.9772844561055857, -0.6533631616624147, -0.7964151990763952, -2.596904542182917, -0.20225384217287856, 0.6248730352139479, -0.8484770697970111]]], "biases": [[[-0.45846661050420895], [-0.4754224920378465], [0.07849473452804555], [0.5295005462873331], [-0.5433255468349839], [-0.6421459263496209], [0.1472264344410946], [-1.0275786341592508], [-0.6905390693782186], [-1.5982331402698589], [-1.883302778116537], [-0.5614280845549551], [-0.15538976074648436], [0.7988399428115285], [-0.3557461798875608], [0.2745344029367238], [-0.30019829446294904], [1.8264290387740547], [0.8462201905458526], [0.330202546629384], [0.19315761041177365], [-0.9650990108405471], [0.011990419111339377], [-1.2338291603985563], [1.0397066239640547], [-0.4010301972402692], [0.5394957818996257], [-0.7001337255150537], [0.7628631648500295], [1.588494153857404], [-1.1828110016482811], [-0.09819832466106325], [-1.4223139668489386], [0.19817458953653327], [1.6918580734627864]], [[-1.2004557425325257], [0.5637005599512082], [1.057414003022179], [-0.43385281920200147], [0.8883781020212619], [-0.37227552010131076], [1.6771548517736272], [1.0666796601017892], [1.3519070563135227], [-0.1078578406008832], [-2.004304659966505], [-1.556122526112358], [-1.03905006394612], [0.040670024813417104], [-1.0583938506593331], [0.8358700383853812], [1.4610985109786156], [-1.3269661669375636], [0.7157051185775173], [-0.2553574899324136], [-0.2390419583897035], [-0.14529971840920058], [-2.0506454553746516], [1.3813728341488636], [-1.5145290715328277], [1.0629065621345015], [1.5460648747342116], [1.0955832059994566], [0.04950741148375694], [1.0062046458896958]], [[-0.8720953507747442], [-0.43690338098464854], [0.4887028768313004], [1.3009124678413115], [-1.3270186990836463], [0.0957116931463405], [-2.0152900194970296], [0.15275338262868543], [-0.8808044226067282], [-1.44934255210031], [-1.032962435228679], [-1.0313827077425755], [0.07527580382843131], [-0.3125415872101906], [0.5565635356909551], [1.4785347180321275], [-0.5327199420432087], [-0.5534740808027804], [1.4436814134936662], [-0.537564160590837]], [[1.6461295911401919], [-0.3063654921345386], [0.2849923661156687], [1.182264894307029], [1.412828187763091], [-1.077535110045148], [-0.20677311011501], [0.663462297569001], [-0.371574869107772], [0.21950773483185554]], [[0.7825430593366666], [-0.41075623287089047], [-1.7395247710612187], [-0.6218390732752466], [0.13393594564488445]], [[-0.7589643113743769], [0.4501268781785391]], [[1.0537429709852324], [-0.26328507892308467], [0.47716048327687743], [1.6606718227164454], [0.38086566643947056]], [[0.9594505290603752], [0.10339214527732186], [-0.03936635757692491], [-0.6038026307295933], [-2.3428640494927153], [0.6297973000373214], [-0.12975830476060243], [-2.072767303455888], [1.0735175316109369], [0.8208212591710584]], [[1.0111046630026226], [2.3191500956725912], [0.5755228715658939], [0.5980694729497917], [0.08765222001153483], [-0.9138140039796544], [-0.5848993684887053], [-0.6144811244560963], [-1.0275146617257926], [-2.0936909084060082], [-0.9807173657170265], [1.3051156578802119], [1.052574183523387], [0.869154276670704], [-0.9482905833866847], [1.447696763338717], [-0.6706264920445532], [1.416528711219627], [-0.5641020024048822], [-1.7735819143766764]], [[1.9774202865961843], [-0.3804766048300287], [1.2566667688951378], [-0.2923598481525856], [0.7392199086131188], [-1.0363513317600321], [1.6539416229115746], [-1.208610780384949], [1.0637680480904037], [0.5185873516411815], [-3.205236130973674], [-0.9412865030106798], [0.9200713348176873], [-1.1844369581886107], [1.6530185760567773], [-0.22900016324994535], [0.6737067219138437], [0.12719621374298978], [-0.739272478086322], [-0.5158064172132929], [-0.957405618053122], [-0.619691347839958], [-0.5194111310089281], [-0.28729977028115267], [0.10170836289735559], [-0.18888877517415992], [0.6596907773190115], [-1.5988103946205674], [0.5556304542707621], [-1.2948477864804961]]]}