{"weights": [[[0.42432255459923, -0.058810058507904175, -0.3210897466549045, 0.3715315363317276, -0.051171077170649795, 1.3617249701624594, 1.6020972806520795, -1.3025727783180687, -0.30133562208581255, 0.1143895130070635, -1.1672872355696442, 1.3334659387448702, 0.2057870717574658, 1.6115365992405726, -1.2505762611501685, 0.3323365073383701, 0.19845548613432137, 1.1718769607964357, -0.7902615194366914, 1.110299609620399, -1.592745147847913, -0.9045499098366522, -1.1450669985668824, 1.6063214656975422, -1.6942083928752956, -0.03669527587245011, -0.8746502129209629, -0.9404218617857514, -1.4961104832077932, 1.9559279122805757, -0.054739554637048014, 2.1396942919114847, -1.594162289349079, -2.3824417308362507, 0.24528201686218878], [-0.8371192655936323, 0.6367615645877165, 0.9688788955800972, 0.6614993741528998, 0.49037004265621587, 0.8215010242667597, 0.2152478902540818, -0.8074072245454472, 0.8255241905315683, -1.2439942894513556, 0.13781529422302824, -0.7211892376256391, 1.5128058414853582, 0.5297097772422148, 1.6756988219800817, 1.0974764992205845, 0.8114152332546509, 0.4302054287447858, 0.7819046866989207, -0.27830790285811785, -0.8510176536995039, -1.7061076031291849, -0.19772351740406874, -0.015395202939569242, -0.2743901608610604, 0.9606302609761848, 1.0037583153488536, 1.1829360829450626, -1.0618000186655885, 2.173474441090242, -0.008417914424570159, 0.3817488105153946, 0.45178141674442013, -0.48248733650260384, -0.7586975411694025], [1.2463724702087264, -0.7010962987970567, -0.6389894731552498, -0.50701978362444, 0.07253631406765845, 0.9827944594634018, 1.2055625027914247, 0.2695772576987584, 1.0435786157820082, 1.372784503755361, -0.7880201331113704, 0.7022044392845465, -1.8424421961307078, -0.5281203429875884, 0.42726392863664653, -0.5394410223611896, -0.14995731137679302, -0.3971058038061241, -1.0554375236190403, 1.0852106957616097, 0.8375160763243769, -0.7495733672090859, 1.1267770670616855, 0.40834785157129466, -0.27888879664781735, 0.5913659226038704, 0.03367327095029379, 0.5733625157231302, 0.8508936185237681, 0.15070216085302973, 0.4378510614207938, 0.30956310801656006, -1.363742026146827, -1.243844412974147, 1.8710388822966637], [0.7726357567316631, -0.37120485707421574, -0.7606256194198437, -0.9403008300388122, -2.0777624971716095, 0.28728845239180456, -1.1752277035544947, 0.3626517224496744, -0.9925204844707064, -0.5480519126148323, -0.23675180028601064, -1.409517820643947, -1.0341010198325955, -0.09251860168812043, 0.0392851737339655, -1.1037640787047927, 0.5523356532119731, 1.7035983762361315, 0.7943317895305065, 0.2499176019269834, -0.4060002231338527, 0.3455617627932156, 1.1364967096685779, -1.0619627847032747, 1.2739264864566067, -0.44154726714417064, -0.529346171253682, -3.1299576369266293, -0.6576379499835565, -0.6551832312566758, -0.8071815361407626, -0.14906196365461594, 0.7799546299184125, 0.10767466097139644, -0.8716890583700744], [-0.5913468386155014, 0.49171456588990065, 0.2680134238437333, -1.4455605374095086, 0.5421920540405344, 0.6587921536592454, -1.5473485939247844, -0.21314977587353467, -0.4822460738929685, -0.9374119683128183, 0.3788365046589971, -1.4961551777066942, -2.3925110614899423, -0.9636243104395317, -1.3913533669956055, 0.6486728108605472, 0.04765763238186512, 0.45567392907828214, -0.4460849447291716, -0.3643502914742812, 0.17670651242621233, -0.6204928783038525, -0.6570820788377325, -0.05118169277233892, 0.7365122769303486, 0.6959536112592438, -1.77255870976594, 0.8797907820541035, 1.545427497721896, 0.8602912887998768, -0.5547689697336569, -0.06111610818648975, 2.0404662366026014, -0.17314568304664643, -0.21722645341533123], [-1.0890752772341326, 1.7630253775149929, -0.22522094148177327, 1.253423281746518, -0.492004863174351, 1.0629936370213031, -0.2600673383549253, -1.4126770069016592, -0.5175638735971783, 0.4255818514365441, 0.3775671688865256, 0.6713505092253652, 0.9739122461133277, -0.12711938408562107, -1.8155296993287215, -0.40980721405268444, -0.802702498973368, 0.7454420133270012, 1.3506064661460295, 1.1802761007946685, -1.5653303919769106, 0.4366803937147342, 0.4290379930407024, 0.35063179765786734, -0.12224978838068595, -0.5743396582023106, 1.6429486607976904, -1.0526070736117947, -0.7420256226688402, 0.26208975838623666, -0.9736600172270575, -0.689452158738681, 0.05153814354584651, -0.47652706979030135, -0.22987624330887976], [-0.3302114990859083, -0.04928691088463325, 0.7702356981401177, 0.17504540215007122, 1.3512679048801266, -1.9435402086527127, 1.2483969759633744, 1.084789581562183, -0.3699679272820893, -0.14603611054343082, 1.830428389708923, 2.266884030181625, -1.5214604309179747, -1.0861083686622488, 1.212277651416773, 1.0986190056682332, -1.2567887211455413, -0.1326750323907464, -1.2548101214943002, -1.444146733002418, 1.1393367292312246, -1.241464446367006, 1.3064744689962355, 0.4412534993268888, 0.19962868315786392, -0.2778599173308504, -0.38708393203935176, -0.0276571202648711, 0.0907003177610185, 0.7715964335374279, -0.10408301939829322, 0.20980914877688894, 2.4528647326840347, -0.503778295661367, 0.5018747809586722], [2.4616912008492022, -0.793315205509315, -0.21356180657761809, 0.7238621782891496, -0.31929772741303813, -1.0856812719047342, -1.0997436969166379, 1.2599580594909319, 0.27222407192692866, 1.5994114669780592, -0.9744472499883365, -0.2047077813279498, 2.048940256464579, 0.49722211004101485, -0.5591759220412698, -0.007814274265994207, -1.618396119508573, -1.0874212533175909, 0.3919604519436564, 0.6248708614092925, 1.0759920614974487, -1.0289176881360438, 0.770143809769163, -0.2261802819826637, 0.8642187053343181, -0.793010721128891, -1.4047528945421506, -2.2597465257419733, -0.9116753796570481, -1.5052646798833669, -0.0869823762388749, 0.7812918029381576, -2.5794067545529793, -0.1514703134744049, -0.392610509013567], [0.6396861662001391, -0.26360497570930574, -0.17944313735333414, 1.102202695371114, 0.33100271778483686, 0.5946833107948838, 0.14655954100181517, -1.2418998749021044, 1.6069736173355411, -1.300285130408468, 2.012370372806011, -0.23735487620358878, 1.7683552212366092, -0.9376948374607644, -0.2210102707900334, 0.6682850601274678, -0.7335907690373228, 1.1298271353902571, 0.9191206324165816, -0.8547612636888685, 0.04877741864056304, 0.33492218677420726, -0.09113950764889257, -2.1146489656696152, -1.4236129777096214, 1.4358577921195952, -0.28208917996103394, 1.0513493033383792, 1.3371691636404652, 0.4960573191852892, -0.06416929538673832, -0.45689794906802517, -1.4288388395621248, 0.17881647235408885, 0.8194575797329389], [2.298381017008924, -1.062835685055783, 0.22030952480619573, -0.032176761511881785, 0.018313544419716627, -0.6228854349477638, 0.17038728951053608, -0.5533204066423878, -0.5165306211151097, -0.43773284193135215, -0.6367964803466453, 0.586957280913441, -1.108457354151256, -0.4439009654172901, -0.9017489946421678, 0.5258027444727865, -0.010164281934491915, 0.25532910642734136, 0.7875560997043363, -0.759883794718601, 0.5905329565088937, -1.4192644879398868, -0.6378829277055695, -0.5944096948437797, -0.36997446761030905, 0.8815524209350966, 1.5528272281690572, 0.6810537970907791, 1.0201977037860241, 0.923157726986138, -0.7817148321328398, 0.8512111083668441, 0.9499887903238673, -0.07770233113063223, -0.9356276880590672], [0.7167305735465571, -1.2419314615538952, 2.0486104977459227, 0.5119335895330815, -0.029702262017002122, 0.19137482772875564, -1.9732291116390042, -0.3771857491166152, 0.24680045376353255, 0.49855438038740757, 1.227458984840416, -0.6476532380934859, -1.591049617033883, -2.5522239918517258, -0.8817088054581206, -1.063688618512485, -2.120437839127209, -0.43552287249025046, 1.755536598808055, 1.1240495279995146, 0.4317269385973555, 0.5447813717265522, -1.3171219147631577, 0.5126596177034489, -2.321311164042695, 1.3066282682927977, -2.0581013813060305, -0.784542073403241, -1.9095022890731805, 1.3014553562252074, -0.18216388959438656, 1.4870592730746046, -1.0196513278572055, -1.1822515498896928, -0.20667668011671309], [-1.5533320474925216, 1.1772543552724901, -0.2397377754012637, -0.3221106532758965, 1.4961022895314364, -0.8437062600265761, 1.6252770223202084, -0.14292514150533253, 0.6155554112983068, -1.1651303719565709, -0.3015945367725457, 0.48490951483915506, 0.3715656304212222, -0.0755857939425509, -0.3623594876757567, 0.4089775170661874, 1.0377478739059591, 1.1970339651430153, -1.4271248447853275, -0.8910243945288037, -0.917452945746444, 0.5655283505069212, 0.23472117883656543, -0.43835827922583953, 0.15642060444347763, 0.45937405684418614, 1.9410607598282652, 0.013268650302338234, 1.7266785102016253, -0.2850580381441366, 0.043717699198124634, -0.06575853879937392, -0.9993761635812636, -1.0674467685320084, 0.3348949609242902], [-0.05393695557038356, -3.202226118557175, -0.07681123024048465, -0.028129588851553457, 1.0709405887560466, -1.488602065771254, 0.09393738680259947, -0.6305856141652085, -0.82609530227671, 0.09563234588967519, -0.7751689913623406, 0.555032394463294, -0.44618900988199706, -0.6272006383411498, -1.1809184895680536, 0.2933738437821891, -0.44290724133140713, -0.47184672061695265, -0.004239971203942275, -0.2672017288586132, 0.6417734087720717, 0.361219371169367, 0.5088573916080396, -0.35972028278563695, 0.7524451166408325, 0.5089820746146348, 0.2864816003802501, 1.7054451738140428, -0.2726214394267539, -0.05202221850194371, -1.1929181876780142, 0.9700635237478731, -0.9876040128478689, 0.027850726883228764, 0.8562497363666932], [0.10040227913333927, 0.8880924905022416, 0.3439144905732876, 0.307705512224282, 3.2134711953055692, -1.361904912330001, 0.22956527920854541, 0.007608175540000683, 0.2285939224785098, -0.08815831558339901, 0.3445732847845826, 0.694356654820253, -0.5104284445040322, 1.1957913872786403, -1.2003201903621616, -0.33787894114150485, 0.19558443790581265, 0.6120004685707603, -0.5728662199792262, 0.05525887445222403, 1.6954489435312885, 0.30734519207927613, -0.05032379587771348, -0.21627498864871486, -1.1323292912255996, -0.17630885441811855, -1.7354547886486968, -1.895544265962784, 0.5236347381636461, -0.03963819970462474, -1.7653413535884905, -1.302567403805086, 0.3667077333476636, -1.5193393052586814, -1.1114300624135247], [0.34894565970892844, -1.4813450348900914, -0.88405346530558, -2.2883514548359405, -2.1532090514501676, 0.8568945564826782, 0.11514575346912115, 0.325763661550271, -1.5099164096154272, -1.6715887116139894, 1.639086557580074, 0.9484021033906624, -0.8390975351856476, 0.7736156043097969, 0.9258112678062923, 0.8668007480461382, 0.8052829666381052, 2.2376498413224057, 0.03211407966822697, 0.507875557155246, 1.7943243363624721, 1.2755772316629388, -0.27407578363818985, 0.5011518314142711, 0.9031309711024857, -0.6665068237887051, -0.24844050847533983, -0.8248636746847525, 0.8413112372470378, 0.4622317105261267, 1.1295543766394611, -0.3118362156338911, 1.514328959846182, 0.6889672303715413, 0.8118784564190961], [-0.025782219170244387, -0.2685309091140434, 0.5116350219904787, -0.8535696619879516, -0.7489210610960797, -0.1548749062165794, -0.7927230151294153, -0.992812734416487, -0.32915662497829873, -0.6752151126793101, 2.5338768381640597, 0.42226067203279494, 0.3696148797982921, 0.5171439522974172, 0.6713413835785904, -0.7035514280371654, -0.016518872241361632, 0.20131879102338848, -1.5552148796198904, 1.1025065024523337, 0.7657619016863083, -0.4733575927180318, 1.9672729871926302, 0.08025958223223566, -0.9624643317254575, 1.0521505541305585, 0.21389948103451165, -0.11625561170807346, 0.9944746582816262, -0.8798286220778795, 0.11238208356125681, -0.715870120994011, -1.6426041813014365, 1.9807414982039118, 1.4636513992067253], [1.5114252374328323, -0.3670049470573242, 0.23837713529655166, 0.31260824177936586, -0.6052650445860737, -0.618957371722226, -0.48099188349116645, -1.5491653171386752, 0.9195398941679808, 1.5426818778995468, -1.742091621476993, -0.015708784212511442, -0.07708314743704613, 0.10975951662243376, 0.6006405038290751, 0.06779031991004636, -0.7748584377783896, -0.05750321931868357, 0.5278763957466939, 0.24949945126875978, -0.365008807072933, 2.133416859143136, 0.9293237165656965, -0.03349828522094651, 0.12627050268149156, -0.2583358561394135, -0.6906305374849478, 0.5777861163948245, 0.20680934632859124, 2.4483900030901857, 1.0478268685544747, -0.4683352971308174, 2.746363157746111, 0.19351323990644614, -1.2676363694082389], [1.4554088000074261, -0.29246782149612505, -2.488826217935305, 1.619302579338746, -0.16740484672560693, 0.9070001392792105, 0.22728633367796597, -0.03974716841405862, -0.7748562575544738, 0.036156820524319275, -0.22631851245082127, -0.5006275812010996, -0.2093142177989843, 0.11142334674505983, 1.8483820607872694, 0.3348057077613584, -0.4651739131075313, -0.5975137404957606, 0.020575822329633932, -0.06291759570290423, 0.20003996578356542, 0.44812849247812525, -0.48845499077823573, 0.746699448646938, -0.3522477882246874, -1.1377974774898412, -0.23847331590803056, -0.14115449847123046, -1.6631706480833728, -0.4290767626455277, 0.8746193612655061, -0.3431187245089834, -1.5981959161098935, -0.24511422466863908, 2.1866766252836234], [-0.7978664377920809, -1.2677279027811876, -0.9920388608435475, -2.5956976678330914, -1.1511289991651759, 1.7963899697904842, 1.087128904111802, 1.3437586046930603, 0.08166942620813009, 1.6712636582790759, -1.6109443391114393, -1.4469097303011662, -1.9039277536075994, -0.44390146791040397, 2.5449203798276856, 0.9228893405315779, -0.17127118896919416, 0.7120959591264889, 0.6139644164451304, 0.28586298571337276, -1.4328644369062484, 0.8120043202555471, 1.2749399211804255, 0.729618495272992, 0.16016653467714004, -1.9031850151314302, -0.87450561672434, 1.8260262341298286, -1.4236328229520017, 0.6002791783553275, 0.7269591164962886, 0.8951722243542987, -0.5454468034486701, 0.9047807025491321, -0.7529612628563022], [-1.8337675366772923, 0.5535415390298851, -0.970893418436625, 0.9985093082792649, 0.3431483182597501, -0.6950715087582089, 1.4458386870674083, 0.7120979774653934, 0.8946611709603486, -0.9837728688197788, 0.25243889664247615, 1.8807115245700998, 0.06381627770124877, -1.2789078625757133, -0.46041370265892534, 0.45441395334363205, 0.4950146212013327, 1.0881812761057845, 0.1230804671797273, 0.47170863627814025, 0.2796641089223404, -0.8222677685576687, 0.20313575312472645, -0.7080178123968529, -1.5305335295808762, 0.92889800918535, 1.617936624695402, -0.9761636217390542, 0.017280714172925798, 2.7389192887863802, -0.4710154968486782, -0.7270266342658072, -0.7760055828426586, 0.3877013369720939, 0.7401107481430119], [0.2750929552868163, -1.5013823890090092, -0.5747373102037653, -0.3421485063633076, -1.4185112343680204, 0.31205809004525703, -0.16469024174937788, 1.0755938101787519, -0.7621382822370165, 1.5967311163092583, 1.3376856006479212, -1.4541076842435054, 2.9420148921587708, 0.5884770759571402, 1.4152969044733965, 0.17093262189893998, 0.871981134749506, -0.3210776437804909, -0.5341071250044399, -1.3259424164713753, 0.5923060854734677, 1.2634564758541538, -0.9714589416477939, -0.8233821862946759, 0.31061799915222094, 0.7512321328294699, -0.9397486331485018, 0.45794791647190936, 0.6591226458826773, 1.0662630031986708, 2.1994089971225517, -1.14503728433535, -1.7305072639242058, 0.013911088042293821, 0.00042613687198779504], [-0.5492937430255517, 0.46809726580846805, 2.043178283033651, -0.4269715295089452, -0.26073205588246345, 0.3106441269697863, 1.0455632502831846, 0.5482168589294336, -1.0063594060053334, -0.05587878087237157, -1.3401260291231039, -0.6071965437801774, -0.20031619542492668, -0.7535578138645749, 0.9204753868678232, -0.9917700505476965, 1.9192599920224471, 0.8833212524572271, -1.1448979326380888, -1.1425111795895686, 0.1728556187459033, -2.4988753392200795, 0.37166234471092496, 1.1354012292831488, 1.1208793169159057, -0.874161645085123, 0.4150349253440439, -1.7453636398340329, 0.8538988358728143, 3.1270490657121446, -0.7141773513058799, 1.2092929943574335, -0.3333524184118551, -2.1184812240777933, -1.8575391339170817], [0.39584952935987255, -0.8370645288737346, 0.8909501074368147, -0.5551637508784142, -1.4315270663309698, 0.5294706361935091, -0.20258282049079449, -0.8493333143949571, -0.9850083757413767, -1.0557095743549747, -0.6587974384830871, -0.11789226689751975, -1.1790979163350126, -2.3628508737901037, -0.21030735250976385, 0.19158734222752322, -0.2057328934852752, 0.7191491210310214, -1.3823786363735553, -0.032977629195129025, -0.1397568787206376, -0.9143733138733486, -0.9826035520126787, -1.3132293828652666, 0.335753382691627, -0.37851967539256315, -0.10475296787961935, 1.8441804355391362, 0.6315233465541457, 1.601503872692777, -1.0254134207279326, -0.723641220822114, -0.8449344806987394, 0.07692914290262529, -0.35188861851738645], [0.8258227922959602, -0.7026002436119952, -0.15052143585666458, -1.2790444844734004, 1.8680398813793704, -1.5497694626759744, 0.08842109560452023, 1.4178015950047684, -0.6250783777703167, 2.251702492083752, 0.3466811237837017, 0.3011407202838058, 1.29874328923976, -0.2756536052607044, 1.7666426906711108, -0.5328838479095628, -0.4459157980540567, 1.3772334550278555, -0.05310718099214964, 0.3469012222644146, 1.5092487203754235, -0.7494082206522404, -0.7231358007702146, 0.07642724772483477, 0.7139371417126097, -1.219724412803372, 0.5285287031077792, -0.9018240197889165, 0.824037793961789, -1.0387527433667014, -1.0854051306489856, -0.7784957114456156, 0.5681727271891923, 1.3815948067645885, 0.43788411701792856], [-2.492868805066931, 0.22969129032358493, 0.31226772242858863, 1.3462816742051478, -0.11352167909254424, 1.1096826919310088, -0.580532880598131, 1.0452091386354683, 0.2407098286685316, -0.7242415080473336, 2.455644035397748, 1.206156557252741, 0.6801080619750203, -0.44157467634383235, 0.2040201245238219, -1.082723127783896, -0.7708596869175282, -1.0919992554980444, -2.6658641623688655, -1.936196732176692, -0.6454071870126785, 0.31037810343886885, -2.5915010583225717, 0.16194542241161555, 0.5404748372225427, -1.3095120130725872, 1.1076451932852962, -0.7201535416484741, 1.9547281484060912, 0.9496765502638038, 0.3715706869643086, -1.2624549307120225, -0.3223925336049131, -0.6353404412970014, 0.1898085986906506]], [[0.4822421252937081, 0.8796160056744501, 0.30979215018557077, 2.1977055271790866, -0.12367082741192005, -0.7673639414025333, -0.17053782490633154, -0.611431066363211, 0.48581500561776747, 1.4100605625568092, 0.4736870364865175, -1.561862640008214, 0.4844953665073177, -0.5709435480684151, -0.5257320823520584, -0.5441727453220387, -0.47651558958896356, 1.8747460010542845, -2.1092472467265275, 1.4975920438019257, 1.084129040226863, -0.8134664220387777, -2.489860412690528, 1.8357764049337457, 0.6380505241462275], [0.31122893103394755, 0.1839825406819491, 1.2958736663137023, -0.5185415133319368, -1.7007064653235349, -1.0607086219312414, -0.9007418367625366, 0.7178806201622561, -1.326283764694166, -1.4515800279277704, 1.0147434479912805, 0.019818606817325755, 2.1275722731654394, -1.7318702267304125, 0.10490251051857694, -0.16177802813945694, -0.49919120723888083, -1.030001130620866, -0.5218858599100257, 1.2540689586385427, 2.3350622849705585, -0.22834016362774504, -0.43379942523191384, 0.7195085002748999, -0.9102476571915421], [-0.8766471257984663, 0.06783238824582079, -0.48215654923641127, -0.31668239120047187, -0.2768940894265797, 1.5117669954027217, 0.36741380380721667, -0.5321365810042676, -0.3145547576722768, 0.5649982780865928, -1.0565414949705922, 2.2843702771547196, 1.5260388697224891, 1.596610827580611, 1.5924305026401655, -0.9370086774513665, 0.46701576672242706, 0.32003696231388135, 1.5947419037078463, -1.1175119639174733, 2.421243747498253, 0.5964431224972475, -0.407639493637173, -0.8937089397046527, -0.45547959843258773], [-0.3183143777911859, -0.5261518425407145, -0.36849099966869575, 0.17391743693854375, 0.18487689516356193, 0.021878187098054717, 0.13857743010924087, -0.34437538445742144, -0.8311954795284962, 0.4660026838757346, 0.49578246546138455, -0.39245157136991926, 0.44074412282190445, 0.15031424371563426, 0.21654588630157182, 0.13484125818363432, 1.1458840488102051, -0.8009746211953552, 0.3187832600812962, -0.6381365552082217, 1.0357332670974795, 0.7431184599957953, -0.42925008305981804, 0.640284159349215, 0.7274922285276032], [-0.9723914449377167, -1.6823794199435596, -0.2282646671601942, 0.7057828406560072, -1.0227208194186415, -0.14964610700261635, 0.5468681675339616, 1.951720609340017, 0.40175629922575007, 0.3980385485510659, -0.009449268939010866, -1.508447490924447, -0.7435664793724538, 0.36927241984252784, 1.0515714193424777, 1.6885912531085558, 0.23464890171373082, -0.9617022698360235, 0.7757117326378151, 1.3505549892279092, -0.14644374794185025, -1.880000350550887, -1.5338503742434053, -0.5075253989380416, 1.4242418069213265], [1.5370078083506924, 0.2648449995710737, -0.2937249790167221, 1.5430494381744964, 0.6648740895888783, -0.5278015180789707, 0.4151890664663052, -2.328134637581459, -1.9939742216344731, 1.2042434350959992, 0.39268632577726625, 1.2539488570081143, 0.3087198591853795, -0.39771055301350644, -1.172346243622107, -0.0720612394327488, -1.15659033298336, -0.1049478822324343, 0.20959843553678142, 0.28688133552401474, -1.5108930238991691, -1.173217267292539, -1.3346695225193443, -0.9414565022876947, 0.14448819686269934], [1.1517929286595936, 1.6136622087867136, -0.4379350751436408, -0.665641972622695, 0.013640443866985439, 0.046194390759614755, 1.0020540486003304, -0.6442556148676793, -0.7469999047803909, -0.2500899414180973, 0.20492694909823936, -0.0378558667473536, 1.0822481552368661, -1.4275945087357482, 1.0792062289940696, -1.1380549503201336, 0.3414689103097969, 2.0344467754838607, -0.29581814196024064, -0.07593291562222032, -0.018908677095952734, -0.4158736967525315, 0.5315462151032904, 0.04170647948789887, 0.27660219129089436], [0.9163953667816537, -1.3092327544453064, -1.2522358706995924, 0.5396774073320322, -1.7418776891582375, 0.7476021927094525, -0.15576442104956445, -0.1447427481387158, -0.5039201403567163, 0.9176095424269747, -0.4074908862942103, 0.5213955670935486, -0.5710902224113139, -0.7055579758568523, 0.2706575407747772, 0.30000464711032154, 0.4962005803146857, -0.04049326099318996, -1.1453554882581858, 0.01251940567362515, -0.4720602145069637, 1.3586194302277999, 1.9832177807126983, -0.5376550394939237, 0.0036037659704719186], [0.63024783280978, -1.8749649937186568, 0.23357578277030414, 0.657371147002251, 1.6106205581986524, -1.181252390583903, -0.01937453586354051, 0.008388772238533921, -0.9697925030230656, 0.07980598537832911, -0.46041975110114797, 1.3313026995509412, 0.4246501602835584, -0.324635797798285, -0.49276096333500896, -0.5085268055547285, 0.5146098981433872, 1.8483044313793429, 1.271535413970872, -2.9538501890980644, -1.742789176174029, -1.652780644057295, -1.5443717779831678, -0.005205172296816742, 0.12632418697969994], [1.033606620800404, -0.5220139145443278, -1.5285909980435017, -0.391007368760176, 1.4026749829376348, -1.3563881739226018, -0.48661193747147913, 1.0206934793564084, -0.13152406805517972, -0.26049279271567527, 0.07565025862574447, -0.17491803474140596, -0.4327164155979771, -0.7753852425919039, -0.07106671974820399, -0.9856484805498558, 1.0703470485263331, -2.00231645745725, 0.7299681618634731, 0.08973705486896091, 0.25356064619177937, 0.8102750382129766, -0.9628539061105803, 1.8351867812184186, 0.5638370970134675], [0.4783434778712827, 0.7210688666987084, 1.1120863370543663, -1.258231303005792, -0.9846429282109864, 0.6284594736909017, -1.3829410031036933, -0.7756644125497547, 0.6202521714411848, -0.6603384780583508, -1.1298524442930584, -0.7807423123515598, 2.573444178134285, -1.0959599667106825, -0.027135972336957123, 0.2577377040680989, -0.14359119915190946, 1.1636890577259205, -0.3961776432436847, -0.9439368301204727, 0.5794631208095032, 0.03943226762895728, -1.0396751974527416, -1.452432529513698, 0.06268955064121211], [0.2986575160229558, 0.934995782531545, -1.396996838462368, -3.2217360507419714, -0.5031506871778888, -0.5349861302939228, 0.42236610368041183, 1.7999512539619191, -0.2888413707737994, 0.022503469146712706, 0.5694819993393406, 1.0455035406663422, 0.022582979869703597, -0.6876751488748976, -0.20185765742392844, 0.48450714967408043, -0.7344871534216606, -1.1417560740959787, -0.5915809787118248, -0.1876222550572072, 1.1107777498700842, 0.23458598158339636, 1.7762385302864157, 0.6432521158760656, -0.794163880147265], [2.618941350239691, 0.10717458347130966, 0.2754458992785038, 0.5710689206115687, 0.866819894775183, -1.716426835177898, 0.5141776787725605, -0.8866628221674347, 0.6164853095854234, 1.7894685435002475, -0.2284656557437421, -0.560132246532475, -0.5836330965976095, -0.5762143193280843, -0.7537363947037244, 1.6122426957812852, 0.0293280777542412, -1.3075953207619844, 2.2679099964713187, -0.7881716633256947, 0.3305927323169219, 0.3510819962923861, -0.53928254047901, 0.6299771880944379, -0.29220988097223005], [0.8464850003649349, 0.5973498505478756, -0.29202330219284794, -0.15189844594338173, 0.39675302055867573, -1.8253696492795644, 0.3305520677956753, -0.20931511935769068, -0.39342789885826296, 0.10231655605477305, 1.0150097184309423, 1.719338601875934, 1.6133480366068633, -0.49567917964556296, 0.4388072755768703, -1.5569736605421676, -0.30608094255402657, -0.4464979299605274, -1.4716456701209513, 0.7050404874513437, -2.3401833606374107, -0.33099645407568196, -0.44540564230096485, -0.1332431789499301, 1.8712816169555453], [-1.6428440587844158, -0.9296941387029004, -0.690114561331198, -1.244995281407086, 0.9130584976703513, -1.0856613569257099, -0.07397732855892995, -0.8170442804097598, 1.7309126482574282, -0.6804637051156712, -2.039719011523531, -0.4616568605914823, -0.959652559155964, 0.2587795808488521, -0.509375344581243, 1.3898413498688673, -0.960641736493754, -1.1314371374875554, -0.17504664454481006, -0.9763553108256198, 0.7344966803386813, -1.1517783024579504, 0.6679925310219903, 1.539557083505774, 0.10140805720679735], [-0.07039205135237095, -0.9426124064955943, 1.263778925731025, -0.9252802307090113, -0.41989389570543334, -0.09893476603745212, 0.055387320869790736, -0.7638466254994444, 0.46979113467656136, -0.08626602343846118, 1.1993764017811022, -0.18153139652376105, -1.1739897945993811, -0.39173727988290225, -0.8709050862396756, 0.0069579179510389335, 0.6962764390027086, 1.1586642300521932, 1.1058250343286025, -0.06739675500420503, -0.6795938591260626, 2.4860836582485284, -0.07113258582800651, 1.8044856548651853, -0.05777112411392902], [-0.02266650052187679, 0.20482516222839772, 0.1993044870788583, -0.638142582611564, 1.6926977489374586, -0.011036964502742365, -0.22880361899608895, -0.2959709507002942, -1.654499337634348, -0.1863955108935053, -0.5598789285740399, -0.48237118869676326, 0.007409053299055345, 0.12883995992528163, -1.8648102881301565, -0.25796340514404653, -0.047124748571762944, 1.4301138842591072, 0.1662030269432002, 0.0071577081517191585, -1.7717729377621594, -0.6247576800205967, 0.22226513288834024, 0.4981495177701308, 0.7535096248209772], [0.28559499868460547, -0.13118417416678346, -0.2997882692850331, -0.4002734188455523, 0.5344072315184267, -0.29718317633680247, -0.543660620639814, -0.5436249084424531, 0.42078140381977835, -2.024672963552217, 0.029867646223304182, -0.5781739528266796, 1.1891513301385892, -0.31119698109434624, 0.8921708540083922, -0.6270305366363573, -1.6164736415673193, 0.45583143628114475, 1.312972755893092, -0.5005287063449944, 0.3505940982915877, -0.6475484790992404, 0.5273857788646201, 2.4409020284752225, -0.35098568656542506], [0.5849572207197027, 0.9496383292359969, -0.37303928617503457, 0.06984707859546806, 0.011215675913247252, -2.61500989975153, 0.49526684355507256, 0.198645845085207, 0.6550003260538747, -0.635706296177067, -2.116368570144232, 1.2082700911102158, 0.9767134134158965, 0.5663529997107587, -0.24130364409041108, -0.6284854058633312, -0.7914520773015239, 0.8143373756004237, -1.3242404588352277, 0.5252532446021028, 0.6413081138336032, 0.5242394987462972, -0.6306047754144238, -0.02664022805582116, 0.2695400440346186], [-0.6706081082340725, 0.872632069403774, -0.41647670691353095, -0.7110072491114753, 0.7556686059691132, -1.1197451970432, -0.7393110092942868, 1.0287261573333688, 0.6285018279365883, -1.291768773544224, -1.4584822283190277, 0.9389661597212438, 0.32340835223902736, 0.3225567193200633, 1.0582478970751532, -0.1461773610722481, 0.5730540046259275, -1.866827351633826, 1.4236163539914493, 0.15199217687108824, -0.8484226944936556, -0.89734967235125, -0.8806395170645102, -1.1877838134437073, 0.05028406858115251], [0.6738909788487781, -0.18855378764088288, -1.064659308719294, -0.3164878492696006, 1.3828217171386632, 0.5809000051113574, 0.05698348957389383, 1.3870493829845636, 0.7958166526410742, 0.2926969307060865, -1.6350805355250906, 0.00039858120985792743, -0.14415567022066994, -1.0604670681971213, 1.5781117029228915, 0.074024851435591, -0.4688964584313039, 0.13576783649938787, 0.196303985780807, 0.7354694163945085, -0.8598801176787801, 1.4323471748202434, 0.30128261233657677, -1.4327014593573397, -0.7462702714571512], [-0.5015991435127953, 1.541308495109988, 0.05682951028731721, -0.6934389630224582, 1.9993130911933719, 0.1899733828473002, -2.4524361621075648, -1.1055386148828363, -0.5794149355880827, 0.3580499710657423, -0.35282059145084255, 1.8076378358601244, 2.421869833867591, -0.5976234992276102, -0.37994072372886867, -0.5152926830996568, 0.23018014490336458, 0.9215406017198707, -0.2001196122851023, -1.202589575910516, 0.2803809439488352, 1.0907947844483323, 0.4421552630077538, 0.856048645682728, 0.1317021307320298], [-1.3766151678699223, 0.632250540312308, -0.5519997350128839, 0.7743093446929331, 0.38183338489878926, -1.0990652325646157, 0.6552782778400914, -0.2051814799689158, -0.6573739502319722, -0.3022776069814365, -0.1273254075075193, 0.9578542747662447, -0.49624270315507407, -0.15215510100737561, -0.2429439940639101, -0.8201040741621174, 1.0798242895554442, -0.906299858991819, 1.693095449307213, 1.2040322940868726, 1.0184071250552664, 0.3466736440659654, -0.07234405269447364, 0.2661555438263388, 0.3317729272107361], [-0.536729481530402, -0.05138266659493616, -0.09110686504049569, -0.2735362391269986, 1.451182630262189, -0.8591852765242773, -0.004197912604478207, -0.47866453445355883, 0.34142406515814955, 0.14235211739145695, -1.5468814996663487, 0.3683923676771236, -2.8937117487661856, -1.200633548499048, -0.493507128024366, -1.32926021974322, 0.9670669111657634, -0.6249366504281114, 1.1061670363724454, 0.5201551440833306, -0.347367102287421, 0.6970814396224678, -1.3366581476131476, 0.8753659788873784, -1.7153051229220864], [0.07256047748771777, -0.3925443889774927, -0.20148643360910648, 2.3476049237595076, 0.4932638694905162, 0.9843313162885226, -0.7772580481991413, 0.8436120674902955, 0.6048794332787671, -2.6008820477909733, 0.9697738203743496, -0.2171485853909094, -1.0791277398620216, -0.1722966546531674, -0.22324551257212139, -1.04174578983919, 0.3000873684364572, 0.1182957402657175, -0.3857787738434903, 0.1275092158051733, -0.533506786192619, -0.9195456994292859, -0.7919454758247593, -0.6501898662223761, 0.5054389607977069]], [[0.5246754771430696, -0.22288656561805947, -1.8927193612220061, 1.6245634967401559, -1.5036723023500935, 0.5382847484848086, -0.7134939838298012, -1.0258414078527691, -0.28211004792630456, -0.7468448765640536, 1.0958915803248306, -0.10546824985925671, -0.27392616141120524, -2.577188017494188, 0.8039085948069543, -0.9073078645814127, 0.6835045185119003, -0.28762741870736525, -0.018474004335355083, -0.00845025160291951, 0.7018198530139013, 0.21886742263525122, 0.996082641432261, -0.806680996431518, -0.03490812658172457], [-0.7983533413339323, 1.2121189267228063, -1.6042806493782893, 0.7022358970834274, 1.372566409291257, -1.9916075841358956, -1.0193305836131668, 0.5428598555833554, 1.8535111795734087, 0.9376649646901781, -2.228052010486635, 0.1349660194589788, 0.41860311372052206, 0.4082001128218982, -0.004074573719932411, 0.9319985578352933, -0.37668632856712764, 0.6565996425132392, 0.2564556874174187, 2.4446204368998905, -0.5513661266346652, -0.1953963831405869, 0.5885673043594161, -0.29801703977548333, -0.3068138562997553]], [[0.5672941612178745, 0.3220861498382308], [-0.5880755331522614, -1.1400950163498307], [-2.972623351803737, -0.15983842550907282], [0.1399731702656255, -0.025390989294433203], [1.8468794173599103, -0.30343411479002513], [-0.05652496568015779, 1.9648066571735892], [-0.5615084990093232, -0.0683362947632415], [1.4783759722938496, -0.9892192536369683], [-0.039293629868723305, 0.3298576616608679], [-0.08251287177210564, -0.5173400716063149], [0.6815127608601237, -1.2754469544407425], [1.6692363899135205, -0.04196822658825133], [-0.3333086045977768, 1.3536316307222949], [-0.27424589232846286, -0.6919636768934352], [-1.186343788626103, -0.9788715959885208], [-0.2260619631419409, -0.7261441375171703], [-0.4464300400921288, -0.5249403342544419], [0.7975661277034178, 0.9008223800097297], [0.30709021156986555, 0.1854836437270025], [0.06955432384966165, 0.012032236536313017], [-0.3306798056512007, 0.6714437320343833], [0.3419731190223214, -0.34182489194439697], [-0.7543515692652726, 0.7584197258470301], [-0.6718703806446387, -1.084123205269431], [-0.29199307472206537, -0.24923147552358024]], [[-0.0020978835952618602, 0.56706181253336, -1.6211784263701805, 0.7223269691824565, 1.4476316241655092, -0.5271810100327429, -1.6045121322856173, 0.875649786688463, -0.31669815110472, -1.969639121040749, -0.16811260102432718, 0.554217329795592, -2.488909800866012, 0.7729033788332933, -0.9868994401995652, -1.0635258573954227, -0.5831293412892693, -1.6374864360893975, -0.16509667529846303, 0.7828044055947726, -0.9811341202716968, -0.44578382314802667, 0.9450518751283216, 0.5186063861365088, 0.11365659617455379], [-0.38492961799908926, -0.25553560080209825, -0.5799300801719025, 1.4522936768716848, 1.9853517828013025, 0.8872511193904049, 0.7044997825098052, 1.4052541930225537, -0.135049530898525, -0.10537583047940277, 1.6110501507442323, -1.1651577891914642, -0.1896601743478781, -0.4934927868308828, 1.1919339405670015, -0.5221597676831928, 0.18839611792440228, -0.21637828844978366, -1.757516408196608, 1.1632201916873128, -0.9826356790265426, 0.4022699237578436, -0.07945948732216206, -1.6376140722769728, -1.4365790759711639], [-0.3689555189517661, 0.15414114931256448, -0.7907346666784456, 0.38950818336474136, -1.5641928406240806, -0.5279105511113354, -1.1821480288321085, 0.542653882310947, -0.6606876697764719, 0.07287977755778459, -1.6263204094008665, 0.031590863139457394, -1.0166309744983588, 1.2344236962363095, 0.9327397450412441, 0.1489017815280969, -0.12444867522760568, -0.8954435286300232, 0.2818670823631731, -0.05865208600028353, 0.388475055259551, -1.9410430489752393, 0.599092611810747, 0.9151996168603782, 1.2737504541186846], [1.6190374276354293, 0.33784529159926796, -0.7746989376601592, 0.046974794659232114, 1.203020104956373, 0.3449118948033224, -1.4836630365728525, 0.5385254756000937, 0.7692401975860886, -1.4186516701627412, 0.47745979020911217, -0.21143527129616838, 1.32893224405044, 1.0589445288653576, 0.2793246642952002, -1.1601212618005452, -1.1538316723775843, -0.29888750833062633, 1.3099160085800714, 1.3493742922215248, 2.11238426775074, -2.6178225140577847, 2.913480211117769, -0.3263992447421765, -0.05418300937414409], [1.2402384307838044, -0.6825976876316153, 0.4546366445430527, 0.49406972121181064, -0.7292077728860344, -1.2635912310455855, -0.07036230949692297, 0.260606737614086, 1.137505421396601, 0.6383726926543396, 0.4274787808216157, -0.877567669356593, 1.0551459727588284, 2.522659023836475, 1.3529563161306732, -0.21633791569192456, 0.8885241690240273, 0.6139541197067182, 0.7053864568249035, 0.7744565793205855, -0.38097930670955044, 0.4517477668130383, 0.6359759674744776, 0.642237516173475, 0.5032699289556697], [-1.6925217382261704, -0.1336510743813575, 2.3007233482822635, 0.5410794362493203, -1.7160646119844716, -1.7669577019093428, 0.24344847383573123, -1.2891781326180063, 0.09016932725554266, -0.12250911496418149, 3.423263004946001, 0.8728421156890112, -1.4278254883679546, 1.412143694278471, 0.2676610173104878, -0.596627403758802, -0.39105164672904896, -0.714583319749262, 0.011015659750605937, -0.2364348631324183, -1.14418784766787, -1.077964475470138, 0.09435138790751502, 0.19195460752819138, -0.4039922764190734], [-2.5279435896163927, -1.003951143811346, 1.295563150609872, -1.0417677948310475, -0.671107049897555, -1.0915498850049832, 0.8297571131334228, -0.3004201642799841, -0.15039011862951093, -1.4005795748037424, 0.659772324386891, 0.24537249395350538, -0.7068035255837412, 0.2965210768602177, -0.02565167621554031, 0.5631638509020358, 0.009478557553282306, 1.324899438600199, -1.7729528367529503, -0.0020541097019133553, -1.0273533944966098, 0.5192324367840581, 0.06875379159950205, -0.2102068977308257, 1.5816017930638948], [-0.4589551450647063, 0.638095000740263, 1.1064243165031802, 1.4724650544042053, 0.7417278613653745, 0.1391816311812118, 1.3690926836457697, -0.03162808274054236, 0.4373119405938095, -0.9019536180627742, -0.6570145623684762, -0.40541704549251467, -0.7922629900197564, 0.7934401293764197, -0.8834851907410519, -0.8180561158915043, -1.4263957354764158, 0.03408158539154125, -0.5241805994205403, -1.1583330309844937, -0.4988920559435997, 1.2368843903929936, 0.593207303167356, 0.473938000796709, -0.010704679119180473], [-3.9906501112558233, 0.23611327749054156, 0.7810698192201841, 0.9490396076125405, -1.5231133805346673, -1.0496178670661231, -0.5751048980454182, -0.5009254191512904, -3.3122236152782816, -0.3895533635432342, 0.9935343575334581, 1.7578113007852985, -0.2834818536730355, -0.09634312677456564, -0.3413961092487269, -1.3301610757846518, -0.5034652615884664, 0.2887033512057597, -2.741301020686667, 0.30392983909182897, -2.1322621979726395, 0.60506882052514, -0.734941663869648, 1.813630045155284, -2.085405292135715], [0.06604377295302079, 1.542201177753855, 1.0310856635850756, -0.2524075416076971, -0.8186191904237334, 0.4440490397390012, -0.24721082074463938, -1.5853488778052798, -1.0576176426707748, -0.9983115711945334, 1.6703865827327566, -1.668760075423629, -0.12828476060983993, 1.9604370663376556, -0.040582246220526426, 1.0433217882831702, -0.404761974275414, -0.8427735551446878, -0.05624252333396003, 0.7957910213369414, -0.18362187194836754, -1.540831104190272, -0.9936312530499514, 0.6686634556198023, -0.19184254239238432], [0.5856015211595318, -0.6079532963989822, 0.7203100043846451, -0.9768046110780012, 0.8026339105484197, -0.3343247392005984, 1.3700936733105777, 0.6242718321818408, -0.47194960014644954, 0.4601688289054087, -0.853337773139457, 1.4834739266133108, 0.06183346824389076, 1.0583608740757702, 0.18416870294385448, 0.5915159783557465, -0.26162213560906195, 0.25534230537618197, -0.6845501417146914, -1.4178000128528971, 0.014671069505667145, -1.0997139258493918, -1.0834173792708948, -0.6065206862373475, -0.4565998161192742], [-0.8444618195833186, 0.4793239907041917, 0.6942932201871674, 0.3834992409476694, -0.5453703395056559, 0.018633134070060477, -1.4853581872081822, -2.4528141900930347, 0.08627700579175468, 1.573964243255339, 0.30209985906120734, -0.982596270448305, -0.8219110952545415, 1.986411691637515, -1.7784215668037584, -0.05257453277350855, -1.1643084844179608, 1.0962879543198907, 1.533658441836406, 0.6640846163807781, 1.4226268148006729, 0.10323913335568947, 1.8618368685626727, 1.000982577088292, 0.11455045637324775], [0.06186469456826545, -0.9649055315503444, 0.06464362165928288, 0.5801183249821167, 0.7112858172745905, 1.7413326475355613, 2.2326310645623075, 2.3329303732338085, -1.1626709543085434, -0.3556033169466387, 1.8744447807300775, -0.7784257267957547, 0.6665167579525457, -0.5066575303437291, -1.0730222834709358, -0.3486393004823978, 2.027889134957247, 0.6829902719884823, -0.143224449718291, 1.018560302147899, -0.5077075268829035, -1.4137985445166306, 0.9555526023936494, 0.9365182711101979, 1.3586136662172656], [0.4971380191886865, 0.40422720767076603, -0.3811214891912346, -0.6602136689986455, -0.5276280321856872, 0.35045063498389595, -0.17034513052345718, -1.1347357775948403, 1.6575328296789738, -0.15957824070913693, -0.20188075083641044, -1.085108741533538, -1.7042180325316103, 0.1935367571456689, 0.029115849322190395, 0.42186213149703145, -0.3730507580077988, -0.24681153775625414, -0.10382390298920122, 2.5008241266891624, -0.4568529807593317, 1.1740370479549866, 1.7986805033517705, -0.7820223640305184, 0.6289740459392279], [1.4180410592488701, -0.6920010960104804, 1.246041928002832, 0.24719993329402315, 0.21034278318676558, 0.7742019568109032, 0.9681510281977069, 2.8400755068718615, -0.558894297451364, -0.7420317536571768, 0.17519854265644932, -2.593533761717985, 1.9744574775758503, 0.08621605160025443, -0.23223179378040096, 0.6694617888979391, 0.7461972844669101, -0.78643600405018, -0.11354053707032984, 0.22736685339814666, -1.437197762268704, 1.0266775174724367, -0.8401893296679332, 0.09846638249382246, 0.8204488795437065], [0.033807084489955654, 0.01168083981056525, -2.9988050213345225, 0.15791740308976515, 0.19832802649158598, -0.7165251927260198, -0.8470692113365176, -1.5464564180876468, -2.098212142622599, 0.9021071771439574, -0.8812307487935424, 0.6367744593116021, -0.7404568034704695, 0.7858179776934273, -1.6235423755731735, -0.41143785751799944, 0.03182963993680629, 0.6781204174169716, -1.9576928302817158, -1.055365887238849, 0.7245001405427401, 1.4685281280908462, 0.2651422828057487, -1.586300750424582, -0.2622345382997155], [-0.04774424149450454, -0.3152299396695839, -1.9199559741868963, 2.741361819494581, 0.74948396722274, -1.0731533646060119, -1.3573115485580973, 1.4345497188537835, 0.8371742786936397, -0.73905600210043, -1.1028382940261598, -0.18375189445050524, -0.6912426492937441, 0.491846562838688, -2.8268912790473335, 1.9535108324803316, -1.71780048338064, 1.0301749921266663, 0.7312432642367163, 0.7700364087812158, -0.5239627976422259, -0.5440407087472741, -0.19045638094304287, -1.321024992544337, -0.41746565384435413], [2.020290070254709, -0.15667321144371288, -0.8032704497360031, 1.5043072959150503, 2.9048565483734183, 2.5071818390611287, -2.0621496564782156, 0.22731023689677315, 0.8294890378433124, -0.6140183051308836, -2.0960499432291297, 1.1352838649949488, 0.20126858747442455, -1.6846765978216252, -0.1741519580061841, -0.31282618297310333, -0.5114514257970596, -1.4263098396960459, 1.5573781813925762, 0.6949142714408314, -1.0337440864855763, -0.24291058820505787, 0.6530070252821453, -1.4730987597722704, 0.8843521073992249], [-0.14836131459758994, 0.07204435024763844, -0.27480603333452325, 1.1695807415098962, -0.8005657165157971, 0.06076145921835579, -0.027086162713216823, -0.867031715488094, 1.4728548342186114, -0.9261139664857794, -0.7027175463128187, -0.3852144172944252, -1.6002535224736187, -0.4703773838348677, -1.5830662399565265, 0.046099963202182716, -0.22954674741326317, 0.9894277365895251, 3.009599829837999, 1.0313969991660534, 1.0392272013952375, 0.10566086368868828, -0.46649357578488576, 0.9050573742095415, 1.271761607037739], [-1.069829590497932, 0.6507558321493234, 1.4398523708112438, 1.6536249566634524, -0.7676896579017249, 0.07485237803132318, -0.5132174113259151, 1.855928781896245, -0.18871209987664206, -1.1728352616540678, 0.187185972797677, -0.26820575955912535, 0.2423685295875173, 1.4440690677684755, 0.2334879833333873, 1.017868891305505, 0.12730184642164208, 0.980037624057827, 1.3982606814178997, 0.9514043171929398, 1.6836681625363323, 0.2252816346028428, -0.03049675189394703, -0.061618397114239665, -0.6614085941112183], [0.9538252774019796, 0.2488020250800345, -1.1270526627883413, 0.8144387590959352, -1.7987290403941927, 0.08001993507760286, 0.18255860888874872, -1.9739710026588428, -2.5840609624838704, -0.780513259271284, -1.048461228546114, 0.4515545444591951, 0.09993319325882921, -0.3701920582936389, 0.7220303657243445, -0.6420775210796672, 0.17663309259963975, -0.21577975576252745, -1.3145185725902513, 0.34763832403528094, -0.15653872268879912, -0.2990023967879555, -1.2560214044230922, -0.9169797006786645, 0.14407767425202225], [2.2696300789102395, -0.6583917899056381, -0.5120065314790573, -0.954577575135354, -0.43579237803881604, 0.281284727667426, -0.2815812087654659, -0.6800710601948541, -0.017743021045113844, 0.3685650345777195, -0.5122455883936626, -0.6138581692103646, 0.6896360001767976, -1.564839117808203, 0.788475209717187, -0.7872796454309081, -0.7758009740362335, -1.0746119988535991, -0.6799079294382758, -0.0075438462066517034, 1.3819526217678204, 0.75378613121161, 0.39877979928927604, -0.985349405441903, 1.0976049581454734], [0.33695387886379863, 0.6402721361599517, -0.5356146859478497, -1.9826444913301078, 0.7704203857982589, -0.3458363957490677, 1.2177611069890295, -2.6317678899563366, -0.2555989921037948, -0.2819562030007534, 1.0044817188638606, -1.7924868581477502, 0.5327125473972444, -0.5461498949244549, 1.790576560827424, -0.6791948923943844, 1.1509647904167521, 1.142547763405541, 2.0770897165785493, 0.1333926741053464, -0.6027807274460943, 0.039514726056430576, 0.49911770152745555, 0.3093922768241725, 0.5606091014328733], [0.5949340728838612, -0.2055850787214, -0.44348310147816816, -1.415878219463229, 0.38639255122898175, 0.3314482534602161, 0.26522492246615426, 0.3557486705181575, 1.0340860591462044, 0.6910702259332644, -1.253946760581065, -1.2759217228153263, 1.8420155831701759, -0.36536205304305813, -0.5729376370838231, -1.3004083762501784, -0.7396282723938299, -1.2689176553584935, 0.7049047086154152, 0.4747668651116719, 0.119758280329538, -0.7234032156431777, 0.2945937343004531, -0.6085386459760187, 0.5812436849000924], [-0.37778399475507407, -0.7535571379808947, -0.3660426853013033, -1.5225110907497865, -0.268965649640465, 0.37934155772146816, -0.8887279204624976, -0.6044346376210407, -0.08589529693715904, 0.13374279536435532, 1.1479206495003695, -1.1787918119507088, -0.2990068563223436, -0.9635545300100892, 0.46819441596378775, 0.8037453500133421, 1.1930869257289785, 0.8219086064059236, -0.7458271158666809, 1.4510941857166824, -0.30749165981950455, -0.9025750454825419, 0.31229833949372304, 0.08684839628333121, -0.31809226000168866]], [[1.1980767594334545, 0.8135022325801922, -0.2532955262242828, -1.1235704174192827, 1.9907649380006598, -0.7172473186548525, 0.7822796759470791, 1.065520764424552, 0.7987493716449355, -0.2721903474942994, 0.8325755105629282, -0.38923535944756155, 1.5293137253251314, -0.6613089943019941, -1.1899221611273954, -1.4402719219307076, -0.23692033527222903, -0.6973011288194465, 0.8013688373679176, -0.015760245019696948, -1.0769526014818132, -2.11791542543159, -1.5768259566302167, 1.0506244545477745, 0.7673434793129971], [-1.9822062550390056, 0.5654798142279048, 0.16976344456332898, -1.198955425130312, 0.08039414682503182, 0.03188855204091763, 0.2717122386841915, 3.117356830758128, 1.2766245507667955, 1.4487542532795228, 0.01244591858430412, -0.2778002666346444, -0.3644601608871688, -0.27662807977646814, 0.5089576489792504, -0.039245045773195375, 0.628509666582587, -1.0956231515174886, 0.6005009105566963, -1.1400229407261127, 0.1309304161017559, -0.6678614381534936, -0.01506927059462132, -1.2929451990897238, -0.8511591122903622], [0.06427221790242708, 0.1569080760182788, -0.5504918313477026, -0.31185653319442097, -1.0672134953709707, 0.1011299234434402, 0.8903164924320397, 0.8186290149292448, 1.315268458374247, 0.4171522993094692, 1.893384894354282, -0.11349125973870024, 0.08024576114454617, 1.3791044543102247, 1.3845131903037013, -2.0292609909098904, -1.3888537309040836, 0.5402073773127438, 1.0708655871691608, 0.7419199096967066, -0.2635190244621337, -0.13008791972943315, -1.707787251081772, -0.8667624141860153, 0.8598576270519107], [-0.4050781820804199, -0.20134134742251034, -0.5248740605400335, 0.20117600870780147, 0.341765639939898, 0.7807294598585119, -0.16197879755822905, 0.41998113997924374, 0.19628781440428356, 0.1960725244657786, -1.4820457642016207, -0.5396826075833207, 0.6480844289334916, -0.6329100942987123, -0.43787725697668534, 1.7713070695000244, -3.2851889399498813, -0.37223660069154435, -0.38578531085840867, -0.5627468402111829, 1.0790972249255408, -0.29636251262565144, -1.7574357193882026, -1.7562602728493162, -0.5359817814523471], [-0.49006518423541084, -0.23399755331353048, 0.5224201614889405, -1.0525438267711125, 0.6018758933732155, 1.000169145493882, -0.11145713492146342, -0.28141712601347624, 0.7447876536850393, -1.2303175936342536, 1.2521578228196861, 1.6088149865453663, 1.2676072856767262, 0.3373803841318073, -0.3249401225607139, -0.08107342259037441, 0.28789317010909066, -1.2407702672809633, -0.10516104211275464, 1.297440123439883, 0.2698529085898278, 0.4136616500278046, 0.5822129913583496, -1.3779393025848725, -0.7204365648577832], [0.7029092998496976, 1.0132652652819385, 1.2755511556318777, -0.03728009291091783, 1.0258917877864866, 1.4356417167671713, -1.3577423344703325, 0.018249749948590313, 1.315387770703772, 0.024279562282143452, -1.500485836060828, -0.2579770159975888, -0.14518746859980744, -1.5703155706584082, 0.009116959177555303, -1.0577852894191895, 0.12705341502155412, 1.3492764273153368, -0.4613254585521515, 0.13033160671469912, 0.30691029472726356, -0.09684881913698444, -0.4814396558239157, -0.03794123797677516, 0.7115975051528756], [-0.48419156853608675, 0.4572683767387832, 0.6390016237822868, -0.9351987500422007, 0.8756581128296352, 0.5101777117763353, -0.13807934688807816, 0.5912757337608809, 0.3399531631699222, 1.4530050657246232, -0.5775690377163133, 0.9957115834297534, -0.10019405584973635, 1.0549031670488946, -0.8347700162226883, 0.08245163934509953, 0.34296254737368154, -0.601559188354953, -0.12255992433180034, 0.1114050648421547, 1.2804149718304798, 2.112988532780196, -0.3416477930257815, 0.9469052903266869, -0.7657806558582896], [1.408176629536167, -0.5435016138552318, 1.733891829400622, 0.7704179333341071, 1.6122896393324864, 0.7913370093396136, -0.17308567495216293, -0.8443672801753698, -0.5113289945583368, -0.15992575668580322, 1.26078667274542, 0.7236560260898038, 2.188181945198348, 2.467402424647189, 0.6312121098721111, -1.7890555733297646, -0.5746921651734439, -1.1918361034193445, -1.3357605558024928, 0.8107525168037765, 0.7731513302313829, 0.28345116506905255, -1.1070253884185692, 2.157546846813886, 0.773636561562113], [-0.4433658279987006, 0.6186819724671877, 0.03848477301624896, -0.147504286629007, -1.6351588287595977, -0.9918830691112722, -0.8981553229949074, -0.03540168624593324, 0.11987954615263469, 0.05495614150845435, -2.0539587122483542, -0.08718365291190493, -1.7789606039104704, -1.1321896388620967, 0.8810835322588609, 0.7794371332275714, -1.0448497128751417, -1.0724300428596325, 1.0426608892404794, -0.5174302661463235, 0.9909344362598002, 0.11145754530076961, 2.1716933462197456, 0.3123658972068636, 0.43517004825360633], [0.11169905506945224, 0.7510201090396557, 0.46705154243532687, -1.1631841143784132, -0.37932428636943744, 1.8780058246180937, 1.030723103331705, 0.6963832426436012, -0.06052950701773703, -0.17846556134753117, -1.9920709616125922, 1.0292722451858767, -0.6332942121928066, 1.0701818039163173, 0.49530630552137234, -2.409540439920134, 0.9021947547081955, -0.845426509393066, -1.9763630012651072, 1.507428201220433, 0.8785322129821554, -0.8976186987316304, -1.3703010372502877, 1.2651770544963565, 0.9266206167577362], [0.21753794229610643, 0.4646173898227268, 1.3501581105338636, 0.10147413602400036, -1.369297502040321, 1.139300502822117, 0.5335316110925886, 0.5486283371358164, -0.3949562892252869, 0.9388260989976812, 0.713566055331768, 0.4795909233970728, -1.0762013927044103, 0.5207814953175383, -0.38116042679615403, -0.05447430852591512, -0.8685631176869663, 2.52102973741219, 0.2737237145727441, 1.6503929298705582, 0.3507384405094096, 0.22927586452639193, 0.016821771513344408, -0.6697937630295556, -0.4508742494986431], [0.20509580743685576, 1.0643731586252474, 0.6227821042066042, -1.5012967757822675, -1.0952639460144096, -0.11295831716763602, 2.1889820006080223, 0.036680639627221776, -1.4577007370222355, 0.9314940934827123, 0.7044406235246053, -0.6264056878000205, -0.6028392788164064, -0.5390684234666583, 0.16157616518972343, -1.2245117981355573, 2.22169076803385, -0.9525894285255174, 0.4724117975546478, 1.6555329296628087, 0.2271384246557866, 1.6444700840248672, -1.8118084696451884, -1.7214368264834794, 0.7999960888624676], [1.0508605697671367, 0.2808849207157029, 1.2638062192301445, -0.3088855256593896, -3.2411994669804716, -0.6584016262755334, 1.3619743328539933, -0.20354203680589306, 1.9431153217011994, 0.060950267991134136, 1.057007078036013, 0.023869008794504407, -0.251858944736265, -0.4410635098790871, 0.6168485203768301, 1.1127532824649802, -1.4166103575832576, -1.42596621473367, 0.08650182762151348, 1.0845503613689167, -0.19410990418060717, 0.8092281405746327, 0.42571028816969425, -0.14726809104530147, -0.6568137430360559], [1.2254219240247555, 0.23285845514697465, 0.06524689003378849, 0.26546266709317434, -0.7069520673217158, 0.4015496813232489, 1.9583381734341525, 0.7200373138758382, 0.411250843887568, -0.7722070893992221, 0.04835895756950676, 0.14664577514485708, -0.2704992758351518, -0.009466891074501159, 0.24911649718220835, 0.5952630703023484, -1.3172399237263832, -0.2829619448098174, -0.42097750082584523, -0.3325229827301617, -0.46948700089965795, -0.22060708034379636, 0.76927306344643, 1.8031793328944372, -0.0438403478203125], [1.0396760137703316, -1.3002033530237636, -0.06943054182315098, 0.2550748432729906, -0.4248756836540133, 0.04742687441375906, 0.759308902343898, -0.3666029303422959, -0.6674225032253869, -0.9120156849288893, -0.9286732229571559, 0.3644425915997346, -0.27864626562278166, 0.6078535462646456, -1.1395953707149529, -2.194051452319359, 0.47027848579987275, 1.9068907360563343, 0.7496503634878647, 1.069064931997074, 0.8323084451026408, 1.073921579967608, 0.5667394544661399, -0.5460198946407897, 2.2155734382594905], [1.8371024745138276, -1.4586879840604168, 0.8845744924386482, 0.736454747360758, 0.923792658179275, -0.733554913137612, 1.8113074581174904, -0.5790181119534861, 0.5561971710272625, 0.8598897928071626, -0.1943259149436208, -0.651961563849652, 1.6580878494932973, -1.0558799563859496, 0.1265207729729626, 0.4172397185513035, 0.7025455914888988, -0.09366279568499652, -0.2820349351475089, 0.5512576128578074, -0.3275940743409397, -2.3675057803008004, 0.5097077214859616, 0.4117861725065503, 1.149291279890062], [1.3334074648148404, -0.10554111872214006, -1.3860394482536453, 0.1500416366522342, -1.193119506722951, -0.7018881892134924, -0.19196220164406647, -0.3610990123260216, -0.31994533479976256, -0.7823646656668395, -0.5592651821765463, 1.0268999748854635, 0.4938467510996481, -0.5247489248755017, -0.06082532000782973, 0.15450762230507548, 0.06743352982827724, 0.3748550849921879, 0.6205236402985417, 0.897582054761747, -1.024839175800181, -0.9944397854407167, 0.3084508420053551, 1.266069019933505, -1.3695138191759155], [0.500698041200186, 0.013815036440856113, -0.2775234337287468, -0.8944947183756287, -0.7946519251883536, 0.8481529086930567, -1.2508048683569513, 0.324615507524897, -1.5479641030413482, -1.5312039755004982, -0.6940445222337946, 1.3277353322074779, 0.21146861258333022, 0.1319305019244671, -0.9156418820624505, 0.7730968943238921, 0.7704035835944488, 0.2705252259236386, -1.7897199266412358, -0.9168576303255891, -0.3877704412189969, -1.6832908023869113, -0.4811923611225038, 1.0699527975365706, 0.4753547089436464], [-0.7728633599546029, -1.2339617955593032, -1.1735622105888994, -1.163314930497393, -1.2196068340254635, -0.1301847786011386, 1.2432009904327894, 0.2990426069181634, 0.7296979574692612, 0.8122292508895245, 0.008824248103419884, 1.6128101014229708, -1.3537512196741102, -0.4027175186420442, -0.15456341728650674, -0.29915118791815776, 0.5431083381281173, 1.1358822733159024, 0.0904793973302634, 0.29467806140123, 0.03332591686594617, -0.6628429746349918, -0.42879512458512875, 0.38806694887928744, -2.50740997408506], [-0.9420500186193692, -1.7700390762855713, -0.44078542261632875, -0.8594167899459111, -1.035797308669422, 0.2464083546487205, -0.9769904489369894, 0.0660110484397786, 0.05268608736655746, 0.4702254433361632, -0.321895397218663, 1.5198219288038994, -0.9998268008954222, -0.20692414207773915, -0.8551709496632675, -0.4980404389096422, -0.4361906290630297, 0.6622710995834409, 0.5245876324813683, 0.15155684216202864, -0.8552935416968367, -0.4299470764671612, -0.8228484026505003, 0.17512452030996198, 1.6194266075374337], [1.6827912332911625, -0.2177124674934856, -1.438165211082819, 0.3261149503645903, -0.09142921090760685, -1.5367224478669899, -0.014339586625046141, 0.19168032360581955, -1.0067182845022487, -0.21979304020692436, -0.5692815192962992, -0.2120589573051321, 1.294451890874169, -0.26175496896869876, -0.5107419411768299, 1.4342721785466175, -0.36040957662339407, 1.7616501563572111, 1.6861638249941417, 0.28575323475561015, 2.5003972859685994, 0.8043581387358236, -1.0863940593629107, -0.6964752472240205, -0.861567780754109], [-0.00684595848974656, -1.9043101550656554, -0.9124829042099596, -1.079986451750829, -0.6528151048766213, 0.11013842991938884, 0.026399105844788235, -1.387544152860499, 0.868653275718048, -0.2082350042921335, 0.4494267713199781, 0.3931714915267741, 0.1424594421874777, -0.6106019276623034, 1.2929523729783485, 0.34392717305999204, -0.283396652444893, -0.5575981139060808, -0.4370065735589804, 0.47018349500067125, -0.7397058659316712, -0.8838659191631035, 0.11113401718839806, 0.13642471486488097, -1.0718618842055543], [-0.30273785770306344, -1.122730927023458, -0.6427579426072986, -0.7567040137563515, -0.36014661882129984, -0.4552481568288324, 0.7764639128887936, 0.09944786035145577, 1.7638243611840674, 0.6252366010822415, -0.5797915250581731, -0.9787301952643528, -0.5016946614458054, -1.1324608608130868, 0.05345995237159029, 1.0833817722977828, -0.8017494875368415, 0.18356145974594965, 0.7234823617096062, -0.1280690780701761, -0.28820896619309205, 1.1929259976604714, 0.3961749902131816, -1.161367378333776, -0.6744606204003772], [2.163398642387546, -0.6881094345927228, 0.3996079350998626, 0.1062091781231275, -0.7085372194814649, -0.657274636037105, -0.054215583557961, 0.10408182165548875, 0.33886339815251776, -0.9936221594268527, -0.7936958778997942, 0.12275960583969406, -1.114632339509855, 0.7326598870603844, -0.6200940093056353, 0.1713385442165169, 0.5066762455877346, -0.28903676575160464, -1.7434222569267634, -1.1292415597572762, 0.9214807998483449, 1.0530890942766613, 0.3132278564006627, -0.10626908846653821, 0.6611136989415816], [-0.447321227252829, -0.33570818892542215, 0.06758369385139561, -1.1721755220002956, -0.9834041929409713, -1.7700668382534712, -0.33408644831817386, 1.1640046403227677, 2.6159759280831536, -0.6145144462107598, -0.62220740412898, 0.34041435444099843, -0.5483335515252873, 0.5008068194195763, 0.11064010129769054, 0.17853346287193275, -0.8812487502816229, 0.011026874100385336, 1.9115522819115764, 0.6858833602441289, -0.6080622733894477, 0.28910860233111163, 0.7162589265409975, -0.21289628515224895, -0.5399828371088187], [0.4317795413334142, -0.3232354672960317, 0.35282081457822106, 1.3794247741193912, 0.9698478154368401, 0.4387874742433351, 0.5116530119510279, -0.9396872995886787, 0.513037950752063, -1.620959921790859, -0.4152234666723877, -0.7258521368818424, 0.1501004986145993, -1.6746641796067514, -0.23671782760725799, 1.0396418999760895, -1.0528742726214715, -0.48342868646113124, 1.8485269689757533, -0.03479615519464865, 0.28032495813553227, 0.47707746847276106, -0.00017570261709012799, 0.8968949049217191, 0.5311444603728818], [0.4759354466566709, -1.2194764564821983, -0.4491018137737253, -0.9117388303435049, -0.5784237263046069, -0.5667254500770776, 1.9299397465067991, 1.4168107304151805, 0.9247439831312257, 0.16549382485400782, 1.1943485853247091, 0.18704874784725783, -0.4781007621388744, 0.3544428807998939, -0.8294986818532283, 0.08619089683709287, -0.09340028552412365, 0.9813535112819707, 1.0161152043005954, 0.02549925116814879, -1.100952510292492, -1.0816372055223882, 0.48807488789939635, -0.3564942123183545, 1.2781851382756777], [2.1814904197087053, 0.03780306027085787, 0.4942639126414836, -0.6215907001130514, -0.5797004788365467, -0.8563677032459955, -0.131573163317109, 0.7317905528070883, 1.937826463077067, 1.044046123504313, 1.255959241936554, -0.7481967350200077, 1.0701760412076344, 0.24978657423145934, 1.3877470353401316, 0.5006527683722168, -0.07881260694660144, -0.717024577302144, 0.07922876518590384, 0.13354782820574448, 0.9934902734668325, 0.1624926185184505, 0.7331997176606219, -0.04253889976649148, -1.5945067869007445], [0.1865366343774985, 0.25142043986721485, -0.5122375583341584, -0.6257880328595378, 1.0199609546972779, 1.698906882669096, 0.15977626745042878, -0.7189111271266817, 0.1458767057096021, 0.09791101894921694, -0.5055844562489824, 0.6611285541401289, 2.4400859507480486, 0.4810560842058032, -0.30434092327365897, -0.13842739037922858, 0.33935757899772273, 0.6955323130622733, 0.21699379895018822, -1.0459650068701933, -0.4104003413354322, 0.4940567004855731, 0.6456186868749478, -2.082676681155709, 0.07409302242703543], [0.8231283940585679, -0.9013014202546006, 0.931795276608016, 0.7831833436055332, 0.5696217498896367, 1.1642734085669821, 0.46525975567516, -1.3599943695617926, -0.12782911653550136, 1.5565470761197626, -0.3072511647228594, 0.56587935098529, -0.14367559949956438, 0.35972890210071023, -0.6497193409755033, -1.874175200021276, 0.0077823549733934344, 0.7395125501931076, 1.3912324904826583, -0.38700672542891884, -0.8617249193738699, 0.42203655463840073, 0.9180712797632871, 1.1702981239627408, 1.613420354170329], [0.7994728787172243, -0.4282067324490636, -0.37953949131331016, -0.4868979937891969, -1.0352143766248558, -2.139553495119244, -0.014372603679030437, 1.1577633483259129, 1.0335531507408855, -0.11671196092185082, 1.062884925212762, -0.17277497858251326, -0.6038336055672902, -0.33071130841576923, 1.8893992185428756, -0.38616606484339927, 1.056647979748201, -1.407641357990679, 0.837037764811192, 0.5354768000543643, 1.5485425973516178, 0.8575144510983733, -1.2647355426072204, -1.3542364990420774, -1.0481930092063603], [-0.24467310455730976, 1.2097584840806175, 0.7636077099129005, 0.11632973160095968, -1.9656794366968173, -0.016824296337056708, -0.3277301347583861, 1.3525439799658898, 0.330868834552431, -0.8892294079336899, -0.26259872122171746, 2.209086896607721, -0.2413035366093756, 0.9466504641750165, 0.7574533721366291, 0.02251375564040954, 0.2936574684668274, 1.0455476998747462, 0.8556076846274416, -0.5020812137765754, -1.5015389359378082, 1.3626809513326092, -1.7162478764096822, -1.088983347078963, 1.4954859540954466], [-0.6985716736075972, -0.7908156624337846, 2.024318728756796, -0.3730773681616804, -0.5874162212846463, 0.8244655649167018, -1.1353920014991767, -0.34007570798313647, -0.8251168143579836, 1.2153120356691196, -0.8411592931840709, 0.7610084518746812, -0.7463806714396858, -0.6978326009179676, -0.6094666791197316, -0.5875099845085463, 0.4088615583297026, 1.5388449810986937, 1.6662237685751793, 1.0626432333973774, -1.6824986566935891, 1.0074259019434977, 0.9942145525227335, -0.3288255861592873, -0.9882820427878067], [0.8580942901165531, 1.4301183267830428, -0.9111064907183128, 1.0566759238997723, -0.4137040546086125, 2.0299841225346813, -0.4027309573140521, 1.0120772259724968, -1.7140827990392424, 0.9395795479772033, 0.09912801487846006, -0.003990592484756655, -1.9491965181089874, -0.21476261367361635, -0.5802545567305604, -0.47630595567628425, 0.053460741161276325, -0.8712578919809485, -0.29587912586628146, 0.5219713645715796, 0.10007978415160967, 1.0670657226989013, -0.5285747784100233, 0.4610826737083533, 1.0883720267872847], [-1.2525953789345925, -0.7391774489619775, -0.23774975027748285, 0.7168418497227244, -1.6937005946744548, 0.16903041822312517, 0.7304709700154307, 0.05504906804571698, 0.45774043655242963, 0.4153310978393132, 0.05108869932388333, 0.12430616416601355, -0.8579728842253819, 0.8002348995658917, 0.010606474501839479, 0.008616537676050376, 0.9763205518318863, 0.4449084563607197, -0.9101400303268331, -0.5549922487039781, 0.2811724334203318, -0.7067132263070609, -1.1086992924523635, -0.06277938255224448, 0.641107280183987]]], "biases": [[[1.0173591915443527], [-0.8703355796968719], [-0.9374580153359774], [-1.9661256401727054], [-0.0004121864788357535], [-0.6116083547558562], [-0.18224016194073595], [1.6359791783779951], [0.6028233679951818], [-0.4205213258896956], [0.17531058425867851], [1.172544117520629], [-0.4143848159703925], [-1.3860389309116907], [1.1936924457780964], [0.004791046205698677], [0.10771584856682516], [-0.8162197190469082], [0.5127192696646118], [-2.3677330612488188], [-0.7941783563200557], [2.5543514811557806], [1.560812296773892], [0.22582877808164936], [0.3745096873942847]], [[1.1066659236300924], [-0.014066315008400162], [-1.996627225037792], [-0.5269437390899689], [-0.22790990114358628], [0.15811925073887992], [-0.7318802384148387], [0.3490846027918083], [0.4554923751909732], [1.1529001276263338], [-0.9616866878708235], [0.005342101904029838], [-0.26936338409015687], [-0.18747399126888578], [0.444184259346172], [-0.3122037063016913], [0.6464451416359577], [-2.522528303686269], [-1.760044644919022], [1.422372724457443], [-1.7561844330740835], [1.3465212733900356], [1.5430362779901552], [1.080961369416887], [0.467762447370606]], [[-0.9544908039542657], [1.3532640189683538]], [[1.1568910686652203], [0.47683648867496287], [-2.546646063585046], [0.061904015427293894], [2.701835446152372], [0.20642013992328412], [-0.3424871771612031], [2.01940786687205], [1.6497937887296203], [0.7401515437424684], [-0.9617827738879546], [0.1287963353911566], [-0.18423352934194767], [-0.15806798880366138], [0.03445471423039371], [0.06287084669816372], [-0.4366852263108994], [-0.35119473385479544], [0.0737228676419283], [0.03280535321565823], [0.5205586775218134], [-0.30849288172837563], [0.7815513189989834], [-0.9857634042962165], [0.4995733450822577]], [[0.3738766770457665], [-0.7097327115647454], [0.8369045712413604], [0.8355325750319399], [0.6664045133425992], [-1.5844681617088903], [-1.4945483640936523], [-0.5463238364697987], [-1.7418810461066687], [-0.10083416114685467], [0.29234369225772583], [-0.1829122575283276], [0.42964300222114865], [0.19345180157677885], [0.38482958368221815], [-1.2316988650095868], [-0.5920585664316782], [0.2545345080306414], [-0.9753247554877127], [-0.3089341292316686], [0.30119437945058475], [-0.3204514001513639], [-1.6541993705938813], [1.0013556904722511], [-0.04678212092662522]], [[1.2374293347972474], [1.0539636951025326], [0.3688690920169911], [0.825523919687686], [0.5083775567761728], [0.23595522794889517], [1.3864495716076808], [-0.35422433022088984], [0.541765220837782], [0.5424656919726099], [0.6753860174959886], [-0.7427871607815664], [-0.26357392151001385], [-0.5817350819351177], [-1.7519855612907715], [1.7450017621732479], [-1.2859135704004414], [-1.0909709381841914], [-0.8312999697985499], [-0.6843624806703972], [0.27655177943837667], [-1.0832720258922177], [1.028692966191971], [-0.29286967094754845], [0.29052701277657267], [2.1164516566319875], [0.4730923687775907], [-0.6794091848449457], [0.17246707190993138], [-1.4200841705678617], [0.31531610080153916], [-1.9688432903992827], [0.038237303540827904], [0.8083364310227529], [0.611790861794761]]]}