{"weights": [[[0.588557524316794, 3.0104933568486087, -0.3599859378654611, 5.207744438026809, 0.13912570822614143, 3.155047421488055, 1.2844208319535813, 1.2611667827462987, -1.4470329376284745, 0.6379468723776123, -2.526396211998441, 0.2650929405522926, -3.4185326270396317, 1.1312301367874167, 0.06102838611756328, 0.9401838616195226, 0.24107964373781507, -1.5792116461000325, 0.8339680337046247, 0.20168925874523255, 1.9688187767686767, 0.21172877722294034, -1.2017373849802593, -3.579348681452505, 0.7784856126921545, -0.8209543628372838, -2.54038703030272, -0.48890174279482146, -1.7115947475064426, -0.6884583900034167], [0.6364474859534995, 1.4038940116738015, 0.28496173670547126, -3.7400150911949344, -1.7505859265828776, -0.7131784227647416, -0.8683870316404496, 3.1339049433471233, 0.24055906725108922, -1.6102941783124465, -5.379604165460694, 0.6353364483514522, -0.4316075527955819, -1.5125610371499418, 0.8344347317682663, 2.704373432462251, 0.1037105015627383, -0.28256585563224235, -0.42582531939265084, -0.5343770031044337, -0.9374494096925159, -0.3370481940945151, -2.39462772296554, -2.3457016026294135, 1.133702848915354, 0.2701512366001047, -0.5970075580680045, -3.4925030980892084, -0.08643688080456734, 3.9449998675671694], [-0.739811471803138, -0.2566910639177603, 2.1796721268330934, -1.2244059640856217, -1.9822262179691603, 1.190042635240959, 0.8642781940480289, -0.3603035899621007, 1.337008303122633, -1.450492591421424, -0.5582672622095368, 1.5484134375463432, 0.9708774037490644, 1.8538715757950124, 2.1937576416772155, 0.6411671915315535, 1.682539304052333, 0.2656396353578749, 0.09968651860867982, -0.2110765655263011, 0.017879038526873423, -1.2227942043237896, 0.5182321774659283, -0.13715440990233327, 1.7553590177948526, 1.216681349417511, -0.6160634871020879, -1.6173237404807592, -2.027157293120747, -0.39448479500269074], [1.1143582189936256, 0.5528042301760573, -0.9109756831708142, -3.4421946852294028, -0.059029268854998145, -1.7235795973953945, -1.7987221683858754, -0.6391393487470721, 1.437063282511199, -1.5917044701789507, -2.9510315664520905, 1.411520450672485, 1.9145198843823241, 0.6732639509675514, -0.5114493349512834, 1.2595121455379537, 0.7806969442595307, 1.3172060447396652, -0.0220948323736317, 1.3982851441353241, 0.502438819606682, 1.3468514600902415, 1.2251806179194515, -0.9921268848907301, -0.9430572968722122, 1.0623328438481519, 0.9924944118698928, -0.41888214387835887, -2.2358226445200686, 2.604502335587885], [-4.736851643662456, -4.7816296993974365, 2.071702589158171, 5.567830087040482, 1.965733395942319, 6.456310021464293, -0.6885139523678905, 1.500105194317161, -1.4871291719458195, -0.8152154404944444, 1.7714064896966746, 0.7486908392665742, 1.1056099308639298, -0.5314410282993034, 2.956195952213931, -3.3567797845701617, -1.2399910737772444, 2.46846058926593, 2.0150573057362693, 0.4837768192302409, -0.05259109496051862, 0.5535553512789441, 0.7245054329206955, -0.8783115087927005, 0.37052016470848703, -0.7306554961115117, -2.143348403858673, 1.3784301435380881, 2.3676326291231087, -2.3665503135227066], [1.2236717935746089, 0.8656145032482865, -0.7247326965633942, 0.9771108303027374, -0.646446962926638, -0.6220471931258761, -0.010136960739076988, -0.7410073427584537, -1.0952706705476547, -0.20901469323068292, -1.2678600925185892, 1.4415703769023833, -1.2198184408840935, -1.175967257187875, -0.46816458634090347, -0.7992503797371547, 1.184033390721293, 2.029523964317973, 1.8692520505062982, -1.065829233597292, -0.829396592996821, -1.3739760938656775, -0.5209503231280109, -2.0838267203463983, 1.2150464607632236, -2.5282527394319563, -1.8108099638471848, -2.897808391101888, 0.9260740181260885, -0.27539158130129404], [-0.9293880549942466, -1.932066283831955, -0.4179338291118665, 0.716089282117318, -2.588711496028615, -1.9929748399464953, -1.069403759593596, -0.5456055602254773, -0.12697526037013307, 0.862575117017973, -1.4480430791935819, -0.5419072452169518, 3.099978762598269, -0.5312008384547209, 0.3596557942334674, 1.567402895609869, 0.7639649616500134, -1.0167197738099094, -0.5621945393143706, -0.5662248134349132, 0.5944996531538791, -0.7761798006332016, -1.016705751681787, 1.0051977999787733, 1.9573754131937633, -1.3966980945148932, -0.20674003769307234, -1.1277310440802597, -0.5870910569975782, 0.8408908933560763], [0.5272228221002824, -0.7420243061209383, 1.0428674335416732, -1.0624409112900206, -1.2475156342551643, 0.3234904452573274, -1.2439042008850476, -1.0927602124789069, -0.8828018320628476, -0.31058199987500884, 1.4406401628817989, 3.155033982041627, 1.5985039042764144, -0.6131398239996833, 2.0848684463961424, 0.08864143652763834, -1.7357042377152205, -1.9218610804657372, -0.3315205725778091, 1.4913767531454836, -1.0126307339185647, -0.19959858142746204, -2.110362336712154, -0.15728524694749252, -0.7262662822649844, -0.1681648438167349, -0.369248941990359, -0.38849637770840906, 1.9425565888395935, -1.0279118064182655], [-4.280261784552706, -0.14011909123369498, -1.417111042984624, -1.1300698167857401, -2.935911764711722, -0.024286524611461514, 0.0019299596410615942, -1.6000004195467776, 0.8442184506466893, 0.953318807563494, -2.228397754771007, -0.29494468809154895, -0.9320235622739697, 0.5012731767285244, 1.5127524165910287, -1.5749799037755523, -2.134501722043306, -3.275125014157421, -0.6937401103686341, 1.8782715372966745, 0.42467727193640226, -0.7070898384559823, 0.41336580754361385, -0.04176530909402405, -0.5110375293621428, -0.7293939167188229, -0.45083740445720183, -1.4521083483441173, -2.040917125415859, 4.100211575555839], [-1.0215017509785074, -1.3098858651898901, -0.24356174311772993, -1.4419922966586107, -2.0085358658760404, -1.8033116190271667, 3.2958489341961767, 0.762573653621545, 0.08617254680211749, -2.3270218037410584, -1.5033130108485133, -0.8090802393215656, 1.0089851111602115, -0.45632623611141876, -1.695248784374703, 0.6492936231032334, 0.3761362167376462, 0.09422914676138038, 2.1834075869470793, 1.8745528085964205, 1.2474988662030513, -1.2982831027491797, 0.8612133830091347, -0.29539670622545505, -0.06597064951629941, 1.4574109954664032, 2.2234026887663885, 0.6268215565052652, -0.7076998450781888, 0.19329927707801212], [0.8616736748702947, 0.4580434522818796, 2.679103006343423, 0.2659010368845635, 1.6333125255146357, -0.8149670984516899, 1.1692859582962565, 2.7177352744190033, -2.732260114181183, 1.9892692847212765, 0.1499678008426818, 0.5943330552117382, 0.37370755031644787, 2.7708639606020586, 0.11396148350684755, 0.5166233302851461, 1.7336771498987038, -2.56138624313905, 3.7046415073825085, 0.5593920395862566, 1.165319101569702, 3.077513066001749, -0.8768340254954496, 1.6610143262171115, -1.0349177969058283, 0.33461358471871144, -1.9434486319603164, 1.1596942917125368, 0.6777270868234778, -0.6683283291975154], [-0.3142614706636251, 1.491471931823158, 0.9678080276990744, -0.780188274069686, 0.25734371766009295, -1.5632833878874401, -0.9419483391322193, 1.8201183867367658, 0.0562390617540051, -1.150806472474528, 0.6400212055054053, -2.226614022407616, 1.502193878798015, 0.9347296977803636, -0.8013549206445089, -0.2888529266927132, 0.7867088326875087, -0.3309131119211756, -2.2268702792706723, 2.675418927011171, 0.42044150923841456, 0.9440606191184189, -0.38600788100922784, 0.6588789508007583, 0.9794507072486904, 0.7264147804193228, 4.952054699630913, -0.6284947576226562, -0.9632145481500801, 3.4048365472199795], [1.0028183540244129, -2.007289501487028, 1.8898432376207863, -1.5062815104760485, -3.5368507985352537, 0.39097394363477517, 0.3953647942671379, 0.7550456823456846, -0.972928075590679, -2.9672764231858775, -2.1530884822703853, -1.667882227634326, -3.290578801998963, -0.3378574113253314, 0.14564678167655767, -0.3288025761663363, 1.967742777667812, -1.2287953459796348, -0.6001301818420092, 0.8788007558921272, -0.5441410927672243, 3.081210433033112, -1.4832761145360704, -0.8358727628600685, 0.7271649846076239, -1.55117580869284, 2.3190725849053626, 0.01604480324326752, 0.7025870527986552, 2.3039275098833265], [-0.5414875001451294, 0.23432233799613633, 0.2024700846528507, 1.1104992015082136, -0.9020968841382746, 0.045617054623039825, 1.7888562966312522, 0.21785549296583048, 0.781548849169647, 0.008107227085124999, -2.3341081322259525, -0.2408791145253124, -0.5638657477199166, -0.11790793632786799, 1.5222066373600296, 0.8582412859748505, -1.5067817182000507, -1.1645329129265443, 0.63858601008912, 1.3432935120460794, -1.7616844443916526, 1.4445942061216024, -0.7478461058523616, -0.42182055170188526, -2.2204700936282986, 1.4447924523572846, -2.2987834893642725, 1.4578720683314388, 0.22103861339371902, 0.1514399098239488], [-0.7063191337280172, -0.05017486565787253, -0.4118651622668916, 1.415194490904641, 0.6855851113528925, -2.3214177606359776, 1.1661506125777743, 0.5125907686367022, -1.2850554129301766, 1.561933432920244, -1.662590294067353, 0.33089506233544297, -2.2574215595471827, -1.890346230897421, -0.22397912232824604, -3.026764000381565, -1.1024563857859642, -2.498273349605282, 1.783251816201016, 0.8431227446429482, -0.7184870326309379, 0.8635571746267763, -1.8259673486839496, -2.0425239911351953, -0.39059734599315665, 1.1567039744296856, 1.9702560401035119, -0.6198883617757743, 3.495622221974945, 0.5211841144001809], [0.6405666651195194, -0.2804418265947524, -2.666620348476661, 0.5247387363766717, -1.8297107057687836, -0.8633431198679399, -0.630413220407463, -1.1593597425842743, 0.5296610770617524, 3.0740598709859515, 0.5175645331400766, -0.4407058862512906, 0.24673702070427656, 1.297454371755816, 2.829982497692614, -0.8221457075977255, 1.5357425947837018, 1.5661824954458838, -0.3552178242825769, -0.8986965541884298, 2.029619984893669, 0.12789739413860948, -0.5087481425360132, 0.3696094416406149, 1.275672436030316, 1.1908805704616596, -0.8088707183200481, -1.3921811555135266, -0.5925169823784591, 0.6773099967880318], [0.6486373558701695, -0.5636546478888036, 0.5077054815246398, -0.4518106773101786, -2.0192145660048326, -1.86658756708323, -1.4882435334930684, 0.4030740989389303, -1.2734559774178096, 0.17593345438651695, -1.095386307419855, -1.790581035354086, -0.5515762750779463, 2.364684329219905, -0.6742368459402991, 0.2428292847153821, 0.2516949457078673, -0.12730221766607097, 0.7962178086490753, 1.0018707467327983, 0.40308181101800306, 0.3054217889852523, -0.4989565363138475, -0.3382680439642157, 0.841479930953513, 2.0069348634097444, 2.2430606256588033, -3.824553353215109, -0.4513958127906725, 0.23326588686124225], [-1.6499513827234966, -0.10071618262393219, -1.3492930147497348, 1.5760568727857707, 0.1256794065353033, -0.22387340609208833, -1.5410524011144633, -1.554691714109168, -1.7518807957417037, 3.257870640807323, -1.7255371368662307, 1.4594791617556937, -1.0151173503789814, 1.0378934363771781, -0.5867286592861501, 1.1122323809319543, 0.7046753791308394, -1.0425627595006268, -0.5929583748208654, -2.0872306346267266, 0.7674867551262452, -1.1411896951804943, 0.7014184789432204, -2.4671002269776134, 0.2134812462011052, -0.31322341290322886, -2.305223978638765, -0.09071678808882984, -0.28923890317594586, 0.3174217067741401], [-0.07478468685058225, -2.6998336645921683, 0.47130236025403743, -0.2677144129453824, 2.4808014833428076, 0.9888440339138534, -1.2407016563354798, 0.4288820530410825, 1.1475860266151297, -0.20304415538831797, 1.2492719737445952, 0.35727879028374754, 0.0398826318684981, 1.542796669322099, -1.2741039255732272, -0.9518105489307771, 1.4485953294514893, -1.8795606120700872, 1.6999215209747207, -0.8637456609933672, -2.5295718335837396, -0.023805444610322243, 0.25356935128886443, -1.910107641299166, -2.5023996673532043, -3.766457861669434, 1.9512645822190102, -0.5364281393916807, -1.2166579771927422, -2.824290132973871], [-0.535019001993557, -0.9799813363022825, -0.7305213391351268, -0.5798085861554888, -0.32941363248114036, -0.4270333471523963, 1.8736554128000227, 0.21698430985636333, -3.267287620779561, 1.6187014893610812, -0.043441939891827236, -1.442024750383163, -1.9916057292327236, 0.6780348269106101, 1.2651602445197823, -2.958121724994407, -0.20575888419585303, 0.2332986573031585, 1.7112953181246122, 1.3517521711159939, 1.7107265444699962, 1.3975393302699193, -1.059495978010466, 2.3593260524465203, 0.7221805920864179, 0.8600720136169887, -0.3586407975271536, 1.4816945894738844, -1.6634569884289665, 1.3392982934967073], [-1.8284405756380713, -0.19093299577832842, -1.235021487297478, 2.0644877740718526, 1.4478459583420837, 1.9489478511893514, 1.4901392406860217, 1.4842834610272586, -1.4844402310839049, 3.795806105738546, 0.8052678896313696, -1.110077760298433, 1.2355802833660186, 0.7569393751227593, -0.5646839127131212, -1.8281235694382247, 1.7145871579122454, -0.8167809846216235, 1.6970070089200686, -1.1501630317492557, 0.8716873784886542, -0.4498942269619376, -0.1325088280844282, 0.624403045683511, -1.4278962921420595, 0.2364876877871897, -2.3411768232710686, 1.7048223940416285, -1.2711270534728905, -1.0124500190704417], [-0.7445721559766869, 0.6806668085767038, 0.3628024984577508, -0.19149179898796317, -0.5259994037724509, -0.3316055987295943, -3.5442506461185728, -4.107716803928844, -0.03345736752304479, -2.1659002556615436, -2.3062737689245525, -0.11329569069798272, 0.15151834085453608, 0.2061267375271441, -0.21378187692892633, 1.3334762807227807, 1.400882264802609, -0.4397657360573384, 0.9927326592096628, 0.17390223434906724, -1.294672376439466, -0.6222899368737642, 1.0044868405374674, -1.719936878419927, 0.23553541242488302, -0.1996210823405097, 3.4785207008997356, -1.085463130526432, -1.4845966585213395, -0.9431026932674591], [-0.37092695434845646, -1.0543103491898334, 2.9223335488180537, 1.2731057107327386, 0.7543599722972276, -1.6058376203534614, 0.2129376602541579, 0.2902803639780453, -0.27729225947567077, 0.6238894400485415, 1.8786812714764662, 0.3494741789947445, 0.0187202030920854, -0.8840453717700707, 1.881397381967735, -0.4246858701208263, -0.23018946792223596, 1.802364534256331, 1.285909406359929, -2.246627027690859, -1.0053714438872903, 2.629948457932659, -0.7451303212897973, 2.911561946044872, -0.687648165974364, 0.33561049382259317, -0.4103039239275051, -2.439964191101175, 0.944844862669012, -1.286935104792975], [-0.1516244878528532, 0.19281157770487212, 3.4684653677881214, -2.2900488814376696, 1.1216945601589736, 0.42355062286700834, 1.2984258868769696, -1.9308916252999448, 1.6630597516352936, -1.0415129824748284, -1.9920552443572723, 0.26381827222990295, -0.8823958524961225, 2.058867169907784, -0.41642001815159957, -0.01692596878330666, -0.2551081860513695, -2.3321367702563127, -0.1803028282068181, 0.6977808788409686, -2.28177023340965, -0.22763393800730566, -1.363314155436408, -2.13063578617336, -1.4894402732593246, -0.7380535404879583, 2.0537276627562977, -3.998340311874845, -1.778999791098708, 3.775655399054569], [-0.19678486302759662, -1.1422498805531944, 1.1621031445920944, -1.4222140049354672, -0.08348771586848311, 1.3807128021073851, 0.15152355767538636, -0.291434811542616, -2.092958724137125, 0.8812917276524216, 1.2653094407686096, -0.4153480849063523, -1.6384462336525305, 0.095551485139392, 3.1775896686140084, -2.800098040737343, -0.23977728661175138, 2.2664086506848258, 0.690859371297796, 0.5962185517981606, 2.373741650831686, -0.30049365895752245, 1.3969349428821094, 0.07688247602908561, -0.862401035320191, 1.6372527376527792, 0.8332038885788697, 0.24859303225779725, -0.1880200126306444, 0.9403259964079198], [1.4571877999197438, 0.0532163310582531, -0.19573852511935128, 0.9735049747272145, 1.991751512745811, 1.670139365385272, -1.0735553994105027, -0.9609335223726243, 0.03252661210515389, 0.4811613702157707, 1.0627028455335172, 1.089411963436479, -1.3263475789014993, 2.071020484536751, -1.6418718942291535, 0.12160170790505438, 1.0109398592607668, -0.07337368450749775, 1.3915544355899356, -1.2925616821925487, 1.8790004824953623, -0.9373204517644537, -1.0925512567572233, 1.8021361823302353, 0.6744277022353805, -2.3923947795281753, 0.3499673130853054, 0.3858644254728203, -1.1088411785081218, -0.586995836170122], [1.3740185868884491, -1.2565193696306265, -2.6553358768666717, -1.5010092604706, -0.7534216877434652, -1.7774620757863901, -1.3034270207887204, -0.08969768765996519, -1.7464439037582327, 0.5234956217152233, 0.813717457529959, -1.8035049987963834, -1.5081479578779964, 1.8119287853969095, -0.7525434499503929, 0.0037149832087943913, -0.4176240807681169, 0.0046044463394177195, -0.38894773401842125, 1.5485286416752586, -2.4566502534566084, -1.0076878713346518, 0.6914825124108325, -2.382184723636706, 0.7849032012116292, -1.7662280318723795, -0.9465810646696857, 0.40996825131086806, -0.7020299054058861, 0.9318903630661469], [0.02068595508086533, 0.3714484406160916, -2.214836046712557, 0.7640630885266301, -0.8916992877574799, 0.9532685950275696, 0.9280116845764856, 2.891903612882604, -2.223263080737005, 0.749168607603721, 1.1048900809385094, -0.07706711466261908, -2.3935364429582933, -1.4330030580794695, -0.5052351072696836, 1.9351162775374124, -2.3810108222728186, 1.5050126226511233, -1.1632039069534208, -2.575866585086075, 1.3141193120241568, 1.0009656662080668, 0.7831099626201857, -2.617450488713561, 2.258531429538458, -1.4408007697668086, -2.9983736704872936, -2.348607634841246, -0.43363893245900587, -1.4782729327711537], [1.7598302385126243, 1.060172300282476, 0.45914987032002386, 0.911003751038145, 0.20215922330891642, 0.8550423360005944, -0.6618603732606189, 1.963098093907255, 0.9673569511067437, -2.1115224733326117, 0.7149105706663247, 0.5675725104631442, -1.176079557794279, -0.045882971513956, -1.3103054929818025, 0.530408745630322, 1.2047516795830446, -1.4471264674393391, 4.135801253374507, 1.6148927122734527, 0.8180759813369479, -0.42854289548706953, -1.2379511513553756, -0.8937565634935433, -2.6515779895312375, -4.176827725685207, -0.6881405628237294, -0.9084797479995049, -1.1240232568979136, 0.9605680901739795], [0.7316807380407646, -0.05092068611065053, 5.412636597032282, 1.1883499790291285, -0.9556520561031021, 1.2903315829290738, 0.33021814990026754, -2.19955255903452, -1.7538736812153064, -2.170906417620856, -0.9351619195314713, 0.023278747893499156, -1.5838482870266486, 1.6381428145287087, 0.16467556597459151, -1.4776905352265077, -2.5073058445974534, -1.086874782929415, 2.7953550022719895, 1.1926787352601085, -1.0234295169017549, 0.36679584112138225, 0.6506146530880946, 0.9060566346607019, 1.718267788949009, 2.1054732192792653, -1.2521874707069003, 0.8209000835058758, 1.973590142683326, -0.9251193829451925], [2.690639118730385, 0.6496103523758772, 1.3051968451407674, 2.9070482438059315, -0.39247460167356313, 1.154272743936597, 0.5090728031768927, -1.4038282315414532, -2.198129848776627, 1.565377386549327, -0.3299861921246714, 0.42315567149444366, 0.559442217436841, 1.1365977121597233, -0.0750471648840844, -1.7633767234237037, 1.1187761423884897, -1.768955672084522, 0.9054842746912598, -0.5024425220463675, 0.5211094288960448, -0.35225954034162826, -0.7813002430610331, 1.7557352968329896, -2.0088864917274427, 1.1789826589831423, -2.510332393656001, 1.9730355792448888, 0.40105678062278655, -1.2112442694300791], [-1.8374826328755651, -0.6966579779284415, 1.1981155568484425, 0.5967710201088865, -0.09827413977590947, 2.1408163002813367, 1.4121897681210975, 1.4362830942035778, 1.9845164014745187, 0.7985317099075543, 1.17528613357842, 3.036929484765244, 1.0119166777922273, 1.3282471742918498, -0.9454880849143135, 1.9898292283835908, 0.12742981548412116, 3.446859164600604, 1.655192935877205, 1.7467212822805014, 2.6623676378271552, -0.9976704678580622, -3.2486632401986695, -0.40512285149865246, 0.4774916191237024, -0.023111732394276916, -0.1868378346621782, -1.1824183585402237, 1.2936926735648329, -0.4916116339911429], [2.1608892163788944, -1.3702040610652642, 0.26534845089361614, -1.6683527043155224, 0.908297820683585, -1.8573657005290238, 0.3147178445116185, 2.555294041547835, -1.438322875416488, -1.051265259282036, 1.8167920654023824, 0.44472043382696286, -0.6237073327223825, 1.2504878741534156, 0.03523935495324928, 0.7219773724629709, 0.8380464455175386, 0.5931728382257667, 1.0469611499247842, 0.07399271830880257, -2.6948944249103497, -0.4672791091097572, -0.6610208116205243, -2.233937734113805, -0.05258058405771205, -4.216486495521414, 0.28081051614826136, -0.5017687005506484, -0.7608160767757907, -1.8282319930074649], [-0.46870755468963926, -1.982404719262157, -1.1754498603728436, -0.9540518115794003, 1.5040644688692832, -0.00218671822843104, -0.9860092875765663, -0.4407100169855446, -0.6023350315312472, 0.34296170160230455, 2.9941674513819425, 3.552411156381435, -2.1561774285652775, 1.5808122857809142, -0.5520608317787418, 0.3599932217492295, -0.7720545289990955, 1.0279484802088066, -0.9677153287497728, -0.3329427088397631, 1.1720840651720337, 0.17084718740966431, 0.6441249339626922, 0.22329070485122274, 0.6031663031938861, -2.7733944022688943, 0.5555799176653906, -0.660367744077721, -0.47348846303048403, -0.6058220396693562], [-1.345212020773079, 1.0238109328333074, 1.3209059547288395, -0.25776506604334026, 1.1750787928793205, 1.0774138481456477, 0.32616421434977466, -0.7806317751476457, -1.425662218703208, 3.313936646439455, -1.149936578419034, 0.4285667519976247, -0.963644806377844, 1.1947172440795681, 2.0073892516298284, -1.7728109672568235, -1.38189972087174, -1.0734282518317828, 0.5052433093681036, -0.6180220873137875, 0.4404414941015111, 0.44030350878397456, 0.669816778413758, 1.2458389094125635, -2.400365517178325, -0.7079532016655754, -1.6825086439683161, 3.0778905050977947, 2.927288268092287, -0.9921226772137691]], [[-0.004666982720944945, -0.0925729236779559, -0.022804139106797114, -0.33176021959465773, -0.29891260810896414, 0.47931223487944585, 0.2683162222945872, -2.2246426136035615, 2.0530948169412957, 2.2062867625060725, 0.9254972415811794, 0.3646423114164935, 0.6437363391504695, -1.118206349566592, 0.21601481540567471, -2.223926283621568, 1.2207456435344117, -1.2448559653247189, -0.47345769912739183, -1.7751587908124733], [-1.66206754728348, 1.6211817528921995, 0.2748338998966492, -1.1179982635651022, 1.479278629875401, -0.7833838494032828, 0.05399691317193146, -1.8116473576827168, -0.13862907139379707, 0.9133729970203305, -0.11225331883367518, 1.1621927541322568, 0.2969576794217298, -0.08000074894247818, -1.4439227556236942, -1.414878900023766, 0.27043545297231475, 1.816344858897483, 1.0181661615219644, -0.6897202791473867], [-1.0918366647654658, -0.5522757783960952, -0.021685815077690934, 2.00600180044623, -0.4275282635578, -2.2236948176649, 0.1666341685755766, -0.2744140138604243, 0.9400830532477837, -0.2798877606587124, 2.814949056880156, -2.2588385860416675, -0.46034727476893317, 1.1505597788325037, 0.2780345380862646, 1.500084170238751, -0.569428299902883, -1.5214638538776895, 0.2553614548603498, -0.9935370533026859], [-0.03862119083729746, 0.18896973077330922, 0.04259055424492847, 0.11326733715746852, 1.2265614252696162, -0.5601178444657817, 1.467323702366623, -1.9008035856905252, -2.8726248361692175, 0.777261870919557, 0.3061172889775825, -2.633722438442942, 1.0603325756073856, 0.21718515894171164, 1.2915071057054024, 1.4193908829749369, -0.5656736947825883, -0.2560364188808028, 0.5147897151938498, 2.5163833037203434], [1.4358028626135637, 0.18508775634515068, -0.45152912813840335, 0.440492973910302, -3.1207351677397486, -0.6675386952480646, 1.4346983531609991, -0.1453023822583763, -0.8756768724573237, 0.1140350247399616, -0.4641970506942483, -1.6279268400587612, 0.7118688410337877, -1.3152410532105028, -0.5403075749147815, -0.9291612219351538, -2.9766701674817875, -0.14219258456386588, -2.6918086111353365, 1.8286194518052288], [-3.7103154904790085, 0.20101371025547962, -2.1755584049716, 0.08430176197462638, -1.1770216659556632, -1.9690166858274298, -0.7537939935401118, 1.511448989697564, 0.3398986202592965, -2.2527746586299298, 0.4120494849802873, -0.2721381109154351, 3.618117447744783, 0.38468204553063584, -0.08502047588241088, -0.4286898470775965, -3.4402463237625422, -0.6983837362064862, 0.18279966998897776, 2.7198585728906544], [-0.5443685666021388, 2.2686771470735474, -0.27294492457754305, -2.015318477089918, -0.43057233089503233, -0.6536080246849799, -1.3521459854197866, -1.054676950267061, 0.5839977814134042, 1.8546838513899873, -0.8884385527981894, -0.9987203311783484, -0.49085987908243417, 2.4489994633012873, 0.9202785535968466, 0.20044646803822744, -2.0177147790063867, 0.9752192255104711, -0.4110378077218035, 0.6618820777688772], [-1.4158591838136605, 1.135258632022025, -2.4175827434548407, 1.797223923245426, -1.6643819540334266, 0.2817986837873811, -2.0258743616985675, -1.5822869243238906, -1.9760691942971607, 0.41782445071614005, -0.10172026819620289, -0.18409973913813132, -1.130864918901271, 2.9465968749095657, 3.88779427638274, -2.8216080600423172, 1.17722055164395, -0.7688999294446943, -2.763460983975655, 1.619947968213382], [0.1853674807452258, 0.13267436433407334, -1.1292315874135865, -2.7024345864072794, -0.9815654767386705, 1.7284058299799618, 1.4857668842835314, 2.007479729606527, 0.39477667146954726, 0.5528552329460178, -1.3792921144392918, 1.9402814508956132, 0.518807763494126, -2.3061179128060316, 0.2946237846150635, 1.776718805452828, -0.826974481124734, -0.3068560409043518, 0.8077076272174499, -1.7993598151271546], [-1.6577894944188851, 0.29987636291832004, 1.4640348982285518, -0.9352937405440273, 1.2338839372947874, 0.4253177988999207, 1.3166167189430256, 1.0211812167172512, -0.9107141270259683, 1.3021624106516023, 0.9404694090126113, -1.4859219225868103, 0.5868215191909523, -2.148539097236885, -0.06164216499688791, -0.3470348388191373, 0.8898838984081229, 0.19929472621312563, -0.14922263228850907, 4.381103573448765], [-0.7180805154610514, 2.3363968876085806, -0.922492505295318, -1.8245726920401748, -1.0797104692195467, 0.8644964307488584, -0.2606562196267947, 0.3505701087869785, 1.0966802260742488, -3.093211078050665, -0.7038218379101996, -1.2805878562437025, -0.09609451655428564, 0.7713742659191914, 1.1387772052817275, -0.6208360937217996, 0.33642202594338083, -0.8103645912969213, -2.512208532211555, 2.1678936280593466], [1.0732981111076816, -1.7008679880886175, -1.9016353547378726, 0.9475474572591062, 0.3082738465845569, -1.9301385118318417, -1.412834710870884, 1.5108362856372695, 0.8088698395507268, -1.8979081581229278, 0.9220722023905775, -0.6978381480233, 0.33811833951849485, -0.05669823965111192, 2.0665763968710174, -0.8722149749068134, -2.5067424702564063, -0.6774319994636594, -0.4330102171418328, -0.06883784246782401], [-0.19301018411991586, -1.0936244380681415, 0.2838322777467127, 1.3320678208273062, 3.5026179302617058, 3.05442558379149, 1.3252311986458878, 2.167431241718194, 1.131786270723464, -0.3608983153123362, -1.4726677011777374, 0.17476275919988743, 0.5930053859747445, 0.02334589101374542, -0.46983388007943483, 2.0245506522392205, 1.3745749929320286, -1.0090625386955536, 3.4122646854595886, 0.3667191542551065], [0.31604563413678677, -0.849070440940873, -0.012513269096111636, 0.825267452279032, 2.0455816862097, -0.4774257321530784, -3.102966775437694, -0.8629108616793872, -3.071625343137342, -0.6330741919276347, 4.239977803808746, -0.9373361055208598, -1.6958066074083074, -0.26072741013377876, 0.8768461576008845, 2.1444710031256493, 1.3877794025106789, -3.528046097420127, 0.2895901917859009, -0.03193089714042913], [-0.5738147216140862, -3.2501263251974084, 0.0077895542909255265, 1.2185769505694033, -0.08054869188809857, -2.236482540384183, 0.5571329386958507, 1.0419724396880619, 1.8977359387705681, -0.04639281386626859, -0.04047254550149124, -0.8541092566265345, 1.7560074822395153, 1.6660166641508423, -0.8804333693889645, 0.4332463260131804, 0.909718914149143, -2.027001279019981, 2.3871861220455726, 0.6856134437870541], [1.3173993790705423, 1.19584401141848, -0.027212640530288445, -1.4338824069924863, 2.135138723531557, 0.015293285366834773, -0.241664985368602, 1.9020767142021666, 1.6311801091168685, 0.35775347627221615, -2.450237214203654, 3.5850770674602677, -0.2285701994873402, -1.580442716722637, 0.7989047903015006, -0.519396855969142, 0.30961532725039687, 0.14137140572995513, 1.602397070657435, -2.5241395616842315], [-0.9980394220822942, -1.0676115295908033, 1.0934797895330997, 1.0951732456360908, 1.0377632891196398, -0.4148535706786534, -0.5511503521448151, -1.5265030513328246, -0.11179674066448424, -0.18641179307508238, 0.11965610743042257, 0.4877777424400103, -0.9894752656727687, -2.0276079556915216, -1.3321886991425163, -0.19443211075104536, 0.8692152941838127, 0.8169261640253426, -0.5130919019299729, 0.21169406929544832], [-1.7483925920153325, 1.5161755424685628, -0.011452556478761042, 0.5667121849078438, 0.6138570694379359, 1.1022790240212825, 0.25256073157123066, 1.0156877671422504, 0.7705175239907277, -2.28269695675956, -2.463647624005951, -3.15366656996646, -1.1628551476006184, -0.08341744438053443, -2.1185062124104186, 0.32640259890948353, 1.1520545296053157, -0.10776022142660814, -2.230085273637586, 0.9550416968256072], [1.7153084717325053, -0.5052187454343823, -0.3649807981399862, 1.1226755443417704, 0.6372017338012662, -2.632232043764378, -0.40857604319830093, 0.06543838282285228, -2.717651126680035, 0.10289597724059621, 0.24370461741516228, -0.17285554503301093, -0.3972876732182088, -1.134313963833711, 2.1218485374265215, -0.2673990508247599, -0.8855904315394724, -1.3822504657874848, -0.7698215486725928, -0.49919413188055045], [0.11954505374825539, -2.724042745768205, 1.388791394432848, 1.2012394301940468, -0.13383526996353545, -0.8558575914284842, -2.267717471959855, -0.9759244567075435, -0.7728955182464695, -0.8165747417284546, -1.2080955715764703, -0.5825140596208662, -0.5974025577290337, 1.6120087208516671, 0.41486626844189095, 1.1601899786682521, -0.44453301239235427, -1.7190082958809263, 1.2391657614702685, -1.3867516622793714], [-1.0763058717442213, 1.0384360357884457, 3.103870146783551, -1.7679127819023535, 1.3181596434382872, -1.1755926096837785, 0.2778344202047343, -2.403658925013241, -2.212618909025067, -2.162591031846138, 0.5553555025790706, -4.313686208537886, 0.8444428435023669, 0.3298619939605175, -0.4169671214963963, 1.4312402154378179, 1.3176418855817176, -0.09476654818685651, -0.4041866619516171, 1.2144158839966097], [-1.3164469151554095, -1.6036809520760031, 0.26354953393514025, 1.0622857743884635, -1.9869042429929253, -1.36548115337569, 0.4300862882603932, -2.4993813682111665, -0.5215404406290772, 0.4597051782835229, 1.126553331697241, 0.5126762876953967, 1.4860744594449293, 1.6170880707555235, 1.4692826855214056, 0.5649862746628698, 1.939593872720496, 1.7920804373635597, -2.010455236910973, -0.8698307527865874], [-2.015305171754874, -0.0406180859221533, 1.26379795969382, -3.1365284782294154, -0.4972645514274314, 1.5870923047331473, 2.557910316359869, 0.6008281687818178, 0.6130104112175611, -0.5002683412161393, 0.0029110023447236344, -0.5654523025747316, 1.6204591422253143, -3.2681184709199216, -1.4095513491597433, 0.6520925390956611, -0.1745076932604621, 0.2659239681285967, -0.1353716283615257, 1.36355259014816], [-3.988561825245102, 0.3325339596468083, -1.46784379519154, -1.3404739471146836, -3.975868374479478, 0.08547005515791924, 1.1356169526485635, -0.8295197586421201, 0.3919216423333718, -0.8069241027114458, -0.6513693926759769, -0.897257427307655, 1.8120685731539576, 0.9631033791174286, 1.7041752594414028, 2.3516955374075095, 3.140544079025833, 1.7554597681296338, -0.3309401561903917, 0.1587889087170091], [-1.1517448077133075, 0.9011040316461612, 0.06045699127867932, -0.5655698653806168, 1.2351406874566304, 2.146832734731601, -0.5773533042794987, -0.7085261999183795, 0.3535804498986602, -1.2527039176108707, -1.2905154830588688, 1.430745983254834, 0.2636837044996988, 1.79211937067546, -1.3179947496962359, 0.7992443515910125, 1.3101914164321642, 2.1672783609102084, -1.8402146217376405, -0.5619006752112996], [0.3054316903206015, -1.0927865991258021, 0.5947744170356092, 0.26564495529109716, -0.08559124156680875, 0.908773122383472, 0.01875881032583597, -1.7746713365906337, 0.8031270520362395, 1.4908946328119037, -1.2847446843800745, 0.6000317085879797, 3.425324507141491, 1.11677181315926, 0.8067174659670456, 1.955984264695687, -0.30069676685294344, 0.35126852398571073, 0.4331600151206099, -1.4154687009709817], [-0.5279473982891354, 0.3670614591493751, 0.93314847397988, 0.5925923184314851, -0.872234461210601, -0.8174761504682799, -0.1633590608811498, -0.3089266539215978, -0.5607909589835764, -0.8282897066259567, -2.2974542322821105, -0.2316876804869962, -0.4609445718973313, -0.6623489201945469, -1.8114303461582841, -0.14338648028390244, -0.9433316286410162, -0.7214566753380443, -0.04810205015982573, -2.376179410981327], [-0.9796263306482788, -2.110851730387458, -0.08654363626881455, -1.0766814439633445, -2.6527308792163566, 2.261039558051077, 0.915051418636798, -2.1497311653067075, 1.7060337291778311, 0.4710272763094468, 1.1553202201063253, 0.4024879220038245, 1.9691444247206655, 0.71100279855232, -2.531697947699536, -1.5930893208192558, -0.25315016894960074, 1.4688397867264864, 1.5393534676693195, 1.1778743070380893], [-0.07160568159775318, -0.383765193337051, -0.8669892902392436, -2.1257313986915514, -0.47058717593754423, -1.1635555836577747, -0.1847960239955365, -0.3262574694545008, 1.3651840521152327, -1.043024362424436, -1.1077112919348981, -2.261809837618531, 0.7706703740524118, 1.0779484933413754, -0.366690411589672, -1.2247374635559694, -1.2610181265635727, -0.9092012843998082, 1.833175888521434, -0.3619729499111725], [-0.5033462913863097, -3.6498595698059004, 3.0147803273533262, -0.3772007800842087, -1.4459972170802515, -0.0721054183900625, -1.2666045574952691, -0.2884498337244381, -0.6017957116478578, 0.23292979732407618, -1.3047115762407977, -0.9473586989949325, -3.602120984355946, 1.50148098390523, 1.7406995581930784, 1.209075674679688, 0.23841818671004839, -0.7369849598579314, -0.8909946531608544, -1.4371998200210796]], [[-1.1602387353087533, 0.9272859205442029, 0.45487004050866164, -0.7430248043472791, 1.6265845586270617, -1.9767046294218438, 0.37350701988661045, 1.957599966850589, 0.2033947316206084, 0.03707603984115919], [-2.56360395520064, 0.2977598057225864, 0.04251417240918514, 0.8258123714276305, -1.1294154494556221, 0.6225616282758994, 0.5457932211681449, 0.7577922266670857, -2.561112729208097, 0.5023057898744272], [-2.2749212059832487, -4.014958301063484, 1.5265320875401271, -0.14191783296628638, 0.28097487830099854, 0.23052009338488957, -0.5775670610293918, -3.589687077516328, 0.20763497511904414, -0.0637272601482722], [-0.2316215366917967, -0.4576584002668454, -0.9164539986466338, -0.6465654926277702, 0.888909520145296, -0.24143547713438815, -0.01578666303299123, 0.9590401045933574, 1.0192619090611772, 2.068318425208498], [-2.6003913604382993, -0.638510939610514, 0.4050249707611788, -2.582376013974179, 0.4017306624472611, 1.6729603964296684, -0.4771918452260306, 0.6782002321522391, -0.22319260661341123, 1.3181461074571255], [0.5886607141905369, -1.1241545222184948, 0.8072502557256604, 2.8607130283880946, 0.3026483452413541, 0.3739836078529979, 0.01967225446287842, -0.5485719580076298, -1.0713053685252172, -1.7907263147662362], [1.0093367012073127, -0.5720725407440495, 2.282234487993249, -0.2339543270098058, -0.1953331575383025, 1.0021538958236895, -0.6427023013316285, -0.6740236399285122, -0.45535827854744015, 0.4365349844703316], [0.2127474848526095, 0.9846796540165029, 0.570492782639274, -2.540967843325025, 2.4906329342466664, -0.5820960236561604, 0.29190831731010314, 1.1565173937039415, 1.2938282549842217, -0.5074578796497334], [0.39407876449290336, 1.0101821423197779, 0.09197570079687936, 1.1294489187603494, -0.10567489396983125, 1.3562604851658795, -0.006890519650504678, 1.6605893019588045, -1.779463952870035, 2.0103738712470176], [0.07445540406807086, -1.4198228237489225, -0.280916645197882, 1.4505053065191922, 0.540625840515606, -0.036508431002827274, 0.9672184422557714, 0.1992140937603608, 0.43010488864208596, 1.6815305624847985], [0.7027824111511874, 0.7776660286381442, 1.134893525379608, -0.845795815524716, 0.24093428601603958, -0.05032366596074691, -0.5157458287680243, -1.0371294488403422, 1.5779599338147179, 2.5021246550521554], [-2.182901166947952, -0.7601427918805864, -0.8114354424330593, -0.27038921234207947, 2.0175838541105495, 2.0275564399189268, 1.7516010183205182, 0.5965460309968909, -1.660927252352738, -0.5562903907933548], [0.05163632293015768, -2.790575732482676, 1.775965701156333, 2.381857859820855, -0.11992387504995132, 0.24581123529686078, 0.1023572301340615, -0.685515663787843, -1.1307056068832415, 0.36712024342044786], [-0.14060921927391443, -0.6024908070895986, -1.3682851449098428, -0.3136845993963865, -1.605058047301732, 0.12300023996882797, 1.2158423514091576, -2.398588532687923, -0.17654585825464977, -1.1051673927801597], [0.06492554269128231, 2.7972909786455493, -0.18165256680146916, 1.0374848604163345, 1.9699032127002185, -0.8104794417829747, 0.13493568660642452, -0.9832343914948372, 0.9898024338834964, 3.007439435253765], [0.8929276528443069, 0.47419068165564615, 0.5724443380279887, -1.9540106783008926, -0.4459184627393325, -0.5719192715750023, 0.5460160480869259, -1.8310342851936148, 2.115670185456057, 0.6175222327392655], [1.7872189346804566, -1.3617411551972822, -1.5789480143247279, 1.5358247333683483, 4.686489050389638, 1.5390142086490373, 1.2170213295381465, -1.24080218343143, 1.0884301607509754, 0.23942182184244476], [0.5049848961241171, -1.3742732858355884, 2.060628833878529, 0.24421393165015656, 0.029206971504716052, -0.3284735477728625, 0.49339963116860175, -1.6228721764568734, -0.997750879003594, -0.5663813910728278], [-0.5368577181342601, -1.1048021795639715, 1.626635347218922, -1.1718455016176408, -1.037989556886148, -0.9911764612834064, 1.1710874532040898, -0.09908210957055076, -0.07999674672303449, -1.1134461641964202], [0.6351776373397483, -0.9195866040536366, 2.1405466831997213, 2.722699471871558, -1.8716288937839214, -2.8642117971590606, -5.98987728057207, 0.21433762073514828, -0.952436095556716, -1.7299591261976568]], [[1.1809120847707772, -2.0164993416307526, -1.4724619239874188, -0.891130153828973, 0.14272413997851235], [-0.8800313999541216, -0.20165949303743194, -1.1514111141766223, 0.4225280452183492, 0.5392181393107836], [1.027707075585384, -0.4255445156941923, 1.9281540815778995, 1.827564512617009, 1.8252443478365425], [0.7618285015225882, -1.5481071662086119, 0.8000938308434129, 0.544261204168546, 0.21276063484369367], [1.3627180289467846, 2.4642920088598532, -0.299282179512836, 1.5356815860952193, -0.17381016188306297], [-0.8388877017954496, 1.1331519638792569, -0.9386268504793347, 1.6587988104068565, 1.1882476974971294], [-5.705775978787509, 2.5520870450059823, -0.6236782220817573, 2.0440590148990125, 1.6905583555332704], [2.652045573168399, -2.0649612516064284, -0.565563061689315, 1.5412294125257573, -1.3869810914134686], [-0.2684294542900708, -1.3481537726540425, -1.0721898872970905, -1.4781024347513765, -1.6865384056258486], [-1.1660590186432498, -0.6430900145230866, 1.129080984350938, 1.633305082606779, -1.8973605090644756]], [[-1.0624509639749615, 0.9826518699568839], [0.4762009191861708, 1.1222124444862092], [-1.0409186182482226, -1.6213785163849195], [-1.9192715860291671, -0.22019243448748152], [0.6533743666287374, 1.4592463516217105]], [[-0.708784166487129, -1.252615646487216, 0.45149785256292424, -0.09683560257458582, -3.228959053076088], [-0.42107859046352675, 0.3836720576308833, -1.0300628468800794, -0.9643908428677287, -1.6214610796350033]], [[-1.2904041309062366, -2.630580781370699, -1.6204336679135531, 1.6491952426413858, 0.26297209184469417, 1.2438619411913263, 0.3832367227595675, 0.9019895415736128, -0.41680867207102007, -0.36957342823818956], [-0.13685699986657057, -2.089973519670958, -0.8902820542846223, 1.7624110094644978, 2.9492451350063993, 0.7424437715670503, -0.23724194553234654, -0.2414294206134338, -0.4701849728510628, -0.2426569820491041], [0.36773107433193536, -0.46991444011320505, -0.6081276503544486, -0.6905695427702104, -0.7816656745899695, 0.7542693404658067, 0.5391451120662617, -0.3575164789786121, -1.2930511574379575, 1.5270412468635663], [-1.2568073033200287, -1.0503740923879739, -3.2862564629061626, 0.42047346477612085, -0.0023316827264651552, 0.8544334592902809, 2.123487630820013, -0.05107782053162938, 0.16768465977478528, 1.7853695183757838], [1.4528812395334685, 1.5971308110334936, 1.2206401749151032, -0.9629920495612858, -0.8185310403041443, 0.12077353566349182, 0.2645480150424175, 1.7710607170242114, 0.696163826508986, -0.8920759148293624]], [[-0.5108156214865047, -0.008533516441336398, 3.2787961814309408, 0.952599103599533, 0.3132445338594854, 0.1834060862713203, 1.3007947162002629, -0.6738646835221364, -1.6904022611554907, 1.7610010457217273, 0.06566166587907624, -0.18102939665706258, 0.9631403573569031, -1.4467342172377682, -0.17737791462008126, -1.0624180388912259, 0.2879126259780958, -1.281848425003666, 0.6440078464268223, 0.6047332598627203], [3.3709197832628948, 0.6629997098665869, -0.17222857594502988, -0.37339031816917045, -3.943839731352954, -3.6767828968929717, 4.884515825161572, -0.9885061250399135, -2.743757949268169, 1.4355447139233053, 1.749919195468469, 0.012561407754036753, 0.9608190337825627, -2.0322383358048044, 3.0404027221770047, 2.4160465532883224, -1.6635080661413817, 0.26323737462639424, -2.550503184456298, 0.8004170246648352], [1.0016454208558156, -0.9650679150643506, -0.7356857985140767, -2.1187547921404772, 0.4532198986811995, -0.5099002098204949, 6.894146089523726, -1.3274038767960736, -0.9652146915235276, 2.0264711940477693, 0.8018332787167297, 0.7944817857343962, 0.14645663517637353, -1.7621068299031952, 2.77780423283496, 0.25899623527747356, 1.740030026433739, 1.7319810902231805, -0.39877411229165904, -1.0518526217274913], [-1.1067362646495154, -1.8676877269634076, -0.39282286102598957, -0.473814490805386, 4.796163019541356, 2.1881633389291504, 1.0521591716679464, 2.6340764947688857, 3.1872610230266742, -0.015269592251480496, -1.2699966670089018, 0.4686713541234933, -2.3393843162427586, -0.6570628814601853, -0.2100581023511997, -2.9464176705580285, 1.7698799044768214, 2.3724651601873195, 2.133310113155136, 0.08166790225327879], [-0.5791518868571225, -1.8125818602392274, -0.099947112753469, 0.18832025221418627, 3.893755799179356, 3.301323756134649, 2.3796731509087636, 1.3138171024972438, 2.190606156334926, -1.1831311694593745, 2.0022820020321905, 0.6522493898020176, -3.5079355276936757, 0.46831142755273697, -0.39044476634896474, -0.6950758243096876, 6.058643627024195, 2.882675374727514, 0.7628456614665883, -0.4642407050181848], [0.6883694742703462, -1.364622047931002, 5.174627886284219, 1.1425417189393712, 0.6103923062049664, 1.5702613950720674, -2.3636018981751485, -0.34147040942110857, 1.5666251024113993, 0.6910426217153912, -0.15824453012822687, 0.13729025138973752, -1.3880281839572992, 0.6276063575607139, -3.9859445377216502, -1.2835514298842556, -1.959840291228354, 0.08958676346539685, 2.883231266995343, 0.7632774163539914], [0.9510318012156609, -0.09697990711182515, 0.7627233574986151, -0.5362138189155553, -0.32361370858116323, 2.572598941872493, -4.665370376947508, -0.6515911826566756, 0.9083041386905398, 0.34560137424667126, -0.16220885214755656, -1.5497764181252975, 0.49436620160723677, -0.3996425604285075, -2.139282833281759, -0.9255641811679454, -1.0758010143256886, -1.9608401986320527, 0.348336471857096, 1.3358559245244006], [0.030917165185137284, 0.6754510150708758, 6.5112279307146625, -0.673739574325064, 1.643965187697509, 2.0459164451320078, -0.37449951476275267, -1.1045842615654713, -1.6863668218598258, 1.5444044735788576, 0.39301427171426667, -0.3803039090948588, 0.8597473376306406, -1.0979486405444554, -3.34477190983091, -1.049611736599486, 1.6708301185801475, 0.5380158690874307, -0.08049313040814722, -0.18236948128331562], [-1.4243552071055186, 1.0807831886111665, 1.70325867236517, -0.5201118610128281, 0.42147417659151226, -0.6405912977022636, -0.2996293122895807, 0.0043597734603672295, -1.7449340518528438, -0.2245781104218726, -0.032790411459804054, 0.09614469144671359, 1.226655734042504, -0.12729320110614084, -0.7552068286438256, -0.2869436939872591, 2.2056768049135993, -0.08679860239800026, 1.0845221282696056, 0.13095224707425654], [-0.08659281762872174, -0.762794632912138, -2.5952426721581845, 1.1469441167964394, -2.213503379043117, -2.264186865884486, -3.071059794480708, -0.5938375610017493, 1.509897528174544, 0.42707754039913814, -0.7730169585972005, 0.4451629736669549, -0.2303385299654651, 0.5384215882856259, -0.3653588396887895, 1.6716882710905288, -5.703475946313084, -1.2192302269923527, 0.26308258864776324, 0.8405365217515435]], [[-1.510159943041369, -2.388894933093675, -1.7512391275933932, 0.9512260895270824, 1.9182325868785548, 1.5107362392888524, 1.1300033379291727, -0.5976387569514403, 1.3815663421518343, 3.7155941920802635, 0.301768684382765, -1.2701497819206888, 1.9883125503646555, -1.3406324520172037, 0.2643745803787603, 1.0230232653254543, -0.5979050761101274, 1.4004933494401908, -0.6216579381521657, 0.43325063089384214, 1.5874516975472868, 1.565264450755376, -2.9489538661037114, 1.26549859624238, 0.9679055528552625, 1.3976667654710726, 1.6313337370882333, -2.146269256932877, 0.4541512434615351, 1.8013463980044997], [-1.3475510935851662, -0.22856608285201216, -1.5865896983672048, -0.7066432791645979, -0.49383795273681413, 2.6952002886925004, -0.9233358256508797, 1.6946602421058574, 0.9407241105238227, 4.34658710185705, -0.40435670708565885, 0.5071596578801169, 3.055626256041154, -0.5391566587731093, 1.4496419497271835, -0.0037322496200181045, -2.016773962925695, 2.043429887236731, -0.21037710557193032, 1.1228989527091575, 2.793044724985724, 2.047545404053761, -0.4960077975138856, 0.25813075612199204, 1.7749190573908367, -0.5513550621945186, 2.32235238517938, -0.6183482179343177, -0.11829199691826253, -2.5910377539268103], [-0.43928164281133036, 2.1405051812660587, 0.9740594473319109, -2.495110548774314, 1.1503274749110917, 1.4695453110540149, 3.7334690344609585, 8.330726954924726, 0.15583661457385, -3.9679754819634927, 1.5935122767653336, -1.055147059934002, 1.119446869230927, -2.7546571223004004, -2.546925621034871, -2.5762800920331235, -3.97332901375528, 6.725163814671763, 5.263187273710258, -0.9652025488354933, -0.8575611258207914, -1.269849762970226, 0.9916023884280366, 2.435750536489113, -0.9609412147090831, 2.66184964368469, 1.3931242851086538, -3.7451310879560444, 0.9985511716771889, -0.7021925764805423], [-1.1892059093379939, 0.4977205942604774, -0.11102208677274107, 1.8350111802960902, -1.1250341606810024, 2.2390285139330506, -0.5072901620586933, -3.408475080260233, 1.3074717256806765, 1.1131824106449284, 0.12281421874310713, 4.971497341872593, 1.9000480864984555, -2.008207815508106, 0.11738227697487642, 0.0029927359718204304, -0.2873897272705717, 0.9427693882057498, 0.2918041841000438, 2.2072955498040323, 2.9201432941688354, 0.9047551628913434, 1.0244965350583533, 0.07243188250627212, 1.3212247112777584, 0.9876076802397007, 3.0450920787397373, 1.833825489972501, 0.045937274209896115, 0.11605974611979192], [-1.6268663288192815, -1.3732639394835413, -2.438013242890024, -1.057599590317886, -2.3442956747904335, 1.5481229453158045, -1.5983066638129966, 1.998213652645899, -0.7924523985384101, -2.715337272076374, 1.570511979528049, 0.5046702752872326, 0.7302867489123394, 0.40196510725045137, -1.6481873278523176, 1.2641072909209394, 0.0060413290772938985, -1.1052257649267976, 4.537463950824773, -1.0495683266502605, -1.6043324260526566, -0.06496112575024168, -0.6841220859646059, 0.997998475450658, 1.5323293702958531, 1.107755523216483, 2.445665447271609, 2.075331025010203, 0.1165865026212633, -0.46507816190279083], [0.09405537744972144, -0.17277881362929648, -0.9221596815309648, -1.271955277869562, -0.8058016063259739, 1.3728811144976574, -1.4247584785232612, 4.047527227102571, -2.267609293041973, -2.8093793211224805, -1.4259315658374732, 0.35567480349153097, 2.2631418381364896, -0.6255711097237957, -0.9797423454993568, -0.24260902829753755, -1.0804336057353012, 0.5519735717955015, 2.532105262833055, 0.7228576384158663, -1.4607011492192405, 2.7017766450341507, 1.0158958591485672, -1.392154208329526, 0.38134215858030546, -0.09666166232694914, -0.6692233790623779, 1.5522766667097185, -0.13162095044619562, -0.7455305178631942], [-3.462097456756019, 1.764450347128968, -0.644420659728762, -2.364961294234703, -0.6572855037653144, 1.353480456747924, 0.003153950027274106, -2.8554885514450294, 2.416202640981754, -7.653852086804943, -0.18766454310397643, -0.7824131763362512, 2.991341664792619, -3.2482852068694674, -0.5593932213681325, -0.8987656821917098, 6.140119263778385, -3.5910505740386367, 2.0028249934962803, -0.9828197490527621, -12.505972237065423, 4.018831068421221, -1.0307560189426181, -2.080971834933345, 2.2746618696427476, 2.6049741912726767, 1.2366351594264076, 0.24478311468375494, -1.177215891033891, -1.2200107240927671], [3.550968892890989, -0.06904301451304187, -0.42105545584929066, 3.0755755234364095, -0.1600144994469532, -1.8945069239321555, 0.8966115514462016, -3.262566162314911, 0.422572675659534, -1.7366981915628832, -2.3777848043437677, -2.8502605711411673, -1.9534089689226308, 0.43025260883979743, -2.649833011812832, -1.5030533423951493, 4.019395766610607, -2.829616834364499, -1.4508619638364413, -1.3968032015880647, -4.723850521495269, -1.7519673170142596, 1.173458712200758, 0.4679052874172756, -2.8824952728110307, 2.148988883423706, -1.1069415894530066, 1.8294129581894532, -1.3906708321684063, -0.38001122843976787], [-1.3263500825155117, -0.4514539204894698, 1.976624423131938, 1.9596348874222398, -4.645501122761996, 3.5649728262535176, -0.29183159397109043, -4.197934679141586, 0.46097334805409673, -1.322447418825559, 1.6030614626252266, 1.706471013768661, 0.8709877186967904, -1.7965170774967922, -1.240589862654604, -2.210076126141715, 0.5303158786867064, -1.7475809678061327, -2.6338016385479204, -1.0378444075357145, 1.4019543728295278, -5.48493216851636, 1.827956472671417, 0.7906234921877264, 0.5214200855746788, 0.07689382320118336, 1.408050338388539, 3.6417844397783967, -1.8455520546181188, 1.906780870458066], [1.3373684607915086, 0.36878688969398166, -0.33609646135970384, -3.4843888451303933, 1.5229245100548496, -4.038481514005982, 1.3277268728374285, 7.482230675362055, 0.018276864052011607, -0.5092472556166712, -1.9700734402311202, -1.3681417684103643, -1.2578401485729758, 1.4033451808666748, -1.3777774306439425, 2.0981629939682054, 0.9038906462059876, 3.6280199633269494, 4.189208854851195, -1.2452300540931516, 0.9277091796243502, 2.5810836408210074, 1.2791409790252768, -0.787082365492717, 0.5927736384469456, -1.8333349144728281, -0.5764739831888394, -3.2321343962736977, 2.132448165161012, -4.260881732883691], [2.2696755212413757, 0.18280622551479805, 0.6472300174903244, -0.6038801996605456, 3.4990201906408673, 0.682360981394118, -0.4231587275441536, 0.9117335797815158, -0.29660816170490634, -0.008774551748471145, -0.6155469252963174, -3.1757999962002326, -2.138083612097428, 1.569917722044822, 0.0541806375187287, 0.04011876480266526, 3.4569883142156708, -2.2281840087100266, -0.9255729015471278, -0.9905212147383967, -1.9385697156632622, 0.8307107429994464, -2.162505495343314, 0.08071705255569556, 0.5797197546038763, 2.860282294316658, -2.7846875120776855, -1.1043324864260033, 0.808886235653181, -0.9924453118468309], [2.4266670948558238, -0.9690877251576018, 2.787983072394802, -0.6223539235661859, 1.6888803413071363, -1.056888875279027, -0.9849386584551986, -3.242529590012916, -0.33549475978280974, -2.2564094186435666, -0.2710834959664909, -0.8479491067337027, -0.34218222897017375, 2.4596918522429716, 0.2930517876638077, -0.8343117190199159, 2.355272906159225, -1.4778943058591991, -0.3910192910392904, -0.16755408079714734, -8.10178769829103, -1.5765973445332804, -0.16233831778384739, -0.7482222555169806, -0.6238103635783361, 3.7132558772090403, 0.15108955165865834, -0.08451519005546519, 1.1528135039488407, 1.700717988070625], [-2.248097067274709, -0.7563243288649542, -1.0602838462329136, -1.0978180120061647, 1.009968753774364, -0.5938980443208051, 1.9769970041784772, 0.619728764060421, -0.39317003265621886, 8.082219383259043, 1.3644985984835627, 0.07461231533429995, 2.261664677550644, -0.06862353450232442, 0.4240388423052436, 1.8684154906331236, -3.610734133604698, 1.9297734916469114, -1.0973945060336325, 1.7403174236531522, 4.738875235529046, 1.131819186206364, -1.2110880494538099, -1.6236058310451942, 2.1902613323744986, 1.3697602562139575, -0.8832873806307941, -1.8227471610674533, 0.7527139649755701, 0.05465075723239975], [-1.4816139064844587, 0.2957317734081324, -2.0476370087521634, 1.1331084163376117, -2.626033965386179, 0.15259788192738005, 0.04316100038696742, -2.930525428918512, 2.3677732342400897, -0.6117004240017554, 1.1548001186371717, 1.8291932810586065, 0.5925127477067264, -1.7761566480776123, -0.9972112310061986, -0.690129229999969, -1.6532416745769831, -0.10844828034513798, -2.562190481301732, 2.494506620614837, 4.02841763063, -2.3549211908820387, 2.6103644499852106, 0.49615842335430566, -1.4562037080984016, 0.3252224955154814, 3.2841753906309235, 2.3608504428047703, -2.3162634924336647, 3.419379089969187], [0.10315047335882985, 0.3655598312688965, -2.2528535707754402, -1.8576320421941603, -1.9944350039958476, 1.0356587537258832, 0.6641538026111637, -5.690507939183474, 0.6282081831138943, -1.2675218603710394, 2.113177682846118, 1.397155798318585, 2.2991295886442256, 1.227959083356447, 1.1781609966656947, -0.39421325792155976, 1.8606544374171319, -10.38745468303997, -2.0406217588489985, -0.4127565706710228, -1.920207242898627, 0.5596257099898888, 2.433225338666034, 1.014568998568066, -1.4691902547776403, 7.615233335954725, 2.10500621872417, 1.5095380068405164, 2.1602469844889645, -1.3926262681052652], [1.3778417179768174, -0.22086492225989507, 0.8900977453740477, 0.6092480112404424, 2.103497508831132, 0.9894831026167681, 4.7115459783821905, -3.4480175366980412, 2.9070056804966424, 2.4934017873626715, 1.4787597651507007, -1.954105243907614, 0.648487979162953, -0.42065982869466656, 1.815283420481488, 0.5463461505128304, 0.813569770392808, -0.5404746141231637, -5.878213418699246, 0.7884836861676778, 1.5656184841027834, -0.3048267246003916, -1.1747723239323034, 0.22397476163157432, -1.278026927884012, 2.2549446925586807, 0.3806489546791459, -1.0577958003336074, -0.8004170682470092, 0.9612114254208166], [-3.4372786158171715, -2.182056438030517, -0.20071319184088895, 2.536739271819776, 0.39984167771727464, 2.506780304310701, -1.2489362174087177, 1.2658619842952934, 1.8840081711571837, -2.7120225493813335, -1.0381281120655819, -1.3440658143794681, 1.1316610189574319, -0.5000776329116059, -1.2508494097294953, 2.375810780304734, 0.28860128719305833, -2.142490197445051, 3.48716679920476, 2.8897329288983666, -3.5279976120784013, 1.3929605256366924, -0.6282265591354287, 1.911435605871038, -0.15136792666011853, 2.1509059425556063, 1.8608767194612297, 1.2223682202219572, -0.5701457732247094, -0.4337376643809869], [2.484471010661166, -0.9172424652354934, -0.16788688184307085, 0.3136219001093905, -2.509270917224588, 2.36210850101613, -1.4498966130946134, 0.05976217436059258, -1.0897256392888934, -5.857389295725954, -1.1942239953192524, -1.0631928120696796, -3.1938273434560935, -0.6637715016884508, -2.056155930791977, -1.2486289577704828, 2.476504697331111, -2.5967667942000707, 3.1196630436402693, -0.39560588328974833, -4.222129715462588, 0.5905340664783103, 0.05557100066157308, 0.7682380827295826, 1.1039785782121756, -0.0726404923988481, 0.2167873008929881, 0.6979567241997455, -0.22125161073047803, -1.0078717012727887], [-1.7746431816536896, 0.27156539834051197, 0.831140437701557, -0.41364147116916417, -0.30969920884036195, -1.2035555138880556, -3.0840218295256157, 1.527286520929116, -0.0175567763433416, -0.5788523499284166, -1.0855564624298752, 0.6084054285452656, -1.6081881868715986, -1.7430326971569727, 1.1294397206494988, 1.2632214256458827, 0.22968210156438923, 3.6330472849669233, 1.717071957979814, 0.7482909124810975, 2.3478309769513923, 1.4847696427286052, 3.098210314021992, -1.3425044867188631, -0.0006354643457113926, -3.7829527751439214, -0.40684757118857756, -0.7005645176879922, -1.2273723344167515, -2.428032681646747], [-3.046778164307151, 0.168168052188348, -1.0464911819541383, -0.16246530553033842, -0.21494711608956624, 1.4037205164382947, 0.3872838609713161, 0.6776584165694058, -0.13848299218406543, 2.322840201234205, 1.7013481969730362, 3.063689278586147, 0.2992226770272464, 0.7402237373103043, 0.5231303832993413, 4.221019183630955, -1.2080488465780157, 2.3633506259783275, 1.2029263635663998, 2.297108624795115, 5.122727362774188, -0.9021741221054597, 0.8084838611094219, 1.5855959461912872, 1.613467094898853, -3.5457227818558987, 2.1174846714930844, -0.20955076666009817, -0.05839591643518933, -1.6160189084280594]], [[1.2420002001270878, 2.1202703585820415, 0.540532254788636, 1.8096793951094576, 1.5134950836838796, 0.9065969420968205, 3.1765229275127758, 1.3185386781430541, 3.01227550694902, 1.1912789624613682, -2.713942444650977, 2.505263429769491, 0.3422206786048457, 2.049869427124117, 0.13236675790514996, 0.0009317720666958961, 2.768989780414785, -0.6911840757474027, -0.11823184916890109, -1.0006781795690258, 2.2084602755630454, 0.06294891984271088, -2.2074035896160638, 0.0033981695433231785, 0.9540261026848003, -2.082689021954587, 2.8664024519353095, -1.1286162281762226, 3.5074076388326314, 3.537584978416138, 0.6419497615979238, -0.9064343434216969, 4.659960174148432, -2.493994559657477, 1.086614127313101], [-0.45577362547023464, -2.8686280061644864, 4.0128609387156455, 0.9561328154386001, -1.4995712336789095, 0.1103066458051231, 0.29048551220756474, 3.0657881105457925, 1.5753814448485668, 2.2510779064418744, -2.548265327423834, 0.4242826505462937, -0.8749965967676132, 1.1013032815588581, 1.7974253786339978, 0.2783826756711686, -0.5165750478015334, 4.034946363627322, -2.908670768528756, 1.1413664647653285, 1.4446457684277798, 2.2083891874515365, -2.4868253359379424, -1.3046771901986978, 0.8646954872825552, 0.8354556433306863, 0.0037471871904743615, -0.10623089429238808, -1.5461839785770037, 1.006478263301275, -1.1895900912315476, -6.328175646449838, -2.6288123158950945, -0.7039353159593555, 0.7682696864351446], [1.6050622399611576, -5.6082345190593, 0.39444322445854546, -2.3018404692772085, 0.6324727360729498, 4.1975322393432934, -1.2525800810538346, 0.11703562763291807, -3.4174106101135004, 2.4547266466339277, 4.2557519486869015, -3.3555666482882236, -4.25908923908391, -1.634153996851675, 0.7618744477681971, -0.09854917279173465, 0.09717092590616352, 3.26407911635835, 2.150332706420047, -1.4684171774515964, -0.08736427415232995, -1.060963471567441, -3.9441913333435394, -3.7234134936087724, 0.4148094465733123, -0.36243787033809816, 2.128488601982433, -1.3848200186925645, -0.4680044979334031, -0.26060912969943795, 1.2701973749633404, -1.7169921878136447, -1.4513741722131988, 0.6096908426132165, -3.2335347768954814], [1.908937394730606, -6.786598049423876, 1.704116879755354, -0.7230790142355003, 0.39333330373848985, 0.34931256781450426, -1.9773742349501318, -0.2684242917591349, 2.172972356118971, -1.04347319936509, 1.301594813049375, -1.085984250538498, 1.5351013164771872, 1.720166214003253, 0.10861206535559369, 0.5207601516975048, 1.2313189529487745, -0.4669954349657241, -1.650016492354105, 3.0515328887885063, 1.7719673008532533, -1.0732295034944717, 1.5887851002959632, -0.9963177106359566, -1.087329429979563, 0.28823684193326315, 1.1293325045995888, 5.978626997258595, 3.5771904499818286, -2.867323169643587, 1.0780898740468845, 1.8364488007712205, 1.496183721809724, 3.5102864262284665, -5.748348522571698], [0.5138813638616632, 1.4235322230797143, -0.15454553894534337, 0.27335692779444065, -0.6764131410255938, 0.18179763389371165, 0.025678171024378416, -1.4270990731406337, -2.737908704781375, -0.7583341541399214, 4.298290833851799, -5.6308996579343304, 1.6243712441566682, -0.4208029057576087, -0.4038183013709378, -2.029568237162665, -0.026869436818526868, -4.387922450100731, 1.3457874720912926, 0.13622973954224038, -1.3465536173123287, 0.09246819070913168, -7.273162750075886, -3.9059208943376262, -0.398895745353459, -1.279314119584047, 0.7608230831868119, -1.0479206479235434, -3.4288805480672133, 0.049921688170112756, -3.7963796952071265, -0.8247723137797821, -0.8064548293226825, -0.2816396861141084, -3.3285450570894413], [1.2205909779617892, -3.1982722073053504, 1.6761646475166396, 1.0183873171298754, 0.9918331380400774, 1.8229972706544362, 1.2905512297413013, -1.0900611717024289, -1.2070550793630248, 2.9061111347441098, -0.9158405929637602, 3.695183307636957, 4.121702339695653, 2.2798846719756143, -1.7689334480391687, 1.449628896725708, 2.98285410171316, -1.9046828007160679, 2.03498327638076, -2.341717160247925, 1.4589033069411976, 6.387753824965771, -0.41071141476005074, 1.8619075857745049, -3.288776754192359, -0.28507138831968476, 4.865637551318552, -3.2469306179763433, -0.4297389108534659, -3.1140390065237264, -0.4639467828294844, -2.1028184156495033, 3.5316235028472085, 3.720471597194987, 0.07176742433869936], [-1.9681431269963299, 3.281623894704931, 1.6533096073501587, 1.913954780408018, 2.412227071502774, -1.1854896759161, 0.6349489845034724, 2.791704769705555, 2.233561856109317, 4.678853377825786, -1.2333873560430515, 0.7738713375838436, 0.6534128720693259, 2.80780552335783, 2.85118613353513, 1.2300467685550958, -2.638171667437575, -1.1365049457036742, 4.846477620164603, 3.0059372396326016, 0.43133530069361903, 2.221241486315142, 2.9162361965550936, 2.290312752477969, -0.014629744116466966, 0.012542815115768513, -0.10619707181233073, -2.402119930142093, 0.356998168796182, -2.5844550396295394, 0.9560036032069169, -0.10085063688587441, -4.776387801733975, -0.8178350413503025, 4.226835295521417], [-0.05155188355066465, -8.249201129367101, -5.113867719441623, 1.223917644361492, -0.04932908658884929, -3.70948565381849, -0.19576249497653492, -3.9034323130492514, -1.0688127021830784, -3.292552935005837, -0.44298160720070245, -1.6171661585479677, 2.4318693038559527, -2.5206033426256167, -1.8362926791736902, -0.9070471237921732, 1.9826015146865392, 7.009908556912148, 1.6574205060259464, -3.8526062699789154, 0.13831092465392925, -0.6492955053834276, 2.0618702002391345, -0.5203375899940225, -1.1237857062408747, 2.5367008926123362, -1.2707775956466862, 3.7654473060422307, -1.645103391197379, -0.41014527076918894, -0.9402308000371283, 3.919269093977948, 3.1915701413572912, 1.511862181149863, -2.1979602574901342], [-2.045610534265185, -2.166140503017482, -4.288025660945202, 0.29308032035347026, -0.9676854745802491, -0.5893743763787005, 0.6362692731119494, -4.411493421607096, -1.3821268268246207, 2.184714098456237, 1.16694551503675, -1.0357478140624539, 0.5828097980554879, -2.745654398068463, 4.489409723990384, -3.2489494936485004, 0.47641163700388756, -3.793854912246876, 1.5267815025714493, 2.475716443318828, -3.713630002727563, -0.005293410518603654, -2.50249429605476, 0.501594747856036, 1.8347865143247828, -1.160580434830501, 2.0685178700732667, -4.192455415871153, 2.940166214959863, 1.8250048946007724, -2.0610593531427086, -2.668920473431633, 2.0483809908951907, -4.287340637702986, 0.7930046043188137], [0.7730001333269005, -7.522204507805879, -2.42734157424802, -0.15603254677887948, 1.1572266926383001, -0.19991895806262786, -1.7100627695285373, -2.203576950600153, -1.3418465836686124, 0.32423837869333266, -3.299388839331455, -0.9477819031850377, -3.0713160097570817, -1.105595679197334, -0.44346186183809844, -0.36884004584474955, -1.4433366566934418, -0.7227240274613139, 0.19082811917352405, 0.44158539614651976, -0.66440374888022, 0.3414466822213126, 0.3144748799437376, 0.30192162322284954, 0.7984004656497448, -0.3705638028855841, -1.3842106835985182, 1.8087010320649954, -0.567538110006312, -1.1737992133818538, -1.137177426350218, 0.8098736851363256, -2.3245297759581702, 3.232573757756407, 1.0291424758964882], [4.3705997606850895, 0.5310683856444439, -1.907887416508612, -0.35303807314038954, 0.12824027799736, 1.8621804703027862, -0.7143392903069672, -2.898494530508498, 0.31565751878531656, -2.6834571907470584, 2.259454073389059, 0.9924588949645585, 1.7393282750291046, -3.2511748349696314, 0.5737323590443325, 0.9149322892990895, 0.8878966413633226, 0.8670128474041228, 2.472509721271481, -1.9722877255879943, 0.9983166244814948, 2.0773098829775067, -1.063777063547229, 4.591751344261523, 0.5798728379433967, 2.6819788841351127, 5.5946104508835734, -0.835626599500311, 7.283169140891229, 2.5346779742247727, 3.032397861892994, -0.5706632464680819, 6.0503234169553535, -0.39813061728992455, 6.14125629442339], [1.1160910047393011, 8.448197159404979, -2.3380905855435707, -3.2998598131351686, 2.824151664169346, 3.1201164999746327, -0.3938238051579985, 1.131919160552583, 0.913797469585826, 4.453477044143535, 3.1460785036333108, -1.8981184354010205, 1.6804104933846742, 0.36817883035369, 1.9826112899013273, -3.0431531859799823, 2.8512961825714145, 2.782810683919703, 2.9975448835797245, -0.6510643363670537, -1.4019593381425575, 0.9089332282386637, -0.2838865736740123, 2.697456770122082, 0.23681920018239502, -0.792258252181739, 1.3217332507596034, -1.9840357493916638, 2.3491687298313133, 4.159130686333985, 0.8727389624699751, 1.375850069250948, 6.190731740004342, 0.8347981464055382, 1.9238262626504796], [1.4163494235491518, 1.054963089214888, 4.211114467367726, -2.4417915126635283, 0.2493891764799374, 1.2033944416688969, -2.532280683471074, -2.891927775282763, -2.669934707383782, 0.6195066278703721, 2.4904807285822574, 0.9242442569600213, 4.067630679684325, 2.887951705863737, -2.581363287451305, 0.18069361496193634, 3.3109778182186482, 3.6323755311141723, -1.7888930529869185, -0.10457678299211197, 2.283309592610742, -2.7548470127017617, -3.8024724419490656, -7.33609892512924, 1.71466539082301, 0.3285689541873585, 0.27055999504363004, -0.43565881468015866, -2.2962071442084433, 1.5643533695093024, -0.8362386915068002, 3.9569719417887317, 2.1680546386168986, 2.963675348534558, -3.5769708265441733], [-1.0209902251925942, -0.8231455352093078, -4.4821592647450625, -4.244897040806004, -3.0059197082508624, -4.141666182347703, -2.881489978886139, -3.5727477328388915, 0.4408012551172924, -1.5031938369372022, -1.5539117017458206, -0.7143299070573785, -0.3852259191453982, -3.918362813191736, -1.7123631888501925, -1.7914522152917824, -1.080711225026702, -2.416888997225471, -1.730982356722475, -2.060584060725618, -0.03499801661081467, -0.27821942739271643, 0.8326901107017638, -0.4255277741957255, -0.11863561442428552, -1.0178046764145772, -1.9541518582113466, -1.885618572328736, -3.534316675091991, 0.09643127286405498, -2.375206501073353, -0.3826758617041776, -2.6479590074143884, 1.12737563894964, -0.5030121597094168], [-0.4684027285754944, 1.2296387948447078, -2.063377843682975, 0.8145954444363397, -2.932989012771778, -0.46535191754092914, 4.233438546430999, -2.4902758067969017, 0.663354316258982, -4.111899250271155, 1.419329162553916, 5.643430562066095, -0.6673710546496515, 0.2207037855735085, -2.4360683941309906, 4.601897129732376, 5.343394383816478, 0.3698883768816174, -6.389667059651412, 0.10863953648907637, 2.6339763561651677, 1.2642427060512713, 1.1956987649299264, -0.4462941569360941, -2.28769995296392, 0.0707115721453354, 1.9966200150406077, 1.3094211385908685, -3.5290151851808984, -3.5590333844951436, 0.32230743065068285, 2.697825152911013, 2.5719355713734555, 5.253867705660384, -6.4918666117016635], [-0.08939652602981668, -6.7497115786508575, -0.9234092452695735, 0.8861027302431591, 0.7220505152548012, -1.7443038942972455, 1.8421316314872391, 5.376207318968528, -0.2652430282871962, -0.3190631592026445, -1.368396783516733, 2.7550070146441312, -2.3443912815768817, -0.9938511019736517, 1.7580703493616066, 6.5920013124935775, -1.3269204825965029, 0.6252440082741937, -0.33335008922325243, 0.015555249328020933, 3.7743126010561037, 3.5341606828393624, 2.6004910293104326, 0.06348745296460218, 1.2047869494083792, 1.2017629354580013, 0.2879470541747104, 0.013843554259851218, 2.6199854728799, 0.6898904102266761, 2.1702849353048337, -2.6098606760209555, -1.2698690888603303, -1.4223047030090825, 3.4191148436082583], [-0.410767094287373, 1.5623369341813946, -1.4703870991343084, -1.3285986589366858, -0.18981111753145233, 1.9078804953052562, -0.632734881279319, 2.228538248714352, 0.335856077598796, 1.7983003505486448, 3.3236320156607846, -3.324514739972567, -5.137979447835147, -4.009165552108174, 2.1773093393949283, -0.03403131287821627, 3.3218974685831166, 2.4069197755784653, -0.9866276087378318, 3.134272520692074, 2.850040216892301, -1.391805247665878, -0.7038041290770866, -2.3543520820558284, 2.5684392433441694, 0.943064615309233, 0.2527289890256777, -0.7252975378911155, 2.389514668149072, -0.36645540721583464, -0.7784327756499029, -4.935181966805688, -3.6926947181048706, -2.189267694839037, 1.7947588554603595], [-0.08138722592847841, 2.4440679755253223, 0.05996818701163524, -1.7004627871346865, -0.12957614071452228, 0.18197771933040183, -0.2478609768026002, -0.7073851025064781, 1.7517655063241253, -0.009198020786075485, 1.5038745174646808, -1.0074927512002934, -2.4520840990524957, -9.520832889997358, 2.5411791863081072, 0.4542597054527526, -0.2587319668947916, 0.1828063239449015, -1.2726336610029991, 4.660713076032418, 0.7517751827661202, -0.045674344304047036, 1.3664602146164495, 0.22011331433448336, 2.2254935258219026, -1.9226529920914182, -0.07089773548244202, -0.4162755439497482, 3.478318252978437, 0.13084617785887712, 0.6953379729710121, -4.673703389066613, -0.230675524276998, -2.8793447068894835, 4.19314625306918], [1.4186554117131123, 2.5339737273892537, -6.187568931636515, 0.04055455435159447, -0.4511326555499859, 5.100517725578618, 0.3605506274056688, -6.851299992080859, 0.5440138279606445, 2.8942947573124402, 2.9495464324872027, 2.8859640496279027, -3.6990246185694504, 0.06896046515190044, 1.2211180087657605, 2.342434544490881, 3.234571348516448, -8.62059163917268, -1.613012741641742, 0.3604896206308723, -0.5962891119736671, 1.2170397282621763, -2.1334020412276984, -0.5857840509013531, -0.579084219437701, -1.030682043851119, 1.408663457693704, -2.8910216633686905, 0.7087476658428303, 0.357141327708907, 1.8520330819979482, 0.9732301987105169, -5.12626716053012, 1.0698871179040743, -0.7520829266328841], [-0.454512625894463, -0.6760234402581113, -3.196238815494802, 2.8273141249495883, -1.061474944124308, 2.9026387892138312, 0.22910214175325766, 5.651135233469075, -0.6967267672222663, -0.08710905443262867, -1.1289497012957401, 0.7672125394474766, 0.2756619729662484, 1.9087475517777102, 0.7617895605931251, 0.5247436419475024, 1.1728122772593896, 5.582055807384669, 1.124763760591759, 1.9750444956624242, 3.701927391683988, -1.9071106748620459, 4.744931206987822, 1.171822794590374, 0.09462822661306511, 1.5511444752793306, -2.162841739372299, 2.9986398522540645, -0.7882608774479393, -3.8449564581292477, 0.5958121512809299, 2.2719168907281815, 1.4896787700087473, 1.0262801983489203, -0.39387687376201963], [0.7472562959312324, -2.398392665725667, 5.072429881448857, 0.3141487386367926, -1.0862196305634775, 0.43573750868019284, 1.1028132127980328, -1.646936099238128, -0.4454089653446002, -1.6590657843627732, 5.546380555781693, 1.7210832661071196, 1.2960219248872513, 1.010083340975258, 1.999916674099668, 1.8494584485404315, 3.2870542882003213, -4.423487180968089, 0.012236935137367486, -2.6918294435916574, 0.49613543272675154, 0.5129072198837049, -0.5103079624771542, -2.055270810607015, -1.4136545483263288, -0.1384892921383668, 2.1599546825754614, -2.313583921141093, 0.24139888525876402, 0.4975138604550109, 2.763710410894691, -2.3019079524382535, -2.298273075292007, -3.0949001586167633, -0.31740772680340334], [2.997359801150364, -4.994688703350418, -2.181339768046372, -2.295968724339974, 1.480359763785237, 0.3794266387035679, -1.1354266837597051, 1.9781015159040962, 1.9142456362511366, -2.5957917156517194, -0.6508284864017535, -0.8659642642283911, 1.081884288846771, -2.1304472691862446, 0.6941789986176904, -0.7838264157943968, 0.017034152524215865, -3.1760997655977357, -1.4510435764198362, -1.024849116537266, 1.3682711573996023, -1.2806224326011344, -0.1701458165623613, 2.591973379860534, -0.16482048155887336, 0.1077390702084808, -0.02580474587448431, 3.720903842734101, 3.5647380997325113, -1.2115076876347848, -0.2720952724753062, -1.594340141080244, 1.8915219105743521, -0.3617712422570045, 0.052362840670122875], [-1.952823076756004, -0.8480512084264952, -0.7536339868833019, -3.1112628189421914, -0.7452383814084519, -3.450182786053117, -1.3645063841472123, -0.46706406564611636, -0.9204788157371029, -1.2959183563454415, 1.3736473482049356, -0.3676810210896523, 5.025090327127464, 1.4537411982071187, 0.5043322294455281, -1.4104139602151804, -2.8793266739615384, -6.66003653264636, 1.3283937546122162, 2.251615278194341, 1.3458694111829579, -0.2072778938584803, -1.574534077265032, -4.495570448235465, -0.32465614036620793, 0.11557579582419253, 2.7030475111104164, -1.5202437344881894, -2.0891506329963065, -1.62831464518066, -0.18920364710771473, -5.764798337610528, -0.958491751239149, 1.3664713624850844, 0.3787265400532673], [1.2712886787592237, 6.226680874803688, -3.5753998235734645, -5.437330047037442, -1.1591957682405682, 1.8394367007081038, -0.6827016124637002, -0.7013542883407522, 2.161373446349585, -1.721411330006551, -0.5122288787501829, 4.071893162999563, -1.6105297542667656, 0.3739032263300682, 1.9011726954646597, -1.6736449149621597, -2.0184559049129134, 1.8018593333722672, -2.344801801758465, -0.29578829796138756, 0.7057713703981547, -0.8303167896712834, -1.9229184748499655, -2.6599932574727987, -0.565403124429227, -1.5978022242575238, 2.0050377135183663, -2.0332818552511593, -0.09472835348763134, -4.6244367852100865, -0.7584273931555144, -2.4932652829480677, 1.6177894152236127, 5.147776438544475, -0.4438038199977373], [1.6258845936830708, 3.4971469883098107, 0.9255120131531757, -0.8215226475741231, 0.030425945225974506, 1.0999465882961026, 0.7613308403230871, 2.493764370691104, 5.94941473744199, 3.3510483623068126, 1.152684928598859, 0.00924822168263906, 3.7988806171586487, -0.21982647227679794, 1.425385089191782, -2.1486571397065486, 3.0400674650118447, 0.9551503903884161, 5.444237834254549, 1.7498149281065307, -1.6170493401935757, 0.06955116478233098, 2.1347893348927496, 0.06825652765663637, -0.11879780234504136, 0.23046995581910412, 2.400960433516774, 1.0947194979396933, -1.1880425744711454, 2.210447920139374, 1.6125770680888687, -0.3393628086029949, 1.5566635855022066, -1.1305968008507683, 0.0325913320609681], [0.4860926743864703, -3.494584383225074, 1.1111457970111076, 0.0008925353809215178, 0.28149192540828694, -1.5288765049652129, 0.403734345591196, 1.7909844473442467, -1.5506296407249163, -1.6529476322622139, 2.3148164911491276, 3.441352626713295, 2.7910857669816944, -4.323902804228134, 4.200015370696964, 2.118521215671647, -1.4357392268250528, 0.7323742031184685, 2.59763213231316, -2.72430180970285, -1.0204505290623076, 1.6324936084744017, 5.496818157557743, -2.36699021370019, -3.404363732506926, -4.727239310086268, 2.341057319277992, 1.3685873481327921, -2.6307553732271667, -2.561675179355113, 4.901734221436982, -2.47131263131265, 0.0718355109446631, 1.6270405117956115, 2.1893974924874495], [-1.1255183817141687, -1.1215876560214748, -0.8358808333647908, 0.048533932490670416, 0.423982086329147, 0.09044662565052297, 2.1486431211580688, 1.9095947137406573, 2.770587534941303, 1.4576175013711143, -1.4343741715110485, 0.12338012550441542, -5.166284788307125, 1.9054468800261206, 0.336438482242606, 2.0855575048862067, -1.641453402773193, -4.296603446454595, -2.5554646661464786, 3.5952530599951764, 1.9389571307156155, 0.9229999135595772, -0.6088704439630399, 2.003670357428592, 5.6250402241078765, 3.3616039735096983, -1.1730143173176384, 0.6785662152340097, -1.5096632001995824, 8.90271070035562, -0.06118836651804064, 1.7010808032859794, -1.9167906756137563, 2.9294803660677124, 0.55792157720879], [1.245207965765993, 1.1136915792594082, 2.03925744103897, 1.2786215182612757, -0.3592113307741081, 2.034708475149007, -0.5628838396364626, 1.3421281682865798, -0.11948443044733723, 1.2890125281055413, 2.036637953562554, -4.271353784325067, -0.03260373061518364, -2.6989209548450943, -0.5938001654341238, -0.8921450254858545, 1.247323236899198, 2.868797358913296, 2.727121166009423, -2.9025775637208726, -2.4082457476272996, 0.8772632305151321, -2.480837995635063, 0.7072681840342734, 0.1279107576114522, 1.2951535500443185, -3.535260295273367, -0.5262301896245165, 1.3138250784057737, 0.7144435986650916, -0.8387248898045777, 2.821083507561568, -0.14633795373909636, -3.8636429880434204, 2.697418399145852], [-1.3868039865394666, 1.0371198663448082, 1.2478401028266448, -3.031284678725861, -0.29540498182392144, 3.0821235134317124, -2.744098871272864, -0.8995287285421553, 2.503338361344463, 4.82170627037007, -2.543661434273086, 0.11621979855984713, -3.052642881895601, 1.9108751294745687, 0.05282700490718318, -4.2959100621990824, 0.539687422710156, 1.2877499514043316, -1.0748299409093685, -0.18114485143734282, -3.5876298113987004, -0.22824695474503393, -1.0216973802038314, 3.819894224340245, -0.8441609845058002, -0.7334451788552351, -1.6597597536495587, -3.3167857354042036, 5.766280261261124, 2.020763274116359, 0.4916330822333459, 0.5699736644719642, 3.1108192720787784, 1.3638605081351136, -0.4415526141046731], [2.0194044986722184, 0.264925954686834, -2.9588728515521248, -1.0159232428789031, 1.7921368179306436, 3.954206603712242, -1.5217940138012016, -0.46101672184880205, 3.3503273760757604, 2.6535366748266194, -0.0531932600904575, 1.911196382494325, 0.5506467650955834, -0.2363298887669997, 1.1311103076127302, -0.7263731745908572, 0.8798294262808082, 1.7142664942157215, 2.0228826894774126, 0.6830167251373965, -2.320848256987614, -0.07490221038286232, 1.2799189098717056, -1.034369601845531, -0.9599425230775464, 1.1485318496610233, -1.4142534220249885, 3.7342930636902865, -1.642398331644307, -0.41098315317356415, -0.6855455465677253, 2.0039354089451655, -1.560492506847925, 3.755690535411805, -0.232061589085222]]], "biases": [[[-1.0139530917154438], [0.01576862147733177], [0.04026368913658676], [0.6247589321810616], [-1.6415614490740837], [0.28464593256322807], [-0.025096058213569205], [0.9300101759822857], [0.9108396738540158], [1.8182165449745957], [1.589213060668615], [0.021808291238224125], [1.1775060742464363], [0.9322064755133199], [-1.7138681957153028], [-0.757781400994203], [-1.9852441966285908], [-1.482031778987911], [-0.14218153729017252], [-0.7201248187448898], [-1.5108605062648635], [-0.43367321381875557], [-0.8044450189616115], [-0.9164251913621896], [-0.3334595520101206], [-0.14726621078214122], [-1.3075945310171133], [0.40806569875690524], [-2.6305200918042613], [0.2529811063475802], [-0.4828073590882697], [1.9581161831893996], [-1.7448560923374115], [-0.2656557192324428], [0.9863362136700221]], [[0.13674617036570824], [0.3550127323108452], [-1.3045454889166648], [-0.7391229820176118], [1.0074410432693883], [0.32428274888243774], [-2.246806510481386], [-0.31011699802773207], [-0.6672906439606474], [-0.7155101471392028], [-0.09472516961854424], [-0.5742484220937816], [1.416448089018011], [-0.34208964686097226], [-0.09732553237765053], [1.3261662176441014], [-1.0491310421406543], [0.9785730821124025], [0.3595996090562583], [1.8293659630928791], [-0.6923954117893399], [2.110503464484308], [0.6110478349991648], [-0.28762727096896357], [0.5983384583790694], [-0.5415642433418353], [-0.9978547721431597], [-0.23676394099542872], [-0.6439621914172581], [0.11050617002795178]], [[-0.5513726706750247], [2.2171632681842617], [-1.2644872871874586], [-1.3570538026302454], [0.9315947882254847], [-1.2618833505388514], [1.4748315112089911], [-0.45305412324417293], [0.6023455594305752], [-0.2130720399227117], [-1.883692944110556], [0.5786990812929034], [-1.5066076180254688], [0.0911458220959], [0.3560746335413499], [-2.8431267143853876], [-0.4822171990964794], [-1.3684131344236568], [-2.2909624997928453], [-0.09622984062774424]], [[1.6380752060062047], [2.6896938208815713], [-0.21000801305437508], [0.1444400251759214], [0.6093569008296101], [0.2656919143806355], [0.908031887643481], [-0.03800509071817641], [-1.0004931099420589], [0.5367720910678265]], [[1.4794216006713956], [-1.1521227065230644], [-1.145830482094589], [0.5848280896334189], [-0.4735828136652046]], [[-0.0066825173599245995], [1.1105832860279634]], [[1.567393344057413], [0.3168441492211874], [0.4578481601993413], [-0.13138267061244066], [0.6114572938808235]], [[-1.3891627171554826], [-0.3273147913537128], [-1.6255083210881107], [-2.151807520580988], [-0.7957111503525257], [0.1267361369539151], [-0.8342569641665887], [-1.598458863586518], [-0.2844038863571783], [-1.3171639239442334]], [[1.3282091633535367], [-1.0833280341422062], [1.2414928182966591], [0.20370929618662784], [0.4195029407909958], [0.5357144015528963], [-0.4742320880701425], [0.6607555265763109], [-1.6729344880278396], [-0.1874821368238513], [-1.9940813902463361], [-0.021713673322357095], [-2.187956546519635], [-1.1240691548161093], [1.0502883171159634], [-1.2195541263826106], [0.7456161659214606], [-1.1055765915387343], [-3.4839578810109733], [0.4884132211814518]], [[-1.0881708544263275], [-0.08326350684188889], [-0.5894410932266755], [0.8263943701779285], [1.1530307294740678], [-0.9901964413324775], [0.43301040367493376], [-0.15264765602119215], [-1.5871674251648917], [0.36104116057099445], [0.9595346447632795], [0.15227988615600402], [1.5000119323553829], [-0.16707028866219634], [0.8918297252021643], [0.5821990236926853], [-1.041035059921381], [-1.0662157883166201], [-0.4276432801010313], [-1.6616203481420706], [0.27783420944851134], [0.8687661281655044], [-0.36943649178649235], [-0.26395189656473383], [0.8896067690366088], [0.8577594887171623], [0.5582271358000441], [-0.1448159834606656], [-1.6492970522325592], [1.250702935225748]]]}